1329 30
pagar -0.17033178 0.36755008 -0.15842351 -0.81678563 -0.027757986 1.0254301 0.020453075 0.48932466 0.5219399 0.60773885 -0.6766468 0.8862672 -0.944484 0.6922223 0.80485135 -0.6075804 0.038922656 1.1726822 0.46396843 0.50529367 -1.8712578 0.15220508 -1.1265213 1.4852697 -1.6587386 -0.82093406 -0.22553393 -0.27127495 0.4583099 -0.23219968
afiliacion -0.12671567 -0.3350511 -0.7553167 -0.02583017 -0.12758374 -0.21532322 -1.1816031 0.8763726 -0.15893127 0.055234496 -1.0154638 1.3480326 0.24141921 -0.021796586 -0.7168956 0.6002504 0.15394118 -0.050378133 0.59716016 0.76290315 -1.7042744 -0.14797273 0.5050027 0.9721835 0.36507416 0.096606776 -0.8372873 0.2749552 0.0068941135 0.014590721
cita -1.178677 -1.3646356 -0.092766374 -0.8040662 1.2135087 0.07878785 -0.54941595 0.35884696 0.5113743 0.11435333 -0.11519226 -1.5825804 1.0487633 0.19438553 0.5648101 0.0737627 -0.60958296 0.043192722 0.7365841 -1.0125929 -1.0562435 -0.37416187 0.76091856 -1.070706 0.4797508 -1.2271315 0.44008976 0.55625266 -0.036887497 0.3294653
oficina -0.33818465 0.21870336 -0.19901125 -0.060367864 -0.064918414 -0.10105691 0.027509175 0.27298716 -1.1653527 -0.753854 -0.5508651 0.98678166 0.60791075 0.48142418 -1.1854054 0.48651457 -0.6236685 -0.49361083 0.082350075 1.9341387 -0.90394545 -0.6433955 1.4831499 0.47015992 0.3212924 -1.0433812 -0.71689 0.34940046 0.40142167 0.6697738
informacion -0.37909797 0.06345592 -0.20875448 0.003808016 0.44135648 0.12981877 -0.12885758 0.5675323 0.21603653 -0.37884 -0.5910729 0.75322837 0.23406558 0.16758096 -1.0110592 0.07767482 -0.33105445 0.53342855 0.6288621 0.15886483 -0.7022139 -0.41568756 0.22151138 0.2623193 0.3222228 -0.323288 -0.7559866 -0.20020035 0.45896754 0.16968589
independiente -0.36098385 -0.46669087 -0.95873636 -0.15710287 -0.56297183 -0.08870689 -1.4185588 1.2687553 -0.052474733 0.49384162 -0.7745272 1.7227889 0.33136508 -0.072728254 -0.21559533 0.2319728 0.55765575 0.17671312 0.50382274 0.6658654 -1.9795448 -0.099059366 0.016303152 1.345416 -0.06243495 0.06314945 -0.64043665 0.30965918 -0.092826076 -0.61287737
afiliado_a -0.36070225 -0.56883144 -0.8340056 -0.1879215 -0.33298546 -0.04860481 -1.1915457 0.9254032 -0.15244603 0.14750138 -0.7430036 0.92145145 0.28744984 0.10764144 -0.23553047 0.7881337 0.41199192 0.053420488 0.48256928 0.4557636 -1.8595566 -0.3727444 0.2276777 0.80848074 0.2605318 0.09714539 -0.40892205 0.47705027 -0.10678154 0.19459109
incapacidad 0.16623965 0.6282597 -0.054837573 -0.013750543 1.2753714 1.4462123 0.5154509 0.9666212 -0.028818782 -1.1403491 -1.3898883 0.619736 -0.35239148 0.80595493 -1.0400442 -0.5991386 -0.7341404 0.8185982 0.296656 0.6073069 0.2755436 0.22631516 -0.1878666 1.5495486 -0.51479673 -0.8010448 -1.4328612 -1.1341885 1.5347338 1.0996068
virtual -0.43148053 0.0357075 0.0038444516 -0.35114187 0.20615585 0.0008189465 0.057873093 0.3269851 -1.074026 -0.5153011 -0.38409653 0.6325692 0.7338006 0.6111602 -0.80249095 0.5645714 -0.7295367 -0.56091356 0.07979109 1.6085085 -0.83348536 -0.70201945 1.6068093 0.16451316 0.3939599 -1.1619258 -0.31766972 0.31820968 0.25087047 0.4840063
telefono -0.31171504 -0.8607304 -0.35804042 -0.52427244 0.24541497 -0.3816726 -0.32972774 0.5444005 0.3040267 -0.043164406 -0.4825867 0.28731608 0.26680195 0.3474281 -0.26704222 0.22669256 -0.16550662 0.33316496 0.97430104 -0.18861075 -0.7474858 -0.3160381 0.47725272 -0.38234466 0.54381716 -0.61245936 -0.4139018 -0.32684684 0.17725796 0.028424906
proceso -0.5086417 0.03413957 -0.24224569 0.08969826 0.12347388 0.052364863 -0.43752405 0.77382636 -0.039190497 0.012291478 -0.4409518 0.6934062 0.17450327 -0.014211585 -0.8508057 0.1373711 -0.45527193 -0.060185835 0.19223867 0.73091066 -0.85564834 -0.2694504 0.47065765 0.9067276 0.18807529 -0.5826309 -0.7429871 0.13500878 0.5586024 0.3201029
mandaron -1.6969663 -0.7464045 0.592249 -0.23219256 0.7743015 0.29713693 0.22095151 0.6546647 0.42743185 -0.04250375 0.038541675 -1.3483539 0.6273366 -0.010339017 0.26306525 -0.29615912 -1.6805341 0.054950576 -0.34001184 -0.48487055 -0.5400748 -0.593296 0.31170246 -0.6639604 -0.014922894 -2.0363686 0.68827474 -0.11242863 0.5309287 -0.19345087
consulta -0.87398386 -0.32271373 -0.020172507 -0.52049667 0.7329317 0.6197685 -0.92727315 1.0448432 0.4156812 -0.5826181 -0.7942212 -1.152513 1.077853 0.012423405 0.1768431 0.34510735 -1.172693 0.19771233 -0.06104906 -0.75691056 -0.1878892 0.12609665 0.83117336 0.21812353 0.26420075 -0.91866887 0.02132348 -0.514403 0.44947585 0.21601711
problema -0.62444097 -0.41418013 -0.07433502 -0.34593707 0.23405944 0.23581928 -0.16352198 0.39641193 0.31212133 0.12420861 -0.2826131 0.06570881 0.24159662 0.30061385 0.22965582 0.108007826 -0.36464658 0.43058547 0.3492672 -0.069500946 -1.1277282 -0.08115964 -0.044482566 0.36674568 -0.2067917 -0.95627606 0.016007861 0.02461585 0.25929266 -0.4354965
formulario -0.50434816 0.29012287 -0.3972664 0.14344019 -0.089695625 0.03017411 -0.5896036 0.80580056 -0.11273369 -0.4311987 -0.9158013 1.2449872 0.22166434 0.04325745 -0.9266314 0.4523896 -0.078898855 -0.054976553 0.5078546 1.3037188 -1.1984795 0.008816495 0.89498025 1.0332425 0.22236805 -0.3775615 -1.0329297 0.3622774 0.03155636 0.4300292
pedir -0.93322486 -0.9904345 0.04516726 -0.55594516 0.9235858 -0.17341004 -0.44373566 0.34903017 0.38034207 -0.3385377 -0.46065456 -1.3441004 0.8644243 0.12097161 0.13450459 -0.0017192275 -1.0191501 -0.034615062 0.44802862 -0.573473 -0.6487207 -0.324487 0.72349274 -0.73477095 0.44794703 -1.2113929 0.38870427 0.44052905 0.07963592 0.26223862
enviar -0.23107418 0.004775062 -0.395823 0.16575582 0.93437266 0.6858811 0.49476278 0.49187616 0.20089002 -0.53720564 -0.61764747 0.7384857 0.33734295 0.47882012 -0.42657182 0.03773272 -0.4587467 0.6747677 0.20377237 0.2706508 -0.5652202 -0.07042242 0.35815564 0.20725937 0.19003633 -0.6166023 -0.6467031 -0.49364293 0.8460483 0.28464738
ciudad -0.57234836 -0.27165544 -0.5586979 -0.0090333475 0.16655646 -0.17601581 -0.39613974 0.43180388 0.23029959 -0.0021279578 -0.4118812 0.7673025 0.2803917 0.06625552 -0.35569537 0.29667804 -0.1955353 0.10353826 0.4686464 0.2111582 -1.2489488 -0.20774266 0.4215427 0.5431842 -0.03982791 -0.30564812 -0.5317247 0.1480015 0.39901882 0.0724162
momentico -0.5088534 -0.6043949 -0.291954 0.020950437 0.45416498 0.2742529 -0.45198965 0.7217279 0.35910666 0.2385805 -0.29893297 0.52564746 0.40340886 -0.1862023 -0.3071618 0.5543496 0.18623088 0.46089596 0.64512175 0.049656134 -1.0636898 -0.27494335 0.18036549 0.10580133 0.35750884 -0.4399252 -0.24915738 0.13677979 0.15703508 0.20072854
pasado -0.17577623 -0.0077430303 -0.29919755 -0.15224986 0.0771804 0.3816446 -0.33615038 0.5278266 0.30889875 0.044789053 -0.49339306 0.43811238 -0.27177435 0.627072 0.05539764 -0.22357708 -0.37645003 0.34954154 0.28102198 0.28082028 -0.929257 0.096161634 -0.060472626 0.7911484 -0.35669246 -1.0931888 -0.25443426 -0.2852534 0.53400016 0.14956522
volver -0.54946697 -0.53757197 -0.27441227 -0.21321125 0.37906006 0.18015294 -0.62552273 0.65984035 0.024950983 0.19743706 -0.6676096 0.3457459 0.13556209 0.24998796 -0.09284179 0.16723461 -0.12548713 0.059996184 0.23064958 0.2682649 -1.152323 0.03159416 -0.07350291 0.21756004 -0.103087164 -0.5594654 -0.11944983 0.14913721 0.23238169 -0.073280744
empleado -0.083349906 0.37253422 -0.54428625 0.08402877 0.15667222 -0.039100386 -0.42685357 0.7116427 -0.26376268 -0.40516222 -0.8152908 1.4141058 -0.20316418 0.13298023 -1.229548 0.39967027 -0.0703638 0.1386067 0.36105186 1.099137 -1.2577909 -0.33228263 0.522377 1.156961 0.13896118 -0.18916786 -1.002865 -0.09456952 0.65092343 0.3141589
hablar -0.24101463 -0.12249369 -0.42522302 0.04615946 0.23539934 0.27838683 -0.2937469 0.51028156 0.3717102 0.09020641 -0.41946003 0.7532346 0.19576801 0.3468338 -0.1599283 0.08275948 -0.22525875 0.6668588 0.50052905 0.17743261 -1.1412977 -0.24347723 0.0992974 0.33461654 0.108446635 -0.538938 -0.35240316 -0.11271807 0.3005401 0.12147897
usuario -0.16971664 -0.007866461 0.06482893 0.1342424 0.21540439 0.26464796 0.14836483 0.416298 -0.33054784 -0.48691842 -0.5264639 0.949517 0.46149457 0.77943414 -0.9672796 0.18783195 -0.81849086 0.0068761175 0.13996422 0.6352717 -0.7400971 -0.3281581 0.9690095 0.44413316 0.22327252 -0.8463133 -0.41663575 0.09849605 0.39156947 0.48217157
asesor -0.1257679 -0.3180002 -0.8053725 0.1284856 0.14540203 -0.17517807 -0.63147867 0.56691575 0.036812615 0.027323741 -0.70687413 1.2623152 0.09989475 0.025647776 -0.78001034 0.3213426 0.08517471 0.30777255 0.699269 0.4220549 -1.3261626 -0.24966478 0.64653057 0.4057572 0.64543015 -0.18752283 -0.79262745 0.111431405 0.15772383 0.2514671
llamar -0.63201714 -0.53426707 -0.23291053 -0.36976096 0.35674855 -0.0943698 -0.15770514 0.30182657 0.37370294 -0.23768887 -0.39723366 -0.35442114 0.1739681 0.45056045 0.12723655 -0.10032623 -0.5496899 0.29571953 0.610518 -0.26792836 -0.91938454 -0.1865112 0.023755867 -0.16347155 -0.1359166 -1.0070066 0.057259023 -0.02135623 0.2955193 -0.06331118
pueda -0.285095 -0.39832428 -0.08476923 0.07476569 0.2297191 -0.05664319 -0.24157241 0.4654428 0.09814314 -0.11466494 -0.5626798 0.3530726 0.2809013 0.19075671 -0.472514 0.100192994 -0.68446296 0.20644271 0.25737545 0.46429822 -1.0478312 -0.21583062 0.34672335 0.14814775 0.15828164 -0.6201265 -0.23085076 -0.086412966 0.33234364 -0.20286542
datos -0.34321398 -0.21622084 -0.4128805 -0.0033472884 0.3176579 0.000557041 -0.32077548 0.43708512 0.1060534 -0.005911571 -0.56649214 0.68082404 0.24516472 0.2511596 -0.609895 0.3679799 -0.19832025 0.18071976 0.581147 0.23199672 -0.9995566 -0.115397125 0.61989534 0.25267968 0.5018762 -0.51004773 -0.18879026 0.06879248 0.31639218 0.57135546
personas -0.31541643 -0.032307733 -0.41433263 -0.07869961 0.09037199 -0.0100020105 -0.25290373 0.6022714 0.04965447 -0.2859406 -0.655394 0.9405304 -0.09744471 0.33604607 -0.5329654 0.11521769 0.0056483895 0.49189645 0.60857135 0.07809171 -1.0554413 -0.41580835 0.37155452 0.50009197 0.34217712 -0.5296864 -0.9628825 -0.22693731 0.22747114 0.11316983
planilla -0.25900275 0.74519134 -0.54334414 -0.18501897 0.083753206 0.51248336 -0.03716251 0.52755785 -0.056196477 -0.025835143 -0.5752257 1.3137612 -0.83000964 0.6442894 0.17018084 -0.10383085 0.35961208 0.55118275 0.5747142 0.91861594 -1.6650561 0.3569267 -0.2034778 1.1602446 -0.9559676 -1.0754508 -0.56187373 -0.40457246 0.5305004 -0.10378056
venga -0.6262483 -0.16207251 -0.15477628 -0.3694846 0.48017204 0.033141784 -0.025588457 0.30457002 0.26754978 -0.07531029 -0.40566278 0.078355394 0.37782514 0.17034845 -0.10059136 -0.09650383 -0.45816785 0.29530844 0.5684245 0.004037441 -0.8017707 0.006330385 0.26491067 0.18669812 -0.08598727 -1.0938799 0.08784881 0.3040884 0.097419955 0.16152628
digame -0.76455706 -0.7325158 -0.21423736 -0.37781635 0.51318645 0.19256693 -0.15093477 0.37707913 0.6699167 0.24258053 -0.28402278 0.09472672 0.16242597 0.019273065 0.032689102 -0.09364018 -0.35027254 0.63926464 0.42931178 -0.36689252 -1.0395659 -0.42620137 0.26985502 -0.29324168 0.10363182 -0.65094006 0.24392055 0.18315089 0.2204024 -0.13584378
numeros -0.32590657 -0.6212878 -0.07208182 0.01459312 0.43500116 -0.40068462 -0.011687479 0.6439673 0.3435912 -0.20164888 -0.47703192 0.16306494 0.09344654 0.4510486 -0.4418898 -0.042438716 -0.5276146 0.39048764 0.28347662 0.015852572 -0.68380696 -0.055888757 0.37537348 -0.109756194 0.2083007 -0.9383856 -0.28671214 -0.38099867 0.3903445 -0.15741132
haciendo -0.28071716 -0.19201961 -0.36374804 -0.112624586 0.21986723 -0.026653882 -0.19704801 0.41841134 0.23963086 0.019089215 -0.32179984 0.44223833 0.101855285 0.4281464 -0.25898212 0.12905528 -0.4427002 0.24344085 0.49921814 0.48906404 -0.8540468 -0.094268 0.46791983 0.5228522 0.02995888 -0.83260286 -0.3286982 0.07699177 0.342532 0.07080666
podido -0.33677897 -0.48983228 -0.27247488 -0.12398881 0.2783169 -0.061960746 -0.31507394 0.5063777 -0.0743023 -0.43538162 -0.6182235 0.24132894 0.19425641 0.3288826 -0.5037162 0.5080433 -0.56468177 -0.01036352 0.14764194 0.3458719 -0.89992094 -0.24458416 0.46930182 0.053731486 0.20477362 -0.53310627 -0.5563359 0.023173952 0.3797659 0.187124
ayudar -0.193102 -0.048251063 -0.49024215 0.07819881 0.10632015 0.07369073 -0.3400231 0.3217582 0.21683028 -0.35206524 -0.62270427 0.7723677 -0.050143395 0.46753427 -0.4459843 0.025435386 -0.24243373 0.35865146 0.4128839 0.29668483 -1.2203342 0.033571698 0.08078956 0.42541203 0.025773376 -0.47093147 -0.51239604 -0.026354158 0.5711067 0.028920798
control -1.7486122 -0.6673137 0.446716 -0.8240453 1.2215731 0.8610232 -0.3484606 0.5339366 0.28264734 -0.04202072 -0.53055644 -1.9778886 0.77250236 -0.22346489 0.37241453 -0.0029831056 -1.6514907 0.025789412 0.27312446 -1.0601519 -0.35639724 -0.32052082 0.7432058 -0.6905606 0.12752539 -1.6039242 0.5150499 0.12088517 1.0136471 0.22240503
necesita -0.67933303 -0.3250438 -0.19762187 -0.021599833 0.24478164 0.14984821 -0.60499674 0.8018712 0.16562815 -0.024555929 -0.36148182 0.09926829 0.2447644 0.11662387 -0.23414063 -0.16870262 -0.36708075 0.3165744 0.32874578 -0.106537655 -0.7175256 -0.4508917 0.63477945 0.35171375 0.13450606 -0.65090156 -0.20191696 0.16618638 0.17356934 0.1296003
llevo -0.48138183 -0.57423836 -0.24468768 -0.24580008 0.22029823 -0.04403973 -0.41605058 0.41493183 0.10936055 -0.01846145 -0.50979924 -0.14537634 0.29150644 0.108176425 -0.012874014 0.13198593 -0.47252467 0.21462381 0.35348082 0.023585215 -0.961786 -0.13001151 0.33527923 0.23919751 0.08257763 -0.7112621 -0.23687328 -0.0067620906 0.23631884 -0.21162024
certificado -0.1506207 0.3697185 -0.09320389 0.06862689 0.19375345 0.26562715 -0.30718374 0.99300456 -0.118192464 0.1483292 -0.52446854 1.1446515 0.14891022 0.39287913 -0.77331895 0.25691712 -0.22668993 0.4408594 -0.055262096 0.99438864 -1.0643927 -0.21300247 0.016233478 0.8969525 0.17314926 -0.76968217 -0.5336211 -0.04543721 0.16346309 0.5811123
pagando -0.411559 -0.43556774 -0.7403157 -0.47092506 -0.22631758 0.5695242 -0.829172 0.51876163 0.1035088 0.46382532 -0.6489473 0.48683098 -0.097914465 0.22011587 0.3381071 0.31751102 0.17901906 0.6034641 0.5434076 0.20757271 -1.5888815 0.41686684 -0.26379794 1.0643822 -0.7495142 -0.19541194 -0.33650577 0.31562805 0.36868268 -0.2377038
celular -0.50266296 -0.49163947 -0.0131274555 -0.30246168 0.5097542 -0.12124983 -0.001383086 0.28406778 0.2242264 0.17607073 -0.49973285 0.31010914 0.07666201 0.26172677 -0.33662012 -0.020807961 -0.5084589 0.32859015 0.4384321 0.12593848 -0.7882253 -0.45527747 0.3557355 -0.14950441 0.18567574 -0.9919589 -0.06902699 0.1358896 0.14807862 0.24623714
tramite -0.48593894 -0.102000155 -0.43805134 -0.13902947 0.029409287 -0.120005354 -0.65370333 0.59070724 -0.16277811 0.05155387 -0.5738838 0.97023606 0.053116325 0.22856 -0.81265557 0.20752908 -0.252408 0.19889785 0.61944306 0.5363021 -1.2529564 -0.37944558 0.2225705 0.66620076 0.19373982 -0.2321285 -0.6882801 0.14351764 0.2954323 0.18058152
radicar -0.31649366 0.4810601 0.078532286 0.05930797 0.8239543 0.603032 0.24069953 0.5403059 -0.19522074 -0.61114883 -1.0979971 0.13841811 -0.052891854 0.35595495 -0.9634813 -0.28494787 -1.0713816 0.41325757 0.1174362 0.67356116 0.12882315 -0.377454 0.5576371 0.66236156 -0.059101958 -1.126317 -0.5870032 -0.4672017 1.0844992 0.6034788
seguir -0.48857975 -0.5667738 -0.58402735 -0.36440644 0.040147513 0.23544468 -0.77960855 0.6152123 0.01207088 0.14950904 -0.49495867 0.41738933 0.14127289 0.068749785 -0.023935178 0.2793493 0.21254335 0.4178014 0.67067707 0.15697554 -1.2520425 0.04488362 -0.040734645 0.65679955 -0.116484754 -0.3399641 -0.41171694 0.29995477 0.19424193 -0.32773826
contrasena -0.14397298 0.5406205 0.55531406 0.7466459 0.34846342 0.59557474 0.44275454 0.63440204 -0.95167536 -0.51635444 -0.7459063 1.7471895 0.5055954 1.2796774 -1.8407948 0.18837003 -1.0860623 -0.19797108 -0.4541441 1.668487 -0.7716191 -0.41693515 1.7699524 0.6758212 0.5065971 -1.6404587 -0.3923634 0.4607814 0.14244181 1.0557183
envio -0.45241365 -0.29292557 -0.18148386 -0.14158106 0.5924525 0.30107144 -0.12969622 0.61467564 0.08259902 -0.30232695 -0.5697677 0.114914514 0.34735906 0.17292269 -0.4268791 0.044938017 -0.788386 0.17789637 0.43612513 0.362096 -0.34175974 -0.38168347 0.51034224 0.27420813 0.24997704 -0.71579134 -0.49772546 -0.17018774 0.41792625 0.46906027
registrar -0.16435148 -0.07526652 -0.28614023 0.1885152 0.11772873 -0.047935452 -0.13166285 0.42997795 -0.28174472 -0.44036472 -0.73850185 1.1011784 0.33845156 0.5075759 -1.2935191 0.5857869 -0.39937612 -0.11844112 0.27875927 0.9964626 -1.1626652 -0.24527137 0.9095848 0.44361293 0.3922878 -0.41549993 -0.71494824 0.41659537 0.23060723 0.4748518
llega -0.5844917 -0.2262517 -0.13094431 -0.6956478 0.9639722 0.7068638 0.7058799 0.23027036 0.4874766 0.109009296 -0.19120488 0.29428494 0.044833273 0.5603757 -0.1502811 -0.29695687 -0.30741045 0.8472583 0.5826389 -0.14491591 -0.8551944 -0.1752596 -0.25225598 -0.11751361 -0.5049945 -1.0266081 0.3550805 -0.06345077 0.36029822 0.09369719
hacerlo -0.41065398 -0.28465542 -0.3081691 -0.1249655 0.28178707 -0.2057328 -0.57614535 0.43205643 -0.015990583 -0.015847033 -0.4884039 0.48651785 0.15023212 0.18959117 -0.5391459 0.30420947 -0.21211898 0.08030353 0.47206047 0.47530696 -1.0712829 -0.30468673 0.5122998 0.30486956 0.079949126 -0.5807 -0.40772524 0.047052033 0.16037577 0.24412559
examenes -1.6127964 -1.4018377 0.5225636 -0.42358613 0.55694234 0.57378024 -0.44421542 0.9815238 0.13753201 -0.08725263 -0.65234697 -1.7463707 0.3734788 0.02667467 0.34035975 -0.100534394 -2.1592188 0.13714719 -0.47357997 -0.8490556 -0.4872162 -0.48645142 0.41224864 -0.70224637 -0.02060395 -1.8874549 0.919424 -0.26707256 0.924734 0.043699577
registro -0.23642021 -0.21656583 -0.43252113 0.06036285 -0.13226679 0.122974046 -0.30221123 0.49358937 -0.11369512 -0.13164183 -0.5911081 1.1650926 0.57251537 0.48204142 -1.073215 0.6715248 -0.2350324 0.013508432 0.44207442 0.83677334 -1.1203464 -0.22631964 0.77789915 0.43912315 0.37965792 -0.2827724 -0.55751127 0.5371686 0.054534603 0.23268256
familiar -0.29506806 -0.55794364 -0.54894084 -0.058054477 0.10785647 0.0442934 -1.1174963 0.59054136 0.17917006 0.07672461 -1.116331 0.8740263 -0.04775726 -0.099649005 0.021333892 0.6105552 0.047041718 0.19204341 0.5417833 -0.0121721 -1.6212701 -0.27741936 -0.0950491 0.36921442 0.20932987 0.013886409 -0.4570497 0.42454195 0.011769874 0.040158007
mandar -0.5961906 0.14163804 -0.10468816 -0.15413666 1.0963339 0.5261785 -0.18367712 0.600984 0.08926337 -0.12054929 -0.45993632 -0.026988175 0.2456552 0.03648117 -0.4137733 0.0748271 -0.39405432 0.18717301 0.018425759 0.11290594 -0.5004799 0.15027748 0.33046874 0.124034904 0.26690054 -1.1146929 -0.094848506 0.08388225 0.58681446 0.2670799
dicho -0.31624022 -0.26570058 -0.59263337 -0.10954079 0.26558936 0.468568 -0.22150405 0.43094683 0.48170283 0.064699285 -0.43721503 0.33743256 -0.061451152 0.33494046 -0.05291102 0.095027335 -0.36781335 0.63255745 0.5648914 -0.03786583 -1.0448289 0.08397537 -0.024665201 0.48463994 -0.071648836 -0.62293524 -0.36239597 0.06068543 0.40444475 -0.038793672
social -0.17300549 0.12873614 -0.2750215 0.13398609 -0.007409278 0.3853575 -0.25866073 0.91111755 0.08133727 -0.22991721 -0.7759426 1.2328578 0.12425679 0.4636662 -0.5329941 0.17169239 0.12503311 0.41681972 0.16849536 0.84589744 -1.3152483 -0.2355615 0.28171244 1.0981408 -0.09013972 -0.2691463 -0.8168661 -0.005750347 0.27546945 0.34469908
averiguar -0.60207886 -0.06831587 -0.31467497 -0.052249826 0.46419856 0.30478597 -0.36874756 0.6002086 -0.0064199166 -0.2735366 -0.51714677 0.04746534 0.07561341 0.1876186 -0.080687396 0.15717202 -0.31859 0.20197819 0.20378214 -0.028811589 -1.0364708 -0.2778696 -0.08543637 0.24655253 -0.11644592 -0.6604415 -0.23905961 0.156171 0.40081483 0.1622756
visto -0.47232315 -0.1737929 -0.15242997 -0.035569206 0.60208935 -0.031795215 -0.08449986 0.39625084 0.38162902 -0.14733897 -0.36118078 0.35981014 0.35126287 0.04914323 -0.32826167 -0.008311675 -0.37878203 0.11733378 0.42846438 0.09943471 -1.1133525 -0.14525047 0.2898496 0.27900052 0.02597329 -0.63136184 -0.59003425 -0.08593035 0.33621022 0.07036778
comunicar -0.2924564 -0.3045682 -0.37900856 0.1691367 0.37479237 -0.15072942 -0.11437324 0.5176936 0.11720635 -0.24742627 -0.58739763 0.74802727 0.015807789 0.57617563 -0.5910002 0.06284531 -0.35041976 0.36003724 0.3911496 0.2744365 -0.94636273 -0.16450526 0.073635995 0.15978305 -0.047803875 -0.5497308 -0.46516138 -0.3720344 0.56592846 0.07126461
hicieron -0.58686644 -0.13450502 0.056712817 -0.23334864 0.31006685 0.3333927 -0.2936137 0.3458851 0.13716592 -0.1469104 -0.50800097 0.01187862 -0.04541729 0.23639506 -0.2773624 -0.44692406 -1.0365397 0.45451134 0.34109494 -0.010443873 -0.8161113 -0.29734376 -0.07596929 0.29616976 -0.42711255 -0.7580407 -0.05194709 -0.1651695 0.5264124 -0.0037251683
cotizante -0.39718404 -0.698429 -0.66184366 -0.23486467 0.004993949 0.1385639 -1.0776311 0.7237318 -0.0065015983 0.19991408 -0.78527313 0.9648002 0.28871316 0.10470239 0.0109831 0.6289019 0.47610232 0.2581037 0.7144062 0.32760832 -1.6385893 0.1114968 0.15939027 0.68220305 0.039267138 -0.015497172 -0.6479341 0.48954678 -0.16158107 0.008925334
ejemplo -0.42452314 -0.08278217 0.28932762 -0.3572815 0.4330882 0.13159133 -0.065872654 0.4782149 0.17264399 -0.03625914 -0.4926295 0.0675059 0.13297497 0.29059538 -0.35171056 -0.15449497 -0.5092752 0.13909942 0.5485661 0.544757 -1.0491432 -0.067550115 0.053731486 0.32282156 -0.322761 -0.82152927 -0.040007703 0.23406838 0.23939104 -0.016089324
envie -0.28061742 0.19578907 -0.27753493 -0.09495032 0.9831962 0.5993649 0.42812106 0.28396264 0.40143302 -0.23371492 -0.5020163 0.5375202 0.10010924 0.5730807 -0.2727819 -0.25423622 -0.5562038 0.5169536 0.06365689 0.33493334 -0.40639326 0.15688573 0.26413372 0.33951658 -0.09882933 -1.0525972 -0.43486935 -0.49069697 0.94218016 0.5921606
esposa -0.56623065 -0.6065878 -0.31308016 -0.08159539 0.34337315 0.071521685 -0.72366506 0.599456 0.115755126 -0.08244767 -0.6763608 0.2679123 0.1911132 0.09924218 -0.11470464 0.3741965 -0.42434716 0.034499276 0.34003815 -0.030655151 -1.1735381 -0.25660428 0.04131071 0.16248141 -0.0022167123 -0.37790632 -0.04624707 0.37358934 0.09669057 -0.09225393
contrato -0.6230896 -0.4266463 -0.5970143 -0.12273673 -0.29617238 0.19394363 -0.9872667 1.3614341 0.30921406 0.7093149 -0.55578995 1.1918678 0.19468784 0.06856051 0.056656133 0.15082975 0.5033137 0.5267919 0.312538 0.2620076 -1.5672951 -0.11573605 0.0137348045 0.93472254 0.27656826 -0.06648276 -0.089670666 0.257496 0.07981923 -0.109411925
electronico -0.019419821 0.10356974 -0.12336152 0.029118255 0.28464025 0.2538945 -0.10507101 0.6515611 0.083578736 -0.36976457 -0.91814643 0.89807445 0.061940953 0.41122356 -0.8663295 0.21291405 -0.33586556 0.30473104 0.28795078 0.85241914 -0.825603 -0.21669549 0.4003468 0.47755086 0.11460877 -0.73985463 -0.5619659 0.0021925815 0.40494546 0.48843056
pendiente -0.66443753 -0.34096453 -0.02765081 -0.19835413 0.59330875 0.3669942 -0.193182 0.52180165 0.30397254 -0.19590068 -0.41217762 -0.56758094 0.21091166 0.20954795 0.20816071 -0.10893554 -0.7510364 0.4186316 0.16804698 0.009479968 -0.795625 -0.13707793 -0.15893838 -0.01124069 -0.3279149 -0.98084915 0.008595065 -0.2253821 0.5741504 0.055509616
medicamento -1.5263184 -0.4193886 0.9909412 -0.3813077 1.1619438 -0.18698817 0.45005825 0.82464045 0.12648211 0.12182402 -0.5126956 -1.2852658 0.2292282 -0.38243452 -0.19229123 -0.8274462 -2.1595547 -0.34952235 -0.26067635 0.400083 -0.81034297 -0.6874282 0.11834788 -0.3510173 -0.3292091 -2.1547246 1.156874 0.19590208 0.54191655 -0.44847345
opcion -0.4863467 -0.23243874 -0.23611861 0.025234122 0.35053307 -0.11429604 -0.053676885 0.44199035 -0.11436221 -0.4457381 -0.5570995 0.532023 0.27998236 0.504297 -0.40365177 0.049686432 -0.51691455 0.19963722 0.15158689 0.58335346 -0.7138154 -0.41838554 0.6379449 0.040057164 0.11860054 -0.783647 -0.37665355 0.11463341 0.45005313 0.23449275
quieres -0.49157014 -0.25489882 -0.1334175 -0.19862203 0.21714321 0.04368159 -0.09797739 0.41561496 0.2535928 0.026946653 -0.41611987 0.38976726 0.025570136 0.19751704 -0.3973266 0.18678659 -0.37027064 0.44749036 0.59606117 0.2622223 -0.8482516 -0.2909299 0.30971485 0.23641525 0.028508618 -0.7796995 -0.4454795 0.09433378 0.11350801 0.024765914
entidad -0.47888774 -0.33889624 -0.19565518 -0.2074988 0.2457184 0.3351652 -0.5722109 0.5422245 0.31339672 0.05405686 -0.4586843 0.062149834 0.12311749 0.22884344 -0.24250095 0.09254756 -0.6010844 0.17576973 0.19766515 -0.0649755 -1.0033486 -0.22904712 0.22268699 0.19255762 0.089976735 -0.40223292 -0.15299064 -0.1528019 0.73350817 0.1947419
internet -0.4145593 -0.12433779 -0.1353309 0.020819895 0.18909217 -0.08312659 -0.25617388 0.5731443 0.04277525 -0.19959563 -0.62436 0.49007246 0.42817944 0.14655447 -0.76752245 0.19305286 -0.5384771 0.12633279 0.23712641 0.5566183 -0.65366805 -0.11851611 0.6433948 0.25639337 0.23060721 -0.8608852 -0.3920585 0.07742845 0.20251717 0.18371135
diciendo -0.6069848 -0.60664946 -0.4795031 -0.33460125 0.4762006 0.14813206 -0.19865994 0.25454262 0.48957762 0.034739655 -0.3695947 0.09698634 -0.130756 0.3386555 0.0127593605 0.0587017 -0.37538418 0.44269925 0.58451194 -0.30129784 -0.95114267 0.10657144 -0.13424367 0.13122654 0.16196822 -0.85906917 -0.13401991 -0.12680699 0.4625993 0.13706209
escucho -0.27442545 -0.35504186 -0.12165572 -0.21958968 0.31433615 0.44789144 -0.6516958 0.694007 0.61921513 0.28722787 -0.6926011 0.27879342 0.07935615 -0.32233915 -0.14507204 0.297428 -0.101314336 0.3399617 0.50463593 -0.02519835 -1.0562379 -0.24904017 -0.033907074 0.0945518 0.28647575 -0.66539663 -0.062090233 -0.04770944 0.2602417 0.013627952
llevar -0.66524965 -0.5525174 -0.13874647 -0.3887156 0.47216332 0.32497716 -0.32809228 0.57574296 0.36767372 0.05834774 -0.29890835 -0.20049074 0.62245893 0.029359108 0.034858666 -0.025635548 -0.6457427 0.29375687 0.24647616 -0.22057931 -0.9884609 -0.14698307 0.3091736 0.06561131 0.033918936 -0.53177655 0.106787674 -0.046146765 0.23038384 -0.06646627
trabajador -0.25776988 0.21011293 -0.7417218 0.03164845 0.26447746 0.0947846 -0.33987325 0.5790709 0.004186391 -0.3485931 -0.7650996 1.3061941 0.24765404 0.31226963 -1.0516579 0.4872919 -0.026040481 0.05502791 0.6017327 0.91573954 -0.89349884 -0.2508543 0.68858117 1.1482948 0.20561658 -0.22374669 -1.1159999 -0.10454723 0.38002282 0.72160256
mirar -0.47461575 -0.3509962 -0.30741036 -0.29507607 0.37187612 0.37348545 -0.4155496 0.5273188 0.20722678 0.21224043 -0.29954505 0.14353827 0.16135792 0.36227447 -0.18583368 0.2663624 -0.31877813 0.28690508 0.4188454 0.15974623 -0.9764574 -0.20088723 -0.07851622 0.32476914 -0.110929914 -0.6973692 -0.034268424 0.04187566 0.4012785 -0.027752489
ingresar -0.35603788 0.33540758 0.026451414 0.3633443 0.26101997 0.22154124 -0.009577986 0.69516647 -0.45169055 -0.42966685 -0.57502234 1.1810187 0.34296972 0.8751618 -1.1969141 -0.037215114 -0.6980578 0.02633355 -0.27085757 0.7541103 -0.5402485 -0.409827 1.0455061 0.3630735 0.2848801 -1.0365039 -0.64034206 -0.02372754 0.61853427 0.68914294
medicamentos -1.1987088 -0.55495 1.0567003 -0.24053882 1.0361717 -0.08219961 0.7341365 0.7574548 -0.036501456 -0.08279293 -0.485341 -0.9778421 0.28954515 -0.0017087514 -0.6707548 -0.7134279 -2.1773727 -0.8458349 -0.13391566 0.42184645 -0.85446954 -0.48666924 0.3807347 -0.34494254 -0.4195258 -2.2848754 1.3640977 0.56686574 0.709589 -0.2177508
comunicarme -0.074755386 -0.36178026 -0.45249072 0.10445092 0.20528322 -0.01341738 -0.029015496 0.37313256 0.24974702 -0.24965176 -0.68215835 0.9508443 -0.3467564 0.58901256 -0.49332473 0.0054516294 -0.103088275 0.60291004 0.40264422 0.3387469 -1.0137168 0.08452451 -0.0960936 0.44172382 -0.08194854 -0.8517637 -0.7341305 -0.3564736 0.4996755 -0.03717668
cartera 0.07614052 0.3247005 -0.7811374 0.25475368 0.68477577 0.34830782 0.6930394 0.15587868 0.37255496 -0.5328891 -0.62997645 1.4241556 -0.5494759 1.070949 -0.32185447 -0.34772402 0.0024902641 1.0809218 0.39704812 0.26695386 -1.1050706 0.29605785 -0.37649384 0.48596525 -0.22570615 -1.1573999 -0.8362952 -0.89808697 0.7918233 0.33192635
contestan -0.10756885 -0.57147384 -0.35445666 0.03787339 0.45371664 -0.24974556 0.45089757 0.23331954 0.47917864 -0.038777713 -0.63937306 0.8348541 -0.32226753 0.9745907 -0.41631827 -0.4661158 -0.06179648 0.62995756 0.473718 0.050684154 -0.7674024 0.3949241 -0.0641445 0.12477517 -0.078717306 -1.4023215 -0.45506042 -0.59438723 0.8028296 0.083487175
unico -0.43239313 -0.30863923 -0.13640678 0.022233918 0.26506957 -0.051134832 0.1277064 0.21978681 0.23586951 -0.3834821 -0.46982726 0.2740255 0.107261 0.28551874 -0.58426166 -0.100906566 -0.5630847 0.5779969 0.3930728 0.40033168 -0.6868585 -0.17502633 0.31425685 0.24883597 -0.27023885 -0.74838513 -0.7075619 -0.37399992 0.56141233 -0.26735684
mandan -0.9987318 -0.7264682 0.18283229 -0.3731999 0.86637634 -0.070161186 0.06129544 0.2831537 0.3717639 0.04531863 -0.07629402 -0.934517 0.48302653 0.12145031 0.02607456 -0.018310849 -1.0903438 -0.31732517 0.13130714 0.013986742 -0.8245085 -0.28392252 0.63818085 -0.56526214 0.23071535 -1.583529 0.6016722 0.23106557 0.39958417 -0.02320222
pension -0.43604726 -0.46775195 -0.5892636 -0.6669347 0.36337334 0.44924244 -0.9056304 0.6948037 0.17971447 0.14475028 -0.5428183 0.17242514 0.030501168 0.447297 0.26745728 0.21516055 0.04444985 0.4524167 0.5436959 0.22306384 -1.2376889 0.6076945 -0.16840914 1.2431785 -0.81206304 -0.04886978 -0.50439215 0.1599023 0.57276356 -0.21269299
comun -0.5008381 -0.35871542 -0.1980398 -0.16052414 0.37722015 0.067848116 -0.23913515 0.5030237 0.36571658 0.05837453 -0.50131595 0.32848567 0.13761227 0.032096922 -0.1673451 0.041854672 -0.44736987 0.27995813 0.3821117 0.095338106 -1.0370595 -0.023545148 -0.069742486 0.27975863 -0.18788289 -0.8825413 -0.06908173 -0.018163377 0.26518017 -0.34362894
correos 0.002052442 0.2851866 -0.33695138 -0.20525548 0.90204895 0.46040857 0.652312 0.08050779 0.26923135 -0.26202622 -0.6278283 0.6938728 -0.29454082 1.0772086 -0.24520157 -0.32285777 -0.2586644 0.71139085 0.29024905 0.39184022 -0.640299 -0.045558933 0.14599349 0.22278962 0.0026776302 -1.4848883 -0.19699742 -0.57244617 0.7390791 0.8453893
pregunto -0.5114069 -0.033052526 -0.34479502 0.0062852507 0.21384913 -0.06411699 -0.2969176 0.39265034 0.08679725 0.10036832 -0.35870883 0.59437066 0.31443155 0.197748 -0.5755244 -0.009017178 -0.29722115 0.2661872 0.6569782 0.6196055 -1.1294541 -0.347891 0.38820353 0.5709963 -0.11372284 -0.45661956 -0.44656485 0.2203215 0.12963545 0.0035374626
acceso -0.3562533 -0.36099076 -0.35911086 0.026494784 0.060448457 -0.31502926 -0.24768607 0.4439422 -0.13332966 -0.109660104 -0.6954968 0.827579 -0.01282382 0.21574049 -0.68682337 0.27275196 -0.37979013 0.17384793 0.5412732 0.4919292 -1.0017532 -0.46752265 0.5064992 0.3288161 0.5015867 -0.558459 -0.5104695 0.10549635 0.35381204 -0.0017610989
realizar -0.4660067 -0.15902852 -0.4005935 0.24963903 0.0011503833 -0.102596246 -0.4306634 0.5239071 -0.0006779642 -5.09128e-05 -0.61664486 1.1257578 0.20351505 0.034684185 -0.8932658 0.36317208 -0.24818756 0.062123287 0.5367156 0.53339857 -1.1902941 -0.30913544 0.6278894 0.5233945 0.17460808 -0.13239914 -0.8318517 0.18533039 0.18185687 -0.06368286
comunico -0.28065166 -0.37752008 -0.33766973 -0.23187459 0.14481173 0.09301536 -0.18661827 0.5970504 0.17708865 -0.19090424 -0.6344772 0.39106107 0.18126859 0.27103737 -0.3365305 -0.015692357 -0.108249694 0.41630927 0.75782984 0.11654253 -1.0064994 0.028618185 0.23423986 0.5001957 -0.013510719 -0.5037907 -0.5804622 -0.03530082 0.33411646 0.05878164
normal -0.543232 -0.70276356 -0.25538346 -0.46810755 0.15171112 0.06597958 -0.49073696 0.30759174 0.23037344 0.20903377 -0.36857358 0.20781468 0.26214138 0.15334103 0.13987078 0.18640521 -0.035714347 0.3597716 0.49297312 -0.12483153 -1.3377329 -0.14230299 0.24738054 0.39841494 -0.022007523 -0.6568526 -0.16962688 0.51303864 -0.06386982 -0.30599812
llamara -0.591234 -0.40369332 -0.15243909 -0.24218728 0.33037367 -0.11481172 -0.28485623 0.3613623 0.3545273 -0.21903343 -0.34396613 -0.1891812 0.43424445 0.17301972 -0.18261954 -0.008503586 -0.63150615 0.1451062 0.6596073 0.11964944 -0.9782009 -0.31511185 0.15701133 0.029281078 0.07124847 -0.60916924 -0.19253215 0.052250274 0.24211809 -0.005140212
trabajando -0.36611477 -0.38259757 -0.70920444 -0.2875645 -0.12135267 0.13766591 -0.729045 0.5191682 0.1936511 -0.01578377 -0.7131536 0.703528 -0.13828495 0.39742926 -0.105235435 0.30711716 0.06334863 0.34355724 0.2756807 0.20874178 -1.5108812 0.14667854 -0.055747285 0.8172032 -0.37663245 -0.29385573 -0.42031106 0.18068041 0.5531956 -0.12309815
verificar -0.40034765 0.18127997 0.010605398 0.043151855 0.38475233 0.14179063 -0.114715196 0.7768958 -0.12605043 -0.44646955 -0.6958759 0.6279764 0.14920634 0.46717793 -0.619812 -0.0027845677 -0.4412371 0.1905655 0.104201905 0.62306875 -0.66637015 -0.31146112 0.39276618 0.5419192 0.1777956 -0.6816007 -0.61059284 -0.20519832 0.5007669 0.47765556
empleador -0.3704327 0.6319078 -0.39660126 0.22789988 0.2061936 0.09003085 -0.21882457 0.6316858 -0.45024833 -0.5673494 -0.6111988 1.2321172 -0.23607688 0.09501191 -1.3180094 0.16507098 -0.28545067 0.011382022 0.33372152 1.2120304 -1.0268018 -0.4146007 0.5860615 1.2119565 -0.017205464 -0.64730763 -1.137397 -0.028194422 0.63783956 0.6234362
llaman -0.52030504 -0.3337058 -0.13627127 -0.20714222 0.58786285 0.09935484 0.08427399 0.21999958 0.3342422 -0.03289886 -0.39740852 -0.1540395 0.17125559 0.3682413 -0.13743998 -0.16220039 -0.90412986 0.19252796 0.3415089 -0.020822665 -0.7075616 -0.21533045 0.12989478 -0.27047685 -0.04737022 -1.193643 0.104503766 0.11112468 0.5121307 0.057668667
solicitarr -0.3823507 -0.47743285 -0.4371662 -0.03582357 0.39241657 0.19465755 -0.565103 0.40718827 0.17248908 -0.26712757 -0.6770448 0.2971884 0.52382535 0.087097466 -0.36565334 0.45513168 -0.29270315 0.1685504 0.533017 0.11178461 -1.0912588 -0.14026861 0.43083203 0.15797438 0.2058463 -0.185826 -0.34190324 0.15452236 0.39636114 0.34221348
atienden -0.69563323 -0.8821251 -0.58533657 -0.46839708 0.55699843 0.36373368 -0.7727575 0.7332632 0.50145435 0.32831505 -0.24559228 -0.35299608 0.6703681 0.23368543 0.66421217 0.10326912 0.07511719 0.3455833 0.47710136 -0.69037586 -1.15658 -0.058120023 0.6158002 -0.12330459 0.45389703 -0.5403853 0.017427605 0.2120264 -0.15356101 0.26340583
complementario -0.45927295 0.11402078 -0.6368662 -0.17177948 0.4471585 0.38966864 -0.37237576 0.21607552 0.3308103 0.007983651 -0.8210553 0.5542013 -0.31880936 0.37208465 0.32668367 -0.06469518 -0.21932684 0.33679193 0.3972766 -0.20197926 -1.3530598 -0.20274599 -0.08550329 0.48409206 -0.1448851 -0.70845485 -0.40932778 0.16307983 0.34309384 0.081094116
facil -0.5502725 -0.33664396 -0.21098076 -0.18431929 0.49767345 -0.05596741 -0.3784506 0.4924877 0.3757033 0.2609028 -0.23134902 0.1333813 0.32567868 0.009187184 -0.19511504 0.29576012 -0.6019958 0.24743833 0.542186 -0.080394566 -1.1158661 -0.16288985 0.3929528 0.18972662 0.05513757 -0.40931204 -0.122246124 0.10337579 0.35344228 -0.08884888
sacar -0.59704375 -0.80992144 -0.4141256 -0.5642272 0.4634994 0.30219737 -0.46713966 0.16959019 0.14240402 0.038267303 -0.52222365 -0.28938076 0.11878775 0.14336231 0.3314314 0.4472476 0.029127965 0.3244366 0.62150985 -0.43816504 -1.2531484 -0.037656907 0.12321447 -0.24799418 -0.14055336 -0.83080584 0.07771305 0.2421614 0.19507718 0.04673729
historia -1.0333536 -0.052037332 0.65586925 -0.2865702 1.28061 0.3030429 0.1979945 1.0186849 0.02342688 -1.0320506 -0.78257865 -1.231129 0.9677039 0.35980743 -0.25109178 0.119043 -1.8775318 -0.04586721 -0.23369716 -0.012491918 -0.05151657 0.13368794 0.9877774 -0.17175809 0.048631612 -1.4550639 0.21695694 -0.51582956 0.78445405 0.3646659
atender -0.5861074 -0.7663637 -0.43954596 -0.538055 0.6400453 0.225631 -0.42400566 0.4270565 0.42464042 0.11071043 -0.22462691 -0.34715852 0.52360845 0.22473979 0.48301798 0.1118286 -0.2812628 0.33322862 0.68788004 -0.5293083 -0.9023168 -0.37264892 0.45028248 -0.18107286 0.39092812 -0.8515403 -0.1502596 0.028601255 -0.062468506 0.1614936
esperando -1.0969045 -0.6613367 0.35299367 -0.30219427 0.6785135 -0.05550502 -0.24339427 0.32157582 0.016629549 0.24120978 -0.2221679 -0.60842156 -0.03498519 0.094822094 -0.21798958 -0.2622295 -0.8646649 0.0288512 0.13617106 -0.1032645 -1.06046 -0.4698119 -0.05395506 -0.09335076 -0.15200213 -0.9817671 0.30042076 -0.14687525 0.44319436 -0.20368779
oficinas -0.46866927 0.07445152 -0.3043616 0.1721236 -0.007575868 -0.07535552 -0.077917896 0.45734584 0.23829727 -0.22906157 -0.46162787 0.67082715 0.28172624 0.32495135 -0.46139067 0.13869585 -0.6360166 0.3841874 0.21792315 0.81305814 -0.64480877 -0.48237056 0.437269 0.4598344 0.1395753 -0.8113442 -0.68179834 -0.21383941 0.44857356 0.19322129
tratar -0.23292096 -0.4430716 -0.46783203 -0.1684293 -0.061826777 -0.06957227 -0.6470885 0.60708356 -0.044482324 -0.020331724 -0.6158222 0.8830854 -0.061679162 0.3439292 -0.33987218 0.13862526 0.024042876 0.35251427 0.24940036 0.35104284 -1.2439828 -0.10213619 0.385824 0.43334293 0.113032885 -0.50656986 -0.4832768 0.074670255 0.19044152 -0.22374715
pasada -0.4651166 -0.6504846 -0.35820028 -0.39776003 0.64105105 -0.11866205 -0.32369375 0.3611448 0.46874896 -0.14946029 -0.6383842 -0.2356039 -0.0064415094 0.3114936 -0.06973331 0.097518496 -0.6321892 0.28820682 0.45215827 -0.12599245 -0.7756173 -0.12265848 0.07631497 -0.21705078 0.30603382 -0.94653034 0.08368952 0.0025427944 0.15023726 0.012573204
cambiar -0.3034446 -0.23924196 -0.4027543 -0.16890171 0.4589386 0.2836947 -0.2939532 0.45832476 0.2673049 -0.28667256 -0.6990713 0.45338416 0.27051765 0.3531444 -0.39687318 0.24388011 -0.45821458 0.17917398 0.45314988 -0.04182819 -0.9427917 -0.011094455 0.24341588 0.32546908 0.2241758 -0.497961 -0.38445386 0.2319053 0.15373762 0.23969552
aparecen -0.59892887 -0.16839986 -0.21345927 -0.21752308 0.4432756 0.32289168 -0.118060514 0.5645822 0.2354281 -0.35682273 -0.5279194 0.069806606 0.11444307 0.30199796 -0.37729698 0.0142469555 -0.7215674 0.39497355 0.3279904 0.1428651 -0.5578902 -0.22983885 0.2938625 0.07911568 0.13427578 -0.69946593 -0.35229117 -0.110780545 0.38272348 0.42193285
empresas -0.32297486 0.22790901 -0.33745563 0.2230399 0.07065575 0.12386085 -0.24507253 0.57636935 0.15739365 -0.3927972 -0.66351444 1.2740749 0.043424193 0.40133095 -0.74663 0.20340142 -0.23270704 0.39308336 0.44019046 0.49524236 -1.0365803 -0.16835995 0.48527268 0.8423619 0.2049635 -0.48936802 -1.0970547 -0.084964894 0.24705803 0.2944302
traslado -0.5208859 -0.66109884 -0.6577345 0.2027072 0.4339003 -0.29400757 -0.9063524 0.4048486 0.2661185 -0.2252178 -0.83192855 0.49845865 0.17250375 0.25324243 -0.2767254 0.62535185 0.12062972 0.18967906 0.47035247 0.0006793127 -1.3760688 -0.28778037 0.30135894 0.2874143 0.15886447 0.10744414 -0.57348406 0.6915151 0.14149518 0.34763387
radicardo -0.31779343 -0.1695817 -0.515726 -0.05123474 0.32573843 0.12277868 -0.3575686 0.5565404 0.34490582 -0.1780922 -0.7521682 0.1536873 0.20059519 0.43053657 -0.6029174 -0.028119547 -0.46372423 0.11484379 0.37101057 0.105092734 -0.786475 -0.3223926 0.27509293 0.2544762 0.25492933 -0.43237492 -0.19903949 0.05738326 0.6240276 0.4091914
examen -1.3542424 -0.82046545 0.5923281 -0.43894467 0.8589945 0.46645772 -0.017588593 1.293144 0.5044029 0.08698393 -0.009487251 -1.5139735 0.40836638 0.15605082 0.24118792 -0.33032814 -2.0460753 0.2411791 -0.29577136 -0.3706597 -0.68390894 -0.62610316 -0.10794658 -0.7679086 -0.051376116 -1.9477541 0.45705357 -0.36151934 0.6309302 -0.41080475
lleva -0.5966685 -0.267066 -0.031721193 -0.15627845 0.5926386 0.15549044 -0.28576714 0.5145792 0.16908151 -0.08907142 -0.470148 -0.3718266 0.44924456 0.09146073 -0.30348605 0.11355696 -0.86135083 0.089316875 0.11978408 0.032052852 -0.63682944 -0.32537755 0.41170186 -0.15660706 0.09502071 -0.90452063 -0.124955 0.1047083 0.7082851 0.28845686
sirve -0.8537289 -0.7201159 -0.064944066 -0.5252534 0.71394753 0.31137127 -0.44250327 0.4230909 0.41579157 -0.14577784 -0.5752441 -0.5790068 0.2659938 -0.082723685 0.0660313 -0.01764279 -0.53488326 0.2186083 0.38953003 -0.33727145 -0.58570814 -0.19220139 0.37405086 -0.14134663 0.15458843 -1.0012691 0.13157602 0.02355442 0.62580425 -0.005652685
puesto -0.6962473 -0.6481692 -0.43471107 -0.2611305 0.3066071 0.25036603 -0.60107124 0.6332321 0.20384179 0.39443845 -0.337281 0.005923976 0.52810466 0.28714064 0.38338837 0.06865176 -0.112300806 0.4268988 0.27065715 -0.2529893 -1.133663 -0.2520554 0.44159403 0.11141246 0.16258425 -0.56502485 0.04630704 0.2047672 0.10920985 -0.09705539
dificil -0.33211935 -0.2398403 -0.11040769 -0.1624259 0.19097479 0.22804089 -0.1474383 0.5937139 0.37302953 0.18674323 -0.39843732 0.21742691 0.19393617 0.30043957 -0.3057505 -0.004207648 -0.60066664 0.6486806 0.3009402 0.1841101 -0.8370228 -0.3096875 0.022940049 0.19550471 -0.12822954 -0.7387412 -0.17084849 -0.0966086 0.28682768 -0.08205666
muchacha -0.4404565 -0.822348 -0.39637053 -0.4260607 0.30959952 0.19586271 -0.4566001 0.34222445 0.22616981 -0.08379431 -0.57642764 0.25817388 0.2849146 0.31782925 0.12303854 0.36556345 -0.2089962 0.16207057 0.6333198 -0.22571474 -1.2287472 0.17304328 0.27796897 -0.03795917 0.40266162 -0.53538406 0.106447905 0.33372498 0.20777498 -0.060387
formula -1.3867179 -0.4026253 0.64983886 -0.30719998 0.69287115 0.40496108 0.47294933 0.34232932 0.20868014 0.32011545 -0.38092193 -1.0745723 0.07567909 -0.40466318 -0.040177383 -0.7467885 -1.7305993 0.29850262 0.22029877 0.33589047 -0.7338522 -0.5698876 0.5777071 -0.53592455 -0.24866611 -2.5121262 1.3387636 0.17204683 0.08247148 -0.5007188
laboral -0.22914091 -0.32184544 -0.46712524 -0.60006905 0.7287809 0.3572324 -0.15993108 0.55313706 0.506374 -0.06678616 -0.49639928 0.122304626 0.6091546 0.31778413 -0.023503752 0.24176674 -0.3928695 0.5376362 0.8864446 0.35020807 -0.4152498 -0.07605257 0.17206451 0.7322789 -0.1832512 -0.269033 -0.74432445 -0.64013577 0.46484485 0.4791528
podia -0.4780761 -0.75890505 -0.3376035 -0.17109716 0.2932609 0.10193885 -0.36969998 0.38593847 0.32967103 0.065656275 -0.41212484 0.1401775 0.36978805 0.11206567 -0.14645173 0.33248383 -0.2824439 0.1638728 0.43793258 0.006213457 -1.2021022 -0.13228522 0.10635511 0.13183565 0.41909334 -0.5390568 0.018977983 -0.0047692964 0.19523275 -0.13084128
posible -0.5778041 -0.25154516 -0.33036926 -0.067394175 0.357371 0.07320527 -0.17243159 0.35048315 0.33251086 0.038242757 -0.268504 0.024929414 0.04508807 0.27281618 -0.23361132 0.024403777 -0.59746665 0.3330597 0.42043003 0.094256476 -0.8178205 -0.3137162 0.0675182 0.0894167 0.054032393 -0.8581567 -0.150035 0.11852652 0.40451893 0.0015378746
nadie -0.3769201 -0.6393595 -0.2941639 -0.15883757 0.26412454 -0.17462943 -0.022606652 0.23076616 0.7653287 -0.22340295 -0.445122 0.14087051 0.09346384 0.6034715 -0.13562308 -0.18355803 -0.48790285 0.5256293 0.3681291 -0.038786877 -0.501196 0.008339553 0.3813548 0.06283879 0.028732492 -1.1539518 -0.15504308 -0.17780133 0.49029332 0.18711017
entrar -0.5274101 0.090646625 -0.25586227 0.021243697 0.20256469 0.13070926 -0.26311907 0.590523 -0.15995339 0.080292195 -0.34868914 0.51048726 0.14951539 0.36884513 -0.5803063 0.2664797 -0.42030263 0.1600348 0.32240766 0.35069025 -0.9774 -0.28831977 0.26457602 0.42593583 -0.085753374 -0.6980742 -0.46526748 -0.060179945 0.4682541 0.35172457
entra -0.5372202 -0.5097044 -0.0962558 -0.104040824 0.59793866 0.11929947 -0.2981705 0.6032259 0.34458452 0.011092103 -0.35852173 0.09945605 0.1334793 0.039619174 -0.13229907 0.1460051 -0.26016024 0.33237848 0.439113 0.016031524 -0.90480405 -0.22625794 0.16310284 0.08878596 0.20086624 -0.7000658 -0.31341213 0.040948335 0.24480867 -0.087527946
hablando -0.6057283 -0.2190016 -0.382148 -0.3283086 0.054690875 0.081002735 -0.15868399 0.48580778 0.048979145 0.08881834 -0.58744335 0.34301555 0.010216277 0.2287295 -0.38940173 0.21387656 -0.40509325 0.30164018 0.48655778 -0.08586624 -1.039046 -0.28488174 0.22721085 0.3705322 0.13533531 -0.6456608 -0.26691043 0.26740968 0.21555991 0.03453312
versalles -1.2042056 -0.7052837 0.31773046 -0.5934107 1.1459504 0.8194142 -0.48231143 0.8290972 -0.08490458 0.454736 -0.20940205 -0.9272166 0.92159975 0.15517832 0.9225072 -0.019104393 -0.37901574 0.29749244 -0.06304574 -0.76158 -0.6841623 -0.2880027 0.9114181 -0.7384055 0.76053613 -1.9862709 0.98664343 -0.16507913 0.2393766 0.19247277
cirugia -1.0472407 -0.71767396 0.45531297 -0.37843242 0.5098884 0.5418557 -0.7385291 0.79178154 0.00019819038 0.09808818 -0.3708333 -0.8861482 0.36140212 0.12099889 0.24529473 -0.11614741 -1.3814306 0.048982337 -0.12256057 -0.6404419 -0.49869025 -0.23057736 0.5361061 -0.24895175 0.14484128 -1.1466931 0.48678604 -0.427898 0.7703878 0.038518865
minutos -0.70298773 -0.23637941 0.062505655 -0.111375175 0.5395773 -0.031659834 -0.2936402 0.45521554 0.29957658 -0.046344433 -0.60733426 0.29870155 0.24870992 0.18952535 -0.42986175 -0.039186653 -0.22801144 0.3988751 0.5642031 0.0239069 -0.7191015 -0.19497398 0.3744931 0.0014461682 -0.08817394 -0.6688054 -0.37949145 0.088190116 0.51706505 -0.14636476
cliente -0.3212486 -0.22956322 -0.41475675 -0.16222972 0.66079456 0.39329126 0.17957142 0.29318476 0.06939348 -0.192799 -0.23799983 0.55372125 0.4227101 0.5872348 -0.13176315 0.07685395 -0.28277665 0.47337762 0.3500671 0.28487363 -0.7618935 -0.041385997 0.5217786 0.15779085 0.3088141 -1.2324939 -0.18600047 -0.11723305 0.25568023 0.3980281
perder -0.6939106 -0.28267604 -0.43604705 -0.17564286 0.34537643 0.20571926 -0.27904806 0.4030755 0.3925147 0.25217676 -0.29902378 0.28743184 0.33877745 0.1514847 0.022739124 0.25242665 -0.29686803 0.48616287 0.4365922 0.12599367 -1.030175 -0.18833624 -0.009865901 0.2493503 0.051611636 -0.74780077 -0.1516134 0.12546508 0.2746099 -0.0136993015
poner -0.45536578 -0.06399172 -0.34595165 -0.18141825 0.19675279 -0.097563885 -0.0018797931 0.27992305 0.06983687 -0.18747677 -0.5027157 0.56586325 0.10199212 0.32929042 -0.44432545 0.23534901 -0.4093149 0.45764208 0.6289582 0.7178105 -0.69666535 -0.2606446 0.4562719 0.34503344 -0.002992438 -0.8614284 -0.65895087 0.07917767 0.1945869 0.07017038
empleados -0.10924464 0.35014606 -0.48927304 0.12659909 -0.08606034 0.0034797576 -0.27592498 0.46569985 -0.26722455 -0.37296778 -0.7288164 1.4515518 0.046157446 0.30909583 -1.1035049 0.39601076 -0.252585 0.032554675 0.57977414 1.0175241 -1.2332408 -0.36757222 0.72164196 0.9187349 0.0033147784 -0.45713982 -1.1752235 0.023069866 0.37825823 0.57098407
plataforma -0.5299176 0.5389779 -0.20261952 -0.019133247 0.36521003 0.14647478 -0.08550422 0.54616976 0.05684404 -0.48589107 -0.43985897 0.7981443 -0.104252115 0.39426273 -1.0904233 -0.4033804 -0.59360105 0.2922148 0.10618094 0.7931153 -0.7043131 -0.38361388 0.3739251 0.61181456 -0.22449678 -0.6069355 -0.48075885 0.031518083 0.82151884 0.34421802
siento -0.5913855 -0.46278208 -0.38510174 -0.51465887 0.46827045 -0.004119469 -0.18009424 0.46740165 0.515934 0.2346244 -0.34341502 0.05846673 0.1786067 0.16619161 0.15088333 -0.08286829 -0.30402526 0.4770041 0.49397355 -0.28945917 -1.0671709 -0.1514148 0.21236816 -0.01051225 0.0060669575 -0.8086708 0.008988254 -0.011231545 0.16448939 -0.2517433
momentos -0.46439704 -0.40506285 -0.36107683 -0.18853185 0.19429903 -0.077484004 -0.4546795 0.35985953 0.27113008 -0.14557542 -0.48714814 0.5815334 0.18010983 0.30599147 -0.5357745 0.15371267 -0.5430191 0.38369128 0.4489777 0.08356985 -1.0336146 -0.29630113 0.27944186 0.48197937 0.20489947 -0.2956713 -0.4196816 -0.0061274054 0.37065768 0.15724559
cotizantes -0.45515555 -0.671877 -0.51412463 -0.21979152 -0.10125709 -0.14621963 -0.99340785 0.6805342 0.097846866 0.2133954 -0.5953793 0.7690973 0.34477434 0.17241485 -0.25482854 0.49796268 -0.0032642682 0.28035152 0.4992818 0.3367509 -1.6172638 -0.2995873 0.03785552 0.46983868 0.19760287 -0.018776136 -0.23605081 0.5252514 -0.020862494 -0.10049857
idea -0.5193038 -0.36789957 -0.25084725 -0.11313794 0.41472614 0.23847438 -0.33647346 0.54630315 0.34007508 0.020995328 -0.27330297 0.3798966 0.49351567 0.17414877 -0.35615325 0.2724902 -0.40090144 0.2503172 0.33656102 0.06760366 -0.8325281 0.2096468 0.46212575 0.13452445 0.0494897 -0.66225946 0.022799477 0.17417651 0.23320979 -0.088466145
procedimiento -0.64505726 -0.06671891 0.19146079 -0.028689638 0.22033276 0.3039631 -0.105613165 0.92846954 -0.121142775 0.06927493 -0.4621146 0.09464404 0.22984415 0.3581428 -0.35764506 0.04063271 -0.6564708 -0.017415764 0.01257505 0.26564735 -0.7297231 -0.23534173 0.40851307 0.29450333 0.08864377 -0.62952816 -0.14729644 -0.14900978 0.5919687 0.15161854
salir -0.63555145 -0.3546646 -0.44411048 -0.46165788 0.34106576 0.20604412 -0.5700846 0.3587081 0.16222534 -0.06636331 -0.54168284 -0.006660292 0.32259953 0.1770653 -0.015088357 0.3438978 -0.3982327 0.23777924 0.35733098 -0.01842609 -0.8426156 -0.04175709 0.33199593 0.30486956 0.087658584 -0.738983 -0.06901609 0.04228504 0.23852555 -0.051468275
inicio -0.458587 -0.106260434 -0.08045425 0.0023865802 0.36856127 0.44751248 0.105304606 0.55585927 0.26995102 -0.2565936 -0.5114138 0.502369 0.012090111 0.33583254 -0.29147476 -0.14057459 -0.7262773 0.5819633 0.13125949 0.16128446 -0.64753664 -0.0826191 0.16593687 0.5500845 -0.045550115 -0.80285156 -0.2909189 0.042209323 0.51443344 0.10653189
haria -0.35232237 -0.47732148 -0.28928524 -0.21865115 0.33007532 0.20501755 -0.5992328 0.46510276 0.044078704 -0.14584805 -0.82333314 0.11941235 0.19084834 0.36408907 -0.18475048 0.13232124 -0.32184055 0.13837984 0.25926757 -0.00501995 -0.99278444 -0.09033982 0.21668193 0.17696719 0.023730198 -0.5265302 -0.2677844 0.2691469 0.29774845 0.25898325
llamado -0.56400836 -0.43543735 -0.52735174 -0.27654415 0.66913074 0.07075278 -0.101305164 0.12563685 0.47333124 -0.17087056 -0.45556787 0.26301923 0.053096086 0.1599122 -0.2818807 0.29486522 -0.39094198 0.36585885 0.6556546 0.007815349 -0.86752564 -0.1182885 0.24833961 -0.10509099 0.31518644 -0.682551 -0.38815266 0.09288358 0.32432923 0.17630513
regimen_subsidiado -0.44273806 -0.6954349 -0.5476893 -0.22416598 0.025403455 -0.040262915 -1.3235918 0.7311323 -0.00078660715 -0.1067293 -0.6670218 0.48566455 0.42482877 0.12006904 -0.5034059 0.6982901 -0.07019135 -0.030878657 0.59801567 0.014316287 -1.5616816 -0.2608552 0.15102221 0.3819149 0.28931805 0.16933182 -0.47034618 0.57132655 0.062378746 -0.0653475
situacion -0.447071 -0.36227992 -0.4318582 -0.16292445 0.25813437 0.0025386554 -0.3429136 0.5026356 0.5052523 0.15345535 -0.3820352 0.3225578 0.1922845 0.197867 0.019475615 -0.0032901345 -0.562762 0.6408248 0.29380038 0.1717318 -0.94762266 -0.23072599 -0.12948322 0.13548769 -0.19001552 -0.73631066 -0.018852111 -0.16987634 0.28351048 -0.12671617
llegado -1.030724 -0.32747278 0.26765254 -0.7338865 1.4741791 0.6462231 0.12311021 0.25656718 0.31909376 -0.24317637 -0.4348358 -0.8893661 0.45067957 -0.35926577 -0.28107348 0.094736636 -1.0292851 0.35238168 0.28508905 -0.35896224 -0.30056837 -0.1535244 0.25087768 -0.20377168 0.036675856 -1.3271486 0.29132637 0.12237392 0.83107644 0.22763155
factura -0.5854727 -0.0018253388 0.20888323 -0.58868444 -0.36515975 0.8307149 0.8509892 -0.11579595 1.4742078 1.0717036 -0.054005858 0.77746296 -1.008965 0.4747226 0.48332694 -0.5211975 -0.41387329 1.9072106 0.72347224 -0.051168226 -1.4005404 -0.3494793 -1.4829143 0.81812686 -0.72258854 -2.3426952 0.47059998 -0.35891628 0.43211418 -0.2665967
preguntar -0.36507323 -0.17847005 -0.2894669 -0.23521015 0.3542609 0.219992 -0.40913424 0.584847 0.23967206 -0.01951311 -0.6462399 0.4104859 0.06288437 0.3214599 -0.28967074 0.07142696 -0.35261127 0.29808688 0.38978744 0.12888812 -0.9803231 -0.2921033 0.09330256 0.2835196 0.018885221 -0.66958326 -0.18233375 0.20002349 0.210223 0.06328947
autorizares -0.97452027 -0.3416025 0.5512063 -0.19968392 1.0153122 0.25506616 0.40381488 0.64273053 0.11184522 -0.3245016 -0.65366733 -0.9453173 0.8909237 0.5614043 -0.2073933 -0.115789205 -1.5148041 -0.052476462 -0.25388953 -0.16987726 -0.10976045 -0.12615947 0.9587066 -0.48002365 0.14035861 -1.559852 0.17366588 -0.13676396 0.9927574 0.38325486
deben -0.41498178 -0.24134482 -0.111079104 -0.2651316 0.3708692 0.33446038 -0.12886314 0.46353507 0.23570046 0.011464267 -0.634317 0.28783557 -0.02777668 0.3578581 0.04058947 0.043586094 -0.50666845 0.5015245 0.2518489 0.14527816 -0.8045512 -0.068719216 -0.13613482 0.38118497 -0.45394263 -0.9330059 -0.06582658 -0.45259744 0.6089631 0.0900769
vuelta -0.6056481 -0.58068115 -0.22667147 -0.3040173 -0.1681129 -0.036709215 -0.35285237 0.31685334 0.07738381 0.047056105 -0.20698102 0.16393341 -0.00490704 0.03825263 -0.2776321 0.06298696 -0.5166487 0.8700071 0.6414893 -0.054578897 -0.97818685 -0.5284703 0.08712419 -0.010120907 -0.18625823 -0.713569 -0.0045884014 0.061965346 0.43492615 -0.3999877
soporte -0.27505168 0.5770618 -0.19168931 0.15144645 0.782232 0.4183914 0.23463349 0.49085748 0.37330517 -0.025332259 -0.19161475 0.46703625 -0.14858687 0.47717413 -0.5857937 -0.50691086 -0.7813584 0.6298718 0.089270584 0.5422753 -0.37581244 -0.00988346 0.23770905 0.69914204 -0.1779518 -1.100813 -0.2860971 -0.3927375 1.1986809 0.5066426
hijos -0.65721357 -0.3871918 -0.3240374 -0.14903681 0.045955155 0.18504621 -0.32680035 0.7148045 0.4020958 0.066642806 -0.3643855 0.66138864 0.34435612 0.48410982 -0.14791226 0.19822343 -0.047664266 0.36135396 0.37301365 -0.13753673 -1.2819443 -0.3726531 0.24567951 0.30750588 -0.049109373 -0.24189883 -0.18995681 0.26424405 0.27074024 -0.15772782
repito -0.2761817 -0.43413875 -0.478234 0.10880916 0.3462722 -0.012080048 -0.27150512 0.64159536 0.4626559 -0.062148847 -0.39125893 0.5520316 0.30242068 0.13681826 -0.52931875 0.29165214 -0.10262995 0.3721019 0.36830884 0.48492056 -0.9169781 -0.10113081 0.40291882 0.1436083 0.21387734 -0.6478507 -0.41720527 0.014927055 0.25752267 0.12644148
nombres -0.43072778 -0.3098994 -0.106891915 -0.04097353 0.38049838 -0.0028736037 -0.11535434 0.5190005 0.4302515 0.0076200576 -0.5044258 0.33267003 0.027197847 0.18996318 -0.114782766 -0.027343307 -0.477219 0.3742751 0.2828145 0.13999219 -1.0169089 -0.040560156 0.13912496 0.21317361 0.19017775 -0.90049595 -0.22188249 -0.14754325 0.21464553 -0.057497844
registrardo -0.026223851 0.091694444 -0.27427483 0.24968655 0.12611629 0.37108475 0.18205088 0.4853698 -0.3118858 -0.36021477 -0.7516322 1.3728836 0.39350754 0.7974694 -0.989472 0.42051366 -0.28809336 0.18749693 0.06113289 0.96949536 -1.1435125 -0.21512067 0.9568824 0.6303706 0.3945102 -0.79677856 -0.7113911 0.31479022 0.05751171 0.74905294
produce -0.4120905 -0.22657155 -0.20154166 -0.06435716 0.25078562 0.17599474 -0.20290846 0.6963407 0.25367355 -0.0658742 -0.5874844 0.50735486 0.3333881 0.24079263 -0.38891932 0.100886725 -0.44302228 0.30956736 0.2469769 0.24629268 -0.83278435 -0.2140604 0.3182482 0.17994297 0.046913926 -0.6417944 -0.2995203 0.05361839 0.3023805 -0.09668937
autorizado -1.4705323 -0.85249156 0.6251342 -0.033083033 0.86594427 0.10645525 0.14133173 0.7423109 0.296216 0.017011462 0.24522074 -1.2311167 0.55012363 0.20658383 0.33399367 -0.38920733 -1.7473888 0.02011892 0.18287131 -0.5034221 -0.8574337 -0.5073246 0.11998287 -0.48748305 -0.044104494 -1.6065786 0.8391621 0.025343046 0.6141432 -0.37729126
urgencias -0.9799217 -1.2300601 -0.38702652 -0.4825075 0.7025383 0.36430392 -0.60867566 0.53453964 0.42044806 0.5811511 -0.275438 -0.90557086 0.8356374 0.023006918 1.0036727 0.22372948 0.05153381 0.038925845 0.2786666 -0.8241036 -1.3018742 -0.46964398 0.679554 -0.3034761 0.4856512 -0.86779064 0.12861249 0.30467758 -0.1417526 0.24799882
disculpa -0.51213855 -0.46840742 -0.42751217 -0.17334826 0.4899673 0.37244004 -0.2975181 0.39674762 0.39008436 0.111964494 -0.50442934 0.23427531 0.16582267 0.04750713 -0.28027767 0.3705713 -0.18463473 0.42765272 0.38290983 -0.01461085 -0.88627577 -0.043506965 0.2500309 0.0765944 0.071316354 -0.69758344 -0.20305859 -0.07974897 0.34843275 0.20808674
apenas -0.34077093 -0.6081565 -0.06076618 -0.23677094 0.43948027 0.20246497 -0.21728092 0.45842862 0.4374679 0.055006295 -0.5490754 0.19396499 0.30182543 0.12163616 0.033942103 0.047858633 -0.2918152 0.5346836 0.61945117 -0.09964068 -0.99044526 0.119831376 0.04075699 0.13208798 -0.26128224 -0.77922547 -0.16761455 -0.123302154 0.20295657 -0.10639243
problemas -0.6976482 -0.52090585 -0.12739325 -0.13979039 0.4060051 -0.000378615 -0.5776196 0.4996202 0.2538891 0.11580698 -0.35225904 -0.14419578 0.17992163 0.23106444 -0.07835471 0.09741618 -0.79814416 0.19104175 0.3421623 -0.035559542 -0.7804598 -0.015129156 0.24616091 0.10640426 -0.11090581 -0.91143334 0.30909142 0.22118187 0.13793261 -0.1994921
personalmente -0.41223243 -0.61792386 -0.23565364 -0.3997892 0.08279534 0.030108439 -0.2649141 0.4204792 0.20841202 -0.0029254842 -0.5033218 0.06178219 0.29941973 0.20638664 0.11541258 0.22928962 -0.45020682 0.27621785 0.52722496 0.04745537 -1.0444381 -0.3379179 0.36054775 0.06596205 0.3085699 -0.674422 -0.172931 -0.0003464392 0.39669248 0.07576623
sede -0.27333987 -0.15452842 -0.42897242 -0.1692924 0.54081124 0.23744468 -0.3935803 0.40512565 0.3468338 0.051668495 -0.5363103 0.269584 0.23325859 0.24241947 -0.3678052 0.1287777 -0.45086437 0.42735252 0.36166972 0.14932288 -0.923031 0.07040612 0.2905653 0.34052727 -0.09772433 -0.58655596 -0.31612638 -0.0032444238 0.3538239 -0.14483057
exactamente -0.7218376 -0.2714515 0.06521128 -0.0007069355 0.4037677 0.33782917 -0.147194 0.53359085 0.35858685 0.07970387 -0.40041697 0.44949082 0.0047918884 0.26259845 -0.38823724 -0.0616581 -0.44832066 0.408706 0.18591651 0.029417975 -0.7929412 -0.395303 0.09662081 0.0970451 0.27332175 -0.9497787 0.05793092 -0.0032517174 0.3161134 0.05747673
mandado -0.8271129 -0.38197464 0.014547868 -0.30812627 0.9889428 0.2711717 0.09248441 0.3122722 0.18833639 -0.10160047 -0.1979127 -0.34469846 -0.0053978087 0.3031651 0.2528598 -0.22287443 -0.43305436 0.22749887 0.33160904 -0.12524086 -0.94480354 0.06472375 0.24543682 -0.40116405 -0.24761546 -1.4999096 0.543168 -0.046372533 0.6794818 -0.018966626
extension -0.29730597 -0.52327263 -0.33850303 0.04081527 0.44142538 -0.3284911 -0.0686503 0.35483485 0.54203665 0.07650092 -0.3796323 0.65176404 -0.2197817 0.4720813 -0.5569884 -0.07431885 -0.146746 0.70688266 0.6066679 0.09541054 -0.96929145 0.14287014 0.13115047 -0.012776564 0.05378107 -1.0059371 -0.44010794 -0.022853347 0.35752326 -0.23202172
contesta -0.30548674 -0.6610885 -0.53950745 -0.12602292 0.4371634 -0.4838568 -0.0049747317 0.14819422 0.36541343 -0.25872704 -0.47043422 0.29764602 0.30574626 0.53698915 -0.2589426 0.17534786 -0.2628269 0.41657874 0.506826 0.23330863 -0.6444724 -0.01895324 0.43175885 -0.24861465 0.2857457 -1.103701 -0.44224888 -0.36575475 0.3020722 0.06979976
novedad -0.5319336 -0.058574475 -0.77648354 -0.26326752 -0.24593699 0.23115198 -0.6077878 0.71529454 -0.2411477 -0.039373234 -0.48451108 1.1981801 0.0026334298 0.38232127 0.025630794 0.14675498 0.00071751117 0.34774938 0.3013506 1.014871 -1.2372266 0.059464034 0.4313002 0.8187807 -0.33495113 -0.5483683 -0.33341017 0.011264498 0.35285115 -0.45629862
perdi -0.6374744 -0.24411166 -0.14447169 -0.25853556 0.88623005 0.49496773 -0.068597145 0.45431006 0.337387 -0.25001815 -0.5458874 -0.18308727 0.55875665 0.098721765 -0.10080441 0.1683095 -0.773545 0.357986 0.48664886 -0.2800308 -0.1968446 -0.061088882 0.4573389 0.22566633 0.33447644 -1.1342392 -0.35336956 -0.0487123 0.4347344 0.22723466
dependiente -0.31497914 -0.29390502 -1.0902581 0.06179711 -0.41416135 -0.1374544 -1.2814093 1.0340738 -0.15997083 -0.0057418225 -0.6922097 1.2875625 0.28244445 -0.011732165 -0.5017868 0.28270376 0.2834596 -0.034039304 0.60572886 0.55952406 -1.7794992 -0.051877305 0.4746283 1.0458474 0.16584815 0.03598201 -0.6701155 0.22447507 0.23209105 -0.010125019
puntaje -0.36604264 -0.8943846 -0.5770293 0.39868763 0.04413812 -0.5367922 -1.0600437 0.34083807 0.04734665 -0.22260459 -0.73177433 0.7189334 0.2412551 0.3850245 -0.36322838 0.78854674 -0.38898018 -0.13463831 0.44784495 0.30210033 -1.5876862 -0.19824249 0.3583499 -0.12182268 0.54472834 0.20930348 -0.4671595 0.24947229 0.6561162 0.120776914
activa -0.35888132 -0.60667974 -0.38082552 -0.29202026 0.39587203 0.23350534 -0.8723635 0.6919418 0.23412496 0.019173669 -0.7476804 0.33786243 0.20260085 0.11027515 -0.1349125 0.42228583 0.31752822 0.31888872 0.46853015 -0.12511146 -1.4974353 -0.23771293 0.0780125 0.53699505 0.066226654 -0.031131927 -0.47654298 0.64285535 -0.07206251 0.09508624
decia -0.5855172 -0.31098095 0.16953139 -0.19484453 0.5175377 0.26498362 0.02712945 0.5787009 0.11077433 0.30045673 -0.17672281 -0.35388157 0.10800919 0.42252052 -0.0913603 -0.34185177 -0.8016405 0.15763135 0.12353112 0.12934655 -0.7425469 -0.15097666 0.32553262 0.030349586 -0.15163797 -1.43135 0.28206542 -0.14213473 0.4964254 -0.12703012
segundito -0.45638087 -0.2688458 -0.5339987 -0.16832432 0.13631223 0.14613439 -0.51877373 0.5671822 0.039366722 -0.0041570123 -0.5262852 0.629095 0.08454781 0.13432659 0.000117783435 0.44984427 0.24192877 0.23807617 0.702282 0.16425951 -1.2761265 -0.13716199 0.3400223 0.48733363 -0.07955138 -0.6022231 -0.43357706 0.16273785 0.015497677 0.1417748
enviaron -0.6837937 -0.25734213 -0.14077316 -0.16952863 0.59572995 0.29681578 0.12889023 0.26765367 0.29208288 -0.020708004 -0.5423169 -0.16005284 0.2542422 0.40273714 -0.1573776 0.09001207 -0.6357724 0.32711586 -0.103353575 -0.1975677 -0.5774245 -0.087856695 0.20528302 -0.028885849 -0.082236744 -1.106272 -0.24621692 -0.06875969 0.87569004 0.60811657
funcion -0.30290532 -0.37395743 -0.048021354 -0.11786324 0.44084767 0.031004444 -0.007730694 0.6265444 0.23754124 -0.32788768 -0.7352896 0.13313079 0.006981338 0.3456706 -0.24483645 0.048443742 -0.52131456 0.276335 0.29848552 0.22547404 -0.8660685 0.019449048 0.173299 0.37708533 -0.20670712 -0.62016296 -0.34796998 -0.21437484 0.49745598 -0.15902764
pagado -0.38188058 0.014961172 -0.22181624 -0.24617769 0.33324298 0.499939 -0.010073811 0.35325435 0.16161041 -0.20264249 -0.5908006 0.39640057 -0.2173691 0.286842 -0.15393308 -0.15247008 -0.22227524 0.5515731 0.480905 0.118673466 -1.1289688 0.020172043 -0.2513712 0.5812647 -0.5161909 -0.6803738 -0.4208473 -0.4283048 0.5552997 0.11773383
quieren -0.5334556 0.014947507 0.075035125 -0.52115566 0.39572075 0.4693646 0.11261059 0.5352194 0.10795716 0.014373488 -0.63463813 -0.10146509 -0.06227787 0.48462632 0.03761736 -0.6033151 -0.8339938 0.22546116 0.22181566 -0.035988014 -0.63572586 -0.56844765 0.215299 0.191513 -0.12781772 -1.1704168 -0.056077275 -0.028776752 0.48526868 0.32939228
llamarn -0.44135213 -0.33162707 -0.37704307 -0.049800392 0.42066187 0.31824479 -0.5062397 0.24064939 0.4523298 -0.34163004 -0.54927766 0.05550253 0.28370684 0.06842775 -0.18439163 0.324731 -0.49696967 0.2632786 0.49006864 -0.123116635 -0.7478136 -0.014313032 0.46976086 -0.023881897 0.1470773 -0.6570872 -0.4733315 0.19719224 0.3528282 0.10586874
encuentro -0.18569358 -0.38341054 -0.38907945 -0.012738475 0.38903442 0.12809306 -0.63579166 0.7558033 0.19184941 0.05456777 -0.519816 0.5308338 0.017760636 0.14780356 -0.3214308 0.24142554 -0.2250323 0.23127644 0.43729356 -0.008467118 -1.2454956 0.031002799 0.043604907 0.31144527 0.25852334 -0.46069646 -0.28731188 0.021743739 0.30495661 -0.045057636
vision -0.7698147 -0.34411722 -0.06758074 -0.36651003 0.34805536 0.18993588 -0.2753168 0.6452399 0.22495356 0.080283314 -0.28270286 -0.3581194 0.31651294 -0.099826604 -0.0679404 -0.1274667 -0.6258932 0.11734334 0.35596147 -0.07482216 -0.92360735 -0.07268898 0.25432557 0.27029777 -0.056470856 -0.950054 0.10099996 -0.054634783 0.3530772 -0.08907674
vete -0.31890005 -0.35333872 -0.43530098 -0.024011882 0.19607644 -0.06499064 -0.49771282 0.584394 0.113076024 -0.2220165 -0.41345277 0.47697616 0.2035316 0.14972562 -0.55956346 0.27900755 -0.24401446 0.30576476 0.61707747 0.11276447 -1.2309672 -0.19168289 0.3250475 0.2787495 0.23498395 -0.31194878 -0.4012755 0.23647933 0.27417096 0.02010762
supuestamente -0.8061726 -0.48885974 0.16703959 -0.53648555 0.6797177 0.5980308 0.029413912 0.21958257 0.5586794 -0.097810395 -0.38981876 -0.31893364 0.17616627 0.122097425 0.05565417 -0.46642295 -0.87955076 0.61079586 0.21304993 -0.44648916 -0.59043473 -0.35624453 0.14235406 -0.1301483 -0.18229668 -0.9840809 -0.10321008 -0.21300523 0.6176284 -0.166773
queremos -0.33927116 -0.19331948 -0.42910552 -0.13432479 0.33432862 0.2462145 -0.48760286 0.6515842 0.02042247 0.0700672 -0.9770734 0.9847809 -0.07670007 0.25442448 -0.28926182 0.39099342 0.13960369 0.2511015 0.6323935 0.39329115 -1.3469486 -0.11794622 -0.09591757 0.354008 -0.06242416 -0.13294682 -0.69359106 0.14078124 0.32256332 0.22485113
neurologia -1.6163523 -1.0873076 0.34800035 -1.0316396 1.5863467 0.6631044 -1.1299126 1.711793 1.1809889 -1.3698871 -1.3919674 -2.8940032 1.4669409 -0.22879565 0.36170447 0.4580139 -2.7786624 0.5387685 0.3039919 -1.4268749 0.15388206 0.76012754 0.9756431 -0.1615991 0.46241507 -1.8790345 0.6344005 -0.6886031 0.6996161 0.41031113
permite -0.5434564 -0.037345693 -0.29990858 -0.045413338 0.22661975 0.057003032 -0.06930459 0.418226 -0.14780681 -0.03237679 -0.35168275 0.60319453 0.16729586 0.18895867 -0.522016 0.07066749 -0.43117714 0.29620618 0.23076366 0.5992808 -1.1461394 -0.29436198 0.53543586 0.4448938 0.070786215 -0.73785317 -0.44549146 0.069460325 0.3348287 0.2514303
volvio -0.5796979 -0.1623558 0.031339888 -0.19210467 0.6277014 0.18250704 0.087912574 0.52480537 0.24526875 -0.1230833 -0.31112212 0.35014084 0.000872194 0.07162599 -0.28282902 0.18239348 -0.5656682 0.07874157 0.2197299 0.17479254 -0.9105127 -0.046632368 0.027596276 0.1693933 -0.12895522 -0.89801055 -0.17422156 -0.008646549 0.4812381 -0.046312764
emergencia -0.35931236 -0.52035487 -0.48241642 -0.005231309 0.04980065 -0.018162627 -0.9039571 0.65028775 0.19693421 0.40227947 -0.4650575 0.29099083 0.24367091 0.21372671 -0.120053 0.45145032 -0.07012898 0.18027657 0.5672236 0.19740446 -1.2724493 -0.18457821 0.21192414 0.31972533 0.30957636 -0.3547021 -0.3068373 0.25858846 0.18421923 0.15865181
llevan -0.39857298 -0.20781833 -0.22931008 -0.011878411 0.51731986 0.2971704 -0.30392534 0.5636871 0.29771304 0.03442275 -0.4390434 0.3805607 0.14210382 0.21307696 -0.2397263 0.21741831 -0.36373895 0.40817955 0.36848876 0.10596901 -0.7976698 0.027636206 0.19844924 0.14249225 -0.11969842 -0.66877145 -0.34096643 -0.18740149 0.47132537 0.18574622
triple -0.25598237 -0.19264992 -0.181733 0.2355787 0.25502238 0.07222732 0.00040552317 0.67498 -0.08674453 -0.3690762 -0.42257145 0.65456444 0.5786785 0.28019008 -0.81340903 0.34355557 -0.64487803 0.06368404 0.28441438 0.84636366 -0.63781065 -0.46521312 0.7929887 0.23289077 0.35782114 -0.83779985 -0.37451488 0.19191165 0.288918 0.39443272
envia -0.4532178 -0.29234567 -0.012681854 -0.518376 0.7792958 0.3239773 0.40958908 0.60081244 0.16177882 -0.018874656 -0.57457006 -0.16588601 0.013312382 0.52285236 0.030948868 -0.32129273 -0.7108954 0.66058034 0.22793499 -0.008427351 -0.37631875 -0.1272375 0.20623247 0.09615926 -0.070711456 -1.342259 0.092956774 -0.31309703 0.5032914 0.3403972
amables -0.68973243 -0.5376403 -0.18859176 0.0067794174 0.39741153 0.33776528 -0.11871442 0.47100252 0.17760067 -0.31520817 -0.35086378 -0.255157 0.3471451 -0.09078712 -0.20207335 -0.3487192 -0.90628225 0.17793053 0.3697114 -0.33366528 -0.8529767 -0.30763087 0.4760976 -0.16156016 0.16450988 -0.8111443 0.08683603 0.025480662 0.3978314 -0.037367743
subsidiado -0.35297784 -0.71390235 -0.7387521 -0.4233974 0.100161895 -0.057475492 -1.2318685 0.7449369 0.033052605 -0.13425563 -0.70428056 0.17276199 0.41468126 0.09550274 -0.13858154 0.5022618 -0.054390263 -0.017786104 0.5635729 -0.07639911 -1.4999764 -0.15058573 0.21967638 0.10147798 0.21006158 0.015613159 -0.15323916 0.5861824 0.14485565 0.15036003
ninas -0.7012226 -0.5718397 -0.20754707 -0.49340418 0.6441581 0.22840592 -0.17880633 0.35682583 0.21510956 0.06811697 -0.36335248 0.041591085 0.39957845 0.048377678 -0.012778984 0.1418686 -0.18566681 0.22957353 0.4005157 -0.012927131 -0.7080511 -0.035733696 0.45728657 -0.16149785 0.22119258 -1.2699184 0.03043911 0.14753677 0.20077036 0.044211727
quiera -0.5323376 -0.56935877 -0.043626815 -0.32000968 0.2715999 -0.0016625447 -0.480033 0.6329188 -0.031035522 -0.02435565 -0.5477179 -0.24579258 0.32899156 0.050347567 -0.09455748 -0.085673176 -0.76348996 -0.07726713 0.41067538 -0.021015761 -1.0292593 -0.21342807 0.293642 0.059915803 0.16747117 -0.8569164 0.19898361 0.21691725 0.032879423 -0.17255007
agua -0.68328315 -0.42004275 -0.07070723 -0.39134878 0.36830395 0.24749927 -0.0202986 0.2836227 0.3338159 -0.0052869595 -0.14988759 -0.045486048 0.24176398 0.033246942 -0.20608914 -0.12336176 -0.862183 0.26803935 0.50858206 0.08949431 -0.8959442 -0.22203608 0.3622684 -0.19781576 0.008305279 -1.0189493 0.43983844 0.047263563 0.22244821 -0.13135275
volvi -0.44118798 -0.4338205 -0.37693545 -0.17792608 0.69093615 -0.0073725926 -0.003409133 0.45477825 0.20578977 -0.23018306 -0.34719622 -0.2504618 0.20171885 0.52838135 0.016142232 -0.017601866 -0.52711076 0.17287178 0.24018142 -0.06731252 -1.005224 0.21030721 0.05952778 0.15979825 0.038018424 -1.1213683 0.32172313 0.121888965 0.6332953 0.062923044
reporte -0.36532184 0.051112276 -1.0285167 -0.560045 0.2860031 0.06753684 -0.2344635 0.5758915 0.28925765 -0.4694782 -0.5282988 0.5944599 -0.14478193 0.8156301 -0.042417217 -0.58105665 -0.28968385 0.45298982 0.35563293 0.34987968 -0.91239953 0.21915404 -0.40419337 0.98860556 -0.88380075 -0.5789241 -0.09169806 -0.338458 0.596014 -0.110962704
octubre -0.09177799 0.315015 -0.33486938 -0.351154 0.57097405 0.60572535 0.19820479 0.36942998 -0.021352408 -0.3209383 -1.0465192 0.4962388 -0.55103046 0.8276723 -0.28811303 -0.53920126 -0.040985554 0.42271918 0.38169658 0.481683 -0.5155155 0.3505086 0.086853854 0.7819708 -0.8897432 -1.4334018 -0.14254324 -0.4739266 1.0924417 0.22220285
coloco -0.484988 -0.046298884 -0.034851063 -0.10899832 0.38962057 0.122089885 0.03809395 0.64914674 -0.08045529 -0.30571777 -0.45994994 0.46796498 0.31337574 0.4027013 -0.48187032 0.14294891 -0.57706887 -0.08297236 0.004931837 0.52946347 -0.9109497 -0.17516433 0.78188246 0.3584819 0.3119935 -0.841963 0.047360756 0.15796793 0.2936707 0.43733767
fijo -0.5878893 -0.5576985 -0.17977238 -0.31256866 0.14771454 0.043660242 -0.30899563 0.4911924 0.515287 0.18674172 -0.36137587 0.42704844 0.17338869 0.065994665 -0.009595178 0.31250918 -0.22064619 0.48400337 0.6509803 0.12520744 -1.0524611 -0.2705327 0.020627718 -0.15400219 0.1255962 -0.86926186 -0.108550765 0.21458837 0.13869217 -0.02641864
necesitamos -0.36057812 -0.35572878 -0.26162934 0.036401436 0.008337563 -0.05871425 -0.64186186 0.5615084 -0.07827853 -0.31594378 -0.6612693 0.7020982 0.27246734 0.3564804 -0.6314289 0.5243976 -0.067654684 0.04679618 0.36282206 0.35424855 -1.0889251 -0.29784697 0.4310689 0.45070693 0.43854934 -0.21589689 -0.5277033 0.1938739 0.42228973 0.40506145
viendo -0.70487183 -0.46506727 -0.06888513 -0.33269572 0.8279837 0.5073099 0.042110886 0.40242267 0.5308118 0.17390555 -0.35426685 0.07379284 0.3969489 -0.01445695 -0.029066276 0.0032187635 -0.43963894 0.3407787 0.12334401 -0.08969139 -0.84223133 -0.21266285 0.07206784 -0.016891703 -0.0069533107 -0.9409378 0.01916328 -0.1070679 0.19062476 -0.03473123
quede -0.47758055 -0.45628136 -0.65330195 0.1344047 -0.078555204 0.14125009 -1.1516892 0.7769322 -0.021832997 0.29057637 -0.37459624 0.8640673 0.16017254 0.2687125 -0.059774753 0.26841903 0.10539056 0.3403399 0.28243282 0.15131702 -1.3029574 0.2942843 0.35201028 0.41037598 0.22953928 -0.46206713 -0.16045296 0.15911962 0.32260263 -0.46820632
requiere -0.67821896 0.10377445 0.31819773 -0.6800019 0.5847482 0.3294645 -0.120858386 1.2192456 0.01123963 -0.6372827 -0.42387286 -0.46915412 1.1205851 0.53791744 -0.5134092 0.013223948 -0.8916442 0.35364938 0.16779338 -0.70620817 0.0026012226 -0.5378905 0.88000065 -0.13947654 0.46765593 -0.64426 -0.8639439 -1.04513 1.0615382 0.004480314
aportes -0.4678631 0.29460302 -0.3925548 -0.030368121 0.08650146 0.3450088 -0.09292186 0.49204624 0.12712358 0.15519288 -0.2895007 1.1659143 -0.39377987 0.34369242 -0.42320663 -0.04616377 -0.23450884 0.4897002 0.4543645 0.49840537 -1.112877 0.055187512 0.09003641 0.86788315 -0.46787947 -0.6386232 -0.7750409 -0.2284234 0.49235758 0.042425275
medicos -1.1311944 -0.25644556 0.4391546 -0.407685 1.3135979 0.38740018 0.35009345 0.5570494 0.38645497 -0.1378061 -0.4599036 -1.196165 0.653368 0.3860631 0.19758914 -0.17392662 -1.4044015 -0.047069356 0.12523843 -0.52497303 -0.39825073 -0.15021485 0.85030794 -0.38742092 -0.15449396 -1.486676 0.32963103 -0.20399413 0.8105263 0.27308476
reclamar -1.0582972 -0.8224858 0.4181458 -0.28459412 0.4909628 0.2126699 0.33302143 0.4596042 0.40355006 -0.07926096 -0.3252862 -0.6738174 0.1567907 -0.08536515 -0.49952123 -0.49699152 -1.6912931 0.3830578 0.28598198 -0.3802173 -0.9286666 -0.050581805 0.11430273 -0.25642157 -0.23999193 -1.7049307 1.1775208 0.24230948 0.22953324 -0.65925753
entro -0.19166546 -0.08152196 -0.17290533 -0.20200364 0.38336387 0.3574106 -0.3414927 0.4580338 0.18195717 0.115034565 -0.50007033 0.63799775 0.12398633 0.36194843 -0.31718007 0.37978557 -0.32894358 0.5048219 0.3068284 0.22852328 -0.9967091 -0.15402487 0.18771009 0.29642674 0.2668087 -0.80185235 -0.33013606 -0.07521391 0.36226702 0.086739495
quedar -0.59646 -0.40787458 -0.11063887 -0.32550383 0.14324297 0.2080098 -0.5284867 0.643131 0.12261441 0.08692 -0.46168464 0.49306676 0.32349256 -0.14857557 -0.111585006 0.09062174 -0.45946088 0.22910066 0.28035265 0.41150865 -1.047971 -0.10870595 0.20631215 0.45476216 -0.3425489 -0.5073702 -0.23667164 0.1109423 0.18958421 -0.41069907
existe -0.57868177 -0.48078805 -0.19884053 0.007862349 0.35289222 0.22930934 -0.33001813 0.45118305 0.38528046 0.018479638 -0.24916507 0.44337383 0.18205534 0.25310168 -0.26362625 -0.11186744 -0.10061712 0.5889889 0.67923975 -0.15921031 -1.0822604 -0.17197154 0.23067363 0.17173663 0.11974382 -0.5145976 -0.34796798 -0.03713881 0.31025413 -0.085650355
maneras -0.764268 -0.41713578 -0.26647562 -0.14806652 0.23993292 0.08105508 -0.012365286 0.19989832 0.25699738 0.06512874 -0.29805052 0.26077726 -0.0139392 0.17167962 -0.29733837 0.11755002 -0.5428813 0.4370965 0.6524186 0.116743326 -0.9273135 -0.23409572 0.057392348 0.2125342 -0.2162174 -0.93249583 0.048396584 0.15945956 0.2640529 -0.30938748
aparte -0.5569802 -0.6220946 -0.17248541 -0.33934748 0.47172615 0.47546917 -0.28392985 0.36905757 0.34074485 0.041189324 -0.6341207 -0.22717343 0.5329076 0.18859003 0.28857988 0.26146942 -0.5669898 0.22458641 0.39458925 -0.23667994 -0.58353436 0.10574891 0.23018448 0.028724847 -0.18036789 -0.95215255 -0.04455163 -0.04444426 0.5604262 0.0055423975
solucion -0.35268718 -0.5121223 -0.092360735 -0.14375333 0.39758548 0.17448089 -0.23044372 0.5319129 0.48804763 -0.0019811033 -0.37813792 0.10978135 0.18523006 0.45169878 -0.07759337 -0.10247726 -0.42103395 0.4427006 0.4072942 -0.06416543 -0.9068071 -0.09969537 0.18598568 0.005669416 -0.024813795 -0.7705069 -0.2648054 -0.28175533 0.5335934 0.0059984606
atendiendo -0.8171978 -0.55873317 -0.13397133 -0.36420333 0.21932559 0.26131326 -0.2220034 0.5023947 0.18247318 -0.13448904 -0.38695732 -0.22097611 0.21800308 0.15721391 -0.10357704 -0.058894087 -0.56326425 0.53157204 0.47664407 -0.33284047 -0.75675195 -0.2239276 0.23924339 -0.012048795 -0.00037438743 -0.7728995 -0.13999192 0.025995946 0.42740104 -0.10015487
pandemia -0.6556283 -0.43315977 -0.53748447 -0.31931174 0.31361574 0.021036137 -0.86152333 0.51382864 0.3695577 0.047437504 -0.3374053 -0.0047714757 0.27571172 0.06841899 -0.00896281 0.47529766 -0.2333518 0.32673106 0.6161594 0.037923638 -1.1213355 -0.021193814 -0.043809608 0.359583 -0.0056613088 -0.28843346 -0.26099113 0.17779885 0.33512875 -0.096797965
llamaba -0.63757247 -0.75786954 -0.21437451 -0.2900954 0.41370735 -0.33634403 -0.17860295 0.30254018 0.32472372 -0.17050503 -0.65604955 -0.13158004 0.008634425 0.19961126 -0.21676752 0.104987554 -0.6207358 0.267938 0.6315759 -0.28934976 -0.7901928 -0.074284226 0.24191639 -0.01745356 0.45655075 -0.7815915 -0.07541538 0.24756429 0.23366375 0.11266297
tranquila -0.6312558 -0.48304367 0.06728236 -0.7244281 0.6222471 0.5881959 -0.021831265 0.22447534 0.65604424 0.40606004 -0.33686417 0.08679046 0.2348514 0.12880144 -0.21047118 -0.07062036 -0.24147512 0.7021919 0.63318557 -0.17280635 -0.78028095 -0.088520125 0.046679713 -0.2190557 -0.24247852 -1.0670156 0.5017324 0.154503 0.24674796 -0.21869455
asesora -0.36416882 0.12646477 -0.45362514 0.014610983 -0.044584785 0.073417544 -0.46333474 0.5858927 0.08416521 0.059280746 -0.5317024 0.97187066 0.2739712 0.27181616 -0.54987556 0.5660392 -0.38309896 0.34939423 0.5063927 0.6705322 -0.9264782 -0.3371289 0.25108206 0.64100415 0.10705087 -0.47595388 -0.6815554 -0.1603811 0.45828968 0.15393627
dejo -0.2300996 -0.20231034 -0.4517453 -0.08146181 0.25063503 0.21102808 0.1451332 0.3337157 0.22967522 0.07521135 -0.6194139 0.48945758 -0.0958679 0.6260597 -0.22547872 0.050724875 -0.536526 0.6363004 0.21923767 0.07522548 -0.8960417 -0.10923799 -0.22061545 0.32197833 -0.33593866 -0.813071 -0.46190646 -0.40700868 0.6295444 0.1362221
sitio -0.46379575 -0.29724586 -0.2615829 -0.47012764 0.47420564 0.24794935 -0.14792483 0.7267986 0.27326268 0.11435609 -0.41753474 0.13677993 0.30959257 0.2899086 -0.037072685 0.23152502 -0.34949186 0.594794 0.5548908 -0.34106168 -0.7761495 -0.09223608 0.17686406 0.2388456 -0.021879978 -0.41786474 -0.34103572 -0.15318802 0.4957991 4.5667286e-05
funciona -0.45370176 -0.28228876 0.008248637 0.0064378437 0.54797363 0.19244598 0.09760856 0.77407277 0.38291043 -0.28377104 -0.5651281 0.20253938 0.08897933 0.33957916 -0.37046775 -0.20613691 -0.6290182 0.5515679 0.48277676 -0.007449052 -0.41466165 -0.12889023 0.3108297 -0.0052782097 0.27314204 -0.8552503 -0.45299545 -0.5205581 0.39410883 0.16822107
envian -0.78021973 -0.045279596 -0.2362304 -0.30491266 0.70015275 0.46125928 0.42280376 0.42599082 0.2886767 -0.095509134 -0.47211996 0.13141328 -0.009011195 0.114021674 -0.07137124 0.12904142 -0.3049723 0.7866249 0.46623015 -0.1193669 -0.6983064 -0.220076 -0.005013152 -0.032421604 0.1619194 -1.1094775 -0.02181221 0.15711865 0.3068257 0.23736413
lunes -0.43247762 -0.42816246 -0.14144215 -0.33158076 0.49572626 0.048885986 -0.5517252 0.41447708 0.426526 -0.18603927 -0.6242433 -0.101966344 0.22557488 0.2243242 -0.04224556 0.070281915 -0.49821642 0.038606092 0.39197412 0.12601164 -0.8256287 0.12134358 0.038269017 0.25146535 -0.08561098 -0.8513393 -0.08653144 -0.4185398 0.2165556 -0.08703137
contacto -0.1818931 -0.3103176 -0.4030543 -0.18775058 0.120760664 -0.14504926 -0.39086407 0.6359259 0.16997367 0.079503 -0.6093008 0.65029335 0.16068634 0.17075297 -0.5094442 0.29924017 -0.22595178 0.3857367 0.6359404 0.23764278 -1.1193863 -0.22309756 0.34415978 0.39605653 0.2581618 -0.34551165 -0.45409003 -0.09989573 0.45905116 0.1065205
deseo -0.4161988 -0.1570837 -0.41499847 -0.16461557 0.13830668 0.21482354 -0.61356395 0.5859459 0.13621998 0.1126731 -0.48885673 0.8446964 0.13286188 0.09144583 -0.2455994 0.25904346 -0.09762837 0.32179067 0.5652421 0.17645095 -1.6158206 -0.191645 0.07871809 0.4138699 0.18019028 -0.22506613 -0.20348877 0.23042421 0.05693324 -0.032789446
termino -0.41475782 -0.37694964 -0.2296724 -0.11469704 0.22203356 0.086534396 -0.50220263 0.7951953 0.3740407 0.31194192 -0.30566105 0.4194041 0.41323945 0.23131952 -0.23038521 0.31596684 -0.19138257 0.2666673 0.53717154 0.17597996 -1.0404025 -0.20282707 0.35814807 0.45963034 0.23644543 -0.35798785 -0.24394402 0.053919144 0.2839239 -0.04731204
adicional -0.43735638 -0.19259028 -0.598609 -0.042983275 0.07355693 0.34772786 -0.4432779 0.7831471 0.15823336 0.07898923 -0.38659197 0.74938107 0.031213742 0.6055334 -0.15164453 -0.05830544 -0.2526948 0.4037822 0.041024927 0.08293657 -1.2940218 -0.07530222 -0.054911114 0.5862733 -0.28222218 -0.32087773 0.039256465 0.013676752 0.63371813 -0.25175408
comenzo -0.5060221 -0.15275279 -0.39600927 -0.07915896 0.27554202 0.16120124 -0.22536595 0.42012933 0.18948926 -0.083885714 -0.4424125 0.5844529 0.2090766 0.22490112 -0.32688096 -0.034730352 -0.30164585 0.3501903 0.53147876 0.34647903 -1.0281308 -0.11715166 0.32447284 0.33894068 -0.074859716 -0.52325547 -0.56962514 -0.031048734 0.17918107 -0.08554072
final -0.3145069 -0.30017334 -0.2543814 -0.4423349 0.34026498 0.14521049 -0.42957726 0.5755991 0.25187805 0.19549704 -0.45961836 0.5578383 0.10384047 0.20148052 -0.03276511 0.09358661 -0.1304152 0.58531207 0.63469195 0.041532844 -1.076917 0.043645427 0.18442641 0.41854632 -0.13859898 -0.5841794 -0.10239765 0.025159132 0.017298983 -0.072280586
tarjeta -0.5357541 -0.50049037 0.01614163 -0.3195101 0.42279688 0.40354368 -0.1523565 0.59804857 0.31207013 0.021415647 -0.36184618 -0.20370537 0.3027185 0.29420796 0.20061603 0.13332787 -0.5798287 0.39020118 0.16054305 -0.23542278 -1.2063586 -0.20448953 0.13493131 -0.11133192 0.17679982 -0.76882076 0.17231126 -0.13081239 0.5402365 -0.06221788
unica -0.42508516 -0.4231441 -0.0962423 -0.2875411 0.3276713 -0.067416936 -0.14447637 0.42986006 0.24680625 0.022906305 -0.4130712 0.29632676 0.30420202 0.34126967 -0.27603924 0.09250122 -0.4327614 0.32896954 0.52015346 0.14373805 -0.9801296 -0.17287232 0.16205314 0.044325612 -0.21868496 -0.75538427 -0.00918273 0.013582444 0.47877643 -0.18681574
compensacion -0.3714966 -0.51008457 -0.36710268 -0.37202305 0.17252997 0.154306 -0.74752086 0.7529748 0.2192526 -0.12752289 -0.5935222 0.116231084 0.1284501 0.20469424 0.043357506 0.27688736 -0.51699716 0.38073117 0.41243345 -0.09471929 -0.86821526 -0.0030568016 0.05938171 0.50452805 0.037444267 -0.4981257 -0.22539766 0.113072544 0.4798707 0.06383565
vuelve -0.4756739 -0.13399705 -0.23419453 -0.3035616 0.497741 0.10876069 -0.24347766 0.5481086 0.35538077 0.03982809 -0.32484975 0.31709513 -0.02354545 0.14914665 -0.1708673 -0.110372335 -0.24196464 0.29315394 0.4772695 0.15533835 -0.9868176 0.22343196 0.46655506 0.21888705 -0.29641962 -0.8978239 -0.07988014 -0.0129964445 0.4796576 -0.08527407
retirado -0.34726292 -0.5561513 -0.6333299 -0.48056203 0.24838582 0.20858002 -0.75690395 0.6962245 0.22508505 0.23655945 -0.8303079 0.2344502 -0.08371462 0.23551124 0.21158342 0.6097629 -0.0640795 0.28748253 0.3889153 -0.00063914695 -1.4468037 0.04311054 -0.04046298 0.40573183 -0.09097447 -0.22345763 -0.13675618 0.50542796 0.36564314 0.11107533
mensaje -0.5457531 -0.47149587 -0.23191836 -0.5360252 0.87429696 0.25312993 0.4049212 0.16328916 0.5345165 0.070453316 -0.3100758 0.2133724 0.27730066 0.54189974 -0.33236882 -0.079544514 -0.4358087 0.56100184 0.44694713 -0.27850282 -0.68105155 -0.13297574 0.19895138 -0.24218738 0.032296296 -1.1320648 0.24195994 -0.3034341 0.18309171 -0.063426554
indicar -0.6341932 -0.18032053 -0.17346631 -0.1593686 0.62255687 -0.017891835 -0.055440806 0.35828096 0.24430321 0.13725838 -0.28630078 0.2838599 0.40685287 0.19311653 -0.32020736 0.08815671 -0.6285085 0.26755393 0.54370975 0.22952752 -0.8407251 -0.34467286 0.480231 0.050737485 0.31712657 -0.6158271 -0.16448602 0.016175939 0.4233023 0.019502984
puedan -0.44198963 -0.3458882 -0.1065718 -0.1277033 0.45753318 0.06392269 -0.12123971 0.4179118 0.22188236 -0.15228483 -0.37377262 0.0866581 0.3098903 0.24159653 -0.10367901 0.2506252 -0.7970149 0.14319634 0.30445474 0.25131112 -0.89735925 -0.3008329 0.105147935 0.08933306 0.23279111 -0.86927897 -0.36001053 -0.15476635 0.49209884 0.011242871
partir -0.37156233 -0.4607951 -0.40253988 -0.3523534 -0.0064824154 0.21766403 -0.66312075 0.6343229 0.1802329 0.3158562 -0.41536272 0.39180994 0.39168766 0.007988337 0.14970733 0.118299425 -0.15342012 0.24338228 0.4842276 0.25146374 -1.1499238 -0.19598947 0.07702033 0.33532986 0.00889784 -0.8030974 0.04972372 0.059507392 0.09875242 -0.36194277
estacion -0.4785071 -0.29241544 -0.07261033 -0.1301868 0.40111452 0.29692507 -0.11484703 0.46824196 0.34463322 0.19041872 -0.280968 0.24849838 0.42738485 0.20461954 -0.19033872 -0.17105481 -0.6797526 0.46871632 0.35216925 -0.01499204 -0.8857825 -0.1514782 0.24294925 0.0729457 -0.09536178 -0.80290854 0.12779884 -0.10898727 0.25313327 -0.16908978
raro -0.61797976 -0.24724184 0.32334557 -0.44825408 0.2428159 0.83899873 0.53162366 0.48595807 0.6364862 0.54075706 -0.10133478 0.149716 -0.22747473 0.33157957 -0.036698077 -0.27896258 -0.6070219 0.8956126 -0.037268545 0.0039711185 -0.8640143 -0.24880415 -0.42681026 0.43677515 -0.2566042 -1.7130879 0.20744842 -0.22865126 0.383175 0.024242936
diseno -0.58889973 -0.27957243 -0.22064166 -0.07093643 0.47163272 0.36948404 -0.09483357 0.4740794 0.32799244 0.15413877 -0.33570364 0.25963375 0.23027478 0.15074474 -0.3012121 0.10459326 -0.47218773 0.34086207 0.36396196 0.05444384 -0.8950251 -0.05870931 0.07881858 0.16457328 0.06279347 -0.85132563 -0.141119 -0.061774455 0.28569546 0.055457983
hiciera -0.3891768 -0.3810844 -0.086052865 -0.23625994 0.3287949 0.14501244 -0.30712503 0.668622 -0.053425424 -0.14740464 -0.5876899 0.19735678 0.03449522 0.028539773 -0.34162846 0.1573017 -0.42658597 0.1702948 0.35296762 0.30547702 -0.9007472 -0.17867321 -0.09335415 0.40207136 -0.056304194 -0.74492633 -0.2808525 -0.11665128 0.35082203 0.0740115
piden -0.416486 -0.12150251 -0.024413964 -0.23098277 0.08973016 0.10753501 -0.33128437 0.7800849 0.20679209 -0.054250106 -0.5364662 0.57473135 0.008931718 0.1742915 -0.29033443 0.030866925 -0.2969502 0.2722675 0.21193035 0.51687 -1.0899639 -0.40923542 0.24570423 0.6840226 -0.22609821 -0.60543585 -0.16201228 -0.064290635 0.22180137 -0.05942778
contesto -0.34711176 -0.6153322 -0.37944475 -0.1938727 0.24455719 -0.2277839 0.114374235 0.32281986 0.28578112 -0.039674442 -0.39325014 0.3133487 0.06428074 0.5650797 -0.26333192 -0.05304916 -0.4828257 0.35006058 0.7137366 0.14739786 -0.6958123 -0.2033002 0.31758377 -0.034802645 0.33625656 -0.9329955 -0.23084213 -0.10439828 0.3930266 0.3017539
actualmente -0.2249972 -0.14756335 -0.2931822 -0.16255789 0.36430672 -0.023046566 -0.20323706 0.3694512 0.20223682 -0.3792476 -0.68304896 0.3738341 0.3032064 0.5437526 -0.5591065 0.23194775 -0.64935565 0.3450728 0.5747163 0.43282947 -0.9744032 -0.19682449 0.26552653 0.46569014 -0.017447637 -0.31956992 -0.41142777 0.052171625 0.37103468 0.06817575
inconveniente -0.7835922 -0.15525942 -0.026851775 -0.2626061 0.22247347 -0.14428338 -0.34945866 0.6313742 0.3157072 -0.26085883 -0.25635147 -0.14752752 0.12863486 0.14655863 -0.32468635 0.06702128 -0.6382722 0.49177885 0.45479953 0.112088 -0.762665 -0.3663992 -0.016382013 0.12682766 -0.17244254 -0.9437448 -0.031387743 0.02129619 0.2174569 -0.25781336
otorrino -1.1454757 -0.9858924 0.2514028 -0.32014692 1.3541094 0.5165212 -0.26254037 0.30881888 0.5139214 -0.07351954 -0.38958004 -1.6987534 1.3100817 0.109270625 0.4263663 0.27345958 -1.2340902 0.10839794 0.023018755 -0.6721615 -0.47528562 -0.30762017 0.6006515 -0.9237846 0.39303532 -1.7587684 0.64271396 -0.034680378 0.6370604 0.24984957
pidiendo -0.54464364 -0.30620024 -0.39610457 -0.10558817 0.21057752 0.09874823 -0.5401343 0.5865358 0.25374812 -0.054313354 -0.4305847 0.5088914 0.45595974 0.43096283 -0.16140233 0.503161 -0.040716078 0.22301379 0.38866353 0.24804378 -1.202357 0.036458645 0.12040241 0.51853645 0.20161639 -0.44143218 -0.33483216 0.10994883 0.120984495 0.15523896
particular -1.2780446 -0.71660554 -0.015678436 -0.34862393 0.5288647 0.6762988 -0.5804739 0.46662563 0.13054715 0.3093658 -0.4117081 -0.8040001 0.485168 0.001348027 0.58882314 -0.016496925 -0.7420825 0.13391228 -0.18761203 -0.7741646 -0.8782832 -0.4126233 0.19459231 -0.297996 0.021997258 -1.2068323 0.22514574 -0.17573228 0.521451 0.043834127
complementarios -0.4351343 -0.34321567 -0.54239726 -0.08574299 0.3409291 0.081948094 -0.3743563 0.40242824 0.29716837 0.06369001 -0.66159827 0.48522037 -0.16733122 0.39271972 0.3644601 -0.036670946 0.07509163 0.40235692 0.5458698 -0.26867107 -1.4259688 -0.30146492 0.04265676 0.22374913 -0.17562242 -0.6892724 -0.11665846 0.106419906 0.20117292 -0.042115383
enviado -0.41051552 0.008939231 -0.103164144 -0.091071755 0.62144864 0.31708622 0.16295858 0.315214 0.38980016 0.04772307 -0.34070733 0.16861302 0.1769755 0.5177764 -0.3408535 -0.11523935 -0.703639 0.31963316 0.28319177 0.28041187 -0.60101354 -0.017178018 0.5283984 0.10996865 0.05025152 -1.027943 0.055563852 -0.05740354 0.77219045 0.47103938
solicito -0.91593605 -0.3292604 -0.40143374 0.278376 0.62475204 0.045388956 -0.62669927 0.36315203 0.62954116 -0.5956862 -0.36794758 0.22232018 0.21246724 -0.10159087 -0.47170213 0.40634862 -0.2484174 0.18979096 0.27250928 -0.13598181 -0.7688258 -0.33327186 0.36793062 0.17293045 0.19953641 -0.5832306 -0.48756036 0.47334594 0.5278128 0.024574513
semanas -0.2546914 -0.44503516 -0.55887 -0.3382057 0.020158777 0.16441497 -0.90899765 0.47433028 0.15705495 0.026267244 -0.68797773 0.40616602 0.3801459 0.14602195 -0.08939209 0.09925303 -0.027634801 0.5083206 0.7563729 -0.21413556 -1.295501 0.24707817 -0.008396065 0.6847564 -0.27044713 -0.10290757 -0.37555018 -0.13369413 0.48419833 0.12206768
encuesta -0.5197966 -0.32577416 -0.2897993 -0.033187605 0.36467478 0.13358638 -0.42916784 0.36404377 0.020402633 -0.17920288 -0.6489835 0.42057505 0.19768876 -0.0817537 -0.5774863 0.11440645 -0.40297472 0.2817412 0.5448318 0.23703216 -1.0577701 -0.32515192 0.19274437 0.1376904 0.07628236 -0.48388207 -0.36130628 0.25805396 0.33510187 0.19401206
empleada -0.4870584 -0.3479167 -0.7638168 -0.06304609 -0.111601695 -0.1711306 -0.91567457 0.5970638 -0.312351 -0.11147794 -0.6418343 0.57755536 0.13899016 -0.092674784 -0.5450685 0.49465415 0.16163842 -0.09635581 0.36270392 0.23194395 -1.3809589 -0.2819345 0.61318344 0.64793074 0.1749488 -0.4084539 -0.5416682 0.49837252 0.19418867 0.21821417
exito -0.5868353 -0.13316126 -0.07477181 0.14869335 0.5124732 -0.14315774 -0.12449878 0.43770978 0.028453788 -0.12342755 -0.40730706 0.25114977 0.2245199 0.13566731 -0.4687728 0.06620136 -0.7012501 0.042792216 0.32193926 0.25939366 -0.71183175 -0.34970242 0.44153604 0.3823396 0.1516667 -0.80740947 -0.4528992 0.07547699 0.5065033 0.08363528
cinta -0.6218544 -0.5942266 -0.40226057 -0.5943137 0.7445898 0.3067184 -0.10416715 0.4811647 0.20180137 -0.05518562 -0.34997112 -0.22906792 0.462292 0.58475816 0.14611858 0.20899428 -0.5946323 0.48489115 0.5658079 -0.28808692 -0.4920295 -0.1342237 0.5002934 -0.09030392 -0.14987922 -0.7694891 0.04616105 -0.26702428 0.39863592 0.03952893
cotizar -0.11754611 -0.37653393 -1.053232 -0.33135387 -0.49634585 0.2986082 -1.5192094 1.0992249 -0.32540527 0.36225608 -0.9154468 1.2733437 0.37539822 0.032266226 -0.25033957 0.29458377 0.33449045 0.34564808 0.78319687 0.069115534 -1.7246492 0.25845873 -0.2344806 1.2650383 0.048654296 0.121478945 -0.32407677 0.26022714 0.23903984 -0.2910896
siguen -0.7465466 -0.12669908 -0.49576005 -0.35339946 0.045230627 0.03322694 -0.16261923 0.42015588 0.2620703 0.0016167455 -0.23432316 0.6029902 -0.0559948 0.13288331 -0.055492837 0.3374519 -0.28745845 0.5868603 0.7824258 0.2889045 -0.99878347 -0.36578783 -0.10286325 0.32597214 -0.20093285 -0.7741717 -0.28482878 -0.1572975 0.2352025 -0.11730259
edad -0.56877846 -0.55476725 -0.33055606 -0.4059042 0.2902126 0.11216363 -0.2129613 0.67555887 0.3152435 0.03713165 -0.5724086 0.11063437 0.36129707 0.39000148 -0.044951092 0.3146354 -0.24041721 0.47591344 0.52428436 -0.3618264 -0.9873562 -0.15679222 0.18603168 0.20820776 0.25153854 -0.44433993 -0.23887363 0.15245679 0.1121384 0.06718783
convenio -1.4495544 -1.1196709 -0.14083333 -0.50547403 1.1533375 0.5594828 -0.32009074 0.30032644 0.6174474 0.7230029 0.13178594 -1.6470674 0.78917885 -0.038228936 1.0086309 0.27373832 -0.72373253 0.19904955 0.48894772 -0.9605649 -1.0042124 -0.5905735 0.8151584 -0.835374 0.11765822 -1.5311654 0.19951442 0.022606773 0.3296869 0.083412156
empezar -0.5385397 -0.37255675 -0.56901604 -0.2677961 0.17514323 0.3197768 -0.89731777 0.7182704 -0.086221226 0.17258488 -0.62636566 0.4665011 0.31537905 0.037118357 -0.003677998 0.3081226 0.046085656 0.13353384 0.50681114 -0.12521945 -1.1406307 0.13997853 0.07710897 0.57966423 -0.17331682 -0.29392827 -0.124217086 0.24996866 0.31051865 -0.26325765
lejos -0.6245336 -0.5537566 -0.2656496 -0.17708227 0.45763662 0.11894847 -0.22346593 0.45553365 0.3191754 0.118119635 -0.65836334 0.050008763 0.3347701 0.34643513 -0.36092302 0.10333806 -0.6639878 0.19699195 0.62922937 -0.12886986 -0.8038466 -0.02348094 0.1784518 0.04791988 0.09044731 -0.57732445 -0.11485994 0.17156424 0.11566853 -0.04514673
fondo -0.60224956 -0.41898167 -0.2834619 -0.048660226 0.54990673 0.42646572 0.11036348 0.67030895 0.2041639 -0.24948642 -0.63266283 -0.113009505 0.24208112 0.23731418 -0.25504726 -0.37831295 -1.2736951 0.53144175 0.52293634 0.07202333 -0.17579043 -0.036383584 0.4229107 0.45831576 -0.13776548 -0.6569934 -0.6011869 -0.67288774 0.2853373 -0.14736442
intentando 0.05640287 -0.39095744 -0.4195815 0.6635402 0.2944212 0.39396974 0.7125985 0.14929767 0.014641173 -0.33263552 -0.7095461 0.8724221 0.6225803 1.0172373 -1.0419366 0.52137923 -0.6766975 0.9778882 0.042499427 -0.070005886 -1.1279533 0.033843465 0.3296617 0.17432977 -0.070605256 -0.8984452 -0.121599734 -0.33624506 -0.33301172 -0.09235118
tramites -0.10761091 -0.19992483 -0.21730778 -1.1192136 0.45658535 -0.1357045 -0.39485347 0.51458544 -0.48288295 -0.26741457 -0.43315008 0.38213864 0.4897718 0.5760458 -0.28453422 0.20015259 -0.3436886 -0.258247 0.91342527 1.0879718 -1.2484663 -0.3961723 0.83978814 0.38478702 -0.17609127 -0.15786459 -0.47294325 -0.25737128 0.5952827 -0.19411
necesidad -0.33185437 -0.46350753 0.09868653 -1.1863331 0.80227315 -0.060719542 -0.3177867 0.3465031 -0.6015568 -0.32545787 -0.41819745 -0.12495388 0.6494241 0.50246376 -0.15065284 0.048506495 -0.7504145 -0.42618877 0.7952349 0.92138195 -0.983567 -0.39543587 0.84236753 -0.0078115994 -0.28397334 -0.42823997 -0.057859126 0.0639727 0.62185466 -0.23455447
bienestar -0.59117246 -0.09818338 -0.4423617 -0.28434643 0.3164889 0.32392338 -0.100461096 0.3750602 0.18752594 0.3844497 -0.60610116 0.6686664 -0.16873075 0.4301171 0.3728316 0.052603934 -0.18916583 0.53173286 0.22169633 -0.07352616 -1.1724672 -0.3707771 -0.07331396 0.31504634 -0.38149732 -0.76492023 -0.25813383 -0.016272109 0.31532976 0.21750051
telefonico -0.31762078 -0.1310944 -0.37037385 0.26622513 0.26219565 -0.06542773 -0.27100667 0.60432345 0.26375365 -0.3563759 -0.4503942 0.77956873 0.5318821 0.044415597 -0.7120506 0.11222841 -0.36043173 0.27290294 0.4681847 0.17291944 -0.9353489 -0.23902096 0.60642356 0.38854888 0.5486669 -0.45862618 -0.879776 -0.034278538 0.39892364 0.21513543
ultima -0.6333619 -0.23352693 0.2312078 -0.5263681 0.35040528 0.4808226 -0.088198155 0.19149835 0.49710461 0.26494113 -0.39631817 -0.09462569 -0.11105558 -0.01704558 0.10785779 -0.39672053 -0.53627354 0.5907631 0.7083876 0.14481306 -1.1397328 0.072898984 -0.18303767 0.15043256 -0.43968183 -1.2998917 0.406204 -0.09513881 0.14057572 -0.25535274
acaba -0.9130158 -0.38055086 0.23811491 -0.32932132 0.4459961 0.09804256 -0.21933776 0.61723065 0.07762504 -0.08245993 -0.31911507 -0.2247645 0.47259146 0.03681259 0.07073289 -0.16203925 -0.6148931 -0.26995417 0.33794948 0.37135532 -1.1799828 -0.27739474 0.1154338 0.030832065 -0.19177078 -1.1549139 0.3968129 0.1936075 0.33056265 -0.48456475
entendi -0.6716422 -0.8588202 -0.04204705 -0.09088545 0.35881355 0.078049704 -0.27738893 0.46905443 0.45169324 0.2223872 -0.23148912 0.27399537 0.11891639 0.28944126 -0.049088206 0.0544145 -0.27611476 0.26436067 0.4887386 -0.027878046 -1.034005 -0.13653435 0.16754028 -0.059115097 0.20076506 -0.8254542 0.3083168 0.143226 0.34207958 -0.08576434
afiliacionse -0.2247867 -0.24874789 -0.38950816 -0.099123605 -0.10435125 0.046606965 -1.0890179 0.78410435 -0.06900052 0.006389316 -0.70112926 0.909723 0.18295103 0.016406525 -0.2704599 0.20166199 -0.14355186 0.18407297 0.305167 0.48212987 -1.3519521 -0.34908304 0.30161083 0.64849705 0.11272974 -0.30229276 -0.4086579 0.30021137 0.039987452 -0.09410541
cambie -0.5110386 -0.38198274 -0.22814696 -0.34368774 0.2944227 0.14862989 -0.12833315 0.4718658 0.1969495 0.06494379 -0.5556416 0.41900685 0.16938652 0.34225756 -0.068452045 0.06006049 -0.47149575 0.49623248 0.3826786 -0.07311638 -0.7690561 -0.2354695 0.29957086 0.054536793 -0.028913124 -0.6943511 -0.09697832 0.09461625 0.25839585 -0.018700885
sucede -0.52474344 -0.22974254 -0.21759923 -0.41095546 0.4157655 0.22272593 -0.34940672 0.48909107 0.35246453 -0.18451059 -0.6363064 0.19735746 0.01038853 0.31894377 -0.12431235 -0.1424276 -0.33374906 0.46714842 0.405451 -0.2532435 -0.79256755 -0.09167045 0.11896587 0.25220847 -0.099334784 -0.69870496 -0.17049176 -0.17349315 0.26565394 -0.05478208
entiendes -0.4620116 -0.45938864 -0.08125002 -0.11000723 0.19115756 0.29812476 -0.3637925 0.41584235 0.08919015 0.119341105 -0.4253963 0.14037502 0.122319594 0.08924887 -0.20712732 0.14217289 -0.73799264 0.3216537 0.35013163 0.19449186 -1.01804 -0.27664143 0.072199516 0.10746062 -0.10221212 -0.83900094 -0.022339115 0.040931173 0.332857 0.0038633654
disculpe -0.8957159 -0.40792477 -0.3889926 -0.030414836 0.28465065 0.20028973 -0.42611024 0.3928753 0.8187915 0.005825687 -0.17564714 0.27487883 0.18681464 0.05380171 -0.34426266 -0.26072463 -0.5820375 0.64867055 0.40891883 -0.4416748 -1.043346 -0.30865708 0.060412414 0.026021697 0.0355787 -0.57845956 0.05980357 -0.16189897 0.38089603 -0.4272115
listos -0.40108067 -0.37234023 -0.16316287 -0.017867604 0.34790745 0.16438842 -0.23792218 0.5660803 0.39320266 -0.156832 -0.5809404 0.395225 0.017305791 0.21402927 -0.3044952 -0.07234212 -0.23774685 0.44962585 0.41006503 0.028431196 -0.85904336 -0.09463957 0.20150474 0.20334435 -0.108844474 -0.63663036 -0.28057164 -0.33029237 0.3576417 -0.11340668
interes -0.43532863 -0.22142807 0.18190475 0.16451584 0.48888868 0.028843192 0.109781116 0.53219444 0.42165446 -0.08917247 -0.22575535 0.39623728 0.26063317 0.27490884 -0.7323599 -0.13774355 -0.79215705 0.2308347 0.024965722 0.3389051 -1.0481254 -0.0027729543 0.38455573 0.25776327 -0.19232051 -0.7328417 -0.13316129 -0.19792603 0.3322988 -0.3023092
comunique -0.16679466 -0.030373903 -0.60588557 -0.25264198 0.5771955 0.41358882 -0.0624869 0.59007716 0.24812095 -0.14346416 -0.7115388 0.5936677 -0.1768304 0.45635718 -0.34748474 0.081225194 0.069948 0.48236275 0.35511726 0.27610055 -0.99003893 0.09582759 -0.070748866 0.77258617 0.10820348 -0.58835524 -0.46915543 -0.20919499 0.6223702 0.40568665
necesitaba -0.56606096 -0.5751441 -0.28906536 -0.19852324 0.36311725 0.09604725 -0.5220838 0.51570493 0.1545438 -0.019691594 -0.4583179 -0.045410644 0.38179368 0.19909951 -0.23828065 0.1932562 -0.4500474 0.05035011 0.44689476 -0.23450445 -1.0672292 -0.28586146 0.42373922 0.09417555 0.3927216 -0.5676261 -0.1605647 0.23024093 0.08879213 0.020507285
regalar -0.36498696 -0.036393404 -0.31182587 -0.017273135 0.18101536 -0.12613387 -0.5145287 0.45103177 0.0444924 -0.07435065 -0.5581559 0.68936026 0.15824015 0.11703733 -0.62152207 0.1346141 -0.4904496 0.34734008 0.37380856 0.28624937 -0.90281165 -0.33694673 0.2334289 0.4447709 0.13284901 -0.6132325 -0.5069158 0.0047225086 0.33888978 0.1651084
vacuna -1.0835774 -0.56874055 0.29190764 -0.89774656 1.2855946 1.1308436 0.044160623 -0.024979167 0.49720916 -0.29402062 -0.5519308 -0.6717843 0.59034175 -0.22728534 -0.121222325 -0.08635848 -0.7509409 0.8930363 0.592447 -1.0062772 -0.40575087 -0.038943317 0.460142 -0.63381654 -0.18228762 -1.1713423 0.34083638 0.03293568 0.4438516 0.046193834
vuelvo -0.56892127 -0.39346576 -0.21843521 -0.15800287 0.5155962 0.21457128 -0.080555074 0.4624552 0.033888858 -0.015014643 -0.39955077 0.22230239 0.16522631 0.24989633 -0.26383215 -0.1902593 -0.5704582 0.42834303 0.36484066 0.08244878 -0.61347234 -0.48993295 0.3606185 -0.106975846 0.19110832 -0.91107804 -0.051751673 0.11086561 0.33233753 -0.062778994
irse -0.6371805 -0.18792701 0.3366434 -0.1441071 0.73401195 0.18666452 -0.028769473 0.6027025 0.23755476 0.02026225 -0.55780864 0.119120374 0.33423835 0.3109282 -0.3108704 -0.09213888 -0.8738039 -0.12587798 -0.0040857727 0.40492156 -0.63934517 -0.27492067 0.30649543 -0.04025515 -0.17973647 -0.9803407 0.0132551845 -0.18333355 0.43585452 0.12310356
