886 30
afiliacion -0.6835587 0.6676491 -0.6406585 0.28050572 0.13797787 -0.34188232 -0.2330448 0.43262607 -0.113452524 -0.24615306 0.19168432 0.6054635 -0.4931328 0.17998163 -0.14490998 -0.021165961 0.2561145 -0.60741067 0.05442644 -0.0135576725 -0.18574604 0.22693714 -0.11144289 0.015453462 0.29583296 -0.28687313 0.37758422 -0.024344282 -0.3221842 -1.164343
pagar -0.6386133 0.7580712 -0.57056683 0.042406272 0.17884125 -0.40305522 -0.33683 0.33777893 0.103045054 -0.32892627 0.06542554 0.6883381 -0.43152717 0.20898771 -0.20105581 0.048049543 -0.0005048469 -0.6636584 -0.028684031 0.06601461 -0.23759262 0.31962925 0.1755556 0.09945144 0.3561595 -0.07681161 0.30486047 -0.011859276 -0.2687115 -1.2849653
cita 0.36503088 0.71977234 -0.04350567 -0.5913051 0.44343063 -0.1825151 -0.28096896 -0.351087 0.2961416 -0.119798295 0.0518274 -0.4739094 0.1335658 0.38104695 0.7458671 -0.01753462 0.22484826 -0.78476703 0.19648312 0.056807235 -0.42920125 -0.23916388 0.29899275 -0.5323419 0.33984774 0.12067332 0.9035006 -0.00940288 -0.4284799 -1.0225655
independiente -0.7015994 0.6510902 -0.632235 0.17973885 0.19823422 -0.3606054 -0.27666613 0.43235704 -0.06322104 -0.28897887 0.18780817 0.6339733 -0.48321146 0.10081537 -0.16414867 0.048730057 0.22310781 -0.58761287 0.03311441 -0.0014591062 -0.22337167 0.1725836 -0.06640715 -0.015567382 0.2659701 -0.27025118 0.46348974 -0.013824676 -0.30989397 -1.2424945
informacion -0.36760673 0.75215346 -0.47637388 0.050368786 0.14369711 -0.2937544 -0.22737738 0.20185229 0.018740652 -0.13113573 0.13816884 0.21984987 -0.2140125 0.16996592 0.25150982 0.0053189867 0.20502914 -0.7005433 0.08132705 0.06655109 -0.18761916 0.05170236 -0.019227695 -0.12386075 0.36514184 -0.24923085 0.5660441 0.034006786 -0.32958677 -1.0429863
afiliado_a -0.42146748 0.6612822 -0.5903369 0.10983619 0.13509826 -0.36423585 -0.18602362 0.31331915 -0.10944884 -0.23069328 0.16655022 0.3385705 -0.34152856 0.18773153 0.07098949 -0.034611758 0.23357108 -0.729018 0.08917987 0.06089365 -0.2510838 0.093963094 0.044274487 -0.13520423 0.3765713 -0.13062325 0.4938972 -0.016186213 -0.22850148 -1.0946438
aparece -0.17596419 0.6387222 -0.38244733 -0.18554017 0.23282126 -0.2895559 -0.2919804 -0.054481234 0.15822183 -0.16297428 0.22186945 -0.015949376 -0.14230403 0.33080262 0.18118455 -0.12513828 0.34660265 -0.8189652 0.2890791 -0.012911525 -0.42662138 0.053388394 0.07095194 -0.34490925 0.23595788 -0.15975808 0.5452712 0.038718134 -0.24964707 -1.0957813
telefono -0.385419 0.8099034 -0.42964208 0.03245597 0.19719471 -0.26774085 -0.18831463 0.11249184 0.11865128 -0.09974128 0.14872633 0.19218177 -0.17715962 0.19794953 0.32790124 0.07785091 0.13159242 -0.6714512 0.14409576 0.03471205 -0.20685795 0.12450961 0.024835136 -0.19644168 0.44537354 -0.1848208 0.54994565 0.006975516 -0.30336213 -1.0638399
pagina -0.24770486 0.542831 -0.3996375 -0.032320924 0.17253289 -0.26226473 -0.30256245 0.09271431 0.050053366 -0.17553286 0.28558677 0.15692924 -0.27141502 0.26048648 0.24455558 0.018463135 0.30521917 -0.6512138 0.20185992 -0.053852282 -0.37514928 0.051454064 0.040522967 -0.35646826 0.33629954 -0.15318045 0.59508544 -0.01253669 -0.29335222 -1.0353457
mandaron 0.30539423 0.7470058 -0.1210227 -0.55617785 0.42672193 -0.25962973 -0.29304948 -0.3054258 0.22921191 -0.09249998 0.047239322 -0.49352753 0.25654453 0.30262825 0.78919363 -0.13018933 0.23935184 -0.76246303 0.23637645 0.051813096 -0.45802987 -0.29275614 0.19534194 -0.48546207 0.28233898 0.020648573 0.7982414 0.095498435 -0.3922275 -0.9762238
consulta 0.23729138 0.8341319 0.2045541 -0.7958999 0.46719262 -0.32276186 -0.31645927 -0.74747294 0.3349257 -0.13961026 0.116460435 -0.1800622 -0.18073039 0.09035951 0.40345007 -0.09044584 0.39525768 -0.703541 0.042388067 -0.24903767 -0.44047728 0.03472122 0.18444718 -0.6326389 -0.1790482 0.0480167 0.80051136 -0.12533131 -0.62109226 -1.1797683
oficina -0.43596515 0.71024084 -0.48711824 0.028412992 0.21245284 -0.35737532 -0.25704408 0.19675347 0.0017935818 -0.17959848 0.17115627 0.27334008 -0.221275 0.20076771 0.1526382 0.028239895 0.17127891 -0.6965568 0.15022047 0.019995965 -0.2688093 0.10124799 0.0064854403 -0.13706218 0.40580517 -0.16743459 0.4532239 -0.0024422272 -0.2910573 -1.1122075
proceso -0.3533088 0.59634274 -0.5354185 -0.010522738 0.1933585 -0.31598762 -0.37976515 0.17780466 0.13521385 -0.1620197 0.28307468 0.20895149 -0.325346 0.23300958 0.12537907 0.0806653 0.2390552 -0.64700925 0.18959972 -0.031144692 -0.23840772 0.07577835 -0.0007115973 -0.19576478 0.23811951 -0.17508025 0.49019477 0.013581199 -0.24862744 -1.1040107
pedir 0.10357619 0.73369616 -0.20251344 -0.41259956 0.2979138 -0.2304678 -0.2576137 -0.20177992 0.14694393 -0.1555533 0.124280885 -0.14846547 -0.016042467 0.31506315 0.5512695 -0.009524407 0.24440432 -0.7004947 0.124714404 -0.024229929 -0.34808022 -0.07035809 0.18852039 -0.37606055 0.34690374 -0.0017858706 0.75064075 0.0035776459 -0.37281135 -1.042056
momentico -0.26198497 0.76292586 -0.45221826 -0.04115799 0.1769923 -0.23219353 -0.23824991 0.11582075 0.050288104 -0.13596374 0.15083666 0.088022366 -0.15557222 0.21500158 0.28725776 0.025412336 0.10180047 -0.7143251 0.0995667 0.002453948 -0.23190318 0.047933802 0.039778918 -0.2161406 0.3385825 -0.14091127 0.5512927 0.008690518 -0.21694167 -1.091156
formulario -0.4402312 0.64721435 -0.48982102 -0.00884014 0.21204074 -0.34333688 -0.3178324 0.20710683 0.002878128 -0.17247877 0.23751484 0.3283955 -0.34904048 0.17588174 0.05786018 0.018237958 0.2857023 -0.67515 0.12685935 -0.052020248 -0.21915482 0.16783412 -0.008965076 -0.21605489 0.3287925 -0.23506998 0.48299626 0.055576593 -0.32751393 -1.0710468
datos -0.29168704 0.7299127 -0.44242948 -0.055830386 0.27399555 -0.21390381 -0.24518882 0.047049776 0.13913007 -0.13478181 0.1547194 0.14195687 -0.23312917 0.2421106 0.23833686 -0.04613744 0.14544682 -0.65722024 0.16793558 0.019614011 -0.1780525 0.0137915695 0.096414044 -0.2220647 0.3955547 -0.10957177 0.56707215 -0.04397658 -0.27991298 -1.1217912
volver -0.30776206 0.7684785 -0.44665363 -0.07279688 0.24074896 -0.30617952 -0.28159502 0.22807463 0.05608087 -0.21952835 0.11477708 0.26193586 -0.21706104 0.17973462 0.13113825 -0.0012480128 0.22495031 -0.6190522 0.075902745 0.056395177 -0.24918135 0.01546335 0.0656198 -0.16897634 0.35696608 -0.09138352 0.4981336 0.06029126 -0.3082666 -1.1167803
asesor -0.48303717 0.74195683 -0.49825242 0.11104587 0.17633897 -0.30162612 -0.2753001 0.23783168 0.019452818 -0.17180364 0.15508099 0.351295 -0.3061135 0.13557735 0.16117872 0.040949427 0.14987485 -0.6172896 0.15384704 0.039809443 -0.21098682 0.07678808 -0.02611748 -0.12343722 0.38308117 -0.18655707 0.48020345 -0.022930302 -0.27215844 -1.1019015
ciudad -0.2817552 0.77991074 -0.48075226 -0.04301008 0.21664967 -0.34632313 -0.24894941 0.2525923 0.07055954 -0.13319394 0.21620277 0.16296065 -0.13822457 0.15209192 0.21761754 0.023690253 0.14337154 -0.7336967 0.13163942 0.05320817 -0.21092103 0.07965776 0.019805728 -0.15697776 0.39886904 -0.1376753 0.54324067 0.047356665 -0.26938292 -1.1148399
contrato -0.52193236 0.60608774 -0.50793326 0.016676646 0.12168917 -0.37003434 -0.45474324 0.3216024 0.024757398 -0.29826128 0.15980561 0.23463877 -0.32549262 0.080210194 -0.018014325 0.017714748 0.20145184 -0.6945219 0.10574009 -0.06388484 -0.1163225 0.12623021 -0.06383976 -0.1573634 0.23886396 -0.19443369 0.47163492 0.08913894 -0.25925198 -1.2449116
problema -0.24445201 0.79475486 -0.4209596 -0.15746474 0.23840305 -0.36402982 -0.28409532 0.119935855 0.013030474 -0.20702276 0.11473122 0.12637083 -0.12646681 0.21680655 0.26563874 -0.023437351 0.17232639 -0.69906497 0.08663183 0.055821825 -0.30206943 -0.023887265 0.11891225 -0.23666084 0.42509213 -0.052619603 0.5766638 0.01598278 -0.26735967 -1.093852
dije -0.08199032 0.8024387 -0.25061312 -0.24832307 0.30927253 -0.30206585 -0.28893238 -0.12354394 0.13243403 -0.15273276 0.17283875 0.076600604 -0.15461266 0.1861889 0.31828186 -0.08193731 0.22162455 -0.72736686 0.14889042 0.011240681 -0.28810158 0.0017633641 0.12615855 -0.3170848 0.26610872 -0.032577604 0.60073304 -0.02224614 -0.39089432 -1.1296216
pueda -0.20341568 0.8017236 -0.36548463 -0.0866817 0.20191649 -0.34065193 -0.19613904 0.099514976 0.037600696 -0.13477685 0.1708014 0.139965 -0.10669914 0.2154072 0.2948583 0.0013915137 0.17874172 -0.7006242 0.12997474 0.026162913 -0.2710962 0.016156416 0.049710628 -0.241313 0.38076594 -0.15306313 0.5728079 -0.015204651 -0.28834668 -1.0881435
hablar -0.2786882 0.77944666 -0.4832755 -0.09796658 0.22789311 -0.29601917 -0.29392302 0.14267989 0.055643175 -0.1757314 0.15779142 0.18399325 -0.20250225 0.18285228 0.19811182 -0.010523345 0.21033478 -0.726073 0.100267604 0.043734558 -0.22808616 0.031750817 0.049608137 -0.15915194 0.37673137 -0.12373963 0.52084136 0.0004074204 -0.2935222 -1.11467
pasado -0.24317959 0.73742664 -0.38322955 -0.11584876 0.30391997 -0.29630387 -0.23407213 0.10696044 0.06770937 -0.23961262 0.1572639 0.19370985 -0.17668091 0.19743958 0.20759349 -0.006630511 0.2324706 -0.6960485 0.08016036 0.0750072 -0.30171213 0.0834073 0.08788656 -0.13048156 0.36353624 -0.07816442 0.51228 0.09402865 -0.31061462 -1.084248
familiar -0.25055757 0.76505905 -0.5000356 -0.033979863 0.21910281 -0.3084421 -0.32055616 0.12983543 0.0634652 -0.1578052 0.13665274 0.23217177 -0.2655081 0.21819335 0.16954908 -0.028240113 0.10654363 -0.73748374 0.12675261 0.078299545 -0.26467356 0.09922154 0.14462192 -0.08203199 0.3173409 -0.08855844 0.5350602 0.057827864 -0.27153882 -1.0574613
digame -0.1347661 0.7976034 -0.4718648 -0.09053975 0.21099506 -0.24492961 -0.27808952 0.10583563 0.09096681 -0.07157666 0.09591138 0.025923708 -0.11248444 0.15782307 0.38826647 0.039898407 0.087371536 -0.78780246 0.072075546 -0.002037979 -0.21668507 -0.02577363 0.1109562 -0.1390367 0.36640468 -0.09224666 0.5966669 0.08441041 -0.24906513 -1.0889325
hacerlo -0.29488695 0.7429072 -0.40359885 -0.049435977 0.24066357 -0.2663921 -0.25177452 0.14728983 0.05161322 -0.225121 0.15998581 0.19512942 -0.20475252 0.22384563 0.1882712 -0.011119706 0.19954783 -0.65695757 0.12568802 0.045478176 -0.24112071 0.043550853 0.06227176 -0.20208019 0.3471006 -0.12027751 0.5545157 -0.021223368 -0.29042295 -1.0932313
cotizante -0.33080143 0.7428666 -0.49082223 -0.0033907744 0.22493495 -0.29677862 -0.21488713 0.25278237 0.02716209 -0.20727147 0.15973099 0.25810772 -0.25851312 0.19861531 0.112249084 -0.05597877 0.22402102 -0.7091455 0.08028701 0.04196387 -0.23266453 0.069116786 0.03793676 -0.09832537 0.37419155 -0.14417543 0.50845575 0.037103675 -0.277347 -1.0922004
numeros -0.28640857 0.7863069 -0.38628152 -0.09261667 0.26232356 -0.27110302 -0.27239937 0.07389369 0.08401644 -0.11920513 0.16965559 0.17807232 -0.19927903 0.19623719 0.31389418 0.029022582 0.17545943 -0.68048936 0.14714266 0.0010693352 -0.2656751 0.047204174 0.06539812 -0.16466364 0.39136514 -0.16904774 0.5379652 0.022573924 -0.25013632 -1.0485535
llamar -0.13841756 0.8219592 -0.37111083 -0.116129205 0.23917153 -0.31870067 -0.25205928 0.06009403 0.080085285 -0.10412444 0.1411582 0.0772778 -0.121031605 0.21453963 0.3681402 -0.011617302 0.16876787 -0.7014131 0.12438938 0.053735916 -0.3219172 -0.010378488 0.11995209 -0.2522852 0.38667703 -0.07359705 0.6197828 0.033318754 -0.30845255 -1.0598286
dicho -0.27161336 0.80130005 -0.356045 -0.11782416 0.20814231 -0.2802921 -0.30681065 0.073589146 0.08516596 -0.114868104 0.08745679 0.19363546 -0.10700305 0.16387406 0.22019856 0.013406079 0.16518894 -0.7609169 0.10276975 0.06372663 -0.2649181 0.047055703 0.13287488 -0.19939211 0.3061635 -0.070904225 0.5956896 0.0068331705 -0.31221354 -1.0829109
pagando -0.4660919 0.81409425 -0.4567681 -0.07594755 0.18811318 -0.39538002 -0.2431603 0.18744089 0.09121586 -0.1622519 0.010017282 0.37709576 -0.14258297 0.12901759 0.06614162 0.055149026 0.14943686 -0.65679026 0.017138686 0.04631432 -0.23764409 0.23807088 0.10245961 -0.1603683 0.37508586 -0.09232663 0.34534392 0.093466066 -0.32054806 -1.2128679
venga -0.13086225 0.75466007 -0.40137127 -0.15638919 0.22512604 -0.33379713 -0.28325388 0.022740863 -0.008232808 -0.14936407 0.14740364 0.07297595 -0.09313914 0.26903477 0.3374602 0.026741592 0.14998247 -0.70245844 0.11334376 0.058047045 -0.27656195 -0.013174414 0.15048471 -0.25152305 0.3675689 -0.06777564 0.60563934 -0.018359922 -0.25884324 -1.0543925
seguir -0.38215533 0.7615416 -0.4478698 -0.045387883 0.21816438 -0.3792319 -0.2836757 0.16620374 0.0925545 -0.18039742 0.0857415 0.24321355 -0.2091291 0.14186047 0.17025754 0.033985935 0.21504764 -0.6999891 0.060386546 0.052870072 -0.24573609 0.10263846 0.03795044 -0.1674435 0.35171744 -0.16536209 0.43253893 0.067043535 -0.27439502 -1.0966682
tramite -0.41614485 0.72447854 -0.5195995 0.017953744 0.17941943 -0.30403662 -0.29558846 0.17493825 0.035227213 -0.12551466 0.18508437 0.3027498 -0.23930018 0.26557934 0.19953537 0.03409514 0.21191543 -0.6750754 0.13983999 0.051879197 -0.24949807 0.019076081 0.0036787223 -0.13846658 0.36360013 -0.14494298 0.5338192 0.010171017 -0.2617213 -1.1002834
haciendo -0.33766377 0.7332469 -0.43356478 -0.033648163 0.19898789 -0.30948555 -0.2906685 0.10714238 0.0066890717 -0.15070727 0.16471225 0.21758164 -0.19961192 0.23777293 0.19399634 0.043513134 0.1583218 -0.66249627 0.09463706 0.07112204 -0.21553884 0.0687169 0.056340255 -0.14541173 0.33337978 -0.1063083 0.5853581 -0.0436541 -0.32297286 -1.0597575
enviar -0.21071395 0.7467706 -0.37939662 -0.108127154 0.22266543 -0.2422959 -0.26750836 0.051493734 0.15268488 -0.12262044 0.22465895 0.16000202 -0.20422345 0.16429064 0.22236565 -0.04154652 0.20473708 -0.76915205 0.18432076 0.039377324 -0.24959973 0.029112723 0.041771807 -0.27594653 0.29328722 -0.061888404 0.55113477 0.04886888 -0.31123582 -1.100755
oficina_virtual -0.2840212 0.64807063 -0.42845005 0.045296863 0.16342498 -0.28123185 -0.19242597 0.25008518 0.018633856 -0.2605569 0.228126 0.2171588 -0.1999484 0.2969727 0.254313 -0.046036813 0.30846965 -0.73649174 0.171678 -0.0007141802 -0.29001266 0.05665315 0.010562486 -0.20510255 0.4551798 -0.17083234 0.63892454 -0.09374112 -0.26573083 -1.1104285
personas -0.30771205 0.74102056 -0.46229598 -0.034319308 0.1966263 -0.28593248 -0.26106244 0.124974936 0.02586383 -0.16180173 0.18722051 0.22892775 -0.23497403 0.23150429 0.24430983 -0.025359424 0.17594852 -0.6869746 0.13358779 0.034987178 -0.21559879 0.09134428 0.01841066 -0.17889129 0.35088465 -0.1732565 0.5694872 0.0019624003 -0.27992275 -1.0602454
celular -0.3353513 0.7117442 -0.44327614 -0.010721135 0.22083291 -0.30172628 -0.2479249 0.15658115 0.08764827 -0.10419503 0.17482431 0.22036251 -0.17816398 0.2267975 0.20945163 0.038898576 0.18642746 -0.65318 0.14362967 0.0118116345 -0.2310071 0.07763425 0.05301276 -0.18458526 0.38574576 -0.15497938 0.55060875 0.0048527746 -0.33373794 -1.0938396
necesita -0.15385689 0.7250662 -0.34641847 -0.16854188 0.25834027 -0.28718537 -0.3534974 -0.018850155 0.12191717 -0.21006626 0.21545148 0.0813084 -0.23938952 0.1506987 0.2563042 0.01618811 0.25787407 -0.6870311 0.12012377 -0.04546116 -0.24781509 0.03173883 0.016772998 -0.23895007 0.25186193 -0.12894408 0.5992907 -0.028233843 -0.28902823 -1.0974135
llevo -0.16919135 0.76152915 -0.3064654 -0.1459431 0.281131 -0.3011241 -0.29193026 -0.01258472 0.09259068 -0.13191397 0.11664486 0.11519226 -0.070949316 0.19140351 0.25684714 0.03431724 0.16565596 -0.7031232 0.13337082 0.06340446 -0.30456322 -0.036288463 0.12273482 -0.25349557 0.3400567 -0.06910851 0.6020828 -0.018327363 -0.31099784 -1.0731766
ayudar -0.38013342 0.79223794 -0.46051008 -0.019938579 0.12654547 -0.31590888 -0.266209 0.18242905 0.030079275 -0.21551141 0.1427472 0.1983367 -0.1947168 0.17639115 0.24332611 0.018606959 0.09806395 -0.6976967 0.07288161 0.06995019 -0.27505147 0.08935486 0.029604413 -0.20651172 0.40182868 -0.15383585 0.51998925 -0.01332253 -0.23022029 -1.0809658
planilla -0.44710842 0.75566167 -0.35847938 -0.053942963 0.3282804 -0.30279225 -0.2209451 0.14372925 0.05666388 -0.20702244 0.1497215 0.5197311 -0.3350947 0.22282213 -0.06901167 0.02651334 0.26411024 -0.6747436 0.07591567 0.040503956 -0.22266424 0.15995525 0.07689753 -0.06549464 0.402205 -0.077924386 0.39825535 0.07622769 -0.34102005 -1.2007853
certificado -0.30277357 0.68665624 -0.48984796 -0.03915458 0.21773729 -0.3194404 -0.27268568 0.17957343 0.028848961 -0.17796315 0.18135804 0.28215185 -0.2569705 0.20574602 0.09260437 -0.04005121 0.26682714 -0.6532876 0.15396404 0.040008057 -0.21398765 0.04548248 0.027935484 -0.1961296 0.3669252 -0.11620956 0.55954033 -0.044571187 -0.24764366 -1.1168447
podido -0.18181512 0.7637105 -0.33459377 -0.11225997 0.25897327 -0.29873765 -0.235857 0.012327229 0.08726622 -0.19651183 0.15484108 0.124659136 -0.19112258 0.23353997 0.24582545 -0.07562575 0.21833786 -0.6760469 0.16400713 0.07118312 -0.29142413 0.06728715 0.06271849 -0.23635724 0.32226768 -0.095575444 0.58676344 0.039159935 -0.30087498 -1.1060488
examenes 0.1733256 0.62633675 -0.28509396 -0.4550352 0.33242226 -0.27908877 -0.29129964 -0.15683083 0.15819989 -0.009791189 -0.011150961 -0.3816183 0.2933219 0.2915677 0.75310785 -0.03924474 0.21512774 -0.79754263 0.19573133 0.15205464 -0.4227856 -0.28407833 0.22078924 -0.33103806 0.36564836 0.019476596 0.79748964 0.09657539 -0.18150051 -0.99236584
hicieron -0.09198255 0.81964934 -0.37309927 -0.24391639 0.27217206 -0.2927179 -0.21281499 -0.04945692 0.05929569 -0.14919116 0.1375956 0.023038857 0.005396577 0.17907329 0.3835134 0.0077539827 0.1434241 -0.78048986 0.06408882 0.056557465 -0.34716392 -0.06203586 0.12322394 -0.25060037 0.4082757 -0.064106226 0.6101956 0.00028746435 -0.3030691 -1.0954964
empleado -0.388672 0.75681925 -0.5228501 0.07915687 0.20495959 -0.34207833 -0.19744241 0.24337433 -0.027354872 -0.16771668 0.21400042 0.3323272 -0.291463 0.1858214 0.099222764 0.006496045 0.1949243 -0.6727559 0.110506535 0.061511062 -0.17899744 0.03339254 -0.0055436264 -0.14666505 0.34555128 -0.19225231 0.49663952 -0.060417008 -0.29970357 -1.0912877
usuario -0.2159888 0.7154553 -0.42979646 -0.13173243 0.21572302 -0.2800816 -0.2988836 0.08464085 0.1627164 -0.20351772 0.22915693 0.112077855 -0.12430955 0.25780663 0.33479413 0.012962322 0.21551387 -0.67570317 0.2041899 -0.031285655 -0.28875783 -0.016673537 0.029265797 -0.22892112 0.36078677 -0.1704622 0.6432547 0.011411694 -0.28411517 -1.0637991
comunicar -0.32210162 0.8027897 -0.43480715 -0.030936204 0.22197562 -0.32473692 -0.2939946 0.08847406 0.08064193 -0.1369271 0.13462363 0.16223806 -0.16467494 0.21037889 0.26362833 -0.024685755 0.16827926 -0.6566393 0.12047674 0.002319028 -0.20944951 0.050890334 0.087586455 -0.18159975 0.34803185 -0.10689144 0.5306772 0.04172193 -0.30819234 -1.1003138
opcion -0.30141947 0.6851424 -0.41257295 -0.0326516 0.20616262 -0.29194203 -0.31961954 0.12465079 0.11493892 -0.17537025 0.1617738 0.1270578 -0.21970305 0.2690705 0.25023413 -0.0008712917 0.24985318 -0.65247977 0.21849285 -0.03680847 -0.27301466 0.038811732 0.053956214 -0.2709774 0.37274793 -0.13522899 0.587209 0.043671414 -0.30689564 -1.0435407
entidad -0.1871324 0.77015275 -0.37124115 -0.1245972 0.24419118 -0.2684577 -0.26196045 -0.015312661 0.07575889 -0.15717736 0.17427583 0.10299149 -0.13988683 0.19391444 0.24114875 -0.04387844 0.21497552 -0.8062108 0.08867646 0.005466707 -0.29158345 -0.034245986 0.044995185 -0.1965224 0.35427806 -0.13240032 0.60905445 0.016072556 -0.2799666 -1.0895565
registro -0.2774928 0.6295113 -0.47335866 -0.009878492 0.22506216 -0.25781137 -0.31841186 0.15657933 0.021844408 -0.16106263 0.24050574 0.16636276 -0.18958642 0.28070214 0.19916709 -0.02867584 0.26291594 -0.6568084 0.21363372 -0.021681447 -0.26968554 0.08220284 0.08115641 -0.24377038 0.36497563 -0.12531853 0.60749704 0.023675863 -0.34566298 -1.0375026
quieres -0.23658267 0.7271476 -0.4188279 -0.07041691 0.27067572 -0.3028634 -0.31442901 0.059978884 0.08627911 -0.14657079 0.20491183 0.116740175 -0.19090392 0.23579583 0.27871343 0.041890856 0.1775195 -0.7244391 0.14778075 0.03159048 -0.2667679 0.10603362 0.08409017 -0.2579383 0.33373255 -0.12497135 0.577786 0.030948179 -0.32174122 -1.0855302
normal -0.2518186 0.6717362 -0.45320457 -0.12617181 0.24822307 -0.32087046 -0.31111524 0.20750213 0.10588979 -0.18626721 0.15834448 0.195123 -0.17187841 0.2364723 0.21124923 0.021478334 0.21957032 -0.684523 0.1245238 0.059228767 -0.2426963 0.07489435 0.067688026 -0.22227097 0.35349703 -0.09845852 0.5736043 0.01425254 -0.30130357 -1.0767431
internet -0.23168367 0.71950144 -0.39726418 -0.09344548 0.22006659 -0.26885754 -0.29922307 0.05473566 0.07469679 -0.1849489 0.24084371 0.12588462 -0.23924433 0.21041413 0.26408863 0.036132697 0.26037672 -0.66914225 0.09973441 0.028217407 -0.32589987 0.084613204 0.040536366 -0.2496627 0.30751973 -0.14762531 0.58342797 0.019694071 -0.2847145 -1.0686125
escucho -0.20256205 0.81300545 -0.40174523 -0.08038341 0.2680547 -0.25447863 -0.2995189 0.09905022 0.12578523 -0.23232737 0.25893265 0.14756706 -0.18982843 0.22227532 0.19278593 0.0015050324 0.27655393 -0.7594167 0.035808936 0.054295428 -0.27002388 -0.007127023 0.007979939 -0.17713961 0.34508452 -0.12532799 0.59620833 -0.024135295 -0.34946123 -1.0260326
comunico -0.32737157 0.76510054 -0.41879693 -0.053882543 0.241229 -0.33209434 -0.24570766 0.12676765 0.068156034 -0.16007558 0.16356793 0.1904801 -0.18198702 0.18441994 0.22306046 0.013590926 0.19438809 -0.66322005 0.11819636 0.03771543 -0.25136206 0.10484725 0.07221495 -0.22695221 0.40704408 -0.1063409 0.5416668 0.0023733755 -0.3250562 -1.1080089
control 0.27514693 0.65509534 -0.116977446 -0.5875825 0.3685881 -0.2793918 -0.3023088 -0.29166484 0.24940346 -0.13503808 0.1508606 -0.35032988 0.19486192 0.3380346 0.7169113 -0.084591754 0.25008523 -0.85652685 0.11118819 0.027041761 -0.48425835 -0.2426482 0.31006062 -0.41128927 0.4067157 -0.0073931743 0.7582604 0.057853606 -0.37311044 -0.9202537
acceso -0.33836275 0.78481334 -0.4947126 0.003539862 0.2459546 -0.34402645 -0.3006853 0.16395685 0.08406722 -0.1253004 0.2013318 0.22860241 -0.17644793 0.24529915 0.27822724 0.015307071 0.19016573 -0.6559996 0.16121897 0.00035708828 -0.2483989 0.033116832 0.013003463 -0.13136895 0.3841877 -0.22409873 0.5576719 0.036215797 -0.25444964 -0.9963986
contrasena -0.23772782 0.38083476 -0.45923397 -0.04327316 0.21525589 -0.1589443 -0.40007383 0.13185287 0.19347993 -0.1925689 0.29068607 0.15609893 -0.3580086 0.44993478 0.28599337 0.057948258 0.35047358 -0.6387218 0.4031093 -0.035965774 -0.30421308 0.046041507 0.19229767 -0.42824894 0.3135279 -0.07590754 0.68187755 -0.096773356 -0.31083015 -1.099482
pension -0.32336748 0.8170745 -0.4078702 -0.1326255 0.16529171 -0.3684859 -0.21419512 0.18103528 0.16656932 -0.20900479 0.037706938 0.29207382 -0.09308925 0.112317644 0.13323633 0.01225294 0.17233214 -0.655886 0.022782747 0.098572835 -0.23031251 0.11862834 0.066934064 -0.13108149 0.36733502 -0.13673337 0.41171956 0.033338282 -0.31119806 -1.172424
electronico -0.26892668 0.7048293 -0.41330522 -0.008916177 0.22422926 -0.26196355 -0.29143044 0.14974876 0.10843289 -0.124691516 0.20587815 0.19488399 -0.2524108 0.23171337 0.21701273 -0.023338657 0.24591616 -0.71042365 0.21720666 -0.008518107 -0.20292243 0.046658583 0.05068843 -0.27710447 0.3451043 -0.17162858 0.60832155 -0.029801875 -0.2911766 -1.0596536
incapacidad -0.16166456 0.91043776 -0.105557546 -0.2533485 0.11888842 -0.34386986 0.045063775 -0.14294228 0.36875212 -0.18597361 0.13926814 0.08050502 0.14446421 0.10512905 0.5090313 0.15715617 0.18516573 -0.7224202 0.11879692 0.112465896 -0.2726903 0.185314 0.024438526 -0.30737874 0.49580288 -0.17805511 0.3598744 0.119649574 -0.41272137 -1.2074165
social -0.3607932 0.6289103 -0.49045807 -0.012716537 0.17856888 -0.27067247 -0.3248978 0.17978288 0.08501957 -0.20216224 0.19844154 0.23824602 -0.3167371 0.24273016 0.13840368 -0.0015347936 0.21260612 -0.63862765 0.15371853 0.030905431 -0.2559638 0.12999105 0.041880567 -0.13651727 0.29166168 -0.109101616 0.52874565 0.04749959 -0.31911376 -1.0842887
contestan -0.41532174 0.8305126 -0.4011855 0.01486319 0.18589129 -0.30955037 -0.272346 0.13666214 0.0612647 -0.14042808 0.1480733 0.24873532 -0.15807067 0.19256827 0.27169606 0.04750284 0.13649008 -0.6200133 0.13628839 0.0057013384 -0.24162908 0.14219435 0.03360407 -0.2196932 0.44926044 -0.12558968 0.52219224 0.044623528 -0.29884037 -1.1193682
diciendo -0.29169163 0.80759645 -0.44915012 -0.06705256 0.28859952 -0.3679539 -0.3002926 0.107684396 0.11739941 -0.116944276 0.15543638 0.16550612 -0.16156285 0.22109166 0.24854091 0.044837732 0.07776445 -0.6385399 0.13509347 0.07190582 -0.20355858 -0.004813479 0.14027907 -0.13803923 0.39958182 -0.103378616 0.51756495 -0.019812323 -0.24372227 -1.1076779
pendiente -0.16189353 0.75676477 -0.3795844 -0.20708995 0.2275796 -0.33639905 -0.28480223 0.03701973 0.097354926 -0.112800375 0.14485669 0.076279305 -0.087576866 0.20418726 0.3321975 -0.00750397 0.1112261 -0.742234 0.17473023 0.028717835 -0.29812187 0.006642732 0.16199388 -0.21903986 0.30025303 -0.110134184 0.5490743 0.10487598 -0.29112822 -1.0404507
mirar -0.19142376 0.7419139 -0.40409175 -0.11598322 0.27381927 -0.2831377 -0.23355868 0.06447083 0.08716776 -0.21426229 0.1490841 0.08246945 -0.15409414 0.2505744 0.24877694 -0.07278326 0.21332012 -0.7475425 0.07299363 0.054386113 -0.29065177 0.023535104 0.091972545 -0.24368687 0.36429378 -0.086956486 0.51438344 0.0028669343 -0.30099326 -1.0687097
ejemplo -0.17963323 0.7425783 -0.40544385 -0.17675579 0.2341802 -0.32783088 -0.2802822 0.0059062405 0.052455395 -0.21240133 0.14815257 0.1009197 -0.14236571 0.28815746 0.34621274 0.045771744 0.20104048 -0.69547063 0.06613157 0.04320249 -0.25014564 0.09811745 0.14984183 -0.2554151 0.38719222 -0.080982916 0.5958411 -0.021042038 -0.31562123 -1.0692081
ingresar -0.2723483 0.53611887 -0.4657838 -0.09245257 0.20094138 -0.1968768 -0.37864703 0.10602666 0.22428042 -0.21342723 0.24340205 0.09969321 -0.24121653 0.36061105 0.32054985 0.05684227 0.2764032 -0.60538274 0.28075382 0.0045370613 -0.28907403 0.013721897 0.11831485 -0.30959895 0.3388116 -0.1420445 0.6741879 -0.02894063 -0.32387808 -1.050095
registrar -0.24401572 0.65890205 -0.43253538 -0.02063141 0.22868216 -0.32208496 -0.26981097 0.11708159 0.026599457 -0.15539485 0.18530111 0.19575422 -0.1864123 0.24882086 0.17163289 -0.059493832 0.23536196 -0.69493926 0.16449338 0.047550242 -0.27265832 0.034602895 0.040730864 -0.25014707 0.357904 -0.16046551 0.5756963 -0.0008571551 -0.25604847 -1.0606686
llevar -0.24665771 0.77742773 -0.42604285 -0.06589761 0.20149173 -0.32319832 -0.27351353 0.12342765 0.0390825 -0.15022495 0.1396018 0.15524152 -0.12537916 0.18136184 0.20790386 -0.025756164 0.16792944 -0.6974715 0.075258434 0.012041911 -0.24753001 0.068945974 0.11317434 -0.17251728 0.37286723 -0.17386964 0.58363533 0.017138615 -0.29698014 -1.1267924
visto -0.25388163 0.7260449 -0.44972926 -0.10420394 0.2744275 -0.2629438 -0.3220458 0.11329684 0.08133774 -0.16211393 0.18687606 0.09448143 -0.16711849 0.21532792 0.2996158 0.016969586 0.14849575 -0.7397919 0.09895033 0.05820512 -0.27459118 0.012065869 0.073204644 -0.17970027 0.39583877 -0.1130614 0.6110146 0.04171115 -0.29042056 -1.082427
hagame -0.088410825 0.6967114 -0.35864404 -0.2376976 0.23503855 -0.2364097 -0.29431313 -0.004567732 0.15520014 -0.14920093 0.17620909 -0.05132756 -0.07253154 0.2657159 0.34532982 -0.0331897 0.17335011 -0.7241092 0.17010732 0.0470198 -0.30710158 -0.044837948 0.14960878 -0.27091095 0.31918272 -0.069591865 0.6432232 0.0016709849 -0.3065899 -0.9907131
realizar -0.35557142 0.7464996 -0.452514 0.015735444 0.2248882 -0.30613777 -0.3004308 0.20022246 0.102800325 -0.15053701 0.22472748 0.23264848 -0.2963137 0.23077515 0.22500016 -0.05268424 0.20090836 -0.6326641 0.17924322 0.02046088 -0.27781245 0.010792644 -0.018922875 -0.1792252 0.3624343 -0.2159095 0.55085284 0.038502797 -0.3039716 -1.0376804
comun -0.2538451 0.72822434 -0.40381044 -0.078329146 0.25450802 -0.28409684 -0.28370148 0.1145051 0.12766755 -0.15212485 0.19732368 0.2102935 -0.1439456 0.177198 0.18629773 0.005090993 0.14831029 -0.68896186 0.09521694 0.051648103 -0.29515767 0.025712105 0.080817185 -0.19533625 0.34956005 -0.11627432 0.54673773 0.01759379 -0.31726423 -1.10792
sacar -0.15560386 0.68713814 -0.41588268 -0.13705654 0.30022517 -0.27372515 -0.25073776 0.046029676 0.08376762 -0.105019 0.07262541 0.07874191 -0.17509934 0.23441431 0.31805235 -0.02221188 0.106277645 -0.71646374 0.20868394 0.07208087 -0.32940772 0.027834315 0.14327356 -0.25269628 0.38187292 -0.07467526 0.5983837 0.00061394926 -0.2510153 -1.1163532
esposa -0.21637931 0.81458354 -0.46473822 -0.09907095 0.22920987 -0.28777695 -0.25972658 0.08900319 0.055018354 -0.13361384 0.1455401 0.12741274 -0.13709567 0.1902774 0.19979624 -0.012659537 0.16425385 -0.73365635 0.12264086 -0.004017639 -0.26519492 0.10357036 0.10410912 -0.1612726 0.34742072 -0.1372649 0.54542345 0.014860513 -0.2894874 -1.078697
trabajando -0.30275443 0.8089936 -0.44915184 -0.096442275 0.1745909 -0.33681217 -0.24725188 0.11242451 0.06160739 -0.18460687 0.10197525 0.24827805 -0.16112353 0.16632123 0.18811837 -0.037221815 0.14812449 -0.69923544 0.08947874 0.08132915 -0.22358766 0.12694654 0.082282506 -0.15241362 0.33824447 -0.13000037 0.46083248 0.04972853 -0.3334941 -1.1644188
llega -0.19491318 0.7759582 -0.41328135 -0.10624607 0.22952868 -0.3388838 -0.32636487 0.09581979 0.12252186 -0.15316346 0.16510636 0.12627487 -0.055807747 0.2546113 0.24935399 0.052692838 0.14600301 -0.7119364 0.107804075 0.052632507 -0.3047124 0.013833656 0.123025715 -0.22190358 0.3435752 -0.036803365 0.572982 0.006146073 -0.311328 -1.1074599
regimen_subsidiado -0.16750117 0.7066185 -0.39066488 -0.06259595 0.21029729 -0.30814052 -0.22041261 0.08515263 0.016334837 -0.16112754 0.114764705 0.1623194 -0.14523762 0.25057915 0.17363016 -0.06322367 0.23304698 -0.74366987 0.09590447 0.08633475 -0.33698183 -1.3757672e-06 0.112114735 -0.26431912 0.3156568 -0.1195543 0.550182 0.024932412 -0.30566928 -1.1349134
envio -0.24257408 0.7201614 -0.3979956 -0.059707873 0.25880107 -0.26685035 -0.23617092 0.07457559 0.08334791 -0.116292216 0.1487156 0.15275435 -0.16078392 0.23424946 0.23900534 -0.022860585 0.23222752 -0.7123343 0.13704188 0.06266468 -0.26766196 0.05813421 0.061147485 -0.21883671 0.39133072 -0.10848936 0.55673826 0.05711073 -0.32983008 -1.0527185
facil -0.1830976 0.75851357 -0.41350174 -0.07163013 0.20824935 -0.27162188 -0.28785256 0.13067098 0.07073106 -0.16265088 0.18209626 0.13779142 -0.13348246 0.23803014 0.23535524 0.04232912 0.17646033 -0.7629725 0.120987795 0.05394923 -0.2031697 0.017689701 0.060390793 -0.19871835 0.40398902 -0.1340917 0.6466956 -0.011581126 -0.30970603 -1.0989068
llamara -0.17590234 0.81059533 -0.3773313 -0.145316 0.26600105 -0.2880183 -0.28886428 0.07194613 0.042085297 -0.17652157 0.17545089 0.054891393 -0.09636709 0.20443785 0.31505504 0.011635734 0.19012687 -0.7412035 0.1461203 0.03016446 -0.33171144 -0.06140799 0.058781434 -0.2055171 0.42316094 -0.11736923 0.5942888 -0.010823621 -0.3004549 -1.0451978
tratar -0.3884635 0.7680221 -0.48395714 -0.039357904 0.2211384 -0.33238348 -0.27875358 0.20636837 0.010533692 -0.18316583 0.16209997 0.305033 -0.24519438 0.1676031 0.1606151 -0.007616114 0.16021281 -0.6000295 0.1007095 0.031193633 -0.2608864 0.10204582 0.050782826 -0.1800704 0.3183441 -0.15465027 0.51601577 -0.026666101 -0.28228483 -1.1200534
averiguar -0.1448669 0.7155026 -0.36058 -0.21084644 0.24936526 -0.23608966 -0.31836718 0.04046965 0.15034297 -0.123161055 0.12750736 0.023537882 -0.15647332 0.24755378 0.29792216 0.011530969 0.22686726 -0.7855753 0.1866992 0.04442127 -0.33765823 0.08123322 0.11535651 -0.300137 0.24174593 -0.090960525 0.6009308 0.023722045 -0.2621176 -1.1414869
comunicarme -0.32317686 0.77252746 -0.37290886 -0.049842525 0.22758768 -0.32241115 -0.2006659 0.12992892 0.083965525 -0.113531455 0.14240718 0.2903093 -0.1747856 0.22807094 0.17351975 0.011803219 0.17567302 -0.61942935 0.17004296 0.10198259 -0.22674912 0.10166964 0.021611853 -0.16296989 0.3781744 -0.11252851 0.5274504 0.07594152 -0.30183828 -1.1274809
cotizantes -0.31222677 0.8047726 -0.5150572 -0.08411302 0.20492618 -0.31411344 -0.30918273 0.19039786 0.028090185 -0.1958224 0.13387187 0.25012243 -0.19876643 0.20477828 0.12482869 -0.02636776 0.22188705 -0.7003708 0.09932968 0.03442291 -0.27490607 0.10224177 0.07715915 -0.17158107 0.39880955 -0.16139682 0.5018445 0.016232451 -0.27262354 -1.0849254
unico -0.22824597 0.71620166 -0.36933658 -0.14252725 0.29734504 -0.28895557 -0.29521322 0.123750396 0.12825552 -0.14082025 0.19101061 0.1984749 -0.18578258 0.24652247 0.21941979 -0.036723144 0.22319324 -0.6792269 0.12634407 -0.020758204 -0.31346256 0.069782026 0.020425072 -0.27902645 0.35885376 -0.20815933 0.5782822 0.043728445 -0.30804148 -1.0463291
muchacha -0.2852429 0.78011096 -0.37163427 -0.099573016 0.31926855 -0.32186842 -0.20129341 0.07991912 0.052898332 -0.16258469 0.09201643 0.13488668 -0.0838173 0.23328625 0.2420966 -0.012957937 0.1891855 -0.68092054 0.13797617 0.07027799 -0.28459796 0.048867628 0.079443246 -0.18658294 0.44373283 -0.110313594 0.54909754 0.047791827 -0.2871676 -1.103211
virtual -0.17146195 0.7080434 -0.3191168 -0.17576048 0.23020211 -0.29410926 -0.22887456 0.0033186032 0.0834871 -0.15393707 0.19658455 0.032602295 -0.1654282 0.30116144 0.3087785 -0.0057323654 0.24980898 -0.71636343 0.2122113 -0.0006933289 -0.34010005 -0.008744176 0.13250682 -0.270319 0.34256217 -0.14398123 0.6029838 -0.029696336 -0.31354162 -1.0028609
sirve -0.06816497 0.71280646 -0.41061598 -0.2011843 0.25428912 -0.29186803 -0.31246817 0.018165642 0.11317132 -0.15282649 0.12166304 0.057343856 -0.06542187 0.24824825 0.3430519 -0.060769156 0.20353147 -0.77986395 0.08358641 0.05281209 -0.25506768 -0.035713863 0.10639998 -0.2442352 0.4052447 -0.069765836 0.5852031 -0.019866595 -0.2645125 -1.078964
esperando -0.13204007 0.8018558 -0.263045 -0.17502497 0.29043838 -0.30514947 -0.26047197 -0.0029443856 0.037195537 -0.17080145 0.106142215 0.0014514014 -0.080259845 0.2870784 0.30539414 0.007322609 0.1959441 -0.736224 0.12288409 0.14247602 -0.29320893 -0.031770002 0.09218015 -0.22139671 0.36697733 -0.097646 0.61363643 0.01758153 -0.29578206 -1.0295436
mandan -0.043345023 0.69889003 -0.2988683 -0.29336372 0.3075578 -0.27655134 -0.29123613 -0.018372603 0.1664515 -0.19990054 0.16768613 -0.10988527 -0.039843075 0.28782225 0.4608349 -0.026717752 0.16447835 -0.7753493 0.12723862 0.10050049 -0.31157613 -0.037730455 0.18717134 -0.2797809 0.35338953 -0.04752863 0.7008662 0.046217863 -0.34445366 -1.0190747
pregunto -0.2664817 0.76339746 -0.4028307 -0.10176259 0.22366989 -0.31498417 -0.31909826 0.08423423 0.03021992 -0.17686465 0.14845136 0.11451168 -0.18942828 0.26091743 0.24134685 -0.008699019 0.20413192 -0.7072744 0.083641514 0.023694035 -0.22263436 0.109714195 0.013537495 -0.17496836 0.3446391 -0.11591678 0.59413 0.0008857952 -0.28505513 -1.0800663
atender -0.011791575 0.72627544 -0.3071029 -0.22600943 0.28239033 -0.2880816 -0.28910258 -0.008886181 0.055575363 -0.09447153 0.13405457 -0.011669201 -0.049995385 0.23560531 0.389303 0.017751373 0.2097074 -0.73517036 0.1677053 0.06342319 -0.28966245 -0.10883146 0.11470931 -0.26184478 0.35676143 -0.028884253 0.63540846 -0.017433742 -0.3223277 -1.0550796
minutos -0.24831952 0.7589748 -0.46142933 -0.08008861 0.30319804 -0.28684533 -0.31560776 0.10271563 0.11898201 -0.13865821 0.17211199 0.070276245 -0.20095712 0.24099879 0.33538076 -0.033990346 0.21903163 -0.7183185 0.12560868 0.039780937 -0.26668742 0.034112632 0.040574107 -0.18621098 0.40398455 -0.15875123 0.54452586 0.05246531 -0.33311725 -1.0642045
pasada -0.20149112 0.77822745 -0.34680313 -0.06976337 0.258384 -0.31157646 -0.21530919 0.023819832 0.069697015 -0.1411632 0.16921242 0.10029561 -0.1297612 0.2794465 0.2695464 -0.0012675393 0.16205902 -0.71164393 0.19815649 0.04600423 -0.2615144 0.034467537 0.07250307 -0.19147554 0.39767855 -0.1062737 0.5948455 0.0680384 -0.32561612 -1.06338
traslado -0.13898912 0.76478213 -0.3948056 -0.077486366 0.23334564 -0.2351208 -0.2805873 0.14830096 0.016788436 -0.19505045 0.19832085 0.017226335 -0.20009233 0.22377503 0.2672999 -0.017110456 0.15266488 -0.7955306 0.20140547 0.056013815 -0.3332009 0.015360113 0.13596383 -0.23734087 0.35488963 -0.056174077 0.6432828 0.09405313 -0.297785 -0.97996634
cambiar -0.20047008 0.7482107 -0.33941758 -0.0975163 0.30161923 -0.292947 -0.2881804 -0.009074894 0.14464286 -0.15528175 0.15179741 0.07471167 -0.17358077 0.25226814 0.3156911 0.034799434 0.20360747 -0.69517714 0.12488111 0.02884641 -0.28599924 0.05258579 0.09014592 -0.22314253 0.30290997 -0.15554662 0.619993 0.018362505 -0.3549726 -1.0491399
historia 0.3263227 0.7780642 0.37281993 -0.90214074 0.49910197 -0.41572744 -0.24481963 -0.85526294 0.47083426 -0.09605366 0.13280702 -0.120423295 -0.2342091 0.15516987 0.47276878 -0.27478373 0.48659298 -0.7016348 0.121451974 -0.29717684 -0.3465784 0.054976698 0.2880767 -0.7705165 -0.2089704 0.12941587 0.95138377 -0.07899937 -0.70433676 -1.2101487
mandar -0.11944447 0.7073091 -0.39584386 -0.11850132 0.2602233 -0.27920237 -0.30662325 0.033437237 0.11051119 -0.11877477 0.1632527 0.009012944 -0.08532219 0.2618706 0.32641834 0.01885446 0.1703456 -0.7245436 0.14212735 0.12100253 -0.29558593 -0.08353362 0.10292966 -0.29748824 0.3628031 0.02051609 0.6672566 0.015568735 -0.32522097 -1.0829339
nadie -0.20626175 0.7796663 -0.35908696 -0.1918114 0.22778082 -0.33569476 -0.25855103 0.006008065 0.121079944 -0.15152957 0.121985376 0.06964687 -0.10975714 0.16234227 0.32853597 0.08696942 0.17179342 -0.6843232 0.1339968 0.006579886 -0.2625546 0.047184024 0.051202767 -0.26404718 0.34913182 -0.12895398 0.52439374 -0.014500857 -0.31049094 -1.1224246
puntaje -0.23332061 0.7544968 -0.46633533 -0.04853993 0.15746486 -0.25547355 -0.30030125 0.13760099 0.021150606 -0.12399918 0.17963155 0.2084643 -0.10256599 0.2564061 0.21499602 -0.05676334 0.1999356 -0.7503115 0.07224145 0.06437204 -0.29669467 0.0947997 0.04649983 -0.18623564 0.29409742 -0.15910754 0.5059285 0.027944325 -0.25219584 -1.0326202
siento -0.257762 0.77684885 -0.4432266 -0.1125001 0.25980395 -0.2620369 -0.31090122 0.066408135 0.12788689 -0.096065044 0.15669362 0.17331257 -0.122556 0.18722695 0.30646792 0.019793227 0.11106748 -0.7250346 0.15844767 0.042292025 -0.24402727 0.056586053 0.109544694 -0.19628829 0.36957383 -0.10213537 0.608891 0.08516689 -0.28511092 -1.1299511
puesto -0.22941567 0.7987269 -0.4267839 -0.07789059 0.24924469 -0.32080036 -0.25067484 0.13594837 0.10574528 -0.14921157 0.18552811 0.18132912 -0.17279348 0.13752478 0.26943734 0.006056754 0.1412996 -0.71855587 0.13482672 0.04125875 -0.28939256 0.057747927 0.02364371 -0.13683146 0.33172747 -0.10714929 0.54499334 0.054821342 -0.26724556 -1.0835887
idea -0.19870271 0.73420894 -0.39965105 -0.10551723 0.29844564 -0.30808794 -0.316457 0.106557645 0.07338645 -0.20330817 0.17750815 0.094425984 -0.12968151 0.226378 0.2727213 -0.040084768 0.22660889 -0.72541124 0.123308554 0.054921743 -0.28734097 -0.040476263 0.10855852 -0.26562795 0.40482876 -0.090471454 0.5904025 0.029407816 -0.34362236 -1.073444
llaman -0.18556887 0.8262439 -0.44471622 -0.14301136 0.25210863 -0.34701797 -0.23904566 0.015651073 0.04374461 -0.152228 0.12779205 0.09837713 -0.11266718 0.20534907 0.31888783 0.0020999995 0.10795375 -0.74928975 0.084457114 0.08446374 -0.27789122 0.008506621 0.09109619 -0.27286157 0.4828119 -0.06627029 0.57722235 -0.024266047 -0.3219491 -1.0469846
complementario -0.23961551 0.79716974 -0.4550139 -0.12661953 0.22418703 -0.2249154 -0.37853897 0.111973874 0.13938218 -0.05742261 0.19159067 0.23006147 -0.20865986 0.20602943 0.24009922 0.028696997 0.08813323 -0.7536077 0.1874319 0.0041297344 -0.2247518 0.07777816 0.13869914 -0.08974559 0.3458359 -0.03780524 0.50245416 0.1016776 -0.2658865 -1.0925493
poner -0.29464492 0.70300215 -0.45620522 -0.082872756 0.17766447 -0.29176816 -0.27794737 0.13327655 0.08576078 -0.19766444 0.23060307 0.16398047 -0.26176658 0.20323475 0.25480133 0.029674688 0.2433064 -0.6354221 0.15968381 0.0064552943 -0.26653063 0.10366385 0.015514447 -0.24315594 0.32459384 -0.17944902 0.593873 -0.040123068 -0.31972036 -1.0880793
entra -0.21281035 0.70986205 -0.39559224 -0.0923526 0.25801563 -0.27623808 -0.30368778 0.10934723 0.087180056 -0.1767263 0.16081607 0.07832463 -0.109735966 0.21443482 0.27339432 0.05639609 0.17003076 -0.7340321 0.09777315 0.066628784 -0.31488958 0.053814854 0.1006941 -0.18161123 0.39414802 -0.11063108 0.55504817 0.08140829 -0.30772692 -1.0412432
podia -0.23416159 0.7848261 -0.35352433 -0.117306076 0.22464454 -0.3339892 -0.20457299 0.11308743 0.07194799 -0.15961014 0.14429097 0.09463589 -0.06324763 0.24427897 0.25393006 -0.037406854 0.21477096 -0.6751249 0.119063266 0.108482964 -0.2807623 0.021335637 0.07100398 -0.19364974 0.3333841 -0.10447304 0.53307545 0.023679946 -0.27945444 -1.0837541
salir -0.2152746 0.7440119 -0.42483652 -0.08164488 0.25477964 -0.27929282 -0.2402596 0.08872597 0.081568144 -0.12955542 0.15346964 0.12861869 -0.116803445 0.2650639 0.20830035 -0.016929762 0.20234194 -0.66296744 0.1176088 0.018338334 -0.28752455 0.011057197 0.08646927 -0.26270324 0.35760233 -0.087586194 0.56317675 -0.035113562 -0.32583407 -1.1439462
atienden -0.23385154 0.74547404 -0.36672887 -0.11889086 0.2796936 -0.31715453 -0.2444329 0.068979576 0.08596618 -0.15739553 0.12242978 0.09198699 -0.098230064 0.20615108 0.27724722 0.063590206 0.19954611 -0.72721696 0.108146854 0.045720216 -0.26347268 0.019562297 0.023863126 -0.2116954 0.41187093 -0.13631155 0.63041776 0.024536746 -0.36462405 -1.138634
haria -0.16787802 0.70764476 -0.39305112 -0.19524136 0.28444123 -0.23942026 -0.26408076 0.062196214 0.11664804 -0.17414805 0.12083012 0.056433007 -0.13148043 0.26324022 0.28982535 -0.049126565 0.20546143 -0.70641714 0.14244674 0.079146236 -0.3019127 -0.0018208434 0.14822088 -0.24582866 0.33451045 -0.124848634 0.5608277 0.045722876 -0.30589834 -1.0979743
dificil -0.208944 0.7452634 -0.45881844 -0.12807125 0.2327245 -0.27023354 -0.29974684 0.097885154 0.11024523 -0.14154017 0.2018806 0.095833875 -0.16869763 0.19822875 0.2900054 0.023246793 0.1698647 -0.73664904 0.12038258 0.060409207 -0.25871116 0.042096928 0.066606686 -0.21320869 0.36879498 -0.14845869 0.65808225 -0.016152803 -0.27545875 -1.1495332
aparecen -0.20212707 0.7400621 -0.41581655 -0.19430569 0.3182675 -0.3083419 -0.3510909 -0.027546782 0.17038326 -0.16675796 0.1643627 0.013778146 -0.18054695 0.23178999 0.263028 0.0076692966 0.22337538 -0.7661676 0.1900811 -0.029676063 -0.29733494 0.037908766 0.13251871 -0.273063 0.3309502 -0.09480077 0.6187001 0.0008583871 -0.35352394 -1.0640441
perder -0.29607335 0.7493122 -0.43522218 -0.122586034 0.23598327 -0.35637322 -0.22482017 0.15120834 0.06466819 -0.16329536 0.1818837 0.12627637 -0.13541555 0.20723093 0.2008379 0.08156517 0.15992835 -0.7438196 0.0953866 0.03834221 -0.2908765 0.068873025 0.06630742 -0.1556884 0.41094285 -0.10705808 0.53844315 0.02034039 -0.28447685 -1.1280564
vuelta -0.2163145 0.7433578 -0.4755597 -0.025664326 0.1640645 -0.3743886 -0.26039317 0.12615882 0.0023272545 -0.06369819 0.127472 0.11178452 -0.056016847 0.24493815 0.25862306 0.05488608 0.12328338 -0.7854155 0.124825284 0.06311312 -0.28376368 0.048016604 0.14958926 -0.26749083 0.41172808 -0.057548977 0.55268234 0.060959693 -0.29262272 -1.0719569
dependiente -0.43081787 0.676552 -0.47979963 0.03506094 0.21823548 -0.35702285 -0.2549485 0.20723169 0.010075887 -0.2357202 0.16315241 0.34487447 -0.2744053 0.12123598 0.06424765 0.037423953 0.17280477 -0.6557035 0.012618134 0.058436383 -0.2681977 0.054317802 0.049192328 -0.11456744 0.30900955 -0.13408315 0.5258697 -0.04312257 -0.29003412 -1.1358162
procedimiento -0.23342589 0.7615046 -0.3930877 -0.12309996 0.20760287 -0.36955643 -0.15186402 0.06951762 0.030303018 -0.2255437 0.16605048 0.085563205 -0.09403919 0.17716233 0.30006552 0.030610854 0.24311958 -0.71023446 0.12617388 0.048326492 -0.28879273 -0.004371655 0.071146496 -0.23819038 0.42842117 -0.11466801 0.51643574 0.052608557 -0.20917244 -1.0672306
formula 0.12719879 0.7140138 -0.3625043 -0.40225422 0.23879513 -0.4324225 -0.2979178 -0.08398648 -0.016407616 -0.07709098 0.07372424 -0.12766945 0.14800076 0.35308713 0.73735356 -0.044319525 0.18531261 -0.7088593 0.07925094 0.008536328 -0.39342904 -0.32032505 0.2584953 -0.28209862 0.53146255 -0.006750899 0.7562823 0.05285862 -0.22941239 -0.8883704
lleva -0.1683581 0.65620303 -0.36954504 -0.17529391 0.25009152 -0.3086849 -0.2830071 0.023803566 0.17801598 -0.13992748 0.14891037 0.040102214 -0.120065264 0.25587732 0.326865 0.016829476 0.21945582 -0.7357461 0.11621075 0.07725638 -0.29051775 0.0048046466 0.1498255 -0.2787719 0.38527426 -0.12021921 0.5932611 0.08715246 -0.34227625 -1.0677629
solicitarr -0.16762032 0.72072476 -0.39078242 -0.082000636 0.22182609 -0.2876778 -0.24629797 0.06844423 0.07768736 -0.17825268 0.19979203 0.01949591 -0.1084852 0.24265714 0.29146785 -0.047994766 0.18477526 -0.74566 0.13423 0.09327995 -0.3069377 -0.007181956 0.10519892 -0.26940626 0.35586065 -0.120918624 0.6132226 0.04373941 -0.3401537 -1.0327617
subsidiado -0.28029814 0.76992184 -0.43205643 -0.08275191 0.27527645 -0.26407078 -0.19249228 0.0773277 0.065816335 -0.21440953 0.10594355 0.15075816 -0.13328572 0.26490745 0.24666983 -0.027178938 0.14713572 -0.7305286 0.07506495 0.06800935 -0.24129292 0.026752675 0.09734652 -0.1517233 0.39050752 -0.1505457 0.5224923 -0.0067919814 -0.31149206 -1.1135824
examen 0.00803269 0.62332064 -0.2568523 -0.40897903 0.25484458 -0.21991427 -0.3166266 -0.11494344 0.21825038 -0.089686066 0.16549948 -0.3320162 -0.044359554 0.3132387 0.5232612 0.013584053 0.31778198 -0.8306956 0.28370988 0.011655545 -0.45506006 0.008258817 0.10958341 -0.43793854 0.17855287 -0.16842936 0.53842014 -0.0020785122 -0.18592928 -1.0941876
extension -0.31207103 0.8127711 -0.39295155 -0.04030539 0.24526258 -0.25398555 -0.26649335 0.06152437 0.106741175 -0.10804122 0.21172306 0.20339215 -0.09552882 0.18160905 0.27003762 0.02874725 0.13888997 -0.6895211 0.09780759 0.054186244 -0.2754521 0.06625115 0.057981387 -0.25267816 0.4191351 -0.089707606 0.6206951 0.06324008 -0.3232308 -1.1304432
laboral -0.22396304 0.77913356 -0.31666455 -0.15729468 0.17455599 -0.33274174 -0.23878832 0.006117541 0.15367678 -0.14039461 0.21368882 0.13086663 -0.13516654 0.18868555 0.31782824 0.0036959103 0.18880543 -0.65999717 0.14302833 -0.006298653 -0.20238264 0.108793914 -0.0052934033 -0.27623254 0.27757645 -0.15741436 0.5521678 0.00925115 -0.33216605 -1.1355002
repito -0.3133754 0.715358 -0.4438534 -0.05326488 0.20486474 -0.3022957 -0.3100017 0.11658709 0.10486154 -0.18076631 0.17709409 0.18842188 -0.16734335 0.2049096 0.20624796 0.026139904 0.16684604 -0.67927086 0.10951483 0.06785195 -0.2334477 0.022779066 0.022013482 -0.13637047 0.39714918 -0.15105067 0.5031007 0.043025076 -0.27357274 -1.0733117
situacion -0.27833807 0.8368712 -0.41508597 -0.09720091 0.23334546 -0.32219836 -0.26807275 0.13487452 0.11922136 -0.19281112 0.17968938 0.17592931 -0.19378185 0.18669029 0.22967675 -0.012100773 0.16491787 -0.73603314 0.09676697 0.046470508 -0.21945456 0.008644918 0.07666898 -0.17337348 0.37503913 -0.10005094 0.57449067 0.0069850152 -0.29023278 -1.1049604
medicamento -0.103597075 0.74146944 -0.36608487 -0.34196547 0.32982737 -0.30094832 -0.2586261 0.0429032 0.18341464 -0.08018754 0.15194562 -0.033974767 0.036368735 0.33956537 0.43252257 -0.068752855 0.19676235 -0.6708835 0.19243759 0.08822866 -0.37443888 -0.03707763 0.17050184 -0.3156731 0.32359907 -0.06978795 0.7205568 0.03795757 -0.28676093 -1.0031881
envie -0.2647408 0.78547025 -0.40568572 -0.073410526 0.29575658 -0.28489196 -0.30175334 0.08280886 0.11879237 -0.16305555 0.2126819 0.077270634 -0.11628984 0.24630994 0.27576974 0.057031386 0.20401593 -0.6712245 0.14347294 0.07038672 -0.24021904 0.0049245493 0.0579744 -0.21624117 0.4132554 -0.113240324 0.53607726 0.02812487 -0.29595077 -1.0817021
posible -0.17415209 0.7589339 -0.45509177 -0.14398123 0.21939282 -0.25632417 -0.2634087 0.062170975 0.02787136 -0.11132327 0.1119717 0.10382822 -0.10528654 0.19244395 0.32321465 0.0520342 0.13115638 -0.78872776 0.09178536 0.08908071 -0.22876659 0.01748223 0.100601435 -0.18429343 0.4006137 -0.10322302 0.58465326 0.032914847 -0.272264 -1.0544081
sede -0.20180047 0.776537 -0.44167385 -0.05220178 0.25630292 -0.3097454 -0.30292115 0.060350176 0.03254758 -0.118502945 0.19639307 0.16103108 -0.17356206 0.19319515 0.213774 -0.034848694 0.18749826 -0.7192576 0.131856 0.019561797 -0.24021798 0.055887353 0.06884034 -0.15701315 0.35709116 -0.15810664 0.5168395 0.023075508 -0.3333425 -1.059276
emergencia -0.28112674 0.69305587 -0.40370768 -0.108387224 0.23259279 -0.2997787 -0.27562764 0.13726863 0.08071451 -0.19776899 0.1684152 0.13200384 -0.16910465 0.20361617 0.21449216 -0.037743006 0.23998953 -0.69865876 0.10872801 0.040889915 -0.29687944 0.073254205 0.0852275 -0.16698672 0.32101965 -0.13997844 0.50876904 -0.013838436 -0.31428054 -1.0748552
segundito -0.26116174 0.70876473 -0.4868951 -0.03373441 0.21786468 -0.28797808 -0.26288965 0.16826689 0.06630561 -0.15897901 0.20185442 0.13625841 -0.19787985 0.19460025 0.1797356 0.06183439 0.15665498 -0.6859704 0.10988473 0.048905704 -0.25514206 0.06019662 0.07546321 -0.28052655 0.38957298 -0.061303265 0.5911789 0.031487025 -0.31504858 -1.1245023
hablando -0.3173694 0.85085934 -0.44835925 -0.06505166 0.23776762 -0.32833537 -0.270746 0.08344924 0.04221321 -0.15994495 0.13186498 0.20827638 -0.17222576 0.22195125 0.2661438 0.015075894 0.17870027 -0.7292116 0.11785725 0.07252904 -0.22945924 0.033290498 0.050677698 -0.1735146 0.41476125 -0.15595037 0.5439218 -0.026123906 -0.32288545 -1.0526714
funcion -0.16527984 0.7966724 -0.3745132 -0.1907544 0.23177117 -0.3684688 -0.2994267 0.0130587155 0.08201207 -0.18741594 0.13969466 0.10829758 -0.1568289 0.17941628 0.27442417 0.01925996 0.1950583 -0.73959064 0.10616598 0.027620751 -0.3284097 0.040230002 0.122319765 -0.2554333 0.31044585 -0.123811364 0.55492985 0.034478042 -0.35260716 -1.0903145
llamarn -0.14883757 0.7841067 -0.43922427 -0.12708049 0.24151157 -0.28511798 -0.27847004 -0.039051104 0.07970354 -0.11539999 0.14917706 0.061416376 -0.13672046 0.17436904 0.3391975 -0.04735382 0.14658566 -0.7194273 0.10268575 0.0042659906 -0.31509158 0.037304312 0.12331501 -0.25374934 0.39158455 -0.087418005 0.6053671 0.0048438604 -0.31994706 -1.0055829
llamado -0.25747555 0.7779393 -0.45636073 -0.07325669 0.23572864 -0.334709 -0.30486947 0.10312236 0.06775642 -0.1448681 0.11605578 0.11513675 -0.11207424 0.2172664 0.27324936 0.004199127 0.12473889 -0.74248856 0.11704938 0.051892202 -0.29683638 -0.015949294 0.09123949 -0.17059276 0.41579795 -0.14914963 0.56286764 0.03202889 -0.30693698 -1.0479972
contesta -0.30424643 0.7395486 -0.35925114 -0.073201016 0.19285621 -0.35581416 -0.24626826 0.055189364 0.060108196 -0.1722018 0.15667532 0.17220293 -0.15199947 0.23079331 0.27381492 0.063587956 0.16185525 -0.6538169 0.16578576 0.024691546 -0.2711655 0.0788741 0.09001236 -0.22897466 0.44022316 -0.11827022 0.5298917 0.024843914 -0.31968886 -1.0671093
radicardo -0.23469712 0.8025863 -0.37927106 -0.09256429 0.4198908 -0.21566632 -0.24800502 0.036115535 0.15319657 -0.25901014 0.14714332 -0.020927431 -0.16929623 0.28472808 0.21364398 0.05552916 0.16661781 -0.7315284 0.2302382 0.11608902 -0.21585317 -0.040709738 0.12160939 -0.1217388 0.4544766 -0.096999355 0.6287985 0.044827264 -0.2770486 -0.96430445
versalles -0.0338226 0.6612052 -0.31537652 -0.2310249 0.33645362 -0.25253353 -0.30854324 -0.021744521 0.13693348 -0.14632286 0.15837468 -0.11841718 0.010322525 0.2618577 0.41030124 0.009181868 0.15805681 -0.7458332 0.20594592 0.06198877 -0.31886283 -0.06091727 0.1971793 -0.33243188 0.4226243 0.040269762 0.7163641 -0.015784377 -0.35441554 -1.0631357
apenas -0.25516215 0.8061657 -0.44202945 -0.10065914 0.20479588 -0.33622092 -0.22908926 0.0964402 0.03152198 -0.14457642 0.1920251 0.0971835 -0.12666139 0.24698736 0.2397817 0.011490272 0.12966241 -0.7077142 0.06691287 0.08905006 -0.27500868 0.042697236 0.10824749 -0.25933933 0.40344474 -0.061561346 0.56716615 0.0463154 -0.2948904 -1.0888364
problemas -0.1791167 0.7489962 -0.39945695 -0.16399665 0.20790301 -0.27290466 -0.28069797 0.065218486 0.04539073 -0.15200026 0.15457265 0.102229856 -0.13987054 0.22753136 0.30065215 -0.02070288 0.17220065 -0.7285433 0.11949185 0.059963048 -0.23366281 -0.0018030016 0.10881789 -0.2430428 0.3348036 -0.09984889 0.63887435 -0.008955412 -0.28833747 -1.1262181
personalmente -0.2778809 0.78407246 -0.4053262 -0.06726863 0.19176596 -0.32737622 -0.25322685 0.09170334 0.05564582 -0.11836899 0.16192423 0.13607503 -0.16135605 0.18921131 0.24416941 0.009402552 0.16682549 -0.7095884 0.13598645 0.025620101 -0.32650846 0.11091486 0.09363797 -0.22268392 0.3854064 -0.18928438 0.51177436 0.0035363403 -0.30118012 -1.0892168
exactamente -0.2199021 0.7678304 -0.43271786 -0.08033832 0.23336406 -0.25007626 -0.27578178 0.07591509 0.08890597 -0.18655998 0.16915028 0.020252421 -0.15718922 0.27220204 0.27574208 0.03321178 0.19696791 -0.7102579 0.18718092 0.07501794 -0.28729475 0.0038500952 0.10675833 -0.22056557 0.42016307 -0.14153127 0.5678164 4.1461342e-05 -0.26484323 -1.0803403
inicio -0.22007272 0.74831396 -0.42966676 -0.13407603 0.20959996 -0.28611076 -0.2577648 0.05913789 0.08851033 -0.118625425 0.16074795 0.12182479 -0.13942279 0.18544605 0.2824293 0.014843071 0.16008875 -0.78609264 0.08147361 0.065276794 -0.26259443 0.030038826 0.105302334 -0.20299764 0.4075962 -0.06451055 0.5797175 0.056859493 -0.28514472 -1.0878273
hijos -0.23496625 0.821241 -0.53107226 -0.053170793 0.15218033 -0.3249289 -0.31382436 0.110742904 -0.015530107 -0.13652307 0.15021703 0.18237673 -0.17262276 0.16409412 0.2274528 -0.022753734 0.15925576 -0.7465502 0.06099832 0.00901049 -0.26623812 0.08489407 0.09504765 -0.20307484 0.33625683 -0.11787548 0.48314822 0.021618895 -0.30025154 -1.1289898
pandemia -0.26187164 0.78020185 -0.34158298 -0.19704956 0.2818505 -0.2826408 -0.25242522 0.087739766 0.15731242 -0.20854428 0.1156222 0.1516229 -0.15394655 0.18734191 0.21338184 -0.03457128 0.18232012 -0.751883 0.098887905 0.039942715 -0.29533592 0.042303048 0.089074925 -0.18509956 0.36339945 -0.13286047 0.52395606 -0.0041748304 -0.34162495 -1.099681
vete -0.2963088 0.7366444 -0.42521936 -0.053581215 0.24750602 -0.29338503 -0.30139026 0.078432575 0.038291097 -0.14155601 0.13927579 0.1833778 -0.1799194 0.24055558 0.25634104 0.044867404 0.19098297 -0.67692745 0.09957246 0.03436373 -0.2568067 0.038617723 0.060469393 -0.16001342 0.3692867 -0.15849514 0.5794563 -0.00946001 -0.30858055 -1.06174
momentos -0.2245732 0.8057487 -0.40101793 -0.081548996 0.22004554 -0.3263345 -0.2573212 0.07616114 0.08598608 -0.14611612 0.21179426 0.1677596 -0.16528942 0.23527406 0.27035305 -0.021484073 0.2166811 -0.7331845 0.15661001 0.03212752 -0.235674 0.032027993 0.0720527 -0.1704912 0.3520004 -0.16381605 0.5456309 0.014389635 -0.324536 -1.0866848
novedad -0.41584355 0.7508454 -0.47188357 -0.061273664 0.3148578 -0.33875257 -0.21434186 0.3178743 0.013639206 -0.25146556 0.21261176 0.35450688 -0.2811286 0.18623535 -0.009356768 -0.015208816 0.23813362 -0.6529449 0.117389835 0.019092418 -0.25027633 0.007245247 0.034812596 -0.23096487 0.38008058 -0.12484337 0.534139 -0.009539521 -0.284322 -1.1144638
verificar -0.1901662 0.73036563 -0.35020664 -0.19388604 0.2766939 -0.29264936 -0.24731563 -0.018814463 0.18878812 -0.15991913 0.21397486 0.13767283 -0.16053155 0.24552272 0.25231272 -0.038877968 0.24396591 -0.6418779 0.17342812 -0.01971481 -0.32819486 0.02449832 0.103483655 -0.33754888 0.32265055 -0.13790783 0.6006655 0.018683393 -0.3400011 -1.0712566
preguntar -0.2316384 0.74199474 -0.42017734 -0.11222716 0.2257408 -0.28674927 -0.32035512 0.0586809 0.065985374 -0.13081588 0.1331222 0.16921222 -0.16805845 0.23310405 0.25086948 0.003229909 0.19988291 -0.7268233 0.097014785 0.022927547 -0.26158205 0.037547585 0.10114077 -0.15895616 0.35191932 -0.106946446 0.53642446 0.009542065 -0.32199845 -1.1002609
radicar -0.16261965 0.8188451 -0.27530107 -0.1533568 0.1729894 -0.2331303 -0.19003075 -0.020383302 0.20683265 -0.1848237 0.1981748 -0.021692174 -0.11437228 0.24820608 0.39190453 0.03545239 0.18284236 -0.69527954 0.10573264 0.072283804 -0.26216212 0.03645834 0.006879472 -0.30029416 0.37001505 -0.13690759 0.6284371 0.007589398 -0.33998278 -1.1247792
medicamentos -0.009267866 0.75165313 -0.37508738 -0.37917256 0.32112437 -0.32627034 -0.29725444 -0.020777415 0.1761488 -0.08766969 0.1282349 -0.12023754 0.12810846 0.2547608 0.54797834 -0.013707997 0.13552864 -0.77807355 0.12918997 0.081254646 -0.3721216 -0.08865364 0.1869588 -0.3094162 0.32927796 -0.053093053 0.6980185 0.0732259 -0.2838148 -1.045226
abajo -0.1965014 0.70610493 -0.35181725 -0.16718519 0.25693652 -0.29476628 -0.3158157 -0.026413646 0.20197242 -0.11750559 0.18313557 0.06865736 -0.18438731 0.2007037 0.30463034 -0.05967686 0.26146245 -0.7489347 0.1622875 -0.018053638 -0.28089517 0.0045753284 0.12480052 -0.32881862 0.31483826 -0.022826346 0.6601353 0.06557755 -0.3498528 -1.1296284
coloco -0.29443398 0.6354302 -0.40958786 -0.11393807 0.23156388 -0.24251415 -0.34722057 0.02859568 0.07645982 -0.19162679 0.21739617 0.14682981 -0.22254507 0.19888906 0.1536768 -0.042136975 0.27987283 -0.7281486 0.1369846 0.007004478 -0.24658987 0.06158256 0.09620789 -0.27063936 0.29131922 -0.06374676 0.62230474 0.031735033 -0.37428084 -1.1490873
activa -0.23300022 0.7761058 -0.41549212 -0.12461527 0.26423007 -0.324501 -0.31786937 0.13380314 0.09044258 -0.20226705 0.089160986 0.20017229 -0.22448629 0.23599091 0.12680392 -0.034145843 0.20269613 -0.65227145 0.14349304 0.081934735 -0.26674667 0.020298045 0.09881958 -0.19706194 0.32240993 -0.108151436 0.5449848 0.011318165 -0.28454614 -1.0593863
empresas -0.2989256 0.7629532 -0.4265258 -0.09047613 0.19089077 -0.2962426 -0.241288 0.13336518 -0.0037777561 -0.16219415 0.14096856 0.24075264 -0.23820552 0.19020395 0.21286878 -0.014256883 0.18748495 -0.7009637 0.13452683 0.0057087233 -0.2386849 0.056633398 0.00931948 -0.17016686 0.3520704 -0.16308282 0.5391648 -0.024394298 -0.30539358 -1.0930976
quiera -0.25457335 0.77250504 -0.37945306 -0.112344086 0.23765604 -0.31862223 -0.2509673 0.06870102 0.052417807 -0.17361446 0.1672849 0.13927312 -0.103877634 0.23162761 0.30175525 0.06936499 0.18092881 -0.7184636 0.12791073 0.10071261 -0.24317381 0.011937553 0.0634154 -0.14047296 0.4069388 -0.13166822 0.6422925 0.0057283686 -0.2793077 -1.1138294
entrar -0.23015901 0.6774022 -0.44328445 -0.051701277 0.20098469 -0.24360268 -0.2549293 0.11938225 0.09184588 -0.1289737 0.17645629 0.15197046 -0.16376333 0.26695323 0.24950756 0.012829962 0.17508951 -0.7156755 0.18530692 0.034263782 -0.26779082 -0.0009290321 0.0936273 -0.20331447 0.3614979 -0.11010871 0.58566123 -0.013101687 -0.28904945 -1.1031362
compensacion -0.2356695 0.7659826 -0.42820302 -0.13120453 0.20639358 -0.32250977 -0.22531207 0.060483493 0.09586108 -0.17807601 0.113591276 0.14188674 -0.114830606 0.15232134 0.28271127 -0.029728035 0.22427244 -0.70596284 0.05714385 0.06296276 -0.30250975 0.026313685 0.052369248 -0.23238413 0.3888519 -0.10529259 0.5775359 -0.00316348 -0.32268083 -1.1317532
quede -0.2907606 0.74033344 -0.4518674 -0.09231789 0.2598728 -0.30086544 -0.28868312 0.18230714 0.02154237 -0.14835729 0.1078664 0.20153604 -0.23122641 0.12159322 0.16079204 -0.035813898 0.18871349 -0.67073643 0.07578328 0.053699553 -0.28977305 0.06305983 0.090356536 -0.18171322 0.32594216 -0.138627 0.49388745 0.021348165 -0.32662177 -1.1055349
llegado 0.043276608 0.6993898 -0.24211062 -0.31119096 0.32641727 -0.26156974 -0.3011326 -0.05798444 0.22680096 -0.18212351 0.19782199 -0.18765531 0.023502247 0.36639464 0.4407573 -0.1143916 0.25314236 -0.7983722 0.09503837 0.1031934 -0.40179506 -0.14019452 0.16082655 -0.3275825 0.4128383 -0.062922806 0.65761083 -0.0147499405 -0.3820128 -0.9376538
perdi -0.116722375 0.6999016 -0.32514822 -0.23288499 0.28788 -0.26860443 -0.30890465 -0.018453874 0.15781985 -0.20663753 0.21875665 -0.02883895 -0.0682659 0.3242125 0.376985 -0.06286914 0.21951371 -0.69621485 0.14574806 0.09359958 -0.3387037 -0.10313134 0.1402316 -0.2614286 0.36447436 -0.061971206 0.6693802 0.037753537 -0.35969287 -1.0627404
cirugia -0.17421876 0.7258393 -0.27426028 -0.20658185 0.27702802 -0.32489726 -0.20059037 -0.06506824 0.15165192 -0.151025 0.1622005 0.009581156 0.011314515 0.20954953 0.4046903 0.049150825 0.23329856 -0.7465288 0.0653873 0.05452653 -0.31421646 -0.025342848 0.10316775 -0.23277411 0.4055887 -0.045717586 0.5919791 0.068150625 -0.2778886 -1.0389948
disculpa -0.20277418 0.7723195 -0.38248816 -0.10322244 0.21826594 -0.23757459 -0.24885617 0.022827938 0.11342674 -0.1519891 0.16958101 0.042018056 -0.12033351 0.22382069 0.26174656 0.010286515 0.14515501 -0.73791623 0.1862569 0.031721056 -0.294123 -0.019125476 0.057319816 -0.24199423 0.38076288 -0.06664276 0.54744095 0.056565944 -0.31949735 -1.1053145
contacto -0.31212464 0.75102884 -0.43395534 0.0011250252 0.2005012 -0.29896742 -0.27858433 0.1589853 0.026812127 -0.12169079 0.16099393 0.24699867 -0.19016083 0.17000245 0.21714005 0.0107952235 0.2173957 -0.7272348 0.11394858 0.054402616 -0.2098225 0.07415653 0.010669057 -0.1915838 0.32951647 -0.15221392 0.5338218 0.0077899895 -0.30589384 -1.0998479
adicional -0.35779786 0.7435703 -0.49463582 -0.03512302 0.18342263 -0.2903331 -0.3475026 0.14433767 0.11634149 -0.14881358 0.122088134 0.27427167 -0.2447916 0.12947549 0.096642144 -0.026878752 0.1256371 -0.69779766 0.071324274 0.025268948 -0.24336971 0.11130405 0.13642678 -0.19089551 0.25533262 -0.049199145 0.5388521 0.06839313 -0.24213976 -1.1778365
deben -0.1609284 0.7809144 -0.31255403 -0.19376715 0.27179006 -0.31566793 -0.26626146 0.019659167 0.12474973 -0.14311947 0.13774139 0.15099734 -0.1448686 0.20093106 0.2782936 -0.010947777 0.15914355 -0.69953996 0.11248563 0.00091620575 -0.26820278 0.05314425 0.08012643 -0.30151865 0.31519037 -0.12850142 0.59222925 0.01221797 -0.30153093 -1.1046388
decia -0.16622591 0.73686796 -0.38981155 -0.16526231 0.29115042 -0.26934558 -0.30415103 0.039152022 0.10341196 -0.18159594 0.17988805 0.057010736 -0.1408779 0.26809075 0.3251988 0.026950741 0.14467968 -0.73034734 0.15514559 0.028094094 -0.27930173 -0.0108914925 0.1525452 -0.23793718 0.3568989 -0.08784133 0.6393717 0.0005218579 -0.25188208 -1.094938
oficinas -0.28906193 0.73479235 -0.37756526 -0.11591577 0.2642441 -0.34292042 -0.2721285 0.08316979 0.048668135 -0.17472678 0.23086499 0.1259822 -0.12601487 0.21755117 0.21570688 0.052289203 0.15639542 -0.740396 0.13392924 0.0048482986 -0.29364455 0.046224564 0.020247944 -0.1932012 0.42739362 -0.1321399 0.5804853 0.051687267 -0.32544443 -1.0653927
encuentro -0.27543798 0.69630474 -0.39802977 -0.07139665 0.23195781 -0.29702857 -0.2936253 0.10900024 0.05520374 -0.1905537 0.17364584 0.13888888 -0.22654407 0.1865206 0.1825968 -0.01305577 0.24107063 -0.71031904 0.10806989 0.018214442 -0.286685 0.050334815 0.04656828 -0.21516079 0.2749006 -0.12233594 0.4851276 0.013198062 -0.324058 -1.0793271
nombres -0.2722981 0.773511 -0.41456327 -0.12133564 0.25017396 -0.2716657 -0.29574126 0.1572514 0.13804717 -0.20269394 0.20518528 0.15873322 -0.20435613 0.2232165 0.17694923 0.051361594 0.140904 -0.6505287 0.10990277 0.054744966 -0.25667238 0.05377204 0.1264165 -0.24169181 0.37670228 -0.1139854 0.5619441 -0.0075819353 -0.23323707 -1.1012832
contributivo -0.27058348 0.71772546 -0.40815184 -0.07840078 0.22027779 -0.3317832 -0.25708944 0.14328533 0.022381755 -0.18921515 0.09678122 0.221694 -0.15102969 0.19692251 0.19648516 -0.032033697 0.24415022 -0.7239833 0.09068985 0.079241514 -0.2919803 0.06775306 0.09122786 -0.21493882 0.31761968 -0.07807953 0.52059245 0.013783652 -0.33242637 -1.0920155
correos -0.37004474 0.8199174 -0.38090503 -0.10119959 0.23770007 -0.31481993 -0.32859173 0.024510503 0.14636396 -0.110040694 0.18873423 0.22965361 -0.21153612 0.31126037 0.17363054 0.0023086665 0.113507904 -0.6577961 0.17541629 0.062288307 -0.19169635 0.11325629 0.106718615 -0.18548259 0.3948282 -0.00044829486 0.5490764 0.076489955 -0.31171474 -1.1029867
produce -0.2615895 0.7516859 -0.45332935 -0.115484655 0.23685588 -0.2968434 -0.25583404 0.13543507 0.061527114 -0.1930955 0.1888936 0.18934084 -0.17816235 0.22109976 0.2708073 0.011563146 0.1867683 -0.65363353 0.09121407 0.0500896 -0.25898802 0.0057907375 0.037474815 -0.16164395 0.3735289 -0.15895852 0.5813432 0.035542503 -0.2848492 -1.1072302
retirado -0.2821345 0.76618123 -0.41928884 -0.05116719 0.3574665 -0.24050948 -0.27401578 0.033369135 0.08226356 -0.23112814 0.1523897 0.07344859 -0.12756996 0.25242534 0.1635103 -0.020251285 0.1787442 -0.78710407 0.14652775 0.03766576 -0.2760794 0.046823245 0.048975702 -0.1417232 0.4082491 -0.12324473 0.6168322 0.005372952 -0.32182986 -1.026003
empezar -0.29865956 0.68619055 -0.41055578 -0.043792427 0.23862305 -0.26653048 -0.29441416 0.14669076 0.05776113 -0.19996187 0.1258561 0.26654306 -0.25770575 0.15390868 0.19720995 0.046809036 0.19732364 -0.6913598 0.10515718 0.03166887 -0.2569452 0.08566618 0.034601673 -0.20849395 0.29919615 -0.110538445 0.55239755 -0.024367983 -0.2891362 -1.1526682
tramites -0.3091581 0.70879227 -0.41332278 0.04465171 0.16063973 -0.26452106 -0.19545458 0.097422004 0.036299914 -0.26209036 0.1475048 0.20287268 -0.092871495 0.22481297 0.2217513 -0.010534338 0.22592157 -0.72062296 0.056252934 0.066961855 -0.23346423 0.07513001 0.04978495 -0.099875875 0.4188439 -0.2230784 0.56112236 -0.1420999 -0.33853766 -1.0949059
requisitos -0.29472706 0.72044843 -0.5025996 -0.027054291 0.12580712 -0.3007049 -0.31538004 0.19020197 0.0723262 -0.11620282 0.13424367 0.2542588 -0.20696172 0.21921389 0.10968721 -0.002170986 0.20008685 -0.6630942 0.15847634 -0.025259549 -0.27855098 0.09643397 0.017004855 -0.22227646 0.29511598 -0.16223884 0.48670378 -0.050841823 -0.23605244 -1.1089388
comenzo -0.25761643 0.77788466 -0.4057721 -0.08839657 0.23615187 -0.296485 -0.25915328 0.100139715 0.08178524 -0.18691279 0.16729751 0.1472861 -0.1757785 0.18660751 0.23906766 -0.006706176 0.14773509 -0.7131988 0.10207945 0.047516134 -0.23669437 0.05097478 0.06285254 -0.19453016 0.34076613 -0.1593545 0.5759703 0.012627017 -0.31185538 -1.0906541
volvio -0.15997097 0.74992126 -0.45812675 -0.13355179 0.22663134 -0.34034625 -0.29749623 0.08855195 0.073678285 -0.22015424 0.18738492 0.063464575 -0.13536607 0.28232142 0.3387962 -0.064357676 0.13656701 -0.6965551 0.10702427 0.11753077 -0.29828063 -0.059730384 0.17156136 -0.23164508 0.43570065 -0.0391194 0.58368695 0.055016443 -0.29130432 -1.0804037
amables -0.06585481 0.76790595 -0.39205775 -0.23310208 0.2892106 -0.32647628 -0.27562243 -0.015674757 0.07576061 -0.10020459 0.18011887 0.02285083 -0.003292357 0.20123783 0.39138556 0.021292564 0.13256763 -0.7870671 0.12737112 0.031874564 -0.3255803 -0.0677333 0.13367143 -0.26714054 0.40994373 -0.11083841 0.64690065 -0.01680908 -0.28418535 -1.049371
ninas -0.16107671 0.7469011 -0.39787653 -0.060327854 0.22692198 -0.3069638 -0.2975315 0.08121253 0.08804826 -0.121981345 0.18387887 0.08802694 -0.11346305 0.19241305 0.31124467 0.03199925 0.14355363 -0.725777 0.17070793 0.0004539077 -0.25977376 0.0052344394 0.08075232 -0.24757402 0.36056456 -0.09248946 0.62316513 0.0657293 -0.25145113 -1.0374207
llevan -0.17311612 0.7695492 -0.38907504 -0.11741286 0.22547549 -0.26506215 -0.2694935 0.07151035 0.11676568 -0.09237477 0.183148 0.045094673 -0.082381204 0.1961784 0.35800344 0.030261656 0.1457418 -0.7130686 0.12238476 0.047301367 -0.28673902 0.031285804 0.08142616 -0.19223516 0.37299284 -0.12532724 0.5548102 0.0336562 -0.27004912 -1.0796528
atendiendo -0.15162419 0.7112493 -0.3726599 -0.13168994 0.30918604 -0.30403924 -0.22299804 0.091649935 0.111342974 -0.11558568 0.16016634 -0.05782257 -0.0117919855 0.20513669 0.36556655 0.021936523 0.14655884 -0.77124697 0.14176992 0.012536679 -0.31537846 0.06288751 0.14722434 -0.26830214 0.45445785 -0.08588179 0.60507834 0.08275581 -0.3616215 -1.0237486
triple -0.298967 0.62851536 -0.4110471 -0.037623845 0.18930466 -0.28325978 -0.28662008 0.11672895 0.039054055 -0.15071484 0.24827936 0.19716188 -0.274159 0.25884336 0.24100275 -0.008388623 0.24201083 -0.6031817 0.17207116 -0.042092275 -0.30717584 0.026115883 0.035111345 -0.21626158 0.38129595 -0.15259689 0.6267048 -0.021749763 -0.2597165 -0.996014
otorrino 0.08487644 0.68127984 -0.23274691 -0.3859565 0.40302795 -0.25629824 -0.26584613 -0.13736862 0.16494104 -0.20811102 0.19556703 -0.17574464 0.11531388 0.25209963 0.42785886 -0.102179006 0.16470903 -0.7536456 0.12192823 0.116704434 -0.39086437 -0.16105218 0.24169402 -0.32123685 0.39992508 0.021029273 0.7456551 0.08370384 -0.40710703 -0.96121144
tarjeta -0.1665805 0.74532264 -0.3351084 -0.20049578 0.31664544 -0.31109414 -0.25152805 -0.014848218 0.14354947 -0.12546606 0.15643159 0.07021702 -0.06524995 0.25219572 0.28670081 -0.04676695 0.2208716 -0.783534 0.11561008 0.03328856 -0.31440866 -0.008742365 0.115948975 -0.22602236 0.3755612 -0.083726816 0.6009584 0.010333943 -0.3030536 -1.0845698
registrardo -0.19998331 0.60979426 -0.44259804 -0.0418828 0.20902514 -0.23918064 -0.31063744 0.0754228 0.074474506 -0.1483652 0.20530045 0.15592209 -0.21738459 0.25794318 0.1975817 -0.040181164 0.24775748 -0.69908553 0.23923089 -0.022027748 -0.31400144 -0.01514908 0.061167996 -0.30363896 0.35153937 -0.12605381 0.63178235 0.014612212 -0.27568015 -1.0727576
cliente -0.25820023 0.767092 -0.41839182 -0.06787032 0.28537416 -0.27459303 -0.3285113 0.034693014 0.1204466 -0.09348226 0.16476269 0.10022968 -0.19133797 0.20509133 0.2874475 -0.017117133 0.18467599 -0.66716176 0.17468597 0.062390696 -0.253841 -0.021805143 0.093320385 -0.19087622 0.43945318 -0.06254608 0.6315392 0.048968706 -0.33714673 -1.1428336
comfandi -0.22935145 0.724818 -0.4198594 -0.09818278 0.248114 -0.32922968 -0.2963697 0.11480057 0.039371587 -0.12811543 0.14963926 0.116186805 -0.08737799 0.20939982 0.26354367 0.0408375 0.12754177 -0.7682715 0.09923847 0.12472205 -0.26255673 0.014317136 0.1327225 -0.19061835 0.36783051 -0.0677742 0.6272562 0.0310387 -0.33390978 -1.0965089
permite -0.32647458 0.70555615 -0.44430318 -0.08893871 0.22620384 -0.28076947 -0.25993174 0.089417055 0.119016945 -0.14371996 0.21033527 0.15432331 -0.23598373 0.25872707 0.22431937 0.0045884806 0.1826174 -0.68366724 0.17011465 0.019762333 -0.2994828 0.04754271 0.070231415 -0.23302928 0.3582292 -0.0932273 0.56108147 -0.0066037676 -0.3303846 -1.1097255
necesitamos -0.2582779 0.6738506 -0.45606253 -0.0039719157 0.19776407 -0.29229158 -0.23000056 0.18507501 -0.032382943 -0.1357263 0.2062994 0.17077444 -0.22099654 0.21102078 0.20380358 -0.060229786 0.19443771 -0.72215545 0.11816313 0.05024508 -0.27407026 0.07024565 0.06440699 -0.20822453 0.33704257 -0.07366904 0.5515384 0.026628325 -0.2579303 -1.0174922
agua -0.15854734 0.72693115 -0.41212702 -0.17699184 0.2828576 -0.309379 -0.28716847 0.066495046 0.05254134 -0.15808456 0.16145946 0.058162123 -0.10932509 0.21837324 0.33454508 0.012553981 0.16262242 -0.69432503 0.09186812 0.05152621 -0.2822909 -0.009742832 0.13254923 -0.21157832 0.4435676 -0.06895596 0.58745563 0.026881928 -0.29770994 -1.053676
volvi -0.1783925 0.7789794 -0.37948176 -0.1747948 0.31224373 -0.29619193 -0.36316213 0.05470342 0.090855785 -0.18720166 0.15809783 0.037867464 -0.08264525 0.28761294 0.27420396 -0.041816738 0.1747438 -0.69356877 0.119119525 0.11972577 -0.2855498 -0.0667867 0.11943438 -0.23632737 0.3641361 -0.0064583593 0.67997175 0.077715434 -0.29577163 -1.1167203
cotizar -0.42470208 0.65536755 -0.4660606 0.05577205 0.21823461 -0.29948804 -0.27443582 0.23717186 0.03235511 -0.15784399 0.11751569 0.34010264 -0.3331447 0.0639729 0.11849435 0.089882284 0.20731553 -0.62163424 0.07611238 0.078487344 -0.2616491 0.085208245 0.010043416 -0.20751214 0.2698634 -0.11970181 0.5442103 -0.010281423 -0.3002251 -1.1331319
llamaba -0.23669615 0.82727015 -0.40656897 -0.13288333 0.2727255 -0.33023277 -0.32221392 0.03124827 0.04511986 -0.109381445 0.14761455 0.10645172 -0.14897892 0.21392882 0.31872308 0.046561573 0.1577644 -0.71667826 0.14706287 0.045361906 -0.28869233 -0.009032562 0.08658861 -0.14235237 0.39327133 -0.12328905 0.59731406 0.017897766 -0.33138698 -1.0313988
supuestamente -0.13634367 0.77196 -0.45830408 -0.2088547 0.27549228 -0.23313871 -0.3090468 0.08816179 0.14363222 -0.11171201 0.1583215 0.026914665 -0.08466509 0.2362897 0.27552122 0.0025099984 0.16884312 -0.7422439 0.14891176 0.03597721 -0.2847705 0.020645352 0.13359918 -0.22671567 0.34310597 -0.08251941 0.58128095 0.030244406 -0.30259794 -1.079525
autorizado 0.07757132 0.8276918 -0.29415396 -0.29209414 0.31417164 -0.27816167 -0.3072301 -0.08720674 0.06877341 -0.10374299 0.13912089 -0.2590364 0.13857341 0.19361311 0.6060128 0.030554624 0.13990377 -0.8006522 0.096038766 0.045882404 -0.34933648 -0.124957055 0.12281601 -0.31482336 0.39863968 -0.048404492 0.6683302 0.04878976 -0.3050729 -1.0370471
urgencias -0.13721873 0.67022395 -0.37711442 -0.22635356 0.3205705 -0.3020241 -0.31311873 0.020713022 0.13653162 -0.08272678 0.09737923 0.011866094 0.028093118 0.19086982 0.31932497 0.035772633 0.199327 -0.7932512 0.17889194 0.082894444 -0.30929586 -0.0015323515 0.15878277 -0.27946654 0.3487444 -0.011524799 0.6371243 0.09126795 -0.28354445 -1.0730269
queremos -0.24581662 0.8036272 -0.45837802 -0.038149886 0.2140351 -0.28392562 -0.21663794 0.14425232 0.07066898 -0.13316607 0.1641932 0.18500634 -0.1389559 0.21604675 0.16199291 0.0028333333 0.16521391 -0.72720194 0.07064401 -0.0001878255 -0.3147953 0.05906215 0.06384761 -0.15115952 0.37647983 -0.16259377 0.54938847 -0.008953661 -0.26781413 -1.1173354
puedan -0.123584755 0.8030028 -0.39473292 -0.1221718 0.23481768 -0.29002756 -0.31165886 0.072348386 0.07261821 -0.14278509 0.12949558 0.06468673 -0.13544844 0.20001155 0.31819096 0.008046749 0.25690192 -0.7861921 0.11625019 0.062423736 -0.30455887 -0.022272933 0.054818265 -0.26335305 0.33621866 -0.10939633 0.62008333 0.0017106257 -0.3451562 -1.0514958
intentando -0.11621575 0.6902849 -0.3741465 -0.05616043 0.2901593 -0.11844798 -0.31964916 0.05069672 0.09746476 -0.03680916 0.1260536 0.09105831 -0.10506648 0.20121554 0.2612374 -0.068617895 0.17219539 -0.7473892 0.23896322 0.062371075 -0.32556492 -0.099207185 0.14366153 -0.2806435 0.2658675 -0.086927325 0.7364047 -0.013755853 -0.24984401 -1.1144077
neurologia 0.5316676 1.0187705 0.78683263 -1.2726028 0.60400414 -0.45189402 -0.3367234 -1.4013519 0.48370087 -0.14847386 0.0035672623 -0.10244603 -0.32185873 -0.009065205 0.49929795 -0.22444646 0.60056 -0.6221722 -0.056152426 -0.41599366 -0.3931924 0.18500452 0.32771385 -0.866498 -0.57686967 0.17371798 1.0610641 -0.26244694 -0.9240605 -1.284199
afiliacionse -0.3124469 0.69199437 -0.4214933 -0.061773658 0.23904513 -0.27118593 -0.2492227 0.1459572 0.08104057 -0.16274413 0.16703619 0.21074088 -0.18100187 0.21748576 0.2286822 0.026144547 0.16855569 -0.6377299 0.061280027 -0.009302879 -0.2470087 0.069865406 0.059830807 -0.12828797 0.34230682 -0.12026923 0.5409707 -0.021381583 -0.30459717 -1.119821
cambie -0.26528808 0.76749533 -0.41281676 -0.091322586 0.22328438 -0.29238516 -0.29672208 0.11633966 0.09441005 -0.13785882 0.15479495 0.1459794 -0.13998933 0.22569296 0.23160885 0.020274239 0.12483573 -0.6973371 0.13615464 0.0011365217 -0.29026386 0.017391454 0.07678294 -0.16801941 0.35402647 -0.10847575 0.54490685 -0.0036203247 -0.26138768 -1.0682892
fijo -0.2858548 0.787339 -0.43677226 -0.06903656 0.20147818 -0.32483497 -0.20942287 0.17046386 0.07999516 -0.12977758 0.15829308 0.12962767 -0.15987033 0.23797081 0.24288677 0.034738477 0.16924544 -0.77668256 0.100585334 0.030235285 -0.22429033 0.030128963 0.053556204 -0.15466923 0.41752476 -0.14447662 0.5198858 0.052128445 -0.28570527 -1.100968
aparte -0.17653728 0.7411066 -0.40644267 -0.19349043 0.19829655 -0.32202592 -0.225897 0.07652847 0.12059896 -0.16397548 0.14101915 0.1269637 -0.059525102 0.22582607 0.3457526 0.027006952 0.14319094 -0.72125125 0.06875017 0.05589965 -0.3204115 0.037483457 0.11612729 -0.21053669 0.38586557 -0.12834089 0.5358069 0.092855066 -0.34853864 -1.1171894
cancelar -0.34327286 0.8086832 -0.44228494 -0.053232603 0.23369655 -0.31603745 -0.33016518 0.13344386 0.080849215 -0.15756851 0.12639566 0.26896325 -0.20040953 0.20947991 0.16048433 0.047462553 0.08920472 -0.7129955 0.11279456 0.0729318 -0.24030513 0.10797877 0.08171798 -0.13753916 0.35551807 -0.11792435 0.51760745 0.0015785231 -0.2312506 -1.115771
solucion -0.25159976 0.7777798 -0.3706547 -0.13638544 0.2622392 -0.28679118 -0.2501842 0.0860441 0.12642656 -0.15460083 0.16735147 0.06297378 -0.1818568 0.22238962 0.23754467 0.000106950756 0.15808596 -0.7471306 0.120183125 0.031025734 -0.24900329 0.041626416 0.09103426 -0.2538357 0.4019545 -0.10543802 0.5309246 0.022773283 -0.30001187 -1.1767508
actualmente -0.19107017 0.7888556 -0.4376514 -0.11929028 0.24310988 -0.3228185 -0.34077647 0.09037028 0.10530976 -0.1732959 0.15239063 0.14175758 -0.13218866 0.17797081 0.31452793 -0.0076292153 0.1196415 -0.729134 0.16672258 0.021996818 -0.24510264 0.020914106 0.058612842 -0.22614388 0.41938695 -0.18996711 0.62246466 0.014265858 -0.30377704 -1.0641304
pidiendo -0.252631 0.78948176 -0.43398008 -0.12261727 0.2166896 -0.2870815 -0.31230944 0.1326192 0.03341856 -0.22109267 0.17901428 0.18071578 -0.14415993 0.21802667 0.164111 -0.03550539 0.183389 -0.65844214 0.080962874 0.068865664 -0.2849854 0.04117548 0.079059064 -0.24679506 0.3759561 -0.11615985 0.5352931 -0.016323213 -0.3217183 -1.1201622
vision -0.19911718 0.7746944 -0.40911067 -0.1231291 0.25494477 -0.33269256 -0.24807927 0.07000108 0.07910044 -0.17360452 0.14744611 0.09922851 -0.16090213 0.15590385 0.28342423 0.0361387 0.17234576 -0.7367741 0.08926287 0.065549724 -0.28062052 0.024426157 0.093163654 -0.17387673 0.40180412 -0.06790921 0.5710144 -0.019207727 -0.31333223 -1.0784347
reporte -0.23338968 0.8983564 -0.42504767 -0.124977194 0.33435306 -0.29842386 -0.2724468 0.25478235 0.009476494 -0.26248828 0.2406811 0.22352242 -0.084505424 0.15177348 0.14919256 0.083741486 0.12138971 -0.52135354 0.075322285 0.08239182 -0.23143944 -0.087189294 0.077874206 -0.24580714 0.4013321 -0.06954319 0.5438224 -0.00879757 -0.18081218 -1.0729973
prestador -0.20555907 0.7677877 -0.4459758 -0.22561285 0.23490936 -0.29644057 -0.2891518 0.10217438 0.12231831 -0.15384692 0.25795987 -0.04918155 -0.03459225 0.23291923 0.37758565 -0.050312202 0.051543 -0.7158019 0.15709776 0.08196283 -0.22494808 -0.05344563 0.07770226 -0.2227913 0.32950684 -0.0051056813 0.69447917 0.08565217 -0.36042395 -1.114189
llegue -0.27369162 0.7391721 -0.4329534 -0.06007543 0.25880587 -0.28774655 -0.34082183 0.057830002 0.048699114 -0.09109413 0.14984117 0.16492598 -0.12618808 0.20300667 0.25528893 0.06777565 0.16169637 -0.75668764 0.08912929 0.031324048 -0.24036796 0.0056315525 0.10777959 -0.20089993 0.39490172 -0.100240864 0.618766 -0.016214725 -0.2798674 -1.094001
factura -0.36907676 0.709036 -0.4474206 -0.19508791 0.21949707 -0.30091968 -0.33627743 0.10995616 0.12719576 -0.17421302 0.17519528 0.09719851 -0.14720581 0.20391633 0.23292574 0.11446113 0.043520212 -0.67606485 0.05376562 0.045 -0.27539086 0.1529491 0.23473598 -0.23291577 0.4306326 -0.07249243 0.46254385 -0.049278025 -0.30731228 -1.1397237
gustaria -0.16250792 0.77962637 -0.38526633 -0.029015383 0.2651118 -0.26407605 -0.28740466 0.052635945 0.08970426 -0.11818958 0.19164598 0.08160752 -0.11515634 0.17625822 0.28235146 -0.051167153 0.27293307 -0.8004603 0.19164579 0.09715385 -0.33237788 -0.031530954 -0.0057214727 -0.30312285 0.34626856 -0.09793477 0.62176013 0.016648276 -0.37400237 -1.1004865
lunes -0.11223198 0.9336775 -0.32548174 -0.19009385 0.33101502 -0.3744655 -0.24847858 -0.02347655 0.12692507 -0.17596164 0.22863509 0.07840376 -0.13724709 0.21377969 0.26530302 0.057938058 0.12241423 -0.6973364 0.0670159 0.07993942 -0.30331314 0.009459751 0.10620384 -0.25539097 0.3487451 -0.067258835 0.590341 0.031110976 -0.28132173 -1.0456979
fondo -0.15608038 0.8791133 -0.15500757 -0.23723415 0.26622 -0.34899813 -0.13618763 -0.1174262 0.20020294 -0.13849111 0.24332747 0.088265546 -0.086359784 0.23936388 0.34092587 0.032350197 0.25459304 -0.7931618 0.13606322 0.030063558 -0.27812642 0.075978056 -0.021203486 -0.31680205 0.38451004 -0.17646535 0.5477006 -0.03895687 -0.43491238 -1.12423
necesidad -0.21308424 0.74863636 -0.3738652 -0.036422547 0.2413496 -0.25133616 -0.2215193 0.071648344 0.09662812 -0.23003696 0.13200033 0.114276096 -0.060251318 0.27098748 0.3062048 -0.066423215 0.24128658 -0.78874207 0.11920767 0.06628068 -0.22854316 -0.008391482 0.074347265 -0.1223265 0.4504702 -0.17071193 0.604173 -0.09403417 -0.31433603 -1.0839437
termino -0.2684806 0.75984883 -0.42321524 -0.11821264 0.18732156 -0.28892598 -0.2755225 0.054476466 0.030439362 -0.17235067 0.15569068 0.08173181 -0.1104443 0.17856216 0.2855174 -0.03573809 0.1693535 -0.7451308 0.088671796 0.039421767 -0.2503501 0.06981703 0.053209778 -0.1734126 0.38683105 -0.114106 0.52925557 0.0075170924 -0.28239825 -1.1363412
entiendes -0.20261852 0.7314063 -0.40297025 -0.11107632 0.2502743 -0.33518058 -0.2782028 0.104937285 0.060097873 -0.18451263 0.16680497 0.09926148 -0.11406311 0.24063069 0.31489173 -0.008516079 0.13882573 -0.76796776 0.08413361 0.056225564 -0.27856368 -0.05629713 0.070054635 -0.18681596 0.37419835 -0.15075745 0.5993631 0.011742868 -0.2290405 -1.0867302
listos -0.2800417 0.797735 -0.434218 -0.034170184 0.21613818 -0.27813497 -0.24804814 0.13467583 0.15899943 -0.1339045 0.18093896 0.2408619 -0.19657819 0.15059026 0.20627955 0.027972192 0.1435905 -0.6897151 0.1275045 0.035804357 -0.2301814 0.08532857 0.08908122 -0.16402875 0.35668522 -0.10398024 0.56318116 0.031007139 -0.274475 -1.1025223
piden -0.3226882 0.688381 -0.49830934 -0.07298039 0.19239816 -0.25283825 -0.352396 0.15089439 0.07041164 -0.18152626 0.15728231 0.21722665 -0.16432188 0.22654824 0.18649063 0.01996222 0.16952682 -0.66686755 0.13171168 -0.035041384 -0.22824009 0.01676076 0.0335691 -0.10960245 0.33289126 -0.14715248 0.573921 0.06812051 -0.27980176 -1.1133575
llamars -0.17792608 0.7305214 -0.3842075 -0.17823419 0.27370977 -0.29504764 -0.3042672 0.035989013 0.11531742 -0.14272271 0.117460854 0.060762104 -0.10161473 0.21119528 0.2827453 0.008366297 0.15724462 -0.70936936 0.15956917 0.038581107 -0.26392394 0.032777235 0.11251597 -0.21352768 0.36982977 -0.1149797 0.53120494 0.0041701337 -0.33524632 -1.1309642
enviaron -0.1588695 0.7195293 -0.42561632 -0.13989893 0.21819828 -0.2777427 -0.25448626 0.03659915 0.14057232 -0.15075523 0.15619838 0.022829436 -0.08876445 0.23285343 0.35260376 -0.029482378 0.1908037 -0.7395798 0.16007327 0.011776933 -0.3169097 0.024728825 0.08275265 -0.2761354 0.4255721 -0.059835024 0.55550367 0.07707979 -0.2890957 -1.0762208
plataforma -0.28358218 0.68727046 -0.47378802 -0.07561284 0.21696125 -0.32532603 -0.35905448 0.07798559 0.09814363 -0.16654246 0.18331791 0.1472338 -0.2251725 0.25196052 0.23347943 -0.011962827 0.21460168 -0.67797905 0.18276642 0.029082237 -0.2691491 0.046289865 0.061342873 -0.24867108 0.33405462 -0.13836335 0.63624436 0.01951758 -0.2823471 -1.1093196
necesitaba -0.11161734 0.7711951 -0.32394743 -0.18943587 0.26784173 -0.29505688 -0.22786105 0.019526063 0.11025381 -0.14393732 0.14592808 0.06307334 -0.09951239 0.20540155 0.32389835 0.0024092174 0.15614063 -0.71528774 0.13046098 0.04088545 -0.27494147 -0.030599173 0.101654276 -0.2769146 0.36338484 -0.09166189 0.6319998 0.010734238 -0.31158644 -1.0793002
tranquila -0.12243381 0.78134733 -0.43256348 -0.17772247 0.24597228 -0.3063024 -0.32721987 0.044715013 0.07940123 -0.18312767 0.14557475 0.014532568 -0.131857 0.21675041 0.30424505 0.0047863126 0.13480066 -0.6970269 0.06062407 -0.0014774061 -0.27059802 -0.03508103 0.12793437 -0.2259153 0.38941228 -0.0009540785 0.60750544 -0.0011722639 -0.3107972 -1.0803187
particular -0.010712325 0.65342057 -0.36236125 -0.3616405 0.36379606 -0.26000488 -0.29143086 -0.09526164 0.14097272 -0.10180697 0.100112975 -0.068896666 0.059249565 0.19248948 0.431611 0.004121009 0.2150874 -0.8434392 0.11413341 0.019598387 -0.40108037 -0.02478617 0.22450176 -0.31978124 0.35983285 0.014842965 0.6590182 0.08596189 -0.31853777 -1.0175285
dejo -0.21944042 0.8132397 -0.37847957 -0.13767603 0.23223226 -0.27949947 -0.2866224 0.08143011 0.06944126 -0.17945078 0.17511864 0.15303268 -0.0822536 0.1858331 0.26886094 0.010199293 0.15750629 -0.75404257 0.12556817 0.094433375 -0.27671406 0.04063307 0.08066358 -0.20788941 0.35810262 -0.08203866 0.5985739 0.039655585 -0.27769506 -1.1402537
parezco -0.33763412 0.73925626 -0.45872962 -0.08248881 0.20349897 -0.35680026 -0.24869923 0.16307312 -0.018099535 -0.19853847 0.1452897 0.18530166 -0.21501368 0.1671967 0.20778428 -0.06222072 0.18718947 -0.72320414 0.04706277 0.0671231 -0.26037925 0.06399896 0.087410904 -0.20555632 0.33246773 -0.09587052 0.4837909 -0.028991206 -0.27532306 -1.1031666
recibo -0.25418708 0.84304935 -0.5337822 -0.041427758 0.18181811 -0.348763 -0.36075902 0.16640306 0.10574147 -0.14752065 0.13280752 0.32490104 -0.21330504 0.2726489 0.16182227 -0.029180037 0.10674449 -0.70585775 0.049633753 0.033941217 -0.26811448 -0.009285315 0.18744121 -0.01864384 0.3872792 -0.01429805 0.5200491 0.021452902 -0.2666641 -1.0582995
unica -0.19725062 0.8251614 -0.3881211 -0.11976374 0.24944727 -0.34985465 -0.28478584 0.07807454 0.055232722 -0.18237452 0.17960666 0.03658486 -0.10535877 0.25230458 0.28029263 0.05496586 0.13309973 -0.7108496 0.103396885 0.06366316 -0.28392768 0.010374876 0.10971672 -0.28956524 0.37448198 -0.144296 0.56935364 0.028436465 -0.2451629 -1.1237967
edad -0.21693379 0.7774598 -0.39475694 -0.16847207 0.23706847 -0.24840656 -0.23230612 0.009341414 0.10256148 -0.16417225 0.15829197 0.07296411 -0.1357926 0.21549655 0.32460415 0.033036735 0.18752535 -0.7641677 0.07997658 0.053727366 -0.29344144 0.060347266 0.078703605 -0.23818311 0.3080377 -0.15895893 0.5953869 0.013205686 -0.3667637 -1.0808078
reclamar -0.048432093 0.85789263 -0.42033038 -0.28916833 0.25027966 -0.42879054 -0.25781867 -0.019979976 -0.024845649 -0.0579998 0.060377896 -0.033854794 0.088216744 0.23676527 0.59599924 -0.014582165 0.09164277 -0.76703423 0.02730892 0.06836115 -0.3155057 -0.19977205 0.17242844 -0.18892527 0.52498007 -0.011685721 0.6168468 0.016051749 -0.24527912 -1.0150139
autorizares 0.005650703 0.7411789 -0.19476967 -0.35877126 0.2916261 -0.3225485 -0.1884106 -0.15976554 0.31643614 -0.1402039 0.17397514 -0.076286845 -0.008367044 0.2517366 0.4663481 -0.037755013 0.18670757 -0.68244576 0.21013987 -0.111260794 -0.37290695 0.028648898 0.20978682 -0.37920442 0.2908964 -0.08715001 0.6979233 0.07764559 -0.38334477 -0.9949268
indicar -0.277356 0.75754917 -0.43814316 -0.0776119 0.19103491 -0.269381 -0.25679785 0.16336966 0.12676045 -0.11529519 0.17995216 0.17233653 -0.17229389 0.1955563 0.23638964 -0.026693448 0.19101045 -0.71792835 0.1523059 -0.006649278 -0.24645086 0.11127862 0.022514546 -0.23196973 0.33991966 -0.12521149 0.5859686 0.026839003 -0.30680794 -1.0377009
vivir -0.26885444 0.71218944 -0.46873206 -0.083465636 0.21604063 -0.3320826 -0.296779 0.08255197 0.061004784 -0.14040922 0.21138139 0.12295209 -0.15970805 0.24363436 0.18853466 0.033546027 0.1700575 -0.7157461 0.1501204 0.06756278 -0.2901941 0.07366732 0.113177575 -0.21914594 0.32060876 -0.10324405 0.56568414 0.024608046 -0.31877765 -1.0588671
llamaron -0.12611264 0.81604 -0.44664145 -0.096251436 0.28437862 -0.3261315 -0.29186666 0.030024087 0.0211943 -0.10776567 0.11571059 0.084166266 -0.09453539 0.10829933 0.3219027 -0.019867513 0.14883615 -0.74413675 0.038190126 0.04150585 -0.27875572 -0.056271512 0.102953896 -0.2745074 0.37871483 -0.101650864 0.60819143 -0.00750176 -0.24565345 -1.0942625
regimen -0.29253963 0.708323 -0.42910093 -0.024970654 0.1755009 -0.32945493 -0.29327434 0.18310586 0.04306602 -0.19526698 0.1428972 0.2248862 -0.16681525 0.15691166 0.12124259 -0.017401895 0.24119237 -0.7522859 0.13616179 0.09373715 -0.30700538 0.08191213 0.09166406 -0.24654852 0.28616697 -0.10596589 0.5043059 0.0817821 -0.35922846 -1.0570762
quieren -0.119447775 0.7733425 -0.37067074 -0.21143407 0.25259927 -0.27038544 -0.28259116 0.039451867 0.066765495 -0.1357057 0.14956264 0.105773784 -0.08363041 0.22741355 0.35820243 0.058291804 0.13693197 -0.70823556 0.14815614 0.025695333 -0.2983436 0.02036728 0.10325722 -0.20957802 0.41795707 -0.110442095 0.5671351 0.0375581 -0.2788705 -1.0473808
necesitas -0.3127262 0.7421607 -0.4786173 -0.032731295 0.24614531 -0.26514357 -0.2405553 0.08694332 0.07894221 -0.16892605 0.17572838 0.14739066 -0.23912181 0.20884895 0.18831521 0.002053698 0.18777844 -0.7362337 0.091785856 0.008519184 -0.25160635 0.103747085 0.05935717 -0.20955215 0.36563978 -0.107636735 0.54993486 0.058773063 -0.31842905 -1.0943197
soporte -0.25369352 0.74074847 -0.34792864 -0.10984401 0.24353674 -0.33973724 -0.32230413 0.004275164 0.18645824 -0.08956046 0.2820615 0.12496573 -0.21663883 0.25643358 0.20328155 0.021270169 0.22095746 -0.64237505 0.17436895 0.0014140629 -0.21486261 0.008004172 0.11208423 -0.252191 0.32166842 -0.042222284 0.52415144 0.07297442 -0.314657 -1.0803051
quedar -0.24604921 0.7450353 -0.4977401 -0.09417132 0.20238818 -0.27082294 -0.27294618 0.11808689 0.099146694 -0.16877733 0.1795437 0.14369918 -0.19844195 0.17688884 0.1839711 -0.0050302497 0.16979708 -0.66066474 0.09666499 0.019724503 -0.2337237 0.074159786 0.045831922 -0.18053477 0.37325773 -0.14938438 0.53865314 0.00805997 -0.32679448 -1.081654
acaba -0.2040006 0.7896106 -0.36422023 -0.16470547 0.2506542 -0.27328953 -0.2875891 0.06243969 0.1239685 -0.1501066 0.11508708 0.08560336 -0.15734337 0.18186012 0.2736192 -0.029423498 0.1632051 -0.76008016 0.0680706 0.018179169 -0.27663305 0.031705026 0.114767805 -0.22852036 0.36831227 -0.08410156 0.57543427 0.0056885136 -0.2593611 -1.1318341
entendi -0.28806904 0.81413937 -0.48954582 -0.037426654 0.1790723 -0.2794141 -0.3040485 0.0824414 0.0032478925 -0.1754515 0.19234979 0.08203369 -0.16438422 0.19077945 0.27861968 -0.04013179 0.13805673 -0.74879867 0.11981933 -0.02450532 -0.20442066 0.030695481 0.08501474 -0.23365712 0.33165187 -0.09103075 0.59364676 0.033812147 -0.2643884 -1.0796579
existe -0.24132545 0.744712 -0.42548394 -0.03586757 0.20471053 -0.29382548 -0.31374693 0.15409689 0.09114797 -0.14511552 0.1343116 0.18607797 -0.1574566 0.20665684 0.16169517 0.012450358 0.16717426 -0.68179333 0.10805481 0.04367084 -0.2450217 0.05232725 0.073241144 -0.21577442 0.3477782 -0.15364328 0.57602674 0.0542457 -0.2478873 -1.1122485
encuesta -0.2612749 0.75882775 -0.45281032 -0.031109665 0.20390548 -0.30289662 -0.24895075 0.082975574 0.04048363 -0.1919142 0.16153596 0.09607078 -0.15917273 0.28008077 0.24262404 -0.06355272 0.17769912 -0.7190432 0.08320781 0.065417945 -0.30707043 0.0024100684 0.068684414 -0.23678908 0.36592653 -0.12438631 0.52928823 0.02461525 -0.2739049 -1.0557678
empleados -0.32878634 0.70973563 -0.47362754 0.023964196 0.19282618 -0.3094087 -0.23589908 0.1918218 0.03397008 -0.21924362 0.24567334 0.21363145 -0.22804782 0.2626835 0.16837718 -0.019516952 0.20917505 -0.676435 0.16860308 0.04661261 -0.20568785 -0.021590661 -0.017656237 -0.2094888 0.3839171 -0.18360628 0.5790441 -0.012059209 -0.29125762 -1.10209
disculpe -0.17052028 0.8577483 -0.47079262 -0.11398812 0.21742745 -0.33781675 -0.30099717 0.07484546 0.038288012 -0.22352482 0.14745723 0.0795921 -0.029899213 0.21979608 0.28782976 0.040492658 0.18870579 -0.7744047 0.07526784 0.0025250209 -0.29431504 -0.113599546 0.0399148 -0.12992425 0.3621903 -0.12734699 0.61847234 0.017675681 -0.311395 -1.1151638
mandado -0.22324651 0.76996666 -0.40950185 -0.17840047 0.3010832 -0.33893013 -0.25105652 0.021056665 0.13100041 -0.11790868 0.17842448 0.062975414 -0.07400185 0.29002413 0.31657696 -0.021305747 0.12601618 -0.6719525 0.17137504 0.06937268 -0.26408294 0.0074139773 0.13799503 -0.2698457 0.41838774 -0.010519676 0.61670136 0.106744595 -0.3274184 -1.1032622
contesto -0.3168148 0.83064944 -0.38899338 -0.053304277 0.3180288 -0.30369505 -0.30136594 0.10501667 0.08044509 -0.14893837 0.22291501 0.101875775 -0.17947833 0.22641286 0.24786416 0.11688459 0.14213805 -0.63686657 0.17238957 0.06569373 -0.22822486 0.027915003 0.09548987 -0.21411751 0.45390046 -0.10419393 0.5533988 -0.022398593 -0.2817447 -1.0194064
vive -0.2669798 0.7987684 -0.5129085 0.00260241 0.24961685 -0.28665686 -0.31621033 0.056479767 0.066796064 -0.14411579 0.1164104 0.15098469 -0.18639223 0.19478758 0.24218383 -0.024416389 0.1357786 -0.770521 0.14604364 -0.011450222 -0.20465992 0.089385256 0.07375464 -0.13580772 0.40106592 -0.14653088 0.5997759 0.05059577 -0.2654862 -1.1000698
desempleo -0.29839206 0.82806665 -0.45496973 -0.033900578 0.25861925 -0.29445127 -0.2911845 0.14058034 0.10555366 -0.19449477 0.117965505 0.23233652 -0.16427106 0.20070148 0.1909559 0.006013432 0.22227162 -0.66140795 0.12744738 0.029204238 -0.2407772 0.0013586022 0.045428276 -0.17215027 0.42740905 -0.1664277 0.5661462 -0.04195433 -0.2924112 -1.1217827
vacuna 0.06983978 0.67965084 -0.3759495 -0.28859887 0.34842366 -0.23699339 -0.2770576 -0.008340353 0.12161078 -0.17450082 0.16739471 -0.19369668 -0.057468884 0.35386392 0.45897034 -0.07289776 0.18793401 -0.72405434 0.08751399 0.022229102 -0.36152554 -0.12210655 0.20421088 -0.30810356 0.47333443 -0.019477773 0.6340213 -0.030713731 -0.41838518 -0.99324554
adonde -0.18337837 0.70459896 -0.40307415 -0.19440503 0.24212585 -0.34584966 -0.27346075 0.12752448 0.032647688 -0.1304385 0.1012668 0.06333354 -0.08200339 0.21385813 0.30680528 -0.020757386 0.16440329 -0.7321001 0.12416755 0.041182484 -0.34183046 -0.0050083096 0.11713413 -0.20471768 0.3814816 -0.06547025 0.5593506 0.039422523 -0.25740755 -1.0858799
motivo -0.19295385 0.7512556 -0.39055252 -0.13279326 0.25009933 -0.3171917 -0.319712 0.13363221 0.0743352 -0.13816884 0.12508863 0.10158467 -0.1412169 0.19768105 0.21307081 0.017416278 0.21456186 -0.7688887 0.111198634 0.025785998 -0.25624418 -0.0028868257 0.08492728 -0.17841204 0.38682076 -0.09795823 0.600955 0.065244384 -0.3111307 -1.0184093
urgencia -0.10694903 0.637065 -0.33082876 -0.20431381 0.37192795 -0.29408613 -0.27761415 0.05483007 0.093359284 -0.080830246 0.16888157 -0.043375537 0.00812517 0.19748086 0.35159877 0.026348408 0.26651013 -0.79664284 0.15388401 0.087156005 -0.34750625 -0.0008990406 0.13568296 -0.28458834 0.3971499 -0.020081932 0.63775563 0.065191135 -0.30725288 -1.076033
morichal -0.019625397 0.64401734 -0.31006584 -0.17818537 0.28020555 -0.16514722 -0.28187582 0.05951026 0.09491807 -0.15322019 0.13300057 -0.03549901 -0.18360578 0.30494872 0.36801666 -0.014902869 0.17387226 -0.72014487 0.2038834 -0.0067854747 -0.30166844 -0.058804583 0.18046166 -0.33470917 0.3593526 -0.0028222424 0.7381602 -0.045299053 -0.327485 -1.0155419
requiere -0.2710233 0.80452377 -0.34250668 -0.16361077 0.14319055 -0.15469107 -0.15549278 -0.07210035 0.367476 -0.27287722 0.18038163 0.004246227 -0.06626122 0.22800021 0.55631316 0.07276138 0.15478858 -0.69100875 0.05358239 0.11936895 -0.27071378 0.15318066 0.014510818 -0.2819422 0.3319825 -0.3395741 0.67006767 0.0046617873 -0.39670837 -1.1422253
sitio -0.26366824 0.788375 -0.41231266 -0.07581928 0.24777427 -0.3038534 -0.24316567 0.06661679 0.16992715 -0.16956146 0.12350858 0.07426264 -0.15431924 0.2112449 0.27440122 -0.0023149098 0.17751026 -0.6957255 0.0932813 0.02338916 -0.27943584 0.08717898 0.07313384 -0.22203894 0.38077897 -0.18989725 0.56305355 0.013003061 -0.35720947 -1.1396873
medicos 0.07951122 0.7149821 -0.1850936 -0.3935342 0.30686453 -0.2868513 -0.20119941 -0.21571505 0.2771726 -0.09157171 0.15804927 -0.1331781 0.03480982 0.29832423 0.56778467 -0.033864252 0.21405049 -0.70131475 0.21857318 -0.07281576 -0.3788537 -0.036557425 0.2211824 -0.37896535 0.2922798 -0.09703493 0.6833745 0.059274297 -0.4017973 -1.0122354
anteriormente -0.24369158 0.77842385 -0.39483196 -0.10143732 0.24228415 -0.33859667 -0.2919699 0.10743292 0.034977745 -0.24354124 0.17676102 0.15738006 -0.2149053 0.21585712 0.18918395 -0.008554055 0.22626318 -0.70924556 0.10191611 0.0640321 -0.25868765 0.047220588 0.039130144 -0.14980982 0.35648504 -0.16642405 0.5567264 0.015954573 -0.32113692 -1.1107211
lejos -0.20982656 0.76905406 -0.3881973 -0.059536707 0.26125896 -0.24071765 -0.33098224 0.09564171 0.075903215 -0.18448582 0.12823234 0.11507201 -0.13356173 0.28082466 0.27848414 -0.021946814 0.16416256 -0.7393702 0.14896499 0.06642367 -0.28078428 0.017701305 0.12509573 -0.21033373 0.3714108 -0.09983374 0.62613106 -0.01992441 -0.3296012 -1.0563403
valoracion 0.29495347 0.92681026 0.45690814 -0.89704335 0.46612245 -0.42618382 -0.23282395 -0.91064626 0.38844702 -0.089201674 0.1339011 -0.029613018 -0.23487201 0.074661106 0.4372578 -0.13147032 0.48179436 -0.6574346 0.0028333745 -0.23616257 -0.3051292 0.13316959 0.20623946 -0.69277036 -0.24518232 0.06618754 0.8535734 -0.20798494 -0.69547945 -1.2273579
partir -0.3011422 0.720571 -0.4336354 -0.05217965 0.2514649 -0.3147625 -0.22508796 0.12310349 0.08114794 -0.12735012 0.15535696 0.2054044 -0.16532198 0.21061185 0.15553342 0.03824596 0.16581857 -0.6843523 0.05911848 0.05020008 -0.288113 0.06905737 0.0736736 -0.2107304 0.38232243 -0.07688264 0.534907 0.051584367 -0.27124396 -1.1052341
prepaga -0.19169563 0.6630413 -0.4770501 -0.27600297 0.2958057 -0.2903858 -0.28974804 0.014095429 0.15599862 -0.048533864 0.011286329 0.10102487 -0.14535269 0.20171894 0.24466643 0.004995886 0.077379584 -0.7691728 0.14279212 0.021349005 -0.34387553 0.058301758 0.30032003 -0.28369635 0.3728707 0.009137982 0.5607762 0.04853222 -0.26493552 -1.1114472
prestacion -0.3681847 0.66639084 -0.4968477 -0.03877066 0.20979375 -0.306733 -0.38355568 0.21317776 0.09026987 -0.1743461 0.18416832 0.17862813 -0.2834718 0.15784998 0.11470673 0.065079495 0.19364372 -0.7436892 0.05958135 -0.024007559 -0.16156225 0.067718826 -0.017275898 -0.15349656 0.28806773 -0.15431751 0.5161779 0.10172632 -0.28728855 -1.1482902
maneras -0.17210624 0.8072657 -0.38102856 -0.18685131 0.22874065 -0.35985646 -0.28752863 0.07202151 0.059998266 -0.1769959 0.16270196 0.053184282 -0.11594099 0.25148326 0.3125327 -0.009256743 0.17418417 -0.72768414 0.11919088 0.08757853 -0.27769238 -0.040106487 0.056423172 -0.24976763 0.36017963 -0.07101542 0.57357144 0.007548343 -0.2735704 -1.0744424
sucede -0.17950955 0.7715442 -0.40257552 -0.083784886 0.26522726 -0.3245444 -0.30004337 0.05731653 0.10519901 -0.12148672 0.15567775 0.15129195 -0.1330112 0.14573933 0.25981927 0.055891015 0.16892226 -0.6711436 0.10271974 0.017510233 -0.25902283 0.029275598 0.041797683 -0.15634549 0.33201247 -0.1204262 0.52588993 0.047457412 -0.27330953 -1.1057572
minimo -0.23660237 0.8262684 -0.4801875 -0.072794735 0.20957586 -0.27874404 -0.31604198 0.15578216 0.06783119 -0.13499142 0.18417662 0.17286567 -0.17796326 0.20318557 0.29671466 0.014942482 0.13160297 -0.7127785 0.095713355 0.025338419 -0.2771687 0.08250724 0.077711664 -0.17677318 0.3580703 -0.15910524 0.5745886 0.039455984 -0.25642976 -1.0420043
hiciera -0.20953067 0.7302706 -0.4023164 -0.124611214 0.23383486 -0.31888124 -0.24173321 0.14055675 0.080918826 -0.1282958 0.14859459 0.13555726 -0.13177592 0.20156915 0.2448921 -0.03126711 0.23593381 -0.7295439 0.11351996 0.09558449 -0.30455467 0.025360456 0.121814586 -0.23556796 0.36009908 -0.06601433 0.5802687 -0.0046461304 -0.3286525 -0.99957156
exito -0.21139607 0.7350461 -0.407353 -0.12269768 0.25511542 -0.2909469 -0.28356463 0.08984798 0.13248418 -0.1513181 0.15380865 0.15020825 -0.13061254 0.21065281 0.32978266 0.0131726535 0.20530623 -0.753624 0.11273842 0.00802702 -0.2801689 0.007772998 0.12850536 -0.17876048 0.40293112 -0.15154856 0.5860817 0.0320909 -0.36417648 -1.08339
comunique -0.33432162 0.7522481 -0.4118915 -0.05676627 0.27979586 -0.3022914 -0.30802593 0.1116557 0.07711623 -0.16119775 0.13605928 0.23144308 -0.21165138 0.19163135 0.21711832 0.017765015 0.18349697 -0.65997815 0.13132232 0.046569176 -0.26704288 0.056001514 0.10564673 -0.15523879 0.40089655 -0.118220896 0.5315405 -0.003989819 -0.2992305 -1.0792942
copia -0.21126166 0.4852999 -0.44031668 -0.15787354 0.14102015 -0.22364609 -0.3798716 0.062095053 0.21463257 -0.10150602 0.26103538 -0.08013337 -0.21712908 0.32640305 0.34943187 0.01076761 0.4150656 -0.7212771 0.34928596 -0.0922685 -0.35725933 0.103253625 0.08461002 -0.42338392 0.17494354 -0.15719734 0.54096186 -0.02294063 -0.21255945 -1.1272111
