1318 30
afiliacion -0.16151932 0.8982469 -0.34199852 -0.39664286 -0.229748 -1.4901681 -0.30109274 0.23670977 0.09001715 -0.41439638 -0.047117744 -0.2870261 0.8123423 -0.07392203 0.7045039 0.116166875 -0.057375334 -1.5112598 0.113355726 1.3063506 -0.45938197 0.1830279 -0.28250906 -0.27720731 -0.1552869 0.687033 -0.020552048 -0.46103495 1.0534139 0.86043924
pagar 0.34337687 0.7500272 -0.7801673 -0.47639805 0.34427783 -1.9431987 -0.15873942 0.19634219 -0.48078796 0.4729977 0.28618965 -0.5651133 0.116739236 -1.4905026 -0.26033738 0.14253107 -0.13047977 -0.89246154 -1.236468 1.073168 0.31242177 -0.0020899505 0.7141972 0.74844366 0.3201397 -0.7969269 -0.44288817 0.40636638 0.9490847 0.85377884
cita 0.07744761 0.48058793 -0.069297135 -0.14160646 -0.78175664 0.7865586 0.6090934 -0.8460477 0.8344415 0.33877715 0.4299602 -0.30418363 -1.0618287 0.4447893 -1.1174928 -0.5895521 0.23208375 -0.9694954 0.23565894 -0.29605156 0.529648 0.5587367 -0.23342244 0.3086074 0.62517756 1.9653976 -0.30752987 -0.06027106 -0.9143535 1.4072317
oficina -0.70540226 -0.026848583 0.0106299035 0.7466622 -0.48764867 -0.39594337 -0.044686943 0.47207418 -0.6797895 -0.5558494 -0.36174905 0.31252462 0.21918908 0.6884564 0.7082627 -1.090732 1.0228736 -2.086822 0.31736192 0.25228828 0.007149471 0.7331219 -0.2294292 0.5956306 -0.42204025 0.29997212 -0.5824628 -0.66067183 0.022687016 0.34866413
orden 0.4592861 -0.094911754 0.4868991 0.5454928 -0.6342907 1.1270937 0.8044991 -0.3188863 0.6145235 0.5827694 -0.0072654467 -0.08237648 -1.0596765 0.6669448 -1.308064 -1.2139388 1.0195752 -1.0816201 -0.7513671 0.2330204 1.0187918 0.97202605 0.9086887 0.7494594 0.5891837 1.3951179 -0.45383146 0.2533361 -1.7797636 1.4055065
informacion -0.1570967 0.34856197 -0.02033549 0.07835551 -0.107644506 -0.29832107 0.09435306 0.48558626 -0.18707152 -0.27856848 0.35557216 -0.0104027 0.35506472 0.14752497 0.1644624 -0.4963528 0.34420273 -1.5899782 -0.48432437 0.5019153 0.34501162 0.091344275 0.13449901 -0.16368914 -0.2403866 0.3898061 -0.37108022 0.044774204 0.43460515 0.4191866
independiente -0.16017263 0.92717546 -0.80709904 -0.5596853 -0.04139384 -1.8964965 0.19993334 0.090151176 0.32486033 -0.11224871 -0.055251237 -0.757909 0.9653033 -0.49368888 0.68087727 0.55116653 -0.121731006 -1.1559376 0.11439529 1.6724716 -0.57889754 0.37786353 -0.33499753 -0.3165202 0.2895783 0.59649044 -0.0290848 -0.26373482 1.4280379 1.2200985
afiliado_a -0.4097617 0.8111243 -0.5963671 -0.12158609 -0.4709344 -1.4893061 -0.45648965 0.16334257 0.5120704 -0.6054724 0.040661152 -0.48539904 0.400242 -0.13105267 0.64123935 0.49158624 -0.2846432 -1.456357 0.43942794 0.96120346 -0.47429886 0.40331715 -0.2183637 -0.36267707 0.21898565 0.9583139 0.0338568 -0.741272 0.5688511 1.1505617
incapacidad 0.05396475 0.33366624 0.29165363 0.02142998 0.43217596 -0.79515666 -0.3068686 1.1379123 -0.8679276 0.21327777 0.19168317 0.22417107 0.5009615 -0.14726736 0.5517728 -0.686386 2.046123 -2.4109938 -2.1770926 0.81684405 0.6499357 -0.38592967 0.56621975 0.51751274 -0.48664844 -0.55967546 0.24079756 0.15442762 -0.09798626 -0.41604713
autorizacion 0.029325275 0.24351756 -0.29442394 0.28796437 0.047078196 1.4002619 0.75391257 -0.13526973 0.23487544 0.7415608 0.58063984 0.27145395 -1.5489928 0.54207844 -1.0569097 -1.4774321 0.73923063 -1.3615505 -0.88190454 -0.3856982 0.16349757 1.009722 0.4187461 0.5914116 0.3668671 1.7708983 -0.045300372 -0.08905693 -1.4280713 1.0757009
virtual -0.80544114 -0.3737118 -0.05883226 0.7825283 -0.5314331 -0.13477235 -0.035330597 0.45315334 -0.58421326 -0.5621176 -0.3525151 0.353751 -0.022449983 0.63882476 0.51291627 -1.206279 1.0028892 -2.0899022 0.47066996 0.10291424 0.0062594614 0.80349976 -0.17784281 0.54749113 -0.31031334 0.51695657 -0.8111009 -0.6158789 -0.029893676 0.38636336
telefono 0.2233385 0.5813419 0.3066262 0.0064850007 -0.20001861 -0.029558787 0.45502818 0.04323161 -0.07058172 0.084869586 0.23406011 -0.4229398 0.42294243 0.013656445 -0.4019482 -0.5352842 -0.05595469 -1.1848738 -0.3817611 0.24842045 0.43535504 0.2804264 -0.20774378 -0.21252629 0.033341683 1.0696409 -0.20031877 0.09529326 0.6063241 0.52012426
proceso 0.03153774 0.47741485 -0.034141507 -0.0809763 0.057687845 -0.594979 -0.072722055 0.22205983 -0.037803523 -0.28960675 -0.046449758 -0.32980117 0.38836044 0.113982365 0.54178 -0.5035757 0.3017488 -1.4699568 -0.2732549 0.7732717 -0.07343652 0.08396064 0.12011113 0.17729603 -0.17388733 0.36827004 -0.3286756 -0.09305448 0.53758997 0.6139629
mandaron 0.48662344 0.087340236 -0.39598805 0.068817094 -0.14580967 1.2439182 0.93031305 -0.5893067 0.4677307 0.570504 0.5036004 -0.07208083 -1.3503072 0.45362133 -1.4397738 -1.1899354 0.3373078 -1.0135267 -0.43165413 -0.26140687 0.587269 0.94237304 0.45721644 0.69670224 0.6567813 1.1797981 -0.55605686 0.40416834 -0.9708218 1.3760092
consulta 0.35252345 0.7588987 -0.22128014 0.20301783 -0.94901806 0.43917474 0.37423766 -0.700079 0.43684664 0.55743617 -0.35934648 -0.17479303 -0.6844813 0.5562596 -0.60358375 -0.76180464 0.25034234 -1.3335086 -0.5663556 -0.02899202 -0.110453874 0.28652224 0.8189354 0.564212 0.046646457 1.6876056 0.3752143 -0.20373307 -1.3816358 0.4907457
pedir 0.13295399 0.4744869 -0.12575044 -0.14118762 -0.46639633 0.73351467 0.54925394 -0.37756473 0.7798605 0.28344882 0.3614266 -0.106768854 -0.8993056 0.44635043 -1.1296366 -0.6324199 0.34616223 -0.88820016 -0.04824106 -0.12969673 0.2755034 0.7074126 -0.15473847 0.32908517 0.62372315 1.6405005 -0.28066218 -0.09023171 -1.0604193 1.3717535
problema 0.013636399 0.68565124 -0.4797258 0.09611693 -0.06044302 -0.34735712 0.20776783 0.16356562 0.17483027 0.5289425 0.2496751 -0.2900121 -0.3961999 -0.33767903 -0.28687847 -0.23844558 0.44025248 -0.72302645 -0.49715254 0.47132662 0.22716342 0.25544924 0.21156338 0.46662974 0.08032648 0.57651025 -0.4027621 0.07003482 0.052387293 0.8251885
formulario -0.025387304 0.65668917 -0.14257282 -0.14214168 -0.41137522 -0.74242145 -0.20157827 0.36846232 -0.3439267 -0.36387575 -0.6271771 0.003499435 1.1285291 0.49577463 0.33010226 -0.4334383 0.005571174 -1.831497 -0.31506184 1.279374 -0.3404688 -0.050391603 -0.15561272 0.3363925 -0.62088805 -0.13626857 -0.4972563 -0.21915293 1.0306973 0.9063513
registrar -0.89656234 -0.012546232 -0.27550054 0.12466133 -0.81232876 -0.42807558 -0.63654023 0.24712732 -0.78279495 -0.86519784 -0.1764386 0.20239852 0.60495037 0.16993298 0.87394726 -1.0010695 0.38129106 -2.221369 0.20921455 0.50726056 -0.10035127 0.34826502 0.19447246 0.045743655 -0.5655808 0.40668383 -0.32902718 -0.29822725 0.44707906 0.3709152
enviar 0.4383373 0.13132602 -0.13512823 0.08290105 -0.24849373 -0.17502855 -0.18509102 0.37955117 -0.3285608 -0.32198554 0.038302045 0.12324743 0.26594445 0.31678835 0.04130389 -0.7195492 0.49339008 -1.8110818 -1.2353278 0.45261723 0.44209483 0.06331529 0.42705503 0.107453905 -0.20221724 -0.33947694 -0.5845362 0.26333958 0.2772894 0.21138315
ciudad -0.04583751 0.5282023 -0.39475226 -0.027704425 -0.085826725 -0.9275185 0.043044426 0.2445735 -0.150112 -0.5010726 0.24067876 -0.3385826 0.3970435 0.05253014 0.38426012 -0.019247308 -0.05895702 -1.2571757 -0.016015599 0.78472716 0.16042653 0.26814085 0.044266954 -0.10643012 0.034302045 0.63977915 -0.34714 0.027559223 0.6334112 0.8257465
llamar 0.11069281 0.3150454 -0.033678457 -0.18914433 -0.034100633 0.030077524 0.41793537 -0.164047 0.31288964 0.05231745 0.37696525 -0.20706289 -0.6839089 -0.12664205 -0.7877783 -0.63820064 0.3401798 -0.80032057 -0.36547732 0.19886534 0.4124026 0.544534 0.0091041885 0.14712004 0.38118878 0.87373084 -0.24203159 0.18914565 -0.35612595 0.99565226
momentico -0.37942743 0.5803114 -0.3141783 -0.16912809 -0.61517054 -0.3506487 0.20248808 -0.1900424 0.3239158 -0.29272035 0.105103046 -0.35005042 0.21616803 0.1278377 0.07948674 -0.19553292 -0.3262787 -1.3429027 0.18497416 0.5128982 0.3081564 0.38687614 -0.024461644 -0.24431413 0.16933294 0.77902436 -0.31042588 -0.45933548 0.3717176 0.6528688
pasado 0.16011883 0.3125725 -0.10086366 -0.27865687 -0.2066477 -0.8334988 -0.057888184 -0.06898843 -0.025002882 0.012483517 0.27229193 -0.35062605 -0.030104158 -0.5169365 -0.024100795 -0.45146856 0.3316943 -0.9870123 -0.77917355 0.9548991 0.30144665 -0.024603825 0.53115684 0.17543393 0.13332713 -0.088413 0.16464585 0.27333623 0.31565166 0.78426516
volver 0.047996502 0.76840836 -0.48180547 -0.3587264 -0.20758985 -0.81178665 -0.17614344 0.085403 0.22546855 -0.01332918 0.15570158 -0.30995846 -0.018818326 -0.24283792 -0.12080121 0.043213934 0.16327305 -0.7530846 -0.12409168 0.65844667 -0.021433929 0.32885614 0.36707443 0.10894764 0.29230443 0.43662554 -0.21079063 -0.080866404 0.09484069 0.9691372
empleado -0.14633879 0.48814237 -0.1581419 0.11649632 -0.038280398 -1.2693063 -0.40843576 0.5926995 -0.4333234 -0.6040258 0.16856162 0.017949816 0.6932258 0.005002093 0.8245371 -0.48157367 0.90975004 -2.076383 -0.3240267 1.1518159 0.055164963 -0.03151448 0.004223074 -0.07065517 -0.50745296 -0.29899526 -0.39422148 -0.3616298 0.86599207 0.35016584
hablar 0.08339852 0.4100929 -0.2751059 -0.21390009 -0.35153648 -0.6903785 0.0635391 -0.10393275 -0.017595533 -0.24849476 0.17593203 -0.29720566 0.23289533 -0.32770774 0.12015544 -0.47604305 -0.22951077 -1.2652406 -0.2750401 0.61213267 0.23752002 0.19295122 0.2926348 -0.00680393 0.060131006 0.3206969 -0.2939133 0.08415381 0.49625137 0.5956899
usuario -0.34112734 0.018515335 -0.30911687 0.04834367 -0.5177553 -0.19349378 -0.2126845 0.20957834 -0.56555814 -0.59550613 0.0007700562 0.16941099 0.34562963 0.13438056 0.7123533 -0.91282946 0.114657484 -1.8272114 -0.14392932 0.39999688 0.17544082 0.24671496 0.19816574 0.3013416 -0.40909925 0.46813014 -0.40157294 -0.1681057 0.3450267 0.3987785
asesor -0.09837678 0.7123341 0.10260166 -0.2965235 -0.20478329 -0.8282309 -0.17052874 0.06359013 -0.19579455 -0.6083669 0.14463997 -0.46846116 0.7934715 0.20071636 0.2746466 -0.11742158 -0.12593807 -1.586526 -0.057361793 0.9546417 0.09445852 0.2605336 -0.19863513 -0.30013913 -0.24037965 0.677138 -0.16849497 -0.21932256 0.964478 0.61712766
pueda 0.12827557 0.46556923 -0.09610377 -0.15890953 -0.01371763 -0.3298525 0.15507388 0.07853704 -0.044195957 0.036622047 0.20105326 -0.21865973 0.29058877 0.04647509 -0.060505763 -0.4864735 0.2595788 -1.0571429 -0.23577508 0.38875327 0.39584163 0.333896 -0.06870199 0.063483186 0.17807895 0.76459056 -0.24867359 -0.070205316 0.5319732 0.5920636
datos -0.19303727 0.3058648 0.040414166 -0.09503568 -0.29762143 -0.2346409 -0.053156774 0.2124848 -0.32291615 -0.24409251 0.22021586 -0.16708575 0.34035164 -0.009056151 -0.111078806 -0.44312638 0.04111333 -1.5600631 0.1006956 0.6631216 0.09226535 0.15669222 0.1289607 -0.000543946 -0.436837 0.84281135 -0.26052475 -0.12566277 0.70779365 0.35347506
personas -0.02936837 0.5734325 -0.3729181 -0.1143574 -0.017885724 -0.70645565 -0.30540746 0.37771943 0.026098797 -0.33842042 0.31187847 0.08368104 0.41965514 -0.004631524 0.25331017 -0.65602374 -0.18944962 -1.4528964 -0.4870393 0.70681214 -0.02306217 0.38845727 0.027224459 -0.054033723 -0.40744078 0.38345823 -0.3165068 0.040492576 0.51308113 0.36966702
planilla 0.1427447 0.61066425 -0.7959822 -0.19708315 0.10559508 -2.2308643 -0.44264132 0.17225651 -0.63444865 -0.17852356 0.06850025 -0.5905016 0.24313633 -1.3156958 -0.12356154 -0.21176945 0.4002339 -1.1177168 -0.9254982 1.613593 0.077810206 0.033421215 0.706462 0.67045677 0.34472606 -1.2182374 -0.55837023 1.026703 1.206604 0.83003
venga -0.013566957 0.4954385 -0.21280956 0.12008578 -0.10525217 0.18469357 0.122829504 0.17508477 0.32707158 0.33352742 0.26666948 -0.41248235 -0.15635268 0.18870457 -0.31603464 -0.36831737 0.2771924 -0.9759155 -0.3136651 0.35126883 0.57512677 0.35023287 0.0827346 0.3771775 0.011802081 0.48239112 -0.37655807 -0.048781723 0.10499748 0.8735889
registro -0.45660007 0.13060388 -0.08990428 0.18018188 -0.59666055 -0.561392 -0.3218806 0.18211086 -0.39599138 -0.7217234 -0.052750964 -0.20584953 0.32567587 0.1855153 0.7531781 -0.59464693 0.41029066 -1.7715975 0.1576452 0.55312496 -0.044360206 0.31849253 -0.060268093 -0.08905382 -0.4683837 0.4425354 -0.39381656 -0.31186643 0.43730506 0.6896267
contrasena -1.0136044 -0.21174689 -0.13820997 0.06782545 -1.203866 0.43844306 -0.69254404 0.24879909 -0.82996637 -0.88222307 -0.5668053 0.3064173 0.56300354 0.51949954 1.2191356 -1.7416472 0.566677 -2.8659582 0.26518118 -0.20628884 0.09948608 0.74334854 0.3916817 0.59258014 -0.7571723 0.17212424 -1.0635991 -0.30306423 0.48847207 0.33688048
digame 0.3526404 0.127512 -0.5204702 -0.20062713 -0.4756154 0.039704666 0.36300054 -0.34574655 0.25815135 -0.08730229 0.2776966 -0.10135599 0.03570049 0.15121326 -0.6915249 -0.45228574 -0.15091246 -0.8975302 -0.03862242 0.4254631 0.37229308 0.2288731 0.2517594 0.109074056 0.20740099 0.7379606 -0.35626748 0.11686455 0.033941966 1.1347938
numeros 0.0051953522 0.642928 0.23360027 -0.17057464 -0.14849892 0.0012884698 0.51813203 -0.16206668 -0.14703755 0.27322355 0.20330757 -0.29947296 0.16760316 -0.1498612 -0.3489941 -0.8708352 0.18986917 -0.9503211 -0.110344686 0.42750672 0.42614487 0.5193188 0.24042416 0.056701407 -0.041899912 0.9146729 -0.13645883 0.18363224 0.38339698 0.46312466
haciendo -0.061013043 0.30557764 -0.18682192 -0.020771895 -0.25366226 -0.57822764 -0.17950138 -0.0224649 -0.12346802 -0.06943315 0.108485565 -0.12789376 -0.044364043 0.018499492 0.17797501 -0.68981403 0.23720248 -1.1116467 -0.43473622 0.7168028 0.15369968 0.35070115 0.08193714 0.16030908 -0.2506644 0.26734093 -0.4608947 0.1846869 0.29561412 0.6044626
podido 0.003050677 0.38417414 -0.12689911 -0.06362337 -0.37279028 -0.38408417 -0.08351657 -0.06609821 -0.081488855 -0.15212426 0.09194283 -0.2584403 -0.16913627 0.15441158 0.14984997 -0.51131636 0.15709397 -1.4705011 -0.34433684 0.417955 0.077533014 0.19572443 0.0048981067 0.20260501 0.086653724 0.55902326 0.1485481 -0.18050879 0.09956799 0.37964332
ayudar 0.101759896 0.5183927 -0.30154878 -0.3660866 -0.13799137 -0.7345344 0.14877574 0.16142696 -0.29551858 -0.29974183 0.21306826 -0.25580293 0.2508301 -0.21656711 0.029359682 -0.48329505 0.097760916 -1.1229157 -0.5204666 0.83213884 0.14611389 0.10592565 0.24347499 0.06164131 -0.24975976 0.3217915 -0.07091645 0.018283088 0.7222192 0.5580055
control 0.54659003 0.39290085 -0.35745108 -0.013024407 -0.7346847 1.2283173 0.4766624 -0.6319143 0.62711525 0.9456931 0.37701234 -0.31349516 -1.1665245 0.6116225 -1.4321095 -0.5677794 0.94091743 -1.078206 -0.776194 -0.16673525 0.526636 0.6306035 0.50087285 0.9165746 0.5144407 1.5662495 -0.17247666 -0.009977443 -1.506173 1.4313425
necesita -0.03607963 0.3349579 -0.49816722 -0.19436851 -0.42670602 -0.0038198524 0.17529233 -0.42167765 0.011659804 -0.061323803 -0.0086505 -0.22828068 -0.18758935 0.24679117 -0.08925926 -0.41315037 -0.11982625 -1.1631138 -0.19740213 0.3772116 -0.17854208 0.27478555 0.09180303 0.14184101 0.21642993 0.85336316 0.0031331875 -0.15910837 0.18554102 0.8924492
llevo 0.20348911 0.4925628 -0.36092743 -0.14985725 -0.30498245 -0.13082421 0.060785312 -0.20299874 0.20340931 0.30177158 0.06408007 -0.27048218 -0.2042359 0.10416855 -0.11667773 -0.36387658 0.17113104 -0.82455385 -0.39808145 0.2964602 0.24530052 0.36550793 0.18075228 0.2178 0.25072083 0.8356531 -0.05223159 -0.18249652 -0.1576041 0.963659
atender 0.22123238 0.74042517 -0.6210245 -0.16204886 -0.4461904 -0.3152721 0.15627044 -0.47912148 0.5224463 0.24569234 0.2755013 -0.4820002 -0.39945832 0.09911326 -0.34454238 -0.13759646 -0.11858138 -0.804664 0.0019613672 0.1591474 0.046070166 0.30946314 -0.27665964 0.22498843 0.470599 1.2568686 0.21339886 -0.14139324 -0.10713975 1.1119924
certificado -0.061315086 0.29978728 -0.54431194 -0.11536331 -0.46833286 -0.96946025 -0.8508398 0.2825758 -0.10776694 -0.57147557 -0.13065043 -0.10665526 0.07746674 -0.2709345 0.8727808 -0.45724177 0.05391279 -1.7783557 -0.0007996519 0.8265467 0.045955475 0.20053102 0.22365044 0.34917745 -0.35210964 0.061020803 -0.25606197 -0.28274047 0.88541037 0.5580978
pagando -0.0017336106 0.706976 -0.63700795 -0.15638722 0.21076208 -1.7352178 -0.20090728 -0.026462613 -0.01115358 0.35619906 0.11302796 -0.8027404 0.41070923 -0.96599627 0.15456617 0.896778 -0.17728677 -1.1974999 -0.54337025 0.7603543 0.021081274 0.22834559 0.049159195 0.086102016 0.22449917 0.48658016 -0.096186675 -0.16774589 0.39252442 0.78637743
celular 0.09368305 0.18779723 -0.016168099 -0.14985113 -0.30378148 -0.11586904 0.3683174 0.099591486 -0.07444947 0.11890662 0.08263641 -0.2745977 -0.03536244 -0.053952828 -0.4340937 -0.56549156 0.1341399 -1.0078427 -0.27940106 0.4807312 0.41405603 0.35261425 0.12170158 0.17373544 0.3259384 0.5175523 -0.39351845 0.18884358 0.29837692 0.7236012
tramite -0.14432925 0.5445343 -0.2587781 -0.048222154 -0.059027374 -0.901859 -0.15093654 0.5138974 0.119198635 -0.29265836 0.1478923 -0.31694818 0.5250991 -0.089041814 0.48238382 -0.17240548 0.3171276 -1.378928 -0.06830322 0.7354479 -0.04176132 0.45348975 -0.053369608 0.023736294 -0.01649794 0.3270681 -0.23887919 -0.45212248 0.54685074 0.77790296
radicar 0.08698542 0.14010213 0.26169583 0.23372774 0.11505376 0.0963874 0.041621048 0.7090431 -0.6725128 0.05586584 -0.064345725 0.31638923 0.2868431 0.42057723 -0.08018823 -1.0486066 1.1801155 -1.6979719 -1.2688378 0.34943613 0.5120459 -0.020552928 0.47630435 0.63266075 -0.28084975 0.12512411 -0.22199805 -0.0692529 -0.12648052 0.08959486
seguir -0.04003344 0.66427505 -0.56434095 -0.15070297 -0.13375017 -1.0217984 -0.13102965 -0.08285297 0.24805139 0.062972285 0.004602821 -0.5611744 0.15249377 -0.2159385 0.13126513 0.43101043 -0.12625286 -1.0156727 -0.27026188 0.82062787 0.006057877 0.31648147 -0.117229894 -0.10602884 0.33369797 0.5954647 -0.014494888 -0.23898226 0.26272377 0.9743366
envio 0.18673955 0.17119151 0.20603497 0.0013574972 -0.26495656 0.04571972 0.21372387 0.12374041 -0.011273782 0.030824056 -0.06827366 0.13475783 0.25225693 0.29215086 -0.093974486 -0.82862216 0.5937553 -1.4028271 -0.75520223 0.36410746 0.16915584 0.19071744 0.046941385 0.2394641 0.10320634 0.24046056 -0.4084998 -0.077076994 0.032323293 0.5677676
llega 0.120541885 0.09489358 -0.6085706 -0.06819201 -0.30159882 -0.43516898 0.1718425 0.007938106 -0.12983273 0.04570255 0.0010427651 -0.043289244 -0.21401611 -0.3745037 -0.44740683 -0.6016357 0.2910674 -1.1301036 -0.51434016 0.27129957 0.88516 0.4321876 0.5099505 0.40476984 0.330488 -0.24826346 -0.4224885 0.18962952 0.18591253 0.76677525
hacerlo -0.049847707 0.563949 -0.10293963 -0.08164221 -0.4363159 -0.60582733 -0.07041492 0.09545514 0.2079275 -0.16358742 0.058302537 -0.211587 0.010050252 -0.107989624 0.048711374 -0.42712525 0.034818053 -1.1486111 -0.10787617 0.40234935 0.2874176 0.34112328 -0.012265917 0.13211714 0.06486359 0.47394308 -0.30223784 -0.043745782 0.38944992 0.74086004
ingresar -0.38068876 -0.18198204 -0.27330163 0.07287678 -0.53104466 -0.19225642 -0.33973157 0.5344056 -0.64263326 -0.64627683 -0.16434401 0.3003458 0.22107175 0.30882275 0.5635536 -1.0266241 0.34998408 -2.1030526 -0.357247 0.26136994 -0.05599068 0.59115654 0.16682573 0.5723384 -0.76934105 0.1630871 -0.4099814 0.14849362 0.19561523 0.34762368
examenes 0.93084157 0.22901753 0.030808153 0.011611308 -0.25232288 1.1564752 0.67512447 -0.70011634 0.561479 0.8286336 0.17172602 -0.24575885 -1.176145 0.38156694 -1.4333229 -0.99488306 0.36373556 -0.9410069 -0.63476413 -0.082028955 0.40594292 1.4476774 0.4948051 0.8262214 1.0077137 1.9093999 0.14923778 -0.17317356 -1.5048019 1.7266928
familiar 0.051139325 1.041558 -0.34864995 -0.17585003 -0.14257398 -1.0318176 -0.20320584 -0.057706363 0.5344854 -0.035324235 0.12839451 -0.6421143 0.5430142 -0.039319564 0.11595948 0.324302 -0.53910154 -0.9566991 0.12328597 0.902663 -0.20640738 0.34608808 0.055340618 -0.28493178 0.26488364 1.0495839 0.22773057 -0.2703938 0.3677931 1.163883
mandar 0.19326675 0.19185263 -0.103064895 -0.0013497162 -0.5423744 0.058572322 -0.1566612 0.063919805 0.30410188 0.15306182 0.21892683 -0.08392864 -0.44758758 0.24223526 -0.4121877 -0.54559255 0.7112085 -1.3084854 -0.43795526 0.34467697 0.24628292 0.45070574 0.4833249 0.43956342 -0.06004545 0.074985445 -0.3941037 0.32971975 -0.24847873 0.58351016
dicho 0.019453987 0.71648526 -0.3649914 -0.29083404 -0.33158463 -0.5954325 0.014845414 -0.28971297 0.0836632 0.15724628 0.054430578 -0.4350031 0.15103675 -0.4607372 -0.06533517 -0.2664301 0.07063977 -1.0161147 -0.4986006 0.44573936 0.28185543 0.3375487 0.16854368 0.09758964 0.070037566 0.51467824 -0.23978274 0.13464788 0.30585253 0.6759119
social -0.22592889 0.78608525 -0.53299916 -0.15846413 -0.16247359 -1.5218197 -0.20400393 0.3471538 -0.33254457 -0.49862427 -0.2668095 -0.049048096 0.84599584 -0.08224115 0.9149183 -0.004229376 -0.106196485 -1.8504903 -0.22818586 0.86611295 -0.34538075 0.06816936 0.03674744 0.23292267 -0.14174084 0.032770768 -0.28873253 -0.21696708 0.9767702 0.5089943
averiguar -0.015845265 0.46623138 -0.44024214 -0.17315362 -0.15611988 -0.378695 0.0053737448 -0.024071384 0.21067633 -0.2080124 0.09027285 -0.23042688 -0.3180528 -0.038742077 -0.24363638 -0.12583253 0.20453861 -1.2002711 -0.44801468 0.5412701 0.046417464 0.2701154 0.18433289 0.19960725 0.030700848 0.38856915 0.12449645 -0.07243406 -0.044552933 0.8160133
visto -0.02092181 0.3896332 -0.17082883 -0.010019346 -0.194664 -0.11204599 0.24080895 0.037920438 -0.008156156 -0.04925914 0.44353354 -0.14968477 -0.08506379 0.23175713 -0.069904536 -0.42992604 0.16000047 -1.1668266 -0.17329384 0.3723064 0.3265911 0.32647818 0.10076829 -0.14038028 0.04213164 0.780418 -0.3015143 0.15828946 0.16886821 0.7265814
comunicar 0.00080700155 0.58216 -0.21852797 -0.24133721 -0.027350485 -0.6048131 -0.1285517 0.16576949 -0.28215906 -0.13020596 0.2456001 -0.19903864 0.16978592 -0.3038751 0.0074416115 -0.38725606 0.052573696 -1.144337 -0.47099257 0.69402766 0.531651 0.42326924 0.38631657 0.14060955 -0.106515914 0.29224312 -0.2994341 0.17722306 0.5432731 0.45830444
hicieron 0.4071874 0.39834058 -0.3653846 -0.4158652 -0.20908105 -0.30282015 0.22791214 -0.004014183 0.31171396 0.2754035 0.3426972 -0.10177102 0.016682839 -0.2768772 -0.2580477 -0.5937357 0.46386278 -0.683213 -0.90486634 0.41006723 0.31289703 0.32237235 0.3808633 0.39540172 0.2419987 0.5291375 -0.21456765 0.13537577 -0.10369155 0.83754635
cotizante -0.1878638 0.8406007 -0.6042952 -0.17256606 -0.18269403 -1.2568227 -0.22790019 -0.090596505 0.448754 -0.19969925 0.002298291 -0.5792373 0.53271365 -0.18009903 0.5197166 0.49879697 -0.50802815 -1.2949034 0.24285188 0.8641975 -0.41669402 0.2376129 -0.090043545 -0.17055206 0.49323452 1.0914493 0.06144717 -0.43570244 0.42773187 1.0933093
ejemplo 0.04715946 0.3677529 -0.47271082 -0.16153026 -0.20667227 -0.15316626 0.06588784 0.19114824 0.11152531 0.37044084 0.034755994 -0.2366641 -0.018970964 -0.27109367 -0.12787949 -0.25415438 0.2486746 -1.1044049 -0.41091168 0.077600084 0.28364503 0.31562307 0.27271822 0.5917927 0.11432298 0.21803029 -0.48857 -0.11709842 0.24514394 0.89251584
envie 0.5647741 -0.00057283614 0.26217088 -0.27521616 -0.25936368 -0.28024134 -0.11249568 0.08499823 -0.2188405 -0.06468597 0.30711812 -0.045556854 -0.05632895 -0.13082913 -0.45414385 -0.6829622 0.8119644 -1.4992571 -1.2216328 0.8276801 0.59241563 0.08476537 0.2223662 0.40135998 -0.3244826 -0.29763803 -0.40465266 0.5229862 -0.0009867335 0.23684922
esposa 0.07887945 0.4622074 -0.40976784 0.22862571 -0.24400707 -0.5604136 -0.037271187 -0.07816805 0.36678416 0.11776813 0.118154585 -0.2708825 0.0036236262 0.16544026 -0.06491996 -0.15404372 0.14067672 -1.080228 0.1576522 0.4910189 -0.13575518 0.51799244 0.12969807 0.11789446 0.21987441 0.76180625 -0.039623704 -0.13302754 0.102186166 0.91702944
contrato 0.48658675 0.8000549 -0.7852388 -0.8017642 -0.39991137 -1.4994855 0.1594418 -0.022938652 0.61543703 -0.38486695 -0.17361173 -0.86123836 0.3210975 -0.4756578 0.688255 0.42447793 -0.17110397 -1.0841554 0.10201384 1.1858941 -0.51039964 0.41169232 -0.21861057 -0.124647245 0.5535266 0.33660492 -0.34929746 0.24026768 1.1011051 1.102563
electronico -0.39763752 0.2248029 0.020912193 -0.1312084 -0.41186145 -0.54842937 -0.1883744 0.3428935 -0.6048289 -0.5188651 -0.2027016 -0.2328192 0.7817223 0.1943945 0.6636236 -0.7771107 0.18662302 -1.8616747 -0.5823164 0.55031973 0.19050701 -0.07429077 0.25282913 0.15130493 -0.17134471 0.24327847 -0.30152878 -0.13820766 0.68058926 0.26873237
pendiente 0.40997797 0.47757506 -0.3701496 -0.03760106 0.085629724 0.120618306 0.38968027 -0.0006373501 0.2512232 0.44881505 0.31650198 0.0054114894 -0.63647497 -0.110377654 -0.5405593 -0.20901443 0.5360645 -0.9151673 -0.5178788 0.25187296 0.40925807 0.41910687 0.4240372 0.46461245 0.34740555 0.52150595 -0.21222982 0.09697513 -0.3196219 0.80186087
medicamento 1.0824965 -0.105543114 -0.45313102 0.042969123 0.629467 1.5264794 0.8682117 0.72734416 0.73171985 1.2724005 0.82193476 -0.53717303 -1.2494545 0.20109853 -1.2519925 -0.92723227 0.94983286 -0.79733056 -0.59618706 -0.34710363 0.82310873 1.3694407 0.27117917 1.0746179 0.8328724 0.78689426 -1.0275592 0.35078517 -0.774735 1.5887398
opcion -0.057592057 0.34146696 0.025242332 -0.085686415 -0.2746751 -0.13742226 0.11790963 0.020162081 -0.32004264 -0.18126084 -0.10929026 0.0033299536 0.14890784 0.10227068 -0.10043495 -0.66817844 0.2529849 -1.6302623 -0.34984878 0.30507 0.24713965 0.37382615 0.04833706 0.28979772 -0.18375003 0.3127997 -0.36495763 0.05271166 0.38154215 0.30897433
quieres -0.07823325 0.4818146 -0.57557464 -0.018627498 -0.37515122 -0.32261965 0.11921503 0.19890064 -0.3438227 -0.14525956 0.026963644 -0.12827794 -0.0063672196 0.025099447 0.018984692 -0.5111743 0.12634283 -1.077239 -0.43010917 0.3394063 0.21695358 0.46062863 0.09942647 0.3431426 0.05489496 0.2922179 -0.35592473 -0.06966575 0.23723997 0.68321246
entidad 0.32777992 0.18459857 -0.36654165 -0.16964607 -0.5422536 -0.26631004 0.021921359 -0.07472497 -0.09210526 0.07991425 0.27013227 -0.26717448 0.11557514 -0.125458 -0.23371138 -0.3279373 0.08177997 -1.0632318 -0.49089563 0.5792617 0.098677024 0.057044473 0.49398744 0.08483441 0.23530835 0.6893527 -0.18122493 0.016515337 0.27426118 0.6679836
internet -0.092874154 0.35187766 -0.10387673 -0.08623552 -0.50699365 -0.07560847 0.0926681 -0.08670201 -0.3237373 -0.28074268 -0.010499519 0.04545411 0.23359025 0.3940381 0.019673504 -0.8253047 0.26765466 -1.3144349 -0.12901467 0.5470041 0.03402882 0.30227214 0.030589847 0.22261254 -0.2233009 0.56259197 -0.280816 -0.25387987 0.07234166 0.5175168
diciendo 0.32234198 0.46946856 -0.029609134 -0.32536045 -0.10593575 -0.33455554 0.03299996 -0.13495368 -0.114665225 0.03697051 0.34378985 -0.37344676 -0.1308964 -0.29612687 -0.6573951 -0.410239 0.18981022 -0.8765993 -0.6120335 0.7775581 0.32842234 0.490912 0.35617843 -0.07898527 0.048153333 0.26440346 -0.3057579 0.23605168 0.2160528 0.70287925
escucho -0.15554576 0.34827748 -0.42917284 -0.3117895 -0.34071434 -0.41256943 0.041403607 -0.36686713 -0.23988695 0.095810056 0.3785968 -0.33716044 0.14854507 -0.27538154 -0.2391597 -0.41917863 -0.14623564 -1.1119677 -0.07645501 0.74580103 -0.08868405 0.21783704 0.19501501 0.056179393 0.23828894 0.7907873 -0.21837576 -0.29594555 0.14339268 0.60309976
llevar 0.16621293 0.24839604 -0.35436627 0.11685528 -0.11278156 0.09858513 0.51950294 -0.4199018 0.3093469 0.492337 0.29361168 -0.10717033 -0.07212365 0.045135178 -0.4352389 -0.27432293 0.11744449 -1.0350491 -0.15058231 0.36863604 0.114239335 0.35468194 0.18166952 0.19784303 0.3641549 1.0883831 -0.31825522 -0.25094464 -0.092842914 0.870745
trabajador -0.19072022 0.75793564 0.045629587 -0.005278478 -0.29157525 -1.390331 -0.2003952 0.5637212 -0.57458055 -0.7384099 -0.32081434 0.095122 1.0052667 0.08355457 0.79065216 -0.43703064 0.60901123 -1.9145844 -0.46838397 0.8606591 0.045625735 0.29008406 0.07041812 0.23999207 -0.35252726 -0.19394015 -0.4295749 -0.010977954 0.9257576 0.4143498
mirar 0.08539306 0.2088658 -0.29261848 -0.15016834 -0.3851165 -0.42419717 -0.023244666 -0.0133207245 0.13701163 -0.038410615 0.36695158 -0.34977823 -0.100937106 -0.26199138 -0.073427096 -0.030275818 0.11493579 -1.1617427 -0.48655742 0.60008293 0.06958542 0.17248769 0.23230554 0.20375617 0.37123796 0.42374703 -0.20487155 -0.15078056 -0.075125605 0.84726906
medicamentos 0.8141788 -0.2708007 -0.5576343 0.09585191 0.42916018 1.3868445 0.898715 0.99928814 0.42181662 1.1233447 0.9956985 -0.5087967 -0.8322099 0.2892022 -1.0778785 -0.5419684 1.2679019 -0.83196497 -0.5200384 0.02432883 0.9071995 1.3591608 0.531623 1.3225422 0.6651022 0.57711625 -0.75660384 0.3229479 -0.8215834 1.6102573
comunicarme -0.12102073 0.49625948 -0.20947364 -0.22362415 -0.3394698 -0.8900171 0.049386147 -0.0075253975 -0.2622569 -0.09582228 0.1887811 -0.45393524 0.2933436 -0.59945065 0.16565193 -0.77763027 0.1636053 -1.1665597 -0.66368407 0.67806613 0.6042835 0.41689053 0.2405186 0.08347494 -0.011041681 -0.036425285 0.07441796 0.20794088 0.44977602 0.38611913
cartera 0.16886649 0.40888783 -0.18481813 -0.41483042 -0.16613212 -1.2160914 -0.43534815 -0.061436553 -0.71167403 -0.2726976 0.29429534 -0.3507893 0.03710509 -0.7275104 0.00019230362 -1.1043421 0.08403506 -1.4057988 -1.0500994 0.8739349 0.7290418 0.3800302 0.6724777 0.3155256 -0.14199185 -0.92014253 -0.5240089 0.7618526 1.1290494 0.23389567
contestan 0.19770826 0.54500604 0.4652121 -0.29583186 -0.04498786 -0.35479096 0.7612455 -0.009122709 -0.5209265 0.11297938 0.39982012 -0.42819533 0.14288564 -0.38577983 -0.64405787 -0.8198589 0.12428279 -0.9484277 -0.70390755 0.98733103 0.7640358 0.5264833 0.3389813 0.05245225 -0.16552818 0.19410533 -0.20017022 0.56633645 0.9960714 0.30530086
unico -0.035550408 0.33531848 -0.25178877 -0.22683612 -0.10609557 -0.4674597 0.16707695 0.09354021 -0.22609535 -0.04748739 -0.08980572 -0.04771212 -0.0045882673 -0.13989784 0.3100535 -0.7691344 0.4307029 -1.211362 -0.88403577 0.2704074 0.28755197 0.14859566 0.04733585 0.10065188 -0.041433707 0.23933157 -0.26570508 0.11638813 0.20500113 0.53218144
mandan 0.16330726 0.053113956 -0.03363032 0.13870917 -0.41459453 0.8130826 0.59012395 -0.2040108 0.25983733 0.55035025 0.24574754 -0.3635246 -0.7330279 0.40167046 -0.9747852 -0.6622585 0.50969577 -0.8334182 -0.028122453 0.1484558 0.5193026 0.5465633 0.19582607 0.6755506 0.2925329 1.0114845 -0.41067 0.012923448 -0.7481764 1.1540858
pension 0.12950012 0.71553844 -0.6138234 0.17010798 0.17958432 -1.5022453 -0.009207308 0.1278797 0.17776383 0.5245473 0.19383198 -0.74215156 0.22100206 -0.7322 0.37144816 0.7287138 0.17244549 -1.2566679 -0.5305146 0.46363258 -0.16753371 0.06364057 -0.11561299 0.24387091 0.29196867 0.94186836 0.04719988 -0.22488427 0.30792636 0.5400499
comun 0.1697045 0.45634207 -0.65355957 -0.10933134 -0.009984927 -0.4648986 0.22922027 0.18638691 0.16158266 0.1342628 0.39242673 -0.26658913 -0.22466168 -0.07573353 -0.08897449 -0.23676775 0.12732045 -0.92260647 -0.32138667 0.6366191 0.21079919 0.23649883 0.2275562 0.23074248 0.09975875 0.30629602 -0.32216722 -0.040060595 0.25592422 0.885841
correos 0.24156395 -0.086098395 0.19668598 -0.3554986 -0.6514347 -0.46723017 -0.15558103 -0.015675453 -0.41556233 -0.36530027 0.20997204 0.040990733 -0.019959094 -0.49089324 -0.73674226 -0.9278439 0.7133198 -1.4982138 -1.2964014 0.829815 0.94929516 0.34347573 0.5748429 0.43509707 -0.16452976 -0.80425775 -0.55749035 0.9718981 0.4066847 0.10557253
pregunto -0.037691712 0.39095557 -0.530905 -0.11055884 -0.21322723 -0.6555026 0.06720965 0.03346365 -0.14488986 -0.3525953 -0.10235521 -0.07237635 0.29440737 -0.051788803 0.11395307 -0.27221885 0.007941417 -1.350278 -0.29067802 0.33339196 0.19374774 0.31167567 -0.02410918 0.2599935 0.12408782 0.32769686 -0.36749086 -0.24756248 0.6506785 0.78047097
acceso 0.017251626 0.44782743 -0.101273686 -0.14769368 -0.08326032 -0.27149558 0.098190635 0.11034126 -0.23616219 -0.3971398 0.03267789 -0.22799447 0.65332496 0.1300762 0.1117865 -0.50422686 0.00010093092 -1.3150651 -0.16437528 0.54888463 0.18055728 0.395499 0.058622528 -0.11965869 -0.16522804 0.7476729 -0.298119 -0.21910006 0.65049964 0.5019396
realizar -0.06910252 0.4053767 -0.012069733 -0.13839085 -0.023602301 -0.8396475 0.06544666 0.23738438 -0.22277312 -0.6197221 0.07375575 -0.23079583 0.56663823 0.034730084 0.3402651 -0.36093214 0.12956294 -1.3938783 0.07386521 0.84540695 0.23532026 0.3722563 -0.075625986 -0.35842666 -0.020254768 0.45084003 -0.26042983 -0.20883624 0.641984 0.72878325
comunico -0.027420701 0.45337877 -0.36619508 0.0053315777 0.04604829 -0.5192006 0.15012917 0.2289153 -0.06704567 0.1227033 0.23554234 -0.21070151 0.16358566 -0.11582357 0.031644735 -0.08739393 0.22662117 -1.2198395 -0.4858297 0.57509357 0.08788138 0.40864426 -0.048188407 0.047147285 -0.01697322 0.60849017 -0.107860066 -0.059820022 0.30180994 0.5655061
normal -0.057871416 0.7289289 -0.4484639 0.03042086 -0.3344554 -0.5906274 0.14341727 -0.38409248 0.2817968 0.2829187 -0.032913245 -0.7566143 -0.10760381 -0.25060073 0.2884412 0.0013187764 0.14888456 -0.81884915 -0.104782976 0.43002626 -0.04957564 0.122579 0.058655262 0.16227664 0.48333788 0.89780766 -0.07484482 -0.11074165 0.20814548 1.0719384
llamara -0.08480245 0.577255 -0.2219612 -0.06507942 0.114338726 -0.00076407427 0.34422743 -0.34385985 0.02644115 0.3822921 0.25334087 -0.0745014 -0.11279473 0.07466966 -0.4012007 -0.33573347 0.23120359 -1.089835 -0.31621686 0.28077546 -0.014294426 0.4352511 0.066367276 0.33534992 0.18998419 0.9294215 -0.041606106 -0.179093 -0.05689448 0.84335953
trabajando 0.14840117 0.7246266 -0.4376237 -0.134454 -0.041993406 -1.4314662 -0.070477724 0.13955258 -0.081432536 -0.11041673 0.30949175 -0.6025441 0.36209926 -0.52572453 0.5321955 0.2780733 0.0050593927 -1.2195039 -0.39554062 1.0013433 -0.005423111 0.09215429 -0.050439235 0.05818522 0.048940126 0.36596856 -0.16201425 0.21510781 0.71396136 0.7444765
verificar 0.0344316 0.3349899 -0.09809201 0.006059938 0.011802275 -0.4481109 0.10609351 0.5098118 -0.40069798 -0.10454353 -0.07381109 -0.09041934 0.25975612 -0.05178071 0.24134806 -0.82793754 0.6606179 -1.5096405 -0.37532204 0.43825594 0.24162792 0.3126505 0.21007583 0.04612358 -0.2261735 0.20254259 -0.11461992 -0.121326156 0.37051293 0.3365483
empleador -0.09477119 0.59995306 -0.41763753 0.12947625 -0.14736605 -1.1480137 -0.5108304 0.7336093 -0.47621524 -0.72113 0.14708549 0.09016691 0.5963733 -0.020263756 1.023968 -0.5960971 1.1107229 -2.0138958 -0.3442581 0.9405074 0.13007168 0.2102 0.017493987 0.20398533 -0.5588911 -0.40993056 -0.4142587 -0.0679157 0.89909625 0.38390806
llaman 0.19675235 0.28578675 -0.26903403 -0.023358004 0.11423066 0.29753238 0.43122038 -0.09192828 0.18885568 0.28788838 0.5510853 -0.22727022 -0.27389166 0.072765626 -0.6246675 -0.5190501 0.48739862 -0.94760734 -0.57739925 0.13654155 0.5402203 0.30010518 0.17829524 0.1116328 0.21542653 0.7893994 -0.33577287 0.28760347 -0.0979503 0.9193788
solicitarr -0.07351809 0.4189168 -0.19179495 0.017206676 -0.511399 -0.40134618 0.13389808 0.041452326 0.21276799 -0.25871685 0.21066743 -0.013086896 0.1323311 0.29805508 0.061968766 -0.106848545 -0.048044592 -1.1998128 0.010604639 0.4903462 0.019545645 0.2585233 0.19621582 0.011465035 0.088273935 0.8919221 -0.0367659 -0.14200442 -0.0036761444 0.85715604
atendern 0.14004007 0.7436494 -0.3120698 0.07401455 -0.7624824 -0.2872508 0.46992475 -0.512864 0.19357644 0.48436737 0.21323803 -0.31559068 -0.043879252 0.26604533 -0.2893467 -0.17500402 -0.387625 -0.9970958 0.19683367 0.3359616 0.07810467 0.19293433 0.0010847917 0.28421068 0.35714176 1.4286054 0.22753292 -0.05807722 -0.013705714 0.6766206
complementario -0.047126208 0.7418715 -0.5233496 -0.6599777 -0.1874785 -0.6503364 -0.28439522 -0.10890369 0.25619897 -0.198705 0.08435187 -0.5646502 0.25970972 -0.38916638 -0.1439233 0.17398234 -0.71740323 -0.9598767 -0.4517324 0.46122742 0.2521798 0.42637146 0.49469358 -0.15879188 0.16820136 0.7836039 -0.0064825886 -0.098965585 0.30192107 1.0813671
facil -0.021584732 0.17973392 -0.32615516 -0.055736274 -0.2982559 -0.33461043 0.15648961 -0.08591183 -0.0027732856 -0.005197715 0.29593655 -0.3281863 0.29581165 0.030885516 -0.11780403 -0.06314473 0.038372844 -1.1042418 -0.2039242 0.5464174 0.07535825 0.39752728 0.04316019 0.17066152 0.14822373 0.8827532 -0.36350197 -0.12900321 0.1791589 0.83631694
sacar -0.025096487 0.66480255 -0.45991927 -0.025977092 -0.32973766 -0.2786824 -0.047154214 -0.28449407 0.44920248 0.4000739 0.26482356 -0.6511582 -0.73600256 -0.31415993 -0.2873591 -0.13488416 -0.29438066 -0.8098203 -0.18680604 -0.03854585 0.15694751 0.5193096 0.41885558 0.3475571 0.5810835 0.9661001 -0.2501181 -0.005840445 -0.2117602 0.99380726
historia 0.1876997 0.40100822 -0.18461914 0.41628003 -0.62343955 0.76174957 0.22970185 0.10199736 -0.27258015 0.63378257 -0.5083069 0.2634055 -0.64500874 0.6748038 -0.59847903 -1.0937622 0.6268128 -1.4329103 -1.0225496 -0.22893015 0.38896886 0.52089256 0.92336744 1.1829975 0.060978916 0.95203525 -0.57715034 -0.14148922 -1.5025864 0.5194622
esperando 0.18145443 0.2072322 -0.002662725 -0.22347566 0.07797746 0.15757923 0.502599 0.027027559 0.10661014 0.62463427 0.50787926 -0.32104513 -0.8314796 -0.09815287 -0.499717 -0.4153014 0.72070515 -0.7957557 -0.43399978 5.389232e-05 0.501767 0.6756481 0.15730289 0.42686445 0.84255636 0.90583104 -0.29190275 -0.20314904 -0.343678 1.0323292
oficinas 0.28875306 0.3307607 -0.0861908 -0.18584281 -0.20948876 -0.38537425 0.2962951 -0.23931095 -0.37512392 -0.07801569 -0.053954545 -0.20573184 0.47342193 -0.11441895 0.127813 -0.61810243 0.1899279 -1.5239594 -0.5086102 0.733048 0.25356644 0.3978071 -0.11842562 0.2204649 -0.28450924 0.17161246 -0.3729522 0.08137265 0.46656913 0.3357054
tratar -0.14667328 0.565171 -0.21825705 0.03083165 -0.36042243 -0.98188823 0.0203169 0.15917942 -0.038196582 -0.18495798 0.09025651 -0.2997928 0.29056224 -0.051694114 0.34735912 -0.41721556 0.076224364 -1.1260138 -0.119053535 0.73389727 0.012936493 0.2821737 0.024017874 0.01696264 -0.022614399 0.57797533 -0.0031382332 -0.24152142 0.5317422 0.5845165
pasada 0.096106045 0.5158933 0.07937754 0.02245935 -0.324252 0.032483984 0.32583264 -0.1825863 0.14676936 0.5015518 0.13270424 -0.18062152 -0.2752111 0.27801776 -0.67854375 -0.34901875 0.60644233 -0.87927556 -0.3196309 0.52339256 0.46137595 0.4307054 0.25440344 0.24531499 0.29913205 0.935499 -0.09337569 0.102444604 -0.16160339 0.72516906
cambiar -0.30999738 0.31156933 -0.1157256 -0.14429168 -0.4642641 -0.31621203 -0.38595682 -0.13491215 -0.08944493 0.010048107 -0.029411294 -0.30210158 0.09687731 -0.07545804 0.13353153 -0.48078817 0.09968626 -1.3564104 -0.35865524 0.23498854 0.009440022 0.38212818 0.4051836 -0.07842192 0.054326307 0.7653479 -0.09096672 -0.024846166 -0.1356186 0.64618057
aparecen 0.22364834 0.25176698 -0.11878781 0.07772745 -0.32076502 -0.046004634 -0.0049781343 -0.14501849 -0.1749071 -0.023584995 -0.07048131 -0.0843844 0.08788043 0.20538467 -0.34086233 -0.63761586 0.5380372 -1.3770055 -0.57779735 0.49099058 0.16433519 0.21752515 0.31064904 0.1603001 -0.15083323 0.34852862 -0.17859901 0.23325345 0.015994113 0.5624194
empresas -0.32892668 0.58040774 -0.5240268 -0.33268064 -0.5340148 -1.0729841 -0.27704945 0.5935494 -0.31583166 -0.71309143 0.0013066574 0.118328206 0.82009244 -0.16436175 0.6368516 -0.39100978 0.068866566 -1.6822878 -0.68430054 0.97070855 -0.001993008 0.26250458 0.09135001 -0.102616176 -0.41370723 0.05834664 -0.05724305 0.020808324 0.74936175 0.47529098
traslado 0.135405 0.68053293 -0.35786217 0.13452235 -0.32661584 -1.0257653 0.047686394 0.0010796357 0.26817647 -0.3622984 0.14469627 -0.33513722 0.04951536 0.29705304 0.21370964 0.22704257 -0.1911373 -1.1089318 0.104044035 0.88578683 -0.23786217 0.16843207 -0.18386683 -0.051683113 0.3773056 0.89950246 0.1833326 -0.19443955 0.41216135 0.97061634
radicardo -0.014259342 0.30828044 0.04351538 -0.1495215 -0.1767885 -0.11260635 0.33783945 -0.108425885 -0.28305376 0.0026489915 0.24544637 -0.35837832 0.2016582 0.35829002 -0.18528233 -0.091247566 0.46386757 -1.3165891 -0.39587465 0.51646614 0.15915652 -0.003569249 0.23100294 0.079711005 0.028283319 0.6567327 0.06170716 -0.005813418 0.32454014 0.7273055
examen 1.0027475 -0.21242718 -0.064551346 -0.338914 -0.18353586 1.4763279 1.1867572 -0.34764087 0.6128132 0.65256613 0.22514473 -0.4039839 -1.4347639 0.5054037 -1.371027 -1.5001979 0.69633585 -1.5204916 -0.7487739 -0.18244135 0.29710013 0.60292864 0.15740022 0.6341471 0.62579244 1.809776 -0.24489531 0.16730933 -1.0261439 1.384162
lleva 0.30692998 -0.020816032 -0.15167324 0.15002374 -0.4334849 0.26395747 0.19829997 0.07176181 -0.026785288 0.25791782 0.30045545 -0.06580369 -0.24874589 0.1737854 -0.21543582 -0.47979745 0.52530384 -1.2340416 -0.518333 0.15961042 0.30365056 0.28530833 0.27481014 0.34442687 0.11773576 0.7718879 -0.19657649 -0.0027922145 -0.17375721 0.704736
sirve 0.173934 0.5605644 -0.44867772 -0.0046421383 -0.19930398 0.040213518 0.16911542 -0.04173422 0.46078643 0.28802043 0.28604224 -0.30724338 -0.092936836 0.25748882 -0.41737425 -0.55803436 0.29393986 -0.9918764 -0.43325812 0.14049175 0.0037065328 0.3757317 0.20135091 0.4347168 0.42245376 0.6636687 -0.21986613 -0.012808451 -0.3552318 0.8865634
puesto 0.13685383 0.55854756 -0.37453696 -0.14986482 -0.60759366 -0.39268556 0.4167754 -0.036067143 0.1481965 0.4383501 0.16420688 -0.33063653 0.15890001 0.24540888 -0.009630977 -0.25493428 -0.32330185 -0.8883103 -0.1589406 0.45882902 0.24020155 0.3590692 0.21678968 0.23313865 0.39064303 0.9769968 -0.11459041 -0.118027195 0.036427815 0.68983054
dificil 0.22169709 0.1626409 -0.59542125 -0.13177188 -0.27463403 -0.4216545 -0.024178164 0.1022107 -0.13638674 0.35600278 0.36740774 -0.14500736 -0.08829559 -0.22602592 0.029037345 -0.3755591 0.08975413 -1.1350859 -0.43625933 0.40081823 0.28672192 0.44575164 0.2077287 0.41887665 0.09033491 0.33521658 -0.36739856 0.041464817 0.42536297 0.59552586
muchacha -0.27547178 0.6638669 -0.3553274 0.19267896 -0.08045551 -0.44330144 0.20377344 -0.30905685 0.10631348 0.53189886 0.2694486 -0.37871835 0.1413293 -0.068914734 -0.38665557 -0.034934077 0.11495039 -0.8413898 -0.05922497 0.6436239 0.16052225 0.5143186 0.4037833 0.07212102 0.347807 0.8894485 -0.16106707 -0.10233533 -0.09219777 0.82367975
formula 0.16459465 -0.03290342 -1.1755012 0.21799143 -0.2844392 1.376569 0.40904295 0.32150877 0.21457778 0.6130082 0.8031111 -0.40638253 -0.7929784 0.48286432 -1.5776815 -0.8676823 1.0046743 -0.64257 -0.300583 0.36577868 0.98033226 1.1379611 0.32988158 1.4833163 0.23776148 0.28307828 -1.1652261 0.7814242 -0.6366184 1.4771242
laboral 0.47517446 0.3144341 -0.20445342 0.13416636 -0.17301968 -0.8134198 0.17965962 0.5514369 -0.12538186 0.13214958 -0.22311996 0.20860541 0.3686813 -0.18319231 0.45828554 -0.2659638 0.58216554 -1.3873217 -0.9627412 -0.105893895 0.13955233 0.15189426 0.35493797 0.45593944 0.21943977 0.5336116 -0.45374945 0.06313622 0.4278606 0.19576539
podia -0.2516318 0.5212312 -0.32295397 0.025553722 -0.15757404 -0.25048703 0.1952504 -0.33973116 0.07723264 -0.019960755 0.4966207 -0.25443962 -0.107646585 -0.043663636 -0.095079474 -0.189522 0.060950045 -0.89771867 0.04993139 0.5581821 0.17608534 0.39303565 0.2474304 0.053669233 0.33883232 0.81279147 -0.42910954 -0.38358232 -0.035584155 0.8581856
posible 0.13853577 0.29880354 -0.37259734 -0.17631367 -0.12053957 -0.38170892 -0.026596338 0.07150169 0.28710952 0.09862627 0.22891733 -0.12593989 -0.23603366 -0.3555806 -0.20962091 -0.40853998 0.26081604 -0.90555274 -0.3031701 0.57381374 0.29321644 0.4408695 0.16311684 0.18542881 0.011300892 0.34860682 -0.24053867 0.18689512 0.10276649 0.87568235
nadie 0.1568135 0.26492137 -0.065690935 -0.262067 -0.42712584 -0.056590296 0.52410436 -0.24037269 -0.4893097 0.23984957 0.14957613 -0.27523428 -0.08476292 -0.18927692 -0.479006 -0.42451152 -0.06520343 -0.9126508 -0.7178391 0.66822016 0.46322605 0.3029764 0.23904441 0.2673898 -0.06574448 0.660684 0.15284087 0.25255167 0.09551212 0.62429243
entrar -0.20898077 0.27127263 -0.189032 -0.08986939 -0.25996354 -0.42839497 -0.37520435 0.24265365 -0.18180802 -0.21928453 0.048799388 -0.21509376 -0.069289 -0.3690511 0.14883488 -0.37879917 0.19995193 -1.4033295 -0.30164787 0.55311555 0.32014254 0.43384764 0.030941552 0.26390928 -0.22423849 0.27115303 -0.16890872 -0.10613496 0.25475973 0.6287719
entra 0.11438719 0.36876357 -0.24501675 -0.20121022 -0.42105708 -0.15758492 0.1758449 -0.13792315 0.21368675 0.07839011 0.06782372 -0.47216403 -0.03799612 -0.13522199 -0.15510105 -0.4061536 0.17069912 -0.9329422 -0.15267907 0.4328221 0.17243485 0.40296656 0.11816985 0.072094984 0.47266853 0.615456 -0.15876524 0.12824436 0.0024404274 0.8666192
hablando 0.025040723 0.44480798 -0.29457894 0.09883696 -0.27559632 -0.37957743 0.0090305945 0.35176715 0.051482264 0.03637951 0.15664467 -0.37398618 0.06487514 0.0043534534 -0.14977449 -0.29332304 0.11273478 -1.0485588 -0.3460057 0.6057376 0.016173638 0.5428147 0.08168732 0.04336944 -0.18697631 0.49243352 -0.16164465 -0.015772216 0.12457038 0.93359405
versalles 0.361394 0.33757186 -0.23655333 0.36300424 -0.83483154 0.6912636 0.87096727 -0.4711218 0.57001704 0.80497015 0.34362888 -0.032938328 -0.8190062 0.8338323 -0.7072267 -0.9093686 0.15053204 -1.2076036 0.02759958 0.09678898 0.23925863 1.0903052 0.59098524 1.0026686 0.7523882 1.5508616 -0.43893313 -0.2490215 -0.8249413 0.53775144
cirugia 0.7088797 0.068611614 0.18952726 0.25776905 -0.5948699 0.715638 0.39756143 -0.5546982 0.24224316 0.8063335 0.12533426 -0.16211244 -0.88399726 0.21293087 -0.7772625 -0.7563398 0.55277026 -0.91868687 -0.6258035 0.39359197 0.27007952 0.7248351 0.56477624 0.569151 0.42961958 1.4967835 0.32137853 -0.37091762 -1.179318 0.8774922
minutos 0.043071445 0.26203617 -0.15764692 -0.081477396 -0.1282898 -0.16747402 0.3406286 0.23564965 -0.13290642 0.031410284 0.40140876 -0.25925088 -0.11361036 0.03662885 -0.09277608 -0.39862 0.0686638 -1.2201409 -0.35032278 0.20662114 0.021302743 0.48752093 -0.10233127 0.10950884 0.08500673 0.6768003 -0.41073084 0.27439177 0.1673376 0.8000804
cliente -0.039701667 0.05416983 0.066843405 0.07376237 -0.4157449 -0.07535968 0.15307459 -0.10641302 -0.111163914 -0.09699025 0.19967254 -0.22419876 -0.115126595 0.17895222 0.019589107 -0.5202907 0.25206074 -1.3964103 -0.19073665 0.6064268 0.6566266 0.5414269 0.18974286 0.25141054 -0.124205336 0.35283354 -0.46914548 0.23692866 -0.014020813 0.50450283
perder 0.16505826 0.38255164 -0.57899064 -0.057827048 -0.26503882 -0.47801128 -0.022235023 -0.052523658 0.028407745 0.040816363 0.10462128 -0.5964124 0.10461571 -0.16237348 0.083001345 0.04433662 -0.042931132 -1.17389 -0.41074133 0.48266175 0.35180926 0.42493418 0.30469444 0.058701873 0.118300326 0.41466644 -0.26411983 0.022535758 0.33662772 0.64556384
poner 0.05290638 0.41030553 -0.31098524 -0.07325626 -0.25948116 -0.65718424 -0.14154159 0.02085897 -0.27847573 -0.30958837 -0.2651155 -0.06550043 0.27308112 -0.20360503 0.35810953 -0.5868728 0.3088958 -1.4284389 -0.41388357 0.29876772 0.25671455 0.39713994 0.12174147 0.38545498 -0.03600135 0.070528105 -0.69132143 -0.11718654 0.4857913 0.58252764
empleados -0.21122074 0.4528911 -0.18827312 -0.14432581 -0.32671508 -1.105396 -0.44975728 0.62530077 -0.59239924 -0.7498024 -0.014338278 -0.037732244 0.90030724 -0.27220514 0.92897534 -0.56515414 0.67031807 -1.8711252 -0.20045348 0.73996836 0.05686189 0.1442335 -0.006881155 0.07622235 -0.32930505 -0.057221595 -0.27755156 -0.21896331 0.98172444 0.6029194
plataforma 0.03212038 0.20506926 -0.062112413 -0.025083229 -0.31356743 -0.109946445 -0.23785444 0.20359309 -0.2497591 -0.40997097 0.09205169 0.38706756 0.14264792 0.118644565 0.0845394 -0.9630635 0.93584985 -1.7592281 -0.6937099 0.5225224 0.1420605 -0.048792843 0.14230886 0.27181298 -0.6299269 -0.1843179 -0.6057984 0.016192324 0.512977 0.40600747
siento 0.25549844 0.51319 -0.34292376 0.080026664 -0.18527627 -0.16367407 0.22452405 -0.0867725 0.2413329 0.33964843 0.2642894 -0.3968167 -0.16972725 -0.16590507 -0.35246482 -0.37915397 0.14606105 -0.9307184 -0.25885105 0.29342732 0.32201824 0.32667655 0.17672819 0.11954651 0.12780663 0.6929727 -0.30809546 0.30528122 0.24299045 0.8451735
momentos 0.07953008 0.32751435 -0.13268672 -0.062408175 -0.23550507 -0.48081 0.0026505247 0.24820243 -0.046267666 -0.08345765 0.29828507 -0.16224326 0.42462635 -0.1819798 0.39660034 -0.44054157 0.2363853 -1.2978735 -0.4666481 0.4429591 0.078370646 0.26575664 0.17630608 0.100879826 0.1085304 0.6776933 -0.20216914 -0.04611465 0.4629127 0.6245975
cotizantes -0.012688886 0.5079322 -0.43496022 -0.06928426 -0.15711954 -0.9652124 0.10419736 -0.065599576 0.04320526 -0.048877586 0.077713974 -0.5697513 0.54628944 -0.2469398 0.3628243 0.2948614 -0.23028883 -1.1691365 0.098196514 0.81341326 -0.26480746 0.24509385 -0.18193795 -0.044318136 0.20124127 1.104714 0.031441562 -0.50137836 0.5848561 1.0270799
idea -0.061491393 0.21404503 -0.36432505 0.05811134 -0.66968316 -0.045092 -0.046275947 -0.19967237 0.020426204 0.09778077 0.030404417 -0.110760055 0.19208185 0.13034809 0.11558982 -0.2560775 0.3659232 -1.241774 -0.24015668 0.52192354 0.020506946 0.11940486 0.37094626 0.23158789 0.036296427 0.53663784 -0.39444995 0.00010749063 0.18550211 0.81998926
procedimiento 0.46616676 0.14128165 -0.06868338 0.07115334 -0.021194354 -0.3161344 0.0008422911 0.40758774 -0.062202908 -0.07020182 0.134927 0.0025522625 -0.14786291 -0.20295058 -0.073377095 -0.6382082 0.5390201 -1.1787419 -0.45112443 0.6024352 0.22441216 0.37858036 0.23647942 0.06778663 -0.0062764487 0.4024545 -0.087279 -0.12985101 0.04856614 0.63763887
autorizar 0.2503162 0.16212444 -0.19706382 0.05680754 -0.3893883 0.929376 0.49035662 -0.23702691 0.26913276 0.6393152 0.4314819 -0.102444746 -0.7197587 0.33918515 -0.8999115 -0.7207203 0.5340904 -0.9323483 -0.33414617 0.16266839 0.5849116 0.79470634 0.44038758 0.6882806 0.3607356 0.9900018 -0.53076047 0.27635813 -0.75054777 1.100462
salir 0.046626534 0.49865586 -0.27028522 0.09141429 -0.43094736 -0.32454854 -0.035748303 -0.087193444 0.06717167 0.2724872 0.03686933 -0.39560032 0.09428403 0.07786098 0.09469978 -0.18086384 0.26530224 -1.1474813 -0.34455922 0.24160025 0.1153435 0.24898028 0.35994104 0.3738582 0.10409302 0.74624014 -0.22201706 -0.20320825 0.13295259 0.6853451
inicio 0.14056812 0.19757311 -0.39222395 -0.0014327944 -0.03763333 -0.20198953 0.11312053 0.34803537 -0.17239389 0.14610162 0.3393275 -0.07994188 0.24938615 -0.07026965 0.19460717 -0.42169112 0.5344508 -1.3041865 -0.6616189 0.6654534 0.3941674 0.2433871 0.47341275 0.15181993 -0.09263243 0.146923 -0.3978732 0.25312814 0.16526946 0.550833
haria -0.018651707 0.6651875 -0.28872105 -0.037437376 -0.1897276 -0.44121024 -0.07451601 0.059714172 0.21256232 0.12949014 0.17414218 -0.30234683 -0.11368354 -0.09127229 0.09448309 -0.19443679 0.14613536 -1.1990386 -0.26954883 0.20357586 0.00359829 0.27938515 0.19777898 0.28898212 0.25510365 0.66992223 0.11865945 -0.141641 -0.06746772 0.7743342
llamado 0.13030778 0.47112778 0.049482554 0.029007243 -0.41230235 -0.16624708 0.3119773 -0.19931786 -0.07983138 -0.021582996 0.10657745 -0.35327137 0.17271775 0.017738305 -0.23006937 -0.54652834 0.43716407 -1.1803697 -0.41394097 0.41785976 0.43819946 0.3141457 0.045093626 -0.050581962 0.017404208 0.56347495 -0.2660159 0.03825162 0.06734401 0.5704235
regimen_subsidiado -0.24122237 0.8481514 -0.6707413 -0.18523735 -0.19563188 -1.0251755 0.21151535 -0.30228403 0.48788804 -0.32739934 0.13020831 -0.24197163 0.11386129 -0.048737694 0.48456803 0.2552705 -0.25133947 -1.199184 0.16533479 0.72065175 -0.2282743 0.24404743 -0.14529122 -0.1444466 0.41035816 1.2234869 0.3134287 -0.62973213 0.3477058 1.0684288
situacion 0.40553665 0.53499335 -0.50763065 -0.14734752 -0.1537815 -0.4478284 0.13246451 0.012344958 0.083098195 0.1511668 0.29094756 -0.31581357 -0.13170005 -0.30756843 -0.033979677 -0.1984047 0.16010994 -0.8558953 -0.2867069 0.45197234 0.49309593 0.32779545 0.19340864 0.23333965 0.3421398 0.37401715 -0.4703565 0.2503272 0.35709438 0.7376742
llegado 0.13462602 0.10548402 -0.08374179 0.33514026 -0.46840024 0.5825098 0.44638237 -0.04336715 0.20467195 0.6064351 0.36488092 0.12673584 -0.615673 0.17812136 -0.7954305 -0.4672774 0.98967654 -1.2043351 -0.64021283 0.16647033 0.51291066 0.49071458 0.64034235 0.5704923 0.26902452 0.52051526 -0.4648525 0.0768705 -0.8095013 0.7605833
factura -0.012544308 0.6549523 -0.52303046 -0.50490946 0.19838125 -0.33045772 -0.29918745 0.11473069 -0.5392042 0.10666869 0.71316147 -0.7498235 -0.6481042 -1.0618379 -0.6703074 -1.2232159 -1.1694363 -0.60649467 -1.4862107 0.9715585 1.3096045 0.08503883 0.60810274 0.7858776 -0.54469347 -0.80819976 -1.2335637 0.4946441 0.644145 0.78734666
preguntar 0.19973272 0.56938124 -0.369708 -0.12492199 -0.26853248 -0.38929304 -0.011986785 -0.09452309 0.29061773 -0.024867628 -0.059592552 -0.38320857 0.06742087 -0.080766544 -0.08366433 -0.34793308 -0.019322444 -1.1415846 -0.25960717 0.5846267 0.15378211 0.25790697 0.056847792 0.025652424 0.031529505 0.5925536 0.07816173 0.016167106 0.19006827 0.7905414
autorizaciones 0.07391993 -0.05592935 -0.15209316 0.2832009 -0.4503638 1.1415619 0.45052272 -0.038359623 -0.34168425 0.5889085 0.14710076 0.44668484 -0.7915212 0.57170004 -0.92175084 -0.9822493 0.75585926 -1.3641653 -0.86899835 -0.026682418 0.2244374 0.7541215 0.6790303 0.8185004 0.03299023 1.2182986 -0.45007482 -0.2625737 -1.2391708 0.803081
deben 0.27367446 0.46072847 -0.30303952 -0.16464393 0.010563957 -0.37778756 -0.040942803 0.08776015 -0.16242655 0.20366122 0.114115044 -0.39121842 -0.12078093 -0.37784836 -0.18134649 -0.25199836 0.15552738 -0.9756199 -0.77764904 0.4140632 0.43970707 0.39636168 0.42210874 0.46672654 0.114539 0.33726266 -0.35494423 0.1677618 0.054643363 0.65240026
vuelta 0.032927807 0.3975042 -0.6278324 0.17887715 -0.25543466 -0.24256265 0.44350806 0.12352426 -0.1982891 0.33332625 0.19156155 -0.06911496 -0.09543226 -0.1316498 0.050136358 -0.43245453 0.48905566 -0.74579823 -0.077477425 0.34174806 0.19779359 0.5321998 -0.03939825 0.23235026 0.029090665 0.40200788 -0.5795094 -0.12718631 0.33295187 1.179989
soporte 0.40038317 -0.3974731 0.22894146 -0.36304379 -0.5667861 -0.33437365 -0.18988836 -0.065839425 -0.6461961 -0.29828793 0.22760974 0.25723556 -0.040500462 0.09802196 -0.5093674 -0.9277629 0.5199238 -1.5727894 -1.1964504 1.0861166 0.60450995 0.005095997 0.37862918 0.29364187 -0.38364708 -0.58563924 -0.66447186 0.67943656 0.44596305 0.2837826
hijos -0.048897855 0.5466977 -0.55273414 -0.10399123 -0.54459554 -0.94518465 0.15303187 0.35711467 0.35938555 -0.3089697 0.16832194 -0.103640236 0.28045094 -0.29212698 0.07497433 -0.1608076 -0.23184927 -1.1630727 -0.07793471 0.5139288 0.067501575 0.4807176 0.026694855 -0.1275217 0.0021481602 0.526596 -0.17503695 0.021541508 0.38742465 0.9259272
repito -0.00710355 0.26610717 -0.14522046 -0.27392718 -0.13420683 -0.48241282 0.14763927 -0.05150305 0.0055988785 -0.27430764 0.15497035 -0.30965567 0.3448226 0.08795792 -0.10677613 -0.44866216 -0.042831555 -1.2142619 -0.023323912 0.86520445 0.34092373 0.35487542 0.0004266136 -0.07750603 0.0056795147 0.43042314 -0.5193942 0.04692174 0.33191895 0.64533573
nombres 0.16611053 0.5026617 -0.24630502 -0.18005271 -0.17058264 -0.22199422 0.24579068 -0.07581908 -0.036688764 0.18757303 0.20159228 -0.56509286 0.019905932 -0.11191425 -0.27372587 -0.33095577 -0.09649357 -1.0356735 -0.24369389 0.5501564 0.14079037 0.30758938 0.15241574 0.15004483 -0.023599882 0.8021241 -0.20035982 0.055674654 0.37747335 0.6688274
produce -0.09993073 0.37396064 -0.32023525 -0.020097211 -0.19656809 -0.47176144 0.056610078 0.1986412 -0.10552602 0.07568649 0.25202045 -0.2271682 0.24197517 -0.16850112 -0.13804454 -0.36467415 0.24394435 -1.1632854 -0.2699861 0.6150478 0.11074433 0.32741502 0.18695106 0.021455973 0.07379545 0.5291226 -0.25823382 0.033913117 0.19896324 0.5236528
autorizado 0.42539084 0.04708769 -0.40029868 0.13713498 -0.0031467266 1.2044201 1.2075741 -0.26250443 0.46437952 0.62558967 0.7576371 0.00632308 -1.3058437 0.43911523 -1.1447313 -1.0118269 0.5662679 -0.8681403 -0.46937022 -0.13657984 0.5361411 0.87642646 0.4185796 0.39927208 0.37063706 1.6086152 -0.059906125 0.20626609 -0.69975096 1.3915966
urgencias 0.40706673 0.9604954 -0.21660545 -0.10740713 -0.82980746 -0.29167205 0.48678994 -0.6597759 0.576394 0.3272048 0.12656373 -0.5648632 -0.22144328 0.30390322 -0.2925421 -0.30293223 -0.47943565 -0.68566513 0.31551117 0.046714913 0.27620748 0.34970257 -0.09559438 0.24161687 0.6633787 1.5424129 0.13931642 -0.0051757433 -0.2532828 1.2540586
disculpa -0.076333165 0.39163563 -0.12231675 -0.049697448 -0.28679743 -0.15169095 0.12291205 0.009713962 0.059020508 0.10124527 0.23170988 -0.42309368 0.099882044 0.15101056 -0.18668145 -0.18593645 -0.013827463 -1.0831904 -0.33327225 0.4701841 0.25667158 0.43605065 0.23708098 0.1164317 0.17018986 0.7265645 -0.371884 0.016727472 -0.15758252 0.77458924
apenas 0.17234842 0.6279141 -0.27143648 -0.019747036 -0.14573765 -0.29046208 0.46332934 -0.064705625 0.355629 0.13173199 0.22625719 -0.2373905 -0.006077722 -0.105920285 -0.30738378 0.004930095 0.16052201 -0.80863285 -0.31532592 0.45036563 0.36667916 0.38559356 0.3075094 0.30142358 0.42808208 0.64693195 -0.17600724 0.05826395 0.081346825 1.007157
problemas 0.21067849 0.4503229 -0.4693171 0.02058553 -0.29317945 -0.22289157 0.371546 0.06248679 0.31732792 0.4469062 0.09841563 -0.28470457 0.00021516578 -0.0023692423 -0.2460827 -0.12737514 0.20885438 -0.63291985 -0.21186155 0.401885 0.15963869 0.6093061 0.34139028 0.39884996 0.46484238 0.77958316 -0.24839297 -0.054991864 -0.15711279 1.0547783
personalmente 0.2077481 0.50123024 -0.15968773 0.18346345 -0.18942438 -0.32877356 0.50658786 -0.22125353 -0.05830535 0.11519163 0.24345466 -0.27684078 0.11608588 0.022512056 -0.15969093 -0.24546066 0.0468252 -1.227054 -0.19211203 0.21172489 0.21816011 0.39899462 -0.06483141 0.24458277 0.112327635 0.8581383 -0.3274595 -0.35341004 0.3766365 0.4565277
sede 0.20650871 0.42633426 -0.24420099 -0.020557893 -0.37061357 -0.42964512 -0.050220996 -0.053683415 -0.036030333 0.13052721 0.06963382 -0.21249007 0.25887945 -0.16888924 0.061239164 -0.09744167 -0.018785939 -1.2294853 -0.4309043 0.38469875 0.028609864 0.15430516 0.40274465 0.22464219 0.05249418 0.7092062 -0.12123926 -0.08536137 0.2257774 0.70807385
exactamente 0.01320507 0.28682217 -0.26522112 -0.29157093 -0.13930704 0.060755283 -0.04681308 0.3018742 -0.09998795 -0.02381968 0.27879164 -0.14871737 -0.08431128 0.19189797 -0.29339093 -0.6583221 -0.066981174 -1.1814042 -0.39077857 0.51045704 0.27532002 0.541972 0.16410664 0.22506538 -0.28962272 0.5363237 -0.50198734 -0.13894728 0.37787315 0.67801845
mandado 0.28113613 0.14175275 -0.031958167 0.0975154 -0.13457265 0.26077628 0.5000835 -0.35111082 0.2293961 0.4846422 0.40672243 -0.3972583 -0.5672593 -0.13953468 -0.96650875 -0.5851057 0.52069235 -0.6175504 -0.49380141 0.6075209 0.8006375 0.5665955 0.599056 0.66015047 0.5747739 0.54765356 -0.2380003 0.3501609 -0.3455035 0.95753735
extension -0.18825163 0.5609886 -0.30573863 -0.38187656 -0.24545832 -0.44993576 0.30053923 0.12855 -0.1980067 0.034338865 0.458269 -0.5066562 0.31531295 -0.47295988 -0.22123653 -0.5885884 -0.062182005 -0.8969326 -0.43004352 0.7913349 0.6897366 0.80004555 0.19465493 -0.15680166 0.09938456 0.3608127 -0.25838846 0.42606825 0.38811123 0.4387367
contesta 0.016650539 0.6106146 0.30757526 -0.24800602 -0.4002542 -0.08104086 0.42037234 -0.21651362 -0.2362176 0.045927517 -0.008395098 -0.2544087 -0.11504122 0.09488581 -0.35914102 -0.70265365 0.14314523 -1.1293203 -0.31841722 0.41010275 0.72916704 0.40059242 0.02530138 0.1664808 -0.11589993 0.7630196 -0.21437068 0.14477164 0.3233285 0.37362128
novedad -0.21025485 0.32185414 -0.33552194 0.1132589 -0.018049082 -1.5585599 -0.25761154 0.097965315 -0.32809395 -0.15045817 0.020914374 -0.51007104 0.24744141 -0.54499817 0.0055048508 -0.010196203 0.8418953 -1.2610602 -0.1619908 1.486778 0.06396116 0.04429952 0.12972389 0.032216962 -0.3043017 -0.082553044 -0.48918265 0.46071607 0.5958219 0.6458544
perdi 0.109729335 0.44472322 -0.22564957 0.0050739106 -0.5206802 0.2206486 0.2916588 -0.13574606 0.04856896 0.22196586 0.1435203 0.04155303 -0.03864135 0.21331486 -0.3457985 -0.5113299 0.45236552 -1.3224057 -0.80724907 0.1823156 0.18290138 0.41336852 0.2935917 0.20187347 -0.006377558 0.8217891 -0.18910106 0.2987737 -0.44484207 0.37006232
dependiente -0.35334715 0.83662975 -0.41794595 -0.23472966 -0.031173317 -1.6556181 0.060802635 0.07586877 0.07906948 -0.47346443 -0.023751782 -0.50040585 0.72270954 -0.1620391 0.5807823 0.38825798 0.19119172 -1.2456465 0.16616133 1.5208974 -0.41416314 0.17534357 -0.19729142 -0.085307576 -0.09300142 0.44599542 0.03370909 -0.39141726 1.0886923 1.2232352
puntaje 0.06929022 0.57458764 -0.28461525 -0.35876736 0.025469985 -0.5469614 0.18596101 0.122889385 -0.019260123 -0.46585596 0.283818 -0.37159672 0.50682044 0.17442772 0.066591635 -0.36475617 -0.22866945 -0.9814204 0.065131396 0.6248489 -0.015559175 0.1861399 -0.02863938 -0.09253595 0.05101944 1.2099514 -0.1666317 -0.38104934 0.52085483 0.71180034
activa 0.016530562 0.79045373 -0.7241107 0.06277955 -0.38656917 -1.1715649 -0.21156251 -0.11626408 0.42633075 -0.041943092 -0.032594927 -0.64810884 0.31144804 -0.1880829 0.63451284 0.4959536 -0.27900365 -1.5179917 0.16606337 0.5859577 -0.48030588 0.059427254 -0.10909713 -0.0935036 0.40319186 1.0510741 0.44342396 -0.40681255 0.5025217 0.9177512
decia 0.20165817 0.20118372 -0.33546323 -0.23805675 -0.33241066 0.3508911 0.3068289 -0.012299944 0.17718631 0.4428431 0.20335205 -0.4240249 -0.32067174 -0.050207675 -0.72003347 -0.46085486 0.31965795 -0.85166013 -0.3493061 0.17662442 0.14986844 0.59825486 0.1735105 0.67452717 0.35695922 0.73486996 -0.3628303 0.21410215 -0.24479187 1.0017474
segundito -0.26618344 0.49393538 -0.59127104 -0.15964238 -0.32454595 -0.9679736 -0.032439608 0.052908223 0.25496402 -0.45089817 0.13413863 -0.3351664 0.12418184 -0.10986706 0.18277141 -0.028810276 0.121419564 -1.0941595 -0.08441036 0.7665802 -0.03260065 0.5556934 -0.14552741 0.11039499 0.19562462 0.29720786 -0.15160136 0.012584345 0.45389318 0.8761798
enviaron 0.21285975 -0.06437151 -0.12274673 -0.0070752744 -0.5641561 0.12629855 0.2961179 0.22245984 -0.003906966 0.0634169 0.51776177 0.079914264 -0.56324065 0.0032401404 -0.5163097 -0.42910296 0.50042814 -1.1740954 -0.8795793 0.092903316 0.34769025 0.4480784 0.43448526 0.009980525 -0.051215816 0.8178619 0.011042643 0.3086965 -0.34809083 0.5949528
funcion 0.124353334 0.47914857 -0.2984383 -0.012617983 -0.12577638 -0.43639514 0.09984879 0.06253409 -0.24585263 0.09076716 0.101748936 -0.18400134 0.20733407 -0.111961976 -0.046507362 -0.32853645 0.13516806 -1.1579715 -0.60711545 0.5134827 0.16053046 0.115387425 0.3278747 0.23708166 0.20348203 0.39012918 -0.13561805 0.047000565 0.18717913 0.69398105
pagado 0.35700217 0.4301098 -0.35941055 -0.06042221 0.05776537 -1.0934125 -0.09973244 0.1251192 -0.22069304 0.19272162 0.17557918 -0.4167955 -0.08765873 -0.7301583 0.0010452439 -0.19723915 0.19342965 -1.2092593 -0.81351256 0.5911873 0.048680242 0.20442934 0.097486965 0.44745776 0.1811372 -0.22556362 -0.30071935 0.4382957 0.5584694 0.6865302
quieren 0.03576047 0.14796649 -0.38680407 -0.01662708 -0.07633657 0.086733 0.0672781 0.39279088 -0.062809885 0.20917307 0.17423615 -0.14752385 0.019569697 -0.039146587 -0.53136575 -0.18035473 0.3664781 -1.1689513 -0.7583866 0.41317284 0.16075507 0.23704194 0.17875993 0.39403257 0.15166186 0.6327771 -0.04718273 -0.045831714 -0.064671114 0.6622754
llamarn 0.01762936 0.43940663 -0.12786761 0.1953144 -0.49627697 -0.19211219 0.09259734 -0.33263993 0.15780813 0.12685733 0.08044355 -0.005379476 -0.011346521 0.01811923 -0.37689647 -0.6987993 0.12841906 -1.1632127 -0.30181348 0.3076036 0.2925073 0.18994235 0.48434636 -0.19235332 0.16148055 0.95712143 0.13228102 -0.10401005 -0.3139718 0.68048364
encuentro -0.026040658 0.6569748 -0.24148236 -0.2761904 -0.22488922 -0.47575313 0.16224866 -0.20561449 0.103749625 -0.05914599 0.23077472 -0.47875887 0.22446907 -0.12129472 0.12023092 -0.103967965 0.039239172 -1.093756 -0.31162044 0.751971 -0.1378426 0.22582595 0.13494474 0.037527226 0.19635406 0.6992533 -0.023300909 -0.051052652 0.31119218 0.84961784
vision 0.1229466 0.52648795 -0.37137884 0.24741603 -0.17909248 -0.01597491 0.22012706 0.08971583 0.154051 0.5718543 0.2056455 -0.24062175 -0.27522355 0.033779338 -0.32633337 -0.4610534 0.23763879 -0.84021133 -0.24893449 0.3487048 0.25675783 0.31214523 0.4213596 0.48083144 0.25676066 0.66208094 -0.37109494 -0.019860212 -0.1954323 0.85175586
vete -0.33556437 0.4071555 -0.41900137 -0.17905489 -0.35259923 -0.5034754 0.1415953 0.07605151 0.016993718 -0.04961904 0.341107 -0.13813226 0.3385523 -0.111159824 0.15967563 -0.1016375 -0.11624739 -1.0810279 -0.24855773 0.6293657 0.12048362 0.47828856 0.23930384 -0.09645303 0.1140163 0.81764525 -0.18293503 -0.24988763 0.2928497 0.7616339
supuestamente 0.38267317 0.43978068 -0.1935635 -0.023766598 -0.0842216 0.1743235 0.17710564 -0.07669706 0.3513341 0.69879574 0.17338774 -0.2920115 -0.5206771 -0.14636065 -0.49928695 -0.5712483 0.5349416 -1.0993239 -0.7973585 -0.107921235 -0.029604666 0.34497267 0.24653438 0.2696363 0.20583649 0.56554866 -0.31935236 0.39631265 -0.1600575 0.82536644
queremos -0.14333205 0.53241295 -0.52106184 -0.18576032 -0.028337972 -1.049425 -0.16747601 0.33127668 0.12251387 -0.3870055 0.3313128 -0.37485757 0.45948106 -0.30162808 0.40079054 0.07482461 -0.1423962 -1.4698224 -0.02439743 0.6579956 -0.10749843 0.40589496 0.15688051 -0.20128699 0.32912406 0.4161095 -0.17994635 -0.29186872 0.6459618 0.79116905
neurologia 0.45634487 1.7663049 -0.2561632 0.6600022 -1.3867772 1.0762494 0.72275996 -1.1441717 0.49811947 1.5888404 -0.99339396 -0.39503792 -1.0735058 0.77202374 -1.5179374 -1.0900316 0.44471738 -1.6908062 -1.160339 -0.3460496 0.3028477 1.1283042 1.504772 1.2661386 0.33312392 2.8649445 0.4103532 -0.1904823 -2.6117535 1.0204366
permite -0.06566972 0.25850424 -0.23704512 -0.19896947 -0.26383027 -0.55135757 -0.02674102 0.3243935 -0.33245572 -0.3876881 -0.0023494884 -0.078892395 0.29988706 0.0026164446 0.058819517 -0.46788162 0.13051891 -1.3429809 -0.23443158 0.7796753 0.36089724 0.35617426 -0.007667616 0.12656336 -0.1528355 0.22687742 -0.5928702 0.11742175 0.42334384 0.6663792
volvio 0.023484033 0.43099308 -0.25626692 0.052251738 -0.23793174 -0.36597806 -0.033700645 0.24173126 0.026521722 -0.12432099 0.29431158 0.06471322 -0.3007282 -0.11031445 -0.25996143 -0.6097356 0.64201105 -0.98813415 -0.44552264 0.56198037 0.2120691 0.41671643 0.500197 0.311068 -0.033330902 0.10404862 -0.5581039 0.32121363 0.010330009 0.6804185
emergencia 0.034811333 0.7003044 -0.42361146 -0.26050898 -0.56225324 -0.8128615 -0.06290931 -0.33777627 0.16710956 -0.11599995 0.09992713 -0.49411577 0.45429534 -0.27294734 0.30819428 0.33553874 -0.17144911 -1.0131003 0.03594692 0.7569135 -0.06887318 0.15752815 0.02572779 0.056568332 0.3250971 0.7463244 -0.13886334 -0.28060904 0.37193686 0.9688212
llevan 0.01964057 0.49469793 -0.09012287 0.1329438 -0.20633878 -0.40500993 0.12551913 0.06823878 0.14083304 0.28028816 0.118776634 -0.34389398 0.23369865 -0.19838266 -0.11526539 -0.15137883 0.23969261 -1.1291378 -0.20935906 0.43461764 0.33310875 0.1270777 0.43076187 0.15597484 0.23973301 0.7090183 -0.09593223 -0.14033958 -0.036844697 0.5130032
envia 0.24592063 0.059219774 0.09745343 0.11077854 -0.1880156 0.3250184 0.19175406 -0.00070842996 0.028348543 0.46965343 0.043615073 -0.131849 -0.24512736 0.13393877 -0.76217747 -0.876142 0.85596526 -1.1575127 -0.8461837 0.41641986 0.40507025 0.57671165 0.27635682 0.5571254 0.05622986 0.3167606 -0.31472802 0.28812152 -0.23462372 0.45093197
amables 0.06538583 0.1635615 -0.55332124 -0.2214664 -0.04412974 0.36474842 0.45370993 -0.24078251 0.042341676 0.13026115 0.21748279 -0.1742446 -0.03591306 0.1901808 -0.513507 -0.52598184 0.07485265 -0.9118769 -0.43987826 0.23329501 0.45050287 0.33042696 0.16785204 0.23875213 0.25922173 1.0211511 -0.21616268 -0.10084488 0.057468843 0.86966455
subsidiado -0.39381835 0.7137268 -0.64797854 -0.19472261 -0.15340781 -0.7056191 0.0854881 0.13950543 0.42802137 0.17324968 0.48614395 -0.2966138 0.046563443 0.101514295 0.11596676 0.3217671 -0.19934647 -1.1814417 0.0774026 0.70425034 -0.24827532 0.22881088 0.08126289 0.047502 0.2812429 1.3293517 0.18606426 -0.3456584 0.061091352 0.8274357
ninas -0.057340227 0.28499863 -0.3055405 0.10519149 -0.31149322 0.3669394 0.5616326 -0.052631203 0.28640816 0.248095 0.18810688 -0.32859543 -0.097354665 0.40089574 -0.4934576 -0.4760092 -0.03860565 -1.1964992 0.06644558 0.194084 0.47181448 0.72778183 0.343408 0.46317253 0.26346794 0.882399 -0.38451147 -0.044347957 -0.16916518 0.6249654
quiera 0.109650046 0.54511124 -0.14939761 -0.022443574 -0.18367472 -0.0046693226 0.1820254 -0.20716108 0.40379 0.36911923 0.14954875 -0.35730857 -0.2821039 0.16040824 -0.47792727 -0.18144584 0.4304758 -0.7593378 -0.056552902 0.19377327 0.114799604 0.48029697 -0.022481008 0.3181403 0.33511665 1.2539521 -0.059290297 -0.18978254 -0.1601702 1.1437967
agua -0.059203178 0.10176573 -0.49562493 0.052874383 -0.2819594 0.38710135 0.25144497 -0.05423718 0.13176833 0.34513518 0.3432832 -0.26529777 -0.16363126 -0.050583486 -0.508447 -0.5515554 0.40695545 -0.89704674 -0.24889901 0.35092184 0.42363802 0.48468125 0.28694803 0.4568451 0.17780638 0.6174697 -0.42778188 0.062497012 -0.28081393 1.0255804
volvi -0.05693595 0.45824066 0.046815004 0.156977 0.08602445 -0.053868473 0.38489935 -0.1942353 0.022621922 0.4477041 0.27117655 -0.11291036 -0.3872974 -0.0020827376 -0.71767974 -0.5545773 0.49320444 -0.7071117 -0.5126693 0.8449661 0.49543044 0.3570619 0.35470685 0.49596965 0.17821263 0.6584095 -0.1881827 0.025760464 -0.20082575 0.8629093
reporte 0.17092094 0.4723006 -0.18538108 0.1404232 0.20487545 -0.7733822 -0.034794193 0.2926067 -0.17634822 0.397632 0.64906734 -0.23709424 -0.082188115 0.044879366 0.21849811 0.08647081 1.140145 -1.1828773 -1.0529245 0.9174282 0.45002344 -0.21988724 0.614274 0.25115234 -0.024905916 -0.08171782 -0.39194345 0.14956269 0.43166324 0.5540844
octubre 0.08689239 0.6724991 0.1386924 0.046523098 0.5467705 -0.77908844 0.04236256 0.79498726 -0.5833211 0.50181764 0.2271251 -0.21635325 0.64444494 -0.181653 -0.23296303 -0.50749767 0.81035936 -1.0975947 -1.7174871 1.0264006 0.49883178 -0.33262426 0.8435174 0.7473698 -0.04048128 -0.2590874 -0.45234743 0.6399982 0.41327605 0.20944852
coloco -0.13267961 0.04466153 -0.42957297 0.010626936 -0.5439436 -0.14311521 -0.108331285 0.028253563 -0.22769053 -0.07846261 -0.1778469 -0.10821447 0.10534612 0.11186732 -0.052364636 -0.42526695 0.4336958 -1.357527 -0.35279322 0.50292695 -0.13130292 0.4793425 0.3776083 0.51645124 0.18733913 0.27574903 -0.5525715 0.09906222 -0.19872972 0.5807606
fijo 0.13240142 0.38617516 -0.056320287 -0.034090664 -0.28432414 -0.13312536 0.40309125 -0.08631484 0.24580926 -0.042401176 0.27272117 -0.46221676 0.14196762 0.010795002 -0.3404389 -0.623908 -0.09633426 -1.1493038 0.035470948 0.55429435 0.39838034 0.3657456 -0.016790967 -0.16191752 0.30859095 0.5718958 -0.28561035 0.27270827 0.35738835 0.780819
necesitamos -0.068238676 0.5081925 -0.20106035 -0.038945556 -0.34106275 -0.7167977 -0.21244256 0.01960648 0.15428945 -0.6289906 -0.05886764 0.041007705 0.12339632 0.19163609 0.430525 -0.4590257 -0.012972416 -1.382689 -0.10068871 0.7610418 -0.22209686 0.5693633 0.07869919 -0.040756952 -0.07207495 0.5370998 0.013612906 -0.5333825 0.21780282 0.70170766
viendo 0.32437915 0.16389011 -0.24152718 0.05097716 -0.34449288 -0.00183015 0.051435325 0.008425471 0.004995755 0.13785577 0.3400152 0.059428137 -0.38912702 0.1681065 -0.2350814 -0.73087233 0.20023666 -1.1523764 -0.35566717 0.21352261 0.39447418 0.4398759 0.42277923 0.08355734 0.13676849 0.47312185 -0.54770666 0.2635634 -0.29055268 0.7397029
quede 0.0052941293 0.66318506 -0.18363558 -0.13530159 -0.30965924 -0.928719 -0.0026558796 -0.3464196 0.33457652 0.032341488 0.16731521 -0.47279307 0.52875787 -0.20476419 0.3262255 0.02683949 -0.22003874 -0.93264693 0.07860427 1.0189148 -0.09292189 0.42743027 0.24764168 -0.04362204 0.22583403 0.8294002 -0.042449992 -0.07175787 0.43408826 0.87555367
requiere 0.0121920025 0.08599903 -0.6201302 0.5116385 0.13291463 0.36905354 0.07294762 1.0715393 -0.05547864 0.68937594 0.54915816 0.8354677 -0.9054173 0.30305338 -0.16898173 -0.8925399 0.2616186 -1.7583331 -1.3311172 -0.10178591 -0.44007066 0.42754963 -0.2022782 0.1987556 -0.97181386 1.870224 0.13291918 -0.14026265 -0.6931874 0.22149403
aportes 0.11627954 0.4004551 -0.34716853 -0.30170786 -0.15540297 -1.4726622 -0.18539904 0.1694556 -0.597408 -0.4403088 0.013558655 -0.39940143 0.43546337 -0.8069276 0.1789294 -0.4556185 0.24431302 -1.1412886 -0.4574551 0.962842 0.14862098 0.2208484 0.38530958 0.07447912 0.10372631 -0.19118272 -0.45530435 0.4461333 0.87367314 0.6309212
medicos 0.2175563 0.10519732 -0.014246896 0.32581538 -0.32915905 0.89169705 0.6923255 0.046539225 -0.10961489 0.7651073 0.24102081 -0.24373792 -0.5786188 0.42912865 -0.91671497 -0.50535643 0.7107271 -1.2643034 -0.48236865 0.0524197 0.739363 0.57065445 0.5408433 0.8288997 0.05521604 1.2795545 -0.25343752 0.08604216 -1.2002754 0.7520877
reclamar 0.16450794 -0.117823884 -0.7670988 0.07125272 -0.09053156 1.2039852 0.5004034 0.18395543 0.17975187 0.8616779 0.82252175 -0.19473968 -0.56187993 0.26108783 -0.9340428 -0.59616596 0.99585587 -0.45230818 -0.46732503 0.38983005 0.743412 1.2317246 0.7052896 0.7559721 0.50721455 0.61832345 -0.56145316 0.46609 -0.3727004 1.4054472
entro -0.2475269 0.45811433 -0.3821519 -0.10310205 -0.5602265 -0.8726997 -0.09886223 0.17139308 -0.19669655 -0.10047859 0.29514387 -0.10299692 0.0829354 -0.18287407 0.1516249 -0.39975128 0.35118857 -1.2367145 -0.4138983 0.67156833 0.0547777 0.37549123 0.32595348 0.35159752 0.036163453 0.2141657 -0.26295567 0.08508469 0.2895591 0.39389965
quedar 0.37112474 0.22347158 -0.58454084 0.05617404 -0.27313757 -0.6109748 0.25179806 0.28761157 0.014727557 0.15968917 0.2578779 -0.036847953 0.1397494 0.10430633 0.38891342 -0.37657547 0.051566042 -1.1288836 -0.30243593 0.4754332 0.014711092 0.117608994 0.06400155 0.3695906 0.017761335 0.31655297 -0.53021353 0.0273974 0.3949783 0.88581836
existe 0.0048747687 0.6131546 -0.2057815 -0.35250401 -0.36998838 -0.48156443 0.2411068 -0.33006305 0.15019089 0.0035740798 -0.052774273 -0.21032526 0.07073461 -0.34465453 -0.17938559 -0.407193 0.17488411 -1.1712438 -0.07094893 0.47377872 0.099492565 0.3766833 0.03070159 0.057937298 0.23603617 0.5988978 -0.007573939 0.11214983 0.36929542 0.7677638
maneras -0.071318276 0.19339368 -0.47793978 0.11953431 -0.06666903 -0.3565327 0.07598346 0.032526225 -0.12609622 0.07450558 0.35063115 -0.49789447 -0.2975688 -0.1247286 -0.1917502 -0.0048962277 0.39494753 -0.8841738 -0.28121424 0.3974997 0.40065768 0.5666958 0.19188355 0.4066827 0.37347996 0.4501759 -0.3912264 0.10679351 -0.001792367 1.1205137
aparte 0.28861663 0.31555206 -0.17652053 0.05875551 -0.113283396 -0.016149074 0.27702007 -0.05805556 0.081083976 0.38686386 0.049770653 -0.2795307 -0.09809133 -0.0050643664 -0.46241912 -0.1603351 0.22033796 -0.9465429 -0.70882165 0.49682838 0.08811736 0.40814167 0.38173106 0.26397175 0.32033122 0.6956304 -0.21004055 0.022875864 -0.46027195 0.8534576
solucion 0.34720048 0.607244 -0.19112988 -0.054117363 -0.41790742 -0.35273787 0.2977061 0.0049244985 0.05022172 0.30215186 0.22190244 -0.19882701 0.042389482 -0.23407438 -0.12311887 -0.29662555 0.2622997 -1.0456191 -0.39457777 0.41507113 0.2236856 0.096285395 0.2169429 0.30188745 0.2961772 0.50072587 -0.33569962 0.2041701 0.35062674 0.5516975
atendiendo 0.064135656 0.25781047 -0.4193152 0.08792151 -0.23101199 -0.087035984 0.5492036 -0.27550992 -0.09231634 0.4185665 0.1618159 -0.10983369 -0.21885403 0.07490342 -0.33097216 -0.25738063 0.16696486 -0.84139395 -0.3070393 0.3047902 0.11586367 0.59329563 0.08669108 0.24291873 0.37167844 0.9238048 -0.05923139 -0.033517886 -0.19956176 0.9216264
pandemia -0.087431595 0.85008365 -0.5486946 -0.21771017 -0.2700691 -0.6371691 0.033235855 -0.35769725 0.09704034 0.14837803 0.015288336 -0.4438633 0.15732571 -0.29834214 -0.049830593 0.29869038 -0.21102881 -1.0578094 -0.36356482 0.5894245 -0.042398542 0.29353964 -0.04380652 0.052975096 0.27832863 0.9639124 -0.00920457 -0.17952016 0.0811737 0.83350736
llamaba -0.0038786815 0.56978804 -0.16407302 -0.06922964 -0.11825363 0.031526692 0.30085745 -0.15343451 -0.025750471 0.2677418 -0.008319411 -0.39185053 -0.114105396 0.15756468 -0.44307977 -0.3273005 0.1430984 -0.839836 -0.30462953 0.42229658 0.088621385 0.786553 0.13292609 0.16217081 0.26463458 1.0220877 0.011102229 -0.07254497 -0.23844014 0.91423887
tranquila 0.26845235 -0.047661237 -0.6180779 0.064437635 -0.50079316 -0.119373426 0.20127536 0.038628593 -0.06952697 0.16609406 0.31029823 -0.4463568 -0.073326685 -0.27113032 -0.6463823 -0.18265525 0.005765744 -0.9731998 -0.18698111 0.3900435 0.5236704 0.4267007 0.5481274 0.35207134 0.37340286 0.33259988 -0.4916629 0.19291846 -0.0063545904 0.79297507
asesora -0.026104786 0.271358 -0.2236868 0.053089134 -0.036159717 -0.95513153 -0.1697363 0.37726995 -0.22407638 -0.31899697 0.20450471 -0.025286123 0.3923481 -0.24164881 0.27312997 -0.3752622 -0.24453756 -1.5443323 -0.43117744 0.83452827 0.17593192 0.17328632 -0.09706509 -0.18861546 -0.57742804 0.41038093 -0.51097876 -0.26766315 0.72155595 0.5478193
dejo 0.07023853 0.5664015 -0.28958806 -0.37174943 -0.03725464 -0.59893125 -0.25059453 0.004933127 -0.15027766 0.084422186 0.4137099 -0.36535686 -0.19921017 -0.38399956 0.02662351 -0.38395637 -0.1787774 -1.0631924 -0.8788791 0.48906323 0.6306568 0.19572182 0.39672863 0.45406 0.017490825 0.2526777 -0.16419362 -0.021612948 0.31563514 0.514785
sitio 0.12318047 0.16708823 -0.3702879 0.11878592 -0.16796796 -0.3137225 0.16588134 0.37240294 -0.019335719 0.36050588 0.27450117 -0.033089656 -0.03440286 -0.25196305 -0.077432506 -0.24314594 0.046848286 -1.183988 -0.5750822 0.37241292 -0.02570115 0.30471215 0.19637781 0.041528158 0.08096645 0.7944963 -0.28333378 -0.04155722 0.08544882 0.59548914
funciona -0.026693081 0.29412115 -0.23438162 -0.3859661 -0.42129195 0.04201507 0.36053598 -0.06894838 -0.25451255 0.3477472 -0.022290865 -0.009929399 0.2609345 -0.14163668 -0.2667802 -0.64029604 0.13435498 -1.0676204 -0.5668914 0.3840149 0.36679563 0.3174428 0.35863182 0.12083188 0.24643555 0.70952624 -0.22556855 0.2553935 0.0560234 0.51292646
envian 0.10555485 0.18976127 -0.29571107 0.23593439 -0.20363535 -0.055591565 0.10015914 -0.042672027 -0.11802314 0.21810687 0.19094414 -0.17534927 -0.14199694 -0.010169621 -0.52369004 -0.7058718 0.30381384 -1.1644503 -0.69046354 0.5111325 0.52794003 0.67328084 0.3667506 0.106745206 0.36984622 0.06915096 -0.4461002 0.42065778 0.11933096 0.49497575
lunes 0.41412044 0.4445064 0.064219534 -0.07060067 -0.27655798 -0.30419922 0.27239627 -0.44644132 -0.14601123 0.20150463 0.13211852 -0.26277682 -0.3244786 -0.030622786 -0.2730691 -0.6621327 0.3893849 -0.82992387 -0.24523956 0.3712077 0.24861461 0.2447525 0.3388557 -0.022060234 0.2581118 0.74725765 -0.17006487 0.17184962 -0.07543892 0.9565031
contacto 0.068545975 0.6739928 -0.034649894 -0.11855116 -0.08790661 -0.6844144 0.10808854 0.21468556 -0.10840428 -0.19754285 0.36551276 -0.39241076 0.61025137 -0.0376099 0.19323348 -0.2972237 -0.06567896 -1.1866238 -0.29177862 0.64851743 0.093805365 0.20221601 -0.17545661 -0.07502676 -0.049781125 0.67027664 -0.30685785 -0.030765139 0.670473 0.66691726
deseo -0.22210173 0.56166553 -0.4665713 -0.23840463 -0.27149576 -0.690295 -0.039032623 0.13232115 0.3323741 0.025456186 0.06960506 -0.57654554 0.3204687 -0.3351517 0.13870496 0.4367618 -0.12441495 -1.0367442 -0.076174736 0.7322805 0.0654001 0.36745954 0.09594574 0.025817594 0.2027017 0.7577394 -0.08461479 0.013839891 0.23574443 1.1009151
termino -0.06731026 0.5020759 -0.29538345 -0.15872774 -0.29599893 -0.56264246 -0.09764444 0.16894887 0.071781084 -0.0034077286 0.22540848 -0.060503043 0.22206803 -0.10028728 0.11618526 -0.39582643 0.01736766 -1.2002329 -0.11038216 0.73086137 0.07564386 0.5326792 0.17321427 -0.06763519 -0.21474998 0.5735795 -0.24266012 -0.01817602 0.48794904 0.58266366
adicional 0.14638248 0.43237713 -0.4728457 -0.23303978 -0.29494235 -0.8200183 0.12093693 -0.1284943 0.09662708 0.07755772 0.12396537 -0.40648046 0.5019094 -0.53135747 -0.038275022 0.14812215 0.15394904 -0.9800006 -0.35968572 0.96591675 0.02521913 0.18749751 0.3123458 0.11196273 0.05576666 0.060089733 -0.398202 0.29953876 0.6316608 1.0431416
comenzo 0.13551669 0.23068264 -0.47298324 -0.07415014 -0.16413535 -0.56798327 -0.0015450635 0.16852045 -0.18211228 -0.24465331 0.100774966 -0.21093853 0.12051117 0.03807758 0.17600247 -0.4945256 -0.14638968 -1.2894622 -0.48121017 0.39558864 0.26544777 0.2063979 -0.0014923405 -0.054332778 -0.086041294 0.5702947 -0.42415076 0.17430359 0.602932 0.7412078
final 0.04732518 0.599431 -0.3866511 0.064658724 -0.21184266 -0.57690495 0.18120192 0.19045135 0.25852063 0.17979866 0.42801222 -0.28026676 0.15551716 -0.073358536 0.015339486 -0.09285756 0.3007279 -1.108781 -0.112025514 0.8143873 0.095638484 0.1762301 0.18891132 0.14811268 0.1715763 0.38931417 -0.3400251 0.13492733 0.18383816 0.68284976
tarjeta -0.025034403 0.218273 -0.5635487 -0.034563985 -0.497482 0.22240165 0.33343944 -0.3116504 -0.20659682 0.47956297 0.1466137 0.12742862 -0.30220646 -0.12154075 -0.30512962 -0.6906167 -0.072250724 -1.0967759 -0.45073947 0.15670188 0.122149006 0.5050537 0.71985173 0.3623162 0.4760113 0.7538052 -0.29437602 -0.25252485 -0.15633726 0.62766993
unica 0.101235904 0.34084535 -0.28219125 -0.09576946 -0.010716609 -0.42304292 0.22362 0.13164179 -0.08410048 0.28583387 0.3385514 -0.2627167 -0.13809207 -0.37027025 -0.33941147 -0.2376795 0.27369982 -0.9911929 -0.33567423 0.509173 0.45467222 0.33001184 0.105522044 0.19723362 0.14820878 0.54504526 -0.35716996 -0.13082501 0.25787878 0.71624726
compensacion -0.07769885 0.55584174 -0.63342637 -0.061299488 0.03363356 -0.6518324 0.06798602 0.092236534 0.1495086 0.24105316 0.31965667 -0.29532737 -0.027934594 -0.38505214 -0.1335404 0.006694815 0.1272902 -1.1117198 -0.45092514 0.6930861 -0.17269164 0.28100505 0.022184836 0.26511443 0.3257143 0.83426154 0.0675574 -0.1161084 -0.17796566 0.56736857
vuelve 0.17189175 0.60168 -0.24077414 -0.019927768 -0.4009213 -0.2722374 0.23968291 0.12217571 0.11119513 0.27956575 0.14580233 -0.32107985 0.27879426 -0.033393543 0.013733425 -0.17180991 0.3048705 -0.87321407 -0.37987277 0.49206263 0.116064556 0.31978804 0.5055195 0.3089475 0.16140717 0.23150542 -0.5422167 0.4267404 0.32635143 0.8515077
retirado -0.095341325 0.6609599 -0.5194457 0.046252068 0.07837154 -0.9666431 0.11545057 -0.10824815 -0.090602465 0.25684354 0.41428077 -0.62511367 0.30802664 -0.07866132 0.13783106 0.4340892 0.2639044 -1.1776847 -0.16183563 1.0161288 -0.30055717 -0.047041055 0.34319597 0.046027772 0.5357642 0.7070753 0.12919194 0.20418876 0.32986993 0.7441938
mensaje 0.09955664 0.14242093 -0.17075711 0.030725488 -0.33354425 0.15540071 0.5295986 0.19212891 0.15184413 0.18205443 0.3448033 -0.097390994 -0.37976396 -0.11975292 -0.47206554 -0.85192794 0.45153448 -0.9826286 -0.122119315 0.3067636 0.5970959 0.47492412 0.5599421 0.21689264 0.24335954 0.38584167 -0.7472447 0.15100873 0.21965754 0.72656685
indicar 0.121980555 0.3468186 -0.1280703 -0.05116258 -0.27924225 -0.114956275 0.19719209 0.06319517 -0.16168365 -0.16254374 0.03876128 -0.14850114 0.12411842 -0.06492324 -0.18684143 -0.57343197 0.17451964 -1.2375214 -0.16999978 0.17647482 0.46492186 0.32034385 0.2661041 -0.031829834 0.029896354 0.7099273 -0.5526832 0.061852396 0.40137863 0.51202154
puedan 0.3396 0.39320722 -0.32953733 -0.038168404 -0.19237871 -0.11429541 0.2278263 -0.13661833 -0.24272439 -0.023683758 0.3584401 -0.22827822 -0.114945695 0.18924758 -0.14756525 -0.60185426 0.2744392 -1.1858315 -0.50249577 0.30996138 0.28809884 0.34321427 0.046869107 0.26324168 0.018998476 0.6100604 -0.23552132 0.024735205 0.15176031 0.5443658
partir 0.18978411 0.5769703 -0.59558403 -0.2921565 -0.08659858 -0.46852508 0.27085653 -0.10834352 0.27260292 0.12679213 0.086212285 -0.46541715 0.25646275 -0.2626518 -0.07376727 -0.14401816 -0.12154277 -0.8416035 -0.026874743 0.620524 0.07106572 0.46620268 0.27617142 0.18922807 0.34556508 0.6634822 -0.12196097 -0.07882008 0.43312287 0.9370612
estacion -0.049477067 0.1947999 -0.22255045 0.116668895 -0.2583509 0.060623206 0.2528288 0.27669922 0.024219789 0.28514475 0.36212876 -0.0566722 0.06350896 -0.11098039 -0.048835497 -0.48206186 0.32499248 -1.0994616 -0.23542295 0.14349407 0.3414415 0.49590975 0.2851998 0.1323928 0.22957465 0.5571779 -0.48193994 0.115384035 0.11522056 0.79112834
raro 0.1407512 -0.044875685 -0.19179922 -0.12692147 -0.4126003 0.18244067 0.032283425 -0.018832637 -0.13988708 0.116920285 0.16344985 -0.4676933 -0.5390807 -0.18586645 -0.40074292 -1.0302333 -0.15405574 -1.3547105 -0.9153754 0.40404323 0.6304378 0.2775385 0.3353313 0.46134585 -0.28405103 -0.08423996 -0.72092426 0.33469355 -0.14095247 0.5479623
diseno -0.28697923 0.36519983 -0.28059456 -0.12399539 -0.1440285 -0.19718508 0.25399342 0.042351488 0.12865566 0.065827936 0.37575546 -0.17888921 -0.011772477 -0.017951436 -0.23313028 -0.4648967 0.24110112 -0.87803286 -0.36463463 0.60585654 0.32634702 0.5734756 0.4122545 0.15394127 0.059703983 0.37126026 -0.4939645 0.07573763 -0.054651994 0.7963699
hiciera 0.055825237 0.48578334 -0.36618963 0.004916733 0.15539809 -0.36802915 0.052684844 0.23010606 0.12245739 0.12785359 0.31978938 -0.3278853 -0.01672286 -0.19703192 0.0773566 -0.18431135 0.36189255 -1.0788022 -0.37878236 0.4396181 0.11489126 0.33743128 0.08547139 0.3235428 0.22507465 0.39490816 -0.12610948 -0.13505642 0.21777253 0.84140444
piden -0.09334564 0.35766685 -0.707563 -0.31550765 -0.12507135 -0.4178496 0.08469161 0.22887695 0.07950201 0.11785862 0.19884905 -0.101742685 0.31033647 -0.20028405 0.42507327 -0.31261232 0.07132838 -1.1491956 -0.34700876 0.47476438 -0.1267916 0.38111135 0.19687283 0.24155603 0.30992347 0.28545663 -0.35561723 0.14876248 0.50008154 0.63641304
contesto 0.23336975 0.4019706 0.049080797 -0.08848187 -0.09642303 -0.02629241 0.35201067 0.02177545 -0.2739316 0.19306439 0.2716423 -0.33662584 -0.02301892 0.28532267 -0.17818446 -0.5519988 0.38389817 -1.1167207 -0.346069 0.49915448 0.43796164 0.5218791 -0.0072497483 0.14126769 -0.14746264 0.47550324 -0.26041287 0.24843088 0.21847203 0.61045676
actualmente 0.25610384 0.35066265 -0.41277465 -0.078092694 0.022395339 -0.42309833 0.18139394 0.30127272 -0.027284974 -0.13996996 0.167713 -0.12866594 0.3537345 -0.14252786 0.3519739 -0.3117399 0.30488965 -1.3580674 -0.47143298 0.5988161 0.2735697 0.25510022 0.07928698 0.12632446 0.102064274 0.2894457 -0.24241821 -0.007739763 0.35192958 0.6571583
inconveniente 0.2744795 0.7136452 -0.5337189 0.15777455 0.08218941 0.055123456 0.2345257 0.2560924 0.5140219 0.4845665 0.3077044 -0.06147427 -0.30506006 -0.1528524 0.029666377 -0.60224104 0.36744457 -0.823312 -0.6163972 0.18637691 0.27564222 0.32105708 0.26010394 0.4201395 0.11057414 0.53782547 -0.5247346 -0.06493897 0.09742951 0.75451446
otorrino 0.15084606 0.74934864 -0.29390356 0.108342834 -0.6887412 1.2871757 0.63029784 -0.7408133 0.5654447 1.1428825 0.19477864 0.12029575 -1.1673925 0.49468413 -1.1808919 -0.81165475 0.47661543 -0.96169746 -0.5332669 -0.15602526 0.4966798 0.71844155 0.82575566 0.8098723 0.9368231 1.4364829 -0.3933671 -0.14434306 -1.4285655 1.1305481
pidiendo -0.032651626 0.5527493 -0.55115175 0.015065168 -0.34746462 -1.0369363 -0.062959045 -0.08495605 -0.051427715 -0.18046871 0.011624983 -0.20668514 -0.08386693 -0.12308256 0.20436358 -0.06829584 0.2558489 -1.2408613 -0.13817336 0.8561815 0.0036132238 0.23221846 0.04490544 -0.07211678 -0.08132203 0.4416137 0.046116844 -0.18142998 0.41102785 0.7058621
particular 0.5435542 0.6763128 -0.39352423 -0.04398473 -0.5420245 0.09502413 0.0618414 -0.44767836 0.579983 0.5671913 0.0710476 -0.47699866 -0.6852366 0.07741912 -0.5411989 -0.41413608 -0.15902829 -0.41830683 -0.24847987 0.04761623 0.4889497 0.61525494 0.3421127 0.44854397 0.57495296 1.2618942 0.07702024 -0.084249444 -0.6159658 1.3512969
complementarios 0.037321035 0.72100437 -0.6203902 -0.49560902 -0.24575518 -0.4907868 -0.01463407 -0.22085765 0.4147915 -0.052426416 0.40050364 -0.45655024 0.23545125 -0.22445181 -0.23007211 0.08517304 -0.83979934 -0.87947714 -0.16555433 0.7420455 0.061444357 0.23638068 0.21901584 0.1391426 0.10017575 0.9432981 -0.13384876 -0.09867942 0.6661514 1.0530491
enviado 0.42354974 0.059068784 0.09348699 -0.04442381 -0.3497003 0.035052 0.25300196 0.09421417 -0.13422671 0.037786365 0.16422312 -0.26322195 0.08503004 0.038770236 -0.38468635 -0.6783464 0.606789 -1.1296234 -0.7713469 0.640168 0.33935377 0.363068 0.38764316 0.3897999 0.007865064 -0.06877395 -0.6801238 0.5464658 -0.0022489778 0.59442395
solicito 0.021081299 0.6328955 -0.2934944 0.24417417 -0.45369893 -0.42727795 0.17363958 -0.20055176 0.5829761 -0.15470012 0.22086547 -0.24481466 -0.071480505 0.18412246 0.17302132 -0.4268029 0.4751325 -1.055249 -0.2750222 0.646573 0.060956042 -0.00677887 0.36403722 -0.06857821 0.28635255 0.5292091 -0.016970601 0.13861318 -0.086918205 0.8074792
semanas 0.14838383 0.45990255 -0.1433775 -0.117867745 -0.17262973 -0.44047016 0.38387522 -0.06609316 0.25414503 -0.0995706 0.2470009 -0.32271618 0.10007071 0.06298047 0.101302214 0.32444748 0.17392904 -0.86626095 -0.49700645 0.67557085 0.024294153 -0.029801128 -0.017721625 0.110124834 0.21047059 0.91083187 0.12522022 -0.14084914 0.15488216 1.2479748
encuesta 0.08463334 0.3610365 -0.25898895 -0.109291404 -0.23874412 -0.3341369 -0.017556129 0.21548349 0.21890628 -0.24870813 0.3716916 -0.14875762 0.11666765 0.16324896 -0.0039018164 -0.28106073 0.18407887 -1.2531712 -0.3414469 0.27757552 0.24702193 0.30635342 0.10444136 0.18642463 0.06949465 0.6979266 -0.3927161 -0.09221433 0.32896847 0.69491166
empleada -0.2895263 0.8651342 -0.598 0.08979582 -0.3330976 -1.1723651 -0.30708006 0.263644 0.41664678 -0.49453056 -0.1314209 -0.47057176 0.23433648 0.19114928 0.6034599 0.12460144 -0.2534318 -1.3039566 0.15147921 0.85315025 -0.32786638 0.2553756 -0.36526918 0.0014903262 -0.0019996907 0.9217701 0.10513355 -0.32446888 0.7151312 1.0096809
exito 0.15917775 0.32170925 -0.32389876 -0.10785737 -0.047623444 -0.22043045 0.264378 0.27458864 -0.019160647 0.05893062 0.3048586 -0.18792005 -0.068966255 -0.06547698 -0.1356807 -0.28983602 0.3396646 -1.1168251 -0.60823226 0.48479515 0.0846725 0.45538604 0.116587095 0.2597958 -0.14738901 0.34775767 -0.300433 0.1725991 0.07496165 0.5665944
cinta 0.2194067 -0.1188219 -0.31472492 0.23733743 -0.3953391 0.1587904 0.2548088 0.22771484 0.2601144 0.17346694 0.21365981 0.21000585 -0.3496573 0.1482448 -0.42503735 -0.65810865 0.38705945 -1.112979 -0.5532559 0.044092204 0.33675295 0.5303289 0.34418106 0.3626165 0.34070563 0.79459834 -0.39364406 0.1268907 -0.56294996 0.7716629
cotizar -0.12803496 1.0712365 -0.66310185 -0.3771888 -0.03027453 -1.3740318 0.21775718 0.31406775 0.3197844 -0.18604735 0.1477842 -0.66294557 0.6179053 -0.18580137 0.53640026 1.0942869 0.1394843 -0.92907107 -0.1189897 1.7367423 -0.7593816 0.1290562 -0.3813245 0.06993078 -0.2154898 0.5020674 0.3020142 -0.450191 0.93817264 1.4862175
siguen 0.18209164 0.39844453 -0.56885785 -0.04284775 -0.15844135 -0.93558836 0.0016296662 0.04407883 -0.27623242 -0.44167396 0.09406444 -0.33660427 0.1442929 -0.39100537 0.3053784 -0.2880608 -0.007019731 -1.2106104 -0.5592683 0.70373845 0.20247528 0.38986894 0.53790814 0.13880244 0.12501588 -0.1156679 -0.741206 0.21224205 0.50653964 0.62969124
edad -0.037831675 0.61366993 -0.33913442 -0.10477991 -0.04255759 -0.26781675 0.012843569 0.15628572 0.21808241 0.22788401 0.23762316 -0.26756155 0.07838939 0.10304304 -0.2604246 -0.09502691 -0.12377028 -1.0442954 -0.40593433 0.39872718 0.10398135 0.64735204 -0.009817612 -0.017327122 0.02178006 1.0322255 -0.038332257 -0.055964034 0.013823996 0.6560613
convenio 0.2421221 0.9537574 -0.12673458 -0.029576674 -0.90242696 0.35893705 0.8912561 -1.1127318 0.8337202 1.137987 -0.0302664 -0.48927435 -1.0235956 0.25465566 -1.2246076 -0.23117667 0.05561502 -0.6659664 0.17595883 -0.060821272 0.63573045 0.8205434 0.27576786 0.7505494 0.8040268 1.816012 0.0033799205 -0.09734236 -1.025524 1.5705076
empezar -0.04469605 0.6198149 -0.5299642 -0.38118187 -0.1794024 -0.8448714 0.21709958 0.083985254 0.1251948 -0.02564923 0.1255241 -0.37137175 -0.008267365 -0.20602983 0.02917313 0.36270767 0.086862415 -0.7771839 -0.025447963 1.0597936 -0.33994576 0.43797824 0.07295581 0.25699833 0.1264699 0.51115686 -0.0016070141 -0.15020494 0.29754525 1.0997547
lejos -0.110593595 0.44786832 -0.33050597 0.03946394 -0.21600261 0.043470494 0.1735122 0.1799071 0.026341623 0.27659345 0.18251796 -0.47463474 0.10714592 0.41863328 -0.097423635 -0.21624497 0.15149684 -0.9437283 -0.2665617 0.24356298 0.033959106 0.3749427 0.054955367 0.15302259 0.16325438 1.1716986 -0.26021352 -0.05736084 0.08981839 0.9266169
fondo 0.07153012 0.399547 -0.4402628 -0.40125272 0.070421144 -0.34007266 0.30321112 0.1459203 -0.48744413 0.28035057 -0.14590287 0.16284426 0.5092634 0.29619876 0.2779394 -0.89091176 0.5377462 -1.0746168 -1.1293068 0.045993593 0.30378094 0.29546753 0.31055078 0.27355182 0.2790844 0.72223884 -0.25711167 0.31152588 0.28316605 0.49086112
intentando -0.97198147 0.571431 -0.71528935 -0.28137535 -0.6306528 0.25547576 -0.7544776 -0.12752578 -0.35410902 -0.16246852 0.6438021 -0.16155303 -0.40041515 -0.07067934 0.8574039 -1.2441236 -0.44984075 -1.4781685 -0.37508842 0.20882176 0.74041206 0.7642793 0.6273893 0.28532404 0.24196643 0.33035022 -0.35640627 0.14730388 0.30529094 0.13355853
tramites -0.43862283 0.09329578 -0.39828867 0.6899771 0.3841097 -0.5902215 0.41632196 0.9365812 -0.0930663 0.28417948 0.08724478 0.56495756 -0.05219569 0.15981345 0.4592405 -0.91846037 0.782923 -1.7754918 -0.21611659 -0.13709348 -0.47587 0.5640064 -0.373302 0.40171733 -0.03076984 0.8646405 -0.68494266 -0.504277 0.4636717 0.33420652
necesidad -0.44466496 -0.02027631 -0.37098444 0.71442455 0.5516605 0.002604672 0.80022126 0.9883447 0.01603774 0.49812505 0.20345633 0.6160664 -0.5837274 0.3919937 0.001415719 -1.1070555 0.8425976 -1.5779282 -0.21105188 -0.43166262 -0.39293656 1.0194219 -0.3063297 0.7425189 0.437795 1.1189523 -0.71952206 -0.58780265 0.030442022 0.52226585
bienestar 0.22811472 0.5462834 -0.48953912 -0.4914852 -0.0059353025 -0.719984 -0.084870264 0.031836435 0.21651958 -0.14540093 0.26946226 -0.46676984 0.042063802 -0.3001773 -0.14374185 0.10267985 -0.44222125 -0.8887848 -0.3498822 0.6250633 0.49395975 0.29985616 0.31241062 0.20062399 0.22717977 0.53028 -0.20402142 0.091142185 0.482453 0.9580709
telefonico 0.050321992 0.7245727 0.023139423 -0.11559634 -0.025224894 -0.6392288 0.17370078 0.20241413 -0.19543456 -0.2769745 0.17294224 -0.2025141 0.85274476 0.1927253 0.15665951 -0.45010173 0.035026845 -1.5696108 -0.18659486 0.61311823 0.11955863 0.083252706 -0.14008972 -0.07257104 -0.29095 0.9280894 -0.22496293 -0.09456204 0.80053407 0.25895837
ultima 0.29495737 0.31595594 -0.47443056 -0.079481766 -0.120056674 0.05917048 0.3238528 -0.14628102 0.08424367 0.40580767 0.28131658 -0.52687764 -0.17736591 -0.1817971 -0.6372725 -0.3135606 0.27174592 -0.55639505 -0.49545842 0.5737028 0.57855076 0.33125082 0.5969799 0.55492604 0.31237787 0.095763 -0.6123603 0.544837 0.24766088 1.1188114
acaba 0.44126612 0.49522257 -0.65577185 -0.26988107 0.097712025 0.09541918 0.45009094 0.3197958 0.5168407 0.36298692 0.16456185 -0.5591817 -0.3833737 0.054619584 -0.5960345 -0.22254486 0.18321356 -0.766355 -0.1735188 -0.10208288 0.3080088 0.59282297 0.10781882 0.45605433 0.49684423 0.79760695 -0.5054482 0.05322111 0.16365762 1.237989
entendi 0.08269203 0.40401244 -0.12907417 -0.04982086 -0.28419107 -0.016736494 0.58713627 -0.11741911 -0.053342704 0.11695594 0.20094685 -0.24892308 -0.253511 0.3239753 -0.50012374 -0.40676603 0.17109528 -0.86345226 -0.14571272 0.70951796 0.23324189 0.60519344 0.15860207 -0.0056589767 -0.009697856 0.5629839 -0.3372373 -0.031523958 0.321491 0.92182416
cambie 0.1615815 0.3717337 -0.1998111 -0.035323888 -0.18160833 -0.41161418 0.20796855 -0.0772618 0.048589934 0.0068287416 0.033052396 -0.26621616 0.066657744 -0.13368735 -0.13090265 -0.2805013 0.38721532 -1.1211176 -0.31726626 0.43603736 0.34229338 0.47453776 0.0856703 0.2404279 0.19647935 0.3993542 -0.28312296 0.07752994 0.13939106 0.701601
sucede 0.028169094 0.64671487 -0.4251048 -0.1765395 -0.069126286 -0.40637016 -0.0028675504 0.048042323 0.11373636 0.3065941 0.15790604 -0.20032586 0.16275255 -0.12208626 -0.07310641 -0.38722995 0.014767353 -1.0113132 -0.40103552 0.3860289 0.11171759 0.32775894 0.36574346 0.065436564 0.0892582 0.6505415 -0.18811025 0.010248038 0.26109165 0.53672767
entiendes 0.20182899 0.4348161 -0.35641867 -0.18912041 -0.32878307 -0.19515963 0.011226174 -0.059230015 0.19203095 0.25771722 0.23302872 -0.485258 -0.12739722 -0.17716984 -0.18474047 -0.08808891 0.20622127 -0.8369548 -0.19908899 0.3565165 0.16440694 0.5212996 0.2676296 0.35802272 0.32599518 0.582482 -0.2331455 0.1752405 0.047256358 1.0442349
disculpe -0.07132344 0.39388302 -0.36834973 -0.26208156 -0.4201451 -0.23554207 0.24217285 -0.60365576 0.07128338 -0.014378809 0.39140847 -0.28190136 0.293274 -0.13470447 -0.33031926 -0.5523988 0.033902235 -0.93479824 -0.19011998 0.49909475 0.31422082 0.25894794 0.48912472 -0.04205343 0.27064955 0.80904734 -0.30467847 0.19884105 0.28838032 0.80378544
listos 0.2307721 0.52488554 -0.320431 -0.027798891 -0.35335973 -0.3859506 0.26647583 0.13371262 0.013467096 0.22291663 0.17002635 -0.26397926 0.40704614 -0.1971208 -0.16825102 -0.29085588 0.1597164 -0.9895247 -0.480724 0.5462173 0.20274118 0.33570638 0.2872798 0.22944164 0.37748557 0.29813147 -0.3706278 0.18874696 0.09835827 0.6171315
interes -0.11964613 0.1814512 -0.41452593 -0.09775514 -0.17873302 -0.0771523 0.15766105 0.38376233 -0.17777556 0.31655523 0.5674653 0.073476315 0.3120138 -0.24991648 0.34526277 -0.42587084 0.42446283 -1.2392657 -0.44969618 0.46406427 0.29851174 0.5164851 0.59096587 0.1512909 0.0108780125 0.40819848 -0.3424604 0.4021795 0.14775336 0.4489412
comunique 0.023897458 0.65590304 -0.067626745 -0.06817793 -0.10347301 -0.69972694 -0.03315532 0.096836336 -0.1782454 0.024379915 0.07294656 -0.44501036 0.36902487 -0.18794595 -0.08601866 -0.058428507 0.15415555 -1.4528815 -0.6299521 0.7190525 0.30855379 0.15844525 0.33718398 0.11415924 -0.18338148 0.1701683 -0.019277431 0.048032757 0.55780977 0.40155396
necesitaba -0.1885895 0.50610965 -0.26684606 -0.14190592 -0.36765203 -0.027565707 0.13823868 -0.38446817 0.20406188 -0.06529338 0.18954335 -0.17941418 -0.055828433 0.17532752 -0.09057902 -0.2434411 0.23506741 -1.0640384 -0.11341715 0.4556219 0.09155085 0.48546633 0.10517388 0.056603044 0.3076386 1.1690847 0.039378267 -0.40934035 -0.22028773 0.9275108
regalar 0.021869678 0.5366305 -0.13917376 -0.20345937 -0.11572319 -0.46375218 0.17478107 -0.01986003 -0.15298384 -0.2128326 0.17777179 -0.2852819 0.29723474 -0.009187758 0.043471772 -0.42903936 0.3705439 -1.2741443 -0.324357 0.6479562 0.19403218 0.37088868 -0.18193702 0.14588794 -0.08387116 0.40417945 -0.2173724 -0.15711601 0.36711642 0.51438993
vacuna 0.1365821 0.22774562 -0.5818798 0.311434 -0.8238036 0.6273498 0.38309172 -0.11902802 0.07778895 0.6548599 0.57106394 0.36934015 -0.607579 -0.034054864 -1.0296626 -1.0243493 0.57101566 -0.87178206 -0.5781423 -0.2654057 0.27625018 0.64413184 0.76375574 0.48911187 0.50262856 0.9114243 -0.63021505 0.38718617 -0.6316702 1.0013354
vuelvo 0.12785015 0.31320626 -0.167453 -0.05763092 -0.032624535 -0.07141548 0.17626038 -0.018943217 0.031551167 0.12484757 0.06822158 -0.23993567 -0.017063027 0.06798296 -0.38478267 -0.42748687 0.6796038 -1.2736788 -0.3522709 0.37582418 0.31148317 0.5998713 -0.15436333 0.25538486 0.12672332 0.33460394 -0.30599442 -0.0177822 0.1112447 0.69115597
irse 0.4274147 0.11193808 -0.21100083 0.008610949 -0.16774504 0.0954613 0.30641383 0.31300366 -0.122495495 0.1166144 0.28822067 -0.051789746 -0.079762004 0.11318549 -0.33369145 -0.54452574 0.24345414 -1.2125014 -0.5539048 0.30406263 0.27595153 0.4633747 0.28805634 0.47440794 0.15145102 0.45827207 -0.3349148 0.1563361 -0.011199288 0.6287123
perdio -0.02986697 0.67985433 -0.17365037 -0.13232991 -0.32620397 -0.35214406 0.25066358 -0.1065468 0.008906628 0.35399902 -0.04969937 -0.049983546 0.06566865 -0.14555852 -0.25671282 -0.4124685 0.24273504 -0.97351426 -0.6245284 0.37377644 0.05383045 0.1686212 0.19834699 0.29145965 0.25284907 0.91707027 -0.1171917 -0.03678743 -0.07564913 0.53812414
