1327 30
pagar -0.17172565 0.13372241 -1.2280458 0.7941566 1.8863204 0.909338 -0.19622035 0.24185671 0.41989776 -0.3047715 -0.29362366 0.25995207 -0.20633605 0.5149642 -1.0347328 1.2780372 -0.747164 0.5082316 -0.06987034 -0.71140516 -0.102739766 -0.3558402 1.6378406 -0.2611938 -0.5463099 -0.18360154 -0.08785218 -0.87324065 0.29997477 0.9082344
afiliacion 0.115863435 -0.39064184 0.2556353 0.9367561 0.13241622 0.522894 0.013883328 0.104632854 -0.27210847 0.056634255 -0.5434408 -0.35289356 0.6679719 0.22169815 -1.0066507 1.7995515 -1.0310974 0.031182993 -0.042067893 -0.16508558 -0.09129686 -0.40696856 0.13803434 0.73406106 0.220181 1.0884246 -0.97656554 -0.27324808 0.07999113 0.80797297
cita -0.35363704 -0.69370246 -0.36722654 0.3406815 -0.41004243 -0.46049026 -0.6022366 0.8336727 1.3727242 -0.23705566 0.15362519 -0.35147867 -1.4617475 -1.5689852 0.9265253 0.53954464 1.0673879 -0.96526223 0.33826664 0.74898934 -0.18080583 0.15982932 -0.062445637 -0.0073648407 1.3035682 0.5945778 -1.3563408 0.06903859 0.53804266 0.31394553
oficina 0.59914887 -0.55276394 -0.32939124 0.72786915 -1.1226451 -0.3238975 -0.61880934 0.13997653 0.3851209 0.2663151 -1.0143622 0.14856209 0.20315744 0.35399476 0.13001032 0.8489312 -0.68085617 0.32917637 1.2907696 -0.44658905 -0.25217536 -0.8170109 1.2379203 1.2699699 0.115518555 1.5707911 -0.27356336 0.20372331 -0.45985758 -0.5201943
orden -0.3196199 -0.6080365 -0.26011273 0.1681375 -0.7672437 -1.2140586 -0.7994506 0.52551943 0.8949707 -1.1025223 0.040501554 0.34906837 -1.5902646 -1.2020409 0.42220014 0.36186427 1.6417978 -0.57935584 1.6683943 1.1082554 -1.0441797 -0.15083544 1.5328989 -0.14624533 1.1533995 0.5245545 -0.6817318 -0.49782926 0.63593966 -0.6942167
informacion -0.012268804 -0.53513 -0.3472592 0.41415387 -0.32167563 0.13808551 0.12826538 0.39851835 0.4305803 -0.33200553 -0.22458306 0.09311235 0.48274755 0.27528623 -0.43234232 1.0618072 -0.4169537 0.05625991 0.40939978 0.26239967 -0.24989487 0.037304286 0.86917824 0.14320232 0.3041885 0.4589813 -0.36530492 -0.25965083 0.1433104 0.51845795
independiente -0.00531011 -0.19353504 0.13765831 1.0582306 0.9421439 0.8338466 -0.10179428 0.008972017 -0.38604274 0.11451327 -0.41655114 -0.5240657 0.87159246 0.37534407 -1.6718135 2.1610813 -1.0178406 -0.09474875 -0.40857217 -0.3167843 0.3503297 -0.30680814 0.079808675 0.7577153 0.19717465 0.9667656 -1.2542529 -0.6616173 0.3148674 1.0108627
afiliado_a -0.28326055 0.0517087 0.17598286 1.1351537 0.45051554 0.5093292 -0.21351807 0.32144615 -0.21377675 0.25250405 -0.24135478 -0.2099887 0.24679157 -0.2629676 -0.9619604 1.7712266 -1.0572824 -0.07469144 0.20400326 -0.45398927 0.23221955 -0.51609695 -0.058456406 0.43389332 0.16964668 0.92753917 -0.9353129 -0.22275746 0.40826362 0.8406429
incapacidad -0.43882445 -0.88233006 -0.5683939 0.30182597 -0.07070893 0.4148243 -0.98725384 0.95366323 0.70658755 -1.0529023 -0.12649812 1.3825673 0.28223163 1.194628 -0.5431731 1.058804 -0.5260621 0.6241801 0.69622266 0.1786467 0.012036256 0.16750434 2.0874329 -0.12212007 -1.0771219 1.3488836 1.0896274 -0.56785244 0.012775 -0.116300814
autorizacion -0.53403586 -0.6643017 -0.37401795 -0.07853873 -0.018564949 -1.1622248 -0.8046472 0.97436386 1.33294 -0.34849355 0.6319443 0.32845837 -1.5371096 -1.0885035 1.2958283 0.26559982 0.8243587 -0.3508449 0.80261195 1.2836109 -0.87779766 -0.10564464 1.4776385 -0.0047601336 1.1974252 -0.17593609 -0.47829378 -0.38720217 1.1081508 0.2579174
virtual 0.6193053 -0.5364227 -0.3342291 0.6108201 -1.1131228 -0.37689298 -0.6959232 0.25598696 0.45513186 0.17261042 -0.98502374 0.18037222 -0.097439975 0.24206765 0.32055113 0.7307116 -0.530069 0.19479527 1.2671963 -0.43605867 -0.39622965 -0.6479267 1.4623094 1.4375278 0.22095451 1.5176225 -0.34324265 0.42699155 -0.2905111 -0.59960073
telefono -0.010785378 -0.5991494 -0.25460282 0.33760065 -0.16701189 0.14221367 0.4163074 0.7427288 0.32261428 -0.21119429 -0.35213566 -0.13309555 -0.0030887078 -0.35434237 0.25151604 0.55815524 -0.38859975 -0.5063537 0.0039191367 0.13546321 -0.41897282 -0.54606926 0.09834428 -0.002708529 0.5002478 0.9447455 -1.197857 0.14492238 0.4815984 1.0601459
proceso 0.03880826 -0.5168677 -0.005131707 0.4956089 -0.13244888 0.31517985 -0.13462013 0.15001626 0.1419105 -0.08502173 -0.33806857 -0.06755092 0.3024471 0.38238406 -0.60425514 1.1175039 -0.26217237 0.15802313 0.45024684 0.068593636 -0.30944684 -0.2960145 0.8611359 0.5830012 0.42492056 0.8855849 -0.050480578 -0.38347396 0.049030993 0.42428613
mandaron -0.10319944 -0.69516766 -0.68821543 -0.11039546 -0.3625185 -0.8959388 -0.7333838 0.6139557 1.4256703 -0.22212231 0.5481244 -0.08669922 -1.400331 -1.1560748 0.7610386 -0.022066273 1.3061115 -0.5316084 1.0388334 0.9818012 -0.64667976 -0.489133 1.3131387 -0.1594791 1.2708254 0.22241788 -0.9615702 -0.3087703 0.90558535 0.016403792
consulta -0.85452044 -0.36744878 0.16174623 0.3017479 -0.11782714 -0.62307554 -1.0045673 0.7400967 1.2113049 -0.10827277 0.115473345 -0.3787054 -0.8363437 -1.0155227 0.6552014 0.9251662 0.7541309 -0.22679593 1.0269665 0.7391748 -0.9318944 0.3327749 0.60727865 0.29854104 0.87599105 0.6231823 -0.25743273 -0.47501925 0.7963344 -0.43290773
pedir -0.39959645 -0.85013777 -0.33388868 0.4058549 -0.3418529 -0.5566446 -0.71674836 0.5145987 1.1896452 -0.41585866 0.0047223484 -0.08772516 -1.3403745 -0.9835435 0.83936584 0.5294999 0.71774894 -0.72118425 0.23236509 0.6591774 -0.33079585 0.14199679 0.25377968 0.024774443 1.2318146 0.43403834 -0.88031274 0.02742338 0.22005282 0.05902613
problema -0.19637391 -0.055760007 -0.4051908 0.4042498 0.5089323 -0.03186608 -0.4594599 0.19236703 0.41150182 -0.17147006 0.014672598 0.06903563 -0.48423845 -0.25912818 -0.19278358 0.91610336 0.06668818 -0.13303182 0.19798782 0.03322951 -0.17894539 -0.21698122 0.7426207 -0.022790588 0.1996799 0.40798917 -0.6056471 -0.4268351 0.33023447 0.45142815
formulario 0.38582423 -0.43764392 0.0284132 0.8419135 -0.27184543 0.4527386 0.12835273 -0.17342712 -0.20425843 -0.4014433 -0.8599791 -0.35609317 1.2367258 0.13046084 -1.3259989 1.6966804 -0.7248468 0.16428465 0.53408307 -0.14955793 -0.3967729 -0.42051306 0.6764345 0.47575065 0.39841953 1.3071445 -0.32496497 -0.60530716 -0.54090846 0.4389876
enviar -0.27823856 -0.40755898 -0.68969285 0.06245641 -0.44414702 -0.02635583 -0.16645716 0.4476039 0.40647006 -0.5723643 -0.11930179 0.7436484 0.58592534 -0.020310106 -0.58216447 1.0353316 -0.31655523 -0.1041172 0.31248018 0.165941 -0.24816632 -0.09646916 1.2104602 -0.12020226 0.18898194 0.78086954 0.15112533 -0.1384138 -0.17069831 0.3829506
ciudad -0.017894942 -0.37531468 -0.19786109 0.5268056 0.14301616 0.231246 0.13208514 0.08592296 0.040168688 -0.06922163 -0.34078452 -0.15124634 0.41171396 -0.036449295 -0.72528505 1.2903715 -0.47309878 -0.0038957768 0.19102888 -0.03258249 -0.041330207 -0.35067222 0.5562816 0.24226442 0.52765554 0.62891877 -0.632601 -0.21332188 0.10298325 0.74029475
llamar -0.29295722 -0.6020086 -0.4238105 0.211506 -0.11635755 -0.41485143 -0.4758795 0.5063189 0.7276413 -0.46004343 -0.017272687 0.17227621 -0.7525762 -0.5912388 0.37642688 0.5202509 0.24021617 -0.6010803 0.22823995 0.38901696 -0.07460594 -0.22494657 0.5792084 -0.16290835 0.6159973 0.32711837 -0.85061693 -0.1978571 0.3262351 0.35600477
momentico -0.21506889 -0.23947115 -0.08516979 0.74604887 0.049064107 0.18732786 -0.23054892 0.3179846 0.25001025 0.06796975 -0.08105093 -0.13207975 0.013544166 -0.13409711 -0.35416412 1.0438232 -0.2092535 -0.11861098 0.20873083 -0.1125194 -0.13750668 -0.38370237 0.047725227 0.051642984 0.92372936 0.5630583 -0.7314464 -0.16744964 0.2640508 0.88652956
pasado -0.034803845 -0.30324903 -0.26516017 0.25883898 0.48073167 0.46042976 -0.41161388 0.23239176 0.14006144 -0.43295327 -0.27206582 0.3742555 -0.21219888 0.22627929 -0.7647559 0.9316087 -0.04718963 -0.03226053 0.21424997 -0.07693649 0.036936264 -0.4093109 1.2605102 -0.26825628 -0.08374677 0.58788294 -0.19873321 -0.3344104 0.086690694 0.65362674
volver -0.026250105 -0.33937752 -0.12656654 0.6571781 0.62772375 0.23633218 -0.535153 0.2840789 0.12553571 -0.0005581309 0.110473596 -0.2065536 -0.25285557 -0.29089507 -0.82462335 1.0263519 -0.3285826 0.0820573 0.023772094 0.010923112 0.15477686 -0.38016814 0.5868278 0.1524829 0.22686997 0.3693602 -0.61455655 -0.47488028 0.23107031 0.40763554
empleado 0.2138613 -0.4766287 -0.28577057 0.7027029 -0.052554883 0.47269133 -0.13810743 0.25194263 -0.19428962 -0.36667082 -0.9850411 0.5158246 0.7464406 0.94845384 -0.94819146 1.5210729 -1.0347617 0.67595524 0.08512766 -0.19052671 0.11820941 -0.540916 1.278907 0.46575007 -0.07825307 1.2465605 -0.1696884 -0.40930963 -0.12572712 0.43855518
hablar -0.08088577 -0.36540863 -0.33322835 0.40314186 0.30206192 0.11621558 -0.1124967 0.23075424 0.3188516 -0.22036771 -0.26284552 0.058917526 0.12249654 0.047472365 -0.45925528 1.2350179 -0.3768542 -0.05245345 0.39173073 -0.094370194 -0.11152644 -0.116684355 0.82846415 0.1660705 0.19629121 0.42595112 -0.46340442 -0.09154816 0.06427818 0.69376427
usuario 0.07332088 -0.77829456 -0.095215455 0.3603591 -0.53891164 -0.24608178 -0.2646244 -0.14172933 0.61411387 0.040271245 -0.67099875 -0.026784495 0.27038035 0.2662181 0.007864555 0.970307 -0.28150958 0.33474904 1.034513 -0.21935326 -0.19361804 -0.30868074 1.0607173 0.98574406 0.22120002 0.92377627 -0.1700566 -0.047326714 -0.104413494 0.19961138
asesor 0.18058996 -0.6134524 -0.027560122 0.79551363 -0.110576615 0.46406966 0.25004563 0.08227446 0.032107513 0.0038257316 -0.84426624 -0.0328714 0.91386455 0.03319594 -0.75961643 1.2335268 -0.8620868 -0.17782976 0.030948725 -0.26628757 -0.031245185 -0.48460668 0.33427146 0.30601576 0.34133124 0.94644994 -1.0975921 -0.33230326 0.01766421 0.80646497
pueda -0.24463546 -0.52360684 -0.17081998 0.28178358 -0.00021892425 -0.1806234 -0.30885306 0.4375748 0.26828873 -0.2283327 -0.2088267 0.09723319 -0.077417254 -0.0718102 -0.24242839 0.73971564 -0.45359197 -0.01708367 0.020502497 0.20771606 -0.18365309 -0.161348 0.7727706 0.4071874 0.16330491 0.5901996 -0.8970076 -0.06903156 0.36768645 0.4847019
datos 0.1313548 -0.43624443 0.18395965 0.3413726 -0.39960417 0.12457445 -0.081669256 0.113618866 0.36471477 -0.2608532 -0.6803945 -0.27665532 0.06850732 0.01605539 -0.36342975 0.81380343 -0.5916545 0.17824073 0.48981303 0.06311286 -0.25513527 -0.24681786 0.6927921 0.40558812 0.64240575 0.73090994 -0.4833689 -0.26874563 0.22640736 0.7134378
personas 0.06736928 -0.39592436 -0.26152235 0.53200483 0.05621603 0.29134473 -0.030289698 0.19200674 0.37951612 -0.41893938 -0.24497406 -0.07665555 0.4500523 0.0017908338 -0.55301005 1.1372644 -0.40637064 -0.0048696483 0.49425206 -0.17113818 -0.23468114 -0.19399545 0.4598977 0.28322485 0.11724976 0.56450963 -0.4128696 -0.31735766 0.3871383 0.7601635
planilla 0.5597754 -0.12366481 -0.8315377 0.5757873 1.2162338 1.0457265 0.05064898 0.18005228 0.13040422 -0.6957318 -0.78797686 0.41157326 0.33991042 1.0663196 -1.4372563 1.6771048 -0.7713577 0.28172535 0.06286277 -0.5569856 0.105197325 -0.46529803 1.2581586 -0.46472287 -0.6946912 0.74052507 -0.020306533 -0.9481031 -0.0816629 1.1484882
venga -0.25871682 -0.43443087 -0.34574565 0.37336713 -0.103526406 -0.2645024 -0.21000102 0.3552788 0.70784515 -0.30582193 -0.20346215 0.16059594 -0.36781433 -0.30611268 -0.3089083 0.5229224 0.42746365 -0.2018747 0.17193055 0.35154545 -0.24073176 -0.13995361 0.87398374 -0.028327804 0.6018919 0.38252276 -0.5738396 -0.20159543 0.14005348 0.24249485
digame -0.40826988 -0.38937604 -0.33865803 0.37681627 0.13029239 -0.23766445 -0.22066276 -0.047882784 0.61401176 -0.06610115 0.030521693 0.051103715 -0.18614274 -0.8881121 0.046158146 0.802085 0.22938392 -0.33243844 0.08512761 0.2365961 -0.2547791 -0.29388005 0.47125185 -0.31776682 0.772867 0.15849057 -1.0444769 -0.16940366 0.37086925 0.49389783
numeros -0.22310202 -0.673852 -0.16468346 0.11686771 -0.11220142 -0.11381208 -0.18699248 0.5771556 0.41674677 -0.40020105 -0.4991334 0.16345702 -0.18999027 -0.1900306 0.13601409 0.5941129 -0.32792464 -0.1939278 -0.039869864 0.04419147 -0.3310875 -0.49619055 0.40457958 -0.19637081 0.5438707 0.6560672 -1.1186005 0.14166088 0.33689544 0.5179732
haciendo -0.015723553 -0.39828435 -0.25173166 0.39841998 0.15132982 0.16537277 -0.19456348 0.14360332 0.26983392 -0.25532043 -0.6336115 0.30487958 0.025345668 -0.05653253 -0.18410635 0.97445494 -0.10745064 -0.06561447 0.25732446 0.136025 -0.23888755 -0.4057035 0.7325711 0.17854132 0.12501448 0.7366578 -0.59653556 -0.08694857 -0.12950705 0.3384291
podido -0.05549386 -0.6141888 -0.16399473 0.31977576 -0.16063252 0.30884692 -0.37240055 0.4423968 0.5396522 -0.33470425 -0.36960086 -0.04168701 0.0023696348 0.004908637 -0.020822372 0.7098565 -0.3546179 -0.24019597 0.34612992 0.09064236 -0.16489324 -0.24171138 0.32383645 0.29325318 0.3763973 0.8757407 -0.41364616 0.020640556 0.36551327 0.2763198
ayudar -0.04615086 -0.42936805 -0.10217096 0.40793267 0.13358721 0.23290657 -0.042581376 0.27754846 0.26707625 -0.5887493 -0.5794177 -0.11603107 0.20179535 0.3612147 -0.21727265 1.2778753 -0.70510733 0.030740311 0.08451427 0.13348584 -0.18047014 -0.17840667 0.5042191 0.013473395 0.103228636 0.605218 -0.3904124 -0.27366465 0.33365276 0.9383889
control -0.4013629 -0.7562911 -0.750019 0.23555098 -0.23744462 -0.476423 -1.1070791 0.70555246 1.9550494 0.041109305 0.853073 -0.42906588 -1.2939674 -1.2089962 0.3713765 0.10361442 1.5800277 -0.7874342 0.7675793 0.78440607 -0.8032448 0.4534879 0.8094273 0.031244261 1.526508 0.41552442 -0.3795302 -0.48075858 0.84302515 -0.34808037
necesita -0.13672079 -0.625749 -0.014413035 0.16171134 0.06874013 0.24932389 -0.3574155 0.30042258 0.4795575 -0.02178962 -0.102618515 -0.3258433 -0.094943315 -0.2897576 0.08673335 0.9957661 0.024034267 -0.30949363 0.5579042 0.22613926 -0.25665554 -0.15146525 0.38951313 0.36552626 0.68698865 0.28329384 -0.54065263 -0.07283407 0.34259847 0.53394264
llevo -0.42179102 -0.45526803 -0.2513958 0.2684247 0.24657209 0.14138466 -0.43280265 0.5095705 0.43527016 -0.13242 -0.17106552 -0.041243803 -0.30264148 -0.5068871 -0.022462461 0.8301955 -0.006386809 -0.28983757 0.27748206 0.37335998 -0.050185606 -0.31938007 0.34632134 0.14150934 0.34143552 0.5237423 -0.6721893 -0.0412625 0.35807908 0.4487193
atender -0.34673598 -0.52515703 -0.37177652 0.4851505 0.242055 0.50726575 -0.23296705 0.26804146 0.78464115 0.13813262 0.06852139 -0.42032483 -0.5679083 -1.2178338 -0.17618184 0.93127686 0.66467243 -0.5885293 0.1378748 0.31335607 0.13479643 -0.022974716 -0.21276124 0.25037816 0.36082083 0.5351324 -0.6401136 -0.080354854 0.764358 0.627952
certificado -0.069480084 -0.49342915 -0.019732913 0.53059113 0.22265656 0.28443316 -0.29049957 0.086681694 -0.026335353 0.07248606 -0.5071235 0.04667792 0.29855186 0.45290428 -0.7425135 1.634547 -0.7090897 0.5262697 0.18197033 -0.34060863 0.16080254 -0.56615835 0.8447347 0.60872376 0.15458825 0.5728874 -0.32110026 -0.017354975 0.29567087 0.5111746
pagando -0.4357093 0.2360351 -0.58103037 1.2108669 1.7468958 0.8386247 -0.6838274 0.18745235 0.3311412 0.026208315 0.09518493 0.074777104 0.002006779 0.14218837 -1.2921848 1.425398 -0.9041693 -0.236518 0.06484361 -0.4733231 0.14813048 -0.010465048 0.7164175 0.4200931 -0.24976054 0.37617278 -0.57818663 -0.4958381 0.036601696 0.34421793
celular -0.062373742 -0.36077672 -0.3771784 0.23081094 -0.019362263 -0.15388773 -0.04530578 0.55982476 0.34018704 -0.2568159 -0.3427462 -0.026293844 -0.06443596 -0.35190153 -0.16714928 0.51071614 0.07782442 -0.11975499 0.24851184 0.0749144 -0.30348822 -0.3916114 0.71436495 0.14639172 0.7108549 0.40499723 -0.91160506 -0.042694647 -0.008455004 0.48414212
tramite 0.0071009737 -0.43469384 -0.38832942 0.93494606 0.06050738 0.4107483 -0.20711298 0.2924023 0.15457033 -0.091655776 -0.31646645 -0.12599301 0.2059262 0.35216752 -0.6481368 1.052938 -0.65136313 0.100114934 0.16714807 -0.15703507 -0.012840715 -0.37845078 0.623406 0.599183 0.12114531 1.0635606 -0.27501166 -0.34700918 0.107018106 0.35677257
radicar 0.08618983 -0.73138255 -0.24205366 0.22323243 -0.5821197 -0.12682681 -0.5313691 0.48699987 0.62513953 -0.7467113 -0.2751841 0.6451395 -0.019155912 0.20051043 -0.063085675 0.6777251 0.06914578 0.2966101 1.1224159 0.63715297 -0.5496508 -0.11557163 1.5429249 0.095681414 -0.31682548 0.8407095 0.506983 -0.30006668 0.10095314 -0.10110092
seguir -0.2690111 -0.050627626 -0.31769118 0.77254874 0.7891563 0.4613197 -0.33154452 0.27308136 0.13682102 0.014172823 0.07383849 0.0008151423 0.016979786 -0.32585403 -0.9118245 1.2455931 -0.35634583 -0.31041843 -0.023799272 -0.049533803 0.01983634 -0.186919 0.4302181 -0.012291019 0.1650831 0.4859625 -0.611545 -0.30969322 -0.010529278 0.59388715
contrasena 0.53717434 -0.8119097 -0.26171613 0.37156644 -0.7894487 -0.98727846 -0.5881156 0.03406314 0.75841594 -0.09465756 -1.1973342 -0.22119617 0.24195886 0.8163538 -0.05627264 0.8072513 -0.69918674 1.1264882 1.5291948 -0.6637308 -0.29866603 -0.81818944 1.8625914 1.7650491 0.5347516 0.94602823 0.1282797 -0.18044387 -0.25416005 -0.11779616
envio -0.09299844 -0.608158 -0.45979273 0.34823048 -0.23609518 -0.092384964 -0.40727744 0.23612703 0.43666545 -0.36890033 -0.41964632 0.21309777 0.2103326 -0.33498925 -0.19793345 0.690983 0.17154415 -0.24674849 0.5156875 0.14052157 -0.27045992 -0.24260147 0.78456557 0.16619481 0.36766455 1.029963 -0.11121758 -0.21814747 0.13843505 -0.04950718
registrar 0.28692675 -0.8307716 -0.114090785 0.61788756 -0.42179865 0.11916111 -0.25883088 0.09554388 0.42938265 -0.13262367 -0.9223382 -0.027512895 0.4436892 0.29887602 -0.24071743 1.188984 -0.8783292 0.2672035 0.45937958 -0.27400386 0.04148361 -0.39926454 0.6466473 0.87298477 0.27905735 0.90144473 -0.40372434 0.047392804 -0.16398285 0.16317692
llega -0.18918495 -0.2668155 -1.0201272 0.22887243 0.44518697 -0.071422264 -0.15290967 0.36344922 0.66478056 -0.39558345 -0.15489273 0.8819658 -0.15016049 0.0951813 -0.047875155 0.80889237 0.37921232 0.005019036 0.022097036 0.17563961 -0.028395666 -0.396516 1.2777224 -0.6496873 0.4495802 0.097703926 -0.26266563 -0.12391206 0.06806947 0.4214521
hacerlo 0.14272146 -0.34012076 -0.20503463 0.56006306 -0.0023884869 0.021494737 -0.35780013 0.2871863 0.23037428 -0.15750667 -0.40784475 -0.06774735 -0.018251946 -0.16464883 -0.32468012 0.92034256 -0.40889177 0.095957614 0.55108637 -0.074528635 -0.08188466 -0.38216692 0.507128 0.26032454 0.30137324 0.69039065 -0.59345704 -0.3025217 0.10240822 0.22267635
examenes -0.48469445 -0.70774835 -0.5578303 0.026153315 -0.1764918 -0.6800134 -0.684315 0.7362472 1.503351 -0.50701946 0.3352663 -0.193588 -1.7306657 -1.6596075 0.8810139 -0.03046921 1.3417196 -0.924513 1.1788933 1.1429557 -1.221398 -0.34940523 0.9407302 0.1935125 1.3286654 0.32055575 -0.9598313 -0.5239938 1.0937816 -0.1889337
registro 0.06019521 -0.5395597 -0.053930946 0.72490126 -0.15275364 0.01898504 -0.1431303 0.2370764 0.5113332 0.14547744 -0.7654586 -0.02856598 0.35606816 0.37612572 -0.3239405 1.1561311 -0.556804 0.16066644 0.24444292 -0.30204388 0.03895887 -0.22971493 0.52066463 0.98501605 0.24193887 1.021982 -0.5713828 -0.104702 0.029575713 0.27943847
familiar -0.2758173 -0.14905746 0.15830402 0.8165052 0.44737893 0.99283594 0.17046107 0.19113943 0.49858776 0.15757178 0.11703391 -0.40023866 0.23934278 -0.40746257 -0.8462135 1.5669632 -0.67668897 -0.15540573 -0.11818608 -0.24444589 0.11171078 -0.01940546 -0.33570197 0.09505811 0.51295936 0.733337 -0.7998578 -0.3252432 1.0173517 0.9581128
mandar 0.14181721 -0.4213899 -0.3157867 0.26369834 -0.3034019 -0.30118454 -0.50186205 0.46006155 0.60669446 -0.48533353 0.25100955 0.25689834 -0.35184893 0.0038106206 -0.1730139 0.73168504 0.32245943 -0.0011881618 0.48675597 0.4376711 -0.16547316 -0.15136322 1.0444733 -0.14449361 0.3940584 0.5824219 -0.17607579 -0.09941284 0.20458326 0.1388612
dicho -0.51679033 -0.22803137 -0.5256029 0.37286448 0.5105112 0.060962174 -0.48984346 0.4068422 0.57423896 -0.29968774 -0.2181885 0.26754007 0.065212496 -0.2080766 -0.181525 0.9308634 -0.017011508 -0.23538326 0.21212865 -0.22387947 -0.02348659 -0.2607947 0.5610897 -0.07311961 0.16813709 0.4531663 -0.48232898 -0.45689556 0.32854617 0.5773635
social 0.120030575 -0.27575415 -0.035400458 0.6505601 0.28844175 0.53075475 -0.039453734 0.044184 0.12858358 -0.16830951 -0.52459645 -0.17860454 0.7066896 0.40478528 -0.99307007 1.5923539 -0.75896496 0.33044782 0.40793964 -0.40134454 -0.028745055 -0.2899325 0.67084235 0.6031746 0.15303569 0.9839977 -0.26738104 -0.27668864 -0.01364591 0.61673486
averiguar -0.23553371 -0.35116345 -0.22324194 0.3419872 0.1381742 0.1163514 -0.35479295 0.4633817 0.5849025 -0.2805125 0.074431784 0.061649345 -0.007798292 -0.306496 -0.027478853 1.0951676 -0.04802638 -0.25614354 0.16135989 0.2626477 -0.008674355 -0.11403214 0.47208303 -0.21015902 0.42606595 0.46543398 -0.08740925 -0.46014977 0.49474502 0.45377636
visto 0.009485037 -0.37448037 -0.28891224 0.28969884 -0.2966263 0.04909182 0.021771397 0.40901062 0.4922641 -0.24827476 -0.023455542 -0.013416053 -0.12345681 -0.16775927 -0.21007799 0.78704286 -0.18591428 0.10448846 0.33768848 0.151295 -0.09167702 -0.18056902 0.5226881 0.084624626 0.5828453 0.47575903 -0.6103515 -0.17907517 0.37475127 0.8414612
comunicar -0.13085403 -0.6718842 -0.3660505 0.24418484 0.13361822 0.15634236 -0.067657106 0.48799133 0.108047605 -0.46730116 -0.6359346 0.13724422 0.15932241 0.18095516 -0.45431235 1.0390677 -0.6033409 -0.064949065 -0.14023896 0.1058062 -0.1494019 -0.2266986 0.7472498 0.009714934 0.28655094 0.38418874 -0.6047851 -0.17846707 0.14793676 0.76734394
hicieron -0.22952932 -0.4443768 -0.68526775 0.26510388 0.39854196 0.062380917 -0.5622569 0.19916496 0.7029613 -0.25740796 0.14098786 -0.08119727 -0.6207929 0.034869544 -0.16440852 0.65747195 0.10152227 0.11889328 0.38363075 0.3067674 -0.4100491 0.066916466 1.0586998 0.02750627 0.032088198 0.33056167 -0.2940431 -0.4555608 0.59700716 0.13400768
cotizante -0.26373455 0.04536864 0.030960947 1.036975 0.4740384 0.6757707 -0.28144845 0.10489555 0.38133064 0.11642762 0.110733494 -0.156208 0.11436469 -0.16104816 -1.1809583 1.5965242 -0.8625574 -0.097103864 0.004100094 -0.4259033 0.09369023 -0.011856526 -0.1257544 0.4923942 0.28856528 0.8391495 -0.8391251 -0.29483306 0.08132654 0.64247155
ejemplo 0.06675512 -0.41124642 -0.44413564 0.44096252 0.3257445 -0.19879504 -0.3334009 0.59322023 0.40224382 -0.50359267 -0.15538295 -0.0812287 -0.1652005 -0.09046943 -0.27867138 0.6139599 0.05312146 0.14898753 0.33541125 0.2833736 -0.23922914 -0.15210855 0.9826661 0.17192458 0.43274444 0.25829935 -0.5140824 -0.1836664 0.23933363 0.07959722
envie -0.016699841 -0.39955068 -0.7542024 0.26771823 -0.17234623 -0.050499722 -0.37962013 0.30015245 0.36991283 -0.6006914 0.054872874 0.691647 0.55116624 -0.31476167 -0.39419073 0.87724245 -0.110254675 -0.07722512 0.26659796 0.27761146 -0.23740679 -0.18777885 1.5209879 -0.4914328 -0.045773797 0.78115124 0.039293423 -0.48426366 -0.22662057 0.10454263
esposa -0.22591166 -0.20094243 -0.22101888 0.65040874 0.13883874 0.33816582 -0.2783671 0.1974666 0.67545766 -0.1811288 0.2728881 -0.28714496 -0.04443901 -0.4067811 -0.4652726 0.8977063 -0.19018649 -0.24853243 0.18369433 0.028821647 -0.21269912 -0.0040784683 0.1964722 0.19074328 0.5105594 0.4733349 -0.7392061 -0.10677264 0.6758217 0.52414155
contrato -0.10948122 -0.47773507 0.19604291 0.50026506 1.1782464 0.7431894 0.018923644 0.31145373 -0.05376936 -0.06080428 0.033219773 -0.26942497 0.6464252 0.022466233 -1.6182693 1.6922699 -0.56014264 -0.28275135 0.036590893 -0.34563214 0.23587693 -0.3090931 0.49188757 0.37037957 0.3245588 0.5570429 -0.59740335 -0.54862696 0.32645315 0.573304
electronico -0.08698432 -0.76337856 -0.10437215 0.51489973 0.15309255 0.0056561776 -0.20916577 0.25301236 0.13099314 -0.19020195 -0.81490785 0.17698628 0.66052306 0.39053956 -0.49554172 1.1869664 -0.53523326 0.52099353 0.31827608 -0.18793699 -0.06450876 -0.37088713 0.8118599 0.55132675 0.12770759 0.8846082 -0.28614444 -0.22757068 0.014423051 0.37114
pendiente -0.3062924 -0.22352389 -0.47796315 0.11441032 0.21765612 -0.18550994 -0.7401215 0.6056519 0.66125333 -0.27218717 0.43072248 -0.015151143 -0.4602392 -0.30046758 0.11966354 0.76602405 0.19990917 -0.017738745 0.26309198 0.32565218 -0.38504326 -0.07185877 0.883268 -0.0041627097 0.48468173 0.11029812 -0.36445376 -0.7083978 0.66377836 0.13251075
medicamento 0.32892534 -1.3742515 -0.91070193 0.13610214 -0.06325781 -0.56442016 -0.4296177 0.8310214 1.0758983 -0.6024179 0.82971126 0.45464388 -1.2399567 -1.108391 -0.21926533 -0.1928813 1.1316301 -0.4880617 0.41409189 1.4342877 -0.595652 -0.38965273 2.2034922 -0.46130094 0.878994 -0.4099903 -0.9143048 -0.4264949 0.52909976 -0.6596746
opcion 0.10297841 -0.5440563 -0.49264428 0.4182327 -0.5534899 -0.046684433 -0.26327252 0.33353034 0.5811077 -0.2210095 -0.5601906 0.022783034 0.39760217 -0.16304007 -0.005986211 0.7167812 -0.5560276 -0.1154015 0.36969587 -0.06295612 -0.26926774 -0.46557745 0.65709674 0.22845972 0.2305955 0.75766355 -0.506436 -0.16382048 0.023151215 0.31771448
quieres 0.00035700647 -0.5157057 -0.41548797 0.46499565 0.059683952 -0.065902926 -0.32574213 0.26792994 0.3467755 -0.16407351 -0.5535763 -0.030966833 0.19480087 -0.28255868 -0.14013688 0.7475203 -0.10530738 -0.16891533 0.29351518 0.06633341 -0.24259911 -0.31357586 0.65493774 0.20799874 0.57060844 0.5392019 -0.3604527 -0.32018164 0.03054422 0.34816104
entidad 0.12596421 -0.5118038 -0.35150123 0.4785213 0.1729536 0.19401863 -0.24264 0.1667983 0.44148645 -0.31088018 -0.34576306 -0.14809878 -0.3218398 0.077455856 -0.2984802 0.7876774 -0.25161442 0.038816273 0.22245206 0.40971923 -0.4512005 0.12254704 0.62029266 0.118340954 0.55021447 0.5823243 -0.2614527 -0.2488494 0.5271092 0.39144462
internet -0.06219602 -0.53766656 0.113974825 0.47786412 -0.20292537 -0.1060563 -0.32949558 0.3404453 0.3170582 -0.18550107 -0.47458273 0.08736796 -0.05992361 -0.029500427 0.02297946 0.7529509 -0.22296879 -0.08991343 0.36368132 0.21418765 -0.3750859 -0.27529216 0.6177255 0.24130525 0.49629164 0.80869126 -0.6699589 0.0016156291 0.21410924 0.19481741
diciendo -0.14128748 -0.3427729 -0.43566474 0.5111665 0.41683435 0.26593208 0.18866119 0.60905224 0.5087534 -0.29722884 -0.15515037 0.12759638 -0.31349018 -0.07381292 -0.24687009 0.5750412 -0.072141595 -0.3241887 -0.011032751 -0.010066285 -0.09224843 -0.47247037 0.8555741 -0.34620872 0.6939459 0.24781393 -0.59376806 -0.41633344 0.21330996 0.7475821
escucho -0.15644494 -0.5343824 0.03381081 0.66218853 0.4536455 0.016222257 -0.21248384 0.22567521 0.55778044 0.36630553 -0.17415966 -0.15740283 -0.17489542 -0.048680387 -0.082162604 1.0240699 -0.28890696 0.13102876 0.2250535 0.052303217 -0.21113223 -0.06792597 0.33578718 0.3364819 0.61148584 0.08379514 -0.7380958 -0.24037622 0.56692237 0.8369526
llevar -0.3625377 -0.1766882 -0.07657377 0.5474078 0.112611055 -0.11150968 -0.22098178 0.00073430716 0.537538 -0.18208477 -0.123625 0.060915485 -0.45831493 -0.46426734 -0.30120364 0.82885677 0.3506053 -0.21620953 0.34820533 0.29725426 -0.49733073 0.045267157 0.44104356 0.42152765 0.66848296 0.5534078 -0.78573906 -0.158801 0.3573741 0.100889266
trabajador 0.19445054 -0.5697006 -0.22803515 0.7224193 -0.11265508 0.35589397 -0.14665362 0.16341539 -0.006733534 -0.4160537 -0.7365998 0.11947131 0.8548564 0.55017513 -0.7211451 1.6427042 -0.9468272 0.5289865 0.14648806 -0.2005352 0.01933842 -0.54954845 0.64601153 0.56582826 0.053023946 1.3357117 -0.16335416 -0.5223497 -0.0949317 0.4152225
mirar 0.02735995 -0.263072 -0.42475235 0.47480437 0.31679404 0.41443124 -0.4770903 0.2910631 0.4214764 -0.2032388 0.0029556835 0.11791089 -0.423109 -0.034363285 -0.099578485 0.8162596 -0.20172353 -0.2251467 0.21670473 0.25271013 -0.18593608 -0.015779885 0.6363719 0.13328618 0.5746906 0.695947 -0.31212032 -0.069244675 0.2743374 0.551475
ingresar 0.3829014 -0.602345 -0.34426188 0.42853186 -0.6134782 -0.33839527 -0.44359758 -0.044673704 0.5081778 -0.043860372 -0.5637323 -0.29355162 0.45377758 0.13559689 -0.17299578 0.7903138 -0.57576233 0.6151858 1.0308303 -0.12927575 -0.21005704 -0.71844125 1.2551882 1.139289 0.23619632 0.8135231 -0.063535534 -0.005136161 -0.1492277 0.22864787
medicamentos 0.66580546 -1.3653088 -0.7287073 0.20611873 -0.18678555 -0.7313623 -0.39173323 0.31115797 1.007338 -0.9813731 0.5574107 0.29004052 -1.1793157 -0.71331 -0.3544968 -0.24210227 1.0763257 -0.19578873 0.7093219 1.2748324 -0.556566 0.03793764 2.4357164 -0.044007823 1.1145701 -0.22017702 -1.1282096 -0.32723328 0.187981 -0.61071086
comunicarme -0.2339349 -0.5459127 -0.35220706 0.2641129 0.3984151 0.4058947 -0.41978002 0.63448566 0.35333222 -0.6956899 -0.50161654 0.5587408 0.25443897 0.44196108 -0.14353542 1.0587299 -0.93263566 -0.09630102 0.1334619 -0.2887273 0.013022786 -0.5012586 0.77457815 -0.48632988 -0.2243182 0.5075963 -0.5939571 -0.13139321 0.21719912 0.7674124
cartera -0.25285494 -0.54452705 -0.7918347 0.03337478 0.4636348 0.2739488 0.15952802 0.7212902 0.33558556 -0.91621935 -0.5158934 0.9013065 0.5132844 0.717556 -0.4377147 1.298951 -1.096202 0.18664618 0.20262595 -0.35093313 0.00015419419 -0.5224656 1.4885745 -0.5693999 -0.39423335 0.18063432 -0.20418577 -0.27969727 -0.1784991 1.348199
contestan -0.11055018 -0.40583286 -0.5965852 -0.010804531 -0.120545164 0.12086752 0.27665114 0.9068826 0.21636784 -0.6257226 -0.31489885 0.520865 0.14363053 0.3636043 -0.11960264 0.6855365 -0.88432825 -0.40854552 -0.15044898 -0.16759603 -0.28046802 -0.7927085 0.8864311 -0.65191394 0.31254736 0.6859987 -1.0463202 0.07185924 0.14200072 1.2455877
unico -0.44804466 -0.48467103 -0.5741791 0.20951477 0.19710259 0.3225987 -0.57527846 0.63008946 0.55787873 -0.341724 -0.30651936 0.19210228 0.40024692 -0.0774845 -0.028764341 0.7586336 -0.39216855 -0.0930251 0.28531566 0.06717641 -0.010200022 -0.294403 0.6000038 -0.050163448 -0.12098589 0.6721684 -0.18560039 -0.28373086 0.41939652 0.45972946
mandan 0.16821064 -0.6990427 -0.5177306 0.29474077 -0.41232815 -0.27724898 -0.5947137 0.31660956 0.8304155 -0.22700727 0.044665985 0.009703185 -0.94312465 -0.81596476 0.24894467 0.34359565 0.8816518 -0.42319193 0.43575126 0.64932 -0.17554992 -0.24336453 0.99229217 -0.042040847 0.8300709 0.5176649 -0.7007308 -0.08136726 0.38789076 -0.0496749
pension -0.32687342 -0.054212764 -0.47608498 1.1116267 1.4124856 0.69723886 -0.78990066 0.40724653 0.60899055 -0.42057377 0.42918345 -0.13719255 -0.099945106 0.2011704 -0.85722435 1.1407074 -0.633377 -0.04546037 0.12833144 -0.22255355 0.012093033 0.29678032 0.70156443 0.43758127 -0.35940865 0.66223294 -0.2872391 -0.47960225 0.21741916 -0.04288439
comun -0.090473875 -0.29574677 -0.19141228 0.40473664 0.33280358 0.053714 -0.39526343 0.37109303 0.40017495 -0.16936661 -0.0014451748 0.0146306455 -0.05243924 -0.13132966 -0.4219308 0.9900257 0.10307882 -0.10335774 0.01350974 0.11273005 0.04782413 -0.08600344 0.708691 -0.17912361 0.3275503 0.48071158 -0.6283421 -0.45336363 0.3753903 0.5363805
correos 0.0975442 -0.19664192 -1.0942895 0.083343714 0.06646614 -0.29800233 -0.2644527 0.563023 0.25544995 -0.66182774 -0.25083083 0.8427404 0.050275043 -0.040487844 -0.23653284 0.9299096 -0.2901962 -0.095986426 0.3425037 -0.11768808 -0.059755556 -0.3909706 1.7198777 -0.4815771 0.011145711 0.555115 -0.014031677 -0.28071535 -0.42603323 0.51616013
pregunto -0.001423487 -0.52897596 -0.33470523 0.6300524 -0.05536152 0.39162338 -0.17741811 0.081968956 0.3043174 -0.38866156 -0.60221297 -0.08731324 0.34735754 -0.020302178 -0.38008338 1.1708019 -0.49134082 -0.116925284 0.24415572 0.064613536 -0.036715265 -0.3707785 0.5710989 0.43501073 0.33876327 0.6349069 -0.3178895 -0.16255601 -0.08450567 0.27840024
acceso 0.17631683 -0.6482998 -0.41341949 0.48014122 -0.15246297 0.093385585 0.21900213 0.23660469 0.076672465 -0.2535804 -0.508795 0.062201854 0.31380975 0.027618995 -0.40360695 1.0670207 -0.5033838 0.001606611 0.21111147 -0.019592006 -0.16871579 -0.39015633 0.58446324 0.2951903 0.5226137 0.6230455 -0.7663047 -0.039369833 0.06500685 0.47126806
realizar 0.40044075 -0.5453764 -0.19248773 0.6640156 -0.15753774 0.2471833 0.15460166 0.1642118 0.17968687 -0.08710978 -0.51029503 -0.34199414 0.5405814 0.20806317 -0.6210666 1.1283375 -0.6816494 0.097165026 0.1252799 0.02307277 -0.16188106 -0.18570818 0.58878773 0.6349068 0.38044363 0.72668916 -0.7656627 -0.35652158 0.090091705 0.5495389
comunico -0.15952213 -0.38172758 -0.3012474 0.5109666 0.33251485 0.20011272 -0.19530943 0.47778475 0.44502196 -0.23875378 -0.2816958 0.06994611 0.2009486 0.08786179 -0.36359155 0.8632058 -0.51059496 -0.22528926 0.19804344 0.09200944 -0.17149177 -0.13924055 0.64594465 0.15930368 0.23041834 0.53809994 -0.5648126 -0.34137687 0.15308797 0.50144804
normal -0.30328536 -0.18830219 -0.13646749 0.7259698 0.6484651 0.39176735 -0.3802064 0.18959515 0.6410104 0.094259225 -0.11651546 -0.20418535 -0.15659085 -0.34205136 -0.39248595 1.0620975 0.036947753 -0.3061993 0.098705314 -0.21288203 -0.056633115 -0.2863594 0.16266474 0.1879227 0.38637194 0.62907004 -0.8530937 -0.22345543 0.24631147 0.37892506
llamara -0.1172178 -0.42620012 -0.4163702 0.4136365 -0.06922264 -0.22938198 -0.3508166 0.31950235 0.6271789 -0.041894652 -0.2995799 -0.13518013 -0.39111093 -0.49489483 0.1057403 0.7586691 0.049184527 -0.4860925 0.24762094 0.36544976 -0.297367 -0.200771 0.26764566 0.104194365 0.6959353 0.6644954 -0.5797382 -0.2623809 0.1851031 0.3154391
trabajando -0.16258608 -0.091329195 -0.37340552 0.7966528 0.95879644 1.0233252 -0.29470795 0.12948035 0.30794683 -0.4009358 -0.19268869 0.015231226 0.3452322 0.30586892 -1.0888422 1.4268236 -0.71851087 -0.2069961 -0.11741305 -0.25821105 -0.0133246295 -0.23415422 0.4507907 0.28344822 0.036719307 0.7163855 -0.408254 -0.43286604 0.26687172 0.65607786
verificar -0.080732964 -0.7187428 -0.29568985 0.44045976 0.0948649 0.113037966 -0.15310085 0.40178698 0.2217185 -0.42422375 -0.3875135 -0.002561682 -0.082450025 0.15244572 -0.44256222 0.95428467 -0.3916377 0.31702113 0.4216621 0.022632467 -0.06425422 -0.08901403 1.1004798 0.14936057 -0.10675274 0.65279603 -0.105502285 -0.37652463 0.17583318 0.13840957
empleador 0.1909638 -0.5815132 -0.26638016 0.6771243 -0.18173806 0.3993575 -0.48301944 0.08605969 0.040844537 -0.3828072 -0.8439415 0.05350977 0.62510514 0.8104295 -1.089895 1.2682083 -0.9171151 0.61525375 0.4351596 -0.2227621 0.06097184 -0.609073 1.2200902 0.5357179 -0.023999773 1.2499796 0.04996405 -0.499733 -0.3973541 0.20771287
llaman -0.21124573 -0.31940502 -0.46018833 0.15991537 -0.08374085 -0.09337147 -0.36840618 0.41949072 0.7364908 -0.18091385 0.007921699 0.1361338 -0.5581256 -0.5450203 0.02038582 0.22670361 0.30710572 -0.21101665 0.2174893 0.39361632 -0.16812192 -0.18932578 0.91827154 -0.021060808 0.52839947 0.43183026 -0.98119456 -0.03777762 0.4021304 0.61898667
solicitarr -0.004239037 -0.2767481 -0.16000144 0.47985506 -0.14569229 0.16825713 -0.08828543 0.17415892 0.42344475 -0.14143349 -0.063029796 -0.29738984 -0.1445874 -0.23843515 -0.49201617 1.1962336 -0.15221201 -0.19717722 0.2241464 0.31581295 -0.08088425 -0.047565356 0.20474173 0.16410786 0.6780639 0.7239478 -0.34667054 -0.028573709 0.48338497 0.47935462
atendern -0.2331818 -0.45949557 0.011087548 0.42477542 0.035413187 0.12588142 -0.05404184 0.0785832 0.56492716 -0.02211374 -0.29252794 -0.6105854 -0.25399324 -0.8549769 0.1564531 0.7990525 0.5193128 -0.4958377 0.7263567 0.3765709 -0.35014293 -0.12525403 -0.00082110567 0.56871206 0.6699441 0.7535139 -0.89309835 0.18977147 0.69098437 0.54579175
complementario -0.509987 -0.30570805 -0.4857598 0.4440819 0.35903996 0.32664597 0.10661308 0.40277544 0.77616304 0.04952512 0.37448126 -0.18259752 0.034528986 -0.5001194 -0.42217267 1.4259583 -0.6903969 0.016692748 0.110895626 -0.58453774 0.20607571 -0.16004732 0.27366385 -0.16844058 0.2253738 -0.119500354 -0.4812411 -0.27169698 0.9398796 1.3678101
facil -0.16723506 -0.5009404 -0.26452723 0.458751 0.12196067 -0.00042386272 -0.09409313 0.22480974 0.52779293 0.0236776 -0.22802177 -0.011377856 0.072612 -0.316365 -0.2269969 0.8032183 0.01991131 -0.03683933 0.23225307 0.16479534 -0.26153627 0.07658099 0.5020823 0.3559387 0.5886679 0.652289 -0.68635446 -0.14780426 0.31787765 0.41726565
sacar -0.37296128 -0.20116617 -0.5718963 0.41357183 0.39058316 0.1701806 -0.21486166 0.62327915 0.95591384 0.06071734 0.17124616 -0.5123033 -0.5213377 -0.65889317 0.11829968 0.73844403 -0.06457072 -0.313772 0.3476306 -0.03662172 -0.077174574 -0.21314256 0.065238036 0.069021896 0.72468764 0.09104365 -0.73617274 -0.18128018 0.6557954 0.6990236
historia -0.52355736 -0.93704724 -0.7097417 0.37585822 -0.4278595 -0.90827304 -1.111053 0.3834671 1.168103 -0.5568825 -0.23128255 -0.0054479064 -0.47615352 -1.162925 0.6085813 0.61195594 0.9257485 -0.36049333 1.7508243 0.5588644 -0.6525026 0.34342712 1.3787962 0.36262614 0.5156867 0.81668013 0.19488403 -0.3326257 0.36459738 -1.0928837
esperando 0.20259732 -0.30299586 -0.31012222 0.18590978 0.30945945 -0.18164165 -0.3731792 0.5748247 0.4621791 -0.28939083 -0.029005028 0.039834946 -0.9481751 -0.49494922 0.12524992 0.35510483 0.26621214 -0.25496775 0.540678 1.0509008 -0.48043334 -0.1753478 1.1395233 -0.06655708 0.4067868 0.18615249 -0.781286 -0.15919448 0.58760494 0.34689572
oficinas 0.11346786 -0.33716252 -0.41043964 0.4818497 -0.23090649 -0.07155407 -0.11025544 0.0011108471 0.084823504 -0.27146912 -0.67870045 0.009489262 0.5342542 0.0071007796 -0.58953613 1.0188142 -0.3216451 -0.33684132 0.4299791 0.20889466 -0.3372843 -0.25281167 0.82839274 0.276244 0.2866672 0.85511506 -0.4453724 -0.3172101 -0.02288352 0.5118683
tratar -0.21395643 -0.18701018 -0.016156105 0.47945097 0.2918518 0.22834617 -0.28105286 0.3829002 0.11533047 -0.26854575 -0.4842381 0.0856089 0.13734418 0.13581839 -0.31486478 1.2271767 -0.54754615 -0.089136615 0.17664887 -0.06713082 -0.05140458 -0.39723065 0.37522352 0.10974097 -0.008516515 0.69565517 -0.94673026 -0.033433594 0.328008 0.56392497
pasada -0.10202866 -0.22392108 -0.3962908 0.26620018 -0.10728794 -0.2001685 -0.40602118 0.4268924 0.38909656 -0.58899724 0.041214194 0.6078209 -0.692276 -0.60397255 0.32538912 0.82412606 0.48263946 -0.601076 0.02228998 0.5642482 -0.26677138 -0.414764 0.61417645 -0.5028019 0.5747256 0.69041985 -0.87772244 -0.13267238 0.298096 0.3997175
cambiar -0.24939115 -0.41977888 -0.25183916 0.4414273 0.107230686 -0.14382093 -0.28542674 0.3822116 0.8402989 -0.12990367 -0.035185806 -0.07642841 -0.09031963 -0.066666685 -0.20612535 0.97170115 -0.27750942 0.07967771 0.6201303 -0.06636041 -0.09221323 -0.0575901 0.49443677 0.52816415 0.28944686 0.4943292 -0.24213214 -0.12811966 0.4597933 0.30234602
aparecen -0.10792265 -0.43884802 -0.25886595 0.26484776 -0.17476746 0.11012873 -0.25842544 0.39047766 0.69375235 -0.3500022 -0.20710222 0.22400063 0.06291135 -0.21500693 -0.14586377 0.76081765 0.081947945 0.08872949 0.6062459 0.15132424 -0.2502973 -0.11731343 0.690677 0.09655736 0.35249606 0.5893785 -0.25244933 -0.25681955 0.33939704 0.2569291
empresas -0.01975499 -0.45445776 -0.3355808 0.5591584 0.07024068 0.267184 -0.20490004 -0.08426305 0.18163896 -0.36303523 -0.6207416 0.14648686 1.0098209 0.21455564 -0.7727188 1.574912 -0.6405884 0.26371634 0.29982236 -0.33217683 -0.038886182 -0.31231374 0.74600154 0.3609477 0.034730114 0.73315966 -0.40213722 -0.53090876 -0.022687135 0.5039818
traslado 0.2127932 0.06749147 0.037279744 0.7394251 0.015418297 0.5043688 0.16928619 -0.20682456 0.44069207 -0.09479614 -0.3081692 -0.42858055 0.24430059 -0.24770778 -0.4349157 1.7742654 -0.34135145 -0.36567292 -0.041045494 0.18597199 -0.06814729 -0.18759081 -0.26862454 -0.19868918 0.90386826 1.0366837 -0.3665217 -0.3007337 0.37958094 0.69717765
radicardo 0.37155664 -0.436363 -0.06435221 0.27173096 -0.10626037 0.30174306 0.0140877515 0.37007385 0.3758573 -0.25572532 -0.11454573 0.20188469 -0.071339674 0.0056509897 -0.10260723 0.8226314 0.20166977 -0.12833165 0.34726536 0.5583828 -0.053446345 -0.1888532 0.6985643 -0.13968836 0.50633425 0.93288994 -0.30387866 -0.10504829 0.3632485 0.6795448
examen -0.46480882 -1.1163992 -0.24900873 -0.14435123 0.12809765 -0.46527976 -1.1286035 1.0294286 1.5956595 -0.57115835 0.48371994 0.051588066 -1.2931517 -1.190137 1.2144328 -0.1519347 0.90852827 -0.8151327 0.4489992 1.1870526 -0.8075184 0.01706325 1.015331 0.11300697 1.3007126 0.74029636 -0.7127105 -0.30389965 1.6322225 -0.024676261
lleva -0.12120566 -0.5237991 -0.25631914 0.4246119 -0.062105022 0.06025836 -0.454432 0.29017842 0.6789232 -0.16410357 -0.14762649 0.04092202 -0.20589453 -0.38161457 0.17221868 0.6381833 0.3529212 -0.056678034 0.2380063 0.5931917 -0.26432985 -0.15398286 0.6265276 0.18298963 0.5838706 0.6267247 -0.4551553 -0.10442976 0.40318644 0.14004646
sirve -0.57899356 -0.5917261 -0.22435948 0.3908937 0.007257533 0.10073187 -0.46591976 0.5570541 1.0775707 -0.24573113 0.0998097 -0.2297243 -0.64223665 -0.5142048 -0.20855507 0.68714124 0.5026478 -0.22027764 0.33556086 0.27528253 -0.25837553 0.25432876 0.38240662 0.05360449 0.6442112 0.48271894 -0.07245399 -0.23044428 0.5192722 0.28614515
puesto -0.23918113 -0.4532618 -0.41764948 0.407349 0.18677711 0.1472926 -0.25571468 0.10628397 0.34580037 0.045228086 -0.22684985 -0.33159044 -0.12786621 -0.35293362 -0.2271027 0.84965926 0.27245057 -0.25459144 0.4137652 0.27271378 -0.3366249 -0.18780607 0.55460614 0.32854858 0.40785134 0.5133426 -0.59833664 0.075355865 0.32490098 0.478798
dificil -0.204088 -0.39233392 -0.49297646 0.27653998 0.25374 0.087961204 -0.106995694 0.26742855 0.78108674 -0.25154555 -0.25104353 -0.14627442 0.06838344 -0.032064185 -0.07320248 0.6992279 -0.12786694 0.0026314983 0.2382259 0.11885911 -0.28383985 -0.18901904 0.7993234 0.527966 0.3849424 0.32852298 -0.54932904 -0.054438572 0.39489394 0.48203254
muchacha 0.051506337 -0.23593357 -0.47644913 0.55075926 0.19252023 0.3499256 -0.3046825 0.13747063 0.5952566 -0.006950896 0.11896776 0.20829698 -0.21901214 -0.3241392 -0.3822956 0.834137 0.21262899 -0.5104675 0.09173655 0.10007469 -0.21720858 -0.14539132 0.27885172 -0.09722114 0.65419644 0.7013754 -0.69827175 0.08475592 0.38229445 0.5041645
formula -0.21731624 -0.93470967 -1.0140516 -0.14790483 -0.55172414 -1.1162292 -1.118758 0.4725033 1.3481946 0.03138811 0.648554 0.12257227 -0.8915744 -0.8544346 -0.1303888 -0.37480357 0.9532334 -0.43104443 0.5675937 0.19260438 -0.22345525 -0.23964754 2.1856642 0.13894995 1.0879357 -0.3840783 -1.3487773 -0.44248682 0.19141312 -0.28653786
laboral -0.73570216 -0.6075208 -0.45811012 0.3443694 0.50484055 0.15439998 -0.64745253 0.5414919 0.67346895 -0.33448702 -0.12007987 0.11339973 0.37154365 0.031169176 -0.26518574 1.0811446 -0.02914706 0.21080627 0.024163395 0.025957402 0.054067302 0.1726236 0.8431836 0.47095415 0.09049989 0.7949509 0.10647475 -0.13380855 0.25042906 -0.19783345
podia -0.10840426 -0.328187 -0.15399136 0.4964752 0.28245923 0.2506851 -0.3198993 0.31269366 0.26724398 0.15837364 -0.09574537 0.0722359 -0.3081152 -0.28500152 -0.14370444 0.9739519 -0.013549621 -0.32171723 0.0923334 0.14248747 0.050109845 -0.45667037 0.48643017 0.13769662 0.5073395 0.33580217 -0.9170069 -0.12917939 0.21623819 0.49852985
posible -0.10072064 -0.3146403 -0.43975002 0.25467184 0.05183775 0.01065861 -0.37062937 0.23070545 0.44950432 -0.50136834 -0.22671804 0.2617171 -0.04781334 -0.22058065 -0.19388917 0.83861244 0.025533842 -0.28853616 0.23434177 0.123577945 -0.079514496 -0.3000849 0.7708951 -0.06261582 0.22522728 0.45089263 -0.52669746 -0.091442965 0.3635879 0.35135537
nadie -0.061669122 -0.3475947 -0.20808573 0.0639677 0.3131674 -0.03668519 -0.3621743 0.33777466 0.28034216 -0.44166344 -0.4807835 0.052408 -0.07082654 -0.3376783 0.08227614 0.51487297 0.042221494 -0.35870636 0.39052308 0.4209655 -0.43291935 -0.44990525 0.83356047 -0.21023108 0.7452179 0.55019313 -0.7014208 0.064682245 0.19669962 0.49073774
entrar 0.114958234 -0.35205093 -0.47609773 0.45672205 -0.08743112 0.08066788 -0.3686053 0.260074 0.45221537 -0.12419208 -0.4528073 -0.004237471 0.21890053 -0.033984493 -0.23772897 0.8775136 -0.40838206 0.15447238 0.73817235 -0.043709382 -0.1712507 -0.37083092 0.7188269 0.38391885 0.17742525 0.57705015 -0.32791877 -0.1839079 0.13952143 0.45614907
entra -0.20004396 -0.45271572 -0.12390804 0.4026776 0.057895627 0.09431741 -0.44708 0.45062032 0.5895018 -0.08913963 -0.10773896 0.093440995 -0.15534051 -0.4023912 -0.17198257 0.8200997 0.12539306 -0.184786 0.24533066 0.08417564 -0.06514986 -0.23357275 0.17580193 -0.091415696 0.4999658 0.6578237 -0.5362517 -0.17299625 0.39421916 0.35517582
hablando -0.14944607 -0.44713593 -0.5926225 0.65884966 0.19350703 0.4039122 -0.019565528 0.16880335 0.4357405 -0.12182505 -0.14909457 -0.14828874 -0.08354999 -0.29947188 -0.22258653 0.7131976 -0.09999655 -0.30034614 0.12125023 -0.1706699 -0.09432279 -0.55963355 0.54427135 0.16444711 0.61962533 0.5304506 -0.49127874 -0.13901567 0.3644425 0.5867201
versalles 0.027798599 -0.119567744 -0.35377204 0.1077862 -0.84381235 -0.51589715 -0.6934436 0.47211713 0.9437641 -0.09762097 0.20922549 -0.12343527 -1.2479854 -0.7537461 0.64415306 0.27540556 1.0928764 -0.670242 1.3172277 0.729887 -1.2052873 -0.34940892 0.8895611 0.4327171 1.2428198 0.6429281 -0.93142813 0.1070072 0.8583229 0.36398193
cirugia -0.24485654 -0.46306962 -0.20311168 0.28924426 -0.19281653 -0.2669875 -0.678364 0.33449566 0.8057065 -0.2733177 0.24812979 -0.19361626 -1.3041015 -0.78343207 0.5333748 0.404136 0.9121316 -0.5631927 1.1735594 0.84147674 -1.1872455 -0.3085693 0.6724129 0.2979616 0.8228801 0.61650133 -0.41690755 -0.2889404 0.8924466 -0.1376379
minutos -0.02134388 -0.5424481 -0.28554606 0.33286893 -0.16471666 0.026631098 -0.0816045 0.36719957 0.6726957 -0.27567023 -0.22075826 -0.13090806 0.073327534 -0.33901584 -0.25799718 0.5187971 -0.0804696 -0.0657168 0.4468021 0.29387838 -0.13226634 0.027125517 0.7103348 0.031619854 0.5605134 0.58801764 -0.69111603 -0.08204004 0.12497174 0.5830112
cliente -0.037426624 -0.35237098 -0.3825226 0.17823608 -0.4920418 -0.2623724 -0.18283725 0.23403189 0.37732118 -0.12581792 -0.234306 0.060788855 -0.033319388 -0.29769436 -0.2764605 0.7260164 0.0076572914 -0.21355027 0.60761946 0.052709445 -0.21018797 -0.29862684 1.0309298 0.16700763 0.59914964 0.8832548 -0.4243414 -0.17513141 -0.048493594 0.36722338
perder -0.057436217 -0.1822369 -0.3815119 0.44645965 0.46653113 0.21787313 -0.061209388 0.24168895 0.45072407 0.0019813085 -0.1635166 -0.0301363 0.07566051 -0.0626654 -0.6391236 1.0311606 -0.06853824 -0.25502902 0.016609136 -0.09228727 -0.30340236 -0.18294363 0.5006375 0.0359358 0.608541 0.65078294 -0.55402535 -0.2768966 0.20545366 0.5367012
poner 0.06627291 -0.5058451 -0.47309414 0.4066881 0.033917077 0.07746521 -0.27005538 0.23963922 0.38450694 -0.22362687 -0.7956956 0.03144639 0.37427533 0.067263044 -0.28047162 1.0367632 -0.28159142 0.0040225224 0.26879963 -0.16293216 -0.17068718 -0.1500748 0.7272838 0.45834613 0.3031268 0.66890526 -0.36405322 0.07418073 0.16757847 0.29868945
empleados 0.30534714 -0.71783096 -0.37162688 0.8035222 -0.06911282 0.4241094 -0.1260487 0.0926331 0.12154801 -0.18698663 -1.0848362 -0.10964767 0.97964746 0.7739652 -0.9790336 1.3067474 -0.95260507 0.5761005 0.36063507 -0.3487374 -0.04382012 -0.47583467 0.9855757 0.8355987 -0.00023028976 1.1877748 -0.2605544 -0.37867683 -0.054100495 0.3063949
plataforma 0.25513187 -0.47903845 -0.28859133 0.039939906 -0.3108043 -0.0070025045 -0.22397026 0.25611064 0.3999125 -0.5007944 -0.19104724 0.20250069 0.39290413 0.32275248 -0.26711118 1.13626 -0.39130613 0.23896068 0.5364935 0.357696 -0.16565967 -0.23922707 1.102372 0.15770349 0.08863074 0.66716814 0.10940757 -0.4089201 0.056319915 0.4261209
siento -0.37825182 -0.3195506 -0.30752507 0.40458125 0.21177064 -0.017488642 -0.16997918 0.41159123 0.74930817 -0.39698902 -0.09311269 0.0920029 -0.26818672 -0.52230316 -0.05589483 0.8379274 0.16122901 -0.25912824 0.041526508 0.10465036 -0.096267074 -0.19614713 0.37708563 -0.1284555 0.17813 0.5359956 -0.7851831 -0.25895718 0.47487682 0.5565301
momentos -0.3172186 -0.3687845 -0.13489565 0.4650563 0.32979348 0.048898887 -0.167418 0.09075183 0.13509762 -0.25742015 -0.34213534 0.010998856 0.10693055 -0.04010603 -0.41933286 1.1190498 -0.31951785 -0.05092262 0.19809932 0.1324779 -0.15086348 -0.23547573 0.5058402 0.34652275 0.5597286 0.7371654 -0.37814018 -0.18570508 0.3597894 0.5352851
cotizantes -0.20186348 -0.14333013 0.052049477 0.94303906 0.60758543 0.74443805 -0.082064025 0.006084161 0.19763857 0.071136564 -0.2309829 -0.2971463 0.11669163 -0.1029682 -0.8462006 1.4953282 -0.7044546 -0.25132415 -0.15169299 -0.04475554 0.020110695 -0.3232823 -0.04125986 0.4070349 0.51666164 0.88923705 -0.9646712 -0.1653405 0.3782433 0.59094304
idea -0.017270412 -0.42389843 -0.23514493 0.30289298 -0.018587979 -0.05259613 -0.39875084 -0.014418284 0.73416895 -0.0380837 -0.19334224 0.076450735 0.036424864 0.100149505 -0.20341861 0.85424083 0.26042545 -0.003879217 0.4601521 0.19791308 -0.35024956 0.045982648 0.49988642 0.30269215 0.46468937 0.6553127 -0.5908928 -0.15998101 0.2834867 0.33793086
procedimiento 0.25748155 -0.42534256 -0.35273606 0.41846785 0.056106154 0.115503184 -0.16885999 0.3896397 0.19147398 -0.28275806 -0.053649195 -0.07855818 -0.63612103 -0.08143722 -0.36986637 0.6811863 -0.053279884 -0.0025900556 0.41599143 0.2763812 -0.3651141 -0.3400373 0.75311166 0.22947894 0.16765413 0.6884826 -0.26574627 -0.35802397 0.46506757 0.25706744
salir -0.11124357 -0.2846868 -0.51633525 0.4504534 0.32181177 0.051979862 -0.4742737 0.30364424 0.5141636 -0.15652058 -0.11803462 -0.14451702 -0.20299734 -0.09074973 -0.25047833 0.86959505 0.008368118 -0.23285653 0.19460581 0.04768664 -0.38994598 -0.20949693 0.49020377 0.1501711 0.43150598 0.7028267 -0.4349178 -0.09053035 0.2772408 0.19350868
inicio -0.27039903 -0.47690922 -0.20678571 0.272971 0.034526277 -0.09211456 -0.3238277 0.15803356 0.47381273 -0.33747518 -0.1331345 0.28840742 0.089780286 0.20881377 -0.5488608 0.89828324 -0.1406804 0.08154566 0.28357714 0.129207 -0.23361737 -0.044981014 1.1580067 0.021349825 0.33623227 0.5711288 -0.19523452 -0.337147 0.16915381 0.41315815
haria -0.1427785 -0.30764183 -0.16791344 0.5821511 0.096381 0.35685217 -0.4551595 0.2806091 0.6541183 -0.2855375 0.047908373 -0.19359106 -0.18434827 -0.32768464 -0.058342252 0.93956167 -0.0036808793 -0.14357226 0.38388753 0.19614418 -0.094263956 -0.0358149 0.29978427 0.32209927 0.35551435 0.62329197 -0.3414473 -0.3392648 0.4970773 0.43279427
llamado 0.0055102305 -0.4169905 -0.41831037 0.41897616 -0.067958854 0.15435286 -0.04138304 0.3076538 0.376023 -0.33597785 -0.29439697 0.3811865 -0.0556634 -0.16626133 0.032952536 0.91360533 0.1650058 -0.4530347 0.14879385 0.2619293 -0.03357455 -0.33617774 0.43262616 -0.31591654 0.39670372 0.78988004 -0.75714326 -0.22530368 0.20919535 0.4717495
regimen_subsidiado -0.22639608 -0.3819235 0.15684237 0.9171824 0.31187844 0.9531432 -0.2841389 0.122122124 0.4779534 -0.091772005 -0.028657867 -0.2998746 0.056539886 -0.09926072 -0.42956746 1.5976181 -0.5352413 -0.3566128 0.052280635 -0.08428864 0.20967306 -0.10425206 -0.33989322 0.43870708 0.37653878 0.95209676 -0.65567064 -0.24747108 0.50157815 0.6971128
situacion -0.29816002 -0.3621657 -0.24547176 0.18349104 0.5023866 0.08549723 -0.27698666 0.4125526 0.3769323 -0.26619324 -0.3634493 0.1815037 -0.14584948 -0.12232073 -0.2829211 0.9590636 -0.18231568 -0.059328727 -0.08856173 0.02424536 -0.24363863 -0.28474298 0.79717296 -0.008771292 0.27454457 0.3271776 -0.69349086 -0.13440296 0.39277926 0.41520327
llegado -0.047062814 -0.42591658 -0.8465033 0.2596701 -0.09860889 -0.5014676 -0.25493607 0.6072875 1.0679754 -0.3216402 0.6290651 0.41254073 -0.8645461 -0.28576955 0.043391503 0.48287374 0.8898311 -0.06092645 0.4499213 0.7106036 -0.6826975 0.26064044 1.4091971 -0.33889368 1.1231934 0.11562778 -0.45023367 -0.1788184 0.17256741 -0.25337848
factura -0.57285553 0.027582815 -1.007784 0.0061518005 1.3777629 -0.034820333 0.32634965 0.5702391 0.6639385 0.031204604 0.06063867 0.7020415 -0.18917641 0.42573053 -0.40569913 0.8504686 -0.3957669 0.14376624 0.31540924 -0.52568597 -0.30046794 -0.52801317 2.4836168 -0.8200742 0.47917908 -1.209569 0.17809196 -0.78780925 0.5685132 1.6289086
preguntar -0.38676947 -0.30523157 -0.29894465 0.43283278 0.23581742 0.31642964 -0.38652423 0.31028432 0.5368215 -0.1967112 -0.038477376 0.05213272 0.0938831 -0.19818299 -0.4026637 1.0375465 -0.07972538 -0.11034257 0.03995304 0.06486185 -0.13348879 -0.21035306 0.37035504 0.06067052 0.3240296 0.62089384 -0.323471 -0.1459624 0.42925304 0.45415264
autorizaciones 0.004229731 -0.81369686 -0.59301025 0.27288792 -0.6242188 -0.7000402 -0.5502217 0.36233768 0.9760962 -0.39430168 -0.010797771 0.120666094 -0.8295268 -0.9822012 0.82875514 0.25001547 0.92746955 -0.3688422 1.3248454 0.80072147 -0.70913535 -0.24840876 1.0647682 0.2302998 0.8890736 0.801823 -0.084383115 -0.37554604 0.5214631 -0.22892097
deben -0.25587243 -0.3745099 -0.68164 0.26248676 0.5706356 0.2157754 -0.3398598 0.45402533 0.31915167 -0.15898232 0.0012259384 0.13863678 -0.068351194 -0.045284297 -0.47309196 0.82406086 -0.20906821 0.082123846 0.17879258 0.053275798 -0.18367034 -0.2498566 1.0496297 -0.036081687 0.16374134 0.39383274 -0.21995273 -0.38942355 0.30582532 0.33742997
vuelta -0.4276652 -0.085395016 -0.28211892 0.21088065 0.3248635 0.1943502 -0.28980434 0.22304049 0.4204877 0.040172905 -0.31557584 0.071916126 -0.11249447 -0.28933132 -0.20692874 0.6961641 0.13544771 -0.5339014 0.35885552 0.15344417 -0.22612196 -0.41339427 0.5402738 0.04210687 0.41710278 0.4537277 -0.7177768 -0.38040942 0.37944552 0.7102181
soporte 0.28039268 -0.5000496 -0.6796128 -0.03866284 -0.13549152 0.2952167 -0.17077678 0.20860167 0.39401856 -0.57471097 -0.39813846 0.77877843 0.33720762 0.213506 -0.31847757 0.9292681 -0.3444392 -0.016904796 0.443341 0.21005562 -0.14468543 -0.16812588 1.5486908 -0.29593888 0.08001792 0.8075709 0.16419491 -0.099344954 -0.2921248 0.43637946
hijos -0.40512863 -0.26433524 -0.3554315 0.6370778 0.26849356 0.0870155 -0.40522045 0.107861705 0.19006662 -0.11596942 -0.014423062 -0.024836138 0.14519396 -0.26768988 -0.552747 1.4425659 -0.3714789 -0.07623392 -0.13095802 -0.11187696 0.14507535 -0.15592825 0.38813156 0.15903977 0.3054131 0.44333747 -0.53158337 -0.2125107 0.40494964 0.5944674
repito -0.016293785 -0.48356664 -0.10263818 0.62268263 0.03593262 -0.0050691576 -0.40419197 0.263684 0.17808999 -0.10857404 -0.40426263 0.23061588 0.29200765 -0.28346986 -0.38360864 0.88083804 -0.21135357 -0.20827289 0.21459357 -0.13359553 -0.09186503 -0.40262645 0.53523797 -0.024452595 0.5189699 0.61900735 -0.8208494 -0.23421963 -0.103961036 0.50156534
nombres 0.0035572192 -0.44430023 -0.23541702 0.3350442 0.3564051 -0.10368087 0.034485877 0.27670655 0.5076199 -0.20922332 -0.32900396 0.0326747 -0.112340994 -0.03680533 -0.058738757 0.7978547 -0.18796803 0.013867044 -0.020605356 0.110746406 -0.3653435 -0.41608012 0.52434623 -0.06596036 0.7131383 0.35630545 -0.8729252 -0.4469243 0.5671106 0.51745576
registrardo 0.24825418 -0.68748504 -0.13535102 0.63392806 -0.35169968 -0.10188331 -0.49074742 0.14587674 0.546302 0.07834611 -0.87223595 -0.051702205 0.43014494 0.5430216 -0.2615997 1.1224812 -0.9039604 0.63165104 0.82422566 -0.5693384 -0.10448001 -0.30845204 1.023484 1.1209836 0.2409797 0.84918004 -0.29181018 -0.056545984 -0.106421344 0.2886582
produce -0.014743349 -0.4341834 -0.24268496 0.56694204 0.09911835 0.009684012 -0.33591047 0.17111786 0.47618628 -0.1839476 -0.1880828 -0.16062845 0.116730474 0.033694196 -0.35591894 0.8715429 -0.15842295 -0.17192729 0.26030815 -0.019141098 -0.25886172 -0.0034821143 0.7009359 0.30344495 0.41406494 0.44745204 -0.61158 -0.25185356 0.15336353 0.22566932
autorizado -0.17402706 -0.7134808 -0.47057402 -0.10674645 -0.2684608 -0.74907976 -0.5737504 0.44871557 1.1475134 -0.35678455 0.41713133 -0.02736148 -1.3008238 -1.0203747 0.9494344 0.36949202 1.0244638 -0.36975837 0.6839062 1.1617628 -0.560543 -0.3118146 0.92376375 -0.10501893 1.0210719 0.29292932 -0.71690065 -0.37289503 1.0405742 0.44181126
urgencias -0.41081977 -0.50535077 -0.36808795 0.54171765 -0.015389852 0.18082662 0.03139242 0.31471708 0.65228856 0.31256804 0.061093707 -0.77017415 -0.6263529 -1.6219774 0.13368824 0.9443572 0.8850118 -0.56910115 0.26402968 0.4602032 0.042526048 -0.32943627 -0.30673453 0.5679373 0.6838717 0.50719917 -1.0950135 -0.060398363 0.67383957 0.46626833
disculpa -0.30227154 -0.3138819 -0.28051108 0.47737107 0.11453867 0.070627704 -0.31155312 0.44058776 0.45549542 0.011724296 0.086068094 0.020455634 -0.012832713 -0.4265327 -0.26710436 0.7377165 -0.056149766 -0.06944266 0.38271567 0.1859428 -0.13486867 -0.29012126 0.4376476 0.06746914 0.53630954 0.38347608 -0.6417363 -0.28658202 0.40648296 0.5224037
apenas -0.34373122 -0.13204297 -0.27661946 0.3018134 0.24279357 -0.032645933 -0.2538663 0.5631114 0.60502905 -0.28469375 -0.07674108 0.15128803 -0.10828327 -0.42590374 -0.4074335 0.7602994 0.099693045 -0.12941556 0.040806677 0.11451062 -0.27570015 -0.26745626 0.5312249 -0.29213026 0.56300396 0.37385678 -0.8381044 -0.3850874 0.37612343 0.28783405
problemas -0.15563858 -0.45568588 -0.28036755 0.33817044 0.24882539 -0.18163559 -0.6327759 0.23602064 0.60826886 -0.36294407 -0.12873466 0.0517787 -0.45479617 -0.44811577 -0.07662932 0.590624 0.29252964 -0.2391786 0.30837527 0.42505628 -0.20804593 -0.2097958 0.78112954 0.044940826 0.5828599 0.41386226 -0.6255562 -0.087973215 0.33067775 0.007095408
personalmente 0.048350073 -0.2911284 -0.2794805 0.4009218 -0.04060223 0.17299044 -0.19051763 0.23159398 0.4166808 -0.21635398 -0.123799786 -0.08860368 -0.07772785 -0.28500518 -0.057540815 0.77300894 -0.15806141 -0.7009413 0.2894716 0.14982733 -0.43524107 -0.3268358 0.31332928 0.16977283 0.6786232 0.7151196 -0.67122537 0.012957427 0.5325888 0.47037718
sede -0.3044503 -0.36667663 -0.20474271 0.6086154 0.22466204 0.32889172 -0.26532313 0.17293431 0.5631822 -0.1007749 -0.30005777 -0.02791474 -0.058334444 -0.2030344 -0.17821404 1.1177528 -0.17030379 0.045383126 0.19252092 0.19276065 -0.1273364 -0.015892139 0.43271044 0.33219007 0.23131607 0.69494396 -0.39630118 0.022665495 0.27708003 0.3602262
exactamente 0.014286808 -0.48473576 -0.32836124 0.2206759 -0.11359479 -0.18364882 -0.25768757 0.2965068 0.3476472 -0.1629056 -0.39209527 -0.06085565 -0.10917297 -0.1486504 -0.16287221 0.53100705 -0.15111329 0.03017118 0.43101335 0.17031321 -0.38490042 -0.34931058 0.9258604 0.15615217 0.6383902 0.46776766 -0.5491676 -0.1944033 0.3750739 0.71803117
mandado -0.06680546 -0.39489335 -0.47756445 0.046486735 -0.148228 -0.35607728 -0.33541608 0.5850231 0.7516976 -0.59815484 0.017446257 0.25892007 -0.67620397 -0.382336 -0.015745578 0.52240133 0.49846342 -0.50424457 0.63233906 0.4414798 -0.29329962 -0.24856667 0.968879 -0.59625334 0.5534079 0.3778381 -0.5258959 -0.2796246 0.40846217 0.23728903
extension -0.287522 -0.55073434 -0.48740235 0.39855522 0.20389809 0.12671496 -0.2674341 0.67906386 0.7366713 -0.39373246 -0.39339873 0.44625854 0.18451527 0.0842326 -0.15313597 0.685342 -0.60915637 -0.45303982 0.09540884 -0.19294715 0.07319714 -0.5799197 0.51258224 -0.53726465 0.28500414 0.4725751 -0.79131365 -0.03324953 0.16882472 0.8979359
contesta -0.16858192 -0.63290024 -0.1503593 -0.018752443 -0.14699358 0.11482423 -0.19001806 0.8226518 0.29261678 -0.47859108 -0.6476753 0.19959302 -0.12835774 -0.07830593 0.3798403 0.6334144 -0.37511164 -0.26433343 0.06987986 0.13463467 -0.24556108 -0.52063257 0.22620133 -0.36868894 0.4499619 0.9713986 -1.0054066 0.13639598 0.38692254 0.7241346
novedad 0.50137174 -0.33082044 -0.6049416 0.66405135 0.61063695 0.39937872 -0.016049793 0.43114123 -0.12214426 -0.15380897 -0.6688663 0.1758932 0.2991826 0.82968825 -0.83876216 1.444251 -0.6721139 0.40743563 -0.10705589 -0.2223327 -0.037735373 -0.17987278 0.9587775 0.42060015 -0.34015235 0.93058944 -0.93388766 -0.69359505 -0.057527512 0.65551835
perdi -0.13435742 -0.52103263 -0.63956845 0.3372121 -0.020250166 -0.48429683 -0.60756516 0.39429754 0.9407257 -0.027562097 0.32514995 -3.1297852e-05 -0.13982661 -0.40906733 -0.038458172 0.7048246 0.5292431 -0.07653942 0.5414526 0.021235928 -0.34457567 0.058010686 0.9423134 0.21980816 0.5708056 0.408187 -0.31111872 -0.1324843 0.024612144 0.24907792
dependiente 0.07496985 -0.3145166 0.17682274 0.72166735 0.38482305 0.442339 -0.1710854 0.1549227 -0.3798743 -0.07841699 -0.52229196 -0.33165774 0.5854683 0.32956678 -1.2517562 1.8829156 -0.8644802 -0.07897543 -0.057525948 -0.17296395 0.20222937 -0.43898094 0.28942952 0.51650006 0.3190968 1.0321196 -0.8365375 -0.38172927 0.13314931 0.7739897
puntaje -0.20862444 -1.1560669 0.03905228 0.37988985 -0.14085887 0.63205713 0.2707106 -0.014163843 0.14362884 -0.09728391 -0.5130572 -0.56463623 -0.1607869 -0.1359329 -0.70755416 1.4704903 -0.59213233 -0.21929692 -0.52860796 0.43783095 -0.023125267 0.07735427 -0.15378448 0.3846098 0.8199348 0.78361416 -0.52662796 0.1171651 0.5290704 0.74055713
activa -0.29438803 -0.14021926 -0.1754754 0.9804382 0.46919665 0.850223 -0.25218976 0.19069351 0.60795504 -0.12444692 0.098510616 -0.41841426 0.14997785 -0.19611403 -0.8207866 1.5148762 -0.49415728 -0.31367174 -0.029789945 -0.16237049 0.36229494 0.24918905 -0.11900042 0.21651013 0.15412083 0.5089614 -0.4996465 -0.20537043 0.5710847 0.4895972
decia -0.07041847 -0.5303196 -0.55858076 0.4520958 0.15495904 -0.38168055 -0.64506 0.4447668 0.8306361 -0.20560378 -0.15804029 0.13355714 -0.75450474 -0.3290964 0.18871225 0.3878418 0.2315874 -0.038545083 0.40216172 0.32045162 -0.3036304 -0.15064576 1.0379064 0.22953781 0.4030942 0.39213803 -0.41678494 -0.23400903 0.3340413 0.20818038
segundito 0.026374474 -0.17843863 -0.32740614 0.5118965 0.30427918 0.28653964 0.016946336 0.5437963 0.18743476 -0.10429476 -0.19746247 -0.14017305 0.6424977 -0.08001638 -0.60016555 1.3129125 -0.4459145 0.11899069 0.34922323 -0.0957327 0.18472832 -0.2564629 0.31313187 0.20202233 0.15258077 0.50623524 -0.7598347 -0.54320836 0.23713027 0.9214079
enviaron -0.17192283 -0.2846391 -0.7258842 0.20407493 -0.2325646 -0.07215332 -0.45750868 0.59018916 0.75141525 -0.2996751 0.4177338 0.13990773 -0.28327554 -0.5364047 0.23539653 0.6565137 0.07477613 0.012667463 0.36019933 0.3699363 -0.32764435 -0.31081042 0.83928263 0.02943337 0.56839544 0.36228448 -0.42183164 -0.024900867 0.29408813 0.29010308
funcion -0.28291562 -0.47213885 -0.29883268 0.479451 0.1602033 0.18329582 -0.6641465 0.26469222 0.35891083 -0.2962374 -0.27225626 0.07120229 0.11146981 -0.17278674 -0.42511177 0.9733149 -0.11676775 -0.075810134 0.22465323 0.060698714 0.06845858 0.023574091 0.7461448 -0.10519158 0.34971812 0.7855615 -0.22589739 -0.34407085 0.11281579 0.22487809
pagado -0.17732237 -0.1640594 -0.5856917 0.5754951 0.7102967 0.5328755 -0.15168722 0.49977198 0.69819343 -0.575112 -0.40422958 0.43445158 0.17939301 0.29534918 -0.4725553 0.8470735 -0.43651184 -0.047776178 0.25874847 -0.22764224 -0.21948099 -0.57913053 0.95167005 -0.043399353 -0.11497731 0.3099962 -0.31964916 -0.6457739 -0.18087281 0.43565565
quieren -0.12742665 -0.49309358 -0.49331683 0.215253 -0.060333997 -0.22701597 -0.21510464 0.08999629 0.5788491 -0.25595364 -0.049074158 -0.1508799 -0.3695336 -0.27508995 -0.5142238 0.5015582 0.13901904 -0.032428697 0.58241487 0.13075826 -0.32211474 -0.09267339 1.1262647 0.099475436 0.4175461 0.32199872 -0.2618031 -0.32000762 0.5444877 0.3155996
llamarn -0.39067745 -0.23395005 -0.15127882 0.41654906 -0.18060881 -0.04951456 -0.4756956 0.2808346 0.90402824 -0.10185697 -0.1346218 0.031792182 -0.37905046 -0.47188935 0.11575814 0.9575135 0.23931715 -0.0018667438 0.49050522 0.22926302 -0.26302359 -0.0681359 0.19954182 0.067652866 0.51737607 0.4917629 -0.44147518 -0.0056730034 0.54337245 0.2940408
encuentro -0.17784208 -0.36422846 0.030127488 0.3598091 0.3681543 0.37626523 -0.20427343 0.37371913 0.15427363 -0.18445556 -0.12946339 0.047918703 0.13133441 -0.15777338 -0.3211075 1.1660703 -0.19319981 -0.09763763 0.17656818 0.188062 -0.011781405 -0.1615536 0.48759484 0.08145384 0.4527636 0.59233296 -0.6396295 -0.08315601 0.34968242 0.7790785
vision -0.10304538 -0.3655478 -0.3093821 0.37974182 0.284847 -0.061221737 -0.30495468 0.526537 0.4928518 -0.27159 -0.061988343 -0.2858228 -0.41767722 -0.21093468 -0.25431272 0.5792153 0.34079078 -0.1990273 0.4219619 0.39810848 -0.42157537 -0.22496635 0.70170915 0.1753667 0.64957637 0.36490646 -0.3552083 -0.19899148 0.44573048 0.01038619
vete -0.01790507 -0.44988364 -0.13120873 0.5995863 0.1234989 0.14393654 -0.14161263 0.27566916 0.32539713 -0.22647 -0.4595669 -0.19987845 0.05120864 0.02543779 -0.25948665 1.0661108 -0.4019522 -0.162799 0.3212176 0.13529207 -0.11249974 -0.10110924 0.36265773 0.17933479 0.48644766 0.60689366 -0.69017434 -0.112448 0.2868545 0.46726826
supuestamente -0.40272254 -0.3108653 -0.68167686 0.16850963 0.33839267 -0.28684056 -0.3068774 0.58428663 1.2434608 -0.27946854 0.5212404 0.20895977 -0.6620936 -0.5234298 0.072701305 0.5162438 0.3394116 -0.17498687 0.35687634 0.3638506 -0.62177444 -0.20707078 0.683408 -0.11821432 0.525501 -0.045332305 -0.33517188 -0.31968185 0.6897225 0.4663285
queremos -0.003463523 -0.18022455 -0.33281222 0.8441667 0.39653862 0.54368514 -0.084021725 0.706758 0.53173476 0.049717754 0.15324911 0.123444796 0.27500302 0.25188965 -0.7224346 1.247721 -0.911388 0.15837309 0.29163656 -0.3189051 0.06944895 -0.22524387 0.3224512 0.22344919 0.17537047 0.6891799 -0.5005966 -0.42399332 0.21301983 0.807686
neurologia -1.5799359 -0.85135776 -0.5308922 0.65302294 0.21957758 -1.7348536 -1.6423268 1.317417 2.4472857 -0.64695704 0.0047574714 -0.1383328 -1.1960555 -2.01461 1.48364 1.1761025 1.7716563 -0.88101596 1.7501514 1.3329264 -1.6892836 0.7464368 1.1362388 -0.112647824 1.6322544 0.6640826 -0.92269856 -0.4419482 0.9603745 -1.5299678
permite 0.23534755 -0.6449673 -0.37728256 0.55249804 -0.17194799 0.13027942 -0.050964057 0.060521126 0.33344966 -0.2482681 -0.57082886 0.086595945 0.27081183 0.054784626 -0.5308873 0.92069805 -0.32858205 -0.027895149 0.38286278 -0.09306372 -0.043548733 -0.31808263 0.95201206 0.2964931 0.37521216 0.7899864 -0.39996165 -0.12375707 -0.16671254 0.3900245
autorizar 0.06871786 -0.43146524 -0.53158796 0.07952751 -0.20548517 -0.6086738 -0.7017523 0.50581455 0.77025574 -0.25537467 0.10310189 0.21904406 -0.87468433 -0.76579845 0.3003226 0.23046848 0.8270439 -0.33876064 0.47099242 0.55420554 -0.40238106 -0.25327227 1.2041849 0.07228391 0.78307074 0.25510898 -1.0192829 -0.23617032 0.19685908 0.044028748
volvio -0.010353045 -0.3957005 -0.61046284 0.41650444 -0.080450326 -0.10815834 -0.4440043 0.33294168 0.5023764 -0.29332557 0.07541497 0.3923433 -0.144395 -0.08683643 -0.25552619 0.75620496 0.07257923 -0.061567083 0.17364357 0.020389285 0.061756182 -0.20438567 0.9906248 -0.44051093 0.25981638 0.66450876 -0.42631546 -0.41819844 0.13634445 0.31690708
emergencia 0.008090733 -0.3342267 0.03797718 0.74006623 0.5460785 0.75426865 -0.17981233 0.081417516 0.2933864 -0.1444131 -0.30821413 -0.3481611 -0.0453864 -0.14598054 -0.60672003 1.297802 -0.3040083 -0.26230857 0.10501022 -0.093954556 -0.0474413 -0.23108007 -0.10021851 0.4903861 0.4766495 0.7844813 -0.7631829 -0.039317477 0.11312221 0.5175016
llevan -0.15752876 -0.28904864 -0.20330638 0.42217168 0.1816157 -0.06252004 -0.43199894 0.2812088 0.49487245 -0.18863297 -0.056455255 0.088893786 -0.24339293 -0.116085686 -0.29641327 0.9118864 -0.054726295 -0.005065091 0.39912832 0.2096715 -0.28586742 -0.058278304 0.6016239 0.17510304 0.38878745 0.5141133 -0.38682482 -0.16608332 0.38489026 0.17467478
triple 0.212459 -0.54694676 -0.006254073 0.49320185 -0.5399228 -0.4022535 -0.33735642 0.18890727 0.58262366 -0.10578782 -0.8675798 -0.054792635 0.17945695 -0.023135785 -0.017117996 0.7393765 -0.069485076 -0.06539261 0.48221382 -0.2239692 -0.1926833 -0.35213983 0.81218225 0.7532441 0.48026696 0.9594042 -0.5889069 -0.040536642 -0.2398843 0.046804048
envia -0.2526363 -0.42628992 -0.7961182 0.21764182 -0.074689776 -0.29573104 -0.43067065 0.5340057 0.66745526 -0.50223774 -0.07932228 0.5083118 -0.26810944 -0.61817294 0.10334854 0.47057012 0.49488848 -0.5300575 0.32685542 0.2958163 -0.57215095 -0.21061532 1.1332407 -0.26319382 0.29664174 0.82273656 -0.14283165 -0.35154557 -0.019428262 -0.02240111
amables -0.2609344 -0.7788569 -0.2715886 -0.08638478 -0.094114415 -0.3457472 -0.22264203 0.1899511 0.6130365 -0.24461006 -0.07273873 -0.16863108 -0.27098346 -0.24801305 -0.05667912 0.5076043 0.30416915 -0.17366597 0.22726856 0.47447863 -0.36672413 -0.16174453 0.7972017 0.12727915 1.0519068 0.24821934 -0.68402153 -0.10491816 0.67798376 0.5349884
subsidiado -0.10864934 -0.5108391 -0.032111276 0.9303705 0.29656607 0.8946056 -0.26331624 0.20577143 0.37741247 -0.10034139 0.2637302 -0.355527 0.107301466 -0.40904835 -0.35207444 1.3650222 -0.3108751 -0.25109777 0.0012082863 0.1941881 -0.0050262813 -0.11927896 -0.1967605 0.5060588 0.6626628 0.69652706 -0.72551715 -0.09896889 0.49735108 0.78304017
ninas -0.102706224 -0.3231039 -0.27420413 0.47968462 -0.29310915 -0.4129996 -0.1679895 0.4444967 0.74493444 -0.19563882 0.15119943 0.19324386 -0.5830082 -0.44047564 0.064896524 0.5147605 0.13407086 -0.26072985 0.45662776 0.31421274 -0.6221341 -0.32361296 0.58223987 -0.053381536 0.93036973 0.40505508 -0.6664352 -0.037865683 0.409863 0.39885715
quiera -0.19001178 -0.42691535 -0.088125795 0.37481606 0.200067 -0.042863388 -0.36867893 0.35569766 0.43844616 -0.08121935 -0.09154947 -0.07494831 -0.47034717 -0.44152176 -0.07879551 0.743845 0.08156497 -0.2504154 0.089391835 0.31634706 -0.27227664 -0.25514993 0.37282622 0.21369086 0.5119072 0.49283412 -0.9421852 -0.13941996 0.5613074 0.25163257
agua -0.044093072 -0.7241752 -0.40329924 0.23086627 -0.15348153 -0.3929731 -0.39815742 0.32531753 0.71316475 -0.06955726 0.05501254 0.06443225 -0.54958504 -0.28102502 -0.06886704 0.4668893 0.5227146 -0.34719467 0.28079662 0.3193882 -0.1862226 0.006424713 0.9072426 0.12229798 0.7881114 0.35631406 -0.64825267 -0.17631577 0.32939988 0.12103759
volvi -0.26734307 -0.26840946 -0.35748184 0.14983061 -0.19892715 -0.3017825 -0.45902666 0.27138266 0.3856335 -0.59226626 -0.26672152 0.37577233 -0.49741986 -0.3487187 -0.12747066 0.9096806 0.6630441 -0.5824551 0.37912312 0.5063087 -0.14693122 -0.31145218 0.97463435 -0.50363725 0.43750015 0.5612621 -0.40589163 -0.19413158 0.052979708 0.12995873
reporte 0.009496395 -0.35666397 -0.5529392 0.20473813 0.7361432 0.50042695 -0.23810683 0.7654988 0.1114948 -0.6039843 0.03568012 0.19177596 0.04134239 0.72270346 -0.7343894 1.1162735 -0.3475719 -0.014767063 -0.19075692 0.26461026 -0.16638437 -0.12210229 1.1926482 -0.027391722 -0.32646576 0.6088345 -0.3878986 -0.4831074 0.2518248 0.3952513
octubre -0.12538229 -0.43818206 -0.7993062 0.09727297 0.43652442 0.34845728 -0.53464603 0.38870493 0.086421385 -0.7989406 0.22373375 0.74742705 -0.3780257 0.70511836 -1.2763426 0.8728959 -0.117903754 0.07018128 0.4250194 -0.05197935 -0.35025385 -0.40761188 1.9692333 -0.3040395 -0.6733147 0.70431393 0.4228226 -0.5539148 -0.4757961 0.53464186
coloco 0.3689694 -0.57624924 -0.2191239 0.4524787 -0.0041481154 -0.18207127 -0.45614818 0.06806572 0.46848193 -0.2981664 -0.27762365 0.04533929 0.08352675 -0.14111914 -0.5229163 0.78916067 0.12097917 -0.13512589 0.7797821 -0.08375427 -0.3049574 -0.28197905 0.74927855 0.2692071 0.7469874 0.8253046 -0.1610635 -0.24818641 0.027935525 -0.0025332903
fijo -0.09281545 -0.2799637 -0.31277722 0.5174183 0.06883797 0.01818715 0.015059259 0.4168719 0.56940764 -0.07382632 -0.24100637 0.030326277 0.08136938 -0.23288536 -0.31558746 0.59132475 -0.085343175 -0.2280916 0.17188743 -0.0696301 -0.2697122 -0.36149153 0.5279471 0.15998775 0.63353163 0.5254238 -0.9430325 -0.066183895 0.101704665 0.76230854
necesitamos -0.111032195 -0.3357258 0.0017225862 0.5778027 -0.0029612088 0.29506725 -0.2101876 0.23800646 0.107295744 -0.07475915 -0.26870447 -0.077408105 0.19776922 0.15758725 -0.35227534 1.3898387 -0.63746685 0.0091061145 0.3610993 -0.111715086 -0.21716192 -0.32897037 0.2157983 0.3924152 0.38118935 0.6875499 -0.26339245 -0.23458675 0.3525342 0.5406135
viendo -0.23329842 -0.42748913 -0.4654882 0.44958204 0.0028415844 -0.07318901 -0.2764308 0.3696898 0.5659852 -0.086209714 0.23544163 0.16200265 -0.50688416 -0.37265396 -0.18311393 0.72757447 0.3141659 -0.046200223 0.3777202 0.27748492 -0.049552098 -0.14452773 0.96890926 -0.12125934 0.3551732 0.37796015 -0.405811 -0.1447869 0.36771396 0.26929805
quede -0.18254052 -0.13878006 0.09046158 0.61943054 0.41655216 0.62049097 -0.21885727 -0.03543703 0.23530097 -0.12921602 -0.21704526 -0.12957932 -0.03774294 0.17098287 -0.8523871 1.2345393 -0.39504293 -0.18097255 0.25725475 -0.054609988 -0.22002791 -0.032461423 0.37067583 0.41830406 0.15134905 0.84562206 -0.9896199 0.18176326 0.34144175 0.7543156
requiere 0.14680183 -0.89998794 -0.29881778 0.1000413 -0.14641681 -0.040423896 -0.07095996 0.7903826 1.0895965 -0.33536515 0.52497786 -0.447359 -0.5856448 -0.73740137 0.83284783 0.5061394 -0.032597236 -0.2684528 1.3390981 1.3125902 -1.1460164 -0.20327821 0.3174077 0.57370657 0.44549266 0.735785 0.4627939 -0.013829814 1.5659348 0.65722275
aportes 0.49124578 -0.41536766 -0.6009289 0.58184886 0.64469886 0.5009434 0.1139863 0.13260618 0.25995293 -0.18964088 -0.7217229 0.020108107 0.14684582 0.7166187 -0.8954211 1.1585623 -0.67755246 0.33907408 0.20668913 -0.2982681 -0.285073 -0.31440338 1.065746 0.22117093 -0.15572587 0.51752234 -0.38626227 -0.47308153 0.020537844 0.8218733
medicos -0.30918854 -0.8513384 -0.6789746 0.31679362 -0.33469316 -0.64420724 -0.50778764 0.3103716 1.1853725 -0.42154732 0.13805732 -0.11522072 -0.86578494 -0.9395343 0.3578176 0.09272589 0.8544953 -0.2903879 1.119851 0.71207553 -0.67940193 0.2431952 1.2621286 0.25710002 0.7166031 0.44551075 -0.23691308 -0.31508192 0.4866889 -0.3947748
reclamar -0.25499043 -0.8171887 -0.8392786 0.00607038 -0.054414507 -0.9315602 -0.594426 0.45361122 1.1254313 -0.45175302 0.42625976 0.35632685 -0.85804933 -0.5696451 0.04605881 -0.16041884 0.82650846 -0.22572826 0.339894 0.5316544 -0.49141937 -0.2337312 1.7323273 -0.22988413 1.2549752 -0.35028794 -1.513475 -0.20938171 0.20165393 0.011866564
entro 0.05603931 -0.34773785 -0.43812922 0.43321052 0.22890048 0.1544434 -0.38755232 0.24507625 0.34918097 0.033101957 -0.48273152 0.21223289 -0.12413286 0.40557358 -0.35564905 0.9745288 -0.1427742 -0.013064069 0.23272969 -0.2664958 -0.01082022 -0.27051893 0.91960883 0.33103818 0.34756622 0.79450214 -0.37642056 -0.033765625 0.058007248 0.48971704
quedar -0.17729254 -0.2693182 -0.2439669 0.48651588 0.34653372 0.2142169 -0.024497977 0.10304186 0.47121066 -0.24405749 -0.070038095 -0.13582928 0.07216107 -0.18687181 -0.6217564 1.0369877 -0.051804602 -0.11366317 0.15318437 0.15198448 -0.1935412 -0.18036973 0.55841357 0.30430448 0.2540474 0.46469784 -0.63179004 -0.34306246 0.18761629 0.37357834
existe -0.17162243 -0.5712891 -0.13478215 0.4738875 0.04445094 0.072073914 -0.440257 0.31384486 0.7560511 -0.21594007 -0.09387723 -0.10230753 -0.29544148 -0.1870836 -0.07871844 0.8907614 -0.20604326 -0.22531494 0.38694906 -0.027780026 -0.2004759 -0.31764627 0.2582436 -0.04396369 0.46348852 0.46294072 -0.55578476 -0.24799211 0.31096357 0.37905726
maneras 0.02417014 -0.3223241 -0.5657633 0.16709612 0.29770097 0.15935627 0.021512093 0.29709277 0.62063396 -0.15473354 -0.2851622 0.19135728 -0.12289355 -0.21124059 -0.4985082 0.64923203 0.046866115 -0.37074152 0.10084416 0.1301471 -0.12136419 -0.15862107 0.82446575 -0.05633087 0.58570063 0.2685985 -0.73596364 -0.0850078 -0.07096 0.58503556
aparte -0.13955724 -0.26646602 -0.52243817 0.31661463 0.21452056 0.046626586 -0.47406772 0.3033586 0.66784966 -0.28329992 0.34581542 0.022727165 -0.50752175 -0.47078726 -0.24712215 0.5298346 0.3177169 -0.29234433 0.51616037 0.22193544 -0.35372967 -0.0057036853 0.5523701 0.2786592 0.68165314 0.54006994 -0.2998925 -0.3096515 0.3085155 0.27533022
solucion -0.09149403 -0.43979892 -0.32982293 0.2634563 0.47676736 0.029432926 -0.45122766 0.36349508 0.42818692 -0.40331507 -0.197689 0.112809435 -0.1740116 -0.05416415 -0.16193497 0.8843219 -0.11897791 -0.088211164 0.28649694 0.1371397 -0.38946643 -0.19990568 0.68315357 0.008579501 0.21055834 0.57898396 -0.39727625 -0.19199657 0.16579434 0.5310414
atendiendo -0.12832434 -0.337921 -0.378771 0.23085439 0.07112179 0.08383874 -0.24319209 0.5005938 0.531605 -0.025418902 -0.016762067 -0.071487844 -0.35435054 -0.5040215 0.078639254 0.65087736 0.17181283 -0.47721907 0.5286518 0.39795467 -0.3736175 -0.39131072 0.3812756 0.016938282 0.61610967 0.45098582 -0.7107059 -0.18901362 0.4405275 0.44050455
pandemia -0.3219295 -0.39461732 -0.16855067 0.7607548 0.7463211 0.7633365 -0.44917467 0.14162394 0.6319325 -0.28795302 -0.24450856 -0.18254721 -0.03604624 -0.1736178 -0.25954938 1.1533778 -0.24198973 -0.27437672 -0.17593646 -0.04251853 0.045942374 -0.1957762 -0.093091115 0.28410533 0.57961965 0.7177476 -0.39951858 -0.28057867 0.37354985 0.5329001
llamaba -0.18625295 -0.5552981 -0.23410772 0.2539002 -0.049017258 -0.14671476 -0.02253352 0.4479436 0.6021569 -0.42979813 -0.2095055 -0.01673487 -0.26259124 -0.66185355 0.37571764 0.53687257 0.20952976 -0.63825756 0.08380997 0.48058486 -0.3432073 -0.5078926 0.26336664 -0.013764687 0.97273827 0.43063802 -0.8301825 -0.0067842305 0.52895766 0.42324236
tranquila 0.002795388 -0.35275826 -0.6188773 0.5184576 0.39784497 -0.3242083 -0.25730002 0.1494366 0.7048717 0.06274117 0.038299993 0.299656 -0.43637258 -0.021990541 -0.20143431 0.6106248 0.4250786 -0.13766351 0.06802838 0.19227971 -0.44868815 -0.09338849 1.1468159 -0.34597743 0.90827316 -0.09331474 -0.55181396 -0.050336648 0.16679215 0.3221936
asesora 0.18410085 -0.2015492 -0.39458475 0.64358383 0.09757583 0.6567781 0.13398214 0.04891553 0.060566507 -0.17543462 -0.7318089 0.08199537 0.5982718 -0.007962655 -0.664859 1.1170132 -0.6031465 -0.002160119 0.32366022 -0.1506762 -0.19754805 -0.24475494 0.67107195 0.6109875 0.1632361 0.710616 -0.62189615 -0.18975367 0.32581088 0.7512012
dejo -0.36638466 -0.41804394 -0.677693 0.2135358 0.5526828 0.27252713 -0.15023486 0.5586361 0.5147543 -0.22920568 -0.27961397 0.1864523 0.19888131 0.10607668 -0.324952 0.79977053 -0.5395116 0.121164635 0.15644753 -0.20765133 -0.111920394 -0.32640988 0.95659465 -0.017013535 0.09686801 0.15875427 -0.24498574 -0.38517132 0.39150947 0.8689144
sitio -0.20999311 -0.27312452 -0.33951092 0.51292217 0.14782381 0.42012197 -0.2439361 0.4325951 0.73258317 -0.2598576 0.12685959 0.094928585 -0.14756177 -0.27297893 -0.097666234 0.9493478 -0.11839888 -0.24557972 0.24322513 0.095070735 -0.19158348 0.016231203 0.4299723 0.16634534 0.3812172 0.7150171 -0.15625481 -0.18627168 0.4162936 0.4429837
funciona -0.3754099 -0.9092438 -0.3190378 0.18387163 0.24024256 -0.16274531 -0.41845396 0.5841518 0.4784355 -0.4174223 -0.27180743 0.20536879 -0.039674077 -0.027139576 -0.14296336 0.6645038 -0.03638527 -0.05317239 0.22519077 -0.03486324 -0.37518042 -0.2162134 0.6509645 -0.12385863 0.5112695 0.5755555 -0.26459625 0.04813235 0.5019234 0.26499596
envian 0.051933654 -0.34177563 -0.9782851 0.36187002 0.051574104 -0.3447358 0.36555174 0.6263266 0.46672705 -0.19475935 0.13526075 0.5162562 -0.22843845 -0.17177887 -0.5616624 0.91615444 0.120822616 -0.27241367 0.27354798 0.13107689 -0.60354376 -0.4146857 1.1829399 -0.581628 0.39970914 0.28949896 -0.1076219 -0.3093848 -0.20817891 0.36516213
lunes -0.17793354 -0.31242064 0.0681237 0.22873391 0.19797462 0.16076376 -0.46926305 0.5507947 0.47645962 -0.1239229 -0.34936675 0.06398563 -0.64160466 -0.31982026 -0.25348625 0.7768381 0.1602147 0.04484881 0.13393791 0.5070331 -0.0860159 -0.44038963 0.8138597 -0.15620244 0.33597246 0.73355734 -0.4967926 -0.12085483 0.2788929 0.32340795
contacto -0.10486945 -0.5579977 -0.04539436 0.47509223 0.12475731 0.25595358 0.07748695 0.22780286 0.13908121 -0.2824522 -0.4231272 0.05738342 0.33583817 -0.08113521 -0.5391817 1.1024002 -0.47833884 -0.1796828 0.12359997 0.06891412 -0.17195126 -0.28928638 0.42654487 0.35605648 0.1687554 0.86454314 -0.7559545 -0.057755355 0.1560975 0.67408484
deseo -0.005679907 -0.27812868 -0.21275 0.5140775 0.22170842 0.38583058 -0.068258815 0.25568533 0.2088915 0.06447765 -0.08492099 -0.21407555 0.08771294 -0.30611238 -0.84340394 1.3140384 -0.3798462 -0.18958354 0.20057367 -0.14881793 0.1595037 0.1882802 0.18027075 0.44678274 0.37383372 0.82928735 -0.6351084 -0.15197924 0.6557321 0.5925298
termino -0.19771223 -0.5526106 -0.18085009 0.63435435 0.19671567 0.18596256 -0.3709982 0.15307462 0.29906502 -0.1824713 -0.21355306 -0.07205437 -0.10747379 -0.17834768 -0.42105216 1.025501 -0.2832285 -0.09957188 0.10216486 0.07217058 -0.17154555 -0.32710734 0.49204022 0.3330664 0.51474696 0.6093471 -0.36423004 -0.40761286 0.1139402 0.42939392
adicional -0.17671297 -0.16165489 -0.51550686 0.67344683 0.7733992 0.5497395 -0.18159665 -0.021616898 0.19585697 -0.2242203 -0.17085288 -0.046741944 0.17450052 0.112712406 -0.82917714 1.4281477 -0.40055782 -0.17395699 -0.09648899 -0.019271065 0.10874823 0.024481678 0.62643313 -0.0062082205 0.2764954 0.46667275 -0.41461208 -0.27334428 0.26240525 0.5280196
comenzo 0.100418344 -0.4934228 -0.35723302 0.37392417 0.03893797 0.103116274 0.14148253 0.23669915 0.596991 -0.13278791 -0.28934819 -0.040012177 0.19291219 0.10510863 -0.36052775 1.0047178 -0.57343143 0.17682917 0.14208554 -0.006812572 -0.19208524 -0.16345118 0.7036873 0.4045587 0.19841559 0.44005898 -0.5557568 -0.27257925 0.31807625 0.74764615
final -0.33174258 -0.28667498 -0.18985333 0.5907143 0.24171233 0.03346849 -0.54181737 0.36443958 0.42935243 -0.10305285 -0.26848203 0.049096573 -0.0801513 -0.042734493 -0.37663686 0.8440562 0.07137669 0.022673331 0.29805744 0.018772533 -0.10872032 -0.07389234 0.71749055 0.11269063 0.22497535 0.64554363 -0.525076 -0.34414175 0.031180713 0.4469504
tarjeta 0.07129981 -0.348118 -0.3122396 0.3740402 -0.022360096 0.02878691 -0.462041 0.40598398 0.87565196 -0.3207802 -0.3103199 -0.0061146 -0.85610056 -0.29832187 0.095934965 0.7420544 0.056397744 -0.2014017 0.44248 -0.00469206 -0.39577785 -0.13326868 0.46828756 -0.021880684 0.9110168 0.35965312 -0.19702345 -0.10148433 0.57180196 0.27508798
unica -0.040620785 -0.5063884 -0.28077638 0.30863926 0.074342676 0.25521713 -0.27380314 0.4696449 0.2895399 -0.21882017 -0.5476989 0.11239303 -0.017871387 -0.07060738 -0.22377177 0.7263149 -0.30460066 0.008560406 0.21356334 0.2063582 -0.22732614 -0.15508528 0.660429 0.10750895 0.34875917 0.5584339 -0.80328095 -0.12618488 0.24606676 0.6715581
compensacion -0.19066873 -0.33124667 -0.19793746 0.67453104 0.44754344 0.5428125 -0.64922005 0.23289582 0.7077968 -0.27237913 0.23075968 0.029401327 -0.065375336 -0.20695929 -0.30437717 1.0609211 -0.17451629 -0.34841135 0.37744302 0.062697634 -0.1927298 0.09614226 0.2660897 0.20902078 0.33317488 0.6246242 -0.4232461 -0.3629842 0.45087713 0.18171845
vuelve -0.26532137 -0.30428076 -0.42384648 0.3308699 0.3714525 0.17041308 -0.45198214 0.18006617 0.56502813 -0.21703255 -0.06805789 0.067101896 -0.010308147 -0.08633772 -0.3895303 0.8286721 -0.11687595 0.052523926 0.1663414 0.04774995 -0.14414468 -0.41688836 0.7101646 0.041601572 0.29746383 0.6820923 -0.34910807 -0.16239564 0.13752902 0.5619156
retirado 0.19459093 -0.18600538 -0.039139014 0.83293843 0.4819768 1.1148928 -0.05134903 0.3093235 0.32236043 -0.0575883 -0.07218509 0.20058243 -0.025671037 -0.07784774 -0.548053 1.2790257 -0.20370986 -0.15455632 0.05178466 0.039688315 -0.010521789 -0.025193008 0.21924497 -0.010223842 0.37992454 0.9157697 -0.29738095 -0.17513405 0.29436818 1.036789
mensaje -0.08291746 -0.2631316 -0.77104557 -0.0031972548 -0.18402392 -0.13292773 -0.13744201 0.771155 0.6530458 -0.31413198 -0.098766856 0.477615 -0.4578834 0.11263548 0.23864971 0.62470895 0.2882124 0.07263468 0.009961886 0.22921087 -0.21055931 -0.37417358 1.1124607 -0.12051754 0.76209456 0.16695783 -0.7927672 0.123841174 0.28501308 0.6163784
indicar -0.025092183 -0.66815966 -0.34955022 0.34681112 -0.08214991 -0.24124609 -0.068665236 0.33583286 0.39110333 -0.2618009 -0.55497867 -0.09710122 -0.12191266 -0.16147298 -0.16800281 0.9786442 -0.19290109 -0.045239545 -0.021705639 -0.06300284 -0.15352467 -0.2470867 0.63635445 0.30173382 0.49221268 0.5642927 -0.6369406 0.032178883 0.3001692 0.24598476
puedan -0.15746957 -0.46392667 -0.3625714 0.2634339 0.08783288 0.102003634 -0.19330604 0.17392258 0.58173686 -0.07229519 -0.18980502 0.0023835783 -0.13768157 -0.2956965 -0.09109648 0.900732 0.040564656 -0.11488237 0.13889112 0.40835926 -0.09958643 -0.11078216 0.4894782 0.23126648 0.59864163 0.5864853 -0.4859464 0.021920906 0.3791981 0.6521889
partir -0.2438652 -0.16282757 -0.0697536 0.51539963 0.54771024 -0.1338719 -0.14348112 0.21228412 0.1431676 0.10653798 -0.19297786 -0.18961371 -0.0639052 -0.0664902 -0.5494196 1.132408 -0.17297392 -0.04533132 0.03109377 0.0056271004 -0.19425942 -0.40040907 0.49969372 0.25859496 0.33408853 0.6176801 -0.75926137 -0.35773078 0.31369448 0.6676191
estacion -0.30625054 -0.44148114 -0.4586011 0.16282399 0.012674874 -0.37765875 -0.41354072 0.49136704 0.47676262 -0.19206733 -0.110813744 0.19131485 -0.5182246 -0.114981875 -0.19499947 0.678298 0.12720193 -0.022132918 0.2904822 0.26108912 -0.18024403 -0.13471915 0.93670803 0.16291648 0.38176015 0.34818333 -0.6609714 -0.036348682 0.35882086 0.3297307
raro -0.36629623 -0.20628688 -0.76308167 0.14314547 0.47520074 -0.024020923 -0.2874034 0.6769325 0.6252334 -0.16045971 0.3350349 0.42664614 -0.29547402 0.013016712 0.04021918 0.46769708 0.08065328 -0.13727382 0.54199326 0.024213137 -0.28137836 -0.21418768 1.7208282 -0.19769573 0.64803684 0.02492531 0.14037949 -0.36890426 0.38053238 0.52355564
diseno -0.06941892 -0.3213895 -0.4846631 0.38792697 0.05398392 -0.22927344 -0.4584318 0.35652936 0.4056974 -0.1814416 -0.06646239 0.11037464 -0.13508174 0.08850204 -0.22817937 0.7143688 0.036058314 -0.015389129 0.24221441 0.056539502 -0.07871119 -0.26930067 0.77139807 0.15697025 0.71144307 0.3636054 -0.7010347 -0.32195157 0.23871227 0.44079757
hiciera -0.21002726 -0.4100686 -0.1617025 0.4752761 0.24471605 0.19119342 -0.40277386 0.29344943 0.4973083 -0.1410069 -0.047643032 0.05116848 -0.11947307 0.0075805294 -0.45074293 0.9033143 -0.21782966 -0.0066305357 0.16766326 0.11624999 0.1720353 -0.06914628 0.5961789 0.03708457 0.23897514 0.58791834 -0.4580602 -0.33791146 0.41906396 0.44047126
piden -0.20060687 -0.40324193 -0.2233697 0.44623348 0.20982215 0.09977512 -0.29903817 0.3475531 0.42394465 -0.20956682 -0.24315178 0.06566348 -0.004193987 0.030603379 -0.512496 1.1926951 -0.20034924 0.10849635 0.09124865 -0.27209494 0.016962124 -0.18819396 0.56391203 0.35950026 0.3616391 0.4508049 -0.4173418 -0.23666202 0.110197484 0.49860996
contesto -0.087739244 -0.57305574 -0.29819146 0.046626065 -0.21422908 0.18187426 -0.072673574 0.51985973 0.50908214 -0.20287608 -0.5030554 0.11432401 0.14069614 -0.11870847 0.054605667 0.45840278 -0.106442034 -0.3193087 0.11743983 0.27943048 -0.24137457 -0.5289434 0.7192697 -0.11507981 0.51319855 0.81259793 -0.9024929 0.07960693 0.27200225 0.53568614
actualmente -0.07893477 -0.6275413 -0.32596257 0.56683254 -0.05026272 0.48316675 -0.2346791 0.30217943 0.3951734 -0.4184742 -0.47331017 -0.04352622 0.27248845 0.21210007 -0.45192242 1.1569566 -0.27610722 0.17071927 0.13707533 0.099198885 0.08834879 0.21510644 0.78435713 0.29272187 0.41138119 0.6041618 -0.29857367 -0.1649211 0.13503073 0.3758233
inconveniente -0.2716837 -0.43369174 -0.46062335 0.31430313 0.3410985 0.079748325 -0.21683542 0.43687242 0.65389377 -0.3599445 0.07737632 0.046629254 -0.12416096 -0.2033839 -0.09998653 0.830539 0.34414554 -0.2517432 0.48087746 0.41515556 -0.3234005 -0.22793457 0.656509 -0.21323645 0.4371789 0.06042342 -0.36469772 -0.38468903 0.5773395 0.3539867
otorrino -0.24247675 -0.36400956 -0.7412811 -0.0471363 -0.3268088 -0.97208595 -1.013513 0.75289583 1.2940236 -0.21180472 0.19370764 -0.102729894 -1.7277912 -1.2327734 0.54689497 0.4786766 1.6050614 -0.69499326 0.82207507 0.821838 -0.82528377 -0.07846575 0.61358166 -0.077102035 1.5607919 0.5075671 -0.432318 -0.19875446 0.728062 0.19053699
pidiendo -0.0031104784 -0.38275996 -0.081979156 0.58206075 0.50944453 0.49214655 -0.19385585 0.22782157 0.21500386 -0.17980391 -0.26058483 -0.14238527 0.10002252 0.13638125 -0.584001 1.3881979 -0.3309065 0.0050917775 0.049756393 0.011815569 0.104675375 -0.39974567 0.27497748 0.18971537 0.27028504 0.889307 -0.5212928 -0.18764551 0.104233265 0.4242067
particular -0.45082784 -0.082878016 -0.61427164 0.2302585 0.2540475 -0.120877944 -0.40622747 0.4404276 0.8182126 0.20247231 0.2501744 -0.6049207 -1.1191137 -1.0594319 -0.030156208 0.5362285 0.80726475 -0.2858113 0.49076146 0.53691864 -0.46015754 -0.21843037 0.25122222 0.13346304 0.6397765 0.20160805 -0.695336 -0.2521156 0.87070906 0.3047719
complementarios -0.3264561 -0.3917016 -0.24621189 0.41072124 0.28178564 0.3408954 0.14667127 0.34366012 0.51369476 -0.11350039 0.032682903 -0.29926628 0.2083865 -0.277525 -0.5088621 1.257686 -0.5635213 -0.08394382 0.018913629 -0.2657898 -0.09736047 -0.3863889 0.28287646 -0.20603882 0.508636 0.14930755 -0.5713949 -0.44305095 0.661508 1.1041269
enviado 0.16730872 -0.4368424 -0.71277714 0.15356863 -0.15715054 -0.2316232 -0.19933367 0.15972637 0.29115647 -0.42952174 -0.24009958 0.60044783 -0.32582074 -0.062157564 -0.26679957 0.82303494 0.33855006 -0.19827893 0.5041177 0.2656039 -0.3563915 -0.13956146 1.3534355 -0.0051406394 0.47520742 0.6627672 -0.08973035 -0.06765684 -0.26364675 0.08662449
solicito 0.17964572 -0.0043092566 -0.11019896 0.48279017 -0.18871532 -0.015570874 -0.3380499 -0.17212717 0.8201721 -0.17991954 -0.05743117 -0.19738819 -0.1973933 -0.08126758 -0.14185978 1.3671268 0.30713245 -0.042379953 0.3922835 0.23568176 -0.21141885 -0.063458346 0.224031 -0.16861701 0.77346337 0.78970253 -0.2722051 -0.49842644 0.43931338 0.3343355
semanas -0.55897284 -0.10264389 0.16719452 0.44916546 0.32365263 0.29033425 -0.15945598 0.6030204 0.42877582 -0.21018802 -0.09363737 -0.099053375 0.052747652 -0.13092534 -0.7182188 1.2801906 -0.13282141 -0.11336368 0.17748535 0.45789996 0.17695972 0.045463786 0.4164359 -0.024188118 0.20027107 0.51779675 -0.5503147 -0.3660675 0.4303247 0.4441463
encuesta -0.08077323 -0.54192364 -0.42894894 0.5257929 -0.09964943 0.37871748 -0.03192704 0.086168066 0.6006718 -0.149724 -0.068944216 -0.22697914 0.28074926 -0.17195167 -0.37802982 0.9053408 -0.32124594 0.031871445 0.012168781 0.20451896 -0.21227224 -0.16501638 0.5525434 0.47169748 0.60000294 0.42536712 -0.78237873 -0.25108474 0.25380117 0.5319785
empleada 0.033360735 -0.31689718 -0.16914521 0.775015 -0.039767843 0.7171921 -0.07384726 0.22345242 0.28149244 -0.07380622 -0.1966342 -0.3859818 0.5011012 -0.19773695 -0.94955945 1.6350261 -0.61787635 -0.2875191 0.03359724 -0.17614006 0.24174297 -0.22610155 0.07629238 0.25012064 0.37111872 0.71317506 -0.615915 -0.1926183 0.15635942 0.51567715
exito 0.19122778 -0.45010355 -0.36849466 0.4011546 -0.20394136 -0.087938756 -0.26954308 0.21278825 0.459955 -0.3135718 -0.2714949 -0.24239248 0.11099421 -0.10357546 -0.34058642 0.77218914 0.025390733 -0.009546395 0.40882242 0.39759535 -0.18673901 -0.0020807427 0.7184375 0.3322231 0.65072507 0.66270345 -0.32367 -0.37126553 0.04800212 0.12606387
cinta -0.40776622 -0.50936 -0.5977917 0.21314564 -0.17607355 -0.064625315 -0.6839383 0.33707747 0.9222963 -0.31161162 -0.0098243905 0.26665053 -0.3333603 -0.48613676 0.38935095 0.71984667 0.5051823 -0.22573467 0.4651724 0.2782346 -0.18686253 -0.0012134074 0.7760047 0.16565226 0.45070988 0.66039276 -0.3283225 0.015125185 0.31424183 0.0067643006
cotizar -0.41915417 -0.07587342 0.18709609 0.7175187 1.0052735 0.748688 -0.08680846 0.4138503 0.066144004 0.119521886 -0.18879843 -0.24639241 0.79654765 0.18539287 -1.2957548 2.1032245 -0.7379905 -0.15218738 -0.44090465 0.034323405 0.602785 -0.18518908 0.039887253 0.40699247 0.25097042 0.8756969 -0.6994063 -0.58358306 0.52807516 0.88790226
siguen 0.09257361 -0.24189787 -0.765544 0.35018885 0.5694346 0.35632688 0.22368339 0.26303992 0.46096915 -0.065114334 -0.44333056 0.023213232 0.40738195 0.10785227 -0.76576066 1.1724778 -0.081686296 -0.13172238 0.16503136 -0.21510512 0.062085785 -0.26413432 0.8207279 0.031863175 0.5190456 0.3514214 -0.28255883 -0.32847202 0.22942449 0.75765985
edad -0.22865795 -0.42798734 -0.3150701 0.4488944 0.12709554 0.042892046 0.14184189 0.54084045 0.48798415 -0.20429452 -0.07684618 -0.03245176 -0.010154565 -0.5587615 0.006446966 0.89105004 -0.1667305 -0.27758458 0.38503602 0.24619395 -0.51262665 -0.09904921 0.3180669 0.1846153 0.35878274 0.5996355 -0.49745107 -0.26420385 0.31546485 0.6400713
convenio 0.016658833 -0.2667205 -1.0387216 0.36383143 -0.18138732 -0.06692259 -0.42306238 0.45136875 1.5444802 0.15126693 0.3041355 -0.42592567 -1.438477 -1.8126541 0.41337785 0.47337928 1.5935835 -0.57857007 0.6524754 0.63055396 -0.61089283 -0.20843248 0.061944883 0.5010383 1.3527797 0.3111709 -0.72636306 -0.43973592 0.7362262 0.23850295
empezar -0.2063053 -0.25731188 -0.123577684 0.5421254 0.6097036 0.3303364 -0.29670385 0.2620311 0.3640379 0.107117966 -0.0056062527 -0.20845866 0.097735375 -0.1297179 -0.5442186 1.3529034 -0.21724455 -0.10520096 -0.1484498 0.0940466 0.14285338 -0.1376084 0.26086512 0.21478145 0.2964566 0.5100328 -0.46972913 -0.43472064 0.3306287 0.6069027
lejos -0.24495924 -0.6368857 -0.49791646 0.40888518 0.13349947 0.014548007 -0.04726425 0.36969697 1.1333481 0.0093295975 -0.09186774 -0.1665499 -0.042896595 -0.22589014 0.021919198 0.48427227 0.14665923 -0.115662955 0.060443196 0.22461408 -0.093166076 0.02230103 0.5518566 0.5373587 0.5716733 0.5398088 -0.52785546 0.056038186 0.6082149 0.50687176
fondo -0.7497234 -1.06165 -0.69536513 -0.0072684307 0.5472205 0.091374725 -0.5741874 0.31148735 1.1342175 -0.23396602 -0.23995632 0.43769395 0.07346483 -0.14837569 -0.022635316 0.6673327 0.1439334 0.064063095 0.06748759 0.103708036 0.011374129 0.29240263 1.0562484 0.15999725 -0.39680767 0.705982 -0.2238895 -0.102869175 0.6737081 0.15353055
intentando -0.6947557 -0.56836 -0.7359454 -0.2614341 -0.24920842 -0.8514611 -0.44353923 0.8215876 1.1775008 0.012522965 -0.5671001 -0.05237397 0.36125758 0.42711195 0.64596856 0.98809355 -0.75863725 0.2595312 0.43053627 -0.43649045 -0.20867722 -0.37447277 0.8139688 0.81570643 0.3329744 -0.18874367 -0.7153454 -0.18648641 -0.14495315 1.0584906
tramites 0.07651817 -0.2989215 -0.6222607 0.41089088 -0.16079651 0.24633265 -0.56678647 0.76292133 0.69160694 -0.054447096 -0.07398331 0.42448977 -0.1917979 0.034576114 0.12263107 1.0480392 -0.6569793 0.03427875 0.4240257 0.22025242 -0.015326195 0.10488371 0.8031553 0.9928919 -0.2716071 1.4151642 0.0016993844 0.70184165 0.5457817 0.057283007
necesidad 0.18651615 -0.32069454 -0.82782704 0.36229086 -0.3662277 0.080287404 -0.64706767 0.76187575 0.973028 -0.03970062 0.4043449 0.53604376 -0.49043834 -0.35334584 0.3700491 0.71625453 -0.12893742 -0.022663044 0.5938947 0.5775639 -0.10865657 0.36287045 1.0614276 0.89599925 0.06346493 1.1778193 -0.17434144 0.68460935 0.5452965 -0.04242124
bienestar -0.26832253 -0.24120255 -0.47529617 0.40119624 0.5137979 0.20071162 -0.042415272 0.42803782 0.4248301 0.15164638 0.13017295 0.12968159 0.1483333 -0.3149729 -0.45008588 0.9396852 -0.40146202 0.08870927 0.24216796 -0.34017286 -0.10712471 -0.31871784 0.6700454 -0.15613626 0.45740557 0.0721251 -0.66684675 -0.33605644 0.43212238 0.87881225
telefonico 0.078395665 -0.51915216 -0.22495109 0.5997675 -0.26277676 -0.13101454 0.27616745 -0.030151851 0.25364795 -0.20632172 -0.6691979 -0.46515813 0.5910066 0.13157293 -0.60875267 1.1121516 -0.49258345 0.11193724 0.15411583 0.05171193 -0.27435914 -0.0592872 0.5393002 0.7679008 0.6021427 0.68091744 -0.8023446 -0.15951791 0.23671068 0.64908177
ultima -0.009987302 -0.20536657 -0.5114948 0.29114342 0.47479618 -0.32725218 -0.20731655 0.42286548 0.70715064 -0.07795714 0.0009441775 0.17108554 -0.4598887 0.1277683 -0.5698063 0.48684368 0.1599238 0.06203192 0.14546254 0.12945776 -0.33924803 -0.3885718 1.2082572 -0.1988959 0.5469371 0.0127859395 -0.6167032 -0.45957705 0.20249574 0.47073254
acaba -0.024358163 -0.5946647 -0.45580012 0.29921964 0.47295177 -0.5183775 -0.22367027 0.54513156 0.51251394 -0.09585107 0.25990686 -0.22327757 -0.44303116 -0.5184256 -0.257006 0.61164266 0.13510767 -0.18343791 0.34733346 0.30986324 -0.072335824 -0.14052066 1.0609958 0.0043181316 0.42675665 0.024863472 -0.7022331 -0.37797028 0.4308582 0.36432335
entendi -0.075118616 -0.24485984 -0.20001043 0.14810558 0.040138904 -0.10040125 0.03456079 0.2679143 0.3721045 -0.19117728 -0.066672474 0.011351698 -0.0705698 -0.28716657 0.04594249 0.7530036 0.026754925 -0.3410423 0.16144785 0.42769748 -0.3837085 -0.5250545 0.36897182 0.040399257 0.93778676 0.50889444 -0.86503696 -0.2525885 0.3595533 0.8513459
afiliacionse -0.18569301 -0.37721533 -0.07573231 0.8539157 0.43774477 0.53430134 -0.3873896 0.092776105 0.18098782 0.11346916 -0.21621291 -0.21827717 0.32050574 0.12914391 -0.72747105 1.4712847 -0.55513954 -0.051345404 0.025359945 -0.4609294 -0.006864503 -0.2524665 0.25356206 0.82596004 0.32800585 0.60222 -0.7174727 -0.3508065 0.20366934 0.6088286
cambie -0.09693493 -0.40175974 -0.6090814 0.45752376 0.20662664 0.19270343 -0.113906994 0.2909337 0.35474858 -0.22313212 -0.13004948 0.2006538 -0.053808182 -0.2529741 -0.20116791 0.9132303 -0.026354872 -0.35632402 0.2540421 -0.021920092 -0.20348713 -0.29586282 0.6054766 0.024531867 0.3689607 0.45954603 -0.5689766 -0.30717647 -0.064109005 0.45126408
sucede -0.36242405 -0.3210484 -0.36552763 0.40688357 0.40663767 0.087436624 -0.31842187 0.4756414 0.5609747 -0.25942796 0.097915106 0.15871023 -0.21690951 0.007567274 -0.2878282 0.9318506 -0.108649425 -0.0845765 0.23975821 0.0835613 -0.35164264 -0.23390292 0.66624117 -0.17127092 0.25415462 0.21348546 -0.43442234 -0.13792442 0.34745267 0.5197279
entiendes -0.10379256 -0.41186306 -0.45680302 0.44876593 0.33742842 0.09918098 -0.42890313 0.3297469 0.5897742 0.05671862 0.020317806 -0.11336313 -0.15515542 -0.30832717 -0.288755 0.67682654 0.0418013 -0.08239781 0.42813617 0.05609367 -0.0980767 -0.1461187 0.52149516 0.30331466 0.51035255 0.51008844 -0.55624455 -0.4334076 0.387287 0.44391426
disculpe -0.051685136 -0.32207182 -0.46518406 0.3174834 0.20997232 -0.194895 -0.27788302 0.12681799 0.54720557 -0.044623993 -0.15376648 -0.14738478 -0.19207862 0.112176426 -0.31187713 0.850849 0.06936676 -0.03828133 0.28304332 0.26008147 -0.36738822 -0.006535175 0.590944 -0.0054276953 0.50592613 0.33620498 -0.97683585 -0.27883947 0.38382655 0.61873806
listos -0.19397965 -0.37407723 -0.2838892 0.3450383 0.4419669 0.07578247 -0.49934328 0.54986537 0.4426219 -0.17505445 -0.13390943 -0.011580197 -0.14525795 0.07168763 -0.40094483 0.9157556 -0.22980748 -0.06586651 0.28713778 -0.025070438 -0.20198107 -0.15465099 0.6780648 -0.15833148 0.17208032 0.3762407 -0.31849682 -0.3909385 0.30526733 0.53122026
interes -0.2236224 -0.4452761 -0.2563114 0.514082 0.24141389 -0.356046 -0.38670272 0.1390041 0.43319196 -0.24373998 -0.31962174 0.17193937 -0.019671777 0.15684557 -0.14911905 0.83809894 -0.091958515 0.36320975 0.21487631 0.29735133 -0.19307424 0.032261644 0.984566 0.4223898 0.43749234 0.30825856 -0.6017713 -0.2581016 0.06366844 0.34090877
comunique -0.16431576 -0.13351521 -0.2987271 0.53191173 0.2898996 0.17220311 0.035449646 0.36205944 0.24217005 -0.49628508 -0.24215211 0.40339735 0.20973861 0.15923512 -0.58858573 1.0690577 -0.36543724 -0.11837183 0.124530226 0.07839564 -0.19900122 -0.16620006 0.9718526 -0.19000039 0.19258545 0.57742894 -0.4325684 -0.20785661 0.103842445 0.5376769
necesitaba -0.24132055 -0.5975455 -0.021943621 0.4843914 0.047753625 0.122806385 -0.31121945 0.2883212 0.45456564 -0.04397327 -0.23577303 -0.087888815 -0.32082403 -0.34191114 0.005214427 0.8561091 -0.05416848 -0.18118194 0.13435578 0.28439564 -0.08474208 -0.18319882 0.21800072 0.19391441 0.70907223 0.5659401 -0.7314694 -0.092747055 0.53486955 0.47150734
regalar 0.03554105 -0.5124176 -0.1379441 0.46865064 -0.026872506 0.26623178 -0.18777385 0.24407579 0.44107974 -0.3404741 -0.5117141 0.12817797 0.22388534 0.1058147 -0.2828589 0.9394304 -0.4586896 -0.16163813 0.23324284 0.21126112 -0.065294705 -0.2116853 0.5505005 0.14203326 0.21636556 0.64486957 -0.67735696 -0.27247876 0.25786808 0.41007578
vacuna -0.6260313 -0.37530336 -1.1389592 -0.016020129 0.023337955 -0.86964726 -0.47555268 0.6268231 1.8295765 0.13412558 0.5714811 0.21716742 -1.117085 -0.43205336 0.75079274 0.64659065 1.1903279 0.07746675 0.6424119 0.5061384 -0.6596454 -0.17605582 0.8808764 -0.38896862 1.1961432 -0.44897795 -0.79182285 -0.05105683 0.56973565 0.5210952
