1680 30
pedir 0.19872391 0.07856414 0.6813713 0.32921082 -0.3765666 -0.3889837 -0.87634414 -0.84798896 0.43522725 -0.17442407 0.30836654 -0.03727014 0.0073659318 0.07082729 -0.28348592 0.75843364 0.61940855 0.3038147 0.445816 0.12657805 -0.30727264 0.08998792 0.08937682 0.4137333 -0.09263595 -0.66204107 0.69852114 -0.22667918 -0.5627783 -0.41984728
necesito 0.14285932 -0.4178117 0.554802 0.3668709 -0.5715742 -0.23230055 -0.42565662 -0.97306323 0.13564196 0.0154891 0.34787825 -0.24241282 -0.15307248 0.13107443 -0.16935319 0.4803571 0.30263197 0.13112888 0.6973492 0.19982465 -0.065680765 0.49076605 -0.035250995 0.36385575 0.19447279 -0.7146105 0.6497307 -0.33079588 -0.4945743 0.19366272
telefono -0.3336496 0.41643664 -0.03747956 0.345513 -0.74074364 0.25319377 0.17277198 -0.8546937 -0.03749482 -0.51901096 0.023485504 0.10492992 -0.9667579 0.046733394 -0.23909597 0.24901414 -0.118481725 0.72480375 0.48482162 0.75497866 -0.15882094 1.1608902 -0.37245762 0.77022254 0.41202772 -0.6254377 0.8591251 0.39922082 -0.6651122 -0.18248501
citas -0.60314703 0.43654457 -0.025322134 -0.31700188 -0.33659783 0.08838931 -0.43555832 -0.3639648 -0.3443944 -0.33333582 0.16196932 -0.4318122 0.14614885 0.24775931 -0.06942487 0.8056458 0.09128085 0.30405182 1.2507074 0.018675413 -0.3756582 0.79994226 -0.866423 0.55219245 0.16567291 -0.44917473 0.75731605 0.19028363 -0.99968565 -0.5108278
control 0.53501797 -0.13924485 0.93503267 0.32968333 -0.6206973 -0.68365103 -0.8446874 -0.66462827 -0.04727492 0.23195267 0.65854317 0.5288812 0.60660565 -0.24480946 0.12589285 0.5900846 0.665874 -0.36544794 1.1793326 0.38487026 -0.5031057 0.6122957 -0.17976967 -0.08185119 -0.48020807 -0.84434986 0.94404894 -0.30922893 -0.3602986 -0.3794684
examenes 0.5242505 -0.5378473 1.0265609 -0.6127038 -0.7274223 -0.02552769 0.06755939 -1.8295513 -0.12835032 0.1647438 -0.13180181 -0.6272836 0.009399263 -0.015314206 -0.08460655 0.6197582 0.08565018 0.41128856 1.0021783 -0.26803854 0.14373074 0.5588137 -0.42035925 0.9442788 1.0785936 -1.0349343 1.3785402 -0.57384557 -0.9752631 0.23199347
consulta -0.7428616 0.36603147 0.43346953 0.42640916 -0.24215749 -0.4545225 -0.7414262 0.075324774 0.25910944 0.27798533 0.7203098 0.29687402 0.6402608 0.27561247 -0.26257402 0.70257604 0.19047208 -0.38177007 0.9799653 -0.22904724 0.05572071 0.5375205 0.11398372 0.32017174 -0.83710617 -0.34229335 0.70167935 -0.31872115 -0.54165494 0.28628534
mandaron 0.29846326 -1.3086807 0.7124499 0.5752211 -0.4507464 -0.7375284 -0.430511 -1.4342421 0.11749307 0.42136228 0.2389145 -0.27009782 -0.35451853 0.13714108 -0.012795113 0.62274855 0.084618375 0.16214865 0.58765304 -0.027994744 -0.09437123 -0.14967264 -0.11184382 0.9812174 0.4928319 -0.6696005 0.13920788 -1.9742403 -0.68120694 0.5555754
sacar 0.25896764 -0.058332246 0.5742781 0.19161521 -0.3651763 -0.39603496 -0.529901 -0.54730153 0.42133695 0.09514341 0.41079605 0.01709049 -0.23821884 0.121200226 -0.21859539 0.87958807 0.52962244 -0.08229155 0.28058648 0.5475912 0.03635718 0.54868335 0.2165905 0.14349331 0.22600089 -0.77444726 0.7210119 -0.31094873 -0.84662366 -0.14363803
informacion -0.97569567 0.42386296 -1.3466989 -0.374515 -0.060736407 0.14867087 -0.33009675 -0.11841298 0.47552046 -0.17169395 0.52029425 0.119182244 0.16038103 0.662764 -0.13677408 0.8022121 -0.15158287 0.9669964 -0.22275488 0.024693921 -0.52763486 1.0817305 0.07976802 1.2588536 -0.23135889 -0.36673516 0.3347591 -0.17325774 -0.82765895 0.79328716
queda -1.1538424 0.657088 -0.28847432 0.17811945 -0.5559253 0.53999686 -0.30059746 -0.064628005 0.34404743 -0.13652924 0.6387373 0.104302995 -0.34149644 0.18241712 -0.17187616 0.4550862 -0.42417836 0.24835655 0.7986408 0.72673315 0.19308783 0.9733207 -0.44581556 0.32186106 -0.101588055 -0.73964286 0.43778357 0.23184457 -0.585016 0.535595
presencial -0.630032 0.378211 0.35298422 0.15973322 -0.767099 -0.11688246 -0.48353678 0.08457832 -0.008656651 -1.0278666 0.6924256 -0.5407996 -0.090843506 0.47307202 -0.23758267 0.57597786 -0.0076261563 -0.62137765 0.56482816 0.8262082 -0.5211584 0.5253262 0.26238552 0.5374689 -0.29818463 -0.4108081 0.9593351 0.8125509 -0.42270878 0.22405069
doctora -0.15401915 0.61391157 0.8384542 0.19080935 -0.18523018 -0.261934 -0.3468422 -0.2332029 0.008882064 -0.33776233 0.6292382 -0.7254434 -0.13550353 0.29155228 -0.47011995 1.1570154 -0.28351107 0.15426731 1.4013146 -0.42346868 -0.3376641 -0.21890709 0.08585515 0.45161042 -0.15662353 -0.47223818 1.1709623 0.3388695 -0.34674534 0.0036333422
examen 0.33325145 -0.5851949 1.5770612 -0.44899353 -0.10604985 -0.31481564 0.103424326 -1.6517473 0.06883795 0.82747316 0.08582884 -0.21179625 0.14134495 -0.028432384 -0.3019322 0.76260984 -0.15009153 0.8865898 1.1456695 -0.3122559 -0.19322407 0.21905196 -0.499786 1.4933022 0.64151925 -1.0652585 0.35621056 -1.3049662 -0.40652743 0.37246057
agenda -0.3834994 -0.3159524 -0.3916983 0.54534596 0.47717372 -1.3582485 -1.0222507 0.22009197 0.7299291 0.06564629 -0.13977315 0.38488165 -0.2269671 0.7558838 -0.6114992 1.5325242 -0.15341029 -0.9078006 0.60777634 0.5151038 -0.072049804 0.7070654 -0.4645725 0.21335432 -0.75577724 0.2147881 0.7390803 -0.5475589 -0.28782582 0.17172872
celular -0.5937551 -0.032265883 -0.28620404 0.40541658 -0.42471418 -0.32386702 0.13124256 -0.76075816 0.42639711 -0.6651131 -0.1827508 0.21048751 -0.7764651 0.03008471 -0.30207163 -0.059096206 0.08600255 0.23407789 0.8814185 1.1549575 -0.2614285 0.9266766 -0.24373251 0.6305019 0.3284819 -0.045950685 0.7061221 0.20163427 -1.1788409 -0.53434646
problema -0.19815464 -0.16273779 0.5410005 0.23367897 -0.005920825 0.05614782 -0.24857363 -0.3571648 0.19895664 0.19662377 0.3523863 -0.43612847 -0.19364046 0.38772506 0.2378194 0.7492593 0.040127747 0.26258028 0.4018057 0.23370713 -0.14797063 0.4176602 -0.16788559 0.39651287 0.5002618 -0.7094115 0.8367817 -0.63788307 -0.78020436 0.18881959
cancelar -0.9942498 1.4635357 -0.206087 -0.6320586 -0.30699927 0.14816783 -0.94484043 0.48892057 -0.09785845 -0.53612584 0.9671687 -0.8459779 0.5800423 0.6919145 0.070002615 1.1944858 -0.43921036 0.3580398 0.8052025 0.22616838 -0.4535628 0.38512433 -0.9602979 0.23325011 0.11856567 -0.9873822 1.0221459 0.41602114 -0.89923555 -0.02669498
minutos -0.8545908 1.0756468 -0.5285282 -0.13017991 -0.31316844 0.072440825 -0.7513949 -0.12802188 0.3451944 -0.35557973 0.6244952 -0.2922241 0.35601377 0.543491 0.36977336 1.0373186 -0.34991345 -0.24594247 0.6525741 0.3822587 0.021394908 0.8063811 -0.2723693 0.67372215 -0.33525914 -0.9417442 0.75413436 0.8795963 -0.29980993 0.5464472
llamar -0.08882934 -0.16542225 -0.17272682 -0.04203288 0.28511027 -0.25419745 -0.4994235 -0.4797381 0.68574023 0.36134335 0.5021753 0.2935311 -0.26312608 0.056618124 -0.47639626 1.1616158 -0.14265755 0.53972256 0.6598066 0.2385009 -0.517521 0.5067042 -0.15202218 0.03499182 0.09519312 -0.49107325 0.3690569 -0.432757 -0.9067334 -0.18155514
ecografia 0.28038046 0.068476774 2.1953635 -0.13162321 0.124150746 -0.9171471 -1.4307349 -2.01743 0.9114802 0.54773235 0.34018114 -0.08619444 0.246537 0.20371842 -0.9548434 1.423913 0.8876701 1.0954008 -0.15845531 -1.302586 0.1850925 -0.61393094 0.59645694 1.5953063 -0.1587856 -0.38518843 0.4743802 -1.3860593 -0.54383975 0.5706138
llevo 0.06960309 -0.2853794 0.812425 0.6684413 -0.09612569 0.06955686 -0.17504734 -1.0119208 0.32458523 -0.4745944 -0.2358811 -0.083553724 -0.3312746 0.215113 0.06127999 0.950676 0.13494419 0.67418975 0.5180773 0.75093454 0.06135795 0.486107 -0.29739055 0.54259783 0.66063297 -0.6236836 0.75925255 -0.23084345 -0.17056571 -0.56411994
volver -0.18830359 -0.3076402 0.7988784 0.08692276 0.088285595 -0.2036144 -0.777034 -0.6895796 0.49613774 0.29972324 0.23572353 0.08857626 -0.2877146 -0.038308505 0.3503104 1.0421723 -0.050422084 0.101207554 0.37656337 0.42002976 0.15198171 0.46354505 -0.10608488 0.33440188 -0.108457305 -0.6492497 0.4942918 -0.8983869 -0.50657034 0.26981798
dije -0.6590712 -0.021583393 -0.23363969 0.6206289 -0.38846907 -0.3158466 -0.06495117 -0.69031453 0.3577926 -0.055846173 0.7375082 -0.24223527 0.14950767 0.16361165 0.12270952 0.10115457 0.30782026 0.34318465 0.23454061 0.32957503 -0.28265375 0.29424483 -0.18111394 0.5640418 0.17562814 -0.5754314 0.23960765 -0.49364546 -0.90478194 -0.017850406
venga -0.5431505 0.23644826 0.21987316 0.28865558 -0.42592254 -0.13835898 -0.816841 -0.23510838 0.557746 -0.17888758 0.3685023 -0.33209407 -0.14453122 0.15707381 0.0779504 0.5564579 0.5617441 0.34367886 0.26149395 0.4953425 -0.03550478 0.25491843 0.33730203 0.2875254 -0.33011466 -0.48226556 0.5078051 0.0039507905 -0.71963036 0.117987074
momentico -0.15383206 -0.1661183 -0.17171842 0.7603182 -0.57939065 -0.27740562 -0.34491342 -0.5290469 0.4318469 -0.32179528 0.32694736 -0.87294555 -0.6057908 0.58705026 0.23397166 0.3508953 0.094656706 0.43255803 0.32096535 0.28583148 -0.19197592 -0.05553233 0.061710708 0.32268918 -0.18475735 -0.21752441 0.603017 -0.085918054 -1.1637864 -0.046233103
lunes -0.7741877 0.08765381 0.08902008 -0.16407852 -0.012278377 -0.9182053 0.06591654 -0.03010819 0.11348103 0.3557902 0.08456065 -0.8350973 0.22575593 0.7667853 -0.19694795 0.997584 -0.4220563 -0.9287542 1.2762321 1.152326 -0.38010496 0.32059982 0.035597328 0.9773472 -0.68458277 -0.09051496 0.015154865 0.01973788 0.28741363 0.64015234
posible 0.2124613 -0.20103294 0.32855046 0.96996975 -0.3716867 -0.13422146 -0.48884857 -0.8102519 0.1319495 -0.19271117 0.09250406 -0.37019774 -0.40457717 0.6119479 -0.2946046 0.58729964 -0.0458031 0.5686934 1.0746136 0.31039578 -0.17707919 0.20189488 -0.030684926 0.5362564 0.389312 -0.5070186 0.6121459 -0.26870835 0.027578898 -0.23277125
radiografia -0.84193146 -1.1627175 0.48241055 0.5390292 -1.201425 -1.5854347 -1.1082598 -0.8019535 0.45288408 -0.13953412 0.61849046 -1.0432597 -0.71340954 1.0305748 0.9453347 0.56253964 -0.15255348 -0.8922999 0.14177184 -0.7896891 -0.61431795 -1.3924578 0.6543457 2.0636926 -0.14800642 0.5284303 0.9032827 -0.7211828 -0.68554014 1.2169408
pueda -0.6326791 0.14926174 -0.3861232 0.36268544 -0.07660232 -0.17639002 -0.31554443 -0.001097289 0.5617218 -0.4289925 0.23863202 -0.045538396 -0.200539 0.32802206 -0.03632352 0.9906947 -0.10442688 0.3047642 0.33292216 0.8654044 -0.26875597 0.43591496 0.04868328 0.24225782 -0.080376424 -0.43958327 0.46117046 0.18919602 -0.45568636 -0.008693823
pagina -0.62781423 0.7682374 -0.82971865 0.91944534 -0.3099261 -0.08014689 0.31659433 -0.2327578 0.61674297 -1.0921252 0.025684804 -0.12558617 0.41529086 1.1803353 -0.5431913 0.4564414 -0.028938957 1.0132957 1.0162302 0.25906956 0.34450072 0.37224525 -0.4720055 1.3006254 -0.488339 -0.65083444 -0.10400877 0.9259677 -1.0145502 0.12427933
cinta -0.37824205 0.15833768 0.38861188 -0.043450676 -0.22936986 -0.3417191 -0.20400389 -0.15574352 0.485007 0.11505194 0.74631935 0.23546349 0.0792116 0.60536826 -0.21137172 0.86663437 0.0135611445 -0.2195429 0.4915462 0.62212986 -0.05296291 0.27624887 -0.21843323 0.048509177 -0.054469686 -0.81241083 0.21827349 -0.16428997 -1.0332131 -0.37358308
hablar -0.3007055 -0.015082665 0.36886668 0.66724384 -0.38260347 -0.2918224 -0.35731447 -0.50658494 0.27431127 0.027301585 0.2532983 -0.0687448 -0.21355662 0.053325232 0.015463729 0.7352599 0.22588596 -0.10195892 0.048347205 0.967239 -0.31438622 0.5755349 -0.16260263 0.38535684 0.19995508 -0.41585505 0.26295936 -0.42716503 -0.4873841 -0.12578677
presencia -1.0818837 0.2955825 0.2421435 0.40357107 -0.2074488 -0.6338774 -0.5861492 -0.00057283835 0.26880646 -0.62428004 0.061742302 -0.44704756 0.430247 0.6274169 -0.60382444 0.5326828 -0.11896383 -0.3763376 0.90743214 0.36604556 -0.3249262 1.0404912 0.26046222 0.54399735 -0.6365075 -0.23157205 0.85243714 0.86757535 -0.010165097 -0.2418389
llega -0.46696022 0.62825423 -0.0724033 -0.42901343 -0.005158673 -0.2893996 -0.0750977 -0.46112692 0.29236573 0.064657405 0.53610104 -0.038052954 -0.23871167 0.65627474 0.040734164 0.8234152 -0.38302565 0.09169091 -0.045244575 0.3073859 0.12916045 0.4186624 -0.0016750367 0.80661666 -0.11676583 -0.62069166 0.46976155 -0.23483759 -1.1303399 0.14622174
numeros 0.24747322 -0.8103165 -0.035784926 0.49574763 -0.082956485 -0.45263603 0.7950137 -1.479852 0.6409465 -0.17684129 -0.5844787 0.6505425 -0.6599386 -0.47352037 -0.029010043 0.80488217 0.20459627 0.75312805 1.6533982 1.339677 -0.11616497 0.9626939 0.32122403 0.7238076 0.6964999 -0.5098696 0.53284794 -0.35222715 -0.5801913 -0.85465705
llaman -0.060208343 0.18153681 -0.30799535 0.4279803 -0.26991984 -0.13318987 -0.25740895 -0.99814177 0.171254 -0.17334239 0.15078185 -0.47039026 0.090666585 0.35776237 -0.074526295 0.59130186 0.14804591 0.36590785 0.7652624 0.5337574 -0.39762506 0.36718237 0.11665278 0.6123702 0.2799121 -0.32149106 0.54576385 -0.21719955 -0.4759134 -0.13775003
llamado 0.30625466 -0.24250785 -0.89425445 0.5621708 -0.25532034 -0.54459494 -0.19967976 -0.65489626 0.47940713 -0.10454305 0.23357196 -0.028178714 -0.21648966 0.42351934 -0.2610971 0.6641202 -0.10186576 0.6704025 0.6712253 0.55678165 -0.47025466 0.7503117 0.03904968 0.42486766 0.03797594 -0.19054922 0.09581023 -0.41025153 -0.7005022 0.15553379
necesita -0.35538235 -0.2993108 0.74310017 0.23073028 -0.15860058 -0.55569154 -0.32883537 -0.45321298 0.4649211 -0.23680836 0.16921023 -0.08762523 -0.02531338 0.42864478 -0.084651396 0.6029705 -0.0473824 0.21326642 0.21989061 0.36053774 -0.13222551 0.44845313 -0.3438319 0.84961265 0.11086131 -0.51926136 0.11633375 -0.55376905 -0.49125603 0.026604796
datos -1.1342084 0.2943888 -0.702086 -0.14630285 -0.17775048 -0.015113294 -0.19328195 0.06543814 0.5436996 0.09011061 0.38259485 0.14988658 0.5229056 0.97137755 -0.2831016 0.74491954 -0.1945517 0.25239208 0.39569235 -0.09663534 -0.6500351 1.2709236 0.053956214 0.7231472 0.052222434 0.12909605 0.28624967 0.26739466 -0.869058 0.58956546
electronico -1.3129189 1.6417086 -0.6242396 0.020928616 0.15483706 -0.20521778 -0.24706656 0.3238621 0.68772984 -0.6663728 0.73086125 0.27044937 0.11858727 0.691834 -0.25715217 0.8228694 -0.35729912 0.06473771 -0.24863462 0.5686458 -0.11151335 0.57800245 -0.069308385 0.7993315 -0.59335804 -0.73185396 0.695808 0.7852264 -1.5513308 0.7261275
laboratorio -0.27648547 -0.7961682 1.0249429 -0.2508801 -0.4035643 0.027316855 0.38034356 -1.6511695 0.055548236 -0.08584761 -0.93387413 -0.8553467 -0.13248183 -0.20561099 -0.09576488 0.35364568 -0.35457662 1.3880029 1.8043314 0.09484934 0.09786501 0.5802199 -0.749775 0.8815094 1.4382548 -1.2661331 1.2635686 -0.061992846 -0.25129968 0.28407156
contestan -0.10356639 -0.5261609 0.2994281 -0.47926632 0.08219706 0.34010056 0.43599918 -1.7603419 0.7289797 -0.078468025 -0.8369169 0.32329938 -1.4935223 0.028106749 -0.37309077 0.86907166 0.0029118697 1.2837597 1.2214411 1.5582161 0.1555118 0.65576434 -0.45756662 0.83200735 1.7234974 -0.8025134 0.6653804 -0.31919783 -0.50978434 -0.75351876
cirugia 0.52117985 -0.7353814 1.0838704 1.4942254 -0.143191 -1.3654957 -0.70038253 -0.90000266 0.18514024 0.7165221 0.46884868 0.5005911 0.23156907 -0.5606563 0.39030665 1.5976741 0.44154626 -0.6313094 1.0662123 0.38356775 -0.53784096 0.111023076 0.34227565 -0.0015779405 -0.3637469 0.16595975 0.4764481 -1.6151451 -0.61774296 -0.07917908
pasado -0.61027205 0.48294243 0.46194082 0.5051007 0.05923802 -0.33463052 -0.36822188 -0.42372596 0.27351716 0.04750788 0.69372094 -0.4891202 0.57825285 0.10523738 0.03932454 0.65565974 -0.1961831 0.062388334 0.8432655 0.24211591 -0.4089119 -0.05653584 -0.6360936 0.52931535 -0.18194067 -0.3427917 0.41978782 -0.3338555 -0.44693348 0.02822278
autora -0.17615989 0.24889149 0.78459805 -0.045515247 0.13540427 -0.18632844 -0.345562 -0.69148093 0.15642858 0.09010862 0.5039641 -0.052406922 0.13854453 0.40669537 -0.3115916 0.775365 0.34258467 0.42488107 0.43675 0.0534808 -0.28379056 0.41291112 0.67064714 0.4916315 -0.40641117 -0.59025174 0.52385306 -0.15800154 -0.5740259 0.21321529
telefonica -0.7688429 0.3660072 -0.4512044 -0.112681 -0.5655533 -0.34487695 -0.56570506 0.36599544 0.8811232 -0.24163416 0.1208829 -0.19448857 0.40145665 0.56367964 -0.6847345 0.599185 -0.3738433 -1.0083035 1.196894 0.8190717 -0.37946838 1.355004 0.3037116 0.6648015 -0.86158633 -0.18968485 0.7811086 0.8345367 -0.52443457 -0.1077857
visto -0.46651053 0.11267089 0.34894675 0.478297 -0.56004506 -0.27365 -0.5069964 -0.066351734 0.48638698 -0.7277014 0.4140976 -0.62931544 -0.27237466 0.5292525 -0.37647748 0.56895715 0.29799032 0.26352295 0.32805973 0.8702162 -0.18825224 0.019351725 -0.3181214 0.37988716 0.40978578 -0.6003347 0.4849863 0.19087395 -0.32941827 0.05793048
llamaron -0.10832413 -0.120043166 -0.74375224 -0.73933554 -0.010490882 -0.14548483 0.33193982 -1.6204348 0.4399879 0.44219837 0.523496 -0.6014722 0.017708004 0.025698451 -1.133007 0.6271308 -0.104794234 0.24304368 1.1929797 0.7764197 -0.078738384 0.9791245 0.36410403 1.0065862 0.11633373 -0.8687922 -0.23223017 -0.21839154 -0.11083337 -0.239856
dicho -0.14652799 -0.22778842 0.35221055 0.39708808 -0.19116738 -0.10033544 -0.31594512 -0.549919 0.5465539 0.31398967 0.40725115 -0.12800415 0.023995042 0.5627608 -0.19978225 0.3480321 0.0019728495 0.7859536 0.74138224 -0.23632388 0.13258848 0.35493618 -0.57285994 0.40905455 0.34155166 -0.43112907 0.59622324 -0.6864129 -0.83640116 -0.07625691
hicieron -0.13662775 -0.88649577 0.6476932 0.040734034 0.09174556 -0.44302964 -0.22848718 -1.0688155 0.1313923 0.9594967 0.80179864 -0.34133923 -0.4320056 0.116974376 -0.52162904 0.6258702 0.30943373 0.39030474 0.3016199 -0.10978894 -0.3097729 0.20944239 -0.0474081 0.8653429 0.3993022 -0.65850234 0.7605295 -1.1440486 -0.10130685 0.511576
proceso -0.27015194 -0.47418755 0.4703876 0.90751123 0.3682891 -0.65888345 -0.46497628 -0.4994231 0.48079953 0.33937976 0.56180793 0.1662141 0.23437735 0.19093491 -0.5021903 0.30228513 -0.20285255 0.3675565 0.4492589 0.16438463 0.091090046 0.62188286 -0.5224229 0.16244167 0.074984215 -0.7335385 0.41854024 -1.5928781 -0.6845035 -0.2939392
miercoles -1.0674766 0.33350164 1.6527474 -0.07316405 -0.36711064 -0.658355 -0.53832036 0.0461421 -0.24504957 0.9720753 0.58111936 -0.6101408 0.6891122 0.8478181 -0.048459142 0.1549728 -0.42886233 -0.27610117 1.1794748 0.66691273 -0.6054533 0.6928945 0.07805126 1.5415368 -0.36992732 -0.3384881 -0.18723743 -0.19692641 0.69682115 0.31395543
cartago -0.43166655 -0.19240983 0.77497655 0.7872476 -0.613318 -0.53484195 -0.14454715 0.14382148 0.6438543 -0.30148065 0.44501543 -0.20962173 -0.037301797 -0.09818078 -0.21755828 0.5447024 0.40427297 -0.2303212 0.05578128 0.4910962 -0.83690405 0.32052237 0.17282394 0.6946025 -0.4947327 -0.34305862 0.15078712 -0.60935104 -0.6141334 0.23198447
hagame -0.0070199417 0.12925659 0.49714682 0.34901655 -0.3724818 -0.58130145 -0.25207192 -0.32500565 0.49072924 0.11586784 0.7068221 -0.16220851 -0.11220576 0.16613954 -0.31687838 0.41489118 0.28398243 0.54606074 0.34873164 0.62651527 -0.018605633 0.26538378 0.008111591 0.3630223 0.20777462 -0.41272923 0.515516 -0.46242493 -0.7056169 -0.05718404
llamara -0.29903734 -0.4120186 0.10631856 0.50672925 -0.36312455 -0.16290796 -0.5128663 -0.8263732 0.2222982 -0.23719558 0.25654563 0.22699748 -0.19364078 0.4218211 -0.007274295 0.43607852 -0.03712984 0.96097153 0.81445616 0.2245938 -0.12254285 0.5768304 -0.24928522 0.50858104 0.39847922 -0.43500748 -0.13057742 -0.6551228 -0.80949306 -0.10797586
mandar 0.25155362 -0.6129754 -0.16101089 0.5723909 -0.77972406 -0.3039581 0.31613183 -1.2878116 0.80259466 -0.0053382614 -0.038302153 0.11846663 0.16539651 0.3339846 -0.10160431 0.5269265 0.39795783 0.6676792 0.8574568 0.09718869 0.23569307 0.6278737 -0.27562645 0.7907071 0.3605886 -0.31329983 0.014258763 -0.9349343 -1.027153 0.60651
programa -0.15157779 0.13008371 0.0436627 0.12549444 -0.47346324 0.09658062 -0.24693464 -0.70901436 0.42441732 -0.31714624 0.012865668 0.13236211 0.02445597 0.2366554 -0.024495116 0.46932203 0.17446433 0.42694747 0.9341756 0.8308511 -0.019441098 0.8643262 0.35542604 0.7009801 0.46441633 -0.6401487 0.5212713 0.21025692 -0.37456965 0.04320684
mirar -0.14835025 -0.15378389 0.8899875 0.27980372 -0.28861982 -0.6055319 -0.3957379 -0.20376596 0.07617174 -0.24527535 0.34908685 0.02258943 0.095525615 0.7457779 0.005477082 1.0080863 -0.07766419 0.08432228 0.96059334 0.10388392 -0.16617854 0.20994832 -0.36621803 0.030814528 -0.07712625 -0.22116932 0.77432704 -0.2116193 -0.81513923 -0.4030426
quieres -0.43483326 0.09576858 0.4306661 0.54050297 -0.25741068 -0.3265874 -0.23087402 -0.2714138 1.0808781 -0.01588102 0.5814578 -0.39743635 0.16300839 0.63848805 -0.12828499 0.70589894 -0.013618665 0.060313996 0.0313459 0.26747978 -0.31467137 0.4900146 0.13868618 0.20286556 -0.13857476 -0.01657007 0.62541044 -0.30661 -0.22933495 -0.048705906
escucho -0.69399244 0.06689257 0.30541795 0.40317136 -0.31509694 -0.2986127 -0.62199134 -0.7299675 0.69512963 -0.7064097 0.12737164 0.22992334 -0.37801194 0.29035372 0.58623636 0.3950087 0.57708675 0.3820244 0.046770595 0.90310735 -0.4536767 0.37078872 0.7204871 0.3621737 0.33928335 -0.55117226 0.5927732 0.23980893 -0.46063226 -0.5768777
ciudad -0.6667702 0.039444298 0.23760451 0.21952088 -0.30488083 -0.22177698 -0.01956287 0.025811866 0.65456986 0.4067139 0.5502435 0.30795014 0.054430794 0.1890287 0.29762903 0.40672117 0.2551293 0.41049117 0.499605 1.3584428 -0.122156106 0.78049445 0.73117435 0.6640819 -0.4303911 -0.12575005 0.26526514 -0.38825965 -0.09670873 0.3488839
virtual -0.40623653 0.44025812 -0.033606697 0.88826615 -0.5976195 -0.060999937 0.17063707 -0.25738305 0.16978727 -0.7895787 0.3280874 -0.5320405 -0.30989924 0.20912454 -0.71997 0.59858054 0.29891682 0.22003183 0.69471633 0.73713 -0.14261457 0.58318174 -0.04474698 0.6003808 -0.14209391 -0.44434917 0.37642613 0.37162843 -0.72472423 -0.12820965
haciendo -0.19217725 0.01622397 -0.054184478 0.8080138 -0.3881243 -0.38334882 0.17096257 -0.49031076 0.54351056 0.16890337 0.78578836 -0.32831442 0.057529658 -0.021350378 -0.9344087 0.12997524 0.24912965 0.62224317 0.8227852 0.5213235 -0.43366066 0.6852248 0.032042857 0.172596 0.39754584 -0.63160366 0.0830193 -0.24677548 -0.67800117 -0.4295364
disponibilidad -1.7286173 0.70376545 -0.32356063 0.18091159 -0.0043550804 -0.66468537 -1.1986928 0.49108008 0.64560664 -0.18656658 -0.2001841 0.16959609 0.14981169 1.2455412 -0.12959701 1.2441785 -0.6612436 -1.5685704 1.2208134 0.79299945 -0.7157019 1.829369 -0.61453265 0.7663771 -1.3341128 0.7014425 1.3680716 1.4069899 0.118077174 0.45128298
pregunto -0.7432915 -0.122174904 0.8359719 0.22427188 -0.56574976 -0.26613262 -0.14433993 -0.23722006 0.5764346 0.23857392 0.10312925 -0.23671766 0.20198464 0.6199079 -0.03072987 0.33771396 -0.07652559 -0.038544297 0.70817155 0.4969588 -0.23301412 0.56181425 -0.20070356 0.46551093 -0.028347649 -0.34083566 0.25259912 -0.3689062 -0.55231524 -0.19672406
lejos -0.5550554 -0.2703681 0.43157306 0.4386491 -0.50322413 -0.13471076 -0.764565 0.05249919 0.6433954 0.01136753 0.7443605 0.17566098 -0.40085647 0.42662656 -0.31780642 0.380767 -0.009120489 -0.42722887 0.45139885 0.4498854 0.19765964 0.44866124 -0.24218574 0.13413014 -0.027022813 -0.28557697 0.505356 -0.31218523 -0.9232158 -0.09616215
morichal -1.5072495 -0.28920463 -0.55840397 -0.058087874 0.09552213 0.669082 -0.38516158 -0.7107999 0.3094485 -0.20124826 0.7036073 0.51096946 0.076367795 0.2640765 -0.51680356 1.048857 -0.5482717 -0.007857682 0.44418988 0.9165443 -0.13822375 1.3594735 -0.37181047 -0.20361392 -0.24567147 -0.2429119 -0.018632226 -0.36352187 -0.29775652 0.50718355
internet -0.15139009 0.53440243 0.56887317 0.26950365 -0.115564495 -0.29663816 -0.14063369 -0.41021597 0.34272832 0.15862502 0.30071458 0.35942474 0.410098 0.019643575 -0.3686111 0.6080734 0.42069298 0.98944473 0.7218766 0.40490487 -0.4035579 0.41517133 -0.055493288 0.2598518 0.5289272 -0.889367 0.19029343 -0.29882434 -0.6854337 -0.30139434
diciendo -0.44411287 0.07922098 -0.16075963 0.2461705 -0.43487227 -0.45063803 -0.25387254 0.057736974 0.64760077 -0.23989044 0.32130373 0.12726279 -0.032643106 0.101890184 -0.18084784 0.49077803 -0.20206748 0.40024996 0.5353787 0.6397073 -0.7046107 0.6679216 0.3129119 0.26117575 0.090210974 0.022713087 0.435549 -0.4293981 -1.0255008 -0.27664915
encuesta -1.8953018 1.036669 -0.9580936 -0.24532896 -0.18796393 0.3337015 -0.22223648 0.5680184 0.6293457 -1.1891316 0.45823562 -0.3204938 0.644048 1.6986216 0.16794908 1.448573 -0.89570296 0.30113477 0.1762736 0.5930699 -0.059573773 0.62063235 -0.40550378 1.3954885 -0.53835815 -0.62035054 0.5448177 1.7671936 -1.2706722 1.0394273
dificil 0.42963353 0.004864098 0.48933902 0.33667722 -0.12282994 0.030167866 -0.32367346 -0.59400654 0.900963 -0.28380063 0.4844338 0.20586045 -0.06907729 0.27890453 -0.37377927 1.1392196 0.02661215 0.2534877 -0.07563807 1.1083407 -0.1988013 0.59840256 0.11386557 0.6688799 -0.19546558 -0.39382085 0.17106014 -0.26545155 -0.2898264 -0.28068286
incapacidad 0.08847157 -0.08947485 0.27257103 0.7260806 0.41047922 -0.43387684 0.6113539 0.14596763 0.7582619 1.1539981 1.4777595 -0.71333194 -0.5580824 1.1264488 -0.8794493 1.2003753 -0.7153915 0.8943842 1.663683 -0.40113375 -0.21294834 -0.08941279 0.2143277 0.52404827 0.40694177 -0.09458728 0.18684274 -0.8006104 0.24049039 0.31034216
personas -1.1004505 0.24135925 0.16447386 -0.10872506 -0.2702749 -0.7230274 0.058824982 -0.6093906 0.031934567 -0.22637103 0.1666581 -0.43438375 0.5520121 0.74463385 0.54546237 0.36607072 -0.22583596 0.41952688 0.40359718 0.39476532 -0.5126006 0.4451723 -0.32833603 0.7883137 -0.13193662 -0.86242336 0.06653433 0.02407651 -0.2921541 0.27491608
llevar -0.3304772 0.20379515 0.4976426 -0.20858455 0.20470975 -0.46693134 -0.45689982 -0.8647816 0.13629144 0.036151607 0.87836903 -0.49311447 0.65421313 0.7155034 0.14564615 1.0625172 -0.18015853 -0.3974144 0.16947573 0.3621709 -0.29850218 -0.040030684 -0.11485238 0.36090526 -0.37334362 -0.5763139 0.088545635 -0.030205322 -1.0067533 0.3005805
funcion -0.6957192 -0.33377337 0.166099 0.1625833 -0.20552227 -0.05579064 -0.45658997 -0.11279581 0.5738316 0.04756474 0.5102625 -0.39202264 -0.33793053 0.9143542 0.49560633 0.3828062 0.34063438 0.3706991 -0.08045437 0.62564206 -0.2102823 0.49182183 0.21887846 0.6108373 0.30755976 -0.29405093 0.75671065 -0.22189744 0.08084739 0.14506249
mandan 0.6014366 -0.3902705 0.527669 0.94651085 -0.08715056 -0.71329796 0.07567259 -1.2681653 1.0923966 -0.4105689 -0.28223225 -0.10412872 -0.40495902 -0.061741456 0.4139012 0.4378953 0.28266174 0.7190356 0.90596724 0.55525476 0.64279383 0.42193243 0.012722115 0.41291854 0.52192163 -0.56906325 0.5269536 -0.8916397 -0.6956985 0.021088894
facil -0.1756518 0.0033012023 0.70677024 0.40679714 -0.12079925 -0.54849005 -0.44512144 -0.6199364 0.70333797 0.44879302 0.55977815 0.13998285 -0.10517919 0.53032506 0.14761871 0.4637817 0.093842186 0.4511449 0.31441438 0.2628518 -0.003972858 -0.012975593 0.15514946 0.9836122 0.3948604 -0.42590576 0.21045287 -0.7240282 -0.47187674 0.4618303
sirve 0.040339984 -0.67465526 0.32356676 0.18769683 -0.008743809 -0.036180332 -0.36815384 -0.5368043 0.57479584 0.012039757 0.8584459 -0.041182317 -0.47765562 0.77722806 -0.21065877 0.7411825 -0.35394675 -0.21423943 0.21236087 0.8255963 -0.25153655 0.49340105 0.08448965 0.7002387 0.11057507 -0.11152493 0.2782711 -0.3374103 -0.2715263 -0.084836505
registro -0.7213665 0.21895465 0.17791064 0.05841819 -0.3188259 0.07527605 -0.65893006 0.05239332 0.5487952 -0.28903982 0.576032 0.096181266 0.4176094 0.07989942 -0.15286551 0.643675 0.00971264 -0.4989204 0.5359369 0.45321095 -0.33657205 0.4807685 -0.081576146 0.4524112 -0.37702107 -0.5159898 0.8706426 0.043685135 -0.71259063 -0.25407666
normal -0.920271 -0.035463262 0.9021669 -0.34325898 0.13450581 -0.37283358 -0.14342967 0.31250122 0.16368555 0.29977447 0.5317599 -0.38086557 0.3545191 0.3762914 -0.78522336 0.6921712 0.15014979 -0.03163924 0.44719052 0.911185 -0.41189504 0.5784908 -0.13548349 0.49072716 0.041043706 -0.43321308 -0.040541545 -0.29412764 -0.92201173 -0.625317
comun -0.70368576 -0.22954252 0.29207826 0.75244063 -0.09472964 -0.2392399 -0.13746604 -0.46310452 0.2935362 0.0755 0.6244736 0.10754579 0.01237216 0.5336315 -0.045668893 0.19259818 0.037988864 0.42364663 0.42395923 0.55321187 -0.26236618 0.49177992 0.07838291 0.36113542 0.09683103 -0.274219 0.41168225 -0.55153376 -0.35627475 0.087846704
nadie -0.32066536 -0.35567227 0.18631491 0.17239253 -0.34698766 -0.166609 0.32226452 -1.3763163 0.7223834 -0.318002 -0.75947946 0.1658448 -0.9700733 -0.14486825 -0.46990138 0.32264188 0.06275182 0.33118325 0.7407985 1.736221 0.5848546 0.9361763 -0.088558435 0.98223704 0.45966277 -0.83635455 0.5488695 0.4820214 -0.67215383 -0.21183145
jueves -1.3941318 -0.035480063 0.96039075 -0.45284802 -0.30857447 -1.1008619 0.13433237 -0.2629638 -0.0027280978 1.242474 0.45709142 -0.72188985 1.2081141 0.945963 -1.0053662 0.08448016 -1.1644431 0.40867433 1.5712261 -0.103160605 -1.3224902 0.77379984 -0.048345886 1.2289232 0.19703183 0.16555385 -0.4795324 -0.3094179 -0.041453406 0.10656662
registrar -1.5032499 0.80183893 -0.6566069 0.49706638 -0.4937513 0.0042380784 -0.52252215 0.32880935 0.5878528 -0.61522907 -0.17406331 0.38973582 0.30410546 0.56212556 -0.18617535 0.49685973 -0.7193884 -0.76748943 1.3289404 1.0011667 -0.71967536 2.1925662 -0.13173631 1.0480648 -0.79178536 0.34456474 1.0508245 1.0610114 -0.23728217 0.10482382
prioritaria -0.33794287 0.30274138 0.50293064 1.3214848 -0.5811608 0.19483398 -0.22211933 -0.29098588 0.29893667 0.17052995 0.6378734 -0.80347425 0.16368057 0.34739196 -0.59266454 0.3100224 -0.18634075 0.32432675 1.0188718 0.42369285 -0.33078736 0.14174438 -0.36310354 0.41308138 0.34889272 -0.25232217 0.40598074 -0.25571495 -0.48317644 -0.539676
vacuna -0.72748023 -0.5451237 -1.8467599 0.67992723 -0.5579589 0.7697648 -0.16054688 -0.76269376 0.9991339 0.7067338 0.6527126 0.43678567 -0.24925311 0.32881284 -0.21927533 1.1597747 -0.6901315 0.87055725 1.0874711 0.5049771 -1.5907906 1.8812774 1.0788684 -0.15756783 0.5751138 0.6188409 0.2366295 -0.36031535 0.22897539 0.8228184
ortopedia -0.12690021 -0.81854033 0.6243228 0.5297779 -1.2544235 -0.9509822 -0.6164509 -0.42160827 0.16891482 -0.6108416 0.93560004 0.4092665 -0.35500678 0.858365 0.89175195 0.51474226 0.68196553 -0.6057395 0.10248767 0.43421355 -0.59334844 -0.5142172 0.13469516 1.0773287 -0.30102882 0.09167558 0.27687117 -0.3427124 -0.74781466 0.35076544
exito -0.19971183 0.0775151 -0.16450992 0.6030921 -0.4110081 -0.5245258 -0.3343171 -0.19942833 0.68249166 -0.25923413 0.7591379 -0.18062066 0.03459347 0.32076266 -0.18189661 0.6912316 0.12893662 -0.07870167 0.39342943 0.8260299 -0.34740773 0.1576657 0.06930718 0.32028624 -0.17421845 -0.07122808 0.21704149 -0.053467013 -0.5087416 0.10017755
situacion -0.82735026 -0.27734703 0.35947847 0.03821682 -0.113219135 -0.45872432 -0.33106464 -0.29187706 0.05641191 -0.24953437 0.13300847 0.27354297 -0.48901266 0.9982154 0.518615 0.44006437 0.06165259 0.0038271444 -0.07879677 0.573068 -0.32654357 0.6494316 0.28378487 1.1915692 -0.5498272 -0.51149595 0.34638995 -0.19604205 -0.21597515 0.30936137
ninas -0.09044559 -0.10591828 0.8908127 0.0075826803 -0.13013603 -0.20156358 -0.43478212 -0.6693054 0.2077353 0.10889777 0.20602366 -0.2624346 -0.16555817 0.4753336 -0.19466925 0.69231904 0.011247593 0.671242 0.36346442 0.2800919 -0.15813625 0.2943219 -0.21360373 0.7405438 0.61729836 -0.40985838 0.4426038 -0.5050775 -0.64373815 -0.13918145
pendiente -0.04910499 0.55331594 -0.34204733 -0.2075303 -0.041234918 -0.10262254 -0.24970052 -0.4170404 0.31499714 0.024205072 0.18811065 0.06536022 -0.0020328958 0.53561246 -0.1872831 1.230387 -0.45593166 0.05829317 0.47301328 0.5781033 -0.48551184 0.6475187 -0.40833426 0.17834966 -0.00013305238 -0.23277089 0.6055452 0.022213686 -1.0283796 0.21195179
vision -0.12872607 -0.65254813 0.06777654 0.56195873 -0.36396435 -0.4488486 -0.3797656 -0.58257043 0.4978776 0.08793274 0.25145534 -0.57591647 -0.5022902 0.33154222 -0.120553166 0.69518006 -0.24912225 -0.2438511 0.51064694 0.28415665 -0.3167168 0.20773071 -0.29050756 0.243822 -0.11865946 -0.062075175 0.7739649 -0.45617846 -1.016665 -0.38728428
citologia -0.4710595 -0.25717378 0.6092484 -0.5922248 0.016222779 0.10940306 -0.31300035 -0.87948465 0.27898315 0.3680496 -0.018875234 -0.15308267 -0.042447936 0.08242959 -0.06087433 1.1138085 0.107310094 0.102268346 0.5635401 0.1062906 -0.046427242 0.011288457 -0.24634606 0.68625295 0.1435237 -0.41492698 0.79160553 -0.8093774 -1.0257344 0.10807709
podia -0.30146062 0.683936 -0.13947526 0.25807226 -0.17962565 -0.46281353 -0.29422227 -0.31284785 0.59383625 0.2298616 0.45682517 0.07185458 -0.08947037 0.7595333 0.08906414 0.50267524 0.03788812 0.039310988 0.35988835 0.6230856 0.18112808 0.42278522 -0.1380085 0.66720045 -0.14977458 -0.73685277 0.057790972 -0.3169477 -0.53457916 0.7976414
comunicar -0.47464362 -0.28991264 -0.6091327 0.0750167 -0.11311378 -0.31008595 -0.099297985 -0.31854108 0.516238 -0.25072974 0.0562121 0.32331237 -0.18961293 0.35411066 -0.050851308 1.3040329 -0.19346379 0.1522798 0.5760168 0.36524075 -0.5889904 1.0818528 0.040262233 0.3123986 0.01042456 -0.51432294 0.48338115 0.27207366 -0.31458667 -0.19519211
llamars -0.42367375 0.039905474 0.24233985 0.2380298 -0.11050794 -0.2785025 -0.1736439 -0.52056336 0.56862307 0.02211207 0.24210753 -0.31891754 -0.18340904 0.40804142 -0.24472156 0.86013246 -0.1210162 0.3203582 0.33383885 0.47871104 -0.059528295 0.7203203 0.23273882 0.52800816 0.3133764 -0.2522168 0.4199481 -0.0168748 -0.4861493 -0.16590211
amables -0.46904236 0.09536344 -0.14558898 0.21268392 -0.29155228 -0.48661548 -0.56650984 -0.12134604 0.49172035 -0.07079322 0.46098068 -0.2459172 0.06484903 0.77986676 0.124095194 0.6399027 0.12349334 0.1589069 0.48636514 0.58971554 -0.4870647 0.42902103 0.077703126 0.47091392 -0.3925024 -0.2614149 0.14026542 -0.026400527 -0.31647617 -0.008750032
perder -0.8270687 0.51507676 0.49439156 0.5424704 -0.39530078 -0.21749854 -0.52291554 -0.09933251 0.7585599 0.11505006 0.5534416 0.12282332 0.064056695 0.3621656 0.029546723 0.24183549 -0.2367956 -0.06396706 0.14077342 0.69086343 -0.42060566 0.5564384 -0.1980062 0.4511868 0.023093935 0.0498003 0.5651242 -0.071219206 -0.63736546 -0.049752176
especialistas 0.19100678 -0.036560934 -0.22897007 0.35864934 -0.45560914 -0.76228404 -0.9943475 -0.059144687 0.33928046 0.03975264 0.636723 0.3797608 0.104636304 0.74784505 0.05482431 0.5013814 0.2115107 0.56552094 1.0601667 -0.0027430933 -0.50167835 0.35882196 -0.6404262 0.40257433 -0.32898277 -0.024315052 0.08772032 -0.59311366 -0.7965169 -0.2952183
reserva -1.2855059 1.4110364 -0.5993399 -0.5461496 0.26246557 0.46799073 -0.6070388 0.045248635 0.3792629 -0.51762235 0.7649361 -0.45512804 0.5431631 1.1791403 0.4287658 1.6385765 -0.54371 -0.108459115 0.018339159 0.6223017 0.054046653 0.8545685 -0.10809088 0.80244607 -0.52694684 -1.1401236 0.8076961 1.4329383 -0.7356791 0.7506573
digame -0.34764934 0.24452509 0.36498392 0.16530226 -0.058292642 -0.34325185 -0.32134485 -0.43381503 0.7796233 0.4335356 0.52047324 -0.14897381 0.23469573 0.40147936 -0.020350637 0.5415995 -0.32063425 0.38325775 0.6105322 0.29982865 -0.061980758 0.49787694 -0.07991639 0.13003066 0.009543188 -0.7466729 0.14559585 -0.09402441 -0.7711547 0.36044493
ultima -0.52593446 -0.6053746 0.56519973 0.8050192 0.023963012 -0.4340306 -0.28894478 -1.2998061 0.6292567 0.68111956 0.47297585 0.045053467 0.44166517 -0.17142642 -0.06444921 1.0434397 -0.27993476 -0.38149875 0.13528717 0.32590693 -0.031554796 1.0355918 0.49793237 0.17711961 -0.82984847 -0.36706007 0.17069387 -1.4716085 0.008732148 0.038682412
resultado 0.041167032 0.07786997 1.6709577 -1.1535517 0.4170975 -0.7582606 -0.08648216 -1.8613063 -0.06503841 2.0038881 0.8789339 -0.5782894 0.6101026 0.895682 -0.7433462 0.818799 -0.043306053 0.76742005 0.76050514 -0.7847851 -0.5731652 0.47633815 0.18045881 2.0100584 0.15720049 -1.0584607 -0.054460052 -1.0286967 0.0958066 1.0884415
unica -0.7360375 0.08373772 -0.07768893 0.37966102 -0.027347842 -0.123790555 -0.5417578 -0.5339407 0.5304356 -0.05656725 0.34523207 0.20251524 -0.23594823 0.628807 0.110013686 0.6375493 0.09851352 -0.06262406 0.34197024 0.24585001 0.28236112 0.75732493 -0.20843607 0.44476885 0.27096656 -0.77272964 0.502184 0.05077424 -0.45971778 0.0028893775
atienden -0.7358339 0.90155923 -0.13005799 0.4352146 -0.25382972 0.2363244 -0.07156497 -0.42735687 0.39862502 -0.2607294 0.58196354 -0.19034109 -0.13258913 0.20798053 -0.4212114 0.44469294 -0.33854797 0.39177617 0.793442 0.49528104 -0.1971141 0.6539632 -0.74603564 0.43551853 0.67001516 -0.6047789 0.47704756 0.4106403 -0.8009998 -0.32895812
puesto -0.24120134 0.07131352 0.5975256 0.28113377 -0.31549764 -0.2697214 -0.4791572 -0.27264935 0.17042792 0.28397176 0.8150815 -0.3561498 0.5773703 0.25032926 -0.4506449 -0.0871305 -0.021818252 0.32874158 1.0348235 0.83089656 -0.38365263 0.31040993 -0.21139894 0.49158263 0.39042628 -0.4431874 0.34096885 -0.42332578 -0.58990157 -0.08453282
telefonico -1.1329933 0.09518391 -0.1344467 0.5228262 -0.41559684 -0.36116058 -0.45093015 0.2526751 0.41751716 -0.32811105 0.08598719 -0.32404083 -0.33338493 0.5969408 0.35156497 0.16423894 -0.1077097 -0.082479894 0.7205404 1.1077663 -0.36341506 0.46968368 -0.1537552 0.6054494 -0.07798705 -0.43894517 0.5220279 0.2950272 -0.17278528 0.22338744
medicamentos 0.8718591 -0.6125861 -0.6408293 -0.009119934 -0.54423213 0.35437125 0.020149166 -2.063851 0.4929226 0.029111907 -0.13934983 0.3954219 -0.3285156 0.8830699 0.7037639 -0.07059006 0.9479961 1.1185144 0.82480514 0.6992705 0.47112274 0.88184273 0.7782611 0.7197334 1.0358937 -0.5080657 1.4281752 -1.2953751 -0.92490536 1.0339776
pediatria -0.46939048 0.42978424 -0.1640744 0.4552504 -0.57659054 0.12139772 -0.86490756 0.16345057 0.29745057 -0.04098721 0.7805897 -0.39617005 0.25599104 0.12570849 -0.09474849 0.8135065 0.2631924 -0.3715466 0.4138232 0.22999106 -0.11693615 0.8768139 -0.26585224 -0.025403637 -0.34899554 -0.571045 1.0570002 0.048869085 -0.90055114 -0.32074034
unico 0.021352487 -0.4670836 0.28228146 0.796942 -0.27621415 -0.19180796 -0.36088982 -0.32269463 1.1322576 0.123328514 0.699628 -0.10928689 -0.039905995 0.76868796 -0.1391561 0.7236733 0.27887312 0.18957338 0.551202 0.6354097 0.3388977 -0.2502238 0.31650266 -0.02483248 0.25795475 0.0009393598 0.5357402 -0.71323955 -0.7323786 -0.19654346
resultados 0.04968092 -0.82244486 1.7542027 -0.41979593 -0.3244778 -0.87390304 -0.06984723 -1.2634963 -0.6415282 0.5781488 0.6541861 -0.58974564 0.7898801 0.3663709 -0.27702639 0.57061124 -0.06631765 0.15531789 0.7507203 -0.20420653 -0.65606827 0.37313595 0.08400725 1.0917734 0.5943571 -1.0649816 0.58574027 -1.038663 0.21851692 0.5593274
lleva -0.21585338 -0.15241161 -0.24073501 -0.0024875186 -0.22677094 -0.33573437 -0.7754971 -0.53231174 0.49531412 0.0323259 0.9215765 -0.007991507 0.06519157 0.5807715 0.25158438 0.8106209 -0.0011272926 -0.13430345 0.061037496 0.36727905 -0.07394227 0.5625347 0.338932 0.10618625 -0.04330607 -0.54396296 0.4734916 -0.00014888949 -0.68886745 0.18946369
prueba -0.53035873 -0.35610494 1.1722713 -0.74020106 0.7630129 -1.1155205 0.69162136 -1.0232521 0.20094676 1.9242165 0.80168205 -0.5713225 0.17059481 0.48130107 -1.3336306 0.7368515 -0.7107985 0.8934369 1.2096983 0.6064752 -0.37412328 0.6760228 0.3063479 1.8623841 -0.100959785 -0.74126875 -0.6114042 -1.2141371 0.4925473 0.123455904
formula 0.967626 -1.7939789 -1.0779405 -0.20617141 -1.0428762 -0.037509814 0.83254135 -2.4609885 -0.16799937 0.54762834 0.88287747 -0.8479846 0.2728807 0.32908154 0.89118665 0.020025441 1.5921346 0.3301151 0.8398805 1.2906862 -0.27045086 1.0680728 1.2615368 1.2136943 0.87050956 -0.07241689 0.5918563 -2.6156442 -1.5926034 0.97029555
final -0.5034234 0.21516138 0.58337665 0.46202272 0.15013026 -0.60617214 -0.77417964 -0.10630665 0.76973605 0.50226384 0.6274192 0.21834607 -0.2954928 0.5612347 -0.2340824 0.14766704 0.30964857 0.14630103 0.40747535 0.862549 0.29415834 0.34473366 0.25348854 0.32708004 -0.18983468 -0.55538654 0.051236372 -0.4899972 -0.55823416 0.13823466
momentos -0.6448503 0.044565916 0.05121253 0.84360063 -0.3631562 -0.18625918 -0.1566153 0.16927917 0.86419314 -0.14919136 0.51777834 -0.20664467 -0.34698877 0.38357204 0.14873281 0.5301911 0.058577314 -0.11980868 0.29276162 0.71976763 -0.040924333 0.64112276 -0.11783413 -0.0045700576 -0.1619241 -0.23301446 0.71944404 -0.37903264 -0.62758285 0.090421
pediatra -0.21090321 -0.11391324 0.23613894 0.5263958 -0.7241342 -0.4733266 -0.7898335 0.3351849 0.48906443 0.49565056 0.9587525 -0.25287157 0.2292179 -0.015282456 -0.15142363 0.2867251 0.6193117 -0.15380286 0.5313367 0.8418718 -0.05616225 1.0648043 0.21646303 -0.3557261 -0.09615012 -0.23430383 0.83689034 -0.17295027 -0.85176814 0.17919503
esperando 0.46070942 -0.4635873 0.22678246 -0.0076453406 -0.16075793 -0.00700167 -0.33907282 -1.4718274 0.5070586 0.25766453 0.39165372 -0.13090989 -0.16215944 0.3348615 -0.24704432 0.9103265 0.12965934 0.10516881 0.26300448 0.47468787 0.065882236 0.78505325 -0.3024293 0.43775973 0.2019057 -0.82847625 0.49548635 -0.7947766 -0.21787834 -0.37043327
convenio -0.33586976 0.81259483 0.11913248 -0.12341463 0.015615772 -0.15400471 -1.0423938 -0.290792 0.09326465 0.06054157 0.48275417 -0.23498438 0.3966962 0.6931572 -0.09947234 1.2398914 -0.07349648 0.9369662 1.1219101 -1.1591425 -0.250141 0.26195344 -1.7290016 -0.08971951 0.45089182 -0.619398 0.80278516 -0.8862263 -1.3728698 -0.34695372
seguir -0.1481674 -0.18636909 -0.20222203 0.42454156 -0.20512117 -0.37848252 -0.72641337 -0.5422065 0.45075154 -0.061042707 0.3728956 -0.30114838 -0.28776866 0.20865014 -0.29748988 0.7721077 -0.029450823 -0.16837773 0.17458831 0.8432622 -0.52903455 0.3925839 -0.40560168 0.13758059 -0.40949 -0.43488842 0.61577874 -0.36883563 -0.39521012 -0.34730646
realizar -2.04067 1.3385142 -0.7809506 -0.19740248 0.19815637 0.23054412 -0.50485295 0.3743351 0.60959464 -1.3272694 0.59241277 -0.08012812 -0.04519952 1.1329162 0.15339135 2.019899 -0.5654709 -0.26402774 -0.032358855 0.61022997 0.3610555 0.45182526 -0.18780857 1.3838447 -1.367087 -1.2575303 0.96024853 1.3930252 -1.361016 1.3181484
asistir -1.4595767 1.119867 -0.66998327 -0.46474522 -0.059394907 -0.0013579179 -0.78464186 0.16348553 0.4198035 0.115147546 0.31391668 0.1487848 0.098598495 0.8759855 0.6629069 0.82780784 -0.7410526 -0.021107972 0.39614686 0.5302264 0.005467484 0.69963735 -0.67492944 0.8913035 -0.86425984 -1.1041888 1.0698401 0.87595624 -0.86510617 1.1834403
aparece -0.696126 0.20853555 -0.8592775 0.9896047 -1.0222234 0.21501173 -0.021314401 -0.18944657 0.72878665 -0.4231883 0.37647414 0.31743166 0.34018004 -0.55284715 -0.2806165 1.0585471 -0.16804521 0.82010317 0.38004363 0.34548002 -0.7510813 0.8399405 -0.16339508 0.4250273 0.09789027 0.18077631 0.21368091 -0.4735153 -1.0454861 -0.20400995
presion 0.596641 -0.39468256 0.2966005 0.7970665 -0.48803076 0.097054206 0.0015925668 -0.84836876 0.6111916 -0.19880377 0.27679604 -0.24868779 0.023463504 0.23458733 0.2143078 -0.068792075 0.6420526 0.8928609 0.9098211 1.057628 -0.28543723 0.23464358 -0.05342784 0.48117635 0.33417884 -0.63783085 0.86198753 0.0735335 -0.46297356 -0.106307276
salir -0.25600252 0.23257904 0.25942382 0.23268667 -0.49588782 -0.27252498 0.33110926 -0.33297017 0.325807 0.54755425 0.82388514 -0.19429769 -0.08143155 0.46230593 -0.2651214 0.55768484 -0.21613286 0.51471263 0.7394264 0.7801271 -0.45736587 0.6041568 0.08618639 0.80958676 0.23982944 -0.05229283 0.030673219 -0.5759888 -0.31420508 -0.016909089
ayudar -0.4262805 -0.61873734 0.23913185 0.25054538 -0.77640724 -0.04558328 -0.12796415 -0.052178584 0.4392106 -0.25630382 0.3137842 -0.3993708 0.23297128 0.81390387 -0.52056944 0.40779334 0.10634632 0.3239809 0.55870795 -0.046194743 -0.47591934 0.7850142 0.06494975 1.0268875 0.16318232 -0.3092781 0.45958093 -0.049520094 -0.22792374 0.3572361
preguntar -0.2589324 -0.20605154 0.016991783 0.41711748 -0.6107156 -0.57830334 -0.3530266 -0.41617525 0.2387724 -0.35977817 0.5041001 -0.28322682 0.17337342 0.27735123 -0.16212344 0.32239592 0.2800656 -0.1813535 0.2885817 1.0193422 -0.32343802 0.68742967 0.13381825 0.47398248 -0.16156238 -0.60187215 0.3997893 -0.3498423 -0.06669851 0.35063705
podido 0.27246478 -0.39086294 1.0936593 0.39861974 -0.06307334 -0.7010691 -0.44113016 -0.8554483 0.4231421 -0.26283368 -0.6320739 0.31880793 -0.9080184 -0.25820535 -0.20526266 0.959164 0.5922949 0.90300035 0.76574636 1.0567288 0.3846826 0.41509664 0.32700637 0.46340668 0.5556238 -0.63621646 0.505775 -0.478818 -0.5897936 0.009637877
entrar -0.28835487 0.51188964 -0.16142358 0.116959825 0.015356608 -0.20204268 -0.04225314 -0.42961058 0.43432766 -0.31901133 0.7960936 0.222998 0.088514745 0.65460247 -0.17052707 0.5576117 0.14865091 0.79747283 0.30349818 0.4007357 -0.2765754 0.6652367 -0.042104453 0.35213867 -0.028804973 -0.3734671 0.5570258 -0.2474954 -0.71856207 0.037698384
senores -0.65086234 -0.029316222 0.38122338 0.55142576 -0.3322998 -0.22627738 -0.60583425 0.03228749 0.61503875 0.030950824 0.81722844 -0.23909685 -0.056220494 0.70184255 0.21379314 0.46062213 0.21820101 0.20124711 -0.34009415 0.4546765 -0.5759675 0.3694564 0.12030268 0.41355094 0.026879912 -0.44218287 0.64612025 -0.20167866 -0.05754966 0.291935
apenas -0.25690287 -0.29020032 0.7282858 0.3812949 -0.16039379 -0.3891514 0.054883298 -0.4432645 0.58663625 0.429568 0.33139524 -0.24474408 0.23347181 0.29675633 -0.20232384 1.0943887 0.033710856 0.14248456 0.7251929 0.20960861 -0.22823492 0.11325473 0.032344658 0.507868 0.040349506 -0.33078107 0.26374376 -0.43807182 -0.5221956 -0.004247983
ejemplo -0.4842336 0.95415366 0.22717935 0.57872 -0.19526663 0.10052777 -0.15227732 -0.047991622 0.45709017 0.48326772 -0.043519784 0.49347308 -0.7618575 0.5884014 -0.057909757 0.07929623 -0.08601016 -0.16490561 0.34635973 1.395336 0.27177867 0.8632293 -0.17952156 0.67396146 0.24569117 -0.69562316 0.557088 -0.568744 -0.7332044 0.06821465
entidad -0.47987574 0.47398847 -0.15221307 0.201559 -0.026018353 -0.53867 -0.6632433 -0.2195176 0.20951654 -0.24453779 0.34359962 0.059540503 -0.06624352 0.4570397 0.31731778 0.33103767 0.05156413 0.21807724 0.1967401 0.42844734 -0.62439674 -0.016677555 -0.3243788 0.5875822 -0.47349304 -0.776331 0.5898866 -0.3829637 -1.0766993 0.24838585
neurologia 0.2677195 -0.0024809793 -0.56198066 0.72897726 -0.08831413 -0.81976455 -0.30981326 -0.44388583 0.9596072 -0.22166677 0.3421925 0.12203823 -0.045397874 0.72206557 0.13034858 1.2025212 0.072522044 0.84082836 1.5208808 -0.15618041 0.2647498 0.15530448 -0.7076995 -0.2128036 -0.2312604 0.16241644 0.387693 -0.95585054 -0.85300684 -0.8030573
cercana -1.410817 0.50634223 0.20599785 0.17732638 0.35205033 -0.23685768 -0.7990043 0.13049059 0.41003117 -0.20059124 0.26791936 -0.19283658 0.32724962 0.8313618 -0.0947837 0.55902076 -0.10546601 -0.5664959 0.7521999 0.5150278 -0.39740765 0.9862697 -0.2661968 0.6268219 -0.8467443 -0.30249253 0.7635699 0.6257493 0.17155558 0.1604146
tequendama -0.49417427 0.2551463 -0.4029658 0.40919635 -0.6629432 -0.45298666 -0.87400675 -0.37178499 0.32792374 -0.2752258 0.72622836 -0.45882764 -0.10827511 0.747974 0.5348582 0.4488748 0.16903919 0.23595268 0.78873354 -0.28076354 -0.24598187 0.0077231475 -0.3378069 0.86890084 0.08659164 -0.3564728 0.5632721 0.6993172 -0.5328691 0.55532473
atender 0.096591644 0.4408324 0.045098882 -0.15559216 -0.15661015 -0.21008734 -0.33321035 -0.39272878 -0.019991964 -0.61867255 0.030830307 0.32314128 -0.23520546 0.599031 -0.1020674 0.790973 -0.16748625 -0.36981344 0.5954574 0.882417 0.15780386 0.5925627 -0.14291206 0.746107 -0.44451824 -1.1748891 0.33506435 0.13515894 -1.1143906 -0.11634215
envio -0.5747468 0.14400016 0.13497275 -0.05608191 -0.22190857 -0.61082965 -0.43043008 -0.22625072 0.4269009 0.40614513 0.47958052 -0.21642925 0.69290435 0.43150422 -0.17829417 0.24499466 -0.22650394 0.16471289 0.5721163 0.35935956 -0.34524488 0.7822101 0.054587502 0.6885218 -0.44771266 -0.5838123 0.3271671 -0.3718256 -0.038231663 0.26569206
comunicarme -0.8239166 -0.7133545 0.66041964 0.03506586 0.069579415 -0.047955964 0.12602593 -0.76151204 0.16543977 -0.3174094 -0.06326589 -0.084187604 -0.22397824 0.13155548 -0.5835079 0.76370275 -0.23564872 0.99921125 0.49954107 0.5652617 -0.15883541 0.6395987 0.007846093 1.1434779 0.3971529 -0.6875146 0.10889505 -0.46179345 0.22171934 0.04025505
vete -0.62433 0.06385368 -0.073413834 0.53197 -0.76582813 -0.3976384 -0.28938067 -0.45476687 -0.0905996 -0.95342255 0.20841847 -0.45074525 -0.12490807 0.58067906 0.19873957 0.2892705 0.08542374 0.47726145 0.7679381 0.6667974 -0.43492523 0.07522988 -0.46094176 0.23848604 -0.048911165 -0.25636026 0.80763274 0.091348134 -0.5609186 -0.27191484
enviar -0.2292947 0.28615052 -0.14617121 -0.06375053 -0.24481004 -0.4261355 0.09293133 -0.82451546 0.045740284 0.29770383 0.06017879 0.04851693 0.29368204 0.37717932 -0.2948536 0.46217978 -0.07623826 0.5952876 0.7017299 0.42036954 -0.14249314 0.50209063 -0.0009741985 0.8528649 -0.54915285 -0.58021814 0.3105241 -0.70196587 -0.8946621 0.90263414
senal -0.38783085 0.025830964 0.76033837 0.4340197 -0.1758732 -0.5392351 -0.09774775 -0.47352883 0.73486805 0.30977178 0.66873276 -0.31944886 0.075953655 0.15613197 -0.0670499 0.6293893 0.2267582 0.019482924 0.18208316 0.91878474 -0.038093053 0.28759804 0.52396256 0.42862788 -0.16515903 -0.29319102 0.4949724 0.10669745 -0.37792894 -0.30001852
contesta 0.6075561 -0.64518625 -0.034021594 0.050360434 -0.29540062 0.23004864 0.053327788 -1.8849223 0.760723 -0.23881304 -0.7337973 0.31693345 -1.37185 -0.109002195 -0.43269727 0.5066445 0.27503058 1.331974 1.3839601 1.4700773 0.58596766 0.8846483 0.17844923 0.9075732 1.5937902 -0.8777931 0.551485 -0.07771545 -0.6455955 -0.29492995
problemas -0.40350208 -0.72784305 0.29737896 0.058763456 -0.58858114 -0.11109698 -0.24401017 -0.7816355 0.090669066 0.0043323296 0.22962423 0.573679 -0.5864776 0.5114086 0.29753256 0.52602935 0.23451082 0.04564668 0.56732273 0.6652104 -0.39113706 0.5494258 -0.34119222 0.73144823 0.4478922 -0.088545926 0.5980739 -0.18409196 -0.48563388 0.54123557
documentos -0.455745 0.20158303 0.1585418 0.27071387 0.08726271 -0.6148762 -0.39336878 -0.079199255 0.5844785 -0.12349848 0.5633152 -0.09451933 0.008408063 0.26474148 -0.1653773 0.48221788 0.21701048 -0.2569796 0.48504356 1.1675763 -0.27833128 0.2994809 0.0994679 0.22215624 -0.98570687 -0.40424657 0.17126004 -0.23310468 -0.78605723 0.021943348
siento -0.45381197 -0.44973612 0.5733953 0.7140181 -0.20414443 -0.2443312 -0.50311375 -0.39389476 0.52225345 -0.15584077 0.5650409 -0.2302208 -0.2533516 0.33963215 0.12669258 0.74164015 0.14123857 0.12157787 0.19452517 0.79807556 0.10918031 0.0017115653 -0.08657355 0.6210254 -0.05285372 -0.4157356 0.037659578 -0.3576068 -0.17062394 -0.09267035
tranquila -0.0122216595 0.102160275 -0.0993229 0.6215926 -0.8262951 0.1275708 -0.13349564 -0.43138233 0.6835218 -0.44309103 0.5830025 -0.40484995 0.13155982 0.646811 -0.31983206 0.08090966 0.5216419 -0.3565462 0.11440516 1.2345393 -0.3684453 0.44608265 0.38622984 0.7465037 0.50481504 -0.01380899 0.47914475 -0.09467484 -0.8796916 -0.58643085
fijo 0.1634674 -0.36832738 -0.2092292 0.4254161 -0.8178262 -0.32893562 0.257284 -0.6553482 0.19170967 -0.43950084 0.46268278 -0.30501416 -1.0734361 0.38902986 -0.0712419 0.12015889 0.41890755 0.009315433 0.41092968 1.1639246 -0.47837156 0.27585363 -0.32617205 0.52330464 0.6009757 -0.19828723 0.7932138 -0.071264036 -1.1977887 -0.24798761
historia -0.31896177 -0.36887076 0.12816864 0.71586573 0.013048097 -0.40239346 -0.79515743 -0.78224856 0.4129189 -0.33164316 0.69189 -0.2442574 -0.1571746 0.80676436 -0.0860073 0.09923076 0.048444495 -0.17309566 0.12854828 0.69459814 -0.4074458 -0.16008724 0.018888233 0.8245077 -0.2993283 -0.16515197 0.02993069 -0.69073135 -0.46492928 -0.12406835
vuelve -0.47634795 0.030802581 0.31826863 0.4467785 -0.30423242 -0.67953414 -0.29907838 -0.71516395 0.4938166 0.019969286 0.38847038 0.07044188 0.49544874 0.17031951 0.25440544 0.23998816 0.31685892 0.6248798 0.50638753 0.17929825 -0.40813276 0.1905775 -0.4721669 0.26451498 0.117162 -0.9426674 0.40005726 -0.47576216 -0.43182376 0.080943905
decia -0.53653145 -0.04383613 0.045661602 0.2625735 0.2967657 -0.4449437 0.19507861 -0.16681923 0.33018816 0.2440175 0.38539165 -0.11127729 0.0396915 0.012519357 -0.47490233 0.83142066 0.015332185 0.5519241 0.2729633 0.45878953 -0.88303787 0.98422426 0.1195063 0.5451105 0.034755077 -0.49934328 0.14031295 -0.5946521 -0.73752826 -0.4614413
familiar -1.2928731 -0.18280779 -0.51100385 0.23645738 -0.1294321 0.33254486 -0.8715505 0.072630756 0.6514533 -0.42137143 1.3015727 -0.12851366 -0.07477459 0.4703036 -0.39260072 0.24712548 0.42340133 0.8566772 -0.618944 0.003289491 -0.58545434 0.5518939 0.124239966 1.3415322 -0.18512653 -0.5145676 0.1563155 -0.27155575 -0.07009443 1.0959262
tarjeta -0.4401468 0.5467876 -0.13107616 0.47591263 -0.41274783 -0.33716547 -0.3194786 0.08252984 0.36721042 -0.38056207 0.7782981 0.22908024 -0.25037336 0.37065557 0.3267411 0.47886193 0.20374258 -0.05005257 -0.056870565 0.6100996 -0.55182254 -0.06668913 -0.0021032193 0.43100867 -0.2747644 -0.64888513 0.6728522 -0.6169178 -1.3124406 -0.40197614
pasada -0.3545204 -0.376926 0.16991498 0.4700494 0.32426193 -0.2917748 -0.18925904 -0.5319007 0.46132877 0.5026155 0.3965427 -0.15206419 -0.12891181 0.7794916 -0.42694584 0.8533218 -0.2631864 -0.047233127 0.4086025 0.34816816 -0.35822165 0.38546348 0.2650778 0.5771739 -0.27627996 -0.47461197 -0.024946712 -1.0021719 -0.16402169 0.02926222
higiene -0.9070107 1.0438906 0.28671622 -0.10288603 0.013406053 0.37731132 -1.0523297 0.018922806 -0.2838935 -0.31623882 0.49865082 -0.6780602 0.54569805 0.4338059 0.309684 0.80352825 0.06424926 0.0003357767 0.55465555 0.21746726 -0.6679787 0.49960503 -1.2150178 -0.00041191478 -0.30649525 -1.1906921 1.3284194 -0.105973765 -0.68928427 -0.5847569
psicologia -0.38456798 -0.17899048 0.7041303 -0.38957196 -0.01940033 -0.67785406 -0.2054468 -0.55738485 0.37049064 -0.38261598 -0.15886025 0.2358284 0.28409973 0.05530367 -0.34973353 0.97014385 0.46749792 -0.20288046 0.5749844 0.9702474 -0.28035972 0.13436082 0.11153997 0.8494947 -0.47792897 -0.3234085 0.27889472 0.17274798 -1.1571105 -0.5514057
horario -0.99171317 0.7208263 -0.25415695 0.23265833 -0.46576262 0.1492506 -0.39426383 0.23254418 0.4349814 -0.33775383 0.35524145 -0.52166104 0.18212938 0.6969055 -0.30947345 0.7101397 -0.80004585 -0.25766933 0.9830586 0.6629539 -0.6488358 0.91671 -0.7822335 0.38986948 0.16598682 -0.20720121 0.9454006 1.0782177 -0.45589158 -0.038098823
entra -0.42879435 -0.17929973 0.3583615 0.25554195 -0.018385962 -0.28352192 -0.29982224 -0.50468445 0.2796933 0.22428198 0.046750713 0.016327616 -0.6307419 0.6035844 0.20589492 0.752572 -0.09116013 0.40648204 0.4398969 0.14442489 0.29183054 0.47637287 -0.26224202 0.43324223 0.2562899 -0.7809485 0.67430973 -0.16254435 -0.68108517 0.29401815
llamarn -0.45660722 0.25870568 0.2060818 -0.23579347 0.17771833 0.00070978206 0.24054809 -1.0693238 0.24674563 0.2624295 0.008573457 -0.07493765 0.03354703 0.09241052 -0.96775883 0.8632747 -0.6465065 0.62281 1.0520624 0.5627462 0.0361565 0.7787915 -0.4167406 0.5892088 0.16135287 -0.35601997 0.02015119 -0.03309216 -1.1510202 -0.21550421
atendiendo 0.042730026 0.36374936 0.4740705 0.62501884 -0.38824466 -0.49772364 0.24906276 -0.64103806 0.14945169 -0.52351326 0.13189632 -0.4470495 -0.6261618 -0.08162299 -0.23769157 0.33784017 0.32896793 0.20355207 1.3428348 0.9877589 -0.42689586 0.4805396 -0.8906066 0.30084535 0.32293192 -0.41606084 0.608552 -0.13992348 -0.9187665 -0.81945664
cambiar -0.6853752 0.28809533 -0.03276668 0.37643775 -0.30559504 -0.06997439 -0.45587888 -0.7373405 0.16083151 -0.26981848 0.4825132 0.4254891 -0.14350969 0.14239231 -0.38614595 0.9707507 -0.10578689 0.12119517 0.089261875 0.8959342 0.08058894 0.5549769 -0.41705135 0.07210456 -0.041946 -0.4668199 0.5072535 -0.39169958 -0.52378774 0.16554481
disculpe -0.36642262 -0.014748838 1.3922415 1.0106719 -0.3264334 -0.20644353 -0.52706444 -0.27752966 -0.06758038 0.24914433 -0.15658715 -0.66512305 -0.1888495 0.14163609 0.08000194 0.7197758 0.52221197 1.0221027 0.9747487 0.6370656 -0.27740613 0.5376736 0.67692983 0.40630367 -0.24567279 -1.0419139 0.21682677 -0.21323493 0.5853432 -0.14960042
muchacha -0.14537267 0.19530188 -0.32848287 0.35602418 0.18914466 -0.5694927 -0.80807334 -0.46339437 0.8116127 0.029455625 0.43021938 0.15847142 -0.39885777 0.33754912 -0.17872332 0.77042663 0.19860554 -0.0037153582 0.09130078 0.2851627 -0.10832436 0.46952406 -0.260537 -0.21223436 -0.19490443 -1.01678 0.7947926 -0.017383492 -0.82410955 0.28792703
requiere -1.2236463 0.25612482 -0.6279502 -0.09178847 0.020935858 -0.42293686 -0.49134195 0.21175861 0.7417644 -0.51267916 -0.11924165 -0.18569832 -0.14838703 0.80068105 -0.19794393 0.7181692 -0.15941595 -0.39746296 1.085152 0.3618358 -0.29150537 0.85391015 -0.22814462 0.5292436 -0.6828802 0.02562533 0.6849317 0.65252596 -0.9386578 -0.24795377
programada -1.3087276 1.6087686 -0.4758529 0.030295731 -0.0898798 0.4839617 -0.8767151 0.10771347 0.06587558 -0.13999923 0.74556196 -0.077813946 0.2471183 0.22655208 0.2947654 1.4035605 -0.7929163 -0.48023042 0.573313 0.6225305 -0.16891725 0.7804997 -0.06890142 0.4842853 -0.8328958 -0.8635085 0.7802904 0.39964777 -0.6670755 0.83812416
esposa -0.046066746 -0.20185642 0.15560514 0.49528462 -0.42463934 -0.39299577 -0.031728797 -0.6446633 0.5090925 0.02040558 0.20966028 -0.1696366 -0.15822509 0.5020163 0.3231318 0.3055938 0.1697782 0.7014872 0.8664048 0.583696 -0.12484958 0.14667706 0.086551435 0.4993911 0.34373295 -0.41014966 0.43286118 -0.45052287 -0.34007016 0.044486858
listos -0.42890632 0.30504727 -0.05448672 0.42394486 -0.7407122 -0.33391908 -0.5773396 0.10653191 0.57663226 0.22218311 0.47635964 -0.3318764 -0.12018707 0.98754996 -0.24934092 0.6188516 -0.13213111 -0.4785539 0.4180965 0.4799247 -0.108235285 0.3723718 -0.080559544 0.5512281 -0.49750757 -0.21295996 0.34875524 0.09487339 -0.6064632 0.23846354
poner -0.19478852 -0.0881137 0.15722314 0.25192901 -0.50577235 -0.23811047 -0.39176714 -0.18282099 0.6106914 -0.3377922 0.6748916 -0.11388873 0.13513063 0.51338476 -0.3819291 0.5085368 0.23480937 0.18798696 0.40451768 0.35393336 -0.34883037 0.6990611 -0.10509889 0.49786535 0.45802653 -0.1287072 0.3622976 -0.15307625 -0.30065382 0.18231553
maneras -0.6617757 0.23461972 0.47387445 -0.04454325 0.18968843 0.3033622 -0.31265363 -0.23791261 0.3340952 -0.05427019 0.16663088 -0.31988078 0.20753787 0.69282526 0.065336846 0.834063 -0.33937728 0.20338222 0.54117805 0.5031584 -0.04310439 0.83437085 -0.37397036 0.078289144 0.27497146 -0.5860311 0.34078652 -0.13070455 -0.89230984 -0.19722438
hijos -0.55224997 -0.012802734 0.10077318 0.74595785 -0.015656523 0.0004517532 -0.57479066 -0.16703312 0.5316156 -0.36706576 0.7799315 -0.13398264 -0.18449084 0.43250215 -0.35372344 0.7808645 0.51241 0.32291856 0.05660599 0.6027583 -0.11440934 0.6845951 0.2090563 0.13686313 0.116640426 -0.39010665 0.38527128 -0.024210243 -0.3438981 -0.55464643
fuerza -0.6449772 0.109741725 0.23600276 0.5123112 0.019104226 -0.68176895 -0.5209324 0.017404975 0.3891863 -0.40400746 0.47841287 -0.22899806 -0.16563998 0.61205024 0.12484269 0.6631573 0.13370775 0.27358133 0.2813292 0.70984846 -0.14322437 0.35630542 0.21657513 0.4027368 0.27324092 -0.18414235 0.81598854 0.18911767 -0.27850792 -0.15772317
medios -0.16274458 -0.5929624 0.34682912 0.7690477 -0.053757556 -0.45534542 -0.3533871 -0.38121846 0.6142155 0.20041819 0.7474778 -0.19299935 -0.4284835 0.8748786 -0.15008903 0.19870436 0.09223434 -0.09379771 0.11127015 1.0020865 -0.27598038 0.4586695 0.30269188 0.23628667 0.17488383 -0.17016216 0.46667308 -0.81055015 -0.34699208 -0.23005705
loco 0.12458143 -0.063786 0.5449947 0.59709716 -0.38450688 -0.36735925 -0.016685247 -0.4302818 0.46429664 -0.095710166 0.88771075 -0.14060728 -0.21170057 0.03507304 0.29357734 0.6977524 0.53065 0.4531298 0.48132995 0.60238934 -0.36501953 0.21619621 -0.024973908 0.4060555 -0.19194528 -0.7128852 0.2974793 -0.6675425 -0.35740831 0.3688082
hacerlo -0.6697789 0.68761295 0.22978912 0.1884686 -0.083576486 -0.08329553 -0.13841648 -0.07561536 0.80596113 0.34112263 1.0228547 -0.6041928 0.1344178 0.73353535 -0.56022704 0.8694001 -0.14414373 0.08671619 0.33213446 0.49631172 0.25160605 0.07520238 0.014411032 0.35985366 0.0730635 -0.3723515 0.12561885 -0.12974921 -0.7570976 0.20006236
haria -0.6683014 0.24566661 0.4974759 0.00023797131 -0.06499184 -0.31146228 -0.6245383 -0.5393844 0.17608283 -0.1572123 -0.007800903 0.16417319 0.078902476 0.6983882 0.2175977 0.6702182 -0.24337594 0.42012742 0.34138277 0.5054904 -0.12406418 0.3968504 0.29306102 0.84302956 -0.6665273 -0.23382235 0.5543688 -0.0011771147 -0.52322215 0.36950082
agua -0.0020209993 0.4898295 0.73046273 0.58559257 -0.3485301 -0.40072313 -0.24437541 -0.5196735 0.48243785 -0.042510346 0.4889644 -0.30159357 0.12177271 0.64877594 -0.21805832 0.04519228 0.246011 0.6146045 0.8395915 0.55559087 -0.095774055 -0.10338522 -0.08786501 0.65893084 -0.106126264 -0.35278526 0.5072586 -0.7323659 -0.2125398 -0.033691015
internista 0.24779779 0.20432873 0.98911697 0.6770437 0.16557756 -0.71866584 -0.4847061 -0.81994003 0.5702055 0.57894945 0.10847874 0.2809542 -0.19264399 -0.025669744 -0.14052811 0.8317583 0.47165716 0.8692034 0.43228212 0.44339904 -0.23916097 0.05216313 0.26075053 0.3633043 0.14049694 -0.40464228 0.30779973 -0.57229084 -0.60202074 -0.08261837
producto -0.29986086 0.09049899 0.70178384 0.6611503 -0.010173651 -0.5654215 -0.35919586 -0.22910365 0.79274464 -0.12533715 0.7518123 -0.043374594 -0.18254632 0.36202624 0.08208812 0.42290923 0.27925375 0.3896837 0.022280307 1.2038411 -0.40845114 0.16093616 0.25533557 0.23823261 0.037545476 0.07339157 0.5125416 -0.042165153 -0.7581371 -0.407634
disponible -0.7877045 -0.09740247 0.26898876 0.7736757 -0.13517071 -0.56662047 -0.88343334 0.18314539 0.24270886 0.15984847 0.069736116 0.00375874 -0.45110422 0.833569 0.52887285 0.6889975 -0.41211244 -1.3462453 0.19967286 0.79997283 0.021294026 0.7819843 0.21771842 0.54606 -0.5601956 -0.22674511 1.2618014 0.010543849 0.025341127 0.5349769
deben -0.91070324 0.24868514 -0.072275564 -0.6002334 -0.65513617 -0.35102338 -0.20122099 -0.36976466 0.114650294 0.15542915 0.8880262 -0.73224956 0.32615006 0.8969829 0.35695994 0.45360997 -0.3951141 0.12443289 0.44625258 0.19006082 -0.67302525 0.17934193 -0.7707289 0.698358 -0.04595654 -0.56190515 0.44917703 0.19268209 -0.5576291 0.11770049
perdi -0.80885726 -0.014205736 0.40121132 0.4918472 0.07708985 -0.37183538 -0.6022225 -0.4414869 0.08374163 0.0612086 0.100276195 0.15306121 -0.040165193 0.19430678 -0.19814494 0.26970574 0.09236779 0.2134726 0.57405984 0.65135235 -0.1418166 0.87966335 -0.4773182 0.49538332 -0.027506977 -0.59164804 0.5683244 -0.574578 -0.110624485 -0.26578456
rapido -0.7239339 0.39209986 0.84421206 -0.029413743 -0.13113128 -0.48156136 -0.33844927 -0.26396927 0.22231503 0.06779566 0.30516824 -0.63133866 -0.027580637 0.8873832 0.019980827 0.47714406 -0.38571882 0.046548806 0.8335285 0.28138477 -0.21950474 0.28215152 -0.4530067 0.67852086 0.11181607 -0.005436958 0.40788436 0.08903522 -0.3155969 -0.24919154
vieron -0.25331864 -0.30633116 0.50232434 0.88825685 -0.7798735 -0.25456128 -0.5351753 -0.7972653 0.31628928 0.03116032 0.62003374 -0.24204336 -0.40425235 0.35210848 -0.0779405 0.046602227 0.4223351 0.033193137 -0.1414139 0.8347293 -0.33913112 0.25381726 0.07250814 0.5705852 0.40571237 -0.2519785 0.43769372 -0.7118019 -0.48746926 0.096538536
vengo -0.22837639 0.28596506 0.12308922 0.32326224 -0.22145167 -0.58894795 -0.6831207 -0.7168803 0.70302844 0.31394678 -0.03654607 -0.107246384 -0.36526254 0.3902274 0.065128796 0.6650957 -0.2553561 -0.11226454 0.57260007 0.44766867 0.11290914 0.060525276 -0.23243722 0.48842528 0.14099973 -0.17810066 0.5281684 -0.5460306 -0.87067425 -0.18905963
sangre -0.20330277 -0.47916678 0.6346703 -0.030021755 0.08890634 -0.3826827 0.104759894 -0.8817782 0.18501008 0.2230741 0.20842025 -0.5085509 0.037038144 0.2055623 0.26643908 0.6703234 0.13617936 0.11602592 0.13814923 0.80805004 -0.06341479 0.30838707 -0.3426361 0.78179824 0.28875637 -0.5141216 0.44790298 -0.5236679 -0.46608737 0.38816983
exactamente -0.7758434 -0.30752623 0.102507025 0.34639245 -0.6436793 -0.39852747 -0.2107289 -0.11280159 0.34632772 0.3687217 0.027913285 -0.31275755 0.27788487 0.32413465 -0.333251 0.4484542 -0.5562821 0.17169616 1.2088327 0.2477155 -0.52689165 0.039910518 -0.3289846 0.25355688 0.11876596 0.17605859 0.96547043 -0.22177449 -1.0422419 0.09413088
particular -0.6249083 -0.28160015 1.473419 0.40204418 -0.27588177 -0.76903397 -0.4242245 -0.40387228 0.030606672 0.12741454 -0.12097288 -0.8568153 0.0057576615 0.24734238 -0.0679313 1.0186117 0.0065769795 0.49396107 0.19096087 0.02459419 -1.0485804 0.07772514 -0.47086215 0.9870463 0.0058674347 -0.38860688 0.25913873 -0.82601476 0.589848 0.2424489
vuelvo -0.11454878 -0.19321795 0.53936285 0.044223234 -0.2492156 -0.5789976 -0.49781576 -0.43382192 0.36795092 -0.009854703 0.3869238 0.1411561 -0.20859073 -0.053422026 0.45934543 0.9933348 0.46463972 0.47928375 0.8008984 0.5254438 -0.8319382 0.62998503 -0.01644874 -0.06273854 0.9625855 -0.7827778 0.71226656 0.2118819 -0.25609022 -0.9383957
hermana -0.29399332 -0.12862448 -0.26377517 0.35527104 -0.3218567 -0.3212489 -0.037769027 -0.07015844 0.417537 0.14363034 1.0789493 -0.69825363 -0.43604413 -0.07808693 -0.3455871 0.4359251 0.20908026 0.2527234 0.18114355 1.1203297 -0.38325065 0.40684986 0.60814077 0.618928 -0.03825718 -0.54233265 0.13708 0.16115093 -0.81993634 -0.22958024
inicio -0.4215409 0.24958019 0.20853151 0.22716898 0.18212639 -0.3628102 -0.40220842 -0.46356273 0.32109088 0.49149856 0.84907544 0.2178528 0.18569271 0.51005036 -0.022947855 0.5979903 0.37457564 0.75012 0.057242285 0.37724525 -0.76392156 0.53744966 0.04170801 0.18420425 0.16804267 -0.22643787 0.16434832 -0.536016 -0.8828885 0.22340709
entro -0.32926115 -0.058180917 0.4344899 0.40853292 -0.3082619 -0.13350897 -0.25963157 -0.70907456 0.50877315 0.015504943 0.3035419 -0.2765603 -0.3065555 0.22154674 0.011373226 0.7614806 -0.30522892 0.0821714 0.5850276 0.26628023 0.0641802 0.09649697 0.05594395 0.68647265 -0.13261342 -0.0849187 0.5186555 -0.61338097 -0.6070079 -0.17369081
tele -1.2151725 0.23516603 0.051222473 0.17117341 0.0418922 0.13154817 0.04359622 -0.05488987 0.29937378 0.53597224 0.8000282 -0.23779708 0.32877192 0.6733881 -0.5948691 0.8794853 -0.0632553 -0.16814579 0.2665086 0.5881368 -0.21526887 0.24810353 -0.26276508 0.7839581 -0.22643752 -0.44472802 0.029737756 0.17396261 -0.7201623 0.19063468
sitio -0.6071883 -0.3291526 0.4615246 0.66527814 -0.324297 -0.23773026 -0.38854834 -0.24392425 0.6215799 0.052755244 0.410159 -0.64176553 -0.408652 0.5680495 -0.1767621 0.32265007 0.061202288 0.4822155 0.4646323 0.70207244 -0.31759542 0.07103986 -0.11592599 0.46131226 0.37684527 -0.17046002 0.42225796 -0.3518149 -0.097850166 0.12222691
formas -0.5830916 -0.31855875 0.40879706 0.48094174 -0.0129197035 -0.3727862 -0.20742904 -0.28288928 0.24737324 -0.006575071 0.6267799 -0.3314315 0.010377869 0.7214658 -0.21843311 -0.20522 0.20724604 0.51648927 0.70175743 0.43392897 -0.29155338 0.6446495 0.03863029 0.74827564 0.089160554 -0.10771506 0.20411463 -0.53596103 -0.4462693 -0.08481292
tratamiento 0.3114438 -0.3868188 0.8526638 0.34016544 0.13302796 -0.14154334 -0.39847362 -0.95580953 0.2606578 0.058345746 0.48366514 -0.25201446 0.60973734 0.29791787 0.17070499 0.65244997 -0.211247 0.60907394 1.5665318 0.023386935 -0.48345798 0.14477552 -0.38194054 -0.0755304 0.59966004 0.23407468 0.939029 -0.9951418 -0.7713565 0.09744288
interna -0.24292047 0.10979366 0.5372888 0.7379652 -0.051952478 -0.63438934 -0.79573256 -0.3861495 0.7276663 -0.45355985 0.33389124 0.57820946 0.18770327 0.30227765 -0.25562784 0.23280163 0.73819417 0.5375149 0.53446317 0.584655 -0.052884676 0.19144213 0.2859856 0.18285523 0.007902573 -0.7136008 0.5437038 -0.35524368 -0.5453207 -0.85943216
poquito -0.49621078 -0.024422416 0.35456368 0.64527124 -0.5636951 -0.49529186 -0.3082898 0.27819672 0.8740389 -0.050131027 0.626832 -0.38678858 -0.048051763 -0.101591855 -0.22658905 0.18659027 0.122145094 -0.10592979 0.6647745 1.1209004 0.033376165 0.53780127 0.41477805 0.14227805 0.12947686 -0.23098747 0.84801334 -0.018879265 -0.5959111 0.12681442
enviaron 0.053285103 0.090067126 0.21885803 0.28950655 -0.0026514474 -0.86237395 -0.55284655 -0.83456075 0.3647084 -0.31766835 0.5157463 -0.14567363 -0.25257447 -0.33296934 -0.7621722 0.6990723 0.0961907 0.51724505 -0.037576053 1.0278637 -0.3074495 -0.0101512885 0.11444992 0.696439 -0.21416825 -0.34844112 -0.21496734 -1.1000034 -1.0744636 0.45117983
positivo -1.5799651 0.8951775 2.4773073 -1.2104579 0.5892257 -1.806418 0.73787355 -1.2460916 -0.43093693 2.7738414 1.4522853 -0.52236944 1.1746565 1.4793632 -1.3427114 0.5947136 -1.2872895 1.442199 1.9170059 1.0058874 -1.2335238 1.3017108 -0.112856835 2.7961037 -0.42096698 -2.1349857 -1.6380157 -1.0722059 1.2231599 0.39938673
cancion -0.36657578 0.3253169 0.38086626 1.4641459 -0.6394167 -0.71458465 0.07836561 -0.34334323 0.8627214 -0.25228712 0.868877 -0.62277174 -0.047297362 0.55661523 -0.31026378 0.19085988 0.31591243 0.43123007 0.93559396 0.9578374 -0.373391 0.1375008 0.13734896 0.06514514 0.21083537 0.23869024 0.07848236 -0.0770819 -0.27016783 -1.0081539
pandemia 0.40865985 0.19539726 0.7061523 1.040638 -0.1276628 -0.5194189 -1.1945738 -0.7934435 0.15023246 0.21870072 0.654171 -0.16461508 -0.34104365 -0.048345968 0.53373474 0.94373304 -0.18567665 0.13543837 1.1039131 0.28730062 -0.15416373 0.070150964 -0.4475975 -0.33549908 -0.11108118 -0.6240215 0.31175855 -0.7208349 -0.64709324 -0.6793557
termino -0.8112651 0.3673709 -0.25418696 0.24332048 -0.026446396 -0.004364724 -0.7038962 -0.16258144 0.6183069 -0.045403205 0.49594527 -0.4999379 0.08328974 0.8313333 0.18986179 0.69950163 -0.100533895 0.17490718 0.08642073 0.772484 -0.31487536 0.38803664 0.035265673 0.6771087 0.066168256 -0.3670503 0.23614353 -0.01123926 -0.094849996 0.3708273
compania -1.1897411 0.22405294 0.05456108 -0.0018328904 -0.15248394 -0.26250127 -0.04837984 -0.05642773 0.22074406 0.7138786 0.9451067 -0.7513922 0.70338035 1.1386639 -0.3471553 0.48608366 -0.34353682 0.31851593 0.9304477 -0.16072385 -0.4147576 0.32561544 -0.6019274 0.4008066 0.35824466 -0.26084107 0.2379633 -0.643479 -0.20104527 0.19831653
edad -0.5015146 0.8356458 -1.0903624 -0.72968316 -0.8547835 -0.07423253 -0.53967226 -0.19617362 0.06663173 -0.032829475 1.5163457 -1.3366456 0.60457206 1.3265387 -0.13053161 1.383737 -0.4506341 0.8217596 1.3976543 -0.56026256 -1.279684 0.19632302 -1.3466223 -0.04924595 1.0687801 0.36154887 0.8087838 -0.079271145 -1.013346 -0.58636284
manejo -0.7572733 0.043537285 -0.28545594 0.94723153 -0.40199345 -0.43073633 -0.089344196 -0.61797416 0.925887 -0.1669021 0.52705896 -0.13747635 -0.1568521 0.2021708 -0.076049924 0.14217411 0.9113388 1.0714884 0.10938626 0.6380161 -0.34864813 0.12081264 0.7421699 0.55753183 0.083508596 -0.46634024 -0.20727469 -0.8334137 -0.48211038 0.13361506
diseno -0.6196276 -0.024107074 0.17439291 0.2803059 -0.29482353 -0.2811563 -0.7286015 -0.15112369 0.6438082 -0.12855926 0.7567448 -0.17516917 -0.32347485 0.487851 -0.31660947 0.3517363 0.108794995 0.44273588 0.20318362 0.35375166 -0.16256922 0.4440482 0.022444079 0.36379382 0.16560666 -0.10745956 0.41725874 -0.4630962 -0.6433657 -0.2946838
copia -0.1490618 -1.1465092 1.9180094 1.1676527 -1.047685 0.01982641 0.0712692 -2.2811239 -1.0145715 -0.0420727 0.15050912 -0.32057336 -0.2393199 -0.26576534 1.1368037 0.7225198 0.63085246 0.98991555 0.06379336 -0.18246998 0.03492924 0.49315944 -1.400679 0.8945525 1.1365165 -1.748654 1.6949792 -0.9810726 -0.28732914 0.28887585
sintomas -1.7331395 0.9484316 1.4883192 -0.804324 0.4404808 -0.83581984 0.407066 -0.41738147 -0.0605309 1.178905 0.82296294 -0.69227934 0.56247056 1.2206458 -0.7389317 0.1364656 -0.9169385 0.85042775 1.131055 0.3559237 -0.58393943 0.6653625 -0.12194038 1.990835 -0.41209123 -1.118968 -0.8564612 0.023974476 0.67427236 0.4857847
controles 0.22309917 0.43819153 1.1051753 0.83338 -0.18919212 -0.3419316 -1.3904037 -1.0438461 -0.018441247 0.5013964 0.7168969 0.05654533 0.3177115 -1.1091405 0.85144037 0.7502018 -0.3059551 -0.5101136 1.2336675 0.09994442 -0.6265055 0.57317805 -0.38989317 -0.36589283 -0.83211964 -1.4466159 1.0729074 -0.7914292 -0.41641974 0.18767197
presenciar -0.8368418 -0.026804177 -0.13810812 0.23315118 -0.45603144 0.18018222 -0.755998 -0.2148647 0.47490138 0.065147676 0.80475885 -0.11749878 -0.006746047 0.70524865 0.13174868 0.09744601 0.26376486 0.39665344 0.18710504 0.36388525 -0.12592475 0.5217976 0.32295942 0.61974084 -0.10586001 -0.73775166 0.6074713 -0.12945074 -0.052853953 0.6680755
cirujano 0.07030126 -0.66126233 0.56899023 1.153839 -0.8932415 -0.96793133 -0.75730866 -0.28052783 0.24187735 0.1693004 1.2770878 -0.089925945 0.36313343 0.2121543 -0.21871477 0.21410865 0.83985806 -0.24074395 0.88390166 0.5935079 -0.35648403 0.24602391 -0.119721055 -0.30392048 -0.40638292 -0.04641101 0.041343696 -1.4387653 -0.8147932 -0.112821445
vencio -0.3029611 -0.14105134 0.53487223 0.9108031 -0.21544436 -0.40704414 -0.15083699 -0.4299539 0.6642436 -0.06442355 0.4486861 -0.2909939 -0.55628365 0.22639172 -0.6255319 0.4443428 0.13054456 0.6937945 0.08426301 0.9418007 -0.14441398 0.05427583 0.13659531 0.43894464 0.46103734 -0.608737 0.17292543 -0.04068814 -0.6673559 -0.12020314
semanas -0.20027187 0.17421807 0.4551708 -0.19404078 -0.19599885 -0.10951213 0.07116323 -0.6384437 0.57387006 -0.13262518 0.60338145 -0.4906112 0.38181514 0.7844464 -0.7176541 0.80094355 0.3273739 0.41667292 0.56030166 0.6512581 -0.1919458 0.23585954 0.07823322 0.5389623 0.5507632 0.054713197 0.3590989 0.17452286 -0.7686648 -0.7313769
color -0.42688355 -0.15379749 0.3927551 0.93936193 -0.14536163 -0.6452803 -0.05895012 -0.50741583 0.8426227 -0.07900942 0.7099785 0.011983764 -0.05587567 0.5849992 0.12771842 0.44918835 0.6297974 0.1964124 0.4943702 0.9000954 -0.3603787 -0.5279613 0.04812263 0.26036417 -0.16295919 0.007159141 0.16815902 -0.39203653 -0.62897617 -0.42038566
puedan -0.49248382 0.17027088 -0.024175422 -0.20004837 0.25487623 -0.11506727 -0.365903 -0.33897984 0.27677077 -0.14602603 0.42005676 0.23710096 -0.3354374 0.5042346 -0.3663823 0.8162657 -0.54572994 -0.32209855 0.37778494 0.4991575 0.46885633 0.8003638 -0.1794431 0.57951874 0.0189949 -0.65853363 0.76457113 0.08597813 -1.2386072 0.23307294
hablando -0.9147743 0.28239864 0.31911907 0.640011 0.098894395 -0.20019028 0.21075043 0.00090155157 0.4938939 -0.053540327 0.46029487 -0.15716629 -0.43196124 0.18322653 -0.10206138 0.26809898 0.62510425 0.82044166 -0.09141681 0.9801035 -0.53685415 -0.101664394 0.29949594 0.6622443 0.5411397 -0.9109206 0.2265231 -0.62247294 -0.8530159 -0.3142796
ginecologia -0.26424548 -0.014265621 0.6621943 -0.061501015 0.23403314 -0.76961434 -0.17691764 -0.5920391 0.44855827 0.47421613 0.21151045 0.3085459 -0.050413862 0.4458659 0.024401767 0.6071921 0.31183594 0.059310745 0.22439373 0.6837246 -0.04678978 0.56985474 0.16937037 0.59389937 -0.1557149 -0.7853033 0.23212567 -0.3636408 -0.5338734 -0.25260642
urgencias -0.49996537 0.10185769 0.0031274338 0.79227006 -0.10443549 0.14837201 -0.5206227 -0.5355315 0.9011805 0.044122916 0.8127421 0.06278791 0.041463215 1.0052962 -0.43693453 0.3992412 -0.27167326 0.14124887 0.449417 0.13095576 0.28032312 0.38309425 -0.45050374 0.6438709 -0.11345274 -0.39332438 -0.2807586 -0.96405876 -0.34889713 -0.6384466
precio 0.37224367 0.03890239 0.2593079 0.38383833 -0.17248505 -0.489611 -0.1161106 -0.8496757 0.46218583 -0.052082617 0.44491386 0.49312174 0.214258 0.21385053 -0.12564228 0.41713575 0.55879766 0.20221291 0.51402634 0.92642933 -0.25712946 0.9280309 0.21938601 0.52227 -0.08247031 -0.4837397 0.28060123 -0.71684027 -0.45791367 -0.24263757
consultar -0.47845498 -0.50797546 -0.08004982 0.11005479 0.19558385 0.030856386 -0.97568554 -0.6533751 0.47067618 0.1162036 0.9543446 0.08843562 0.028718945 0.748584 -0.337526 0.5131079 0.40660346 0.7328518 -0.4884761 -0.32787755 -0.5156139 0.94396544 0.05200458 1.0988278 -0.08355338 -0.435309 0.10479564 -0.7958987 -0.16144335 0.43398803
consultas -0.63534707 0.24010444 0.37499982 -0.1680387 0.17810431 -0.7862451 -0.13488603 -0.1319313 0.37704694 0.044626303 0.6814634 -0.48051172 0.24831526 0.39870107 -0.6778092 1.0067275 0.057564385 -0.040614296 0.16175959 0.6789285 -0.44239348 0.7062256 0.75560075 0.9053311 -0.7369983 -0.33859774 -0.18975405 0.5348536 -0.43525496 0.052505933
vendra -0.4439116 -0.06476245 0.20559408 0.26362395 -0.084021494 0.09862912 -0.36011502 -0.17847246 0.5401225 -0.4509769 0.36126435 -0.0018225466 0.25943476 0.34697923 0.09388604 0.584611 0.008224529 0.19869511 0.48290166 1.0187517 -0.19686826 0.6250782 -0.21729302 0.36908144 0.14683113 -0.56197447 0.63283825 0.2816918 -0.522236 -0.1571139
llegado 0.13219845 0.17522189 0.17332375 -0.9906122 -0.118910335 -0.30038777 0.27411178 -1.1379664 0.17819819 0.1985536 0.39261013 -0.5039972 -0.46204484 0.58794206 0.13506784 0.57702756 -0.020819305 0.15415174 0.27602255 0.21546268 0.066591136 0.33526486 -0.22414176 1.344977 0.1671978 -0.6759355 0.78219223 -0.4571691 -0.97517705 1.2150364
compartir -0.5501724 0.4417091 -0.36231658 0.285358 -0.20175873 -0.0668474 -0.13463543 -0.20926069 0.12323949 -0.42235124 0.3793298 -0.4884199 0.40555596 1.105833 0.15593146 0.78942466 -0.39508536 0.42896086 1.065293 -0.28233695 -0.37889162 0.67462176 -0.53960735 0.45376703 0.13876377 -0.66255397 0.461492 0.4197201 -0.46545935 0.044237543
debil 0.10999169 0.2251275 0.39840803 1.0825306 -0.47065136 -0.5154977 -0.32721558 -0.786082 0.82332444 -0.33731607 0.72515523 -0.11287365 0.23387228 0.064921334 -0.3656148 0.6023766 0.71526587 0.45648286 0.18808827 0.4241269 -0.017672645 0.28550085 0.050677318 0.45968044 0.22544767 -0.13581464 0.40367275 -0.5459652 -0.43036413 -0.70997536
teleconsulta -1.6178011 0.76593494 0.21720254 0.245697 -0.064238906 0.13589309 -0.23109886 0.3385728 0.6994714 -0.30680078 -0.03344986 -0.47010428 0.3419897 1.2803122 -0.5777398 0.24224587 0.08031135 -0.20977788 1.2854027 0.63786614 -0.22921431 1.566874 0.10767914 0.87960607 -0.8028812 0.08409707 0.49613893 1.017416 -0.030457992 -0.113833405
trabajando -0.21493621 0.56069535 0.51830393 0.15773773 -0.20219405 -0.2051118 -0.5312721 -0.431414 0.1263607 0.052884933 0.6000973 -0.063598834 0.050493218 0.91880953 -0.14019848 0.19678932 0.24010943 0.4116912 0.4132311 0.16077188 -0.655042 0.22794601 -0.18409523 0.5961829 0.47828338 -0.8971146 -0.004297046 -0.42240593 -0.715808 -0.42732275
tocaria -0.49783993 0.28533676 0.65944725 0.40065917 0.3446204 -0.65617216 -0.54662496 0.09085374 0.30662388 0.24808818 0.4160147 0.28013626 0.2831353 0.17573515 -0.3326338 0.85080105 0.024618495 0.37923533 0.27719265 0.39148435 -0.59075594 0.62322086 -0.53403467 -0.26956296 0.14873882 -0.7360745 0.7806404 -0.22750022 -0.69925416 -0.09163126
mandado 0.94009554 -0.32245302 0.5172798 0.8116736 -0.41271368 -0.40210283 0.05398483 -1.4259094 0.86827266 0.35034984 0.6658047 -0.5295955 0.37058175 0.2723734 -0.24667886 0.22121377 0.43775576 0.85301286 1.0528063 0.2054554 -0.23637693 0.2537231 -0.014436351 0.013869612 0.9780653 -0.2626006 0.56376696 -1.1001099 -1.0142683 0.20129986
programas -0.95480233 -0.07058409 -0.4616248 0.16600332 -0.67542154 -0.19467379 -0.35648188 -0.06542885 0.1502422 -0.4373043 0.66469157 0.0492163 0.11953252 0.44863838 0.27452883 0.8902853 -0.107250445 -0.7705665 0.66893953 0.8871587 -0.5702049 0.45129392 0.123599865 0.7690879 -0.6636586 -0.37083626 0.47083542 0.43143725 -0.2686044 0.72040975
comfandi -0.94676524 -0.56745833 0.13027336 0.57215637 -0.2526703 0.4778724 -0.26194578 -0.2515779 0.46310008 -0.403874 -0.08136281 -0.47323483 0.16118371 0.20721272 -0.14633977 1.2232276 -0.44185993 0.99136406 0.9418886 -0.52187306 -0.1928696 0.48423812 -0.8154671 0.4828005 0.43700048 -0.67417353 0.45647314 -0.23952936 -0.5367187 0.2562373
resonancia -0.41725266 -0.8948781 1.8336273 0.63404405 0.030557396 -1.1750529 -0.8019017 -0.9798444 0.048883464 0.65728664 0.13740188 -0.36597297 0.37175605 0.17514426 0.014423987 1.552108 0.17069651 -0.05416372 0.5320358 -0.8891504 0.25426346 -0.04713823 -0.61526173 0.22000338 0.37373516 -0.7173136 0.4725054 -2.337571 -0.69628656 -0.039423108
cliente 0.06591181 -0.27943644 0.2041378 0.6204536 0.047394317 -0.3618468 -0.060494453 -0.68253237 0.7292187 0.013746124 0.34283963 -0.24726911 0.1927051 0.32923418 -0.09085276 1.0734161 0.22442599 0.996676 0.37055966 0.36304313 -0.2926138 0.3104809 0.4594693 0.26772133 0.15777679 -0.62652177 0.05412287 -0.85711765 -0.49897122 -0.15493305
formal -0.26736903 -0.22230992 0.21584745 0.4353591 -0.29952627 -0.36482295 -0.5207807 -0.42053244 0.45945317 -0.14468639 0.20510797 -0.29932532 -0.07861504 0.35810187 0.17247485 0.618377 0.177709 0.52557313 0.5010499 0.25587502 -0.35865718 0.4748635 0.11016126 0.34776804 0.41864568 -0.21027249 0.5264524 -0.33002725 -0.44797316 0.01656406
quiera 0.047295764 0.022823464 0.6162136 0.5700102 -0.3234132 0.047484312 -0.38827258 -0.64758164 0.6504906 -0.088454664 0.35501784 0.05999545 -0.12875944 -0.050141584 -0.17668955 0.34982777 0.20695402 0.283671 0.45048848 0.85960054 -0.18744124 0.57189494 -0.16028784 0.29304737 0.25050238 -0.80566925 0.44667113 -0.48094797 -0.5485729 0.00046452682
cuota_moderadora -2.0420227 1.9431928 -1.134658 -0.60833323 0.12565988 0.5332782 -1.1467509 0.33543015 0.6403849 -0.7186023 1.1353248 -0.36759326 0.59673107 0.985645 0.3348595 1.5803891 -0.9435831 -0.17801908 0.36863253 0.40838063 -0.22780758 1.0400146 -0.2336241 0.87856 -0.969767 -1.0453259 0.8629945 1.4168239 -1.0259612 1.0665953
empezar -0.24325949 0.12208392 1.093097 0.8090634 0.16312996 -0.52699697 -0.60534954 -0.24929555 0.114177875 0.5429082 0.23518124 -0.27345142 0.020652987 0.42191312 0.3042651 0.93356335 -0.4028685 -0.25156072 0.14630784 0.36981738 -0.043322373 0.4541949 -0.5686189 -0.007221986 -0.10678889 -0.48629832 0.73972195 -1.2584788 -0.6064764 -0.22308265
tratando 0.11735987 -0.1769071 0.5067642 0.23904453 -0.34043446 -0.050463364 -0.37953407 -0.69139665 0.151196 -0.49798912 0.23711349 -0.0799312 -0.46134254 0.16830483 0.0898513 0.7147769 0.32573637 0.7139451 0.3350204 0.27935845 -0.29884958 0.49608526 -0.07282101 0.8834666 0.15554751 -0.7253314 0.7983804 -0.20042294 -0.10463794 -0.106787354
frente -0.69867873 0.050197393 0.8256535 0.31962177 0.15277366 -0.45492715 -0.053191196 -0.6070321 0.17213708 0.13497056 0.43846744 0.009435172 -0.46347424 0.50413233 -0.4386803 0.53022355 0.09300203 0.6224734 0.33542737 0.9170605 -0.39182845 0.29338273 0.47460783 0.64736605 -0.3574852 -0.2839316 0.037596036 -0.20712937 -0.22635734 -0.6775337
visita -0.18983325 -0.11068364 0.73768556 0.5387654 -0.45718235 -0.2827464 -0.18394671 -0.18859015 0.60848767 0.3039929 0.7932365 -0.23730078 0.021614956 0.5416663 -0.3003804 0.42070717 0.21020599 0.011979224 1.0461595 0.71716714 -0.51173794 0.290891 -0.06534515 0.53699964 0.056232948 -0.18389292 0.33327556 0.04564637 0.1185815 -0.4241311
miren 0.16327308 -0.37867442 0.28588834 0.7427477 -0.88068503 -0.45129195 -0.38780272 -0.34759045 0.34904817 -0.47473902 0.89079344 -0.77103025 -0.19801237 0.8309588 -0.052224364 0.22969028 0.6850326 0.1346287 0.19528387 0.6651713 -0.5017388 0.09452645 0.5491451 0.5792421 0.575053 0.34305888 0.8396182 -0.5535549 -0.58203125 -0.39188677
versalles -0.4803579 0.58829725 1.8050991 0.13901302 0.53654057 -0.84746385 -0.002156502 -0.9769805 0.0235739 1.2174693 1.1933407 -0.011756272 0.08984631 0.9572394 -1.2880647 -0.04981845 0.12250951 0.9152443 0.932651 0.6416505 -0.35921827 0.46757558 0.1769032 1.2619956 -0.024340626 -1.2773334 -0.95995396 -1.0552443 0.17013709 -0.28196687
quedan -0.7235523 -0.101477645 0.3713273 0.19857305 -0.22699434 -0.079322144 -0.04228641 -0.46580592 0.08094939 -0.46046925 0.0291421 -0.025192011 -0.41680261 0.39115942 0.11683067 0.55504096 -0.033467516 0.31246948 0.5337107 0.84746206 -0.16419046 0.5873871 -0.20010895 0.9702271 0.118006445 -0.37176597 0.62277603 0.3231231 -0.16314009 0.3959807
buscar -0.7860182 0.7462369 -0.3979294 0.12657467 -0.06632007 -0.2580383 -0.42832214 0.2927807 0.59636515 -0.20209128 0.28789955 -0.23168722 0.25541037 0.7918373 -0.1615125 0.89910793 -0.34269953 -0.07374127 0.3762799 0.38833755 -0.7232881 0.6031909 -0.6250961 0.16102426 -0.045283318 0.07464489 0.6149206 0.3863442 -1.6478941 -0.27035007
zonas -0.41075608 -0.28979743 0.32402405 -0.19825365 -0.81682813 -0.2949534 -0.24831279 -0.6497683 0.3653891 0.14118323 0.21342088 -0.22637603 0.004906115 0.3829048 0.37643805 0.4707022 0.24284059 -0.14626788 0.66132206 0.25043744 -0.06536427 0.6669112 0.14547648 0.89129406 -0.05999641 -0.1601718 0.83144975 -0.17920159 -0.35556266 0.32167596
permanencia -1.3650258 0.73701656 -0.47253504 -0.024045793 -0.101745635 -0.04409032 -0.27093947 0.09955185 0.28457227 -0.20192698 -0.044036098 0.3085055 -0.17081584 0.78468853 0.35256878 0.9536142 -0.5285072 -0.5420168 0.9053277 0.66745716 -0.90483016 1.8802582 -0.037342895 0.8180772 -0.9709024 -0.15658407 1.1415323 1.1906166 -0.21644935 0.07455729
social -0.69765455 0.24757244 -0.48988497 0.24845469 -0.42089328 0.0923665 -0.35289115 -0.1452257 0.5466847 0.07291572 1.2779938 -0.7570463 0.47862345 0.99538106 -0.26792276 0.666189 -0.09359876 0.30599904 0.55867994 0.103773855 -0.5857508 0.030971074 -0.037704308 0.4039191 -0.15309767 -0.016775003 0.3875801 0.1070125 -0.36528206 0.09771765
ingresar -1.0721678 1.2741085 -0.4788261 -0.39050454 0.35789087 0.5454409 0.15169613 -0.17072324 0.6771902 -0.2951951 0.7042378 -0.020364447 0.373254 1.5061164 -0.2534926 1.0785253 -0.7443055 0.7197213 0.32445502 0.6432317 0.22175395 0.6170122 -0.21453117 1.3123765 0.029619116 -0.7743438 -0.22429422 0.8734416 -0.7431808 0.642772
personalmente -0.72768754 0.06224782 0.3447853 1.08725 -0.18860237 -0.08884451 -0.039016753 -1.2069249 0.7830333 -0.6160909 -0.44149953 0.24256949 -1.1214972 0.063867 -0.15621775 0.00016173464 0.79754615 0.80805224 0.47031504 1.1828313 0.6613916 0.2820529 0.6060707 0.5563476 0.10180991 -0.9704558 0.2949051 -0.002812959 -0.7420795 0.32637578
supuestamente -0.14603889 0.35601443 0.15038112 0.51792884 -0.045376 -0.52413094 0.3578325 -0.7046757 0.58388436 0.5265729 0.3877394 -0.16246198 0.17628886 0.5331706 -0.44829872 0.30528304 -0.1825156 0.7471401 1.6820527 0.93658483 0.14863175 0.7092722 0.38002285 1.0655619 0.075726904 -0.75645465 -0.43076003 0.007936475 0.5486436 -0.290387
ultimos -2.1756077 0.71790546 1.4131689 -0.75428015 0.045632504 -1.1658927 -0.8175119 -0.9864876 0.2711241 -0.10857318 0.036306202 -0.3142626 0.4581888 1.5486443 0.57227385 0.6253489 -0.57815015 -0.41420937 0.53439605 0.7110882 -1.3578686 1.7444433 -0.549483 2.3633678 -2.5706005 -1.0803239 0.8819307 1.1747133 1.2139927 1.3712159
nombres -0.2903772 -0.30174345 0.37277865 0.6137275 -0.5201195 -0.25527638 -0.05891185 -0.33807394 0.485242 0.14482212 0.93061244 -0.35520664 -0.1543258 0.26719806 -0.0088972775 0.19999632 0.39834902 0.660526 0.20751785 0.50801706 -0.25595254 0.35333854 0.0713931 0.42288774 0.49015942 -0.43401238 0.33760378 -1.063356 -0.5218177 -0.25041822
importa -0.7505788 -0.19949272 0.032762703 0.35851365 -0.649059 -0.52984345 0.023727762 0.06544165 0.31142497 0.3183963 0.7417034 -0.4922822 -0.025116252 0.24466954 -0.2843504 0.64395714 -0.3277697 -0.17362666 0.37738833 0.36423782 -0.84090185 0.34431756 -0.3883125 0.3260061 -0.519176 -0.071875855 0.555463 -0.46694732 -0.8578005 -0.29603693
extension -0.38014603 -0.6546744 -0.115440734 0.034488305 -0.276867 0.00075986783 -0.3958355 -0.77751374 -0.019567411 -0.35286224 -0.14685896 0.2531139 -1.24821 0.2951431 0.25466785 0.33016488 0.17604351 0.92153746 0.4900931 0.90801996 -0.25058246 1.0229156 -0.6546092 0.8581609 1.1820537 -0.9140797 0.93642026 -0.07862019 -0.21896777 -0.39763623
vivir -0.60443175 -0.0010188982 0.69328386 0.5804382 0.3038952 -0.20596354 -0.22743402 -1.0017322 0.6695419 -0.25391477 0.60500246 -0.29117438 -0.31062776 0.33183077 -0.6242815 0.6241312 0.41635972 0.4778158 0.022711886 0.645309 0.27443016 0.24913494 0.13159871 0.021146392 0.11207453 -0.74248725 0.19976653 -0.048552595 -0.7159517 -0.36326447
presente -0.8637187 0.2986037 0.18062875 0.362556 -0.14779115 -0.26890832 -0.49335524 -0.17220096 0.11199238 -0.065908596 0.4030918 -0.10072693 0.33405584 0.58188975 -0.13764624 0.23925467 -0.01291127 0.09634638 0.72354585 0.6987192 -0.25765294 0.47579473 0.09484449 0.49192497 -0.9528906 -0.6894158 0.4849824 0.014286041 0.035171356 0.12602852
presidencial -0.4565204 0.19989733 0.32127383 0.31499666 -0.5100065 -0.33447722 -0.17680205 0.10490411 0.1366539 -0.54166144 0.5605461 -0.4949299 0.1605645 0.6560145 -0.6474637 0.6014938 -0.23200378 -0.23011623 0.71678007 0.5077552 -0.17024237 0.6142363 0.010607374 0.57488686 -0.10347788 -0.14510226 0.42900106 0.38119885 -0.6255552 -0.025137981
amiga -0.8058758 0.15344842 -0.24707635 -0.02478889 -0.15293358 0.13855857 -0.7213044 -0.31643268 0.48455155 -0.46801794 0.6441913 -0.32876354 0.3672381 1.253642 0.3237514 0.35495216 -0.1331212 0.50054073 0.5174895 -0.2118642 -0.29039705 0.44469216 -0.9966113 0.68913275 0.8118685 -0.06347072 0.7157586 0.001480534 -0.5145803 0.13585104
contacto -1.9483185 1.0473415 0.70230216 -0.4790418 0.26440036 -0.7278497 -0.28788698 -0.20027016 0.031403918 0.09524031 0.26150215 -0.52709574 0.5435768 1.2409896 0.013358096 0.39766568 -0.7637147 -0.1476903 0.86465573 0.47555855 -0.85849303 1.1512411 -0.6196428 1.2775866 -1.3229189 -0.865869 0.7227706 0.9313736 0.7326767 0.46239087
alta 0.10197169 -0.60498655 0.8901631 0.57664895 -0.3498852 -0.17168108 -0.33184275 -0.762197 0.63063055 -0.0019435161 -0.18536055 -0.36698094 0.088750586 -0.14700362 -0.39953426 0.603737 -0.29944125 0.4301451 0.76256627 1.0242803 -0.2941291 0.053408425 -0.13597141 1.1245705 -0.063405044 -0.35111427 0.49741194 -0.13354728 0.014921663 0.1740957
peso -0.7870822 0.2999449 0.82437354 0.98421305 0.112407476 -0.8094845 -0.042094562 -0.36496568 0.32671386 0.17079107 0.7327417 -0.83705276 0.2539778 0.0677882 -0.42916194 0.45414573 -0.07887404 0.40496027 0.6620271 0.5669006 -0.33926308 0.22171518 -0.23091088 0.101594456 -0.26111463 -0.680077 0.08845283 -0.40224135 -0.01698777 -0.41056213
facturar -0.48729 0.5087719 0.5900605 -0.68129313 -0.19334364 -0.37094313 -0.547299 0.040115513 0.07118905 -0.21767968 0.99462074 -0.23041138 0.8235594 0.3592444 -0.22998741 1.2012757 -0.38129967 -0.34407878 0.2730512 -0.27417952 -0.5215068 0.44576636 -0.5415768 0.43838862 0.062225726 -0.7324777 0.8697126 -0.035963725 -0.9683065 0.5939382
encuentro 0.43357375 0.06238734 0.3415081 0.19376002 -0.15228945 -0.38787898 -0.045024652 -0.60499936 0.57683265 0.06617123 0.45408756 0.11010174 -0.16806602 0.28366303 -0.03953967 0.5038819 0.3383556 0.32389447 0.578911 0.84204143 -0.057805374 0.70873666 -0.09590279 0.23670912 0.45369288 -0.4151048 0.74047965 -0.4347574 -0.8011472 -0.23934129
solucion -0.3527803 -0.08575098 -0.13276236 -0.07277435 -0.2937529 -0.26308602 0.028462367 -0.23919684 -0.1626956 -0.336529 0.3415129 0.053244323 0.4871589 1.1127449 0.65948904 0.7229162 0.093956545 0.436588 0.39579618 0.7762709 -0.78748167 0.89834565 -0.41733557 0.63880104 0.3229206 -0.3014951 0.37537554 0.14064276 -0.3947059 -0.0041828253
afiliado -0.7814462 -0.65007067 -1.1245282 0.18721415 -1.0335321 0.35032606 -0.30851486 0.4604541 0.6703113 0.0037493152 1.3303028 -0.2409848 -0.6619854 -0.6366129 -0.55944574 1.1121641 -0.4860575 0.5821775 -0.40302432 0.052063935 -0.92314833 2.1603153 0.82561004 1.1181002 0.5002922 -0.23056512 0.21517253 -0.657006 -0.58471024 1.0335134
verificar -1.0018662 0.53309304 -0.6002452 -0.27058735 -0.2899011 -0.6784619 0.11022909 0.18684626 0.43959826 -0.37711856 0.2271734 0.020132143 0.075707324 0.5924734 0.089198224 0.8474792 -0.2964357 -0.17390738 0.50769204 0.7005004 -0.49146503 0.8147754 -0.22855657 0.4723665 -0.72442514 -0.57700145 0.63066894 0.293952 -0.75135905 0.04838719
cambiaron -0.3163628 0.007431044 0.29182303 0.3541067 -0.057051685 -0.29316533 -0.085551344 -0.47495514 0.30153367 0.47990718 0.9023906 0.3034726 0.031759627 0.2668491 -0.17984359 0.15705532 0.014328512 0.290415 0.6013423 0.8008549 -0.14550842 0.8909206 -0.34981853 0.1679093 0.1876347 -0.852608 0.20747015 -0.61805296 -0.44030535 -0.43724337
entiendes -0.5367997 -0.21588723 0.86946404 0.09734955 -0.022124354 -0.08068457 -0.055939596 -0.48086825 0.0902799 0.0438371 0.81549793 -0.14159694 -0.11017493 0.24167535 -0.11840053 0.15259506 0.3947819 0.60057545 0.4418277 0.32714847 -0.45387045 0.08943649 -0.17241916 0.59644675 0.61404485 -0.7879085 0.11195509 -1.1016978 -0.9473963 -0.12471335
adios -0.23067376 -0.35022962 0.37589985 0.0073858593 -0.014776725 -0.46686643 -0.030283516 -0.70033836 0.44231752 0.17903882 0.35849315 -0.19608086 0.17251629 0.6580039 0.451571 0.60104203 0.15531702 0.62284005 0.17254 0.5278267 -0.46595865 0.22772256 -0.15547329 0.99025744 -0.06495988 -0.16262516 -0.025946397 -0.504552 -0.4509833 0.4084712
quieren -0.5043042 -0.3764912 0.12492978 0.76258403 -0.90640575 -0.07125636 -0.27873218 -0.0047518522 0.5944176 -0.32796162 0.93848854 -0.12582241 -0.17527299 0.6341013 0.32496628 0.54389644 0.27838832 0.20230389 0.2967784 0.29301652 -0.4014095 0.18332015 -0.14770539 0.34435728 0.3526273 -0.3822896 0.18144394 -0.5520962 -0.419769 -0.03229043
minimo -1.0212942 1.1155243 -0.26009664 -0.08001658 0.06761112 0.1976596 -0.7381313 -0.15440363 0.49199983 -0.3406827 0.91245335 -0.26666683 0.21170716 0.68905336 0.09603873 1.1092509 -0.50696474 -0.022645254 -0.071353815 0.5787345 -0.057270337 0.3241761 0.07718444 0.31789356 -0.43117243 -0.93810916 0.58758914 0.34033418 -0.6143738 0.6400477
mensaje 0.4946305 0.15080908 -0.42554316 0.47088456 -0.8790407 -0.37836254 0.38423592 -0.67057306 0.3107068 -0.91431195 0.43273813 0.06318412 -0.12336756 0.15082882 0.031843428 0.46974024 0.29694152 0.8713629 0.7387906 1.0114988 -0.56650084 0.65688986 0.44562042 0.7797688 0.04167865 -0.38161698 -0.008732677 -0.22395046 -0.8120134 -0.58842105
estudio -0.30795985 0.2159211 0.006686977 -0.46577972 0.33651364 -0.23835406 0.07680661 -0.97896564 0.28683653 0.28796184 0.6206461 -0.20932649 0.6135402 0.60765123 0.5055181 1.1301289 0.16898434 0.2069041 0.13344872 0.016913388 -0.26323405 0.32326752 -0.12626362 0.61486214 0.3300203 -0.38572142 0.6006701 -0.9562746 -0.8412225 0.4226515
darle -1.2117454 -0.19506605 0.39205593 0.2788129 -0.3933001 -0.09151152 -0.390801 0.08565664 0.13403454 -0.28877386 0.35336748 -0.28280306 0.41200897 0.51451916 -0.011520906 0.57060146 0.06655088 -0.09413959 0.36485872 0.4370749 -0.620504 0.8303324 0.04889666 0.7967142 -0.12427506 -0.042762652 0.62170047 0.0766677 0.07132498 0.20005108
mision -0.5039904 -0.4923536 0.628019 0.45514268 0.0862633 -0.5668156 -0.27212796 -0.49464968 0.5200453 0.38450372 0.33659652 -0.3859119 -0.14255266 0.871136 0.06977066 0.79246175 -0.11519732 0.35844907 0.37358558 -0.057518393 -0.27210957 0.27104464 -0.019648382 0.329728 -0.10368236 -0.5933563 0.016496386 -0.75877744 -0.22191086 -0.0011624214
temas -0.7073967 -0.051308785 0.30884817 0.37031356 -0.76683915 -0.28019562 -0.26507312 -0.22733456 0.4120775 0.040184993 0.465001 -0.21946421 0.36925653 0.58091486 0.1476491 0.3470778 0.062032785 -0.37058097 0.6334552 0.5319092 -0.7431375 0.4391329 -0.14963326 0.16133632 -0.4866585 -0.63308716 0.35382742 -0.06788726 -0.37834558 0.27545342
edicion -0.49179685 0.699655 -0.9819453 0.6843752 -0.2750264 0.09143243 -0.17601927 -0.6486615 0.72779083 -0.67083925 0.4936042 0.09382407 0.29734337 0.49711558 0.22358282 0.5161328 -0.11463019 0.39683378 0.71665484 0.50847423 0.14701399 0.053921033 -0.35312083 0.69915414 -0.21648204 -0.43385476 0.47003922 0.16458452 -0.93158364 0.1263652
perdio -0.6278947 -0.15651388 -0.41209358 0.5095763 -0.7270177 -0.23390023 -0.16401382 -0.49642032 0.6094261 0.11409607 0.29999343 0.021372996 0.013800943 0.5225709 0.16020352 0.38090292 0.11426725 -0.013872969 0.5872756 0.5864341 -0.2746652 0.8520161 0.34636894 0.50066113 -0.14489242 -0.13994738 0.63523453 0.25808272 -0.34418184 0.2832062
llevan -0.30237153 -0.0046520806 0.1383957 1.2534865 -0.15410848 -0.44670674 -0.2931169 -0.41046268 0.7502104 0.033660024 0.6435122 -0.1028155 -0.14893496 0.17912999 -0.34075603 0.2078361 0.44242534 0.4629712 0.59161514 0.8290116 -0.10505383 0.41445094 0.42590597 -0.024521686 0.40412384 -0.2533254 0.44522157 -0.38203567 -0.5604876 -0.4117889
lineas -0.351522 -0.32991433 -0.18476069 0.3474137 -0.3954133 -0.20149419 -0.32290852 -0.24073298 0.43458506 -0.19625522 0.6891324 -0.33003187 -0.5524438 0.33709818 0.057966743 0.6593432 -0.0313509 0.15243994 0.5402521 1.1537243 -0.0069166888 0.373664 0.08558465 0.43810016 0.04947357 -0.05801214 0.43650717 -0.16981965 -0.20227435 0.0049124453
this -0.49887216 0.04505491 0.2176074 0.0056917616 -0.42063895 -0.049641438 0.02907092 -0.2901019 0.6929228 -0.13813269 0.6557743 0.03817214 0.25884172 0.7462734 -0.08327121 0.20624915 0.16946322 0.36282372 0.6557488 0.6579408 0.07032289 0.33331856 -0.15499942 0.50555927 0.03469721 -0.7741995 0.48396653 0.4117283 -0.584634 -0.3659863
urologia 1.0769871 0.5412556 -0.32968313 1.0643157 -0.3122999 -1.2621821 -0.96007305 -1.6749102 0.79078805 -0.10353622 0.8230914 0.36017156 -0.6593668 -0.44681838 -1.1391674 1.3062335 -0.13849558 -0.08430294 0.031205764 0.59950936 -0.5585308 0.098277 -0.05910607 0.30315402 -1.4932437 0.13755557 0.11147069 -0.4672947 -1.5264419 0.4604731
mitad -0.25741678 0.07445818 0.40009835 0.4753645 -0.8647127 -0.10085675 -0.242395 -0.35929966 0.34429213 -0.2525899 0.66807514 -0.04621706 -0.107511505 0.18995573 0.07375774 0.29753688 0.34070697 -0.039588906 0.5081101 0.7380977 -0.38492227 0.4932317 -0.1694019 0.5426998 -0.10915931 -0.50403273 0.3218051 -0.57966363 -0.25277317 -0.24814166
cobi -0.95925987 0.66902447 -0.069774 -0.40472293 0.50050336 -0.21730977 0.50371087 -0.22168684 0.29881614 0.8339858 1.1990366 -0.599765 0.19629885 0.78226393 -0.8917759 1.0776602 -1.0889035 0.83800447 0.69163465 0.74081504 -0.5173999 0.4130293 0.025714334 1.1096427 0.24985777 -0.7007452 -0.4795235 0.09103477 0.07647768 0.7156957
seguimiento 0.36373463 -0.21095921 0.6388472 0.5452181 -0.098519735 -1.2833705 -0.45401105 -0.7886287 0.18349248 0.6057018 0.7270272 -0.052235313 0.15190087 0.2122138 -0.29711878 0.45824242 0.14168993 0.5547115 0.8330156 0.009082079 -0.5876529 0.035619147 -0.2036162 0.7758266 -0.5389601 -0.109279275 0.00034590904 -1.2491753 -0.5860022 0.04692699
imposible -0.38950717 -0.50705254 0.4513746 0.44357997 0.2610233 0.22813448 0.29223543 -0.45885807 0.70512533 -0.4519032 0.2025926 -0.4383495 0.18865342 0.16951093 -0.27551633 0.7613639 0.13114856 1.6496987 0.9277457 0.5917028 0.25658977 0.122498125 0.0021511635 0.66987944 0.5192593 -0.82613987 0.2728434 -0.32749122 -0.24439938 -0.19838831
culpa -0.46823898 -0.46020904 0.54662305 0.3409204 0.15076093 0.109111704 0.07895719 -0.7187418 0.35518238 0.031585064 -0.07335952 -0.24369863 0.11332537 0.18429019 0.47493148 0.44436273 -0.14373724 0.62573016 1.1242471 0.8055822 0.22627982 0.7784289 -0.5431297 0.45762017 0.81107116 -0.43429998 0.6174025 -0.3844239 -0.54364216 0.31325546
abajo -0.83553934 -0.005759714 0.7864868 0.9115487 -0.17578132 -0.17447892 -0.3994726 0.03235485 0.9387979 0.58383673 0.8790052 -0.3906594 -0.0723795 0.3253275 -0.067288764 0.63053286 0.08843575 0.33116353 -0.46927872 0.733376 -0.1694946 0.29666567 0.2966409 0.5790327 -0.04754967 -0.23695791 0.5078993 -0.1070765 -0.06289988 0.50410324
presenciales -0.9799568 0.5313472 0.014765755 0.133683 -0.29229638 0.18476345 -0.39404333 0.2703898 0.15177964 -0.44754407 0.5797893 -0.58163977 0.4282849 0.6438997 -0.27270156 0.9826905 -0.3297694 -0.52104205 0.7774345 0.6428948 -0.13460535 0.7449217 -0.09272506 0.38154525 -0.09351815 -0.028800357 0.87715125 0.4127617 -0.8812999 -0.22173041
dejo -0.6785185 0.060571592 -0.0036765018 0.6433772 -0.6182721 -0.04494288 -0.24790682 -0.12766701 0.36497736 -0.79974824 0.20518388 -0.17863137 -0.59970313 0.120964125 -0.041539643 0.47213325 0.1766517 0.23275436 0.102981165 0.89304954 -0.45949084 0.37395862 -0.049417913 0.59889525 0.29669642 -0.22729088 0.7925999 0.49143252 -1.0353245 -0.11149176
