1677 30
cita -0.61684257 0.07572838 0.0049209185 -0.40033254 0.3095975 0.3194691 -0.18637829 0.19529381 0.0469623 0.12663607 0.81445485 0.837443 0.15560198 -0.11530407 -0.06845361 0.32289243 -1.1070324 0.6602826 0.14712332 -0.61693543 0.08161172 -0.120068125 0.14772008 -0.42837852 -0.8362808 0.83553594 -0.74818933 0.14189288 -0.26828882 -0.4160741
pedir -0.5571547 0.4982004 0.49676105 -0.24222143 -0.083119236 0.9649799 -1.1690208e-05 -0.05549212 0.18605903 0.21028168 0.37407687 1.1597294 0.039551146 0.348433 0.46121398 0.37396806 -0.81968886 0.48190725 -0.04240731 -0.424019 0.48067412 -0.0012353713 0.5652876 -0.15314409 -0.7387087 0.6443799 -0.182831 0.058130115 -0.2801855 -0.46213302
doctor_a 0.60057414 0.4600874 0.42612123 -0.16385593 0.032459754 0.7252292 0.13763899 0.18604943 0.036544677 0.25870457 0.05028786 0.6806549 0.40325344 0.30228612 0.20396301 -0.0127830375 -0.6409355 0.1287213 0.045465574 -0.5157067 -0.5206572 -0.027090931 0.014877105 -0.7764431 -1.049678 1.1439912 -0.7785361 0.06172936 -0.017336575 -0.47282284
telefono -0.95512575 0.13778564 1.1600763 0.7121011 0.43083355 0.45823845 -0.07572003 -0.30268046 0.09470748 -0.37494448 0.5128356 1.0724688 -0.5777218 -0.40456438 -0.7046603 -0.33967826 -0.6189361 0.3900355 0.14236307 -0.6892594 0.4436867 -0.43514308 -0.37463218 -0.2890843 -1.5003687 -0.15668699 0.0048947027 -0.731137 -0.5867163 -0.006470384
control 0.8828687 0.45930114 0.7399267 -0.6401015 -0.3279178 0.78353465 0.42609748 -0.1473803 0.32378232 0.058779523 0.3865875 0.83895046 0.2856902 0.7143412 1.1953236 1.1989186 -0.9396474 -0.36262572 0.04204002 -0.3529272 0.44669795 0.31483403 0.31206676 0.015853966 -0.74656415 1.1565369 -0.5408045 0.63636917 -0.5909298 -0.0527626
pagar -0.77906847 1.1643753 0.10040273 -0.53966725 0.88210046 -0.7996833 0.020641496 0.008323768 0.12639011 0.65984917 0.45655453 0.603727 -0.5193426 -1.3547915 -1.201731 -0.9247824 0.45404312 0.6305504 -0.42390227 -0.97285974 -0.25019404 -1.3761955 -0.34714127 -0.02168758 -1.5364515 1.3499727 0.23167121 -0.0048757694 -0.5050861 -1.0793937
examenes -0.3497059 0.84080344 1.0792876 0.9253227 0.12870201 1.6768154 -0.9785416 0.35559574 0.6204092 0.51182926 0.62022567 1.3791379 0.08704946 0.49804914 0.1611718 1.1189271 -0.4906687 -0.15269916 0.01900082 -0.79105085 -0.6990486 -0.14665721 0.6526492 -0.8592571 -0.83926773 -0.26231262 -0.71549547 -0.35242954 -0.060451057 -0.75132304
consulta 0.69648457 0.3170776 0.93434024 -0.6577791 0.2029677 -0.29321867 0.16716895 0.032541197 0.091782264 -0.20896842 0.026467223 0.54209316 0.3599761 0.3530051 -0.009946375 0.30736923 -0.8466507 0.2648801 0.2947321 -0.3363418 0.23313914 0.10760366 -0.2381918 -0.29976025 -0.6706272 1.1735084 -0.23842306 -0.016509462 0.13755025 -0.29665983
mandaron 0.28065893 1.4155371 1.0518742 0.5971358 -0.21906443 1.6467689 0.051393706 -0.09609131 0.32712406 0.13520855 -0.106688656 1.1000637 0.013809072 -0.14627688 0.26800463 1.296182 -0.43559656 0.5591465 -0.46462086 0.7779925 0.5528626 0.12631364 -0.40111607 0.15476872 -0.1875119 -0.30776793 -0.77254474 0.40010902 -0.27461648 -0.4366096
informacion 0.09220323 0.6582446 1.0062089 -0.08665103 0.65673596 -0.34406257 0.4029135 0.712805 0.15958263 0.5133174 0.80392504 0.7377913 -0.69852436 -0.92845917 -1.2514215 -0.2427272 0.5633964 0.49016908 -0.06985389 -0.52358085 0.15239483 -0.5357063 -0.687047 -0.41395324 0.08275944 0.8300852 -0.1497815 0.2650107 -0.30388075 -0.10908032
queda -0.39482668 0.24230324 0.65796375 -0.10778071 0.85875773 0.50085604 0.40735784 -0.20587406 0.23224324 -0.3558845 0.16684341 0.5755721 -1.0601214 -0.9377377 -1.0768546 -0.87452286 -0.45445377 0.86499125 0.052679453 -0.18648304 -0.33439982 -0.78922004 -0.06811069 -0.032186747 -0.83848655 0.5978613 0.21814398 0.40470585 -0.11058494 -0.31432688
presencial -0.6601557 -0.2476434 0.46869186 -0.1805311 0.09525941 0.28831947 -0.28981408 -0.14067598 0.4160373 -0.9043601 -0.5637092 0.029202253 0.118387565 0.2212318 -0.44985873 -0.06652699 -0.6242722 0.74730927 -0.06501012 -1.3150365 -0.28531522 0.1603752 0.070295125 -1.2261566 -1.660328 1.5643016 -0.43562987 -0.2930159 0.28277537 -0.18172632
examen 0.120735966 1.0817181 1.3203752 0.7123563 0.042974852 1.4330645 -1.0749801 0.28003776 0.8394938 0.2402224 0.83915 1.4772689 -0.16703086 0.39692086 0.10556476 1.0867084 -0.6942271 0.05551547 -0.1519001 0.19796972 -0.41613173 -0.008135669 0.463894 -0.23289841 -0.94961315 -0.5632498 -0.77150136 -0.43324736 0.2833887 -0.78060657
medicina 0.18855014 0.45195824 0.6357498 0.03671558 0.91414714 -0.1527842 0.23924887 0.30249497 0.06651196 0.31466562 0.0922391 0.6827098 -0.24204054 -0.3255598 -0.01195996 0.048813064 -0.94544715 0.60144496 0.56367815 -0.62949866 0.14830449 0.11938685 -0.24137743 -0.48400888 -0.7316622 0.5849503 -0.589562 0.77948165 -0.27828228 0.26939508
agenda 0.50849605 0.81969565 0.08816141 -0.99088395 -0.80631185 -0.41349274 1.3463038 -0.31158915 -0.6585454 -0.3309218 -1.1260098 1.5778054 0.18303679 0.136717 0.079942204 -0.18799298 -1.0321475 -0.36544198 -0.6275132 -0.4460256 0.06688645 0.74609864 -0.473504 -0.17575397 -0.64092636 1.9434649 -0.6473669 1.4553674 -0.30217627 -0.19155213
celular -0.57392764 -0.6665202 1.1966283 0.8591865 0.5486547 0.18370122 -0.013596942 -0.269974 0.13095249 0.049771503 -0.48937827 0.67792267 0.118483424 -0.65679336 -1.1939683 0.6092524 -0.46270958 0.20029837 -0.37059933 -0.52107424 0.54054856 -0.19027251 0.48406157 -0.245548 -0.76333475 0.22535954 -0.22769266 -0.58708096 -1.048122 -0.35077477
llamar -0.1403254 0.58942944 0.71607196 -0.08246417 0.54144275 0.41739774 0.055670846 0.49069956 -0.12769915 0.04098118 0.45386386 1.0376184 -0.61161304 -0.14008456 -0.40598106 0.39708018 -0.19845255 -0.040830396 -0.0158273 0.029603863 0.40302476 0.19765383 0.44240403 0.17248456 0.018466696 1.0116597 0.10958187 0.5824463 -0.4358241 0.19801152
problema -0.19900551 0.47650483 0.2767706 0.46494982 0.42351097 0.37468317 0.5310868 0.08179509 0.52027845 -0.34781075 0.410808 1.3371397 -0.66956735 0.13542269 0.108468466 0.57829237 -0.33894974 -0.1229915 -0.48730418 -0.36735463 -0.17092842 0.2600393 0.4049304 -0.29829052 -0.40427366 0.50927657 -0.8750221 -0.06926788 0.08825013 -0.91358185
cancelar 0.6989118 -0.030947834 0.20604205 -0.72014564 0.99267304 -0.5766009 -0.42090732 0.11623695 0.3222039 -0.22831851 1.3315204 0.6128461 -0.06347389 -0.9031836 -0.9595493 -1.1976542 -0.91170985 1.4206519 0.23096411 -0.9518376 -0.050731134 -0.1579791 0.750924 -1.3011448 -0.4507538 1.1620888 -0.532514 0.3562761 -0.10346701 -0.4324243
minutos 0.8925242 0.4524343 0.34506288 -0.6302879 0.896766 -1.0803243 -0.02423673 0.082513735 0.32988858 0.0015110577 0.44063106 0.5027409 0.24657223 -1.1753156 -1.2275397 -0.65610397 -0.46051487 0.15105079 -0.15653743 -0.56093454 -0.6694947 -0.06916746 0.06174672 -0.92023104 -1.5065091 0.8707358 -0.69082856 -0.19312729 0.099527806 -0.5326313
ecografia 0.2530169 1.4509785 1.0882237 -0.9359202 -0.8738472 1.5235854 -2.3063223 0.9339426 -0.894081 1.3767271 0.35199642 1.2479599 -0.17511249 1.1707835 0.013703678 1.622751 -1.2176731 1.562581 -0.14008574 1.6091954 0.25369474 -0.25600052 1.2903477 -0.9231717 -0.23307562 0.7458915 0.3877339 0.29117262 -0.703966 -1.5576279
llevo -0.31600124 0.73839325 0.6155356 -0.24661475 0.20251176 0.6323975 0.7620713 -0.520035 0.48248026 -0.6738842 0.42743403 0.98225296 -0.5448184 0.041023634 -0.6421695 1.0243142 -0.73453087 0.347863 -0.1184796 0.21197265 0.2169315 0.7425461 0.69177896 -0.38070583 -0.61978656 -0.5682446 -0.08477027 -0.4931261 -0.8979672 0.33976293
volver 0.142407 0.65567833 0.56837785 0.14113145 0.9659004 0.72235626 0.3039913 0.35245 0.7553789 0.06029412 0.09450657 1.530635 -0.76737225 -0.39338756 0.07318357 0.7216537 -0.17056003 0.0049291197 -0.000697732 0.64899033 0.15993795 0.20100832 0.095894374 0.4864255 -0.42700365 0.40724018 -0.4032268 0.52422243 -0.73327386 0.04665109
dije 0.24884953 0.3867433 1.1041907 0.1612923 0.30854732 0.7513905 0.6081246 -0.41365674 0.30016327 -0.12184369 -0.5556824 0.42019662 -0.11681682 0.07841181 -0.82718533 0.6732412 -0.26681966 0.37058312 -0.4062424 -0.5634056 0.44427752 -0.2390082 0.23250033 0.22236861 -0.04299174 0.31973943 -0.03094078 0.08459462 -0.2464025 -0.6073467
venga -0.24281693 0.78220755 0.028503751 -0.5938676 -0.04666642 0.14312787 -0.052638922 -0.07741641 -0.013492018 -0.0608916 0.16634394 0.71333903 -0.25153667 -0.22164626 -0.46381238 0.5370591 -1.0127581 0.18909006 0.07287704 -0.012958053 -0.16405794 -0.22661084 0.56040895 0.008883053 -0.76956034 0.9225047 -0.09938242 0.5360202 -0.9153088 -0.098496094
momentico -0.28156933 0.28562453 0.55861557 -0.045250528 0.2863294 0.06592367 0.06635642 -0.47580218 0.4586604 0.08811654 0.07381867 0.8771126 -0.11990781 -0.015826942 -0.6482191 -0.0041099787 -0.2476472 0.35343108 -0.45719036 -0.029039863 0.6777171 -0.759299 0.37123773 -0.28416684 -1.2396338 0.017116055 -0.43523 -0.009849688 -0.77651906 -0.54329926
lunes 0.59319454 1.2768627 0.12574491 -0.17209736 -0.5234075 0.50603604 -0.29318634 0.491344 0.47942755 -0.58169496 -0.4489841 0.772109 0.3315275 -0.68338853 -0.4175391 -1.0860964 -0.6982641 0.15302122 -0.8153319 -0.98660713 -1.0451105 0.3876678 -0.06611317 -0.48330915 -1.0077014 1.3608233 -0.46260607 0.23795408 0.42469257 0.28750473
posible -0.0164506 0.80592847 0.59956735 -0.05373099 -0.40244874 0.4792422 0.42331564 -0.36618853 0.08925583 -0.5372571 0.53565234 1.0070919 -0.15167402 -0.44783902 -0.31806505 0.5457644 -0.3333394 -0.0064886194 -0.054703243 0.23000638 0.10064704 0.044129655 0.74959564 -0.59010476 -0.20278345 0.4128641 -0.34841642 -0.41036588 -0.86643046 -0.4371746
radiografia 0.6970615 1.8224928 -0.085774906 0.074944645 -0.76275307 1.1265734 -0.62354356 -1.0840145 0.4551185 0.12660982 -0.5255925 0.30501592 0.8117519 0.6679634 -0.7129455 0.12832886 0.45669192 2.097798 -1.8432266 0.89348114 1.1091942 -0.7883674 -0.90396863 -1.1706572 -1.6618024 0.39971888 -1.1731939 0.41209945 0.52280563 -1.8592943
pueda -0.34113467 0.22687158 0.7813126 0.10388223 0.7270946 -0.051727757 0.5830949 -0.151945 0.18920168 0.074611604 0.008793579 0.34532556 -0.5894819 -0.49932322 -1.0218393 0.036472302 -0.41454703 0.09551027 0.04436746 -0.26266006 -0.22968915 -0.12489868 0.16863152 -0.5365761 -1.1331595 0.42858124 -0.52767986 -0.34939674 -0.37370247 -0.26197144
pagina -0.16887286 0.32039386 0.9669152 -1.1655238 -0.30063945 -2.5401816 0.32315376 0.12251697 -0.6831382 -0.113441445 0.4389329 1.1772537 -0.47676417 -0.53824383 -1.2026027 0.45639572 -0.32751063 0.592307 -0.6595205 -0.4115496 1.4568614 -0.28145605 -0.15427855 -1.1883931 -0.38095665 0.4851781 0.26163748 -0.97159505 -0.43312696 -0.048098646
hablar 0.0019617141 0.46815428 0.49767637 0.059111055 0.5132783 0.3812414 0.347255 -0.25908172 0.33726338 -0.25099403 -0.107204914 1.1724765 -0.3421069 -0.14824276 -0.26575217 0.39476547 -0.8359221 -0.01599384 -0.014543623 -0.0018783759 0.29700595 0.20517977 0.16586961 -0.16583145 -0.74201924 0.16720018 -0.4661855 0.46279615 -0.10758703 -0.10938975
cinta 0.015823694 0.3767891 0.9286711 -0.45598078 0.5047698 0.099350795 0.15008236 -0.29663754 0.374442 0.096155904 0.15882385 0.607113 -0.4213512 -0.1473099 -0.19500865 0.30032292 -0.42671058 0.34634998 -0.2695689 -0.50564396 0.5182318 -0.26883745 0.25922388 -0.20164943 -0.5883831 0.53040344 0.067313805 -0.20470311 0.27033767 -0.38687876
presencia -0.19877866 -0.32237655 0.9449352 -0.0896736 -0.010500437 -0.09721771 0.255348 0.27648184 -0.40023357 -0.97483796 -0.0676077 0.5161234 0.27822876 0.031119784 -0.41888475 -0.21309973 -1.2032683 0.54915935 -0.20866278 -0.9949251 -0.3946048 0.24388091 -0.012408508 -0.8567089 -1.1378669 1.3933629 0.084760316 0.06680824 0.2657261 -0.20360672
llega 0.15674677 0.42964676 0.59946734 0.3643658 1.0183086 -0.09375195 0.24970722 0.59191996 -0.23516935 0.7159991 0.44338953 0.7394527 -0.1642565 -0.60733724 -0.84082997 -0.19324291 0.025633268 0.3402535 -0.033433527 -0.517617 0.11523327 -0.711673 -0.14025426 -0.349569 -0.8691511 0.87414795 -0.50075597 -0.45105425 -0.06843893 -0.29918855
numeros -0.4602995 0.005443054 2.258532 1.4901478 0.120314956 0.8718051 0.2628771 -0.4122642 0.9737235 0.2854784 0.40303174 1.3789573 -0.44523612 -0.7050144 -0.6195918 0.8967065 -0.6311114 0.033713393 -0.46792477 -0.6426671 0.777149 0.46231636 0.41246435 0.32537818 -0.5871466 -0.8576478 -0.40407506 -1.6333938 -0.6706585 -0.1894864
llaman 0.20886518 0.59259826 0.7841045 0.10647111 -0.756376 0.63528997 -0.09551209 -0.3760389 0.6455863 -0.19929282 0.41852802 0.823829 0.36098722 0.036123216 -0.76041514 -0.12656678 -0.30111626 0.26206866 -0.46303317 -0.65560836 0.39556044 0.10526633 0.20815177 -0.21730419 -0.6873911 0.103251405 -0.5189319 0.31982487 -0.43409562 -0.16586064
llamado 0.05828452 0.50892264 1.5128471 0.64596796 -0.21488918 0.66945034 0.6614924 0.1695072 0.35605994 -0.29393798 0.32707214 0.35655013 -0.4425137 -0.7082144 -0.95892084 0.08027556 0.40869918 0.74774694 -0.472897 -0.30069277 0.6170454 0.15713808 0.15817168 0.3740286 0.8354387 0.78900594 -0.019193588 0.5371781 -0.8584252 -0.046432007
necesita 0.16800125 0.76359046 0.6092382 -0.09149987 0.23898518 0.2622846 -0.1252006 -0.17507127 -0.08493121 0.04515743 0.330847 0.6881425 -0.24316637 -0.117885455 -0.03729168 0.44946662 -0.14243242 0.33666334 -0.3415987 -0.115841 0.53519404 0.6872695 0.6479277 0.041100956 -0.952841 0.56558746 -0.42030635 -0.23224582 0.16956162 0.20493957
electronico 0.3019285 0.2212051 0.69889987 -0.76586425 1.4636221 -1.5713798 0.012527608 0.045656305 -0.12678872 0.7404357 0.18956865 0.2459619 0.15854402 -1.2458336 -1.1645206 -0.028176866 -0.30011314 0.42930862 0.0152870575 -0.8959643 -0.02964326 -0.20769817 -0.06730038 -0.73082995 -1.4240414 1.4161603 -0.17532055 -0.5539743 0.20326343 -0.36704206
datos 0.43125468 0.5888951 1.4395254 -0.09485348 0.29083875 -0.09624673 0.55708337 0.5638581 -0.29369855 0.050738778 0.039621707 0.13399316 -0.27780923 -0.52639025 -1.1847812 -0.011001377 0.5133966 1.0819614 -0.049401738 -0.7945682 0.053650882 -0.52081454 -0.9175905 -0.47391474 0.29891595 1.303496 -0.055351295 0.023430258 0.024197385 0.21250965
laboratorio -0.48729613 0.49478248 1.9695027 1.1686779 0.21385261 0.9237508 -0.87070596 0.20315604 1.1043947 0.017768377 1.352343 1.4070637 -0.09101123 0.520898 -0.10700383 0.9041223 -0.6221289 0.12287393 -0.7081429 -0.35529247 -0.89147216 0.07877537 1.5788916 -0.73752654 -0.88664424 -0.74012536 -0.91287667 -1.0514214 -0.15362354 -0.9703286
contestan -0.7813375 0.61113 1.9786438 1.5808696 0.2841149 0.91967154 0.026748583 -0.6364442 0.86474067 1.0221128 1.0162622 1.4170831 -1.3275828 -0.36818078 -1.2686844 0.58681357 -0.9352361 0.5956927 -0.19114073 -0.24990417 0.8376974 0.02907073 1.2703234 -0.16555801 -0.9068477 -1.4170518 -0.23186745 -1.3541155 -1.2447383 -0.12149287
cirugia 0.71282643 0.7236061 0.597848 -0.70969254 -0.28863397 1.4888501 0.038750347 0.8232942 -0.14331381 -0.13237923 0.28091973 1.0856626 0.52535564 1.3061308 0.40864336 0.9015925 -0.71854687 -0.4420201 0.36104327 -0.23229696 1.2321082 1.255293 -0.07574455 0.38964614 -0.020134427 1.2617342 -1.6458671 1.0149647 -0.8446735 -0.40589756
pasado 0.3186672 0.764443 0.29746115 -0.57701457 0.12561642 0.08979182 -0.27435136 0.45743525 0.28629753 -0.3342915 0.67686075 0.8217886 -0.48626977 0.18739565 0.08350388 -0.13834515 -0.51030505 0.008158668 -0.16357687 -0.15516098 0.05142667 -0.18751723 0.5743733 -0.6100118 -0.12248814 1.3156513 -0.42003262 0.60087436 -0.4232597 0.0031965608
autora 0.5818802 0.8480609 0.5548489 -0.6071885 -0.22792213 0.8511457 -0.03293198 0.73401046 0.00714394 0.05403168 -0.2444822 0.29154631 0.16423245 0.30080906 -0.14278328 1.0161484 -0.9174228 0.34119034 0.5773288 -0.5483804 -0.6284981 -0.08309987 0.51057374 -0.21150127 -0.9146587 0.82902443 -0.42258927 0.3445693 -0.36686146 0.32932702
telefonica -0.31935823 -0.38516745 0.75813276 -0.30224812 0.5056361 -0.051396523 0.22677916 0.47731575 -0.42141598 -0.8354358 -0.013299064 0.32699028 -0.094070055 -0.33744362 -0.7384474 -0.22089233 -0.78449154 0.19502987 0.018912118 -1.1340799 -0.24842113 0.3340148 -0.53318036 -0.6109245 -0.8798908 1.8735666 -0.2757677 0.44465724 0.15249367 -0.028843788
visto 0.06641906 0.20028695 0.7480095 -0.2284079 0.17838958 -0.11212275 0.24688633 -0.6914958 0.28682843 -0.03495816 0.17654201 0.43193612 -0.31266895 -0.33464423 -0.42334467 0.11183907 -0.34580815 0.3893949 -0.51037747 -0.22374472 -0.2039299 0.2932988 0.6908249 -0.8571074 -0.6657979 0.5919884 -0.22376293 0.24805874 -0.1371219 -0.383826
llamaron 0.41042754 1.1856607 2.1457572 0.37931913 -0.7191564 0.3927909 -0.78387666 0.74953914 0.7309073 0.025439708 0.5527992 0.4103552 -0.27897957 -0.5950866 -0.97971785 0.39044088 -0.29164058 -0.2277548 -0.6768043 -1.2461866 0.14123617 0.07968781 -0.028244628 0.02203412 0.7253742 0.08272565 0.09415501 0.3086329 -0.42809093 0.23490526
dicho 0.077145144 0.6581323 0.69649464 -0.24680603 0.38983253 0.5595302 0.18631372 0.058000013 -0.06521672 -0.0918604 0.4104357 0.80228007 -0.4147238 -0.33453947 -0.08996435 0.728995 -0.4491046 0.32884064 0.15004031 -0.25832707 0.38210595 0.12362238 0.2317589 -0.28438294 0.08314861 0.36791295 -0.35953593 -0.27873957 -0.3997943 -0.43973964
hicieron 0.2737146 1.5587115 1.1667957 0.47484174 -0.03187896 1.7165776 -0.24268667 0.30519867 0.18880428 0.48231286 0.780725 0.99876827 -0.50149614 0.3564932 0.0930922 0.29923955 -0.028437851 0.6706085 -0.06560013 -0.17623821 0.08744048 0.11751851 -0.06085587 -0.042738125 -0.16497338 0.05431224 -0.14288765 0.51288944 -0.07574133 0.017800793
proceso 0.48956558 0.5509337 0.8253809 0.2703216 0.9208979 0.3525213 0.5287009 0.7190384 -0.28765526 -0.2712829 -0.08621161 1.2961421 -0.65416473 -0.56615156 -0.2846972 1.436765 -0.7794221 -0.5116552 -0.01651252 0.4872284 0.75737005 0.71992856 -0.13188936 0.025032254 0.04236834 0.10222771 -0.6236468 0.62110037 -1.0009719 0.23799123
miercoles 0.81945455 0.96132594 0.33535957 -0.07854367 -0.5664307 0.37022692 -0.8423966 0.35601345 0.94716364 -0.6190278 -0.3162276 0.56431425 -0.29467928 0.15823942 -0.57406867 -0.3748756 -0.81652755 0.4212458 -0.26051256 -0.76055634 -0.8662928 -0.5349286 0.26237112 -1.1129547 -0.9251672 1.4648943 -0.3185416 -0.16872227 1.2994003 -0.13270861
hagame -0.072287954 0.5341203 0.51794827 -0.07669995 0.3074355 0.5842713 -0.3643843 0.027205693 0.35198438 0.25778958 0.04815863 0.4536333 -0.3301956 0.13607392 -0.3067469 0.42917213 -0.4351399 0.6194971 -0.30700597 -0.24443074 0.6024979 0.42472845 0.5714004 -0.33626685 -0.3165438 0.8355929 0.0038125804 0.10582344 -0.48897773 -0.40441358
llamara -0.13822691 0.6557362 1.0871149 0.16089994 0.12723209 0.3531867 0.2401596 -0.64217305 0.44548276 -0.06433717 0.31119257 0.75509727 -0.1838491 -0.63389224 -0.59927434 1.1744398 -0.4611429 0.6206477 -0.25335672 0.10058371 0.57715434 0.024633931 0.2158459 0.20680393 -0.4350346 -0.2870667 -0.5242555 -0.1505146 0.2808244 0.07535736
mandar -0.63639826 0.7427119 1.0726521 0.43839878 -0.16678697 0.5351025 0.11286868 -0.20564279 0.3917317 0.21003124 0.17444839 1.0321511 -0.6441928 -0.016361741 -0.7918063 0.8831763 0.050630566 0.70034057 -0.70282686 -0.5085721 0.6497255 -0.18399316 -0.19437113 0.52507275 0.10462225 0.06998521 -0.41963103 -0.21222049 -0.8816602 -0.2905939
cartago 0.5186086 1.0708061 -0.18291952 -0.73272157 0.07085859 0.4895482 0.21671556 0.094463654 0.032422174 -0.7359726 -0.11811539 0.87788516 0.26031888 -0.30320024 -0.18155676 0.3975056 -0.025702087 0.46467525 -0.3840043 0.16369155 0.8653038 -0.015066654 0.0011784624 0.31192252 -0.5739016 1.0556524 -0.72028923 0.67633283 0.22437471 0.07861874
programa -0.8343892 0.09570636 1.0997919 0.050999988 0.1177311 0.66960716 0.043541074 -0.17404674 0.3535012 -0.39804512 0.6458037 0.78548646 -0.7294572 -0.28132913 -0.75303894 0.29807517 -0.39628187 0.54028416 -0.038803592 -0.48028934 -0.28400177 -0.26976168 0.37258518 -0.14517209 -0.35991552 0.4844116 -0.030543022 -0.25187626 -0.82577574 -0.16065378
mirar 0.47930673 0.20172513 0.6953925 -0.3833546 -0.3938641 0.151995 -0.0512709 -0.10905487 0.048881195 -0.12643394 -0.07284304 0.87615323 0.18017359 0.1807062 0.1628664 0.30132267 -0.19652703 0.5947899 0.1795798 -0.54917085 0.3479529 -0.32254547 0.6567285 -0.65796876 -1.0582823 0.7516064 -0.19520342 -0.16835858 -0.39454302 -0.027697086
quieres 0.26233646 0.5943604 0.880186 -0.09078306 0.36663494 0.39227226 0.63806784 -0.25446317 -0.11290636 -0.708653 0.047388393 0.4469787 -0.10661859 -0.08522784 -0.005035043 0.1425564 -0.5159897 0.4164487 -0.1258846 -0.28763196 0.042792443 0.16809095 -0.20429847 -0.34115988 -0.154714 1.1135978 0.21036626 0.72455496 -0.5618445 0.37011632
escucho 0.32314906 0.21490853 0.7925429 -0.062462356 0.65855455 0.41796649 0.2949693 -0.8493471 0.46750432 0.087788865 -0.4914478 -0.04980984 -0.18598828 -0.041618757 -0.70147026 0.57558125 -0.28847116 0.31668332 -0.5748462 0.19055334 0.4421246 -0.41637135 -0.061675068 -0.15354748 -1.0804486 0.61961776 -0.19426423 0.02232774 -0.57863265 -0.321048
ciudad -0.047035377 0.5938849 0.5216491 -0.35220495 0.50285566 0.16771147 0.233225 0.37321773 0.51384234 -0.15026873 -0.25966617 0.40339983 -0.48991475 -0.82504964 -0.56351024 0.31790006 -0.4089171 -0.07851097 -0.48139316 -0.060870666 -0.25478545 -0.08791938 0.024078792 0.032116976 -0.70817196 1.2482013 -0.09109572 0.016076067 0.05212451 -0.22971238
virtual -0.6499602 0.59617877 0.659283 -0.3059294 -0.089338034 -0.4599336 0.17307279 -0.114685915 -0.5130547 -0.480271 -0.11458811 1.0019177 -0.25163892 -0.55500036 -0.42849264 -0.12531577 -0.74806845 0.19471571 0.02397687 -0.97854674 0.80933344 0.01185866 0.33343315 -0.6583663 -1.1290102 0.6118537 0.2028304 -0.4138606 -0.19054677 0.16893831
haciendo 0.5293962 0.84825265 0.9944278 0.3540732 -0.12908325 0.30016676 -0.1657089 -0.06270469 0.3247882 0.3769784 0.18439223 0.8941141 -0.44816607 -0.78658855 -0.6083499 0.45612136 -0.3191843 0.2585886 -0.17412145 -0.5751647 0.6934175 -0.11358255 0.072953925 -0.29556817 -0.17955375 0.017875869 0.07190903 -0.39985937 -0.040771265 -0.087004
parapedircita -0.033702224 0.54055554 0.4623918 -0.7691401 0.21938889 0.26893094 -0.18879713 -0.20184167 0.052580796 -0.14127006 -0.308343 0.4803234 -0.33419275 0.5291581 0.108968996 0.727044 -0.36369568 0.18709755 -0.29781264 0.2853288 0.71291953 0.3447031 0.37346435 -0.16659203 -0.861693 1.2444794 0.12477519 0.56142265 -0.43247116 -0.507761
disponibilidad 0.04876878 -0.2630417 1.1672544 -0.096118994 0.20074953 -0.5768771 1.2681276 0.4769535 -0.81946886 -1.7740694 -0.49670792 0.5171572 0.50862277 -0.13700283 -0.4267631 -0.8123615 -0.7770688 0.44115117 0.03412954 -1.2929076 -0.73463845 0.020858524 -1.0308809 -1.717204 -1.6982142 2.9484496 -0.7204498 0.26972666 0.067941055 0.24457452
pregunto 0.15925114 0.68832105 0.5357 -0.17812355 0.16605361 0.6995811 -0.31537777 0.54211247 0.6228756 -0.23487064 0.18377611 0.26856533 -0.2956218 -0.36156207 -0.47388992 0.35928056 -0.6182688 0.26409996 -0.15255955 0.09510628 -9.997384e-05 -0.07011608 0.3536141 0.1457168 -0.62055254 0.9998821 -0.06582042 -0.10125829 0.06074433 -0.039370358
lejos 0.097324 0.6594352 -0.16003305 -0.55409414 0.9510248 0.7564262 0.16146044 -0.38244405 -0.27411652 -0.0401446 -0.62889534 0.3891467 -0.22288804 0.1378449 -0.22682616 0.37092984 -0.72256345 0.42096043 -0.048587937 -0.13307865 0.1431316 -0.08183438 0.24709995 -0.47113857 -0.9308969 1.3677468 0.18939401 0.785169 -0.41966406 -0.4689372
morichal -0.06900407 0.19612719 2.0322928 -0.01834857 0.91971827 0.8789662 0.8320668 0.23422408 -0.3604924 -0.5601668 0.13835725 -0.12647302 -0.77587706 0.02790614 -1.1014994 -0.5332032 -0.883777 1.0351021 0.33714244 -0.4811895 -0.7246034 -1.0477247 -0.12628852 -0.24497741 -0.1514363 0.27863494 -0.4379512 0.2372251 -0.5201397 0.31145543
internet 0.418835 0.21112859 0.79772025 -0.42951062 0.10642524 0.37216827 -0.24144109 -0.3530534 0.6076475 0.35746616 0.984101 1.1990633 -1.0076609 -0.37471855 -0.67353195 0.48435876 -0.1571291 0.23907764 0.12946458 -0.2933087 0.50022155 -0.3337146 0.46855453 -0.10046349 0.101093724 0.4735297 0.18487556 -0.10470277 -0.3070674 0.09436758
diciendo -0.14744674 0.58228385 0.8978381 0.5361227 0.42959917 -0.080730766 0.3051854 -0.09631564 0.05676423 -0.36587915 -0.08152249 0.24053039 -0.7412215 -0.5329815 -0.9114462 0.09739212 0.33379877 0.5440499 -1.0106727 -0.2603374 0.58334565 -0.01819883 0.14105615 0.029083025 -0.60149074 0.9081986 0.39520538 0.14372648 -0.2602234 0.4660702
encuesta 0.30006415 0.14842461 0.7630595 -1.6752659 0.5250789 -2.763276 0.2844043 0.3463684 0.056711514 0.06436587 0.5759655 0.4785911 -0.045931842 -1.2524649 -1.0587618 -0.32118446 -0.39799833 1.341395 0.13433547 -1.0501555 -0.26540047 -0.8631766 0.46188512 -1.5549527 -1.2464381 1.9201355 -0.08818297 -0.793765 0.46178052 -0.25046015
dificil -0.29479736 0.20744187 0.72330266 -0.55998766 0.31270567 0.6650271 0.053508665 -0.32301542 0.10908787 -0.52063584 0.13100885 1.2189846 -0.58859915 -0.59785223 -0.7288422 -0.16255043 -0.546958 0.019887665 -0.116177164 0.12152854 1.4005672 0.35835284 -0.21220574 -0.09656518 -0.1427147 0.51098657 -0.037704237 1.0225991 -0.69705117 0.30259857
incapacidad -0.037452098 2.6860237 0.23238027 0.11755547 0.09798235 0.92405945 0.8858515 0.64841974 -0.31389767 -0.6053854 0.06532507 1.1265063 -0.5193363 -0.80000514 -1.5225651 0.22390622 -0.109917656 -0.07867071 0.8271135 -0.54280096 -0.74227494 0.84797233 0.44292307 -0.09145583 0.7071212 0.65831375 -0.49437833 -1.1929821 0.66019857 0.42976394
llevar 1.2186399 1.0620048 0.50796 -0.14021051 0.5660527 0.019177202 0.21981508 0.4624215 0.7174386 0.5401011 0.33057356 0.13010612 0.74358016 -0.08995477 -0.369878 -0.012081079 -0.2677365 0.7712632 -0.6487672 0.078942105 0.26272297 -0.13043557 0.11731597 -1.0993632 -0.34143963 0.5057231 -0.54778004 -0.013076108 0.08377377 -0.088934466
personas 0.5514681 0.69062144 1.1058934 -0.13182208 -0.47094083 0.1108414 0.37436867 0.48166198 0.67332095 -0.48568472 0.1690387 0.73014814 -0.3440375 -0.7522996 -0.72059196 -0.3009779 0.24085513 0.6732504 -0.7333976 0.13648586 0.3207089 -0.17404826 0.34316778 -0.33850545 -0.09746135 0.7028502 -0.029177494 -0.49180987 0.6057973 0.3413571
funcion 0.11975425 0.39620435 0.63835573 0.029782262 0.70378816 0.15830268 -0.037363272 -0.2547637 0.1056668 0.033047676 0.13514347 0.5890892 -0.11220407 0.035449207 -0.20904388 0.49868852 0.04461722 0.6127903 0.12980166 -0.18747744 0.113762766 0.12832601 -0.08956314 -0.6293706 -0.8224732 0.71129113 -0.26558572 0.111250415 -0.36365718 -0.32281214
mandan -0.1711173 1.1131495 1.0012516 -0.35066348 0.1856299 0.54581225 0.22119929 -0.58943343 0.812165 0.23583622 0.553387 1.6427612 -0.56447047 0.022501012 0.16219504 1.2682569 -0.30159134 -0.028990597 -1.098136 0.70190245 0.7042918 0.06609084 0.5117939 0.56485313 0.15638232 -0.19948052 -0.56900746 -0.5730317 -1.0098699 -0.38559407
facil 0.7395439 1.212217 0.46304315 0.002501472 -0.20518088 1.1130577 -0.1352142 -0.05020581 0.59594005 -0.030055305 0.1265264 0.09043951 -0.2974869 -0.06615006 -0.48700318 0.27981848 -0.10208388 1.1901015 -0.5322134 -0.0122656105 0.8788956 0.052630875 0.0012741039 -0.15679608 -0.09977365 0.5845157 0.14713913 -0.017221369 -0.098259024 -0.69746643
sirve -0.034401335 0.75331676 0.60981613 0.2633627 0.3926867 1.0045094 -0.09817874 -0.078241676 -0.25038138 -0.27384108 -0.058956318 0.46215925 -0.11685716 -0.29652625 -0.677818 0.6263856 0.021905102 0.45816618 -0.12754016 -0.08385828 0.5302726 -0.03907725 -0.2581497 -0.20471011 -0.51196295 0.8246749 -0.44845852 -0.25199172 0.4073676 0.04359987
medicos -0.122514084 0.76176983 0.37119707 -0.20251484 0.47068423 0.473389 0.5036275 0.11926785 0.16037734 0.24436803 -0.25409973 0.6007113 -0.43334725 -0.18939872 -0.14130582 0.88020366 -0.66636515 0.19765003 -0.10005352 -0.4469539 0.41266504 0.84264606 0.027851984 -0.23223834 -0.50101817 0.92588884 0.16164492 0.32226238 -0.122927226 -0.082431644
registro 0.13825268 -0.082740426 0.5295262 -0.49662253 0.705309 0.2786626 0.77375287 0.15730499 -0.23764217 -0.20640424 0.0096828295 0.07600402 -0.04116097 -0.18175212 -0.7556325 0.026963592 -0.53095645 0.1884757 -0.3753627 -0.34573823 0.68477774 0.15819414 0.057212163 -0.3946581 -0.8058955 1.1344916 -0.1669382 -0.14970616 -0.023852931 0.09584454
normal 0.086514555 0.35984322 1.0469673 -0.70599973 0.3447318 0.7903112 0.30256787 0.59409094 -0.1599671 -0.043673962 -0.066098414 0.3907606 -0.027214982 -0.5074756 -0.4521738 0.39955235 -0.93134266 -0.025627848 0.009610203 -0.85313606 0.31504273 0.40791896 0.41213036 -0.22824012 0.07168145 0.84875077 -0.41218004 0.025527667 0.53354603 0.594179
comun 0.26693806 0.8567087 0.8528699 0.08253241 -0.11404034 -0.15701601 0.47127032 0.2252896 0.17918651 -0.34086925 -0.41676554 0.7554609 -0.23563513 0.29169923 -0.5100018 0.5978616 -0.1344533 0.41804394 0.019251406 -0.4804693 0.18712553 0.225083 -0.098338164 -0.2198915 -0.30336845 0.55079377 -0.49973708 -0.124993496 -0.48608145 -0.0025213491
nadie -0.82906425 0.23482417 1.4986233 0.74220145 -0.030817924 -0.06312175 -0.37409383 -0.1618566 0.5072772 0.18294805 0.1999789 1.5170385 -0.64648634 -0.94222975 -1.0920055 0.01078202 -0.74607915 0.32501006 -0.5522886 -0.3521514 0.5949194 0.1353877 1.2876605 0.10017042 -0.7578316 -0.33189553 0.066971906 -1.1288874 -0.66112775 0.022961223
jueves 0.5134089 1.9410428 1.0113982 0.5144922 -0.88914776 0.81101656 -0.53944385 0.5674789 0.5762215 -0.55681455 0.88106257 -0.027514352 -0.030715112 -0.23032042 -0.544421 -0.46084905 -0.74719954 0.4409583 0.23099937 -1.4607365 -0.51403576 -0.4540335 -0.15562472 -0.6561684 -0.64096534 1.1721035 -0.36062247 -0.24505666 0.96108115 0.62223905
registrar -0.17739382 -0.910747 1.5727272 0.03858319 0.5376262 -0.8819627 0.503915 0.2835943 -0.89368063 -1.0501987 -0.47933263 0.50165755 0.1695258 -0.84553283 -1.3755128 -0.3228308 -0.9864587 0.27627003 -0.25723937 -1.5520378 -0.707744 0.1311008 -1.1649765 -1.3666853 -1.3046608 1.9528667 -0.43770695 0.22415034 -0.4884343 0.66526216
prioritaria -0.4078699 0.6735721 0.15991604 -0.28155166 0.17830753 1.5288876 0.20790254 -0.17647657 -0.09066012 -1.3065612 0.77201915 1.1025078 -0.51763475 0.46019876 -0.52197814 -0.30543977 -1.091048 0.40412897 0.42734104 -0.76915705 0.18233797 0.2996789 0.4493167 -0.2549541 -0.17572707 0.3705459 -0.34304366 0.041087534 -0.34198582 -0.40107015
ortopedia 0.7161878 0.6741335 0.102666415 -0.46923944 -0.27596757 0.2733933 0.6703582 -0.8278584 0.24090992 0.14281498 -0.36874244 0.5460476 0.95470005 0.47108194 0.092885606 0.87760985 0.45828632 1.251874 -1.6837382 0.3072574 1.4675188 0.4112983 -0.4056775 -0.35916823 -0.67383796 1.280817 -1.1729071 0.22049946 0.58093286 -1.3077589
vacuna -0.52359444 0.7936571 2.0682688 1.3134928 0.33950955 1.285989 1.1358913 0.7173622 -0.6655453 -0.10423135 0.5220771 0.28718716 -1.3074857 -0.9720287 -1.0207592 0.025394822 1.15708 0.70245546 -0.5647056 -0.92020226 -0.66427886 -1.0586072 -1.3877832 0.052675847 0.44123098 1.5682245 -0.09457245 1.2479066 -1.099508 0.16349797
exito 0.29851055 0.9132952 0.69854254 -0.40028933 0.3891172 0.00719955 0.16210897 0.027918164 -0.086251274 -0.41966417 -0.20032589 0.20909299 0.13342126 -0.11481009 -0.54656214 0.10754507 0.102745496 0.14795452 -0.17391399 -0.37533814 0.88926846 0.27064532 0.2280893 -0.26054138 -0.34030524 1.0544837 -0.20161562 0.38008952 -0.09597204 -0.034868587
ninas 0.18518238 0.53824306 0.513965 -0.08734786 0.0671844 0.90742487 -0.16336672 0.011661775 0.16440745 0.08776974 0.3689079 1.0120554 -0.21062773 0.073019065 -0.62924635 0.097549066 -0.7125161 0.9269421 -0.1501549 -0.117650814 0.9321545 0.018723948 0.678295 -0.41601837 -0.042243812 -0.07380342 -0.005926627 0.028788546 -0.069595546 -0.41713443
pendiente -0.1804436 0.3035698 0.64880466 -0.05552882 0.29750374 0.08117183 0.6332789 0.3128246 -0.0046379054 0.030718904 0.5745353 0.5467674 -0.49155232 -0.54656094 -0.18531103 -0.12222921 -0.30507165 0.26664028 0.028657498 -0.48078957 -0.04818742 -0.16939102 -0.20456684 -0.08424967 -0.24235937 1.3423253 -0.17064106 0.22131082 -0.71228397 -0.45761943
vision 0.22568525 0.82653564 0.4592856 -0.15605873 0.23192786 0.8955503 0.53178775 -0.1477482 0.2834492 0.09131315 0.08830921 0.6121277 0.23993737 0.18241741 -0.4431142 0.46692348 -0.0444628 0.20939633 -0.2988433 -0.078509286 0.47576803 0.13189335 -0.090976916 -0.033901934 -0.41016933 0.5813514 -0.49607247 0.43731827 -0.29075092 -0.3352175
citologia -0.043931976 0.6559247 0.6227557 -0.043293722 0.14528008 0.7150943 -0.42439264 0.6465149 0.28973144 0.24394453 0.7182743 1.5226539 -0.23262636 0.30704015 -0.28924617 0.17208062 -0.27177468 0.2761285 0.13875179 -0.0369637 0.003562309 -0.2939621 0.31420726 -0.11089232 -0.11811592 0.3889546 -0.4266173 0.37906414 -0.8366455 -0.52108836
procedimiento 0.850759 0.70668143 1.1915494 -0.37508148 -0.37767506 0.8220378 0.13426867 0.54591674 0.5109322 0.5193016 0.8185565 0.8572633 0.04514254 -0.042575106 0.110729955 0.41897514 0.29728606 0.15798384 -0.11511376 0.095578015 1.1303405 0.9725091 0.9809054 0.254305 0.5162374 1.0187029 -0.5010561 0.63988036 -0.5752218 0.36879045
podia 0.1070013 1.226376 0.30164415 -0.83818626 0.27054822 -0.3448129 -0.01648346 0.30589807 0.39790678 -0.49587253 0.056409765 0.9394224 -0.0908323 0.06864605 -0.79094976 -0.054928415 -0.558215 0.37717897 -0.07152407 -0.24129885 -0.35446748 -0.20381169 0.089239754 0.20959155 -0.5606982 0.46933398 -0.04251763 0.15147449 -0.06078727 -0.44750455
situacion 0.24398312 0.8838845 0.14139044 -0.45411685 0.18929574 0.5807035 0.28599152 0.04424926 0.68559146 0.20858869 -0.34741095 0.32498923 0.31492832 -0.22608818 -0.7796282 0.18720278 -0.39539805 0.5408262 -0.7181491 0.12590322 0.08054908 -0.378612 0.44004315 -0.2751474 -0.77958465 0.82837075 0.14979999 -0.12735224 0.32108465 -0.30023208
comunicar -0.39936668 0.3265612 0.822042 0.43137413 0.5334716 0.4133422 0.29404595 0.25383276 0.43687916 0.14982805 0.6753748 0.7834134 -0.23106425 -0.3902167 -0.9219431 -0.27058282 -0.11746517 0.26625407 -0.17148434 -0.020638755 0.30648527 0.1372701 0.107827015 -0.6098934 -0.5397147 0.5549994 -0.0787693 -0.42238095 0.06535452 0.10204572
llamars -0.08063214 0.6352213 0.9010088 -0.18023144 -0.1831896 0.09004697 -0.21584319 0.21798678 0.16066855 -0.11171935 0.3417223 0.86449 0.038803726 -0.17797984 -0.7454214 0.2238492 0.01027536 0.38935488 -0.16215271 -0.33940437 0.2664797 0.005207779 0.4252316 0.03181488 -0.39367235 0.90769064 0.12295908 -0.4761516 0.027217137 0.32251862
amables 0.7491023 0.3465109 0.70115817 -0.15490086 -0.056801382 -0.3364045 0.60732067 -0.06380748 0.19318523 -0.069245264 0.2944976 0.31793448 0.06493712 -0.10527393 -0.15090168 0.114437714 -0.19144376 0.4809799 -0.06537011 -0.28598857 0.42171887 -0.12008263 -0.0038272403 -0.41403118 -0.5885908 1.319408 -0.40350264 0.22475766 0.17141734 -0.41562366
perder -0.05640459 0.4839886 0.3591581 -0.41410697 0.6340118 0.0010248761 0.097096 -0.26865393 0.5198481 -0.81168634 0.048266493 0.608551 -0.22864981 -0.08365481 -0.43426323 0.5705286 -0.022575798 0.13956994 -0.5272923 -0.22550508 0.34182906 0.093296826 -0.23595715 0.070226505 -0.69556725 1.2889844 0.06073848 0.822905 -0.059235867 -0.097820155
especialistas 0.99565476 0.21029001 0.951326 -0.6887839 0.39020476 -0.293411 0.4327842 0.08162847 -0.08945462 0.6817257 0.2806418 0.7833043 -0.081146374 0.20576906 0.21412109 0.8650758 -0.5787274 0.044709295 0.27217183 0.15542349 0.8958396 0.4713355 0.036839835 -0.6406467 0.20707473 0.98883486 -0.4158744 0.6983213 -0.4238294 -0.66735655
digame 0.30811402 0.9693471 0.6330132 -0.20828976 -0.08419385 0.03928013 -0.30313095 0.14518905 0.3719637 -0.28286472 0.14665735 0.91475785 -0.58610743 -0.24131717 -0.5815705 0.16683976 -0.20766154 -0.019200925 -0.21955554 -0.44031686 0.03397209 -0.18540685 -0.15834054 0.103754774 -1.1366 0.307307 -0.10743385 0.047042508 0.33630475 -0.26309943
ultima 0.13941136 0.7057829 1.0604552 0.31163272 0.44025654 0.992081 0.9400335 0.123523206 0.3504285 -0.9443985 0.032643095 1.1416953 0.15009728 -0.100923106 0.36289075 0.96958405 -1.1112999 -0.64897 0.23196585 0.6345011 -0.28186646 -0.24200818 -0.19337752 0.2178168 -0.3736824 0.82736564 -0.53254414 0.44109622 -0.29634625 0.7946262
reserva 0.27269852 0.38919497 0.472652 -1.2950333 1.1569806 -1.5840567 0.07515157 0.33516598 0.024439562 -0.07329963 0.53206396 0.4258221 0.19287685 -0.8890867 -0.65433854 -0.6975666 -0.31293175 0.94828856 0.016812231 -1.34036 -0.37164018 -0.7778314 -0.21287376 -0.9252778 -1.6083384 1.8166792 -0.7039368 -0.009552455 0.30900168 -0.13860579
resultado 1.1456077 2.846303 1.5604981 -0.043851238 -0.63827485 1.2292899 -1.9451787 1.0708203 0.67374176 1.247243 0.8428891 1.519038 0.37583783 0.5712114 0.09584756 0.43200836 -0.67259216 0.7221594 -0.002808236 0.3222241 -0.34619159 -0.6645218 0.41814658 -0.8969482 0.13721816 0.36384347 -0.1868741 -0.69141406 1.0897931 -0.49917465
unica 0.11813869 0.11826939 0.36850834 -0.19748503 0.82836646 0.3792916 0.74187243 0.12931588 -0.031046722 -0.31541064 -0.16010837 0.8224003 -0.19656554 -0.015141912 -0.9549662 0.11468517 -0.4317269 0.3056636 -0.114805125 -0.21292116 0.013643632 -0.08751079 -0.30949727 -0.20390667 -0.9360413 0.5828752 -0.48311776 0.29320285 0.2073022 -0.35383147
atienden -0.4565768 0.40039244 0.7371459 -0.041081592 0.7557671 0.8195232 1.0703222 0.12153365 -0.23404343 -0.42736378 0.47854406 0.7917753 -0.45700288 -0.041615166 -1.3053982 -0.8019999 -0.9589548 0.9313272 0.2235586 -0.7768958 0.5634615 -0.35034177 0.22008541 -0.550914 0.116694145 0.0003869402 -0.2017853 0.21364439 0.26833117 -0.33844247
puesto 0.7058033 0.1718655 0.9222003 -0.24344653 0.21414563 0.70448214 -0.40750074 0.060742382 0.08058017 -0.42299032 -0.04905974 0.7047658 -0.46682242 0.037699547 -0.3335944 0.4934009 -0.4291791 0.060463987 -0.115221374 -0.1233102 0.30914968 0.09800074 -0.06853476 -0.412783 0.14641872 0.99026173 -0.16228451 0.30131343 -0.19364409 -0.16947219
telefonico -0.068683356 -0.3636486 1.1028187 -0.23589866 0.25552157 0.13088194 0.3124081 -0.17786735 0.0988411 -0.5822631 0.216652 0.103489526 -0.09808433 -0.4136405 -0.6898719 0.121827915 0.10951836 0.7771725 -0.60982007 -0.13276236 -0.08424984 -0.28009698 -0.41976303 -0.53075516 -0.88595665 0.8627797 -1.0316398 -0.38559586 0.18355668 -0.39961964
medicamentos -0.21975492 1.3872652 1.2642848 0.6585494 0.4088794 1.5517809 0.35743436 -0.93840945 0.2118745 0.881102 -0.18466513 1.3064 -0.3581095 0.37830156 -0.46993372 1.2181497 -0.7368886 0.9062872 -0.34743118 -0.2702527 -0.73425645 -0.8665419 0.26950067 -0.057773843 -0.24865454 -0.7806513 -0.31841734 -0.6475951 -2.4390984 -0.5360487
pediatria -0.06443633 0.13682461 0.39406863 -0.7088843 0.5216729 0.0888461 0.84137815 -0.33312678 -0.00926329 -0.38355076 0.022176258 0.3996086 0.1269735 -0.2380637 0.38850448 0.35979557 -0.66944736 0.44990638 0.09953245 -0.9146993 0.7797769 0.18234931 -0.3601351 -0.2222972 -0.79676586 1.6066573 -0.087111555 -0.0083351955 -0.037515692 -0.054064177
unico -0.023540594 0.3560589 -0.1397189 -0.49269542 0.15582184 0.9731911 0.05685148 -0.47735357 -0.29473093 0.2837999 -0.16347735 0.8681208 -0.24223913 0.22673139 -0.65781385 0.47257712 0.087720044 0.48719084 -0.2120792 -0.22870639 0.7572503 0.2471585 0.33544114 0.04710717 -0.44253525 1.2844933 -0.21008357 -0.23486108 -1.1745654 -0.72979873
resultados 0.7545396 1.8700835 1.0200092 0.6863636 -0.8796951 1.5159513 -1.3988231 0.50017905 0.53535193 0.51825905 0.6974153 0.8829758 0.36076224 0.48909077 0.48073035 0.79564065 -0.36256588 0.212354 -0.3848158 -0.55427665 -0.46661982 -0.036894675 0.50661665 -0.8635709 -0.9093622 0.4937009 -0.84917295 0.28482646 1.1341106 0.2886052
lleva 0.9636143 0.9791821 0.2630992 -0.102831826 0.2510697 0.3443187 1.1434864 -0.3302127 0.033943698 0.56479526 -0.08899802 -0.15159544 0.45120516 -0.44041768 -0.3593172 0.5979065 -0.20672409 1.0292751 0.22251084 -0.47935027 -0.13966733 -0.068543606 -0.024448127 -0.29605108 -0.464508 1.081117 -0.4911945 0.09322519 -0.4161238 -0.4031676
prueba 1.2768061 2.9186125 2.2839813 0.52175534 -0.63462216 1.4070096 -0.94657016 1.0598203 0.7303215 0.44863647 0.4886532 1.0017672 -1.2737584 -1.5200425 -0.543773 0.035520412 -0.37887043 0.30210885 0.041696325 -0.56781894 0.18522163 0.36046907 -0.080303125 -0.043374017 0.45040512 -0.37448075 0.0069808997 -0.39386526 0.83449894 0.69619906
formula 1.1525906 1.7610227 1.5001597 0.8551656 0.42619258 3.890741 0.7552234 -0.98056835 0.6853628 0.7669075 -0.9541086 2.0769162 0.4823671 0.5653094 -0.8572837 1.5420927 -0.6160139 0.3368126 -0.21128112 -0.6312976 -0.6635696 -1.1974231 0.06652023 0.3115508 0.5064111 -1.0376343 -1.2020497 -0.20623413 -2.3219903 0.10361425
final 0.26236635 1.0849816 0.7582595 -0.681517 0.3332639 -0.27942875 0.05710011 -0.028859243 -0.11292123 -0.11047976 -1.1416488 0.14089645 -0.4220295 -0.23612125 -0.8304035 1.0253655 -0.46950963 0.5378218 -0.25212505 -0.13522035 0.17116427 0.26136693 0.30478895 0.08790862 -0.555207 0.6393019 0.21311577 0.35040107 0.061014146 -0.38897264
disponible -0.16723847 0.33202767 -0.22337218 -0.21718569 -0.087061875 0.28219804 0.18817426 -0.27042335 -0.11723985 -0.337669 -0.6612733 0.39140198 0.17559662 0.3318702 0.19832206 -0.2609391 -0.32678488 0.39102703 -0.64680696 -1.0899572 -0.87342787 0.054452512 -0.37345842 -0.7386408 -1.5989004 2.805705 -0.7164441 -0.04385001 0.36705753 -0.4871502
momentos -0.0027731746 0.56156725 0.21073414 0.117992006 0.79942954 -0.37516677 0.7100075 -0.28221112 -0.22939658 -0.2633774 -0.1148183 0.67006713 0.11914263 -0.3931021 0.083147235 0.5641229 0.008933469 0.19065681 -0.32411855 -0.45811516 0.15475917 0.34751695 0.4662289 -0.2920061 -0.8119407 1.4252131 -0.6073682 -0.023045933 -0.36405656 -0.19829307
esperando 0.07686518 1.5580577 0.39838734 0.1830066 0.26562592 0.9668951 0.028863192 0.06737049 -0.11756199 0.38742682 0.599868 1.351225 -0.31049064 -0.27425197 -0.31228825 0.74442196 -0.66472596 -0.25679332 0.078085616 0.18493679 0.3268745 0.13752434 0.44795257 -0.20964894 -0.56287104 -0.34320965 -0.22844474 0.68297046 -0.79974604 0.23383236
convenio 1.1296288 0.17844294 0.7043209 -0.17167321 0.91162217 -0.09679346 0.96120703 0.0930473 -0.05806782 1.023969 1.5805393 1.0878272 -0.8492637 -0.13658608 0.076173685 0.31821233 -0.39113 0.5400773 0.55067235 0.13504614 0.6812302 -0.28042728 0.99581534 -0.78334177 0.25984824 0.504235 -0.7901971 0.7064929 -0.8053894 -0.25669342
seguir 0.76225626 0.70044047 0.78850776 -0.019217167 -0.007886535 -0.22610049 0.306067 -0.46748993 -0.36582667 -0.10502919 -0.15218167 0.8418944 0.08673779 -0.4692414 0.014960849 0.4702029 -0.41091993 -0.041582286 -0.47760278 0.34644997 0.8905462 0.35815322 0.5221151 -0.57751966 -0.4297069 0.5912218 -0.047640756 0.76065546 -0.31782827 -0.32094982
realizar -0.52687806 0.5628833 0.3332967 -1.8507038 1.0071248 -1.7223761 0.16698411 0.575211 -0.33923572 0.122314446 0.11326486 0.54496896 -0.21282427 -0.9674881 -1.523958 -0.93248516 -0.27265763 1.154551 -0.43468738 -0.22624408 -0.5326597 -1.1747837 -0.016926551 -1.1910415 -1.967775 1.9678226 -0.12155346 -0.46591935 0.0060881036 -0.7900095
asistir 0.6532702 0.4100812 0.31131953 -1.3752147 0.9511866 -1.0788226 0.17730343 0.48359397 0.06298253 -0.5081291 0.12911715 0.84196734 0.417444 -1.2836611 -1.5431894 -0.5636628 -0.65536565 0.7647299 0.19633788 -0.063035175 -0.66988987 -0.77771366 -0.11701074 -0.8822921 -0.8573028 1.0974888 -0.12849881 0.0055318573 -0.15165706 -0.8458197
pediatra -0.34097052 0.5412055 0.102169424 -1.4908365 0.51461077 0.32533497 -0.04312509 0.023464162 0.29433468 -0.5116593 -0.600495 0.6158052 -0.15713537 0.95651644 0.08637057 0.49294516 -0.9695922 0.24136657 0.22441933 -0.93267876 0.3366504 0.19289227 0.18487331 0.30315307 -0.61925656 1.8123591 0.18694258 0.24965459 -0.8383885 -0.47777453
aparece -0.4827461 0.152844 0.9507608 0.7867533 1.1122823 0.37335336 1.2846401 -0.080109544 -0.27731967 -0.29867405 0.6955396 0.60906553 -1.1013166 -0.5176744 -1.2540724 0.7734363 0.21075812 0.09639291 -0.32799026 -0.27771088 0.86309916 -0.40247074 -0.11595762 0.75209093 -0.36178017 0.4432051 -0.14291641 0.45032287 -0.90334356 -0.2743316
presion -0.57952046 0.23652598 0.9964451 0.48013166 -0.32445017 0.5086655 0.27803767 -0.107409544 0.40686786 -0.9259052 0.12345996 0.75293314 -0.50933194 -0.11941964 -0.39604217 0.5860577 -0.73885816 0.24609293 -0.20462474 -0.09991304 0.42854446 0.2574973 0.7559005 -0.27304667 -0.20005633 0.42687452 0.074604996 0.12439108 -1.1392955 -0.18372588
salir 0.31276733 1.124948 0.44041902 0.031308316 0.204957 0.8580018 0.06960582 0.14086841 0.23777391 0.06991104 0.4587003 0.98837835 -0.9643535 -0.2750168 -0.8292249 -0.19729115 -0.32046717 0.15273623 -0.30944076 -0.5701175 0.23835361 -0.36390963 -0.07698189 -0.057935126 -0.13575238 0.580122 0.04378817 0.45891193 0.07593858 0.226936
ayudar -0.002748916 0.42481598 0.8170398 -0.584443 -0.24916732 0.32581404 0.058600366 -0.21716842 -0.22451675 -0.5677158 0.54499936 0.8164637 -0.23159942 -0.41181687 -0.2603948 0.25516155 -0.07016171 0.58297735 -0.4065301 -0.09956937 0.25780654 0.2996925 -0.07996691 -0.75965136 -0.2968912 0.7648064 0.18740042 -0.13839021 0.1162453 -0.16109094
preguntar 0.011349037 0.8551765 0.8768538 -0.49380338 -0.2631711 0.5166115 0.2315754 -0.10190529 0.28480768 -0.14425896 -0.3272222 0.5434942 0.050085627 -0.24766155 -0.38926122 0.44722578 -0.3903355 0.13095465 -0.5514916 -0.21202146 -0.08137402 -0.31271502 -0.19250743 -0.05074367 -0.66187537 0.3582341 -0.42593858 0.31862214 -0.14937213 -0.23600322
podido -0.7990289 1.1886997 1.0398606 0.07491993 -0.33005613 0.41979107 0.09022868 -0.89957875 0.1497586 0.41625208 0.13704701 1.209695 -1.1872159 -0.54568654 -0.24791831 1.1805689 -0.5911255 0.24065052 -0.25665385 -0.27276844 0.34295422 0.6425066 0.92636913 0.08481122 -1.1384331 -0.42130712 0.09476791 -0.81519157 -0.58291227 -0.13877791
entrar 0.36020604 0.41576603 0.8803659 -0.92079234 0.67086995 0.14974874 0.25783423 -0.38874668 0.058184505 -0.04844028 0.43413448 0.6256934 -0.45186287 -0.25505766 -0.41422388 -0.24723594 -0.72818524 0.19525598 -0.11681099 -0.18112355 0.90528715 -0.35080606 -0.23519616 -0.21757519 0.05581936 0.91492623 0.21604988 -0.27945536 -0.08249453 0.33431247
senores 0.14572224 0.76555014 0.045461357 -0.46328983 0.704042 0.08883365 0.05032429 -0.2900236 0.47903466 -0.15824205 0.29302597 0.5236646 0.033147737 0.34697 -0.21430047 0.30005997 -0.04733234 0.46793577 -0.28000823 -0.24549864 0.2730947 0.061528835 -0.04607593 0.090822674 -0.7057977 1.3669738 -0.25320536 0.27449524 -0.45655575 -0.3183677
apenas -0.019049965 0.16814855 0.7747874 -0.09886553 -0.16755266 1.070422 0.057367854 0.318773 0.71227896 -0.54871786 0.5221933 1.019192 -0.46938807 -0.11017832 -0.5296305 0.31033453 -0.040358767 0.235835 -0.21740226 -0.1397862 0.31863174 0.55688095 0.41049385 0.19595768 0.10226021 0.9051989 -0.14072795 0.18227603 0.27378228 -0.43779922
ejemplo -0.82802796 0.5798103 -0.32659867 0.15596235 0.34676346 0.4997795 0.45284373 -0.15378582 0.38763538 0.09666822 -0.3386571 1.2588254 -0.72771615 -0.7266704 -0.96046907 0.49259517 -0.81209445 0.0015859716 -1.1049829 -0.4010871 -0.43315575 -0.39095607 0.34651053 -0.4836289 -0.13424309 1.0010246 0.5731812 0.10201386 0.23215933 -1.0023538
entidad 0.40766367 0.65540403 0.3366296 -0.9184823 0.67065245 -1.1035838 0.25024423 -0.63189405 0.6697014 0.26893938 -0.20578697 0.5382653 0.64442074 -1.1287535 -0.27607486 0.24621613 -0.7646233 0.36766073 -0.8240773 0.77018505 0.7685903 -0.19341671 0.4927174 -0.18201184 -0.6865144 0.86250615 -0.4245207 0.11924201 0.028367791 -1.0696425
neurologia 0.2690948 0.54265004 0.07638424 -0.5287151 0.42973727 -0.2040181 1.9220613 -0.50591856 -0.5016625 0.3912134 0.17237009 0.9371674 -0.9875164 -0.07108656 0.2139112 0.56972706 -0.9377722 -0.38777143 -0.46759635 0.010451593 0.85742056 -0.3595961 0.17544532 -0.40824765 -0.21698761 0.84778845 -0.8089872 0.19455457 -1.4492375 -0.5179748
cercana 0.5176519 0.19508058 1.0472902 -0.16305023 0.08916662 -0.55521554 0.50654566 0.5427198 -0.11148578 -1.2284061 -0.45261273 0.40241972 -0.040197592 -0.0862012 -0.6921614 -0.46885645 -0.8222431 0.34405574 -0.0053139017 -0.46961653 -0.671827 0.14188012 -0.25717193 -1.4789008 -1.1254765 1.0123073 -0.73164964 0.48033378 0.44943368 0.07531454
tequendama 0.49518368 0.71375334 0.6379364 -0.49615523 0.18487543 -0.7228879 0.520408 -0.4021788 0.1697452 -0.11025429 -0.19868709 0.2324448 -0.023453025 -0.6692401 -0.5499288 0.44700834 -0.097294435 0.78706217 -0.46923238 0.032638926 0.53195405 -0.47047043 -0.47221568 -0.8237498 -1.0698904 0.06363695 -0.75445575 0.30934733 0.3947194 -1.0215144
atender -0.11701336 0.17314592 0.91772604 -0.6713441 0.13000269 0.33487517 0.06319764 0.17518246 0.16528448 0.2819292 0.034857914 0.20876211 -0.09431203 -0.45468867 -0.75444996 0.2923744 -0.57377684 0.91702163 -0.5068188 -0.6481804 0.07594571 -0.18434478 0.060420953 -0.44447872 0.17142923 0.42637843 -0.08947284 -0.09604153 0.06921321 -1.1921948
envio 0.7754182 0.42948002 1.1599393 -0.07013178 0.39336696 0.260756 0.042878505 0.91529757 0.28201923 -0.20963204 0.2284357 0.3752793 0.21633244 -0.44357035 -0.40586624 0.083074234 -0.19119228 0.38789442 0.08906161 -0.3180939 0.11268372 -0.06309425 -0.88563114 -0.41703302 -0.39495724 0.6814754 -0.7691373 0.11099217 0.1293617 0.30436745
comunicarme -0.38786674 1.3732643 1.2392763 0.21526536 -0.044294287 0.5118674 -0.20963784 0.05823092 0.33678067 -0.0060416083 0.44494557 1.0815686 -0.8467284 -0.8595339 -0.7334878 0.13043179 -0.42428 0.25588843 -0.18513516 0.20538805 0.104572974 -0.04594055 0.31952432 -0.51132566 -0.7285665 -0.5162144 -0.39821988 -0.4435648 0.06777572 0.45648015
vete 0.1797326 -0.09637849 0.78657186 -0.55326664 -0.119871855 -0.42524698 -0.08121419 -0.08766712 0.20540185 -0.062944956 0.23705238 0.7250423 -0.027177434 0.04275303 -0.20556228 0.44549692 -0.40528646 0.5782522 -0.058680028 -0.13038693 0.33759236 -0.121046096 0.65888834 -0.7475796 -0.71578264 0.7893868 -0.4053676 -0.0014318903 -0.53052104 0.15774968
enviar 0.87759703 0.99134785 1.5417503 0.20376815 0.026874868 -0.27454126 -0.3335765 0.43067157 0.44800946 0.58423287 0.12557715 0.8155043 0.39457577 -0.66144353 -0.3315534 0.35895148 -0.18177047 0.15035585 -0.61063236 -0.097002394 0.06686093 -0.28819183 -0.14714338 -0.10858164 0.124166474 0.3208171 -0.33071375 -0.5852339 -0.146015 -0.8008531
senal -0.14093763 0.45656288 0.7936782 -0.566212 0.35720015 0.6835901 -0.21267347 0.33369493 0.2330481 0.02563181 -0.36895823 0.48947978 -0.030328175 -0.36559767 -0.7125623 0.63282007 -0.586604 -0.36809736 -0.16658859 -0.18471721 -0.08872836 0.074059084 0.29260418 -0.2639057 -0.49021193 0.9939193 0.12208995 -0.20243347 -0.13987388 -0.1577601
contesta -0.7131776 0.7056328 2.1617308 1.2554494 0.11616847 0.3757453 -0.55294853 -0.74168307 0.6304485 0.7466659 0.5752322 1.4498316 -0.83936733 -0.80492014 -0.8667981 0.57965183 -0.35865316 0.539494 -0.46913755 -0.530239 1.3973395 0.6683403 1.278441 0.3951492 -0.31773934 -1.1379436 -0.29100174 -1.4514048 -1.5128964 -0.18908176
problemas -0.19188996 0.22756153 1.0217079 0.035533175 -0.07013648 0.269289 0.62780637 -0.083675586 0.109545425 0.09114531 -0.26992688 0.71231854 0.07753262 -0.4206358 -0.23311992 0.91508555 0.14956231 0.67910546 -0.9725693 -0.33201486 0.8709319 0.70028144 0.27006987 -0.58615595 0.029384559 0.51893294 -0.001363066 0.1912231 0.41400072 -0.5918173
siento 0.47237885 0.63872904 0.45768964 -0.2902282 0.05833023 0.17877795 -0.08637461 -0.26379448 0.24761884 -0.31144977 -0.20616336 0.683427 -0.35477525 0.20472267 -0.6105833 0.23021978 -0.5205511 0.31748334 -0.08596948 -0.07922186 -0.04814 -0.16488189 1.0975099 -0.035628337 -1.0412376 0.2329693 -0.47405922 0.21582036 -0.15175804 -0.1840431
tranquila -0.795506 0.14966583 0.8029628 -0.49568874 0.21508147 1.0965371 0.31054696 -0.6367984 0.44874468 -0.31093886 -0.49647367 -0.014019437 0.20940691 -0.21832399 -1.3330387 0.86876446 -0.51186013 -0.21380153 0.40391147 -0.8588912 0.42474797 -0.4634922 -0.46641183 -0.17568493 -0.7803142 0.9127693 -0.3912268 -0.45007 -0.22547676 -0.49565536
fijo -0.08865654 0.09857058 0.7718864 0.63505685 0.11518968 0.24165624 -0.4421793 -0.78381354 0.30610207 0.15904433 -0.083110206 0.8121291 0.30344656 -0.641697 -0.7067093 0.59729016 -0.17477977 0.5855246 -0.70942974 -0.74065906 1.0868155 0.11085238 0.72168857 -0.057920095 -0.7402816 0.07179146 -0.2363494 -0.62739223 -0.806638 -0.51813966
vuelve 0.45700112 0.4219014 0.99587995 -0.64111066 0.23539893 0.08512418 -0.3770495 0.0911358 0.9895045 -0.27686286 0.24099377 0.5366376 -0.40067682 0.13421136 -0.37549698 -0.08606602 -0.21486251 0.34481353 -0.48124823 0.37944543 0.91481733 0.19575512 0.27983814 -0.2616956 -0.4078626 0.6355009 0.6192041 -0.064146504 -0.7150174 -0.13770758
decia 0.019416053 0.38100964 1.3841145 0.6478978 0.40239224 -0.038630296 0.28237903 0.7301895 0.016940732 0.19397572 0.3830343 1.1802183 -0.16987078 -0.9474974 -0.7792282 0.21482822 -0.27754724 0.41931227 -0.22674462 0.042988554 0.8865918 0.4673117 -0.2842231 -0.37194836 -0.26675203 0.08690526 -0.0026850908 0.21815114 0.26978096 0.22632547
historia 0.3497133 0.4336813 0.9430182 -0.27086636 0.43386075 0.8846414 0.58914196 -0.036011674 -0.23438129 -0.36236313 -0.3018105 0.9164956 1.3209779 -0.23522754 -0.22192341 0.8447902 0.027927289 0.39361376 0.083390534 0.46606627 0.94766796 0.027856164 -0.45594066 -0.26430622 -0.46466196 0.40649563 -0.96784276 0.22513898 0.60792106 -0.6233465
pasada -0.32507858 1.0545579 0.7663673 0.41967824 -0.42389867 0.63317996 0.19716752 0.4626411 0.8194996 0.02432674 0.19484031 0.5685814 -0.20217176 -0.06005833 -0.17568503 0.4446119 -0.08956494 0.30767864 -0.7990874 -0.48498568 0.05083988 0.3500124 -0.021071646 0.20752837 0.13777162 1.0761335 -0.5987583 0.64693785 0.30912298 -0.35860986
higiene 0.3601053 -0.61824965 0.16864583 -0.22289231 0.89358807 -0.6614473 -0.31180575 0.507649 0.32362273 0.06433638 1.2572395 1.4892412 0.18287988 -0.24331658 0.39823693 -0.59960276 -1.1518718 0.52321196 -0.29444262 -0.3928219 0.17160018 0.11309241 0.8942634 -1.1010579 -0.9323105 1.6820571 -0.44467068 0.5552005 -0.8263374 0.94460064
psicologia 0.34822237 0.14528075 0.66900563 -1.2586732 -0.22029088 0.518833 -0.37539405 0.528469 0.27912658 -0.46849594 -0.5791209 0.9112725 0.056598015 0.94681394 -0.5815639 0.1836467 -0.66840804 -0.2368073 -0.17425832 -0.33675584 0.89942604 0.46528435 0.35741892 -0.23268946 -0.42669195 1.0338403 -0.25648052 0.346402 -0.31535402 -0.0043029115
horario -0.12974346 -0.18217905 1.0382628 -0.06958084 0.7463429 -0.050253313 0.33054033 0.15932553 -0.43496525 -0.57695085 0.85181373 0.17436491 -0.13004318 -0.4543267 -0.44182438 -0.5427551 -0.13851085 0.3376444 0.045251522 -1.2823889 -0.34346572 -0.27682638 -0.14571033 -1.0886884 -0.50977343 1.7966149 -0.41581202 -0.026299812 -0.13542235 -0.12055115
entra 0.1530574 0.9103079 0.8463437 -0.501135 0.05842898 0.55906224 0.2029777 -0.52437276 0.23414408 0.07008519 0.37040693 0.5025763 -0.46386567 -0.11215051 -0.57523334 0.33789897 -0.38655275 0.72573125 -0.1956496 0.19816366 0.2791148 -0.44932896 0.32305345 0.19463146 -0.44387296 0.058222845 0.18845312 -0.2650546 -0.37390712 -0.59069824
tarjeta -0.22388695 0.4117124 0.2591493 -0.67568696 1.3533465 -0.15308642 0.10845988 -0.26769754 0.6319101 0.99172664 -0.0053185285 0.18058635 -0.1305494 -0.55427533 -0.4067335 0.29928043 0.22678448 0.6443593 -0.5848291 0.37962592 1.0509114 -0.32610577 0.41042042 -0.15203655 -0.90635645 1.2369735 0.055020187 -0.44438174 -0.613981 -0.85239
llamarn 0.31102675 0.407463 1.4740409 0.22518283 -0.24995176 -0.045382287 -0.2617393 -0.09474487 0.51266325 0.5477322 0.311582 1.1544584 -0.288847 -0.55998784 -1.3054521 0.32075748 -0.71529037 0.5418717 -0.33602604 -0.36697063 0.24809738 -0.2783822 -0.3110498 0.21064375 0.12061562 -0.026805496 0.22398381 -0.27530172 0.25008902 0.07491591
atendiendo 0.25094187 -0.37760496 0.95678496 0.17128369 0.1755228 0.8601699 -0.30581868 -0.12535991 -0.17482553 -0.101800635 0.39376917 0.98419696 -0.43121305 -0.12099501 -0.3585532 -0.23734775 -1.5575694 0.785301 0.29769522 -0.63896066 0.53067017 0.02841513 1.2703196 -0.51484656 -0.7342007 -0.33255145 -0.5641548 -0.52708995 -0.99315304 -0.40525118
cambiar -0.2664333 -0.035962403 0.86407316 -0.8791042 0.6157944 0.43858838 1.0139472 0.07076933 0.16904391 -0.36237136 -0.2925014 1.1329472 -0.20555168 -0.2513808 -0.9937711 0.097547084 -0.80038255 0.050616313 0.37952074 -0.18393393 0.16706526 -0.61854684 -0.13144544 -0.2986293 -0.3053778 0.4296927 0.08166362 0.5417219 -0.45781767 -0.18927777
afiliado_a -0.8839721 1.1309187 0.99324495 0.85240364 1.3129346 0.95321953 0.7323405 -0.13627101 -0.78444266 0.18497331 0.50886863 1.1915058 -1.7441312 -1.284146 -1.1051852 0.34114346 0.52803165 0.3682991 -0.041791677 -0.49357733 1.2271013 -0.27712888 -0.40332603 0.50428295 -0.5259422 -0.26166046 -0.5320441 1.338071 -0.7527754 0.25467733
acceso 0.90916324 -0.14340909 0.8365266 0.4049478 0.7650676 0.25798276 0.025542298 -0.45201504 0.41478893 0.9516944 0.8577826 0.7945301 -0.15850346 0.25928035 -0.49741495 0.14887293 -0.6191906 1.225691 -0.7721448 -0.49387604 0.77944934 0.3468109 0.45409414 -0.5761663 0.020009868 0.32412213 -0.70565975 0.032872807 -0.15232623 0.11635146
disculpe -0.25417042 -0.07485756 1.2409197 -0.068842456 0.050189767 0.5414587 -0.18958732 -0.11132478 0.49598643 -0.8188561 0.6321262 0.7595679 -0.8814413 -0.20460531 0.09132093 1.1436194 -0.96505183 -0.30229688 -0.47959393 0.30283025 -0.8329792 0.08782365 1.3573859 -0.0057515325 -0.91594344 0.7579351 -0.4239575 -0.49487162 -0.27473167 0.30907458
muchacha 0.29182956 0.93220073 0.4425543 0.19698188 0.53741586 0.26600394 -0.07410076 -0.40578493 0.3362716 -0.12469414 -0.29387048 0.7324534 -0.10137392 -0.5115738 -0.6938553 -0.12905501 -0.050580464 0.17742975 -0.21945259 0.21111535 0.68456626 0.648174 0.408499 -0.071867034 -0.8594128 0.43238458 0.3033681 0.5859086 -0.47541052 -0.02200095
requiere 0.022567915 -0.55733156 0.6740132 -0.36087635 0.6222633 -0.6458311 0.53309363 0.8646766 -0.7110041 -0.15856516 -0.006443519 0.42007357 0.40957847 -0.12074861 -1.0022262 -0.5812093 -0.90827715 0.606881 -0.7567739 -0.7111773 0.063651204 -0.025338994 -0.7260016 -1.1906852 -1.058885 1.383751 -0.58703 0.39913213 -0.21913739 -0.48273748
programada 0.001634265 0.6848575 0.2897874 -0.30724984 1.5934559 -0.69600135 0.6747687 0.3877236 0.17194696 -0.30779046 0.9814596 0.29756492 0.12991823 -1.2268536 -0.7299679 -0.7609992 -0.8104656 0.37179315 -0.18901303 -0.7401846 -1.5626088 -0.65568066 -0.42288864 -0.58602506 -1.5702685 1.7981117 -0.63004 0.23187895 0.3435876 -0.42373383
tratar -0.41993684 0.9732695 0.3110293 -0.14801618 -0.07933485 0.33751613 -0.04563538 -0.44030583 0.32463366 0.11526476 0.24247445 1.0338178 -0.7102077 -0.35363215 -0.4240075 0.4760464 -0.6425774 0.43458492 -0.5663219 0.5479923 0.10482152 0.22235662 0.34681314 -0.6720073 -0.8262391 -0.07818134 -0.17783614 -0.33537257 -0.5500761 -0.58368015
familiar -0.06186612 0.8667255 0.84020996 -0.1992006 0.90736556 -0.52246785 0.19937387 -0.21482652 0.5511601 -0.2433943 -0.16434136 -0.24580306 -1.005984 -0.6052573 -0.01991129 0.82048166 -0.49991345 0.4560398 -0.055420276 0.08089908 0.17362864 0.21078345 0.38729656 -0.14156328 -0.8973631 0.55296284 -0.18493642 1.1060315 -0.035442162 -0.34768727
esposa -0.021028347 0.72690547 0.79830825 0.3200276 0.09738904 0.1338952 0.10690902 -0.055246845 0.39099115 0.16389234 0.7394326 0.6650595 -0.23814926 0.096172884 -0.028276745 0.375424 -0.49523982 0.30338234 -0.5373753 -0.57621115 0.022462187 0.1335331 0.49975747 -0.24307893 -0.25676376 0.35129014 -0.5786689 -0.069333166 -0.49399227 -0.70189744
listos -0.10582905 0.7847732 0.4371248 -0.1925261 0.4009342 -0.3848269 0.6169266 -0.24033116 -0.18042362 -0.59179604 -0.19310167 0.41186932 0.3092 -0.6941954 -0.0020137243 0.51338714 0.04738904 0.4405083 -0.3183703 -0.07804088 0.5798055 0.22235571 -0.19300704 -0.46798962 -1.095866 1.0960109 -0.22900485 0.10539892 0.31206253 -0.8939527
poner -0.049438342 0.5397095 0.49223772 -0.7295616 -0.041482594 0.64504594 0.47461683 -0.24020931 0.19334371 -0.21418314 -0.21342173 0.5847463 -0.2510649 -0.30220377 -0.7254769 0.4830414 -0.40369406 0.24925855 -0.15192257 -0.6872042 0.023538545 0.09701779 0.21384287 -0.8082807 -0.2690968 0.58901745 0.42695948 0.26195532 -0.24163628 0.15642145
maneras 0.5822282 0.032182276 -0.03850833 -0.85161215 0.60778946 0.14019866 -0.056774393 0.21276334 0.2938751 -0.51891327 0.4427436 1.3822796 -0.15105496 -0.3651303 -1.215108 -0.20634189 -0.60327214 0.64197314 0.28501293 -0.23697172 0.33314618 -0.0019760358 0.43360245 0.010719437 -0.13686083 0.55362296 -0.49433935 -0.29275453 -0.17721125 -0.12455866
hijos -0.28474033 0.654517 0.660408 -0.11174262 0.3698008 0.78461194 0.490622 0.07190547 -0.11357184 -0.24286456 0.07360373 0.28336933 -0.54330665 -0.4046882 -0.6195179 0.2629871 -0.29032892 0.49123734 0.7337231 -0.4716023 0.7072129 -0.0046594236 -0.12899871 -0.3936256 -0.518346 0.7244191 -0.09225183 -0.04875068 -0.60202616 0.23869324
fuerza 0.13203157 0.15789527 0.83033675 -0.1387797 0.6116115 -0.20938772 1.0383193 -0.3039273 0.3593617 -0.12820382 -0.01722078 -0.14183696 -0.076971985 0.14011282 -0.46743545 0.6905427 0.09305541 0.12004768 -0.34946796 -0.43110228 0.1164552 0.15114704 0.49196687 -0.722289 -0.8889069 1.060092 -0.4983137 -0.052898183 -0.27522293 0.061349537
medios 0.23000409 1.0515264 0.6670027 -0.1467818 0.0761982 1.0235639 0.39969698 -0.5248987 0.1012774 -0.2249936 0.0408667 0.49277508 0.27802438 -0.54837424 -0.13679183 0.39572752 -0.17555408 0.40812764 -0.20179209 -0.29398665 0.21187772 0.63211507 0.69717014 -0.06740033 0.020506684 0.83260703 -0.40246177 -0.26570448 -0.17437458 0.10098899
loco 0.00067412877 1.0896235 0.6213095 -0.17162213 0.008533606 0.30980548 0.36463133 -0.39572936 0.33799484 0.034237944 0.14073634 0.716989 -0.77885705 -0.1085096 0.6322358 0.58037734 0.003367652 0.09694256 -0.71514547 0.17351377 0.55219233 -0.0255266 0.57508653 0.17593786 -0.9050939 0.69212836 -0.4436608 0.095545955 -0.22282884 -0.4400322
hacerlo 0.297828 1.0410343 0.83703506 -0.45136416 0.2700865 -0.5223625 -0.092302285 -0.018837672 0.21158336 -0.18423852 0.5718506 0.37384516 -0.16625054 -0.48774818 -0.5257806 -0.40307164 0.07590229 0.39402857 0.12320186 -0.31330737 0.41547418 -0.14402747 0.008459676 -0.4834781 -0.56536436 1.0668988 -0.052246425 0.043345854 0.07150022 -0.022464175
haria 0.1716931 -0.3135612 0.6576398 -1.1935214 0.24214992 0.0033539522 -0.26911527 0.014611968 -0.013683542 -0.32793844 -0.123496845 0.521576 -0.12928894 -0.08502901 -0.5340684 0.4854392 -0.5065743 0.4587736 -0.6602558 0.23905535 0.033839025 -0.011237984 0.612438 -0.37203616 -0.6503835 1.3942487 -0.019644218 -0.29160452 0.20459096 -0.53877205
agua 0.49769035 0.30569974 0.45366296 -0.47719175 -0.174327 0.5576663 -0.72365814 -0.18386112 0.5035024 -0.09234819 0.29092237 0.26835838 -0.23921363 -0.2415317 -0.81303316 0.38092276 -0.97229576 0.8822321 -0.18171898 0.36942774 -0.1397389 0.27254158 0.3284928 -0.4096955 -0.4880081 0.6517247 0.12316159 -0.37042326 -0.3050415 -0.72606057
internista -0.35532716 0.5703929 0.5581998 -0.21609937 0.47163317 1.1923473 0.32072106 0.09245517 0.86278844 0.01400774 0.4454527 0.6861395 -0.5609881 0.3878637 0.31170836 1.5452824 -0.4081773 0.120673105 -0.23458937 0.06527624 -0.09366819 0.68356323 0.7974103 0.104975514 -0.21186826 0.8022821 -0.0820544 -0.055728644 -0.055703864 -0.16501302
producto 0.71489197 1.1019827 0.7090042 -0.7990037 0.60524094 0.26543444 -0.6276154 -0.2519234 0.41920537 -0.21089531 -0.64385617 0.2178502 0.23749064 -0.06727144 -0.7828023 0.44979674 -0.31977022 0.09253447 0.29153952 -0.40442342 0.7166205 0.1252992 0.061334416 0.2598475 -1.007754 0.38326505 -0.40938964 0.20509623 -0.47189397 -0.06982536
deben 0.93659097 0.5693392 0.9428584 -0.16149789 0.79421806 -0.050001018 -0.0056692455 0.724054 0.083807565 0.3915401 0.81730324 0.4466019 0.11710625 0.66257197 -0.15499054 -0.4777869 0.162584 0.59053826 -0.2119909 -0.17513458 0.12709051 -0.28343454 -0.16477662 -0.8369865 -0.43157944 1.2073944 -0.6226108 0.06120925 0.13628529 -0.4703733
perdi 0.543739 0.27987114 1.0410095 -0.24497826 0.12801237 0.1564088 0.8014902 -0.009775988 -0.031299476 -0.25307614 -0.030962098 0.43237078 -0.49516305 -0.34473312 -0.46804857 0.6870196 -0.9561821 -0.08980608 0.21173322 -0.19020358 0.3242058 0.27627704 0.6827585 -0.33897197 -0.38206115 0.565658 -0.28947514 0.0035259216 0.07606106 0.460697
rapido 0.56688243 0.21702667 0.56897444 -0.41229895 -0.13038611 0.42734185 -0.20751387 -0.027647147 0.03382668 -0.31327844 0.4613335 0.68531096 -0.7689259 -0.41141537 -0.7549917 -0.50506186 -0.18820071 0.8148349 -0.11436193 -0.50049436 0.40967754 -0.3528368 0.013181969 -0.61002547 -0.40772602 0.60843647 0.11116875 0.015327991 0.21898393 -0.4419204
vieron 0.4076646 0.6110518 0.6018742 0.09818578 0.30650768 1.5520595 0.26020944 -0.31237373 -0.014033302 0.18694781 -0.4437724 1.0017835 -0.04448814 -0.11638555 -0.08021763 1.0404309 -0.40316573 0.12034294 0.098980874 -0.16236329 0.9128683 -0.029976746 0.12605515 -0.24945511 0.026183637 0.48094386 -0.13636783 0.19030264 -0.49385357 -0.50402355
vengo 0.5211837 0.84728736 -0.07684165 -0.09172598 0.22405183 0.15818013 0.3543163 -0.74266243 0.09765445 0.4117264 -0.04178403 0.78664917 -0.16099381 -0.35489944 -0.8638627 0.40542102 -0.6708826 0.36978844 -0.89152026 0.20142445 0.49897003 -0.1592077 -0.25377125 0.02021728 -0.68041676 0.4839747 -0.27730983 0.6745292 -0.32926607 -0.820998
sangre 0.27129096 0.91131777 0.8546939 0.013740451 -0.1568574 0.5988853 -0.15811613 0.020745315 0.4839229 0.006772655 0.011703948 0.96206975 -0.08738577 0.18083596 -0.23405167 0.49118683 -0.33775407 -0.01096091 -0.017535673 -0.26840025 -0.14475285 0.14287965 0.73739314 -0.02954317 -0.40699527 0.3537442 -0.77597886 0.06866713 0.2657427 -0.18624538
exactamente 0.19829488 0.9085095 0.9502432 0.4743691 -0.17101663 1.0618893 0.44030336 -0.27636623 -0.11924184 -0.5468548 0.016900614 0.1546476 0.2488707 -0.50004846 -0.4263739 -0.39451006 0.15247306 0.73682076 -1.086255 -0.7571114 0.49256596 -0.033973854 0.26726106 -0.73030454 -0.16676064 0.4757042 -0.096953124 -0.104913466 0.005023976 -0.04855099
particular 0.47799316 1.0988309 0.06235273 -0.109753475 -0.48509383 1.0110397 -0.11082212 0.0524716 0.59020567 -0.44884753 1.1343418 1.1238824 -0.7806534 -0.09011404 0.45127085 -0.13455807 -0.42393413 0.7018347 -0.146443 0.7878727 0.06336663 -0.020303667 1.225854 -0.64724964 -0.78377974 0.5695948 -0.12526064 0.7595633 0.44139862 -0.07888433
vuelvo 0.117891446 0.016783444 0.9455832 0.1681283 0.29331282 0.16149227 -0.042912874 0.0864627 0.31691253 0.21367511 1.0751773 1.2501742 -0.1277359 0.25852737 -0.5939771 -0.2995424 -0.7449175 0.654685 -0.019261539 -0.14932223 0.7302926 0.03610321 0.65284663 -0.8897605 -0.19610903 0.2383942 -0.1285358 -0.6242812 -0.248135 -0.12334897
hermana -0.11225091 0.7685237 0.90820855 0.022271201 0.35433117 0.6344529 0.2155292 0.2582846 -0.17316203 -0.238687 -0.51441437 -0.25235474 -0.65093434 -0.47477487 -0.64711607 0.49006897 0.47461614 0.537539 -0.7583838 -1.1621292 1.1710569 0.40581012 0.71987337 0.3068472 -0.12308551 1.0248564 0.06743849 0.07533182 -1.2468526 0.70241904
inicio 0.51804155 0.9047922 0.8195369 -0.15344656 0.16035438 0.20746258 0.23863028 0.18336959 0.45750767 0.047014683 0.3805699 1.0130644 0.018176114 -0.24060059 -0.3030298 0.23002088 -0.057666432 0.09181324 0.38055396 -0.87605566 0.45955113 0.2720805 0.3194335 0.100737125 -0.055488277 0.65346366 -0.18143979 0.11868811 -0.06336924 -0.05202697
entro 0.3806349 0.6054277 0.4751241 0.30688685 1.1085502 0.63145363 0.42566958 0.43619287 -0.22651817 -0.20211342 0.14365755 0.89692456 0.31818643 -0.12389567 -0.78577894 0.5027453 -0.5633389 -0.07051817 -0.059549138 -0.10104604 -0.094903104 0.15975901 0.61361367 -0.043950375 -0.3964816 0.33211482 -0.19638029 -0.33277923 -0.7226841 -0.12128753
tele -0.35859123 0.5765786 1.1465162 -1.0003443 0.6783415 0.09776973 -0.16483709 0.19532914 0.19651437 -0.29261094 0.6169905 0.62771356 -0.13717501 -0.002072515 -0.601351 -0.24482323 -0.59388256 0.5109285 0.4152331 -0.50980437 -0.01919579 -0.05969862 -0.4823177 -0.51244134 0.005132638 1.1872607 0.04790535 -0.40436295 0.6801119 0.09149371
sitio -0.050073966 0.46317527 0.98775744 0.08576749 -0.11559316 0.34341177 -0.06368306 -0.01578766 0.49668613 -0.66516966 0.16506757 0.9125307 -0.5628707 -0.23697454 -0.2520005 0.153648 -0.23634486 0.46321338 -0.4233103 0.015232129 0.16169308 0.63573635 0.57236826 0.09611042 -0.46011963 0.53880996 -0.16751677 0.44102424 -0.40584642 -0.43998978
formas 0.65463966 1.309823 0.8583543 -0.268437 -0.5628311 0.31921378 0.38181582 0.18438049 -0.08583357 -0.33723056 -0.28126693 0.31010798 -0.08250905 -0.060486495 -0.5519896 0.46713513 -0.48697203 0.6465133 0.35448688 -0.8562527 0.47071692 0.34693715 0.44437572 -0.100467965 -0.40670195 0.35417634 -0.276993 -0.5935235 0.107453294 -0.13967137
tratamiento 0.47561035 0.079172336 0.59097785 0.41592363 0.32143363 0.8768727 0.28732935 0.29802275 -0.5876796 -0.29090375 -0.23663616 1.4936861 -0.35640642 0.2143022 0.007301246 0.98965716 0.21144071 0.11401102 -1.327845 0.3004034 0.2787694 0.540896 -0.27766198 -0.3629553 0.35724357 1.1485226 -0.45957044 1.3063881 -0.79392236 -0.5951923
comfandi -0.1511991 -0.17679577 1.060172 -0.1280243 0.33495572 -0.2593465 0.796344 0.09344528 -0.6281086 -0.5154403 0.7242245 1.1319212 -1.3079507 -0.018451218 -0.7901931 0.32693413 0.04291747 0.6238161 -0.27118042 -0.2706718 0.5477162 -0.37916884 0.93352187 -0.2787047 -0.5137039 -0.07785008 -0.72773755 0.02589659 -0.94092375 0.054022327
pandemia -0.40717918 1.181258 -0.25899103 0.11960815 0.5953163 1.0282885 1.0831978 0.61842495 0.664227 0.035069473 1.0414292 -0.032754403 -0.24846391 0.24181542 0.35505587 0.76549536 -0.985879 -0.46735245 -0.1483387 -0.5921304 -0.009498741 0.6752966 1.2133781 -0.028083771 -1.0559943 1.0357206 -0.74011785 1.4185462 -0.9340228 -0.27525595
enviaron 0.369717 0.7847073 1.5978521 -0.43513286 -0.1404377 0.100981936 0.30255997 -0.03956029 -0.18312344 0.17729285 -0.12353369 1.0133842 0.255951 -0.4604107 -0.7212975 1.0729195 -0.22721137 -0.2830303 -0.42989808 0.66114557 1.2796259 -0.3009311 0.19022767 0.012943115 0.20346525 -0.00096881937 -0.8247007 1.0001817 -0.15729299 -0.3320061
positivo 2.3883953 3.9132392 2.6404657 -0.5618106 -0.940617 0.12010925 -2.2307441 2.0284815 2.0090177 0.49461475 1.0379016 1.6529617 -1.1934718 -1.8997395 -1.065099 -0.72602046 -1.491709 0.2299051 0.105315715 -0.45794636 -0.5326165 -0.98234135 0.11294459 -0.30193833 -0.1286337 0.75501883 -0.23026463 -0.9056665 2.0980353 0.34218875
termino 0.06913635 0.43774965 0.91557837 0.07525107 0.7279077 -0.44094867 0.24498153 -0.18993267 0.23536704 -0.5877032 0.039050505 0.2898884 -0.16519316 -0.32073665 -0.6565157 0.030157326 0.078806326 0.7027554 -0.21519995 -0.113727525 0.11127897 0.03284481 -0.37315765 -0.2518057 -0.9306008 0.93352306 -0.32238066 0.23653094 0.23219536 0.08381473
compania 1.1055999 1.0339489 0.29797128 0.26130983 0.556772 0.41928354 0.4081571 0.16933995 0.25203225 0.33793604 0.5431012 0.3650175 -0.54441667 -0.4221342 -0.5361589 -0.45395014 -0.23692748 0.6256208 -0.06757422 -0.036346093 0.07460223 -0.7042986 0.22902526 -1.0768751 -0.11504511 0.74984056 -0.47497296 0.023641415 0.05274403 -0.317469
poquito 0.016095713 0.36374968 0.3540646 0.07734846 0.788931 0.36937156 0.39367482 -0.19884486 0.49529195 -0.5277797 -0.6468259 0.5482952 -0.38513812 -0.07409154 -0.25050268 0.6057193 -0.13742757 -0.0988366 -0.24559152 -0.5576758 -0.29660735 0.42802998 0.08431579 0.059964094 -1.3985814 1.068449 -0.02774408 0.42249128 -0.028416703 -0.53070295
edad 1.357289 0.6721245 1.1068732 0.74769175 1.1884879 0.2844285 1.4865264 0.2836702 -0.014242525 0.91640955 1.95993 0.47333986 -0.41498223 0.39051384 0.10885476 -0.77265334 -0.43285215 0.67843646 0.29838547 -0.5755856 -0.24721944 -1.0551838 0.47988078 -1.9401501 0.47978145 1.3607166 -0.57443273 0.91723436 -0.65620476 -0.35887527
manejo 0.009343174 1.0705775 0.5996248 -0.29843062 0.5736816 0.671444 -0.28876647 -0.5894869 0.6826796 0.14787947 0.014778314 0.72652495 -0.34942955 -0.34780172 -0.35867816 0.3347476 -0.41367525 0.9252869 -0.62233233 0.6378055 0.74620664 -0.15613845 -0.6750258 0.08436761 -0.050368365 0.39116707 0.17788632 0.16127858 -0.675548 -0.93858814
diseno 0.22523405 0.41084048 0.3246259 0.13935888 0.8616177 0.22203259 0.5742462 0.058274906 -0.068040475 0.5645842 -0.11047278 0.3096707 0.1973405 -0.16447219 -0.40097785 0.8204423 -0.4858729 0.5776384 -0.15188321 -0.056856204 0.43515494 0.62297004 0.21607128 -0.3330536 -0.78023946 1.0186734 -0.0016500957 0.3735914 -0.3252507 -0.24317873
copia -0.8502861 0.58979154 1.7965246 1.1145432 -0.83552843 1.1058385 -0.11214307 0.284818 1.9312447 -0.42706028 1.8574895 2.2231688 0.4879629 1.913328 1.0067608 1.3216617 0.19684663 -0.03373875 -0.8485161 -0.04888316 -0.1493776 0.1124852 0.77786064 -5.1914947e-05 -2.3481932 0.19105312 -0.28988698 0.047304522 0.09191567 -0.7327109
sintomas 1.1357249 1.7032698 1.8298059 -0.622851 -0.44931263 -0.095476985 -1.2901626 1.2069404 0.6536028 -0.24200147 0.0671495 0.7176756 -1.1586312 -1.4444189 -1.2593901 -0.549881 -0.46382785 0.2961493 0.16472226 -0.52922475 -0.7294967 -0.36494812 0.026678735 -0.56773245 -0.54667073 0.72083455 0.4189448 -0.69875646 1.5866702 0.3746817
controles 0.5035653 0.80517083 0.26045242 -0.17067781 0.44047523 1.2417847 -0.28748307 1.3212866 0.64277774 -0.024755597 0.7957562 0.8120468 0.12303785 1.1691409 1.1922654 -0.16641581 -0.22661951 -0.24506608 -0.88356084 -0.004866576 0.53924286 0.9651037 0.6550917 0.21683536 -0.8450273 1.8442565 -1.0888835 0.27934623 -0.7491942 -0.5538733
presenciar -0.04426191 0.60830134 0.818934 -0.013046695 0.32104278 -0.19216286 0.25761858 0.16104965 0.4695732 -0.4197829 -0.0118434355 0.14152898 -0.58657616 -0.070839725 -0.18129584 0.35725403 -0.33503023 0.7076366 0.070507996 -0.42026243 -0.07579065 -0.07347795 -0.032445475 0.11997592 -0.7036854 1.1508428 0.06567319 0.14654046 -0.38368002 -0.20616479
cirujano 1.1102931 0.99736494 0.5617665 -1.3379726 0.34875128 0.9432517 -0.12278226 -0.12828967 0.18779866 -0.25919318 -0.09889963 0.84417725 -0.0638423 1.5643178 -0.12600859 0.70537597 -0.84675694 -0.18801732 -0.009297904 0.24916789 0.5179884 0.4390464 -0.11989392 0.20427282 -0.024322158 1.2229466 -0.30657008 1.0919954 -0.68810135 -0.21243055
vencio -0.50433844 0.6605255 0.52676064 -0.17975771 0.4578121 0.4211609 0.45615724 -0.17641708 0.5685692 -0.2055331 0.33049244 0.93048626 -0.6550979 -0.072733514 0.12480114 1.030737 -0.053705685 0.023160385 -0.1331172 -0.20659713 0.6178832 0.5484551 0.38122514 0.41568217 -0.92482376 0.3920067 -0.30407363 0.5225848 -0.20058677 -0.06179911
semanas 0.1597318 0.5608755 1.3897036 -0.2932479 -0.084913924 0.66836977 0.11085066 0.31096345 -0.34102243 0.11153444 0.3335016 0.013568425 -0.19845247 0.28564653 -0.6356703 0.5267867 -0.35635105 0.7736734 0.021443458 -0.39232898 0.58342564 -0.030131025 0.07580972 -0.8125268 0.41835943 0.85117275 0.22437061 -0.19134529 -0.8005751 0.15357164
color 0.29561576 0.39695993 1.1711675 -0.09730522 -0.13634723 0.24673021 0.3418639 -0.7291621 0.347733 -0.07149665 0.23560148 0.6954647 0.43516165 0.026297104 -0.20976956 0.52780527 -0.1769506 0.05805888 -0.6059766 -0.12874596 0.7772619 0.6089194 0.008606687 0.36733407 -0.05056708 1.1958628 -0.30422643 -0.063840166 0.06918095 -0.625982
puedan -0.312388 0.40554205 0.6785772 -0.8960623 0.7493681 -0.16776857 -0.8334629 0.32407027 -0.13565965 0.5731157 -0.11145555 0.7529375 -0.028520282 -0.5134972 -0.8039322 -0.11464008 -0.21278335 0.6308802 -0.22782335 -0.5528746 0.39755753 -0.35759556 -0.023242002 -0.45212254 -0.4357839 0.93508816 0.06909003 -0.2449584 0.09240851 -0.4637703
hablando -0.27813804 0.6319786 0.27137068 0.5218065 0.57649267 0.04221733 -0.47084308 -0.29789835 0.64049155 0.5900067 -0.017281469 0.71385425 -1.1597407 -1.0821736 -1.0031487 0.084602706 0.15545626 0.72218007 -0.5484959 0.20172486 1.0315615 -0.5733038 1.109247 0.13715047 -0.3659958 0.83692676 -0.0031430512 -0.24630517 -0.22179581 -0.52535784
ginecologia 0.30683306 0.52656 0.901717 -0.42500773 -0.09443252 0.5861836 -0.30441323 0.77462125 0.12997626 0.191954 0.17366017 0.56459826 0.31278062 0.30076224 0.05134881 0.8570763 -0.43268082 0.58989227 -0.08668964 -0.52235764 0.39296106 0.22293994 0.2023281 0.12740299 -0.32546246 0.87970626 -0.39902338 -0.124840245 0.107087314 0.1346508
urgencias 0.31949988 0.9133828 0.344787 -0.15415351 0.78974867 0.63707095 0.97954154 -0.28731018 -0.55536276 -0.4033388 -0.0701435 0.3480349 -0.19731994 0.29992604 -1.4442949 0.881816 -1.0571988 0.7476284 0.39981857 0.4130433 -0.03343448 -0.39022407 0.5649631 -0.26804912 -0.49598452 -0.0014086824 -0.26603088 -0.010090312 0.2020297 -0.57823044
precio 0.009247893 0.72285485 0.82207507 -0.0625597 0.526169 1.4974922 0.037366565 -0.03370727 0.5577437 -0.29502964 -0.108994775 0.9488434 -0.4293286 -0.308632 -0.31974757 0.55852616 -0.6809079 -0.24793683 -0.056427546 0.15150169 0.5087296 -0.062058695 -0.4594028 0.027970381 -0.26351413 0.35784584 0.02783999 -0.47186452 -0.7880189 0.34485492
consultas 0.34210363 0.4779665 0.94314665 -0.77602684 -0.07972593 -0.15235163 0.10790318 0.45895952 -0.016237445 -0.60627085 0.011488793 0.45862034 -0.036959667 -0.2569896 -0.57831466 0.38643935 -0.85510087 0.01124116 0.25402907 -0.60512936 -0.021458352 -0.20573741 -0.037916943 -0.2840949 -0.024866566 1.4828806 -0.23698954 -0.08931768 0.6896566 0.08742671
vendra 0.19417809 -0.44592336 0.6843687 -0.54190326 0.43139198 0.27130586 0.27598658 -0.46081048 0.209706 -0.52324635 -0.20400366 0.7511501 -0.38510787 -0.37339774 -0.91819155 0.1632498 -0.4854229 -0.2384388 -0.38873342 -0.19315037 0.16742657 0.02169514 0.46007028 -0.6129676 -0.6961547 1.0007393 -0.013312538 0.13565308 -0.5581865 0.030635068
llegado 0.2288331 1.4905792 0.626464 0.0061248336 0.705846 0.75391054 -0.838083 0.19397914 0.03190917 1.4913856 0.11886269 1.3454851 0.4966708 -0.84663814 -0.61126953 -0.30964378 -0.4138837 0.15188268 -0.24327175 -0.5021779 -0.8034815 -0.47494978 0.66633177 -0.60218906 -0.75226563 0.0072835875 -0.121133134 -0.4802854 -0.38005877 -0.42517036
compartir 0.43722537 0.5402275 0.7019451 -0.03247638 0.09901435 -0.68316865 0.20899455 0.30556232 0.13221565 -0.33864194 1.5006444 0.77920425 -0.05772294 -0.21745713 -0.2550124 -0.2693636 -0.19657636 0.7819856 0.12015411 -0.5217638 -0.07221955 -0.45585662 0.24401173 -0.9764057 -0.32283324 0.9288828 -0.5714114 -0.5301412 -0.097676225 -0.11632202
debil 0.24662098 0.6278802 0.791212 -0.13623331 -0.027957689 0.8722889 -0.021175232 -0.33113766 0.028191065 -0.28879142 0.11513626 0.43232396 0.19049272 0.54601616 -0.6360899 0.45801488 -0.6801449 0.48023257 -0.092630334 0.04387227 1.1334184 0.7524173 -0.24389026 0.03081099 -0.9244815 0.20376664 0.05091239 0.77523136 -1.0214447 0.2309732
teleconsulta -0.07005258 -0.71111274 1.4303874 -0.37167212 -0.45633605 -1.2249945 0.6614335 0.25797522 -0.5749127 -1.0596076 -0.0877888 0.53088695 0.5812791 -0.7550116 -1.0295141 0.5347497 -1.8327781 0.39810878 -0.10409694 -1.3408182 -0.9446108 -0.050850574 -0.31670648 -0.90055466 -1.2629131 1.4477441 -0.3480153 -0.6551933 0.33754364 -0.36481872
trabajando 0.5663459 0.24937367 0.599643 0.01422175 -0.031108022 0.7077909 0.0427001 0.07302478 0.620042 0.30056307 0.5380723 0.16809031 0.21290837 -0.1152085 -0.6442049 -0.1700825 -0.62476736 1.1539923 -0.16295575 -0.8371178 0.35438737 -0.3406719 0.6720789 -0.67142993 0.3118829 0.9579922 -0.3619934 -0.0046786573 0.6436757 -0.6251283
tocaria 0.13797083 0.14256935 0.74402374 -0.3767998 0.62084174 0.27971056 -0.06761598 -0.02309829 -0.5122103 -0.12409014 0.0983172 0.8126649 -0.71054816 -0.2588038 -0.028386844 0.055079404 -0.5136557 -0.0151669355 0.19660959 -0.31100988 0.2252818 -0.2177661 0.34983474 -0.1988773 -0.5074332 1.05923 -0.303655 0.6804482 -0.55057156 -0.108176276
mandado 0.46161982 0.5363308 1.191384 0.43556622 -0.2407137 1.5401872 -0.017792799 0.15807298 0.088281624 -0.14799637 0.58831686 1.6974281 0.076307915 0.079349644 -0.61400443 1.3588737 0.13947088 0.30115238 -0.18030086 -0.28832728 0.6211542 0.04669646 0.57280177 0.03401812 1.2498325 -0.043952256 -0.2628619 0.33504272 -1.1538178 -0.50410414
programas 0.060691625 -0.10823462 0.8163134 -0.37061107 0.14805412 -0.13670559 0.6472909 0.07121219 0.47402152 -0.5082838 0.09876603 0.23610346 0.4894028 -0.3383693 -1.0558487 0.113585316 -0.076315865 0.43999425 -0.6501445 -0.1906762 -0.31522915 0.12365984 -0.54765975 -0.41067526 -0.95685434 1.3043559 -0.41980225 0.28486672 0.2566592 -0.8920646
resonancia 0.895865 0.8622414 0.50684464 0.5727528 -0.26767224 1.7206764 0.39219436 0.36977145 0.0590905 0.23906381 0.59273744 1.7013295 -0.7970878 0.42096224 0.8995126 0.9994638 -0.6543151 0.49010336 -0.28795666 0.8564634 0.50463474 0.68715197 0.029865628 0.24421826 -0.56381226 0.2102008 -0.48772556 0.77476096 -0.7085058 0.072796695
cliente 0.74822533 0.9144343 0.68377024 0.13211839 0.17840786 0.8391174 0.4817465 -0.64526445 0.12073544 -0.27814472 0.45945576 0.8244026 -0.88935983 -0.51692915 -1.0543253 -0.020406093 0.20315856 0.38255304 -0.31313977 0.24790877 0.97456276 0.29626802 -0.46247488 -0.118687116 -0.437825 -0.15611963 -0.055318378 0.472575 -0.56883675 -0.31675866
formal 0.15954912 0.07655577 1.0853442 0.31305265 0.067499064 0.69718075 -0.089474194 -0.22958149 0.28853655 -0.13478838 0.24463959 0.569068 -0.2528357 0.1436156 -0.51236004 0.20704697 0.4049919 0.41741684 -0.69396836 -0.16158651 0.58960944 0.07571507 0.45771515 -0.21472138 -0.49233773 0.383951 -0.2668608 0.14808051 -0.63768184 -0.39473256
cuota_moderadora 0.7605447 0.35739794 0.7469962 -1.1866909 1.7149234 -1.5207247 0.76252544 0.1266021 0.112208605 0.04001212 0.60681754 -0.087898076 0.21674946 -1.3764083 -1.7483778 -1.0904386 -0.5652139 0.97060585 0.21145394 -0.57472324 -0.87217396 -1.1409187 -0.502146 -1.2865757 -1.8122935 2.2322023 -0.3381697 0.2828158 0.41393903 -0.36116105
empezar 0.34327084 0.43474895 0.032246828 0.031090748 1.3281385 1.1249379 0.63311934 0.6053152 0.12879774 -0.55442005 0.21360709 1.2300497 -0.44076395 -0.6318734 0.18632329 0.6250477 -0.483728 -0.0740143 -0.15583563 0.30230793 -0.10138249 0.45344418 0.69901997 0.030674364 0.16897483 1.3461945 -0.62619776 0.49996683 -0.86128783 0.7356946
frente 0.14986926 -0.004219513 1.3862667 -0.07224551 0.19856398 0.5392756 -0.34279612 0.20160045 0.45251253 0.109164104 -0.32864085 0.6854675 -0.29313505 -0.28696698 -0.69224226 0.3054998 -1.1543703 -0.23185073 0.017472152 0.16912955 0.35096765 -0.3655321 0.53790075 -0.48440024 -0.92748725 0.48279697 -0.012660909 -0.9335864 0.056440666 0.10909025
visita 0.28555807 0.74886006 0.71375334 -0.28579623 -0.37641937 0.32996342 0.4429524 0.09685772 0.0334549 -0.37042132 -0.22457114 0.31273678 0.10291091 -0.4492527 -0.009611863 0.63913137 -1.1679956 -0.11142617 0.38809916 -0.8085908 0.2980468 0.5958454 0.57892513 -0.22946678 -0.3755823 1.0254383 -0.17702217 -0.2638409 0.08626714 -0.46439692
miren 0.44300005 0.4376977 0.33037636 -0.23908173 0.22733559 1.4672214 0.032258317 -1.1425207 -0.28661993 0.1488245 -0.23069394 0.14924881 0.098775804 0.30684167 -0.5006604 0.8829064 -0.2655695 0.2640915 -0.77072597 -0.1850825 1.0366037 0.03162509 0.54285413 -0.6637222 -0.60325915 0.7557234 -0.20609505 -0.078147545 -1.0552968 0.25451344
versalles 0.7641282 2.101045 1.5396416 -0.27153158 -0.5399946 0.42159182 -0.56632906 1.2306259 -0.01041533 0.50553 -0.01418299 0.7663257 -0.19671403 -0.99962443 -0.755843 0.6976048 -2.1056573 0.21503271 0.80683494 -0.76917577 -0.08095703 -0.54274863 0.5424483 -0.8277878 0.58146614 -0.34543255 -0.2658617 -0.3798674 0.9140722 -0.66764456
quedan -0.112319104 0.061327968 1.3161682 -0.1853997 0.15050456 0.23181817 0.40913552 0.14679955 0.5094664 -0.29983568 -0.13747752 0.82562685 -0.29502314 -0.13817076 -0.33239812 0.22749682 -0.7087657 0.2487812 -0.16937797 -0.40046898 -0.37771234 -0.14358492 0.6135861 -0.62110543 -0.50315523 -0.035914402 -0.16172916 -0.08616371 -0.17279464 -0.41362214
buscar 0.46993363 -0.32352388 0.57403904 -0.1871251 0.9438959 -0.40900692 0.5234085 0.084286675 -0.36475602 -0.1251319 0.6676245 0.538492 0.31011274 -0.13495 -0.69696176 -0.64455026 -0.5944488 0.57912266 0.3288127 -1.0674764 0.29718786 -0.67202395 0.19225286 -0.7477743 -0.23067142 1.6481614 -0.40218365 0.5114557 -0.12380093 -0.060375802
quiera -0.23633449 0.5372645 0.7399464 0.12201911 0.32416776 0.7014179 0.053972054 -0.43720707 0.26469958 -0.52483845 0.01594517 1.1802807 -0.25088826 -0.30645937 -0.5589894 0.4240297 -0.57250357 -0.0156757 -0.0015254283 -0.65354043 0.3197169 -0.028226653 0.33471406 0.32258978 -0.32125813 0.38109067 -0.012937009 -0.08344799 -0.91288626 -0.19573154
zonas -0.01546314 0.39600053 0.5370278 -0.115391314 0.070665546 0.6356956 -0.41283897 0.18612067 -0.1258135 -0.2259698 -0.24295434 1.062394 -0.02354807 -0.0024692896 -0.6317848 0.5105631 -0.15831059 0.5100942 -0.20094441 0.12223264 0.13154969 -0.30226687 -0.2098223 -0.46624333 -0.7095213 0.31919992 -0.25309312 0.024854701 -0.49090257 -0.37003034
permanencia -0.31806457 -0.6169551 1.1350759 -0.03390487 1.1282326 -0.66925234 0.5712107 0.47557706 -0.34928104 -0.82556736 0.2288045 0.6893572 0.8431155 -0.90790266 -0.84451187 -0.530528 -0.7419147 0.21156873 0.024529718 -0.7024452 -0.40594536 -0.086013176 -0.8333985 -0.94833624 -1.946844 1.801629 -0.5705896 -0.47812402 0.096023686 0.27251467
social 0.7845042 0.7628296 0.7935955 0.22156203 0.40868756 0.1642592 0.5349236 0.26166666 0.33641437 -0.069254816 0.7321079 0.33296403 -0.09490907 -0.24930878 -0.50969553 0.03461206 0.11728906 0.31890365 0.31381425 -0.3720002 -0.30801252 -0.14110827 0.22850941 -1.1841766 0.14738107 1.2179756 -0.0040451763 0.04648197 -0.5001611 -0.23741232
ingresar 0.3554227 1.0948135 0.78274995 -1.1117874 0.5963337 -2.0355306 -0.004686106 0.70069015 -0.48959208 0.33876914 0.2990386 0.7579474 -0.62861335 -0.9874533 -1.9319823 -0.47535008 -0.17090389 0.8315309 -0.101146296 -0.68261695 0.6341377 -0.38471618 -0.38953066 -1.0001887 -0.30885872 0.82887614 -0.027241793 -0.6931989 0.12444427 0.5979984
personalmente -0.8973946 0.4100958 0.9271624 0.013656633 -0.47561032 0.0637026 -0.042845078 -0.41518238 0.40464982 0.1025681 -0.25636306 1.2162077 -0.61014754 -0.7553734 -0.7057655 0.53047204 -0.49518806 -0.2507309 -1.2741146 0.64939034 0.33309907 0.12998082 1.0355842 -0.20753683 -0.77286434 0.046773866 -0.15088613 -0.3590012 -0.7831474 -1.0305198
supuestamente -0.6006368 0.9246696 1.4912081 0.13739662 -0.5051921 0.024131766 -0.3211754 0.8750895 0.2776443 -0.8204884 0.62161297 0.5300404 -0.9697579 -0.9778134 -0.9969389 0.31677565 -0.41394374 -0.39834964 -0.38100466 -0.5429816 0.24920726 0.18472993 0.51827186 -0.19474958 0.2300181 0.46540537 -0.27157637 -0.39998472 -0.18542588 0.3142811
ultimos 1.6569638 0.23392262 2.3994496 -1.2217898 -0.36858726 -0.53050613 -0.2530953 1.4227602 0.6131385 -1.8813156 -0.116721794 0.26333284 1.0599606 -0.542705 -0.9373948 -0.6109615 -0.46757066 1.6908628 -0.97748464 0.7505453 -1.0391455 -0.8812704 -0.2294745 -1.4943576 -2.2651644 2.0970662 -0.21201219 0.022512369 2.1278043 -0.60253197
nombres 0.05036844 1.4089485 0.37161285 0.26921695 0.7458859 0.60244447 0.17277306 -0.15666279 0.28525284 0.57537615 0.028283516 0.53909594 -0.4614915 -0.038989224 0.1380367 0.96474135 -0.7268867 0.055657055 -0.1974043 -0.19666845 0.4272753 0.088148706 0.26260415 -0.1107618 -0.2732037 0.48288324 -0.4538031 0.5262426 -0.6085886 -0.13602656
importa 0.5024232 0.71622837 0.51307684 0.11761944 0.08481804 0.9902981 -0.031342246 0.03539799 0.31414697 -0.06657104 0.24229723 0.10982764 -0.074889645 -0.5508682 -0.50995517 -0.416524 -0.18992592 0.62624556 -0.3414666 -0.620418 -0.03908039 0.07836978 0.38668692 -0.4487427 -0.6723031 1.0043731 0.27650094 0.33355802 -0.083929434 -0.24151658
extension -0.84927607 0.13338031 1.6313385 1.2995714 0.22947097 0.46230674 0.2973559 0.025847547 0.739214 0.47951874 0.5438211 0.64753294 -0.51952916 -0.4843314 -0.44772115 0.3697215 -0.50745106 0.4782263 -0.0026217024 -0.070879765 0.74790823 0.4447453 0.7588001 -0.46633214 -0.6547289 -0.026811495 -0.31871092 -1.2511779 -0.58819836 -0.53786963
vivir 0.22000033 0.21044576 1.1316831 -0.46134105 0.28130096 0.27110073 0.066107325 -0.43021452 -0.14938222 0.5804188 -0.013387907 1.163866 -0.3371008 -0.07432565 -0.34640637 0.24191462 -0.48426858 -0.013738148 -0.058545124 -0.1572979 1.2359294 -0.09264486 0.9438716 -0.1336551 -0.84688216 0.22790346 -0.11241694 -0.27657002 -0.08898644 0.46145773
presente 0.34482902 0.14175557 0.8884604 -0.5546418 0.20594743 -0.08401127 0.15343125 0.4186657 -0.08451885 -0.9699162 0.15313575 0.5067944 0.071550384 -0.36773247 -0.18205743 0.030638445 -0.82520175 0.49969235 0.24936618 0.02202649 -0.5991113 -0.07754537 0.09073234 -0.41998008 -0.8993042 1.0200053 -0.12946846 -0.046910223 -0.20877881 -0.06782209
presidencial -0.5225419 0.18099624 0.74807215 -0.32513306 0.13170622 -0.17759651 0.24712338 0.34578297 -0.13807796 -0.4958788 0.033252954 0.5857901 -0.14293654 -0.078909695 -0.6785384 -0.02428127 -0.5170109 0.13925962 -0.030378308 -1.0793202 0.30357623 0.21509424 0.36982015 -0.6408205 -0.75985634 1.0106951 -0.27007923 -0.2640099 0.30958736 0.020788394
contacto 1.2512666 0.3630037 1.5450284 -0.7660646 0.2499286 -0.66586995 -0.36436343 1.322311 0.24389803 -0.7241517 0.1659981 0.6224855 0.3338712 -0.6382739 -1.0725986 -0.6903417 -0.40814146 0.42849737 -0.28967202 0.17105755 -1.0375389 -0.6582636 0.019788304 -1.1079856 -1.2943556 1.7286079 -0.32041112 -0.24817497 1.7217172 -0.15670376
alta -0.6843737 0.61560625 1.4972605 0.28791147 -0.48712972 0.31996408 -0.1735592 -0.16893388 1.0102621 -0.7852753 0.53851676 0.92504007 -0.58942723 0.0075241085 -0.3045729 0.60362923 -0.26336613 -0.19570921 -0.2950558 0.2277873 -0.025207652 0.48025948 0.5888753 0.14403822 -0.5765341 0.112080224 -0.78238195 0.34826627 -0.4787302 -0.41143134
peso 0.5761289 0.4632573 0.86435336 -0.17586036 -0.34442094 -0.07342769 0.26984805 0.010657647 -0.11318105 -0.24341018 -0.408889 1.1005163 -0.19347797 -0.8417704 -0.002658261 0.30947158 -0.64256376 -0.20397322 -0.5129295 0.07963402 0.48691264 0.25128633 0.58779454 -0.18765467 -0.54844165 0.63107306 -0.40747595 0.32415652 -0.21410854 0.231335
facturar 0.69632924 0.43576318 0.2863206 -0.5439752 0.9856614 0.4374416 -1.6957453 0.6781097 -0.15250759 0.55286455 0.5201221 0.093593486 -0.085097976 -0.5464076 -0.75360286 -0.093360424 -0.2996812 0.8676128 0.2475407 -0.7467301 -0.4424659 -0.01840929 0.28623617 -0.5592852 -1.5553676 1.3013048 -0.60716313 0.34064665 0.29089117 0.10492137
encuentro 0.17251639 0.34415513 0.4824028 -0.50053054 0.33269438 0.69216645 0.19417885 -0.08348109 0.067928284 0.36075732 -0.040750004 1.1983488 -0.16734609 -0.11523724 -0.6034502 0.3092113 -0.6548138 -0.05814342 0.005771081 -0.2044188 0.7314706 0.12027328 -0.22001415 -0.20749132 -0.19451565 0.41772005 -0.3308335 0.40508738 -0.69678104 -0.0833986
solucion 1.1411074 0.08357945 0.99941367 -0.19558315 0.16125445 0.10948828 0.27680266 -0.20360692 0.77214205 -0.2218015 0.221169 0.54327995 0.05940192 0.024254177 -0.6994363 0.13333106 -0.32854602 0.82340634 -0.26877666 -0.6390459 0.376493 0.109883815 0.19838616 -0.7315617 0.2583265 0.34357736 -0.11951998 -0.49481872 -0.40854752 -0.09648126
verificar 0.019196598 0.23361464 1.0832866 -0.14733762 0.5886623 -0.41472274 0.16187492 0.55756545 -0.4798497 -0.3654604 0.3105148 0.5815138 -0.0157993 -0.5362923 -0.49688387 -0.5852002 0.16740616 0.7434723 -0.66246796 -0.4005151 0.07254761 -0.046286408 -0.41817313 -0.58472145 -1.1007999 1.0362306 -0.3899976 -0.47941563 0.039158493 0.04424802
cambiaron 0.26686049 0.5825735 0.9074236 -0.31249854 0.88779986 0.4745289 0.3256706 0.38736156 -0.044170246 -0.1153718 0.021857696 0.62089735 -0.62947035 -0.55658966 -0.77676356 0.6957678 -0.74036133 0.54390144 0.6459095 -0.17366298 0.06594388 -0.48718467 0.10978144 -0.113624275 -0.010522899 -0.07272997 -0.1349715 0.42744637 -0.38733825 -0.42048472
entiendes 0.20269199 0.39475548 0.9544735 0.06734879 0.5390902 1.0679121 -0.5475708 -0.037307452 1.1733178 0.6891041 0.12825356 0.98428255 -0.6007368 -0.08778546 -0.5902281 0.31750187 -0.22298816 0.6812587 -0.16351248 -0.39924967 0.15507288 0.08707649 0.81759006 0.084294595 0.1877874 0.23429641 -0.3039165 0.010535117 -0.26009032 -0.11311638
adios 0.42952836 1.0490525 0.843334 -0.13550487 0.3102666 0.3507028 -0.024693523 0.4744251 0.31037778 -0.28934717 -0.044843584 0.68447316 -0.16429572 -0.24579206 -0.4079872 0.6889772 0.041572746 0.15669075 -0.4444192 0.117817245 0.25389954 -0.19820628 0.63163537 -0.3226986 -0.5215605 -0.15844883 -0.2206731 0.18774977 -0.16690862 -0.23250814
quieren -0.05486369 0.51693565 0.92198956 0.049457572 0.6167463 0.4960713 1.0600655 -0.033618238 0.515836 -0.4721315 0.5186681 0.04868163 -0.4787359 0.29714164 0.11575313 0.50545675 0.024289954 0.47739667 -0.696094 0.0909323 0.55335516 0.35505813 0.006912132 0.15692227 0.21918143 1.2049887 -1.0249252 0.39620757 -0.58802885 -0.231791
amiga 0.82248116 0.16674586 1.14375 0.43149185 0.6206622 0.07320156 0.66648483 -0.11005507 1.0742823 0.3629938 1.1645811 0.8232009 0.005454137 0.6184694 0.07884677 0.39924178 -0.34320092 0.5684026 0.3822006 -0.147339 -0.42363027 -0.43300283 0.76521355 -0.9964185 0.12123595 0.59141123 -0.8301793 0.0638858 -0.01232216 -0.8698748
minimo 0.19038412 0.6466127 0.53674847 -0.80959886 0.8049812 -1.021129 0.22643447 0.31533006 0.3607495 0.24946587 0.63055956 0.31757247 -0.058216464 -1.0400901 -0.7417839 -0.66312194 -0.21283138 0.6401892 0.15022704 -0.27115753 -0.24730012 -0.41610315 -0.28051066 -0.5787015 -1.1912217 1.5466455 -0.0827725 0.5531497 -0.079500474 -0.06569127
mensaje 0.4080962 0.4204045 1.2675115 1.1467891 0.8632902 0.2093353 0.33111086 -0.11362322 0.7584714 -0.03822143 -0.030419784 0.090861104 -0.4601539 -0.7511205 -1.4733908 0.9431214 -0.30560884 -0.026488401 -1.5556178 0.15898667 1.3545549 0.36894315 0.04264969 0.38699144 0.5541831 0.44264972 0.038506053 -0.018722853 -1.3653232 0.115789026
estudio 0.8042103 0.54072404 0.58558035 0.3753647 0.7452122 0.32052618 -0.13601851 0.54648316 0.0964526 0.85228586 0.45964316 1.1327337 0.56187814 0.5821397 -0.6668866 0.07626761 0.034779068 0.6129899 -0.58674514 -0.28634992 0.3502266 -0.1024875 -0.19167528 -0.011634855 -0.22681394 0.7331689 -0.7117568 0.52604455 -0.0901446 0.29879478
consultar 0.09022209 0.9017383 1.0098491 -0.24152657 -0.18413697 0.6479866 0.6312515 0.24646577 -0.081797466 -0.043468617 0.23693047 0.65956235 -0.048410956 0.7366506 -0.15834992 0.7519976 0.23462464 0.34472498 0.093715124 -0.32877433 0.651036 -0.40222588 -0.5381443 0.22318159 0.053325403 0.9414427 -0.3354366 0.9568133 -0.1967144 -0.74957716
darle -0.033794746 -0.026119214 0.8448707 -0.28774446 -0.23985043 0.4238576 -0.064057924 0.29007867 0.13321847 -0.70443714 -0.10102661 0.5176785 -0.3379254 -0.10503595 -0.28832635 -0.05459191 -0.048879407 0.5809415 0.0023810936 -0.6568594 -0.015605969 -0.021928227 0.042259533 -0.80038726 -0.9218375 1.1510222 -0.3639504 0.035596617 -0.19074054 0.33466554
mision 1.0712733 1.2237282 1.0197166 0.17685945 -0.22232917 0.40242362 0.49181727 -0.27845925 0.206877 -0.45039934 -0.10295963 0.2684322 -0.25577372 0.28381917 -0.16097748 0.14850731 -0.4211599 1.0480969 -0.05785199 0.32363063 0.3836868 0.04240844 -0.04136687 0.20144285 -0.4559588 0.30874708 -0.55102223 0.39799723 -0.20429993 -0.1706249
temas 0.3593289 0.027124474 0.54262704 0.20209496 -0.008772757 0.55811137 -0.039274488 0.08281419 0.6751737 -0.6533788 0.23621431 0.5563551 -0.019454781 -0.42910185 -0.7932962 -0.0776314 0.07436117 0.7415549 -0.8950387 -0.31707764 0.27965808 -0.11646027 -0.036149967 -0.16214104 -0.22985068 1.1873796 -0.14739923 -0.010095609 0.18169987 -0.5437973
edicion 0.2118656 0.040723916 0.7825928 -0.9387507 0.81017685 -0.62551 0.60894144 -0.29488763 0.2971765 0.09291236 0.668437 0.5027943 -0.065711536 0.029005103 -0.86577946 0.24997409 -0.007500844 0.6671569 -0.68100286 -0.33942896 0.5301337 -0.5236852 -0.993707 -0.40463665 -0.32641461 0.79105073 -0.4545542 -0.44770116 -0.10178532 -0.5878693
perdio 0.2843305 0.46389738 0.82887024 -0.10178385 -0.292548 0.122060224 0.35846767 -0.079496086 0.24333704 0.0041123065 -0.23308848 0.29046595 0.041400205 -0.33640093 -0.9169172 0.043675788 0.17917947 0.5301128 -0.5121739 -0.48385513 0.2428028 -0.36239475 -0.08247497 -0.368625 -0.18238142 1.1496009 -0.19624716 -0.12793204 -0.13936521 -0.48030975
llevan -0.20740052 0.6154856 1.0949632 0.45709288 -0.0142807765 0.83233565 0.8558448 -0.36231914 0.03237273 -0.3434779 -0.22958039 -0.08111516 -0.53073776 -0.20497198 -0.49651358 0.79289097 -0.57946944 0.62108785 -0.034985803 -0.9931724 0.67545074 0.63934326 0.49935877 -0.021315007 -0.31136644 0.28158516 0.1801387 0.21812905 -0.41773123 -0.40906757
lineas 0.07302614 0.3757105 0.92840576 0.010784391 0.061647594 0.32775214 0.30882698 -0.6207765 0.12104582 -0.41924456 -0.05123506 0.68043524 -0.18473506 -0.0010632194 -0.08491782 0.5264897 0.0117580425 0.35023227 -0.06166812 -0.39522403 0.39540833 0.0936242 0.50204986 -0.2374972 -0.21206027 0.7135784 -0.58876157 0.03687762 -0.119371414 -0.20851897
this 0.19328082 0.012362139 0.8387617 -0.4858738 0.09423413 -0.10487826 0.17087662 -0.20419422 0.1957888 -0.07981842 0.14629233 0.16390482 -0.3626177 -0.20022729 -1.2831703 0.72909474 -0.24757291 0.13907424 0.15979461 -0.5850196 0.3312736 0.04380287 0.185343 -0.41374177 -0.84697676 0.71442986 -0.1856033 -0.3439754 0.002473392 -0.14852205
urologia 0.31707254 1.0236698 1.0327319 -1.5145516 0.6145781 -0.9819107 1.1601205 -0.5286211 -0.8876888 0.2751651 -0.8074965 1.9160955 0.95622903 -0.5966803 0.060180604 1.5075501 -0.7282143 -1.0333363 -0.5709636 0.9992905 2.0511165 -0.41029242 -0.66856235 -0.30455837 -0.43909156 0.9077692 -0.16741563 1.4847754 -0.5313343 -0.58842266
mitad 0.07164839 0.37721652 -0.008021572 -0.109248504 0.100886606 0.9458509 0.11788679 -0.031690706 0.5015636 -0.042092673 0.35377824 0.77855223 -0.13834256 0.14124018 -0.41679037 0.48202994 -0.7963245 0.2995711 -0.27748513 -0.047383588 -0.27723363 -0.30116293 0.40257886 -0.14399037 -0.91688645 0.71921533 0.30309182 0.01138555 -0.7577903 -0.5880292
cobi 0.6735043 1.7306776 1.8057364 -0.027020503 0.46940085 -0.14976463 -0.44984785 0.8940384 0.32753885 0.42263037 0.56039506 0.8328085 -1.1335895 -1.3996038 -0.5690313 -0.094396815 0.08410076 0.23870754 0.42388314 -0.8617155 -0.58579195 -0.101759695 0.054879576 -0.48557767 0.02358916 0.6107276 0.23457418 -0.2888063 1.0034752 0.61513025
seguimiento 1.4271963 1.1252167 1.3684123 -0.7479111 -0.22185442 0.1983155 0.21473134 0.35571036 -0.046901643 0.24471426 0.11061155 1.4720409 0.10977598 0.5316293 0.27818552 0.69243664 -0.34424528 -0.62128466 -0.08393669 0.6405427 0.9854507 0.34072128 0.06253894 -0.12085477 0.35088062 0.48351753 -0.53191304 0.5657095 -0.5103387 -0.049271584
imposible -0.4582828 0.8054757 0.6877459 -0.3097041 0.15389982 0.406366 0.3986828 -0.07651213 -0.00876857 -0.3671388 0.40724692 1.0981656 -1.2334366 -0.5541965 -0.9531126 0.12707332 -0.6955123 0.4436028 0.07832126 0.017491365 0.00032579072 -0.015112441 0.5845826 -0.9753703 -0.3640794 -0.33418038 0.03439161 -0.5411648 -0.329091 0.23848726
culpa 0.54414636 0.4005764 0.33699873 -0.2614259 0.15737037 0.20074233 0.55247796 -0.63121015 0.3839051 -1.0492611 -0.5931573 1.5788397 -0.57341045 -0.56893855 -0.67353845 0.233926 -0.1289685 0.1591804 -1.3616565 0.21043873 0.5676796 0.42244482 0.9020299 -0.20175445 -0.29359603 0.19902314 -0.31931877 -0.24421607 -0.09667993 0.41829112
abajo -0.22325759 1.0247512 0.23200828 -0.2798993 0.7039332 0.6226396 0.13749231 -0.028341847 0.36984816 -0.41360286 -0.22877046 0.4113036 -0.41441998 -0.46269858 0.18184239 0.82323706 0.06969099 0.1799317 -0.12475037 0.072762884 0.13276854 0.6158367 0.2539055 -0.19961862 -0.7834745 1.4346682 0.23482849 0.35162035 0.37178102 -0.11377267
presenciales -0.043860137 0.026555516 0.6485327 -0.7714362 0.41090897 0.20262693 0.072854444 0.23634855 -0.2544739 -0.7145094 0.07672531 0.7234456 0.24602523 0.19566149 -0.25587195 -0.5950761 -0.81108874 0.56129205 0.05054683 -1.4161024 -0.083807684 0.029436035 -0.06383749 -0.8872365 -0.87320095 1.4098408 -0.67643225 -0.3720345 0.59362775 0.20243797
