700 30
afiliacion 0.3469123 0.12230298 -0.6173287 -0.488018 0.031854954 -0.07976085 0.0339722 0.4166873 0.14968511 0.40354323 -0.1349161 -0.018324587 0.20385307 0.5954025 -0.6745073 0.8005799 -0.05681016 -0.17924532 -0.6108994 0.016688246 0.25033662 -0.5400714 0.12935127 -0.046012845 0.15633419 -0.14374831 0.2263178 -0.049439024 -0.02484136 0.32717547
informacion 0.2820557 0.029732192 -0.57847106 -0.6021303 -0.100525185 0.00495494 -0.0048200106 0.36267653 0.28906798 0.31989154 -0.06430977 0.0117300525 0.09803219 0.5746064 -0.7358841 0.8282283 -0.1249794 -0.08631606 -0.6335913 0.02826136 0.22078331 -0.5822379 0.040600765 -0.050357565 0.14521654 -0.17546363 0.25901002 -0.039335087 -0.10427176 0.28692558
subsidio 0.36666 -0.031689122 -0.5449798 -0.6473684 -0.0107535245 0.095584236 0.036877222 0.37310284 0.21151064 0.25711635 -0.03233693 0.06271793 0.17847188 0.61130667 -0.7695701 0.77422345 -0.11247527 -0.18496822 -0.5794373 -0.017809307 0.32819873 -0.56850225 0.0029486166 -0.03399832 0.19344084 -0.15712829 0.3241978 -0.08642638 -0.10734988 0.23665859
pagina 0.3707754 0.066523775 -0.630257 -0.50490797 0.021748446 -0.020557974 0.07735115 0.41368502 0.1542658 0.39179844 -0.07148473 -0.0004081471 0.2044689 0.6100743 -0.6646984 0.8058277 0.004154672 -0.16976742 -0.6289318 0.038484506 0.25706708 -0.5016513 0.117863394 -0.030217823 0.1742174 -0.21374883 0.21880841 -0.040923566 -0.030215722 0.2885373
certificado 0.40350527 0.0563422 -0.6067901 -0.55793566 0.019232493 0.042519744 0.05746006 0.35882795 0.24635424 0.27309275 -0.09016126 0.07671896 0.19516502 0.5911707 -0.71854913 0.79714906 -0.032131013 -0.21164457 -0.55798787 0.008578494 0.2538632 -0.5711594 0.08764304 -0.052542552 0.2050813 -0.17630184 0.24782577 -0.029209845 -0.10027218 0.2965844
compensacion 0.34368885 0.0072031477 -0.5399665 -0.58792365 0.025738955 0.059655074 0.03228213 0.3859178 0.20635119 0.3177717 -0.04834315 0.032210313 0.21531059 0.619544 -0.7483689 0.7634101 -0.09986426 -0.18828313 -0.61383814 0.010746203 0.28525862 -0.53558064 0.0720898 -0.039480627 0.16293757 -0.15275036 0.29667348 -0.085927814 -0.07129787 0.28193006
aparece 0.34039792 0.051821124 -0.5719891 -0.5691437 0.0086468095 -0.011713981 0.04608259 0.40771356 0.19200394 0.3200577 -0.10013906 0.005359952 0.17392662 0.5718242 -0.6967772 0.7913305 -0.06953812 -0.15601625 -0.62104523 0.020066164 0.2687065 -0.5344816 0.037835885 -0.03936206 0.19249211 -0.14866816 0.28204948 -0.0678553 -0.047696594 0.2868179
personas 0.31681538 0.10901656 -0.60556555 -0.5366265 0.03080831 -0.06327287 0.07660038 0.40269467 0.14389308 0.37696183 -0.057287898 0.023112359 0.17700766 0.56881225 -0.6994948 0.79659986 -0.03191748 -0.17454638 -0.7078922 0.053069048 0.27311483 -0.50874954 0.060841583 0.024684114 0.22422248 -0.1420589 0.271017 -0.01467454 -0.04957866 0.30021602
cliente 0.30364323 0.06957336 -0.6306584 -0.55924106 -0.015120958 -0.10180894 0.085251376 0.3895859 0.1499096 0.39697912 -0.029502971 -0.0007302209 0.21794683 0.60908186 -0.68373114 0.75990283 0.020601356 -0.18373793 -0.79065084 0.060003888 0.22483273 -0.4924841 -0.01729527 0.046675388 0.23051417 -0.17670351 0.2418673 -0.047694232 -0.006913589 0.28855905
necesito 0.3339037 0.016104754 -0.5627142 -0.5935589 0.009775078 0.033698216 0.036520034 0.37549743 0.1866652 0.28160673 -0.05814557 0.028727563 0.17712724 0.60401815 -0.73144567 0.7637781 -0.104921356 -0.20944157 -0.62677735 -0.023738833 0.32163128 -0.53243434 0.024438387 -0.049403787 0.21828385 -0.15633787 0.31182486 -0.04946837 -0.111448124 0.2398815
pasado 0.42703137 -0.028781125 -0.56539696 -0.6217642 0.041188687 0.10358081 0.07010029 0.33352855 0.21471195 0.27014342 -0.06944162 0.069226824 0.18690585 0.6402821 -0.73237586 0.79699135 -0.08968801 -0.1330826 -0.57002085 -0.05421119 0.33833033 -0.56876487 -0.00072862 -0.050032467 0.20993944 -0.17071535 0.3386586 -0.0674303 -0.10685318 0.194966
afiliado 0.33376768 0.05771782 -0.5536573 -0.6084063 0.035777554 0.036387168 0.031960726 0.3228646 0.17814024 0.3152203 -0.06432545 0.03072766 0.21358348 0.56636983 -0.6784489 0.76109767 -0.12199356 -0.17408991 -0.5735676 -0.010979385 0.33508816 -0.5292587 0.013976893 -0.051597785 0.19804785 -0.15735629 0.3369853 -0.045285825 -0.08130711 0.2350597
telefono 0.2959136 0.061875347 -0.5526712 -0.5910809 -0.043744218 -0.019109327 0.006178499 0.40680262 0.21582818 0.3081951 -0.09556352 0.03627198 0.14635733 0.6098954 -0.720337 0.7865965 -0.050341964 -0.18706948 -0.60220224 0.019581327 0.30541474 -0.52920043 0.025091508 -0.097645275 0.20960075 -0.15953602 0.29916537 -0.044893254 -0.025492067 0.25780237
datos 0.34190065 0.057768404 -0.6005527 -0.61759245 -0.009007843 0.006154147 0.051606115 0.35108215 0.18298355 0.35886142 -0.06220196 0.01676831 0.18289526 0.57798046 -0.7228247 0.80753773 -0.066447265 -0.18093093 -0.6649628 0.05168539 0.29800835 -0.506271 0.067822635 -0.008001667 0.18542802 -0.17949508 0.2672475 -0.04028971 -0.061699506 0.3065023
familiar 0.31211758 -0.010067122 -0.5478256 -0.590763 0.021965655 0.055125646 0.04329086 0.38483572 0.22296539 0.30604962 -0.03791128 0.058073096 0.18982811 0.5939066 -0.71357965 0.76303786 -0.07676608 -0.1997564 -0.6154857 -0.00012786151 0.27815512 -0.555535 0.011515636 -0.04813398 0.20389952 -0.14620185 0.3369955 -0.046071462 -0.08984949 0.21224931
formulario 0.30961925 0.11656438 -0.6122644 -0.5529224 0.036647238 -0.050466772 0.08092969 0.39528936 0.16246904 0.3975895 -0.04653833 0.039722804 0.21930924 0.6004878 -0.72373676 0.776644 0.020824686 -0.20988145 -0.7484355 0.058582824 0.2189006 -0.50703686 0.032855406 0.06146773 0.1911401 -0.1494983 0.24079803 -0.062753126 -0.05503039 0.2954435
radicardo 0.380332 0.020339878 -0.6227807 -0.5695927 0.018699182 0.018854363 0.085055254 0.3946692 0.19922815 0.27911794 -0.070114926 0.03490556 0.22571263 0.6296357 -0.7453091 0.8043342 -0.0857428 -0.15808208 -0.60511655 -0.0061415522 0.33931696 -0.5332816 0.089844346 -0.058519796 0.20337614 -0.17407854 0.28826255 -0.04064649 -0.11999393 0.2312631
llega 0.35231313 0.015138916 -0.58687353 -0.6119668 0.0077578216 0.071686506 0.044233344 0.3626141 0.20786488 0.26495102 -0.029510306 0.036664307 0.2042966 0.6337942 -0.7647381 0.7872144 -0.09019847 -0.16532841 -0.61633426 -0.027138654 0.3316991 -0.5432509 0.014970513 -0.06218093 0.23465551 -0.13210522 0.31594828 -0.060047653 -0.075017646 0.23656534
opcion 0.2933452 0.06670349 -0.55014443 -0.5547502 0.012882444 -0.061811194 0.066178456 0.4078377 0.1479961 0.34992522 -0.049574345 0.0018305237 0.15795374 0.5927375 -0.7037162 0.77467215 -0.017739626 -0.17230678 -0.6989478 0.06929198 0.25980344 -0.5198202 0.008344039 0.033136796 0.18347545 -0.1713351 0.26596585 -0.03934859 -0.028920393 0.2676527
empresas 0.33839175 0.12822981 -0.6057806 -0.53685945 0.020639958 -0.031970188 0.059316397 0.34094778 0.14722373 0.34736887 -0.11853757 0.020485932 0.1893851 0.5676614 -0.66467696 0.7945097 -0.084932566 -0.12934728 -0.6055418 -0.0013005247 0.28534052 -0.5037152 0.06976373 -0.0204209 0.17475958 -0.17706417 0.29139718 -0.015281481 -0.03053809 0.26568547
celular 0.33711886 0.052264873 -0.58100253 -0.57444084 -0.01687716 -0.0017408627 0.04044599 0.40087417 0.18830124 0.3245835 -0.07110133 0.0032503833 0.19386566 0.6156547 -0.70303744 0.78688437 -0.05317055 -0.21022484 -0.56877404 -0.016354943 0.2877666 -0.5106077 0.02382631 -0.07957521 0.23115338 -0.1654458 0.28853926 -0.054210927 -0.04343554 0.23766717
registro 0.3772018 0.10541158 -0.619198 -0.57773465 0.02539384 -0.012683356 0.026321819 0.4053105 0.19441934 0.27775335 -0.07737152 -0.011078242 0.18659702 0.6217517 -0.72350323 0.78854126 -0.0059623076 -0.18987976 -0.6021682 0.041057985 0.2668645 -0.5132722 0.02856818 -0.039669003 0.22115299 -0.14320976 0.25965738 -0.069578946 -0.08900713 0.2605936
subsidios 0.38463974 0.01879472 -0.55735064 -0.5908566 0.045807242 0.027898908 0.06435564 0.37295657 0.21366026 0.25713748 -0.073244035 0.055567607 0.23393741 0.61823535 -0.7151213 0.7990484 -0.097224526 -0.18932794 -0.5967632 -0.021215813 0.33229128 -0.54310995 0.054304156 -0.028621191 0.19848667 -0.18108593 0.3094186 -0.07097468 -0.09105138 0.26901194
enviar 0.3403727 0.028994225 -0.5728049 -0.61619365 -0.032190256 0.022531994 0.02026409 0.38525483 0.18831114 0.27829483 -0.049712166 0.03979578 0.2222747 0.5920767 -0.7369172 0.80618507 -0.088913225 -0.16667254 -0.60137963 0.032167193 0.32135937 -0.5287733 0.06676236 -0.01041971 0.2002665 -0.19481894 0.26273096 -0.07518514 -0.06602904 0.25868398
electronico 0.3551137 0.07670441 -0.61359835 -0.55971533 -0.024309428 -0.03449215 0.06023011 0.3851719 0.20733659 0.3214989 -0.09283595 0.00037909366 0.18641198 0.61706954 -0.71451885 0.8014937 -0.03421673 -0.19248548 -0.6293664 0.03768629 0.29192603 -0.51560384 0.055751093 -0.054733593 0.17769668 -0.18810885 0.26736888 -0.051840965 -0.050384406 0.2522493
proceso 0.31927124 0.019096654 -0.54076004 -0.5784998 0.014485928 0.050089426 0.018684551 0.37608412 0.23195848 0.3204272 -0.03389531 0.029299779 0.18042605 0.57712746 -0.70526886 0.79691446 -0.08245089 -0.16684711 -0.6088339 0.011849412 0.27495745 -0.5639369 0.06042136 -0.04279068 0.21442583 -0.1754561 0.31756875 -0.04357972 -0.10148797 0.26258838
afiliaciones 0.35642827 0.14638506 -0.6203888 -0.5526075 0.032616984 -0.0023840813 0.0350128 0.36383647 0.1501222 0.37162298 -0.08772518 0.009439873 0.17075847 0.5669824 -0.6758293 0.828211 -0.100082435 -0.17373878 -0.5946671 0.02002447 0.27924365 -0.522587 0.084708214 -0.05246823 0.20545824 -0.16864884 0.2832759 -0.045001436 -0.08378333 0.2981103
hijos 0.3304003 0.0110692615 -0.54020303 -0.6142535 -0.0010547099 0.06507601 0.059015427 0.3570128 0.21023956 0.3027652 -0.05994773 0.0033629239 0.20162803 0.63143265 -0.7413352 0.7821626 -0.10734922 -0.19289719 -0.59711 0.017574023 0.32808915 -0.5309057 0.04542974 -0.013995706 0.1761662 -0.16589905 0.30648905 -0.0574501 -0.12205195 0.27380118
consulta 0.35230634 0.016781358 -0.5594184 -0.6209094 0.040426537 0.043309174 0.04807312 0.4035444 0.18739133 0.3002814 -0.06987661 -0.002120302 0.20705669 0.63503456 -0.71045744 0.7980469 -0.098050945 -0.19969355 -0.6194953 0.024480509 0.3054732 -0.55724996 0.048466895 -0.073942505 0.19004747 -0.17503166 0.3339986 -0.062275678 -0.09946717 0.25199974
problema 0.36259416 0.034878667 -0.54077864 -0.601985 0.04159036 0.091432974 0.07257854 0.3663895 0.21002413 0.2716403 -0.048871435 0.02538637 0.21869071 0.61766154 -0.73982084 0.7511898 -0.12564895 -0.15292524 -0.6160494 -0.03674933 0.34952477 -0.53985184 0.03627996 0.002163788 0.21784146 -0.17745146 0.33024493 -0.0802642 -0.078771666 0.20512414
hicieron 0.40345484 -0.01848941 -0.60391635 -0.57747394 0.06912939 0.047520526 0.09152184 0.344545 0.17780393 0.30399737 -0.09232138 0.024444545 0.222778 0.5869754 -0.7095424 0.75700665 -0.10063958 -0.12092472 -0.5469357 -0.05989119 0.34235176 -0.5480263 0.05783821 -0.056579832 0.18483779 -0.19163649 0.3159685 -0.021291541 -0.07270688 0.21563557
trabajador 0.33330488 0.08670547 -0.55901206 -0.569174 0.019763384 0.009304322 0.046028387 0.38008097 0.20175749 0.33624026 -0.0769802 0.016962346 0.21427307 0.60077006 -0.71216905 0.7739276 -0.114581116 -0.193983 -0.60075426 0.017559346 0.28126913 -0.5581822 0.09256628 -0.031279143 0.19903508 -0.17068273 0.2974387 -0.046917994 -0.07875308 0.30050826
dicho 0.36164048 0.00920994 -0.5529132 -0.60248137 0.010536288 0.054807197 0.06705409 0.37792143 0.21489671 0.24345289 -0.05063584 0.060067285 0.21032298 0.601997 -0.7572454 0.78629047 -0.09008029 -0.18230037 -0.61828613 0.0043855575 0.3317944 -0.52762663 0.024358807 -0.022225862 0.23284501 -0.20010036 0.33391336 -0.05720236 -0.07469549 0.22863474
aportes 0.30189204 -0.005479912 -0.5875262 -0.61665046 0.07768878 -0.010028292 0.040388435 0.35183775 0.21362403 0.32057434 -0.08851014 0.000505182 0.2520133 0.6340971 -0.74201083 0.77155465 -0.1122695 -0.16548763 -0.6373654 -0.024236083 0.363281 -0.52043 0.035500117 -0.08746443 0.1480195 -0.111436665 0.25976652 -0.03646212 -0.043159336 0.22498867
haciendo 0.33904848 0.059796393 -0.562722 -0.562469 0.05074523 0.049990308 0.03395629 0.35979193 0.2003731 0.2938684 -0.06799294 0.007471503 0.19518508 0.5699646 -0.73750913 0.78584725 -0.100924484 -0.20450285 -0.605445 -0.014433937 0.31888625 -0.53357404 0.05565382 0.0025387148 0.20519826 -0.16558492 0.31998178 -0.07593787 -0.07919447 0.2310609
queda 0.35154322 0.054255094 -0.558051 -0.61515033 0.023351707 0.03679184 0.014923536 0.3398572 0.21364257 0.29877836 -0.060423158 0.024284985 0.20796768 0.589022 -0.7205538 0.7992629 -0.0940877 -0.17466816 -0.6205461 -0.038435522 0.29608762 -0.55226076 0.056606468 -0.029764699 0.24113958 -0.18848021 0.3040769 -0.05045003 -0.09816675 0.23257585
momentico 0.36255223 0.060734425 -0.6032792 -0.567272 0.003058865 0.008129694 0.06898562 0.3560638 0.17241357 0.31017253 -0.094310276 0.019925911 0.1757105 0.5927706 -0.6703124 0.76823074 -0.079349086 -0.1667074 -0.59513676 -0.019358842 0.2924477 -0.5125719 0.04374893 -0.06853025 0.19009078 -0.18911465 0.28185773 -0.01915448 -0.068444215 0.25049725
ingresar 0.372067 0.102755755 -0.6085627 -0.56941766 -0.017959738 -0.016681032 0.044599183 0.37414196 0.14728224 0.3420557 -0.05857623 0.0131997485 0.17595467 0.5969291 -0.6923798 0.7651399 -0.10464944 -0.1924898 -0.6303313 0.063883 0.2714832 -0.49761888 0.06374182 -0.04070085 0.18938224 -0.1786205 0.29295874 -0.032084428 -0.08398791 0.27471927
afiliada 0.35714763 0.050995927 -0.5473311 -0.5534732 0.052269854 0.022949189 0.026818177 0.3610033 0.20712475 0.31826186 -0.09323326 0.036088333 0.19882588 0.59133464 -0.7019595 0.72339374 -0.12047607 -0.13882054 -0.58740234 -0.013896062 0.32304868 -0.5462377 0.067575924 -0.059470106 0.18699731 -0.12327925 0.2668303 -0.05063976 -0.05380214 0.25237414
dije 0.37935463 0.0334937 -0.5820741 -0.59564954 0.035444036 0.04075107 0.057184804 0.3479279 0.21265191 0.2929422 -0.05971158 0.055573296 0.20354487 0.5988351 -0.7099269 0.7681815 -0.06269825 -0.15104926 -0.5912892 0.023227585 0.32744387 -0.5561057 0.03431958 -0.024737636 0.21045288 -0.15266278 0.31995928 -0.052599467 -0.08221107 0.2509433
hablar 0.35820726 0.018526705 -0.55187374 -0.6138636 -0.0057455557 0.046979643 0.04214293 0.38172564 0.19729087 0.24914472 -0.07583095 0.027563376 0.19048555 0.6266626 -0.718251 0.7573445 -0.098286666 -0.18167247 -0.5824966 0.003155827 0.28815907 -0.5354493 0.041632004 -0.08687681 0.19173275 -0.16168202 0.31359467 -0.048948426 -0.09061729 0.24645957
envio 0.3674633 0.047760867 -0.6104839 -0.59960574 -0.013305687 0.006408885 0.04332002 0.36503392 0.2108152 0.3146161 -0.06080551 0.0006159443 0.17976984 0.59108794 -0.7046395 0.806319 -0.09710866 -0.1549659 -0.59864616 0.025280721 0.325405 -0.5197155 0.07181838 -0.016062576 0.19743432 -0.17142168 0.2517896 -0.023931548 -0.07870388 0.28193524
visto 0.36281407 0.04004363 -0.54264176 -0.600584 0.04906865 0.04659039 0.07066282 0.41829103 0.21178758 0.32132554 -0.06702772 0.03528158 0.20663995 0.6214732 -0.7394074 0.7676611 -0.09198124 -0.20596349 -0.6237964 0.010920849 0.31791902 -0.57488704 0.057479132 -0.019235805 0.21890104 -0.17661099 0.33377507 -0.0511756 -0.103084005 0.22711232
actualizacion 0.33848116 0.029119657 -0.57549053 -0.58695364 -0.033821207 0.01464169 0.053667363 0.3727341 0.21403727 0.3303656 -0.0579939 0.028136015 0.16318673 0.5837327 -0.6955278 0.78147817 -0.06462787 -0.2061713 -0.63381064 0.030034969 0.2533314 -0.4895811 0.051176734 -0.055455893 0.22310343 -0.1698971 0.26675263 -0.053617053 -0.088448316 0.271426
credito 0.35153806 0.0022396054 -0.5217887 -0.6526122 -0.0025026884 0.11529525 0.02472493 0.35478875 0.2745528 0.29022485 -0.08865237 0.035896223 0.08620501 0.56405693 -0.7733677 0.80285865 -0.1962337 -0.0861732 -0.6137599 -0.102321014 0.2790614 -0.6424023 0.0030538633 -0.04253634 0.2578442 -0.12774678 0.29635063 -0.05863578 -0.17736366 0.20847848
consultar 0.35015714 0.036313146 -0.555744 -0.59480417 0.0055989507 0.0331323 0.025524719 0.3887319 0.1893811 0.3004736 -0.029670665 0.018311905 0.22341101 0.5887978 -0.7220233 0.7372079 -0.08357998 -0.19815077 -0.56768996 5.41282e-05 0.32526243 -0.56631136 0.051948965 -0.019457472 0.23538628 -0.15702504 0.27776858 -0.06507335 -0.08246811 0.2456245
averiguar 0.36428967 0.0041454122 -0.5353793 -0.6369737 -0.030960185 0.04555618 0.048595116 0.3873513 0.22228959 0.29149687 -0.09046025 0.03760684 0.17124313 0.59590024 -0.6958258 0.7771586 -0.12112042 -0.21616168 -0.5985984 0.013794658 0.32706353 -0.5702112 0.06252305 -0.089054026 0.20875639 -0.17898755 0.3252842 -0.09703645 -0.14121881 0.22281058
realizar 0.36516428 0.07149505 -0.59080637 -0.5658758 0.013344185 -0.009177825 0.062360078 0.35002604 0.21583278 0.25783074 -0.08809647 -0.02694786 0.19827501 0.6700296 -0.7179506 0.818225 -0.089075096 -0.1826688 -0.6084037 0.035155464 0.27999717 -0.5237662 0.06795726 -0.0006164267 0.1790554 -0.19334745 0.27368572 -0.058180403 -0.085151225 0.28289214
reclamar 0.35524276 -0.0013024003 -0.58441657 -0.60314465 0.030795874 0.04449392 0.039960302 0.30755177 0.23198141 0.26357466 -0.07117008 0.082269855 0.19167608 0.607765 -0.75503516 0.7593027 -0.10240227 -0.14727023 -0.61371297 -0.019965567 0.351378 -0.59617275 0.019472905 -0.037034083 0.19521947 -0.1653436 0.30888173 -0.049971938 -0.11658716 0.23651157
pendiente 0.3588205 0.039472762 -0.579794 -0.59644216 -0.0007185131 0.057160266 0.023721691 0.3812085 0.19789903 0.2901681 -0.068351224 0.017429665 0.21932323 0.6138101 -0.7124164 0.80121297 -0.1021825 -0.14304844 -0.60772294 -0.002584632 0.33075243 -0.52016956 0.045524213 -0.06479082 0.219106 -0.17878406 0.29506758 -0.06332235 -0.062450383 0.24923268
registrar 0.35727695 0.04902422 -0.5900865 -0.58847415 0.001342595 -0.015497567 0.043433607 0.37531516 0.17628147 0.29659915 -0.089399956 0.02729002 0.16148302 0.6014398 -0.7063379 0.773575 -0.08740063 -0.19880688 -0.6159736 0.0010097678 0.28857976 -0.5352181 0.0429642 -0.036874603 0.18890652 -0.14247157 0.2839758 -0.055730242 -0.095323354 0.27259988
llevo 0.38085777 -0.004991744 -0.5506543 -0.6219523 -0.0017848633 0.035857238 0.038166713 0.38862628 0.2094495 0.25456983 -0.05653759 0.06821703 0.17467375 0.6018983 -0.7107839 0.7860469 -0.110773414 -0.14289728 -0.59462917 -0.02500144 0.3320507 -0.58459216 0.055699892 -0.018766994 0.20729409 -0.15666342 0.322239 -0.07868867 -0.10372937 0.22518893
ejemplo 0.3564759 0.017794533 -0.5315054 -0.5961312 0.05190733 0.055310514 0.047488905 0.3173149 0.16926429 0.3175622 -0.012609107 0.012702526 0.18180043 0.5964338 -0.7467566 0.75437087 -0.119915105 -0.1781678 -0.63328105 -0.009116236 0.33804405 -0.551617 0.05076015 -0.023908572 0.19017449 -0.17122447 0.27635422 -0.046408996 -0.13830957 0.2650912
facil 0.3420397 0.03723541 -0.5882265 -0.6108754 0.034546368 0.07465569 0.03353428 0.35640582 0.21953073 0.28879124 -0.040326297 0.05401393 0.18648775 0.6038587 -0.71804094 0.8319779 -0.075004935 -0.13860413 -0.61052436 -0.024131725 0.29605466 -0.5457153 0.02682767 -0.045338456 0.20000932 -0.14795797 0.32053822 -0.04635676 -0.09273004 0.23098816
octubre 0.4089445 -0.010892607 -0.57447785 -0.6189834 0.018437067 0.08636697 0.05782083 0.33995122 0.19352582 0.30295596 -0.040855274 0.013998478 0.23422307 0.6057502 -0.7496505 0.7756179 -0.06827041 -0.14527178 -0.63030803 -0.02476371 0.3279897 -0.5258453 0.044821188 -0.047104765 0.19133322 -0.17279705 0.31250057 -0.037183262 -0.10645269 0.20078906
social 0.3548211 0.05409061 -0.54276526 -0.6009274 0.03967675 0.014722382 0.059958756 0.3966578 0.2064299 0.33512247 -0.10905692 3.1069656e-05 0.16945198 0.5915621 -0.6968735 0.81667024 -0.09022049 -0.18874666 -0.59486496 -0.026895128 0.33570245 -0.5343052 0.039017808 -0.021991553 0.17612892 -0.14736134 0.33076262 -0.074227415 -0.09002519 0.23566964
escucho 0.32763094 0.010076516 -0.5536362 -0.6451835 0.011869533 0.0451198 0.04540978 0.3735275 0.20264946 0.28415692 -0.023297563 0.008149552 0.19926895 0.60885185 -0.72174126 0.7704027 -0.072453246 -0.21416391 -0.60762686 -0.021612719 0.3108834 -0.53864217 0.062213358 -0.08857562 0.19333039 -0.19746786 0.3269013 -0.06735802 -0.08597508 0.25869486
independiente 0.27763805 0.09541963 -0.56427664 -0.542919 0.06653546 0.00793864 -0.0066634906 0.36557242 0.21001998 0.30490577 -0.14044145 -0.006610218 0.20572929 0.61234915 -0.7111028 0.8186494 -0.13099487 -0.16212119 -0.5943855 -0.01725738 0.31276807 -0.5091046 0.038632665 -0.08661762 0.140309 -0.09066356 0.3395176 -0.021158643 -0.015596117 0.27207828
afiliar 0.3478193 0.056322828 -0.56454664 -0.592881 0.023063146 -0.0079080295 0.06848946 0.35278818 0.19606012 0.3107607 -0.07304652 0.027784076 0.19547361 0.6136812 -0.7136833 0.76687086 -0.10891328 -0.1807589 -0.5846718 -0.005114073 0.30648983 -0.5157984 0.07356176 -0.008195959 0.20210123 -0.16549946 0.30473077 -0.073347 -0.076966144 0.2570918
pueda 0.33645254 0.031046262 -0.5516678 -0.6132124 -0.0034049675 0.065175936 0.048080195 0.39453676 0.19527142 0.28445038 -0.06397242 0.011500341 0.21633562 0.63907975 -0.75438005 0.7976299 -0.1192652 -0.2057324 -0.5947599 -0.048636824 0.29526237 -0.52724224 0.01407117 -0.03754569 0.23117015 -0.132822 0.3469662 -0.087139145 -0.12038965 0.26794344
error 0.42444387 0.09636861 -0.54562813 -0.49053 0.05540844 -0.040628444 0.020860614 0.40577695 0.2013097 0.3273883 -0.061256204 -0.022362215 0.16266353 0.6142399 -0.6826138 0.7927379 -0.07178928 -0.22722135 -0.62741905 0.058211118 0.246902 -0.5750858 0.11039616 0.02198405 0.14494547 -0.16707735 0.26421815 -0.076907605 -0.06874938 0.31978953
solicito 0.32967424 0.025817513 -0.5621911 -0.61712736 -7.654321e-05 0.030656062 0.07233885 0.34230134 0.22242779 0.3210163 -0.057839777 0.029615298 0.23535079 0.56683 -0.7426025 0.7857277 -0.06068466 -0.210316 -0.6333957 -0.039589867 0.2859871 -0.52968854 0.02267824 -0.029014623 0.20154834 -0.12379022 0.30225217 -0.06468957 -0.121805884 0.25032297
sencillo 0.34895256 0.011864888 -0.54896516 -0.6095342 -0.00871569 0.085001335 0.03444311 0.34375778 0.23552047 0.29576287 -0.030134697 0.01401397 0.17282829 0.6167978 -0.7132175 0.78230655 -0.10973049 -0.18990533 -0.61170757 0.0053384835 0.28353673 -0.5492473 0.038752597 -0.03875027 0.23329966 -0.15830272 0.29597276 -0.09078284 -0.11772769 0.23647879
inconveniente 0.38038805 -0.010357278 -0.58591497 -0.58569145 0.049185857 0.01826039 0.026078094 0.35747004 0.22231832 0.30297983 -0.099572465 -0.001298513 0.18330768 0.618044 -0.71939737 0.80790377 -0.09969138 -0.1511276 -0.58481294 -0.056378108 0.31055692 -0.5589266 0.08518831 -0.040335067 0.21911967 -0.19634564 0.31287995 -0.051423624 -0.10578651 0.23790227
ciudad 0.3146998 0.015536337 -0.5353606 -0.5959198 0.0041698846 0.030774524 0.028663414 0.37819344 0.2342382 0.2966235 -0.034858175 0.048778053 0.16899954 0.5937136 -0.7434661 0.81246114 -0.059622396 -0.15866344 -0.6258723 -0.037639502 0.2980528 -0.56018364 0.03520998 -0.05747458 0.21384794 -0.13896507 0.31087556 -0.048362844 -0.09432631 0.24181998
habiles 0.3659624 0.0662752 -0.59236294 -0.6008871 -0.0053004553 0.053899255 0.040713232 0.3943938 0.17788175 0.297641 -0.071131706 0.04559401 0.18778028 0.62261134 -0.7103146 0.79574466 -0.062035274 -0.20993057 -0.5885382 0.0028273799 0.31878704 -0.5337246 0.043058034 -0.060883727 0.225738 -0.17067073 0.29689115 -0.04407209 -0.067022055 0.26417875
tarjeta 0.35349137 0.0054382253 -0.56652653 -0.59759915 0.033562414 0.076536715 -0.0011109051 0.38399875 0.21568096 0.26604778 -0.027856138 0.04652424 0.19622537 0.62493086 -0.77212536 0.7823673 -0.050186783 -0.16079213 -0.6012276 -0.0043032602 0.31536254 -0.5414934 -0.0024047366 -0.03527307 0.23322295 -0.15956211 0.3184042 -0.07679327 -0.085278325 0.22702482
partir 0.41340005 0.008194767 -0.5391066 -0.56806237 0.018637141 0.08017657 0.06184523 0.342275 0.16339636 0.25496128 -0.07585187 -0.0026175063 0.1882859 0.62173355 -0.7440132 0.77482283 -0.06532872 -0.17382051 -0.59013146 -0.050142758 0.3540717 -0.5500935 0.04943776 -0.0055417223 0.19555466 -0.1952825 0.30560878 -0.06636242 -0.11434314 0.24929944
supuestamente 0.37781152 -0.0102233635 -0.56134194 -0.63412356 0.01589752 0.07474376 0.060910217 0.33107617 0.18487647 0.24281305 -0.040243287 0.0010987754 0.17718574 0.6523287 -0.7596636 0.7069579 -0.14392346 -0.13311616 -0.5523027 -0.029043645 0.35445485 -0.58411366 0.009611668 -0.022725794 0.23603706 -0.15866339 0.34153238 -0.06459206 -0.112748615 0.2163306
llegado 0.37071076 -0.012605739 -0.55137503 -0.56735694 0.01581659 0.04336634 0.06471986 0.377185 0.22504291 0.25893128 -0.0730785 0.03726725 0.19245169 0.61105 -0.71564347 0.754234 -0.0812459 -0.1509213 -0.602977 -0.018992418 0.3051697 -0.51778793 0.02160221 -0.07300662 0.21651658 -0.18159199 0.3117927 -0.076184824 -0.09956879 0.24156184
situacion 0.37566334 0.031092409 -0.56121916 -0.6319195 0.01789678 0.06218565 0.018136876 0.36985213 0.21736 0.27718824 -0.054312833 0.053452518 0.18296157 0.6168255 -0.7577607 0.7853315 -0.082956545 -0.16774665 -0.60312724 -0.039859626 0.29067627 -0.54618686 0.03488084 -0.030525753 0.21178551 -0.16274452 0.32755926 -0.0379569 -0.09231322 0.23294732
oficina 0.37096694 0.05194471 -0.5699544 -0.62275594 -0.0015855428 0.043263227 0.0297163 0.33885103 0.21722393 0.24811767 -0.06863999 0.030561354 0.18703444 0.61964756 -0.7295421 0.8375219 -0.071405135 -0.2094749 -0.57916427 0.013379988 0.33372056 -0.55206794 0.075136915 -0.052034747 0.2325813 -0.20131269 0.34935158 -0.051635858 -0.097131416 0.20990509
pregunto 0.32785046 0.0018228999 -0.55145884 -0.56873894 0.044915028 0.057623688 0.039588552 0.3809942 0.192443 0.2981193 -0.07287649 0.029225467 0.18691733 0.6029852 -0.71270037 0.7673688 -0.07587447 -0.19808136 -0.6058477 -0.014224155 0.32783902 -0.5483932 0.018765656 -0.03273434 0.19789217 -0.18264441 0.32571998 -0.07417107 -0.09603001 0.23128769
producto 0.35647234 0.033060003 -0.54153377 -0.6501193 -0.0047338544 0.055918317 0.060077395 0.3311398 0.19601707 0.23989236 -0.025201118 -0.0016266124 0.18776478 0.63622 -0.6992651 0.813936 -0.10544703 -0.18587969 -0.6409957 0.015304751 0.35359144 -0.55268574 0.034250125 -0.010136737 0.19837049 -0.16064599 0.33186197 -0.097890876 -0.13760848 0.1990309
ayudar 0.36314172 0.016012821 -0.5611931 -0.5863622 0.02316115 0.029264515 0.044330105 0.38621405 0.21082741 0.281164 -0.07227608 0.025834292 0.18349865 0.6013814 -0.7102024 0.7713672 -0.09406371 -0.16219391 -0.57743585 -0.009369054 0.28021038 -0.5335801 0.053137187 -0.0345261 0.21568705 -0.1415254 0.29905814 -0.0376521 -0.10564131 0.24590623
retirar 0.38101664 -0.04391245 -0.58550364 -0.597895 0.057947323 0.08487204 0.063442476 0.37300026 0.17347158 0.27551848 -0.06519926 0.02399418 0.22636344 0.60731554 -0.72334117 0.76479113 -0.06094309 -0.17958806 -0.59697574 -0.017721903 0.33587247 -0.53658533 0.043724827 -0.045399267 0.18974486 -0.18031432 0.33234602 -0.053942814 -0.09845349 0.21909595
decia 0.321515 -0.007286622 -0.54171336 -0.60771495 0.03557688 0.042664513 0.03673564 0.38703924 0.19566679 0.27481365 -0.04658363 0.007344839 0.22346914 0.6294275 -0.7319237 0.7738434 -0.077804066 -0.20260948 -0.60895735 -0.007099543 0.32172325 -0.5317898 0.038777735 -0.06128517 0.1987015 -0.19097942 0.30161616 -0.066261865 -0.07236856 0.24734807
plataforma 0.35610846 0.023472223 -0.5155298 -0.5588237 0.045127407 -0.021624265 0.07674992 0.373884 0.22782023 0.29635087 -0.071579084 -0.016328776 0.15510076 0.58505857 -0.7163215 0.72222495 -0.11122519 -0.19467449 -0.58633643 -0.017800827 0.30181262 -0.56092244 0.058990534 -0.026816947 0.18297881 -0.12459391 0.30130896 -0.068871826 -0.13740611 0.25056067
mandar 0.38155738 0.050186533 -0.58888096 -0.6171361 -0.03617013 0.017936777 -0.008594977 0.33663723 0.1964409 0.28044724 -0.07004428 0.058514174 0.20353153 0.62150156 -0.7642872 0.7782784 -0.0952536 -0.17468983 -0.63041365 -0.0073356447 0.3034554 -0.5260222 0.06457674 -0.030586395 0.25378165 -0.19528297 0.31357852 -0.083138846 -0.10668818 0.25076896
envie 0.37943667 0.07719638 -0.62390786 -0.56400687 -0.0116531635 0.02161363 0.069651134 0.3443691 0.18989258 0.25685504 -0.08919213 0.0662794 0.23993555 0.5619049 -0.7182148 0.7997616 -0.07751424 -0.13527885 -0.54656506 0.011316381 0.34387547 -0.5408605 0.08268987 -0.09585361 0.19645506 -0.1559409 0.2861977 -0.02861802 -0.10813788 0.25571212
tramite 0.35511452 0.052510258 -0.58910066 -0.61643404 -0.0041702264 0.015199974 0.034419026 0.3895006 0.19213004 0.2968043 -0.0718816 0.015479492 0.20767795 0.6175994 -0.7417046 0.7992923 -0.09149529 -0.19621262 -0.62967956 0.0078022303 0.3255527 -0.53033227 0.06266304 -0.0331531 0.19951424 -0.19958788 0.32053396 -0.07425739 -0.103614174 0.24686699
lleva 0.3506641 0.043699317 -0.5858716 -0.63473815 0.0006428928 0.034768615 0.04778494 0.408278 0.18468381 0.26252595 -0.039985236 0.06023561 0.18836986 0.62623554 -0.72470605 0.7861132 -0.06984797 -0.18873043 -0.63296664 -0.0054484587 0.31921044 -0.5566161 0.028164433 -0.0069020167 0.2224621 -0.17395917 0.338012 -0.052577667 -0.08489622 0.21523659
preguntar 0.3561845 0.016330931 -0.5413374 -0.59492207 2.7759736e-05 0.06933982 0.053834308 0.34061816 0.2131574 0.28422755 -0.035541635 0.024632527 0.21858215 0.6045743 -0.7593283 0.77631176 -0.11614524 -0.16995655 -0.5844691 -0.026504247 0.34387767 -0.54703254 0.044609364 -0.02080871 0.21045174 -0.16508123 0.32418334 -0.08835319 -0.13417506 0.2373909
mirar 0.35930905 0.02309229 -0.5592198 -0.59498507 -0.0072343717 0.05136934 0.03913429 0.39551434 0.1802154 0.28071666 -0.06365337 0.045707252 0.2172376 0.61180043 -0.7208804 0.7866595 -0.09451829 -0.1773976 -0.6199616 -0.00855635 0.3226923 -0.56905854 0.04123825 -0.040859684 0.19988486 -0.18823743 0.29731706 -0.08647244 -0.09782978 0.25705716
perder 0.35455543 0.056594707 -0.58197063 -0.59827775 0.013483883 0.028031385 0.06289991 0.35289645 0.17263922 0.28224295 -0.05237288 0.044106647 0.2064887 0.6249549 -0.7075678 0.7659464 -0.08971982 -0.15999547 -0.6249788 -0.0066324603 0.30939224 -0.534188 0.0048351907 -0.029454354 0.2008506 -0.18258873 0.341846 -0.057856187 -0.065284304 0.24275647
normal 0.37636444 0.04702773 -0.57835436 -0.5763927 0.04081621 0.04287746 0.030559788 0.33029345 0.20412841 0.2933773 -0.030288331 0.020291463 0.22212473 0.6272431 -0.72797096 0.79975146 -0.08082418 -0.178369 -0.59900963 0.008371904 0.30671698 -0.54799855 0.058004335 -0.03164229 0.19904868 -0.18004963 0.33624235 -0.04002045 -0.07405121 0.22255123
volver 0.3412751 0.029873433 -0.563151 -0.6299003 -0.026188165 0.035597406 0.023889907 0.34131253 0.2605408 0.2513709 -0.036703046 0.06921348 0.15236075 0.6037083 -0.7152612 0.8328975 -0.092873015 -0.18476573 -0.5645132 0.0047318307 0.286512 -0.58143616 0.0045399154 -0.028071959 0.16642435 -0.20232081 0.3192475 -0.03422194 -0.08975786 0.23437929
esposa 0.36128607 0.03071118 -0.5403833 -0.5946741 0.04795727 0.029327806 0.06340456 0.35443413 0.19203588 0.3099595 -0.055726375 0.055492025 0.20349285 0.5819115 -0.7280675 0.77675855 -0.09138562 -0.14731906 -0.59132266 -0.0024990833 0.3165519 -0.5560117 0.07830972 -0.025388485 0.1940233 -0.15137886 0.3014843 -0.065989815 -0.12834238 0.23771027
apenas 0.37275803 0.019501997 -0.5774584 -0.55699676 0.020851139 0.04976531 0.022200502 0.36689046 0.21728419 0.29428092 -0.07256628 0.07960975 0.20246616 0.6021423 -0.7651821 0.75881577 -0.06545167 -0.18254066 -0.6254622 -0.025512408 0.35370776 -0.51946473 0.042761832 -0.07051956 0.17796448 -0.15603219 0.2970739 -0.055195898 -0.1210662 0.25132224
solicitarr 0.33522347 0.035363823 -0.59003556 -0.558839 -0.016892778 -0.01804863 0.022730064 0.36066812 0.19855738 0.3424591 -0.06327572 0.020046463 0.19314338 0.58327454 -0.7249907 0.7670238 -0.056922093 -0.18447652 -0.6161399 0.018177524 0.25173557 -0.549259 0.06606261 -0.030833786 0.19137293 -0.1884534 0.24848184 -0.06967369 -0.06963009 0.28503984
abajo 0.3460407 0.07527146 -0.5879216 -0.5855085 -0.00732194 -0.020898128 0.037495207 0.35316312 0.15697815 0.30165693 -0.03707595 0.0127265435 0.20487805 0.5697038 -0.708989 0.77870864 -0.075113416 -0.19478339 -0.64630526 0.04764423 0.3182745 -0.53306365 0.03186242 -0.026949642 0.20264266 -0.14824635 0.25451168 -0.04539128 -0.06869194 0.2754059
puesto 0.37048718 0.024556074 -0.57878715 -0.60943925 0.003843967 0.038513422 0.030463776 0.39193478 0.19191816 0.30784425 -0.043061383 0.0320925 0.20990524 0.60000205 -0.7353264 0.79196435 -0.08315839 -0.19864058 -0.6373769 -0.0021420089 0.3460613 -0.5748051 0.03631658 -0.047960408 0.19984134 -0.14362688 0.320086 -0.061716236 -0.09356712 0.21833767
muchacha 0.38326046 0.020966422 -0.5954626 -0.61028296 -0.0012660736 0.030371265 0.08142553 0.35619757 0.17458995 0.2782859 -0.027766218 0.08642414 0.22762923 0.5606526 -0.7222276 0.8178783 -0.09994736 -0.19514272 -0.57148886 -0.020049248 0.36596417 -0.51969355 0.021833332 -0.016251374 0.25618094 -0.13447514 0.35676244 -0.030375997 -0.10339229 0.22393247
envia 0.33830723 0.081621766 -0.6343439 -0.5672652 0.01261403 0.0069931 0.059520133 0.36145774 0.18035476 0.24585408 -0.07601067 0.020968914 0.22083803 0.61951554 -0.75154597 0.76569754 -0.07221256 -0.16431232 -0.56393355 0.009359958 0.28793335 -0.5279189 0.05555565 -0.07260327 0.17753154 -0.18865734 0.25409588 -0.025783747 -0.06871993 0.27941597
usuario 0.34580335 0.09979694 -0.5698722 -0.6015993 0.007744181 -0.009936138 0.043361623 0.39715195 0.17921509 0.33135375 -0.08715657 0.010548825 0.15476422 0.5803173 -0.7302038 0.822908 -0.09737203 -0.17666383 -0.61110294 0.021137586 0.29978785 -0.5202935 0.049073383 -0.008657336 0.19086781 -0.17021549 0.2719937 -0.043272242 -0.107544266 0.28331482
empleado 0.34369084 0.062291197 -0.57960314 -0.56449556 0.0013178132 -0.011027874 0.03613061 0.37491745 0.14792363 0.2972757 -0.061713308 0.051531382 0.18509184 0.55307716 -0.7263143 0.811257 -0.12378759 -0.17368333 -0.61649996 -0.0023256158 0.34778613 -0.51834863 0.059028402 -0.06972924 0.21720771 -0.14596128 0.29277533 -0.034169033 -0.07648975 0.2713017
quieres 0.3766929 0.06477907 -0.54286826 -0.62276846 0.013880799 0.054471243 0.034762606 0.37487954 0.19123636 0.30604634 -0.065115966 0.0040669306 0.19269618 0.6165278 -0.7212469 0.7995086 -0.06120094 -0.20003058 -0.65524375 0.031747878 0.32960823 -0.52692324 0.042251773 -0.031130966 0.19092485 -0.17096993 0.32863918 -0.07042123 -0.053102776 0.22382452
podia 0.35446003 -0.010724058 -0.54484713 -0.63246715 -0.016344508 0.035787407 0.011215995 0.35115752 0.2022786 0.27873337 -0.064677104 0.06463306 0.20976546 0.58148664 -0.7362752 0.7842183 -0.09897779 -0.13584436 -0.60599244 -0.006916947 0.2799184 -0.55486864 0.075560264 -0.067869075 0.20548561 -0.21391116 0.2671787 -0.07131263 -0.10946148 0.25221965
pagando 0.3357432 -0.009375305 -0.54109776 -0.6268394 0.030891242 0.058662616 0.004221647 0.3986088 0.24469201 0.3241429 -0.03253374 0.03334849 0.19195858 0.61812663 -0.77101576 0.7812483 -0.12189485 -0.18438534 -0.60922295 0.001647448 0.3501807 -0.5794276 0.02950502 -0.037581813 0.21881227 -0.14390343 0.35423106 -0.08160854 -0.12043429 0.22898942
venga 0.32578963 0.04757494 -0.56535345 -0.60751605 0.04261782 0.039361686 0.025152279 0.40148982 0.18969662 0.29926133 -0.05251087 0.017697165 0.19001754 0.60410523 -0.70674384 0.78033113 -0.053392474 -0.17133014 -0.59108675 0.032443073 0.31297147 -0.55411094 0.045992073 -0.055154886 0.22958727 -0.15173462 0.331863 -0.07694739 -0.06538684 0.25431812
poner 0.35100478 0.057880573 -0.58106244 -0.613443 0.026839642 0.035432808 0.06835677 0.3622617 0.19642445 0.26833788 -0.044676065 0.03786216 0.20711097 0.577295 -0.7245388 0.817518 -0.06582956 -0.1364819 -0.6058884 0.012275633 0.3370002 -0.544576 0.060102053 -0.040094998 0.21616001 -0.17677788 0.33966607 -0.055271808 -0.09126307 0.25840968
entrar 0.35782385 0.082040206 -0.56473464 -0.5962229 -0.014307943 0.007024508 0.04189122 0.40554392 0.16590151 0.2934893 -0.046761215 0.011920123 0.20656355 0.57034147 -0.7199524 0.77894354 -0.094995186 -0.20315361 -0.5979498 0.038888827 0.3158989 -0.5041936 0.06639822 -0.04677506 0.222908 -0.19418591 0.29953155 -0.056140814 -0.09056962 0.2338126
hacerlo 0.37231573 0.061182857 -0.5585578 -0.60585415 0.0191953 0.025253335 0.027043914 0.35538387 0.18806666 0.32368228 -0.089695804 0.016715411 0.19198994 0.5672376 -0.71213645 0.806801 -0.08501203 -0.1850434 -0.60977256 0.021325842 0.32120305 -0.5495285 0.08093159 -0.037523568 0.1962935 -0.16420707 0.26863602 -0.047859278 -0.07675664 0.25436014
aparecen 0.35609183 0.032070834 -0.5699411 -0.6168497 0.036810778 0.038573954 0.055899244 0.36647096 0.22991627 0.27997568 -0.08937567 0.036553897 0.19721666 0.5895548 -0.6934103 0.77261025 -0.082611226 -0.14103892 -0.61562127 -0.029810557 0.32056192 -0.5564746 0.044265978 -0.033516586 0.21481703 -0.16539007 0.32779574 -0.05605486 -0.070358686 0.20582274
tratar 0.36382002 0.060605586 -0.5393279 -0.560735 0.024615271 0.023354005 0.050043244 0.35049272 0.18960935 0.290429 -0.07412711 0.043674655 0.15533403 0.5817092 -0.68786037 0.7671485 -0.084708944 -0.20350936 -0.57952774 -0.0034256051 0.2912863 -0.55239344 0.052373927 -0.03607385 0.21395315 -0.18067878 0.30778953 -0.048029 -0.08574398 0.22598237
trabajando 0.36663094 0.013339035 -0.5785781 -0.62790316 0.011236289 0.078204036 0.023442829 0.3918246 0.2013569 0.32242423 -0.02609232 0.035971805 0.20959961 0.5899642 -0.74363625 0.8087797 -0.06107617 -0.20792633 -0.5982456 -0.018833421 0.30639488 -0.55229414 0.04279591 -0.024997866 0.22009847 -0.16435406 0.30397674 -0.08288809 -0.08567474 0.2183512
funcion 0.3290251 0.0833325 -0.5466923 -0.61379904 0.03337533 0.029926047 0.026059957 0.41420642 0.2226911 0.27161554 -0.039007388 0.017966054 0.15799731 0.6147322 -0.7739194 0.8191506 -0.112828806 -0.2003449 -0.64495236 -0.02175852 0.31269926 -0.57238215 0.016904058 0.014200191 0.21857019 -0.18952753 0.35701266 -0.06904114 -0.1224435 0.21965826
llevar 0.38260332 -0.007971783 -0.57611763 -0.5715148 0.006093073 0.056141086 0.042792495 0.34147772 0.20951898 0.29409906 -0.03708103 0.060926475 0.21900249 0.62608504 -0.70689416 0.77193123 -0.068716496 -0.15683573 -0.60122025 -0.024496391 0.33659798 -0.5390211 0.063368514 -0.056393404 0.21922338 -0.19211648 0.2805081 -0.07238267 -0.094948195 0.24400052
entidad 0.38521725 0.015741933 -0.58818066 -0.564904 0.0072554625 0.033855762 0.022938073 0.39517906 0.2093369 0.29242525 -0.07839806 0.045882136 0.19878726 0.59411216 -0.7377596 0.77927047 -0.023599371 -0.19112156 -0.6194201 0.0044219736 0.28649923 -0.50222963 0.048972577 -0.040511932 0.2377339 -0.14919725 0.30302393 -0.08096555 -0.09730513 0.27307943
internet 0.3516122 0.0741576 -0.5840341 -0.6084471 0.018963832 0.016609482 0.040160973 0.3542618 0.17644061 0.27212304 -0.066080734 0.029875731 0.19258928 0.59488654 -0.72368014 0.7776383 -0.07287442 -0.16055161 -0.6250918 0.0012707834 0.27918726 -0.5394882 0.08194966 -0.025591597 0.20675433 -0.17854483 0.29165056 -0.05144345 -0.13226056 0.2536847
diciendo 0.36293527 0.051044084 -0.5515608 -0.64107 -0.0027172437 0.083454385 0.08443304 0.3612007 0.16066717 0.23635852 -0.032758985 0.049897734 0.22769882 0.5914495 -0.7452284 0.81162596 -0.07419474 -0.16910966 -0.60473156 -0.039567765 0.32194558 -0.5130844 0.044754446 -0.023526764 0.24964991 -0.20847456 0.32590878 -0.03807244 -0.088752806 0.2397056
llaman 0.36027896 0.046359845 -0.5318388 -0.5958972 0.020711364 0.0610463 0.002556255 0.38738167 0.20736045 0.27650526 -0.05929352 0.0065480135 0.16436763 0.6219454 -0.7267276 0.7671815 -0.08686814 -0.15860282 -0.6152319 -0.0041229744 0.3077872 -0.5835764 0.02159481 -0.021576563 0.20773469 -0.17211327 0.3170438 -0.08218885 -0.08365336 0.2374799
enviado 0.38317576 0.029372944 -0.62638897 -0.57083356 -0.018351216 -0.012866192 0.09321091 0.37346807 0.18433373 0.24040729 -0.04648478 0.10949431 0.21636508 0.56700367 -0.7631031 0.79128426 -0.1044376 -0.16917752 -0.55956453 -0.033753555 0.37028036 -0.53578115 0.052051846 0.0001983358 0.27205917 -0.16286586 0.33905202 -0.047815375 -0.08080274 0.2145902
empleados 0.34489182 0.09227363 -0.5879411 -0.538581 0.03480308 0.004887999 0.06924187 0.34919664 0.15881746 0.28938448 -0.096444376 0.0053768586 0.19004793 0.54714024 -0.71895695 0.8141963 -0.091091365 -0.17535749 -0.57306015 -0.035731502 0.2970411 -0.507634 0.10590245 -0.051402923 0.20244555 -0.15784484 0.31273648 -0.02082518 -0.06564768 0.28382498
entra 0.32498643 0.03964609 -0.5858502 -0.5892188 0.02794425 0.06629282 0.032359723 0.39518818 0.19891441 0.28199956 -0.047232155 0.0064351563 0.17156918 0.6054617 -0.7178661 0.76391315 -0.053527147 -0.19345063 -0.592104 -0.008605193 0.3267995 -0.5161163 0.052829776 -0.04885321 0.21499884 -0.1618803 0.31211278 -0.071582176 -0.073784515 0.22558928
segundito 0.33519623 0.026426699 -0.5992957 -0.5981795 0.041280497 0.024530672 0.019015264 0.38806674 0.17316069 0.33987737 -0.022840621 -0.00073466776 0.21800941 0.59958524 -0.6902279 0.7541209 -0.005582998 -0.18001011 -0.66509867 -0.012583295 0.3054933 -0.525089 0.014779121 -0.024386061 0.21372308 -0.13360333 0.24622253 -0.09810365 -0.059593577 0.23302926
estudio 0.35425508 0.006397277 -0.55592585 -0.6185283 -0.01697641 0.02874384 0.016044283 0.39594454 0.20086186 0.28595075 -0.047644783 0.03023705 0.15723543 0.6200878 -0.738213 0.78212005 -0.061331388 -0.16879173 -0.6114571 0.027048696 0.3191185 -0.5498978 0.02762939 -0.029035304 0.20332108 -0.19152847 0.28438902 -0.06748106 -0.112497695 0.24925405
productos 0.32954004 0.049387097 -0.55861837 -0.6494277 -0.057360005 0.054429468 0.021545922 0.37436485 0.29032344 0.2989063 -0.06651355 0.038941182 0.078293115 0.5407186 -0.7849971 0.79933614 -0.20840369 -0.08045432 -0.6052854 -0.07465538 0.29627675 -0.61364174 -0.007942173 -0.024846105 0.2247696 -0.10116546 0.29070362 -0.041470833 -0.17482889 0.21540263
nombres 0.37196755 0.058018565 -0.5719649 -0.62977225 0.0129166655 0.01482028 0.029704364 0.37924173 0.18234923 0.29168895 -0.06993109 0.020856502 0.19608565 0.5856523 -0.72987384 0.81455106 -0.047399733 -0.1612172 -0.59844154 0.016845698 0.31223863 -0.5375177 0.040416434 -0.0071030916 0.18055376 -0.19712481 0.30634582 -0.05562436 -0.08806967 0.25545144
formacion 0.33950153 0.03981379 -0.5422325 -0.58952826 0.0048015667 0.03440086 0.05025786 0.37586853 0.21665423 0.27632618 -0.061474204 0.021192538 0.19151755 0.6320165 -0.72014934 0.7625459 -0.09408249 -0.17111027 -0.595668 0.01036949 0.30713695 -0.54855925 0.04718761 -0.0640512 0.21933818 -0.14832225 0.32901737 -0.057069823 -0.09980838 0.25187272
empleador 0.34287968 0.14460081 -0.584499 -0.53679365 0.010683048 -0.004073118 -0.0034883856 0.3236746 0.13835996 0.3851869 -0.10467206 0.02752937 0.12121694 0.50404674 -0.6490147 0.8308841 -0.100086346 -0.15441525 -0.6197287 0.037785113 0.268229 -0.52636784 0.089747526 -0.042264443 0.2040043 -0.14430703 0.25678995 -0.06517612 -0.11225342 0.2611285
llegan 0.34962747 0.014581181 -0.5628398 -0.6351778 -0.0039268467 0.053023178 0.044582013 0.34818587 0.19881652 0.2778091 -0.053878553 0.0174737 0.17407034 0.645878 -0.76599365 0.79246306 -0.08071031 -0.19599351 -0.6347673 0.019154571 0.32032758 -0.5640321 0.04513908 -0.03290181 0.2347929 -0.17750798 0.30457366 -0.06487098 -0.11851388 0.27299836
comfandi 0.3813155 0.056807604 -0.56732684 -0.57880247 0.0193789 -0.012738154 0.051288866 0.33843607 0.15303609 0.28867817 -0.08994896 0.022873078 0.17889869 0.5835782 -0.7021272 0.7832848 -0.05446546 -0.13713892 -0.62132096 -0.003037603 0.2843797 -0.5243007 0.05552911 -0.03439091 0.20658396 -0.18987712 0.2681516 -0.034289032 -0.10072248 0.29065222
formularios 0.3417132 0.04410782 -0.6233818 -0.53650755 0.0030193399 -0.012480029 0.064715184 0.38617337 0.19127874 0.32023743 -0.07708899 0.044586048 0.22779585 0.56045556 -0.7306958 0.79157966 -0.033354424 -0.16863325 -0.6879038 0.011880976 0.25702977 -0.55181557 0.027853617 0.039508667 0.20453577 -0.17401174 0.25447282 -0.05038731 -0.058232527 0.23081191
compania 0.39158666 0.03836151 -0.590812 -0.6227759 0.02425463 0.07864339 0.05564127 0.407338 0.1906575 0.27967295 -0.055678334 0.04522872 0.18846433 0.6162416 -0.7507556 0.8350216 -0.114317484 -0.16910836 -0.6136783 -0.01469 0.3527988 -0.55497086 0.067437634 -0.056561206 0.20893618 -0.20380944 0.31233838 -0.08050184 -0.11762336 0.2595155
verificar 0.35058665 0.023929922 -0.5637908 -0.5916958 -0.0007334534 0.044239245 0.05147465 0.36183682 0.17134914 0.3006109 -0.042403113 0.041456006 0.18855321 0.58770365 -0.747171 0.7536774 -0.09565614 -0.15747997 -0.63469064 0.0025820595 0.31800425 -0.5408323 0.029285312 -0.04671347 0.19656484 -0.17048867 0.31663775 -0.07698426 -0.10641199 0.24242435
sucedio 0.36123517 0.0017614951 -0.5716508 -0.59795153 0.009447319 0.05961554 0.042041525 0.35463226 0.19229208 0.26246172 -0.06973162 0.037611246 0.20101544 0.63557273 -0.7370999 0.7710146 -0.09445444 -0.18879777 -0.60751545 -0.012223912 0.3280207 -0.53318137 0.042775854 -0.018553976 0.19624285 -0.19058658 0.29035193 -0.0443757 -0.092709325 0.25428745
tranquila 0.35088965 -0.007401977 -0.56366986 -0.64417946 0.042043895 0.055475686 0.06677032 0.39592066 0.20301017 0.23668353 -0.054599956 0.04346713 0.1883362 0.6553016 -0.7525825 0.8216984 -0.07340172 -0.19792031 -0.6113341 -0.01571636 0.32128742 -0.558385 0.056082845 -0.045616735 0.24653445 -0.20562433 0.3619599 -0.08841503 -0.091924235 0.2384308
septiembre 0.45594612 -0.007209211 -0.63551456 -0.5865981 0.073928386 0.1176861 0.13262953 0.3239595 0.2085218 0.22694126 -0.054952715 0.0033681456 0.28343362 0.63091135 -0.81088686 0.75584346 -0.06442819 -0.114439726 -0.5965141 -0.06583962 0.35489953 -0.55802864 0.033392064 -0.045970324 0.17775466 -0.16565348 0.301703 -0.049503643 -0.11056334 0.21680032
pagaron 0.3595184 -0.07386539 -0.5430786 -0.64112604 0.07509862 0.111118376 0.0928392 0.3634989 0.17925254 0.29494146 -0.07196386 0.013615672 0.21781398 0.6380181 -0.80110705 0.7399439 -0.09274916 -0.16471809 -0.6181715 -0.070347756 0.34845874 -0.51631457 0.051514555 0.01642718 0.2278772 -0.19032826 0.32333672 -0.08446718 -0.11785429 0.24146603
ultima 0.37852252 -0.008741545 -0.5605924 -0.6327602 0.041039415 0.06740601 0.05719019 0.33715335 0.16694626 0.2681934 -0.050647303 0.026617585 0.21552494 0.6404771 -0.7455105 0.7507224 -0.07298982 -0.17222354 -0.5738223 -0.047582507 0.35181215 -0.55506814 0.059571113 0.017309954 0.24605341 -0.15507104 0.32285944 -0.04767985 -0.0792526 0.2196217
motivo 0.3291276 0.04219876 -0.5800384 -0.57161486 0.034523938 0.025251888 0.049822874 0.40314037 0.17441526 0.32996285 -0.047491703 -0.009274863 0.22964816 0.57690895 -0.6928744 0.8042887 -0.031788107 -0.20724472 -0.6652748 0.00588936 0.27833408 -0.5095273 0.03620134 -0.008080177 0.22101106 -0.16813365 0.27847055 -0.041174565 -0.083787 0.27838755
comun 0.36859766 0.024325449 -0.5284625 -0.6269687 0.00826002 0.059691977 0.062601306 0.38170403 0.2201862 0.27983937 -0.070482545 0.033339538 0.15718393 0.6042286 -0.7168485 0.78912306 -0.1109287 -0.18018714 -0.6217896 0.0013402507 0.34858552 -0.5690779 0.04837369 -0.0272679 0.22738165 -0.16278066 0.33682916 -0.043951865 -0.08909644 0.2061039
contrasena 0.32863584 0.08872612 -0.5913836 -0.58661056 0.0011697809 -0.0033452627 0.02523226 0.37483695 0.18672906 0.34175488 -0.042212714 0.037444968 0.15949447 0.605719 -0.69966835 0.7699571 -0.076030895 -0.18756294 -0.61403817 0.030328112 0.30178994 -0.48894405 0.06036588 -0.047826294 0.20161125 -0.17830457 0.27577382 -0.05186942 -0.087798044 0.25349203
simplemente 0.3708404 0.02695353 -0.5693459 -0.5811188 0.03582313 0.03565147 0.07697254 0.35092682 0.21901579 0.28187674 -0.058534097 0.03976537 0.19421455 0.5783799 -0.711361 0.7412905 -0.0695785 -0.16276297 -0.6285272 0.017845767 0.27388188 -0.5296216 0.06343762 0.0050647967 0.20924558 -0.16808021 0.2762236 -0.027048808 -0.11902712 0.26095885
final 0.3562981 0.004587002 -0.5499107 -0.617026 0.050633915 0.04437971 0.04580413 0.36708766 0.22369951 0.30802226 -0.060591463 0.008054175 0.18881582 0.642621 -0.7143194 0.7845872 -0.05780959 -0.17920567 -0.634643 0.016010968 0.33804443 -0.5324354 0.03370054 -0.017011464 0.20946181 -0.14457844 0.31394216 -0.085395254 -0.07357703 0.2607816
salario 0.23810992 0.0029202017 -0.5555157 -0.7072707 -0.006366907 -0.04487709 -0.048869345 0.45301536 0.19717059 0.34659222 0.017093057 -0.087516576 0.33808568 0.60744244 -0.7232215 0.6332488 -0.13278937 -0.26074764 -0.66937184 -0.005635927 0.38809562 -0.4948749 0.08523928 -0.16646945 0.15735699 -0.1044239 0.17459244 -0.19743608 -0.09642403 0.19735743
fondo 0.3743036 0.04896506 -0.56709856 -0.62664276 -0.0062071676 0.06837697 0.06696485 0.35550612 0.18856156 0.28028786 -0.033084795 0.042344384 0.19958293 0.64164615 -0.738835 0.79118556 -0.0894022 -0.17021707 -0.6201853 -0.019315748 0.3320208 -0.55893826 0.0614256 -0.022609198 0.19493568 -0.16977331 0.32767126 -0.060211968 -0.09641532 0.21543285
bloqueado 0.34654307 0.0029358375 -0.54962623 -0.6043091 0.023930786 0.067730226 0.023379846 0.3948769 0.203777 0.2967569 -0.05747979 0.046454526 0.2318095 0.6019246 -0.7310273 0.76482713 -0.08059684 -0.21604116 -0.6254278 0.009650837 0.34410968 -0.5456829 0.023190148 -0.042619154 0.2337396 -0.14977728 0.31643012 -0.04273588 -0.08619521 0.2200823
derecho 0.3421632 0.0793011 -0.56211287 -0.59496015 0.044703834 0.013014602 0.04855999 0.39870244 0.18037339 0.31782013 -0.041455667 0.010412651 0.22369699 0.5789083 -0.7403634 0.72812146 -0.039573457 -0.18531582 -0.68231386 0.025381299 0.3038262 -0.52465755 0.011926616 -0.028607428 0.18745276 -0.14299369 0.24739972 -0.08017527 -0.085230656 0.23940839
triple 0.32912192 0.08523192 -0.58103424 -0.5652124 -0.0044800346 -0.039467826 0.06529155 0.37101713 0.16958494 0.30465502 -0.046700057 0.032156352 0.15534812 0.5939186 -0.6769622 0.76320547 -0.028114986 -0.18592423 -0.6683875 0.01309948 0.2683207 -0.5243583 0.010573981 -0.011685392 0.19706014 -0.16256216 0.25424322 -0.07950872 -0.070427544 0.2313184
momentos 0.35387546 0.015423467 -0.5512951 -0.6236107 0.04858716 0.052539703 0.045154616 0.3867766 0.2336554 0.27750713 -0.03741823 0.052656487 0.20721643 0.6427468 -0.7336404 0.8117477 -0.06271312 -0.17360073 -0.6274562 0.034692448 0.34327716 -0.5598568 0.018994084 -0.05156459 0.19971016 -0.1525635 0.32556897 -0.05610784 -0.093045875 0.25635973
cambiar 0.37063244 0.05151834 -0.5685535 -0.61275584 0.009903376 0.04992863 0.049760703 0.39905104 0.16429801 0.27155057 -0.05339828 0.010213211 0.1744426 0.6208407 -0.73397905 0.7480319 -0.05347202 -0.19702782 -0.60401326 0.031389374 0.32479912 -0.51963353 0.056273844 -0.004108869 0.19068651 -0.13734488 0.3126805 -0.04886009 -0.11362846 0.21983157
llamado 0.35788864 0.05865493 -0.54783565 -0.6168156 0.0062120436 0.06916965 0.018170958 0.35790092 0.18425614 0.28945047 -0.041667074 0.064924374 0.19865914 0.5890096 -0.72527766 0.7675366 -0.093514144 -0.1540699 -0.61864144 0.005248324 0.3385032 -0.56080914 0.011969322 -0.03528318 0.21779086 -0.15814885 0.3357671 -0.09297147 -0.06606898 0.22693448
hicimos 0.37099215 0.00059673376 -0.5754151 -0.5657051 0.03553536 0.037873738 0.08191902 0.35096744 0.22253086 0.29618794 -0.103148066 0.016182322 0.18851663 0.5988478 -0.7155136 0.7963873 -0.10291488 -0.1350693 -0.60444593 -0.0575877 0.301068 -0.51724994 0.06509842 -0.032585822 0.21584634 -0.14913449 0.27871448 -0.054537483 -0.115986586 0.22473273
raro 0.38249505 0.025291605 -0.58594346 -0.57821655 -0.0023918522 0.05870907 0.050887257 0.34877986 0.18612918 0.2511866 -0.07444078 0.043267503 0.20597492 0.6268009 -0.7346064 0.7637207 -0.10661645 -0.10810745 -0.57135 -0.037247255 0.29941258 -0.561347 0.012693536 -0.06836641 0.22798352 -0.1583434 0.33024168 -0.07757965 -0.124559276 0.19981709
recibido 0.37433618 0.0066779247 -0.56528944 -0.56654835 0.011753161 0.06536141 0.04309334 0.37290326 0.17830367 0.26344544 -0.0761037 0.013240585 0.2087313 0.6367477 -0.7103641 0.79802215 -0.10855855 -0.17012562 -0.5853247 -0.010027187 0.32893795 -0.5344531 0.04809107 -0.042342935 0.19795027 -0.1903797 0.26880237 -0.06513044 -0.08268033 0.25268298
estudios 0.37359866 0.034208696 -0.58319193 -0.59431803 0.02698968 0.03539375 0.020774474 0.38470656 0.21381205 0.23919047 -0.05288083 0.039415885 0.18916179 0.62875426 -0.7502743 0.79180074 -0.08120263 -0.17936485 -0.56258696 0.015212357 0.29608223 -0.5576007 0.059996262 -0.03972046 0.22266673 -0.17089967 0.33180934 -0.048199903 -0.12541178 0.23930672
retroactivo 0.37844616 -0.076274626 -0.52870744 -0.5951309 0.05729534 0.089829884 0.066576086 0.3370398 0.23002402 0.29590666 -0.07008626 0.06380073 0.19430064 0.57469416 -0.77280337 0.7419375 -0.06837591 -0.17300215 -0.6075491 -0.07385668 0.2959307 -0.5558344 0.03023072 -0.09592405 0.19234075 -0.18281865 0.27387947 -0.07413266 -0.09766625 0.29438528
llegando 0.34634128 -0.007266147 -0.5674977 -0.56063694 0.01766746 0.05537978 0.00751997 0.3538547 0.21233955 0.2765863 -0.050605673 0.020710157 0.18072295 0.6254981 -0.74024737 0.77146214 -0.091528215 -0.18355946 -0.61845326 -0.01892023 0.31466097 -0.5277356 0.03472943 -0.03229886 0.18672615 -0.16892341 0.2747983 -0.057477776 -0.06812892 0.27426273
empleada 0.36067778 0.026452957 -0.56005746 -0.6174946 0.045537584 0.0395224 0.04236904 0.34883267 0.17429407 0.30243167 -0.055117104 0.019070089 0.1877449 0.6086143 -0.764848 0.8002894 -0.11445034 -0.18661994 -0.598379 -0.019023677 0.31226212 -0.5422699 0.07072144 -0.040085867 0.17742558 -0.16579403 0.2926449 -0.08305518 -0.07420817 0.27214372
unico 0.3424797 0.03887914 -0.5472803 -0.6098563 0.012519401 0.015155431 0.014174319 0.38000038 0.22164556 0.30712128 -0.051522534 0.05125963 0.18607898 0.60336214 -0.70079064 0.7806415 -0.06276653 -0.2033443 -0.60146844 -0.010271372 0.31461602 -0.5318744 0.028026294 -0.014189176 0.23013641 -0.16212095 0.30476442 -0.08426413 -0.07926948 0.24708697
exito 0.341938 0.056726 -0.5638508 -0.5798174 0.020316958 0.05976728 0.06573536 0.33744305 0.19391485 0.3102726 -0.04359315 0.06401342 0.20322943 0.607594 -0.7436371 0.7885434 -0.11235878 -0.18069032 -0.62066716 -0.0036270712 0.34097537 -0.5617721 0.03680187 -0.051947404 0.19770111 -0.16479084 0.32240978 -0.045573875 -0.12845513 0.2316187
hagame 0.34381324 0.06090258 -0.5544711 -0.591229 0.011963694 0.046381984 0.04464187 0.3787619 0.1974711 0.3083518 -0.049883526 0.05063376 0.21749084 0.594303 -0.7303713 0.7610876 -0.08069599 -0.17489116 -0.5997826 -0.0071527236 0.31304106 -0.54730725 0.042840023 -0.040746097 0.22348991 -0.16484064 0.31981227 -0.05208568 -0.09883344 0.22988537
haria 0.3673087 0.039978076 -0.5596265 -0.5705891 0.030585637 0.064268164 0.06627347 0.36138472 0.1977424 0.28285226 -0.07198216 0.050245404 0.18354978 0.58212227 -0.7142763 0.7751986 -0.06361058 -0.16199699 -0.6448154 -0.006491391 0.28483513 -0.553005 0.024565976 -0.024974635 0.18145007 -0.16686319 0.3275312 -0.07223863 -0.0884527 0.25591174
comunicarme 0.32690325 0.040912837 -0.53984004 -0.6114621 0.0014529198 -0.013782501 0.009283034 0.38249868 0.19130044 0.32059294 -0.02976879 0.059265066 0.15789036 0.6221189 -0.6963659 0.8024723 -0.066215396 -0.16073827 -0.5961583 -0.013598325 0.3021182 -0.5316079 0.068163306 -0.042980302 0.21695554 -0.18666214 0.32969013 -0.036869586 -0.10400405 0.22383691
permite 0.37570524 0.004807302 -0.5602559 -0.6123153 0.051378142 0.063836075 0.08856209 0.33988035 0.20704223 0.27098215 -0.04101974 -0.0054678763 0.2083617 0.6634654 -0.75515515 0.74797004 -0.11518209 -0.20693272 -0.58785635 -0.0119688995 0.3298781 -0.52759296 0.070452765 -0.029681407 0.20582825 -0.17668046 0.34309778 -0.06918814 -0.12805657 0.28209448
cotizante 0.31885344 0.050985746 -0.5894351 -0.52521974 0.017334769 0.019674348 0.080097035 0.35284957 0.1973409 0.258901 -0.07287077 0.000915056 0.20830055 0.61153346 -0.75029916 0.80772996 -0.099577405 -0.16702493 -0.6617132 0.023722153 0.28956655 -0.47956878 0.07495991 -0.052021954 0.1576841 -0.12950781 0.2714423 -0.04950284 -0.04844329 0.31095752
necesita 0.35544324 0.05270244 -0.5718496 -0.6292905 -0.033639412 0.015660416 0.026988102 0.39053684 0.20192212 0.3239701 -0.045038577 0.0020478372 0.19582883 0.62204576 -0.7108364 0.72282165 -0.06097358 -0.20631665 -0.62060875 -0.0006273086 0.31780356 -0.5381074 0.05578982 -0.038991395 0.18533044 -0.16548656 0.25143117 -0.068752244 -0.0976269 0.24828035
sacar 0.3449678 0.06371332 -0.556172 -0.6123516 -0.006763697 0.036490384 0.036096636 0.3731144 0.23088256 0.3119094 -0.06431564 0.008901211 0.19520773 0.5798646 -0.7500048 0.7690419 -0.06321641 -0.17698635 -0.6271753 0.011584647 0.2958528 -0.5432706 0.01837173 -0.014826835 0.19614504 -0.16050763 0.33635136 -0.05254034 -0.12396017 0.20811167
hablando 0.41096902 0.039154228 -0.561512 -0.6123082 0.026558163 0.069047086 0.078319825 0.3559973 0.21415272 0.24976933 -0.036917794 0.022480642 0.2191186 0.6073558 -0.7560796 0.78989136 -0.09443118 -0.1494662 -0.6336942 -0.04052427 0.32293618 -0.55252695 0.06050248 -0.05203224 0.22500788 -0.19694671 0.3469391 -0.040996116 -0.09681427 0.2349644
inicio 0.40604147 0.068530075 -0.57232755 -0.6074376 0.028437154 0.056587163 0.042905323 0.38838476 0.15032366 0.33425358 -0.07348354 0.014682446 0.17139293 0.6444393 -0.7091725 0.807396 -0.0753892 -0.19105044 -0.643325 0.018579114 0.3373878 -0.54663473 0.07810054 -0.024243934 0.23240288 -0.17734599 0.35370076 -0.07084704 -0.1144594 0.2573988
deben 0.33896667 0.024200464 -0.54683214 -0.6022511 0.021151854 0.03274571 0.067378245 0.37402385 0.20159265 0.27546006 -0.049818538 0.014092344 0.20394628 0.6333977 -0.71161467 0.8072471 -0.051986486 -0.21151997 -0.61988705 0.007862072 0.3212149 -0.53433305 0.03359594 -0.031088049 0.20666614 -0.1844264 0.28570467 -0.036523845 -0.10248141 0.26884547
minutos 0.3632814 0.035895687 -0.5483097 -0.6112035 -0.0012174953 0.017839305 0.055992715 0.38034555 0.18499336 0.3199135 -0.08116902 0.043312475 0.1727302 0.5919052 -0.7353054 0.78653985 -0.09809481 -0.19492553 -0.60204786 0.008728625 0.30503026 -0.5591193 0.04704405 -0.059578594 0.22313409 -0.17323156 0.32278934 -0.07082347 -0.10291864 0.22846405
recibio 0.40231767 -0.023597715 -0.52430815 -0.5864415 -0.010136686 0.06161833 0.027978372 0.3167157 0.17306319 0.2709272 -0.0583711 0.045075435 0.19946791 0.66580755 -0.75146264 0.70731527 -0.08942889 -0.15270518 -0.5973356 -0.030669589 0.3370381 -0.533935 0.069565184 -0.017053926 0.21004893 -0.17844258 0.26042122 -0.066263795 -0.10955738 0.2571525
diseno 0.37441227 0.05660758 -0.58017856 -0.63270664 -0.00013176716 0.022296006 0.032644603 0.39294323 0.20920694 0.29895222 -0.06946837 0.059560332 0.16617371 0.64000833 -0.72426695 0.7886245 -0.0947844 -0.19472018 -0.6109817 0.013849162 0.3117536 -0.5673205 0.06914278 -0.035590023 0.24035616 -0.20519914 0.31832066 -0.0718389 -0.12577833 0.25421098
idea 0.38259718 0.026707007 -0.5878383 -0.65020096 0.026684055 0.06533814 0.029695526 0.40072057 0.18436658 0.2914078 -0.06229926 0.035064854 0.21069895 0.60281587 -0.7264539 0.7927624 -0.06829075 -0.17374869 -0.6383613 -0.002965585 0.28931206 -0.5674247 0.04281028 -0.010825285 0.24379866 -0.17338622 0.3112246 -0.045175176 -0.081012525 0.24284026
recibo 0.34756085 -0.010446689 -0.56885725 -0.57198 0.059306335 0.061766047 0.04071655 0.3474092 0.22298278 0.28767952 -0.03332796 0.042701498 0.22662242 0.6313995 -0.7447383 0.7691592 -0.07744325 -0.17161223 -0.56508666 -0.020702213 0.29483312 -0.53132117 0.0044171717 -0.027524138 0.20735659 -0.17143865 0.31042078 -0.073717855 -0.11046814 0.24511714
debil 0.35472634 0.061970975 -0.56496835 -0.61616534 0.0009528858 0.057901055 0.049905445 0.40232092 0.18559688 0.26021218 -0.07218429 0.060936227 0.18725036 0.605108 -0.7192269 0.8163639 -0.09993315 -0.14928034 -0.6170327 -0.0029831948 0.2976825 -0.5528417 0.048386764 -0.023057837 0.18165877 -0.17792949 0.34024876 -0.05834053 -0.105681814 0.24346468
anterior 0.3273205 0.019880503 -0.56208616 -0.61711425 -0.026653044 0.059573997 0.025689304 0.33620816 0.26626265 0.2857753 -0.04989786 0.047913518 0.11216721 0.56229734 -0.7459398 0.8043093 -0.14622003 -0.10427568 -0.61523265 -0.034775663 0.29345348 -0.61317974 0.0009858708 -0.027253116 0.1742821 -0.14428936 0.30632263 -0.039577644 -0.144275 0.22459643
companera 0.35852134 0.065864585 -0.5748506 -0.6417585 0.04164422 0.021544501 0.03353785 0.37090912 0.18968682 0.26867795 -0.07385908 0.02466503 0.18578094 0.63288647 -0.7193412 0.7845743 -0.0746964 -0.15979554 -0.60744494 0.0118746 0.3000197 -0.5291429 0.072742455 -0.03778488 0.19583863 -0.15239184 0.33096257 -0.06921871 -0.11714103 0.2245957
mision 0.32772055 0.020863626 -0.59111387 -0.6267886 0.007539936 0.03546163 0.020674355 0.37995717 0.17736165 0.28756356 -0.04574826 0.00835576 0.19562574 0.60198265 -0.7473702 0.7726992 -0.098079816 -0.20973569 -0.61344576 -0.027632205 0.355434 -0.51582116 0.033839 -0.05508717 0.19017136 -0.13565008 0.30786327 -0.086491205 -0.07196973 0.22598332
registrardo 0.35241315 0.030840635 -0.57042855 -0.60836804 -0.0055343234 0.025235038 0.0004901274 0.37776867 0.19030985 0.31166124 -0.052279636 0.04765013 0.14586945 0.61808544 -0.7356795 0.8009633 -0.070157796 -0.17809047 -0.61473155 -0.020102842 0.29654303 -0.5504356 0.0367356 -0.06537877 0.2043554 -0.1873005 0.29938373 -0.054710753 -0.0841827 0.23899654
entro 0.3562081 0.054253533 -0.5863278 -0.6497381 0.048506394 0.057402153 0.028855426 0.41501516 0.15958352 0.283739 -0.0755365 0.032201886 0.22019409 0.6417836 -0.7453673 0.7712558 -0.08824208 -0.21813181 -0.6336608 0.028330592 0.31018284 -0.52438825 0.06051159 -0.014979926 0.20793658 -0.19971775 0.30806273 -0.088478476 -0.09163877 0.21858376
problemas 0.3595497 0.034031473 -0.5765262 -0.5955984 0.022876978 0.071944885 0.08783099 0.36086297 0.18903114 0.2628461 -0.03917455 0.0012830185 0.19361553 0.612591 -0.76045984 0.794643 -0.09156519 -0.17514928 -0.5874487 -0.0031478538 0.3417291 -0.51825416 0.03978057 -0.018682158 0.21811582 -0.14089228 0.30184582 -0.052452 -0.091478415 0.23418762
mandan 0.346391 0.055343717 -0.5749182 -0.6025054 -0.0076240003 0.05924538 0.019564874 0.39961332 0.17850502 0.2623082 -0.0632475 0.060740538 0.236809 0.59799916 -0.7657823 0.7728387 -0.10361531 -0.16534169 -0.62524223 0.026330113 0.30158857 -0.53601277 0.023685293 -0.013753393 0.21936926 -0.20717072 0.33291692 -0.03657662 -0.072962515 0.23609765
pasando 0.3670846 0.05025519 -0.5796704 -0.58466154 0.020845182 0.014689142 0.030288987 0.33241513 0.20464858 0.28202555 -0.037887927 0.04749208 0.18464033 0.6134632 -0.7222448 0.78091943 -0.10718062 -0.2033752 -0.6053009 0.0010824539 0.32092208 -0.55741394 0.0050535607 -0.024666727 0.19321506 -0.17299183 0.32100108 -0.045164175 -0.10553078 0.2488289
completo 0.32013544 0.025176572 -0.5558891 -0.5824889 -0.012243598 0.020233748 0.005539834 0.3936805 0.19186142 0.290758 -0.07002523 -0.0031423608 0.17222553 0.61170614 -0.6964074 0.77281225 -0.070698306 -0.17642805 -0.5715144 -0.021213396 0.31631714 -0.5373564 0.024090895 -0.06000933 0.22452389 -0.18101 0.30118936 -0.078354724 -0.06244611 0.25389555
seguir 0.35651222 0.051368836 -0.5716692 -0.5855258 0.00863553 0.022210944 0.0033820267 0.36957747 0.19541757 0.29357284 -0.026182601 0.027000774 0.15906729 0.58482045 -0.727515 0.78294176 -0.10199319 -0.15012538 -0.6418451 0.007872677 0.28814113 -0.5718784 0.052547026 -0.065789156 0.19715272 -0.16844177 0.30339885 -0.055236463 -0.12215087 0.2390386
solicitudes 0.36285633 0.018234711 -0.55891174 -0.5864672 -0.0045258035 0.008951004 0.06555951 0.36705357 0.19052988 0.2740577 -0.074412234 0.040555436 0.21950482 0.6057131 -0.74767876 0.78639156 -0.067324564 -0.14648663 -0.61316234 0.005346729 0.3071018 -0.51508445 0.05936715 -0.013807463 0.22121651 -0.15535465 0.28709528 -0.05945833 -0.10429861 0.23013851
darle 0.34937572 0.01152881 -0.5642862 -0.59849155 -0.016006483 0.056570962 0.029587219 0.34399074 0.21747567 0.2671578 -0.03579789 0.07078679 0.17157882 0.59295136 -0.7771363 0.77572864 -0.12762704 -0.15164228 -0.5945328 -0.019461285 0.32288775 -0.53414196 0.060667537 -0.051330592 0.20850863 -0.15192284 0.3252337 -0.06426507 -0.09814641 0.23566964
fijo 0.2928435 0.021306617 -0.53932315 -0.5644079 -0.019274402 -0.005303507 0.052773543 0.37426436 0.18769902 0.2941499 -0.052328415 -0.0035468098 0.20333713 0.59608394 -0.7228387 0.78210235 -0.05695657 -0.21052231 -0.5881547 -0.005483184 0.30273017 -0.5045035 0.022094894 -0.060563833 0.20510256 -0.16237241 0.3165534 -0.086551 -0.08041535 0.23653053
bajas 0.3530929 0.078781895 -0.5635974 -0.59952503 0.026633985 0.025894813 0.027468195 0.36684728 0.1933004 0.2973152 -0.06910402 -0.0015096543 0.16151477 0.6207203 -0.7179407 0.77412856 -0.06880492 -0.13332333 -0.64385676 0.0071887495 0.29934466 -0.54916686 0.014460872 0.0047961604 0.22165853 -0.16820294 0.3464467 -0.06829436 -0.08970481 0.25721163
requisitos 0.31183875 0.013036569 -0.5411964 -0.6109308 -0.049577195 0.02472964 -0.0022714916 0.40131295 0.27417922 0.3171193 -0.06478188 0.036171027 0.1508883 0.5792811 -0.72250867 0.7638065 -0.058789354 -0.16789658 -0.6242028 0.02200003 0.22744761 -0.55324936 0.05264575 -0.02380027 0.13147482 -0.23769583 0.2504211 -0.091547064 -0.060634412 0.29417837
sucede 0.37693772 0.034761943 -0.5888174 -0.620196 0.017702987 0.041100197 0.03786054 0.3828291 0.21157828 0.3027614 -0.059317954 0.04943368 0.18491533 0.6134064 -0.7299943 0.8082917 -0.058460493 -0.18492703 -0.6145386 0.01711158 0.3148351 -0.5409826 0.02874319 -0.016057458 0.22548248 -0.15350181 0.34651196 -0.0671375 -0.089265175 0.24571034
declaracion 0.32363272 0.06322817 -0.5678271 -0.5718384 0.039459974 0.03128357 0.04354949 0.36527303 0.17573598 0.27060586 -0.06697127 -0.0021208287 0.18031967 0.62485415 -0.750638 0.79371077 -0.098867506 -0.17352462 -0.60875976 0.035557203 0.32432932 -0.52559596 0.075084195 -0.057820264 0.19323847 -0.16937762 0.28704488 -0.07352379 -0.08264559 0.24866335
ingrese 0.37138143 0.036931943 -0.5772869 -0.5573414 0.006430771 -0.01433003 0.033635817 0.38969624 0.18649037 0.30916002 -0.08368097 0.008728468 0.16769917 0.5860247 -0.70963967 0.79396653 -0.05626166 -0.20789902 -0.62032384 0.0014874402 0.2850423 -0.53828996 0.08030232 -0.00856244 0.18730779 -0.17466909 0.30359635 -0.018915106 -0.119862415 0.24052273
actual 0.33997488 0.033203464 -0.55739 -0.6469174 0.007731738 0.059429236 0.014633528 0.36331904 0.22493933 0.2652675 -0.057698853 0.063540705 0.14989536 0.59232736 -0.74711645 0.81860906 -0.0814061 -0.14895456 -0.6244323 -0.0134209655 0.31235972 -0.56980795 0.017204192 -0.024381071 0.17792866 -0.1622465 0.3300106 -0.03632344 -0.06247806 0.23533817
enviaron 0.36830962 0.019225644 -0.56934196 -0.5887405 0.038483802 0.0045341346 0.05105831 0.38164434 0.19030115 0.2741891 -0.07584885 0.035190884 0.20207685 0.61857665 -0.72905964 0.80112636 -0.07591847 -0.17904331 -0.57160294 0.008041436 0.33058324 -0.51341254 0.029891254 -0.032761093 0.22431199 -0.12775825 0.31892633 -0.02827455 -0.10336029 0.22320913
subir 0.36625674 0.03780332 -0.54740006 -0.5835325 0.025855497 0.04926133 0.07081506 0.35734022 0.20514463 0.31122136 -0.099810325 0.020502415 0.21034701 0.5896783 -0.70844686 0.78336173 -0.06164136 -0.19700485 -0.57948375 0.0066771507 0.27737072 -0.5303351 0.03788017 -0.04642956 0.20783208 -0.16922937 0.29064593 -0.04189575 -0.080279104 0.25412408
desempleo 0.3674543 0.031081742 -0.5287093 -0.5873272 -0.03124675 0.034469634 0.03250729 0.4087778 0.22469717 0.25669685 -0.06433503 0.00888409 0.17790465 0.594576 -0.73971325 0.8141818 -0.11451177 -0.18179737 -0.5795598 -0.025389256 0.28075245 -0.5436495 0.020412317 -0.018535502 0.19576012 -0.18224537 0.29976082 -0.053300254 -0.07143097 0.2473839
cobrar 0.36679536 -0.0056447284 -0.5518102 -0.62231773 0.031922247 0.08720156 0.06911701 0.37244064 0.2006357 0.24743864 -0.065746136 0.027631124 0.18835707 0.63827133 -0.7243045 0.7553295 -0.09255831 -0.15220301 -0.60065 -0.020073442 0.33291352 -0.57127124 0.023433898 -0.025848374 0.22310676 -0.15520218 0.3337459 -0.074705034 -0.12132753 0.25000754
siguen 0.38060114 0.016870994 -0.5540159 -0.60344136 0.011754721 0.07355346 0.028507087 0.36236817 0.21746215 0.28812104 -0.0705412 0.038361836 0.19116709 0.6075677 -0.71986103 0.7816996 -0.08191395 -0.20031391 -0.5879628 0.008892918 0.3148087 -0.5454972 0.04914851 -0.03782298 0.20990604 -0.16960713 0.34493178 -0.038621817 -0.11751778 0.22142342
recibiendo 0.39874813 0.0021641955 -0.56287336 -0.60486865 0.0209748 0.09399221 0.0635942 0.33281213 0.18897268 0.2693055 -0.04913119 0.032954253 0.20741384 0.6541887 -0.7359556 0.75047874 -0.073190816 -0.16754235 -0.591488 -0.056750566 0.33331317 -0.53210306 0.06998734 -0.028618885 0.22346173 -0.17352298 0.2956194 -0.058426026 -0.086926654 0.23494712
meto 0.33261427 0.08801111 -0.5803902 -0.586294 0.032779407 -0.020649103 0.08469762 0.36831045 0.19870749 0.3469473 -0.08372139 0.012733529 0.21741587 0.57300586 -0.65329933 0.7733988 -0.10045668 -0.15632494 -0.58862215 0.007898969 0.2719213 -0.5321203 0.09271511 -0.018037517 0.20843758 -0.14236724 0.3053561 -0.050658815 -0.0823133 0.25956216
soporte 0.35043812 0.043047093 -0.5787994 -0.562825 0.0041765035 0.027924828 0.07246331 0.35303375 0.21482705 0.28342757 -0.07592394 0.02288692 0.2179529 0.6087561 -0.7257568 0.8333658 -0.09483411 -0.16103481 -0.61458164 -0.01729071 0.32795447 -0.5139877 0.06466169 -0.06451212 0.19733693 -0.15269774 0.30215257 -0.05821868 -0.10153885 0.26150474
dificil 0.3243677 0.019329632 -0.5344838 -0.6043902 0.0097913565 0.04892923 0.037314553 0.3722103 0.1910141 0.2834451 -0.027091753 0.05328389 0.2023423 0.5787148 -0.73904896 0.76828617 -0.07381074 -0.15735507 -0.61183155 -0.007031622 0.3416844 -0.5315527 0.00489006 -0.008578639 0.21842685 -0.1911243 0.34650302 -0.081078894 -0.07525138 0.2217609
lunes 0.36560118 -0.00048381774 -0.5841475 -0.5831605 0.017845113 0.012494685 0.067697495 0.37655494 0.19213302 0.30433795 -0.059490263 0.013379901 0.19934998 0.58563346 -0.7049092 0.80797744 -0.05050712 -0.18370976 -0.6006198 -0.022777736 0.28520355 -0.5516358 0.045002542 -0.06421976 0.20885102 -0.19183046 0.32073972 -0.04407523 -0.107012436 0.23072733
llegue 0.34984404 0.074599266 -0.5798479 -0.6081504 0.021399582 0.039968275 0.055078365 0.387761 0.18355948 0.29621297 -0.04081891 0.032449 0.18691641 0.5985283 -0.723704 0.76332283 -0.06294937 -0.19017635 -0.59133506 0.006420727 0.325029 -0.5444118 0.040619772 -0.0043136636 0.17808656 -0.14878543 0.3020025 -0.0408495 -0.11196077 0.24741858
recibir 0.3636131 0.04881671 -0.54652596 -0.5801791 0.027423453 0.050368812 0.052271407 0.38615504 0.20876922 0.29639766 -0.06621382 0.053838823 0.18487567 0.5720539 -0.7312116 0.788509 -0.07485795 -0.1703951 -0.6165802 -0.011185125 0.32988647 -0.5383584 0.008770123 -0.053069666 0.19336495 -0.16466218 0.33082467 -0.057568695 -0.10911883 0.23690656
pagado 0.3549349 -0.0022732748 -0.565714 -0.57325137 0.05803518 0.026133167 0.061125204 0.38107285 0.21669112 0.29761347 -0.053472765 0.056898396 0.21513282 0.6443748 -0.7628779 0.75904393 -0.10983667 -0.19340837 -0.6378172 -0.037585307 0.33352333 -0.53347206 0.031227976 -0.054588243 0.22303665 -0.15184186 0.33936122 -0.079340555 -0.08866608 0.26915193
planilla 0.28650722 0.017637083 -0.5947345 -0.6021094 0.076485515 -0.020930937 0.054164577 0.3891272 0.21331644 0.28125134 -0.07824476 0.018576737 0.19780548 0.6094862 -0.712074 0.81873465 -0.10688412 -0.15782958 -0.6417117 -0.017644914 0.35706896 -0.51908726 0.028967435 -0.04114837 0.17966715 -0.15326838 0.30639404 -0.043267205 -0.037233118 0.25493336
volvio 0.36750093 0.024236036 -0.57060844 -0.59654707 0.034934822 0.033122532 0.029936854 0.34495094 0.22104825 0.24842174 -0.07107732 0.010815993 0.17556006 0.62517226 -0.73547316 0.73875815 -0.08309379 -0.1287742 -0.6011979 -0.019894578 0.33228672 -0.5423529 0.023023708 -0.012977529 0.2166368 -0.15986492 0.326359 -0.044094667 -0.11078449 0.25857422
comunicar 0.3556556 0.0404516 -0.5660039 -0.6006463 0.03017827 0.061821487 0.041390795 0.37252113 0.20899725 0.2666107 -0.036818244 0.03208027 0.1748051 0.59057796 -0.72857755 0.78543425 -0.08863682 -0.18387742 -0.60185003 -0.006740005 0.3236695 -0.54624015 0.06085789 -0.043128587 0.20763983 -0.1519651 0.3069634 -0.04264553 -0.10158185 0.23422058
aparte 0.37647036 0.06971499 -0.54287463 -0.596243 0.04999166 0.07581554 0.03278016 0.36467433 0.21502861 0.30316547 -0.06230671 -0.009534758 0.21820728 0.6150485 -0.73697203 0.79052657 -0.10478558 -0.1554731 -0.651494 0.003187926 0.31577536 -0.55670273 0.061167087 -0.032537587 0.22559923 -0.18704808 0.34053564 -0.07804649 -0.11378525 0.23450744
posible 0.3727763 0.04505334 -0.5759245 -0.595865 0.025485525 0.054070786 0.08720823 0.3468325 0.16450785 0.28327343 -0.07398031 0.050349962 0.17212084 0.57182646 -0.74256337 0.7679711 -0.079598606 -0.16798347 -0.5952601 -0.01529799 0.32900617 -0.51668245 0.052583054 -0.016369807 0.22979657 -0.13594782 0.30377087 -0.046047267 -0.11486464 0.2519813
parecen 0.34504092 0.06754491 -0.57968694 -0.5430135 0.022773052 -0.004404536 0.029855693 0.3761918 0.1909339 0.28257766 -0.063048996 -0.024417935 0.17137899 0.63928235 -0.6997455 0.77744275 -0.067421384 -0.20362842 -0.62482184 0.028275443 0.2917154 -0.5580698 0.06348448 -0.0056302217 0.18272269 -0.1783063 0.28199053 -0.04591296 -0.09811606 0.2869519
dependiente 0.27738303 0.054692242 -0.5609638 -0.54828167 0.04805901 -0.037783083 0.031457018 0.36472473 0.21993294 0.30929512 -0.14254627 -0.012691074 0.21214661 0.6169197 -0.71263593 0.80084944 -0.11627433 -0.13097522 -0.60861164 0.014041794 0.3371777 -0.53238475 0.09400285 -0.07863223 0.1465132 -0.14356545 0.27660316 -0.033295613 -0.015742961 0.28184098
proyecto 0.36862722 0.02501359 -0.55083513 -0.6119597 -0.0082694795 0.048064634 0.03457457 0.35403875 0.21315928 0.32495022 -0.029195435 0.009636157 0.18265007 0.61357826 -0.7123941 0.78935045 -0.104600474 -0.17629124 -0.66169196 0.038667016 0.3174392 -0.5497578 0.056221317 -0.027787184 0.20044978 -0.19207706 0.30513766 -0.06419049 -0.110484265 0.25816008
estudiando 0.363552 0.039917637 -0.5548931 -0.58917755 0.024933185 0.07424054 -0.010258532 0.3721523 0.23368596 0.26905355 -0.012138346 0.05690655 0.15648374 0.59863436 -0.7310584 0.7665272 -0.05922526 -0.20099069 -0.61323154 0.007962498 0.32498598 -0.54976964 0.06594106 -0.012896193 0.17840889 -0.15842113 0.2692054 -0.07024938 -0.12546736 0.24948747
llamarpara 0.3510525 0.022527343 -0.584277 -0.61224854 0.004160555 0.04375593 0.052363433 0.3390764 0.22615513 0.2688091 -0.031121723 0.046754647 0.17208362 0.6100178 -0.73975617 0.81803644 -0.08777483 -0.1832739 -0.61704266 -0.023426322 0.30645353 -0.57703394 0.053302396 -0.01631492 0.18888798 -0.18654186 0.32936355 -0.054615956 -0.11462258 0.26694596
comenzo 0.35933444 0.010408939 -0.56204426 -0.60918593 0.01509924 0.058133323 0.028144348 0.35599312 0.20377317 0.3018593 -0.0937044 0.016671121 0.1757366 0.60837656 -0.73150235 0.8400095 -0.08600182 -0.19083817 -0.62027854 -0.043504756 0.32336214 -0.56261665 0.05123116 -0.011412215 0.19180569 -0.15899315 0.30841085 -0.06269444 -0.09018699 0.28583398
quedar 0.37690857 0.04677964 -0.5677953 -0.57013077 0.0022883923 0.010986293 0.034678016 0.3693377 0.17931335 0.3034212 -0.029844573 0.04233256 0.19863549 0.6215373 -0.69998556 0.767593 -0.067908786 -0.16324571 -0.6329872 -0.005838872 0.30330604 -0.55967027 0.0523778 -0.021342471 0.21899576 -0.17924184 0.32773167 -0.04215438 -0.09112338 0.21675216
formas 0.36559722 0.049511638 -0.5517304 -0.6298305 0.008812189 0.039773688 0.049306408 0.35301536 0.19479603 0.26980263 -0.06754118 0.002542106 0.1599143 0.61587024 -0.7096738 0.79755706 -0.05234136 -0.1862015 -0.5892491 0.018730573 0.30318195 -0.5662723 0.056535434 -0.05311827 0.21922489 -0.19032869 0.28740206 -0.07239382 -0.12002626 0.2322447
afiliadas 0.3856487 0.060147807 -0.584875 -0.5504427 0.025557226 0.027600884 0.04488961 0.3463637 0.1795716 0.29413456 -0.049879834 0.0079137655 0.18232614 0.5755567 -0.7294385 0.75871813 -0.053594712 -0.1793809 -0.61555535 -0.011051268 0.30629277 -0.5373571 0.04225385 -0.0152769685 0.16893381 -0.1600555 0.30415678 -0.03962087 -0.08540143 0.2667507
agua 0.36814827 0.031779878 -0.5543147 -0.60619617 -0.0009897043 0.062072467 0.05043738 0.36991274 0.19593969 0.24871944 -0.046808075 0.03376748 0.19835639 0.61991954 -0.73382306 0.7950979 -0.103442855 -0.16620192 -0.61414963 -0.014229176 0.31230417 -0.5364765 0.012365036 -0.044986635 0.22937907 -0.1487725 0.3538617 -0.055671804 -0.1134229 0.21548848
radicar 0.35609677 0.034396376 -0.5590324 -0.5504105 0.024288496 0.011895921 0.059806235 0.37734523 0.22919291 0.31731287 -0.10720392 0.04084467 0.158701 0.5778179 -0.7359195 0.79690534 -0.05890116 -0.1811538 -0.607168 0.008953202 0.26671445 -0.55232906 0.09161757 -0.03515712 0.1707926 -0.19950175 0.29699785 -0.065114036 -0.111836255 0.26574093
exactamente 0.38332132 0.0019266838 -0.5408328 -0.5484617 0.017504063 0.07711181 0.028006801 0.36032054 0.17345312 0.31755096 -0.018498665 0.010534945 0.2297235 0.64492726 -0.7519727 0.7573413 -0.0592596 -0.17576018 -0.6485664 -0.04829701 0.32268286 -0.5596842 0.08355102 -0.049124647 0.22289626 -0.19239226 0.27442786 -0.04838081 -0.088606186 0.27939263
siento 0.34574023 0.053968657 -0.5494889 -0.6231213 0.007813249 0.029387074 0.033024516 0.33131802 0.20092838 0.30325216 -0.08107965 0.042455766 0.20973948 0.61801326 -0.72147095 0.7698895 -0.08553705 -0.19779515 -0.63769984 -0.0064621517 0.32153782 -0.5405897 0.0042790505 0.0075788973 0.22624668 -0.18482041 0.32837063 -0.044081144 -0.08886571 0.23730773
realizo 0.38623044 0.01784776 -0.5777666 -0.55254054 -0.019383833 0.007062729 0.056391865 0.41625652 0.23898658 0.23629776 -0.084982395 -0.013181232 0.19769038 0.66380024 -0.69525576 0.8259447 -0.11705389 -0.19373648 -0.5452453 0.02920275 0.2966657 -0.5380881 0.039740283 0.03546669 0.22550407 -0.18901758 0.28923112 -0.08690728 -0.048940632 0.25660732
precio 0.33796 0.051404364 -0.56255454 -0.6279918 0.0017756358 0.07644296 0.06016937 0.3806938 0.2091369 0.2815184 -0.029140027 0.055520244 0.18729469 0.62497103 -0.7388209 0.79970706 -0.08507764 -0.14313059 -0.60788393 0.017912382 0.33894598 -0.5196726 0.013943758 -0.013670644 0.20541812 -0.18206403 0.3380907 -0.041427236 -0.068737574 0.2178202
poquito 0.32690325 0.007399438 -0.5596821 -0.6054914 0.01857934 0.026994722 0.028136298 0.37476623 0.21182905 0.25165334 -0.02422866 0.031049158 0.18542358 0.5748766 -0.6924492 0.7987516 -0.083320744 -0.185038 -0.577538 0.0022410187 0.30660787 -0.5292928 0.07210576 -0.076964304 0.17991418 -0.18756923 0.31105074 -0.074669056 -0.06860647 0.25509036
actualizar 0.3679864 0.05495011 -0.5656737 -0.5754569 0.017806977 0.022759246 0.039208002 0.36079744 0.20169488 0.28649175 -0.058573484 0.018496474 0.16709472 0.6279584 -0.7315168 0.75188607 -0.08364407 -0.20029427 -0.6197609 0.018097766 0.27620494 -0.5391052 0.052180544 -0.0329056 0.21103795 -0.17404597 0.26631516 -0.058714166 -0.07408735 0.2404393
cobro 0.39939603 0.05371657 -0.53120434 -0.6422444 0.03266089 0.09022918 0.0867564 0.37814713 0.20195276 0.22551343 -0.021160506 0.031233191 0.23767117 0.62646484 -0.76621556 0.7687557 -0.099449284 -0.19676733 -0.63002104 0.0012150472 0.31337616 -0.53905946 -0.016331404 -0.012886682 0.20581946 -0.1651913 0.36286747 -0.07104085 -0.13910875 0.2142415
perdi 0.3423125 0.044790536 -0.5359322 -0.63619554 -0.00891475 0.046828777 0.028567627 0.35981813 0.21323746 0.30309296 -0.04157061 0.04238954 0.17977206 0.5906146 -0.73797727 0.7918392 -0.078480095 -0.17525373 -0.61315805 -0.012944901 0.33309132 -0.5745981 0.07911292 -0.03722334 0.20510022 -0.1719395 0.28218424 -0.038730033 -0.09220442 0.24726352
virtual 0.3753714 0.049346935 -0.56540155 -0.51785237 0.028953044 -0.013787737 0.017178083 0.34623873 0.17577615 0.32145333 -0.110488504 0.023250725 0.14146812 0.53518736 -0.6974685 0.806118 -0.076661944 -0.122031 -0.58572984 -0.017277375 0.32935548 -0.53358907 0.07988887 -0.051448334 0.18906581 -0.15352263 0.24455824 -0.050092876 -0.07693752 0.23689622
video 0.33195516 0.003990174 -0.5377302 -0.5938378 0.0007221198 0.06850128 0.026406672 0.33545098 0.21749727 0.29630655 -0.047602117 0.046407435 0.20645002 0.5942739 -0.7339865 0.78496385 -0.07132605 -0.20384602 -0.64594066 -0.03263332 0.31507978 -0.56743187 0.01053603 -0.038917527 0.19556177 -0.1339439 0.33910233 -0.0800342 -0.13152769 0.22341016
cientos 0.33499548 0.069499746 -0.56137055 -0.6358149 -0.01393963 0.019931132 0.01781763 0.36140767 0.2049183 0.29163384 -0.03050844 0.043065604 0.15964092 0.6282121 -0.73713493 0.80991906 -0.08499802 -0.17346779 -0.62431014 0.031222818 0.3378344 -0.5586842 0.04196634 -0.011998838 0.21937366 -0.16403352 0.30451068 -0.070604764 -0.094655074 0.22772335
parecia 0.36461994 0.021136103 -0.57960695 -0.5853744 -0.0006026086 0.016828015 0.055296972 0.376278 0.17312203 0.30152315 -0.017747615 0.057940975 0.20966823 0.607015 -0.7299421 0.78410923 -0.09332487 -0.19128057 -0.60655713 -0.016962633 0.3010487 -0.5250238 0.00079791795 -0.016823227 0.18213774 -0.17788431 0.29933703 -0.058355667 -0.0826644 0.24727696
monetario 0.32494816 -0.004120576 -0.50327617 -0.5687581 0.043627903 0.059042327 0.04984502 0.37303022 0.23419942 0.29571676 -0.044353116 0.017230865 0.2247955 0.59328914 -0.70994216 0.72115976 -0.09717525 -0.16784354 -0.6032564 -0.021373235 0.29163405 -0.5426413 0.045927666 -0.03224189 0.18698068 -0.14105552 0.30119434 -0.07615582 -0.1078733 0.2601371
llenar 0.29659474 0.06544553 -0.5506302 -0.57147855 -0.00800221 -0.045604583 0.070754625 0.3347041 0.18208279 0.32588324 -0.032466453 0.021180047 0.20942076 0.5739092 -0.6699789 0.7751398 -0.029019102 -0.2033992 -0.70352334 0.03682891 0.27746928 -0.4959599 0.042288028 0.012034395 0.18635651 -0.13227507 0.22559035 -0.065776676 -0.07356742 0.30108956
fotocopia 0.35514095 0.0816199 -0.59453565 -0.5689305 0.0066584423 0.008933002 0.039799415 0.38947976 0.17773126 0.32572186 -0.037175063 0.048016023 0.2223048 0.5522757 -0.70364773 0.7802917 -0.040519822 -0.14757873 -0.6203492 0.03613078 0.2610016 -0.5058694 0.05012799 -0.009885374 0.19474281 -0.167053 0.22492889 -0.07576744 -0.089553095 0.28012413
radicardos 0.34935263 0.010112765 -0.53786314 -0.55253893 0.022662627 0.018853148 0.082985386 0.3901046 0.21439908 0.30002117 -0.07914694 0.010711127 0.18611518 0.5862825 -0.71698964 0.79166394 -0.04854536 -0.16597803 -0.59332454 0.01235171 0.28029454 -0.5061789 0.06748391 -0.021764485 0.17797966 -0.16869125 0.2885997 -0.030684432 -0.10977579 0.28070426
documentacion 0.35669276 -0.04150788 -0.5455897 -0.65480417 0.003560302 0.05812426 0.031375878 0.38540697 0.23241797 0.274963 -0.07710706 0.052683715 0.22541301 0.6131112 -0.719099 0.76516896 -0.12051814 -0.18786372 -0.577802 -0.05048623 0.34892753 -0.5206221 0.038484897 -0.050844185 0.24995473 -0.15857424 0.34049875 -0.07502444 -0.12725177 0.22577722
vision 0.36581376 0.06179643 -0.5569182 -0.64617735 0.003997073 0.027253361 0.049904138 0.3897512 0.18629904 0.27806705 -0.052316017 0.038022 0.18563297 0.64632106 -0.76931405 0.784603 -0.07981935 -0.17305377 -0.61884564 0.015370959 0.3428402 -0.52699983 0.05460204 -0.005956949 0.2146489 -0.16602828 0.325026 -0.07754322 -0.10258341 0.23789486
preguntarle 0.3882388 -0.009198202 -0.5799008 -0.57901996 0.01450013 0.056850113 0.04493701 0.3255161 0.17842412 0.29995963 -0.08685053 0.0016198029 0.20344062 0.5895642 -0.723509 0.7613848 -0.06112593 -0.1636604 -0.56682634 -0.052576695 0.30616176 -0.5623268 0.06550213 -0.086046636 0.2120627 -0.19947459 0.31104818 -0.050304748 -0.080078945 0.24737176
meti 0.3547078 -0.019785881 -0.53796 -0.5891202 0.030689752 0.076346755 0.052970864 0.3644504 0.22523667 0.30295196 -0.05775771 0.008797294 0.17853375 0.60047084 -0.7622779 0.74528635 -0.08164685 -0.17487322 -0.6144773 -0.027429042 0.3135221 -0.5030949 0.028109083 -0.023096463 0.16912341 -0.18071261 0.32718596 -0.055796903 -0.10346901 0.26140925
presento 0.39063677 0.04509118 -0.57709545 -0.56613076 0.05058775 0.056645185 0.057541996 0.3213939 0.17612283 0.2699553 -0.03764736 0.002763829 0.2314474 0.59325534 -0.70830643 0.77513766 -0.062866576 -0.13737147 -0.59539336 -0.007139029 0.33100528 -0.5277377 0.06127233 -0.024743978 0.18373345 -0.18857533 0.2767085 -0.07692539 -0.098330595 0.265829
edad 0.36363527 0.028894793 -0.58346653 -0.5920293 0.04163464 0.043561928 0.065102205 0.3468154 0.19970222 0.26504827 -0.029833036 0.054140728 0.19631676 0.6113416 -0.7337496 0.7924133 -0.08745508 -0.1343082 -0.5914438 -0.012370458 0.3310475 -0.547004 0.07639237 -0.028754994 0.21248163 -0.18554744 0.28143528 -0.03451911 -0.09770857 0.24485894
empresarial 0.36205566 0.10703155 -0.59643686 -0.59018683 0.022010531 0.0038060322 0.025537502 0.34398472 0.16668867 0.30706525 -0.124372914 0.028296614 0.1712792 0.5878852 -0.68945557 0.8417374 -0.07822958 -0.1385925 -0.662118 0.022221431 0.2736467 -0.5383811 0.058647834 -0.0074603735 0.20486689 -0.16391578 0.30778965 -0.039550476 -0.0820491 0.26816303
mandaron 0.34512004 0.03327466 -0.58309025 -0.5891774 0.037948806 0.057649855 0.091057554 0.35750547 0.18526042 0.26241425 -0.07941986 0.047915284 0.23230954 0.60515076 -0.7835778 0.76995873 -0.07915912 -0.17762154 -0.60175323 -0.002887229 0.3124693 -0.5443328 0.060194604 -0.018514961 0.23913243 -0.15491077 0.32440123 -0.049249727 -0.12241352 0.22500873
termino 0.37106776 0.060023874 -0.56434023 -0.615504 0.012812965 0.047084764 0.029335225 0.3851529 0.19199798 0.30996522 -0.023586502 0.06039246 0.2058533 0.5887331 -0.7142051 0.7643738 -0.08295905 -0.20646021 -0.5909179 -0.0019289671 0.31840783 -0.5410821 0.04168541 -0.010763269 0.22153683 -0.18555468 0.3143526 -0.032513864 -0.11028485 0.24330127
pedir 0.3620172 0.09162095 -0.55358636 -0.56475925 0.03190183 0.05809035 0.033347115 0.34273767 0.1905692 0.28228343 -0.035060097 0.033916593 0.19560409 0.6040641 -0.73947036 0.77053887 -0.0739003 -0.19510582 -0.59754544 0.006782909 0.29056668 -0.5332994 0.080750376 -0.022110268 0.18606359 -0.16897792 0.2906448 -0.030283593 -0.07035635 0.2749136
coloco 0.33633304 0.09688353 -0.5599429 -0.5524212 0.034936137 0.0041725333 0.0038147373 0.32455862 0.15611978 0.330871 -0.08024975 0.031743094 0.13940428 0.544685 -0.64462566 0.80024815 -0.044910673 -0.18423466 -0.646629 0.060211092 0.24233042 -0.49962506 0.052381784 0.0016713896 0.17041326 -0.15954377 0.257141 -0.040093645 -0.1057923 0.27743062
this 0.322451 0.043712523 -0.55112916 -0.59903795 0.022097459 0.027905423 0.029554242 0.30078638 0.18192023 0.27128088 -0.04665752 0.05704302 0.20718311 0.57772887 -0.7308762 0.7700802 -0.076626256 -0.12721771 -0.6748536 0.009907734 0.29459146 -0.5426203 0.007890451 -0.012272135 0.20297952 -0.1454013 0.28364602 -0.08129261 -0.084786996 0.21529724
quiera 0.3748316 -0.0016880482 -0.58276606 -0.6023802 0.038575027 0.06523247 0.05136863 0.35823587 0.20081945 0.28834325 -0.095225826 0.0005970623 0.20681085 0.67682606 -0.75271577 0.79382974 -0.063467555 -0.191258 -0.6305131 0.008113919 0.31144097 -0.5702051 0.035348106 -0.030057328 0.17854488 -0.16151361 0.309706 -0.032911427 -0.08251363 0.26352432
normalmente 0.3610009 0.027924508 -0.56864965 -0.57762855 0.020064017 0.020556444 0.029286103 0.36221156 0.22481927 0.32016137 -0.031562973 0.0051370747 0.18541047 0.60106987 -0.7361755 0.7455674 -0.073206455 -0.19335915 -0.6412037 0.015185764 0.29048726 -0.5792569 0.05724907 -0.020298705 0.20804666 -0.17357238 0.32048655 -0.04241781 -0.12135913 0.2676957
suicidio 0.35153452 0.009035965 -0.57390076 -0.6093803 0.032851886 0.061914995 0.0131463865 0.35287884 0.20662217 0.29803914 -0.07124411 0.031325646 0.18982725 0.6176925 -0.71486586 0.7774725 -0.105678886 -0.14984608 -0.5769802 -0.024956336 0.30123466 -0.53200144 0.048115615 -0.048670657 0.1827259 -0.17488676 0.30515197 -0.04640414 -0.09615296 0.25043437
colocar 0.3359497 0.055122536 -0.55247086 -0.56456804 -0.013080395 -0.009507312 0.0636305 0.3245042 0.1752055 0.2938022 -0.06781902 0.043427296 0.20562883 0.5626116 -0.67799777 0.75570226 -0.068535626 -0.15209416 -0.6437893 -0.009869892 0.28518185 -0.48765448 0.0320627 -0.0024410652 0.1875876 -0.13986187 0.26486897 -0.0906152 -0.06684218 0.2387575
reclamo 0.38703263 0.003535335 -0.5655214 -0.62532485 -0.008742028 0.09312366 0.042109787 0.36506453 0.21137415 0.2678626 -0.079790965 0.07111674 0.19888595 0.6084033 -0.7685163 0.7899478 -0.07326898 -0.16834284 -0.6120142 -0.010014163 0.33267424 -0.592469 0.022946492 -0.060209468 0.18364403 -0.18418998 0.34845787 -0.0879314 -0.10951628 0.22963935
busca 0.39971146 0.037754536 -0.57848316 -0.6238583 -0.0012464114 0.05070523 0.072896644 0.36541036 0.20634551 0.30707055 -0.048094045 0.0092038475 0.23144068 0.63225937 -0.7721656 0.804682 -0.06508242 -0.18098137 -0.6224425 -0.0010621955 0.33290312 -0.56603074 0.037922386 -0.019188689 0.21680519 -0.16283764 0.3379168 -0.028861996 -0.12646534 0.23592608
vuelve 0.39435878 0.058506653 -0.56888866 -0.58744353 0.0393565 0.07824806 0.046464484 0.3849772 0.2301961 0.2744585 -0.035694238 -0.0077399234 0.25093612 0.6106502 -0.7189139 0.77905786 -0.12060003 -0.16664052 -0.63375175 0.047811173 0.33416668 -0.54949695 0.061380032 -0.021649892 0.20418203 -0.15215106 0.3260096 -0.04595292 -0.1340853 0.26007664
encuentro 0.3383538 0.055009197 -0.562791 -0.60441977 0.046349727 0.010869226 0.07799227 0.38337094 0.17200325 0.32092294 -0.07439861 0.03194668 0.18128403 0.6154246 -0.7220403 0.74739367 -0.09011303 -0.18547015 -0.61154085 0.02172843 0.33217147 -0.53772897 0.048017174 8.293646e-06 0.16520561 -0.13877532 0.30946052 -0.046084296 -0.08831538 0.24179378
debia 0.34266266 0.03337783 -0.53612065 -0.6433963 -0.012934985 0.073434874 0.043165546 0.4045624 0.18737729 0.25682268 -0.037655648 0.03246814 0.21670508 0.6116937 -0.7454516 0.7665799 -0.090308346 -0.17676666 -0.625841 0.0142119005 0.30168325 -0.54011166 0.07073321 -0.03369616 0.20690438 -0.17028758 0.32262447 -0.09494154 -0.09416117 0.24244238
senorito 0.34775755 0.06347924 -0.5781588 -0.66009617 0.019820118 0.023441587 0.06602944 0.30536127 0.20413068 0.27191713 -0.022737224 0.08049325 0.21278726 0.6352437 -0.796094 0.77429944 -0.12343045 -0.11153944 -0.6633819 0.005436571 0.31175187 -0.5524454 -0.016585387 0.014998253 0.22576794 -0.13686086 0.34729686 -0.077065 -0.16731568 0.21843731
pasada 0.3312096 0.0074720955 -0.55371225 -0.5935621 0.020068051 0.050317682 0.07114198 0.3388454 0.18514098 0.27101144 -0.046920665 0.024729356 0.16749969 0.62435204 -0.73923457 0.76380414 -0.080276474 -0.17188758 -0.57955945 -0.020948261 0.3119698 -0.53494364 0.054036558 -0.07173376 0.2477693 -0.16480117 0.32726118 -0.054789133 -0.122860834 0.25083587
puse 0.3231447 0.047280487 -0.5738724 -0.58558446 0.0289401 0.02360031 0.042272247 0.38033837 0.17839622 0.32835892 -0.036874026 0.009319043 0.15769483 0.61658245 -0.71645546 0.7517632 -0.07593067 -0.15548731 -0.6360876 -0.011850547 0.2972591 -0.49389172 0.014107375 -0.030409591 0.21872054 -0.13517773 0.29118806 -0.056151357 -0.067510284 0.21109359
minimo 0.27071738 0.034053717 -0.51998854 -0.6601064 -0.027159652 0.016409526 -0.032077245 0.43666828 0.22309971 0.28907806 0.004990491 -0.019873332 0.26826173 0.62850827 -0.70782083 0.69099975 -0.09876613 -0.19274835 -0.6115254 -0.039155014 0.3403523 -0.53800523 0.040448565 -0.07087379 0.20350386 -0.10273205 0.24389023 -0.15351008 -0.08726973 0.20870292
generar 0.377596 0.059629805 -0.5893622 -0.5886199 0.013257008 -0.002998657 0.03410133 0.38371518 0.17220956 0.33126894 -0.033759322 0.02426344 0.18264125 0.5845539 -0.704087 0.7845215 -0.07402084 -0.1881831 -0.6365928 -0.022127712 0.33006027 -0.53604144 0.056483295 -0.041651104 0.20912084 -0.14903438 0.28389496 -0.08403521 -0.09205524 0.25979123
lleve 0.3762833 0.017497256 -0.54452425 -0.5974499 0.031554267 0.06214119 0.06427636 0.38751662 0.21377687 0.27148554 -0.055197634 0.049386542 0.20061202 0.58761185 -0.71174335 0.76250416 -0.056519236 -0.21194346 -0.587662 0.03298195 0.28832036 -0.57435936 0.053606328 -0.04350201 0.21717829 -0.17598696 0.33547062 -0.057006884 -0.14830439 0.25261474
explico 0.40790334 0.05078307 -0.5790414 -0.59956455 0.030738516 0.04576329 0.073752336 0.38686442 0.16964234 0.29563096 -0.06810467 0.009602895 0.2263304 0.5911107 -0.7236442 0.77057785 -0.07914281 -0.14753291 -0.571626 -0.003975489 0.31946617 -0.53702295 0.03425154 -0.04284949 0.2043902 -0.17251387 0.31164658 -0.035137035 -0.07644325 0.21305637
buscar 0.35053962 0.087760516 -0.5702507 -0.5666489 0.0053047035 0.01335039 0.056730736 0.38811624 0.20370427 0.31509653 -0.082480446 0.022096992 0.18165393 0.5711859 -0.723079 0.8057517 -0.08785664 -0.18480307 -0.5900671 0.010076386 0.28392908 -0.54276526 0.045334145 0.010793088 0.20872913 -0.15925299 0.26028788 -0.0619192 -0.07062077 0.23395233
vuelta 0.35693413 0.014803988 -0.53322047 -0.60795873 0.03515011 0.031880688 0.023749674 0.3665089 0.18246232 0.30047625 -0.046769038 0.019420758 0.16962047 0.5966127 -0.7271754 0.78729033 -0.10612007 -0.1625294 -0.6072407 0.01539063 0.29656732 -0.55249214 0.057680875 -0.045915943 0.19558859 -0.16242068 0.2823619 -0.07735873 -0.09764861 0.23758341
autogestion 0.32002997 0.08524263 -0.5475917 -0.54283774 0.021213494 0.0041955737 0.009622329 0.3872486 0.13114034 0.34089404 -0.06843101 0.0072371974 0.17853826 0.5901887 -0.693668 0.7866187 -0.06722965 -0.15262404 -0.6061899 -0.008409468 0.25689018 -0.48638257 0.071101494 -0.013827421 0.20081587 -0.17223282 0.27305084 -0.030694233 -0.08645699 0.23150721
disculpa 0.3219335 0.025373442 -0.55721825 -0.58571154 -0.0034361428 0.04740995 0.027478382 0.3479147 0.1906299 0.30413917 -0.01425432 0.006192735 0.20667177 0.58095574 -0.7103234 0.7796876 -0.05064713 -0.20018516 -0.621744 -0.014875508 0.27719635 -0.5087856 0.020782806 -0.04887412 0.2071764 -0.18315893 0.274885 -0.042488236 -0.06981438 0.24434078
jefe 0.33683378 0.07875836 -0.5560019 -0.6074659 -0.004718007 0.017083202 0.046619035 0.38730058 0.18221614 0.30463612 -0.050376225 0.009164373 0.18890913 0.59884596 -0.7428808 0.7919171 -0.06998744 -0.19071268 -0.6245631 0.023327854 0.29869574 -0.5181064 0.0393818 -0.086797215 0.2462557 -0.15427169 0.34439012 -0.101783656 -0.10614451 0.2026149
perdio 0.35729134 0.03632425 -0.5720587 -0.62012833 -0.026983308 0.06502715 0.0528631 0.3674555 0.19655563 0.2995985 -0.032533277 0.023128996 0.1752361 0.6128032 -0.7282558 0.8306969 -0.10388069 -0.13301274 -0.61450744 -0.040575758 0.29457423 -0.56483895 0.046221267 -0.03802356 0.23873399 -0.1750582 0.3391739 -0.069301344 -0.08455701 0.22480977
interes 0.34864113 0.02404535 -0.54285854 -0.58015335 0.036869187 0.03306187 0.055882286 0.37357298 0.21210529 0.26886022 -0.053292993 0.05584896 0.19209723 0.6135245 -0.7194371 0.7556279 -0.08580411 -0.18145329 -0.6415991 -0.0010460571 0.3149346 -0.54155207 0.031351507 -0.02057468 0.23002267 -0.17263219 0.32943225 -0.050032295 -0.11022601 0.24349357
sirve 0.35528794 0.04783104 -0.58638227 -0.5988715 -0.005226887 0.0362628 0.021248084 0.33596283 0.19220735 0.2539187 -0.07704806 0.026758615 0.16992852 0.6258984 -0.7158083 0.7722564 -0.05285383 -0.13377655 -0.62038314 0.015038936 0.29668507 -0.54351246 0.056273207 -0.07200549 0.19364712 -0.20674723 0.2602887 -0.074050814 -0.11609834 0.22562927
cancion 0.38477048 0.09438871 -0.5374687 -0.6092113 -0.01749644 -0.0015935777 0.037700385 0.39022094 0.2006075 0.30435613 -0.08805046 0.008086706 0.13792433 0.590816 -0.73619074 0.78359896 -0.084006555 -0.16577436 -0.62744886 0.019557482 0.30534738 -0.5800851 0.04486249 -0.0235259 0.19424038 -0.1737016 0.29605654 -0.06602206 -0.08782855 0.25222826
descuento 0.397963 0.0022176912 -0.57191336 -0.57772934 0.06625394 0.07397322 0.0074065616 0.35893393 0.19958825 0.28873998 -0.030117912 0.012508129 0.22256404 0.59403443 -0.74422157 0.78728426 -0.08568552 -0.17621714 -0.54883814 -0.05050204 0.32149088 -0.5877401 -0.005125784 -0.04865912 0.24830617 -0.13221104 0.32681438 -0.08770549 -0.1254786 0.25703183
compartir 0.34209824 0.057832558 -0.5585545 -0.6083942 0.0067810854 0.017888902 0.05888468 0.36157462 0.17546755 0.30024445 -0.05765989 0.024462251 0.18024023 0.59633833 -0.67290825 0.78473866 -0.082847156 -0.16038504 -0.62057865 0.027974661 0.2703098 -0.5536941 0.049027123 -0.042885702 0.19106005 -0.1690756 0.31419894 -0.043737218 -0.109401226 0.21618673
existe 0.39504597 0.059253518 -0.60074514 -0.60754967 0.01582417 0.056527667 0.04053533 0.39191923 0.17600249 0.31213796 -0.08889386 0.040339835 0.17807083 0.5761308 -0.72482175 0.812301 -0.07651774 -0.15532951 -0.62944525 -0.0061640376 0.30208835 -0.5495094 0.055571478 -0.054421403 0.17564853 -0.15335682 0.3008377 -0.07165046 -0.09060657 0.2627551
dejo 0.38501453 0.0439706 -0.5569563 -0.5871138 0.005215074 0.0221325 0.03853859 0.36753157 0.17459002 0.27474347 -0.0573081 0.030077737 0.20131485 0.6393861 -0.71587634 0.7660943 -0.071007356 -0.18443154 -0.59365946 0.018466702 0.3145271 -0.53699845 0.03306713 -0.05342823 0.19948643 -0.17332745 0.29701304 -0.046481453 -0.08381424 0.24553542
podido 0.38352814 0.049069185 -0.552421 -0.56357783 0.0140352715 0.0012584896 0.05525249 0.37895155 0.19654629 0.27035075 -0.049602084 0.051472954 0.21003768 0.5644969 -0.69028264 0.7870828 -0.05237539 -0.18309467 -0.57449263 0.020160872 0.3136527 -0.49953467 0.04072314 -0.017121295 0.22832462 -0.12880011 0.30008912 -0.049483526 -0.0785639 0.228428
solucion 0.3543429 0.07617322 -0.53767467 -0.6100967 0.04795127 0.05472488 0.042634986 0.4165081 0.17706807 0.29977846 -0.026074385 0.06531659 0.2047816 0.6253448 -0.7356759 0.7965807 -0.10725759 -0.17986037 -0.62446195 0.009368954 0.29248327 -0.53247136 0.04246248 -0.0017225977 0.22120747 -0.19790393 0.36669925 -0.07137149 -0.11861275 0.21803752
compro 0.37450296 0.060211293 -0.5642813 -0.6261369 0.014338153 0.04326958 0.019228391 0.40054727 0.18937662 0.28509498 -0.026993206 0.05740914 0.19071029 0.6077744 -0.7272458 0.7898474 -0.08450729 -0.15946949 -0.6247021 -0.033604193 0.3355545 -0.5314423 0.027501011 0.002167397 0.20144051 -0.15376332 0.29313925 -0.06574763 -0.12543395 0.19366714
digame 0.40082496 0.0014079504 -0.6038968 -0.572714 0.06407416 0.080353506 0.09862842 0.33287224 0.18299568 0.27020907 -0.07855322 0.05097721 0.24477229 0.5843936 -0.77746826 0.8150619 -0.058835503 -0.13572672 -0.57133895 -0.050571527 0.35789078 -0.55897105 0.020453209 0.001010822 0.24133086 -0.16000421 0.35210595 -0.03439195 -0.09998493 0.20546679
realidad 0.38879922 0.013038644 -0.5552493 -0.6432383 0.0417687 0.06636153 0.062425077 0.36137772 0.17614706 0.26869893 -0.045611452 0.026746145 0.19542786 0.6129111 -0.7524929 0.8038531 -0.08180626 -0.16453412 -0.60472935 -0.012779156 0.33889845 -0.5657222 0.03863648 -0.005148814 0.20001732 -0.17915596 0.35613602 -0.05065261 -0.0992103 0.22100385
colaborador 0.3257509 0.018520769 -0.55850506 -0.5788085 0.023081675 0.03288348 0.048670895 0.3656903 0.18755642 0.30112156 -0.06562534 0.024130786 0.20956168 0.57859236 -0.7119053 0.7282608 -0.063467436 -0.1870039 -0.58929926 0.0029753759 0.31230515 -0.54565704 0.026381297 -0.049750984 0.17337205 -0.15037352 0.3098544 -0.08173292 -0.11612562 0.22712843
peticion 0.35817555 0.02325164 -0.57029563 -0.6168821 0.011361108 0.07133155 0.042355392 0.3523013 0.21513009 0.2792291 -0.079752706 0.008714315 0.15392056 0.5961231 -0.7098592 0.8132108 -0.12593862 -0.14123198 -0.6386542 -0.008671881 0.3031687 -0.5733786 0.00551832 -0.0269949 0.19928513 -0.19147038 0.30358768 -0.037882302 -0.09227129 0.23926736
anteriores 0.34709424 -0.032940455 -0.57217157 -0.57788 0.04275864 0.03943588 0.07635913 0.37529302 0.21714841 0.24952683 -0.07027912 0.018526923 0.19922279 0.59433746 -0.7402725 0.7815654 -0.08269146 -0.17234956 -0.583358 -0.04249776 0.32542002 -0.51533675 0.022444641 -0.023209497 0.21715951 -0.14288102 0.3249958 -0.07020125 -0.07354361 0.22291173
lineas 0.352104 0.046538014 -0.5877851 -0.5844873 -0.0018621392 0.07459013 0.045313034 0.3705951 0.20514846 0.2794532 -0.06774782 0.03477488 0.18023159 0.6305109 -0.718958 0.7765907 -0.10642347 -0.16537002 -0.6058147 0.03299732 0.31456178 -0.5248922 0.038675576 -0.04461117 0.20164344 -0.1770118 0.348465 -0.034712706 -0.09128775 0.21633646
trato 0.37745985 0.055975933 -0.58479494 -0.57862073 -0.0020265714 0.02447368 0.06144084 0.38858652 0.20005119 0.2628606 -0.05503252 0.043711904 0.19224049 0.5699056 -0.7227139 0.775869 -0.09335245 -0.17273255 -0.5712544 -0.0042692786 0.31898597 -0.5647824 0.04763987 -0.056423843 0.22115509 -0.14483006 0.30912668 -0.04492686 -0.10597455 0.25400886
