442 30
vivienda -0.22682922 -0.13101156 -0.6014757 0.11529121 -0.41927236 0.62476087 -0.8459907 0.26726392 0.65322304 -0.052897107 0.1103916 -0.35103858 -0.06926863 -0.11765174 0.22533017 0.23545365 0.1833849 0.19769649 -0.12830798 0.0726874 -0.49543986 -0.15143257 -0.23727815 -0.3325579 -0.44330302 -0.13773333 -0.11532583 0.14672023 0.1642985 0.38480374
subsidio -0.23253462 -0.16548945 -0.5977318 0.08952012 -0.42141587 0.6213405 -0.86303234 0.29511034 0.63167435 -0.081247464 0.107677646 -0.34134406 -0.07944687 -0.10805326 0.24396047 0.22736564 0.15916426 0.20359503 -0.12771752 0.10023343 -0.4824199 -0.13515086 -0.25593176 -0.33903757 -0.46931976 -0.14282866 -0.13023543 0.13862069 0.13971315 0.41025448
postular -0.2038927 -0.17728196 -0.60999006 0.12839852 -0.43035498 0.61395407 -0.8136652 0.26484415 0.6708341 -0.07854641 0.070491605 -0.3319188 -0.03981194 -0.13506345 0.23069133 0.21375929 0.17706408 0.23383276 -0.12291624 0.07057289 -0.5062351 -0.13145475 -0.2758411 -0.36273083 -0.46474522 -0.14308184 -0.10592704 0.16093847 0.15697846 0.39353946
compensacion -0.22872776 -0.15241008 -0.59143215 0.10490213 -0.45236954 0.61507 -0.8594026 0.2948846 0.6517821 -0.04885362 0.120936565 -0.34256592 -0.079096705 -0.10534743 0.2377797 0.22091836 0.14785741 0.24615002 -0.14680089 0.102496706 -0.49753225 -0.13532123 -0.24250282 -0.3702203 -0.45158863 -0.11993104 -0.1209753 0.15131572 0.14048918 0.39898264
informacion -0.20622079 -0.16741359 -0.6053955 0.10321471 -0.4399046 0.6123522 -0.85841763 0.30401504 0.69496983 -0.083428115 0.106562376 -0.34973192 -0.047080036 -0.15264794 0.22440144 0.2161802 0.16930859 0.20583986 -0.13805726 0.058899615 -0.50879544 -0.16603103 -0.23775129 -0.36106408 -0.49573377 -0.11967864 -0.109861426 0.1616151 0.16491424 0.4090084
proyecto -0.2257891 -0.15789646 -0.6287705 0.0874211 -0.44180644 0.60186994 -0.8488991 0.3031459 0.6615646 -0.06777379 0.08053273 -0.33796978 -0.09214112 -0.09732234 0.24961954 0.23655346 0.18428297 0.22078757 -0.09462316 0.07269275 -0.51129484 -0.16397728 -0.25112402 -0.36812383 -0.482274 -0.10884104 -0.13644116 0.14395538 0.1491532 0.4109576
pagina -0.20775759 -0.17160088 -0.6159498 0.14161824 -0.4308842 0.57476586 -0.83807325 0.26393294 0.67570984 -0.083182536 0.104274265 -0.33510357 -0.049545147 -0.15651394 0.2369344 0.21846628 0.1621519 0.20751974 -0.11874191 0.106584944 -0.52452207 -0.13342004 -0.28330523 -0.3190482 -0.47477564 -0.11798372 -0.11127301 0.16702168 0.16279665 0.378289
credito -0.24117252 -0.17666262 -0.5933693 0.11458399 -0.4505263 0.6004864 -0.8526666 0.3106768 0.6571787 -0.051655386 0.106538214 -0.33578584 -0.08641162 -0.103452235 0.22460271 0.23849232 0.17991614 0.24248572 -0.080411494 0.08965059 -0.48334447 -0.16823867 -0.24508084 -0.3246992 -0.44964188 -0.1386823 -0.12347007 0.116886966 0.17146039 0.3972782
proceso -0.23047577 -0.14003669 -0.594526 0.11955514 -0.42383578 0.5979508 -0.839993 0.26711023 0.64433956 -0.087089166 0.11600131 -0.3186823 -0.048329443 -0.1383738 0.2474237 0.21807633 0.17451765 0.20884658 -0.1357293 0.07372916 -0.5194272 -0.16041847 -0.27053398 -0.3464155 -0.46256307 -0.14513348 -0.08976667 0.16336365 0.1338669 0.39704266
certificado -0.2124234 -0.19724749 -0.626884 0.103896655 -0.45161507 0.6237756 -0.83289635 0.2813163 0.69227487 -0.075771116 0.09997006 -0.32162 -0.047765423 -0.087738186 0.22672427 0.25411752 0.1645218 0.24996924 -0.108777545 0.113072254 -0.5271256 -0.13216338 -0.27093852 -0.33296356 -0.46304625 -0.15054539 -0.12682155 0.1401565 0.13941579 0.3982848
formulario -0.19583637 -0.16336192 -0.592029 0.15264958 -0.43422544 0.62805134 -0.85223204 0.2595193 0.6607667 -0.09134099 0.10633268 -0.2954953 -0.04583186 -0.13338721 0.24702582 0.2244271 0.16840856 0.25267866 -0.11461379 0.068077706 -0.476041 -0.14859436 -0.27464595 -0.32731393 -0.48688447 -0.13112636 -0.11059372 0.14581606 0.142001 0.37054703
ejemplo -0.22963484 -0.1582125 -0.59914213 0.1121036 -0.44093126 0.6114648 -0.85879767 0.27033576 0.6526852 -0.056245293 0.11816368 -0.33485427 -0.06142941 -0.11389284 0.2465593 0.23832431 0.16718255 0.25264585 -0.10696362 0.07695572 -0.4754479 -0.16554481 -0.27177313 -0.3536843 -0.45901322 -0.12437414 -0.10407587 0.105437264 0.17250273 0.420964
requisitos -0.21522196 -0.17498831 -0.6239517 0.11390879 -0.43594727 0.60621244 -0.85195893 0.2988451 0.67486787 -0.08495239 0.08557911 -0.33694044 -0.052147496 -0.15101576 0.24728265 0.23117709 0.1730273 0.23078576 -0.12716028 0.059142314 -0.49498594 -0.16641665 -0.23695084 -0.36388588 -0.46030223 -0.13328826 -0.105857775 0.15176965 0.17625871 0.3982355
pagar -0.2067664 -0.16735627 -0.6327317 0.11205775 -0.43582067 0.6058897 -0.8161589 0.28909868 0.6374603 -0.05821243 0.09901128 -0.3051415 -0.0674691 -0.10432224 0.20959556 0.21413691 0.17266773 0.27000785 -0.084399 0.078065395 -0.5186068 -0.14182578 -0.26126125 -0.3487371 -0.47062382 -0.14321353 -0.12117655 0.1175139 0.14720194 0.4113847
ahorro -0.21483032 -0.18610747 -0.62734324 0.10987222 -0.45555297 0.6207518 -0.8630378 0.29927376 0.666728 -0.07340427 0.107451476 -0.3056054 -0.054461375 -0.085241295 0.24420121 0.2485537 0.14433482 0.26377413 -0.09889787 0.105228916 -0.5080497 -0.14222878 -0.26780215 -0.3412544 -0.46355644 -0.13704948 -0.1337674 0.13464084 0.15028532 0.3848254
necesito -0.21122722 -0.15382685 -0.62533605 0.093970895 -0.43317175 0.608677 -0.8204522 0.27954674 0.6672847 -0.08338039 0.08253888 -0.3453907 -0.03165848 -0.13042921 0.22598048 0.23882778 0.17632526 0.22248688 -0.14563021 0.07038899 -0.5278004 -0.14807698 -0.26322323 -0.35677806 -0.47507218 -0.15255918 -0.106307626 0.13733797 0.15708019 0.38641053
concurrencia -0.21022907 -0.1358926 -0.5967146 0.14481926 -0.45867056 0.6414551 -0.8523569 0.2958474 0.6625255 -0.056812443 0.13853961 -0.3512522 -0.084718674 -0.092946865 0.24884461 0.22478251 0.13258384 0.22757924 -0.12441151 0.0925129 -0.5331632 -0.12612167 -0.22960526 -0.3779098 -0.4750973 -0.09762689 -0.11872532 0.12656003 0.15988962 0.3600027
pasado -0.19395523 -0.1661104 -0.636464 0.093563326 -0.3987056 0.5941076 -0.8098295 0.27355003 0.6852172 -0.08637765 0.07317678 -0.30752194 -0.0550268 -0.11772002 0.20598142 0.20492843 0.1710715 0.2253126 -0.09627005 0.07722427 -0.5180727 -0.16889128 -0.2581798 -0.3755648 -0.4994908 -0.14842801 -0.09351645 0.17221285 0.11384162 0.41702378
cesantias -0.21653648 -0.17069861 -0.63671076 0.108746104 -0.46726733 0.6093082 -0.81719285 0.30274856 0.67472386 -0.079451226 0.08817806 -0.3291415 -0.051886138 -0.107426316 0.23362273 0.24187106 0.17452492 0.26111677 -0.1210443 0.10392562 -0.52156115 -0.15031345 -0.25977373 -0.3568602 -0.46572953 -0.1379115 -0.099968836 0.16838264 0.18504025 0.40328917
ahorros -0.19360496 -0.17146009 -0.6303423 0.12576069 -0.46824533 0.62236166 -0.8334018 0.27085936 0.65433365 -0.050352477 0.11965378 -0.31615648 -0.053528648 -0.09017871 0.21965921 0.2566943 0.16732174 0.240478 -0.1268748 0.10715184 -0.49901164 -0.12808813 -0.27068496 -0.33585227 -0.45837757 -0.12484874 -0.10901624 0.15247895 0.16891645 0.39159018
aprobado -0.20551015 -0.17469575 -0.62364405 0.09693452 -0.44124308 0.62501425 -0.83032095 0.2828944 0.653092 -0.06957078 0.087992646 -0.35129791 -0.06580411 -0.13300793 0.21985385 0.23025261 0.15140752 0.24055177 -0.105080076 0.066977285 -0.5234744 -0.13757694 -0.25967264 -0.37434715 -0.4833208 -0.120245636 -0.10869696 0.12807442 0.16704547 0.38536417
aplicar -0.22019173 -0.14673008 -0.611346 0.13246112 -0.4551744 0.63547623 -0.86589915 0.27887228 0.6353187 -0.07250286 0.13558829 -0.378157 -0.052606735 -0.11295511 0.2518198 0.24914517 0.1424671 0.22811809 -0.16246854 0.0809011 -0.5236676 -0.14930435 -0.25167805 -0.37414354 -0.48036847 -0.10523048 -0.09312377 0.16153851 0.18263486 0.37765864
datos -0.21297008 -0.17768574 -0.5978246 0.1394455 -0.4463515 0.630546 -0.8517891 0.26392105 0.7056282 -0.08191955 0.09853305 -0.33013874 -0.033778597 -0.1467785 0.23533073 0.23090032 0.15266524 0.2527365 -0.12802519 0.08212463 -0.50792724 -0.16033722 -0.2517001 -0.373107 -0.5009076 -0.15667467 -0.093252145 0.16177854 0.14283054 0.38395917
llevar -0.22574666 -0.1591871 -0.6116974 0.111182645 -0.43043333 0.61323136 -0.8253206 0.29627606 0.6872387 -0.096504465 0.10174178 -0.3266228 -0.060044207 -0.12683521 0.22621523 0.20052165 0.16367833 0.21202934 -0.109785296 0.06425439 -0.51589674 -0.13361865 -0.26761618 -0.34974027 -0.47437066 -0.13041316 -0.12602682 0.14210448 0.16516635 0.41124803
haciendo -0.20860238 -0.14961739 -0.6113853 0.10687994 -0.44718587 0.62803096 -0.8527355 0.26930043 0.66493267 -0.08861924 0.10917678 -0.32908607 -0.058232054 -0.14371976 0.21783248 0.20786338 0.17332284 0.24394463 -0.12205402 0.083349414 -0.5243311 -0.13729253 -0.26371124 -0.35473692 -0.48732275 -0.12098474 -0.08598928 0.16488633 0.15037274 0.37624156
personas -0.2462184 -0.16171603 -0.59477603 0.13833295 -0.44001612 0.64581144 -0.8733434 0.29659075 0.6943225 -0.08732747 0.12612171 -0.35227552 -0.03596681 -0.15600678 0.23719922 0.24064061 0.15405044 0.2317442 -0.14476685 0.07781881 -0.5147954 -0.16897647 -0.25930464 -0.37406382 -0.46563813 -0.13887285 -0.104638845 0.13679941 0.14971459 0.41083458
queda -0.21134138 -0.18369952 -0.60563046 0.09588997 -0.43058136 0.61061186 -0.8648211 0.2818752 0.6628103 -0.092180625 0.119963355 -0.3438819 -0.046619095 -0.14861925 0.25920418 0.24726665 0.15629423 0.22888371 -0.12029946 0.06582144 -0.51409596 -0.16373916 -0.24646263 -0.3547253 -0.50039333 -0.10950983 -0.09984203 0.14387895 0.16421105 0.40790585
averiguar -0.23962702 -0.14122315 -0.6019241 0.11460339 -0.43449077 0.6128493 -0.84178 0.26261115 0.6644614 -0.100348264 0.10864464 -0.34023136 -0.04449582 -0.15696245 0.22858855 0.24312279 0.17431673 0.24565507 -0.14072292 0.05414683 -0.5155567 -0.13974549 -0.25570217 -0.35409388 -0.47791678 -0.13198373 -0.07688092 0.16791151 0.1668777 0.41785145
familiar -0.23625612 -0.14620787 -0.591576 0.08036136 -0.412575 0.59333265 -0.86573154 0.27340496 0.6682773 -0.06623107 0.1172234 -0.32487196 -0.04037305 -0.12872371 0.22633718 0.2416738 0.19410801 0.22220142 -0.12238873 0.10143489 -0.47494993 -0.15093921 -0.26319042 -0.3615229 -0.4534745 -0.13385735 -0.11384801 0.11794552 0.17324054 0.39982674
documentacion -0.20342271 -0.18219905 -0.6217916 0.11785554 -0.42794552 0.59326977 -0.8456425 0.2942109 0.70072937 -0.104946345 0.11120551 -0.3160873 -0.048135348 -0.14061023 0.25167182 0.22041096 0.17920148 0.23011503 -0.14277714 0.09269174 -0.51525015 -0.12717238 -0.26619524 -0.3495727 -0.4752239 -0.15033704 -0.12165089 0.15472604 0.12622656 0.42322814
cuota -0.18826042 -0.15061171 -0.6292756 0.11464516 -0.45441613 0.59650415 -0.8381436 0.28429368 0.6610081 -0.051853552 0.08490823 -0.30293494 -0.09825951 -0.08285248 0.22369304 0.24154253 0.1689566 0.2508599 -0.10202402 0.07782334 -0.47439936 -0.14798379 -0.26507884 -0.3416703 -0.47008586 -0.12748313 -0.13583055 0.13860649 0.16399357 0.4126936
solicitarr -0.21338122 -0.16245994 -0.6136763 0.11541207 -0.4296826 0.60332906 -0.8559821 0.27593806 0.6643341 -0.09851224 0.10181815 -0.33472735 -0.047472864 -0.127696 0.23533425 0.20819913 0.15287054 0.24008606 -0.14149834 0.078449726 -0.4985296 -0.16308415 -0.2544406 -0.35946375 -0.4604479 -0.14705767 -0.11522463 0.15833275 0.14841886 0.37736416
opcion -0.22419164 -0.16316807 -0.58342 0.11489912 -0.43017483 0.61429954 -0.81089234 0.26112163 0.66689575 -0.09990675 0.11357512 -0.34041166 -0.03559213 -0.14169334 0.24799585 0.19782214 0.17619249 0.21823314 -0.11983788 0.09464701 -0.5159994 -0.14391723 -0.24688932 -0.3582809 -0.4580684 -0.1448349 -0.11300708 0.1480322 0.14917868 0.38894975
laboral -0.2015486 -0.18782188 -0.61973494 0.12916368 -0.43082693 0.61223835 -0.8224169 0.29076597 0.6621475 -0.07441373 0.099693984 -0.31782448 -0.058979943 -0.12475516 0.22513443 0.21000706 0.16477421 0.2297597 -0.11219005 0.07071243 -0.50690204 -0.12991782 -0.27564314 -0.35502532 -0.49835896 -0.123886414 -0.093372785 0.14891544 0.17344329 0.38729247
pueda -0.2158054 -0.16155016 -0.6216378 0.115823954 -0.45349476 0.6292512 -0.86111695 0.29682717 0.6595513 -0.105314866 0.1152936 -0.34585044 -0.06644557 -0.1295859 0.24792497 0.22423361 0.16701962 0.23374651 -0.14715981 0.09197275 -0.52958626 -0.1661406 -0.26083216 -0.34911025 -0.4482309 -0.11510596 -0.09770847 0.16507125 0.17534606 0.38503805
fondo -0.19794327 -0.1885782 -0.6087152 0.104148075 -0.46859708 0.62144446 -0.85725224 0.26626304 0.712629 -0.06597547 0.120237075 -0.32536817 -0.05943744 -0.10621034 0.2345808 0.23652838 0.17686456 0.25700155 -0.13086876 0.09848088 -0.5094345 -0.15265366 -0.27952352 -0.38086143 -0.4655321 -0.12956986 -0.10596971 0.1677041 0.17446856 0.40888172
empresa -0.24580759 -0.15307087 -0.6067907 0.10445362 -0.43774572 0.6098697 -0.85379696 0.27681705 0.6555321 -0.09377423 0.102050185 -0.3319953 -0.049813475 -0.15237477 0.26731423 0.21254565 0.16990648 0.25542918 -0.1153236 0.090511486 -0.53236455 -0.13961993 -0.24150468 -0.37233633 -0.48411995 -0.13134366 -0.12504068 0.15206084 0.15678738 0.4169076
ahorro_programado -0.20659699 -0.15607652 -0.6113782 0.102499075 -0.44614592 0.6265746 -0.83013535 0.28810093 0.6889711 -0.05088094 0.09228761 -0.31554258 -0.047126625 -0.14343697 0.25867715 0.23477012 0.156145 0.24912342 -0.11925578 0.10545346 -0.51006085 -0.15067329 -0.27696902 -0.3488192 -0.48564744 -0.15209481 -0.08770146 0.13217308 0.16209307 0.41017288
podia -0.2214403 -0.18016008 -0.6012253 0.12495764 -0.4332536 0.6288122 -0.86027706 0.28271717 0.67596596 -0.08629879 0.097248524 -0.34296155 -0.032844145 -0.11536575 0.22651452 0.208576 0.1598504 0.23912019 -0.101732485 0.064425185 -0.52679306 -0.15398888 -0.26877588 -0.3418693 -0.476164 -0.11870071 -0.097813465 0.13655564 0.14116131 0.38756433
dicho -0.22607338 -0.14966515 -0.6277531 0.11159429 -0.41614664 0.6088252 -0.83294904 0.26053256 0.6842188 -0.055793412 0.103149034 -0.33440012 -0.05596514 -0.12540157 0.22714324 0.22175047 0.17821433 0.23259239 -0.12880394 0.0974458 -0.5076704 -0.15670717 -0.2594861 -0.35513994 -0.4794536 -0.15490411 -0.096606866 0.14740984 0.15934038 0.42843103
consulta -0.22813676 -0.16480678 -0.59246427 0.12326753 -0.4193296 0.5957674 -0.8449134 0.2874603 0.65205973 -0.091066346 0.12057927 -0.32351157 -0.051896952 -0.11768974 0.24668735 0.21331145 0.1521144 0.22211547 -0.11409458 0.09064859 -0.48548132 -0.12952867 -0.2513271 -0.36160126 -0.46588853 -0.10842367 -0.10616075 0.14960912 0.15561631 0.37911043
aparece -0.23195104 -0.1488418 -0.604597 0.12686957 -0.4258441 0.63309693 -0.8463766 0.2931048 0.68713605 -0.07575983 0.10014755 -0.34280413 -0.06679846 -0.1258335 0.22514287 0.21625507 0.18171269 0.23463248 -0.13668725 0.08308017 -0.5059694 -0.15990134 -0.2490452 -0.3484913 -0.4766275 -0.118736975 -0.098734945 0.12965661 0.13840696 0.40190768
cesantia -0.21402487 -0.16899015 -0.6359834 0.104897015 -0.46680367 0.59364724 -0.82971203 0.28460044 0.66972804 -0.06757816 0.099803835 -0.35746574 -0.05402184 -0.09311649 0.21335688 0.24662517 0.17997721 0.24097018 -0.13745122 0.112825274 -0.53651583 -0.14207047 -0.27019796 -0.34083563 -0.45649046 -0.16512917 -0.09316606 0.14224772 0.15576953 0.41096038
pregunto -0.24132065 -0.14195491 -0.6070507 0.10304289 -0.45097032 0.6392222 -0.8549729 0.29278785 0.68392116 -0.06993161 0.101469256 -0.34938517 -0.047040887 -0.13819927 0.2619738 0.21171555 0.16813752 0.2222769 -0.10594978 0.07857456 -0.49968693 -0.15375678 -0.27238554 -0.36935768 -0.4770508 -0.121507145 -0.0870375 0.13904165 0.14354604 0.38931358
consultora -0.1866468 -0.16974404 -0.6097855 0.08993017 -0.43097183 0.60456866 -0.8188826 0.28908485 0.644713 -0.06772946 0.100830704 -0.34002236 -0.0734265 -0.09898233 0.23634017 0.24586259 0.1765882 0.25967082 -0.11277194 0.08567418 -0.4938952 -0.1327726 -0.2446201 -0.3824547 -0.46113488 -0.15422294 -0.12073261 0.13830006 0.12782978 0.4143862
preguntar -0.22474611 -0.1501111 -0.6177425 0.114104286 -0.41444764 0.606695 -0.8569223 0.27283743 0.67562926 -0.08128005 0.11664883 -0.32931694 -0.047339365 -0.13897161 0.2497524 0.23182498 0.1698967 0.2315807 -0.12618719 0.08658113 -0.5048667 -0.15340346 -0.25820023 -0.3647958 -0.48310658 -0.13074474 -0.12013059 0.13033229 0.15447183 0.40986773
venga -0.23303816 -0.14344215 -0.61415136 0.09604576 -0.45405152 0.623188 -0.8701425 0.2724096 0.69024205 -0.06458641 0.10682303 -0.34561622 -0.06977306 -0.14511754 0.23860033 0.2388294 0.14725745 0.22683074 -0.10433061 0.07522094 -0.51223284 -0.15967023 -0.24598701 -0.36757272 -0.464809 -0.11739127 -0.10776459 0.14430818 0.15997075 0.38164303
enviar -0.2070478 -0.18600334 -0.624779 0.121670075 -0.43924576 0.6079689 -0.8626677 0.28037232 0.6948605 -0.10018571 0.10097045 -0.3253685 -0.050458398 -0.13086921 0.250862 0.23509417 0.15575762 0.23094638 -0.1357194 0.07563522 -0.5330092 -0.13769865 -0.2524367 -0.34815475 -0.47630316 -0.1215661 -0.098642804 0.14123036 0.14825039 0.40504277
pagando -0.22296897 -0.1525223 -0.591667 0.08960434 -0.41833773 0.61301965 -0.8241959 0.26998916 0.65813094 -0.046851385 0.09368713 -0.3195267 -0.08200947 -0.09498552 0.23774517 0.23317634 0.17217031 0.24277171 -0.12420765 0.07507057 -0.5047332 -0.1418381 -0.25999153 -0.36298433 -0.4579182 -0.14940795 -0.13022166 0.13716832 0.15742394 0.41153815
sencillo -0.22468576 -0.1575222 -0.617402 0.09680627 -0.42438602 0.6019964 -0.8389003 0.28052676 0.65979445 -0.06063434 0.08821929 -0.33106738 -0.06163158 -0.12716319 0.21693125 0.21721914 0.17785789 0.2131249 -0.123984374 0.09366484 -0.509632 -0.14309345 -0.23341753 -0.33997345 -0.4829569 -0.14464241 -0.12140182 0.13512653 0.134662 0.39928874
tramite -0.20881203 -0.1694721 -0.6080295 0.12716876 -0.43870738 0.6439095 -0.8591086 0.28259268 0.6621515 -0.08096238 0.108151905 -0.3565902 -0.05840973 -0.13761164 0.22517926 0.21146986 0.17646338 0.21401525 -0.13302766 0.10209542 -0.5069676 -0.15042357 -0.2612018 -0.3801119 -0.4763301 -0.12611994 -0.12864569 0.1357358 0.16069573 0.38535148
ciudad -0.24291906 -0.15228881 -0.6397869 0.113314204 -0.43793204 0.62176347 -0.84218025 0.2856427 0.68773705 -0.077176705 0.114121325 -0.34240478 -0.05018646 -0.12415032 0.23194437 0.21274075 0.16962293 0.22252437 -0.13323307 0.09418348 -0.5183537 -0.15657261 -0.24812126 -0.35991624 -0.4806411 -0.12145566 -0.10633163 0.13658156 0.17069092 0.42274806
apartamento -0.23574276 -0.16996753 -0.627158 0.09661457 -0.43655208 0.62500644 -0.8721756 0.29204178 0.65681964 -0.08702422 0.096307024 -0.3565232 -0.055244975 -0.15107943 0.23094304 0.22118476 0.18481918 0.2306902 -0.12883693 0.08944975 -0.52108616 -0.13163744 -0.27267882 -0.34762016 -0.48902336 -0.10714248 -0.1154636 0.13639516 0.1542366 0.42348278
momentico -0.19516209 -0.1565601 -0.6268751 0.1109467 -0.43421745 0.6137746 -0.8664458 0.2783468 0.6686835 -0.056124017 0.108749114 -0.31522238 -0.023437899 -0.119169615 0.24639714 0.2364934 0.16379982 0.24012074 -0.097892985 0.06979149 -0.5330721 -0.1433093 -0.264577 -0.35162693 -0.48551908 -0.14487395 -0.09316035 0.14472891 0.13292293 0.41583517
escucho -0.21380773 -0.16829208 -0.6113089 0.092629366 -0.39556342 0.6125219 -0.86359483 0.29671425 0.67299145 -0.09668583 0.067394525 -0.3120369 -0.03764075 -0.1444277 0.23961276 0.20225388 0.18353951 0.20717178 -0.13413534 0.092232704 -0.5111496 -0.1414834 -0.26592934 -0.38316885 -0.49498928 -0.12881188 -0.10198678 0.17489588 0.12834443 0.415779
electronico -0.22093205 -0.17979494 -0.5941268 0.096097246 -0.43240568 0.60396504 -0.85621333 0.29030687 0.67808646 -0.09586422 0.099225834 -0.32521498 -0.05693601 -0.13414009 0.23331457 0.22088905 0.15907918 0.23426178 -0.12266667 0.085369386 -0.5014032 -0.13990545 -0.24086529 -0.34559712 -0.49230316 -0.14691786 -0.09567388 0.15526083 0.13494521 0.39827704
problema -0.22180636 -0.15286462 -0.6102118 0.14638989 -0.43249407 0.6395119 -0.8598436 0.2718716 0.68096715 -0.082052305 0.1170948 -0.32582662 -0.07107282 -0.12792486 0.25873664 0.24240902 0.19504328 0.24511865 -0.1137122 0.11123109 -0.5316794 -0.16393314 -0.2584264 -0.34829694 -0.4534813 -0.1337641 -0.092838705 0.14121225 0.18099752 0.3836887
dije -0.22216544 -0.1628612 -0.63791734 0.1042986 -0.46768057 0.6268334 -0.88453215 0.30128008 0.71348214 -0.08463792 0.12322434 -0.34052464 -0.0819372 -0.13984264 0.23780333 0.22748135 0.16203332 0.25993648 -0.120857246 0.079417236 -0.51234573 -0.1658935 -0.27574018 -0.38050053 -0.49226817 -0.1371272 -0.112208545 0.13574024 0.15041158 0.39365417
afiliado_a -0.23449187 -0.15155546 -0.6192149 0.10062012 -0.4415064 0.5970075 -0.8531152 0.27167448 0.669551 -0.081073076 0.083487816 -0.32877773 -0.04954049 -0.13330114 0.25031587 0.23550831 0.17111547 0.22620042 -0.14024909 0.07202552 -0.5158288 -0.13481437 -0.25744668 -0.35269007 -0.45677394 -0.14252803 -0.10439518 0.14587666 0.1378743 0.41805187
envio -0.23213835 -0.17624204 -0.62221986 0.10809652 -0.43047178 0.6366759 -0.864975 0.2585993 0.666283 -0.08935815 0.1032219 -0.32861632 -0.032861672 -0.1553603 0.21727692 0.20538446 0.16023162 0.21752457 -0.13868678 0.07030364 -0.5144062 -0.16604272 -0.28109872 -0.34585974 -0.48487258 -0.13689762 -0.12140593 0.16271622 0.13987705 0.3891288
hacerlo -0.22299834 -0.156063 -0.62729204 0.11973597 -0.44480005 0.6015105 -0.86790705 0.27485093 0.68209654 -0.09200645 0.11620713 -0.3569551 -0.048989873 -0.13100626 0.2620689 0.22920017 0.16882235 0.25713828 -0.12314836 0.11065157 -0.5158551 -0.16683185 -0.2603534 -0.3652183 -0.47126156 -0.1341159 -0.106813215 0.16651519 0.15112479 0.39782012
credito_hipoteca -0.21766184 -0.17631924 -0.6312047 0.113921836 -0.42484802 0.6219134 -0.86078084 0.2982375 0.6623796 -0.0891084 0.11083652 -0.3362057 -0.05177683 -0.119456515 0.2519751 0.22704048 0.1721226 0.21602944 -0.11043146 0.082167 -0.4908183 -0.14273791 -0.26786196 -0.34049517 -0.48414263 -0.14310022 -0.12650427 0.12241024 0.17623653 0.40118024
ingresos -0.21363583 -0.15577962 -0.62667966 0.11082577 -0.4607123 0.6224501 -0.8660403 0.2848515 0.647409 -0.08114402 0.117274076 -0.356282 -0.060295984 -0.12500414 0.23977791 0.25278246 0.19023684 0.24618714 -0.09867497 0.10824081 -0.50314116 -0.14134009 -0.25586894 -0.32925555 -0.47061464 -0.15184961 -0.12435817 0.1203232 0.16568665 0.38591224
mensaje -0.19745988 -0.17918551 -0.5862693 0.12185584 -0.4615016 0.62855184 -0.87143254 0.29904023 0.68794227 -0.105115026 0.07708807 -0.31095135 -0.04902262 -0.12326026 0.24378242 0.22635156 0.14677893 0.24701908 -0.13824117 0.08087935 -0.5112931 -0.16023491 -0.24294534 -0.36893362 -0.48641858 -0.12902226 -0.09142212 0.18317977 0.1616022 0.39550233
aparte -0.23237391 -0.1474254 -0.62126535 0.102801315 -0.44946608 0.6217014 -0.8686705 0.27351245 0.6799786 -0.07241492 0.11850212 -0.35599977 -0.07978738 -0.14416473 0.24084833 0.21705872 0.18799011 0.24288303 -0.11409228 0.0946856 -0.53598577 -0.15033798 -0.2668642 -0.36030278 -0.48427057 -0.14687668 -0.13015059 0.13040942 0.16936493 0.39958164
total -0.26079386 -0.16339602 -0.62911564 0.11988509 -0.46903116 0.67290443 -0.88985825 0.30674112 0.7123264 -0.08439406 0.10521079 -0.32573035 -0.10224808 -0.07992283 0.24453357 0.22950976 0.15645601 0.25206 -0.09040758 0.10146738 -0.49207175 -0.15340354 -0.2928252 -0.31488025 -0.5087782 -0.1415394 -0.11973214 0.14812279 0.16407381 0.38772902
envie -0.22430538 -0.16026741 -0.62999374 0.13152689 -0.42458063 0.63737565 -0.874592 0.30137765 0.71533954 -0.10028424 0.10340425 -0.36972088 -0.01910652 -0.15904203 0.20963956 0.207044 0.14899865 0.22215265 -0.13139504 0.10272819 -0.52851546 -0.16382073 -0.2833367 -0.35315272 -0.5231036 -0.14731793 -0.12108968 0.16443442 0.1661424 0.434346
visto -0.23344593 -0.16567416 -0.60789996 0.097111695 -0.45399755 0.63535446 -0.85835195 0.27180958 0.66983706 -0.097455256 0.08729671 -0.33280042 -0.0507839 -0.13564457 0.25203612 0.2126862 0.17656763 0.23311886 -0.118086055 0.09253469 -0.5076275 -0.16813025 -0.26812515 -0.34998742 -0.4923302 -0.14209357 -0.1160156 0.1434953 0.1552929 0.412472
mandaron -0.2296018 -0.17974477 -0.6521935 0.12877709 -0.43871987 0.6441678 -0.837199 0.26940295 0.6925134 -0.10046742 0.07455205 -0.34576416 -0.054084916 -0.153326 0.23030116 0.2257141 0.17398249 0.19449864 -0.13707763 0.08094549 -0.546637 -0.16509055 -0.2766046 -0.3472674 -0.52124137 -0.14287396 -0.11745722 0.14065117 0.1365904 0.40344647
diciendo -0.21836026 -0.15238348 -0.6167148 0.09315415 -0.42639205 0.6101359 -0.8618941 0.26525462 0.6741771 -0.09104779 0.105755694 -0.36218157 -0.052239213 -0.11183693 0.25563347 0.23951837 0.16391815 0.21550676 -0.11431571 0.10165377 -0.5315562 -0.14398262 -0.2571208 -0.37204003 -0.4779406 -0.12447186 -0.11886207 0.1595876 0.17473866 0.41926435
salarios_minimos -0.21758391 -0.15819801 -0.60556364 0.13585843 -0.4539636 0.60086274 -0.8488316 0.27114904 0.6522497 -0.06227534 0.11629934 -0.36494157 -0.08561755 -0.09666827 0.22729251 0.23872742 0.15028095 0.1998847 -0.14107044 0.08801757 -0.50564027 -0.13276277 -0.22932139 -0.3431417 -0.47126147 -0.10613755 -0.11640207 0.11776998 0.19441581 0.40096623
mirar -0.21733776 -0.14814723 -0.59767866 0.10242447 -0.42900556 0.6254853 -0.84231484 0.26820102 0.6569897 -0.084089905 0.08930676 -0.3393601 -0.05897926 -0.14092633 0.25022686 0.22918445 0.16280942 0.20941378 -0.14113612 0.06228594 -0.51854867 -0.16777095 -0.26332635 -0.3618175 -0.47835478 -0.12878962 -0.111408204 0.15855353 0.15066083 0.4032673
internet -0.19736265 -0.17243943 -0.6094874 0.10212492 -0.4396516 0.60998416 -0.8160881 0.25521833 0.6856479 -0.113119505 0.0798151 -0.32629684 -0.036636293 -0.15302789 0.22036573 0.19913141 0.16126686 0.22734185 -0.11531745 0.05743251 -0.48288092 -0.13920231 -0.24922034 -0.35055453 -0.4730938 -0.13004588 -0.113235995 0.17627971 0.14759654 0.37762317
afiliacion -0.20017304 -0.14147954 -0.5853303 0.118315384 -0.44063464 0.6194559 -0.8463655 0.27795157 0.64473087 -0.08589918 0.10888072 -0.34794274 -0.0507667 -0.120256945 0.2445339 0.24198042 0.18371531 0.20259 -0.09443668 0.08969825 -0.51388484 -0.15017292 -0.25837356 -0.35268077 -0.46329382 -0.10331333 -0.109405644 0.14528586 0.13174379 0.3968657
realizar -0.22244576 -0.16655616 -0.60298413 0.1278289 -0.42384312 0.6252445 -0.84869397 0.30559337 0.6699379 -0.07429744 0.09663747 -0.33898252 -0.056410924 -0.14370501 0.23409842 0.20802309 0.16224402 0.22355397 -0.13965826 0.10432816 -0.5044987 -0.14919631 -0.25757912 -0.3365781 -0.46997595 -0.15190056 -0.1247859 0.1399663 0.16089441 0.39822128
acceder -0.20680857 -0.15829696 -0.60929126 0.104566365 -0.4244197 0.59736323 -0.8376393 0.27191556 0.64953625 -0.055531297 0.10119824 -0.33430868 -0.056188196 -0.15338695 0.25350568 0.23545346 0.15668519 0.23548388 -0.14075552 0.09033591 -0.5010899 -0.15961298 -0.24653426 -0.3600674 -0.47924888 -0.13334996 -0.10959137 0.16178975 0.1571632 0.40345174
concurrente -0.22185722 -0.16818357 -0.5727392 0.12299388 -0.41416246 0.60810244 -0.81947905 0.28851578 0.62452745 -0.09052167 0.121386535 -0.33503506 -0.053963333 -0.11435375 0.22323361 0.23706292 0.13484332 0.2077459 -0.11249565 0.082274884 -0.49170923 -0.13944383 -0.24720497 -0.34640995 -0.44967738 -0.12570694 -0.105534025 0.14453314 0.14884962 0.39602846
funcion -0.23811439 -0.16644624 -0.6433599 0.11057078 -0.4617411 0.6445415 -0.8901004 0.2943311 0.7213375 -0.087800324 0.12357618 -0.3283365 -0.03495577 -0.1368387 0.24756593 0.23826556 0.14924087 0.25519606 -0.12358009 0.09511634 -0.54774255 -0.14425865 -0.27993912 -0.36973497 -0.4778839 -0.12270244 -0.100355 0.17063904 0.17163175 0.4011955
posible -0.20411967 -0.17097732 -0.613081 0.11796938 -0.4418151 0.6133481 -0.83199817 0.28067654 0.66893375 -0.078756414 0.09709273 -0.31364578 -0.036071274 -0.12901963 0.23372751 0.22934568 0.15619673 0.2205457 -0.1222088 0.08320259 -0.49835977 -0.15792917 -0.2615652 -0.37263077 -0.4726201 -0.117123 -0.11331382 0.14819135 0.1481005 0.37693885
recibido -0.1947298 -0.14686467 -0.5983017 0.10249778 -0.4056114 0.6019801 -0.83197767 0.26327753 0.6639579 -0.09667255 0.111510076 -0.3238197 -0.052608103 -0.12847733 0.23338945 0.20927379 0.16372028 0.2253907 -0.14035113 0.07939407 -0.52774894 -0.17030731 -0.26723593 -0.34156376 -0.46467015 -0.12042028 -0.088645406 0.14167537 0.121773854 0.39317712
sitio -0.24185972 -0.16793308 -0.62528855 0.118415825 -0.42266902 0.63447267 -0.85402745 0.28487837 0.65411276 -0.07913218 0.12063177 -0.32281163 -0.04242117 -0.12422669 0.26099673 0.22521053 0.1796588 0.21521108 -0.109309085 0.07299856 -0.5174343 -0.1592412 -0.25291273 -0.3394662 -0.46063536 -0.12504883 -0.08153376 0.14110363 0.16239144 0.42627865
final -0.21207032 -0.155994 -0.63147724 0.13301963 -0.46701887 0.6395167 -0.8616115 0.2994871 0.7043238 -0.086677484 0.105551176 -0.32026204 -0.039049305 -0.1441236 0.2582993 0.21602918 0.17295256 0.2643877 -0.13929181 0.10453146 -0.5318837 -0.1562619 -0.252358 -0.3694372 -0.48135132 -0.14081846 -0.116385624 0.14906101 0.16354714 0.40380478
aplica -0.23453204 -0.14106329 -0.6182293 0.11637566 -0.43284807 0.6290431 -0.86746067 0.29561242 0.63578403 -0.093687095 0.12237135 -0.35828766 -0.043751575 -0.13563535 0.26438352 0.21530968 0.14951764 0.22075222 -0.14368676 0.07015544 -0.48637515 -0.15019071 -0.21485536 -0.33059147 -0.48314768 -0.12122894 -0.09170271 0.13206185 0.16859037 0.42256925
adquirir -0.23329128 -0.1664056 -0.6103784 0.102951564 -0.44921637 0.6138942 -0.86386704 0.28099626 0.67859304 -0.05916928 0.113164306 -0.34036583 -0.045919128 -0.13252792 0.24212651 0.24943927 0.18985473 0.23975845 -0.105765894 0.07523274 -0.49821037 -0.16466725 -0.26102814 -0.34164128 -0.47266448 -0.12843373 -0.10009857 0.14191118 0.16142426 0.44138724
llevo -0.2216873 -0.14287265 -0.62134653 0.117164604 -0.43458638 0.61983645 -0.8481102 0.29164043 0.66524434 -0.07505345 0.085667334 -0.32232308 -0.069567196 -0.109389655 0.21927738 0.218877 0.15126975 0.23505828 -0.11355972 0.09118839 -0.5113055 -0.15228826 -0.24093129 -0.36133984 -0.4743438 -0.11187217 -0.115415126 0.13649876 0.13550447 0.40655658
ultima -0.21328272 -0.16974209 -0.608084 0.12520254 -0.41941676 0.6440301 -0.86717594 0.28864276 0.72293556 -0.0757412 0.11101584 -0.34947243 -0.037977792 -0.1401477 0.21773773 0.19543837 0.16620548 0.24298629 -0.12488383 0.063951835 -0.5198955 -0.1401811 -0.2757348 -0.34499905 -0.51449233 -0.12465847 -0.12758353 0.1597945 0.14674036 0.42509872
momentos -0.21083315 -0.18434459 -0.631411 0.114627585 -0.44997823 0.63065195 -0.8337684 0.29086453 0.6769061 -0.089069545 0.10507941 -0.3370873 -0.061120737 -0.13441505 0.2144034 0.2154841 0.1565301 0.2442784 -0.13522352 0.07670608 -0.5165878 -0.13738127 -0.2595624 -0.3556551 -0.48883402 -0.11496247 -0.081502095 0.14933638 0.14317568 0.39181808
formacion -0.21216713 -0.1762482 -0.61312234 0.11933743 -0.44970477 0.6391864 -0.8495437 0.31083733 0.6979348 -0.06405286 0.08990706 -0.33295628 -0.047284637 -0.15961407 0.2577678 0.22489567 0.16343836 0.23534584 -0.13434424 0.08153412 -0.5436726 -0.15118356 -0.2639707 -0.35131264 -0.4886687 -0.120982006 -0.103820026 0.16898154 0.16190027 0.41861442
lleva -0.21787208 -0.1571215 -0.6261109 0.12710494 -0.41813326 0.62388897 -0.8298575 0.2945023 0.66906667 -0.07396855 0.09728168 -0.32688448 -0.053633053 -0.1353777 0.23341435 0.20653132 0.16481754 0.21907029 -0.13278732 0.06953182 -0.50339085 -0.1525809 -0.2525193 -0.3714229 -0.45625517 -0.15328333 -0.09188714 0.14355613 0.1463703 0.41390315
cliente -0.23805821 -0.17266421 -0.60476965 0.11402543 -0.41020682 0.653052 -0.84372574 0.30025178 0.70305234 -0.08533552 0.11541823 -0.3471392 -0.022547929 -0.14186503 0.23837954 0.23101945 0.13125889 0.20446846 -0.15717039 0.07330811 -0.5321972 -0.12297127 -0.25881746 -0.3602229 -0.48197368 -0.1528222 -0.09377793 0.14795479 0.13360064 0.4096785
aprobacion -0.19704294 -0.15394159 -0.6155896 0.10495539 -0.41893703 0.60870826 -0.83328134 0.28920043 0.6480114 -0.052612953 0.097094685 -0.33961537 -0.08423211 -0.101947114 0.21840808 0.21218361 0.18335931 0.23817475 -0.09338891 0.0815048 -0.49840716 -0.13956445 -0.2529286 -0.35501492 -0.45243195 -0.11628352 -0.111559406 0.14755335 0.16353288 0.387783
hablar -0.21167408 -0.1875576 -0.6267755 0.10115359 -0.42869172 0.6235495 -0.8577273 0.26936692 0.6728894 -0.08655442 0.08760618 -0.36433893 -0.052990757 -0.1360466 0.23936072 0.21588226 0.17745551 0.24583004 -0.12472101 0.089842245 -0.5415286 -0.15042458 -0.262248 -0.3713085 -0.5061932 -0.14722598 -0.1097458 0.17149527 0.15865222 0.43272218
listos -0.2210839 -0.15109952 -0.59977525 0.097208895 -0.44898614 0.6128905 -0.86643744 0.27382854 0.6875298 -0.098130554 0.11625217 -0.34326723 -0.06484427 -0.13904491 0.23658435 0.23327509 0.16934939 0.24296896 -0.12824152 0.07442125 -0.5229597 -0.13080153 -0.2663969 -0.36728573 -0.5022343 -0.15068932 -0.10833578 0.14533918 0.14935972 0.39505067
actualizacion -0.22151525 -0.16764218 -0.62333953 0.114915036 -0.42492977 0.612958 -0.82467955 0.25713113 0.66777563 -0.08361202 0.081348345 -0.31695843 -0.03304012 -0.14280747 0.20592971 0.2163582 0.1404453 0.22925162 -0.11650742 0.065724276 -0.5258748 -0.14294456 -0.27526635 -0.33568454 -0.50341696 -0.12685832 -0.12304676 0.15841615 0.14251225 0.42048514
oficina -0.2074959 -0.14825898 -0.61566836 0.10020566 -0.42817852 0.5968931 -0.8348901 0.25856614 0.6908747 -0.103196606 0.099423274 -0.35323903 -0.030357458 -0.16116418 0.22717722 0.21426527 0.15865856 0.21843009 -0.13046604 0.06593435 -0.50535053 -0.1493728 -0.23672064 -0.37427062 -0.46637028 -0.13560003 -0.080340505 0.16035376 0.16011944 0.40920126
ayudar -0.21851917 -0.14080128 -0.6018796 0.097252734 -0.4206168 0.59161633 -0.8271954 0.2718334 0.65855944 -0.10401404 0.08223745 -0.30693883 -0.049068183 -0.13414827 0.23276009 0.21742968 0.14375679 0.24048485 -0.12166192 0.06837959 -0.5091149 -0.14999801 -0.2715342 -0.35131848 -0.47054145 -0.13178979 -0.096972086 0.16509683 0.14587235 0.3816278
decia -0.23071103 -0.16268884 -0.63288015 0.100414574 -0.4259864 0.6480423 -0.8762124 0.30148655 0.70931566 -0.08210156 0.09143037 -0.3466359 -0.069725595 -0.14110896 0.24554804 0.22076723 0.16426843 0.24834839 -0.12192395 0.07902564 -0.51423293 -0.14808895 -0.27430302 -0.37845472 -0.4863578 -0.118724234 -0.10693915 0.14529426 0.16380545 0.3979716
llamar -0.20533156 -0.17671388 -0.6105502 0.10287972 -0.42914218 0.61803865 -0.8299949 0.28174734 0.66691536 -0.095715575 0.108068876 -0.3592264 -0.05813518 -0.14734526 0.23671417 0.22617587 0.1589955 0.22902468 -0.13442945 0.09042605 -0.52778566 -0.1426268 -0.2716541 -0.35562193 -0.47551054 -0.14182253 -0.103027046 0.16877659 0.145712 0.38240075
interes -0.22318324 -0.15851244 -0.63268775 0.102223895 -0.4156893 0.632339 -0.86448973 0.29123288 0.679918 -0.10704219 0.12723167 -0.35467315 -0.0616639 -0.15619494 0.23189722 0.24138823 0.1913117 0.21485831 -0.13519508 0.09890526 -0.5185659 -0.14799196 -0.2403377 -0.38103387 -0.4766656 -0.14136231 -0.108630605 0.15221141 0.15627478 0.4189988
hicieron -0.22852883 -0.1543721 -0.6127879 0.11049381 -0.4511096 0.6061518 -0.83206034 0.30008045 0.67541444 -0.07693385 0.07932962 -0.34089053 -0.06296841 -0.14521529 0.23617704 0.20659344 0.14864226 0.24343188 -0.13643605 0.06688503 -0.50687 -0.14592695 -0.26888376 -0.3662815 -0.4598692 -0.12362377 -0.10358348 0.13347805 0.14417936 0.40746865
inicio -0.2430021 -0.17735098 -0.6401375 0.10195804 -0.45162445 0.62363803 -0.85568154 0.29852453 0.70061624 -0.09648381 0.09308331 -0.33857495 -0.062000945 -0.16091812 0.23112327 0.21331549 0.16454744 0.24883169 -0.10647641 0.088640705 -0.50195587 -0.14011222 -0.27044252 -0.36097682 -0.49740362 -0.12850185 -0.1283937 0.15799044 0.14097051 0.4157861
postule -0.20145597 -0.16090807 -0.6536442 0.102348305 -0.43613386 0.637732 -0.8659654 0.2937625 0.68673956 -0.09911679 0.117605224 -0.36380118 -0.05380942 -0.119596966 0.25018796 0.2201805 0.16014038 0.24924952 -0.15097915 0.08920037 -0.5287012 -0.15652622 -0.2561549 -0.39289695 -0.4752236 -0.15628187 -0.116812974 0.1589767 0.17286873 0.40576425
volver -0.20086214 -0.16192263 -0.6318444 0.12823637 -0.41994137 0.6400951 -0.83108246 0.29723316 0.69032735 -0.097089715 0.074342474 -0.32321241 -0.03642441 -0.1202198 0.24227096 0.2220762 0.17282207 0.2112677 -0.13704501 0.07271777 -0.5116876 -0.1656624 -0.24885724 -0.3681453 -0.49000975 -0.123997465 -0.10552477 0.14225262 0.17156841 0.4108042
propio -0.23061967 -0.13349618 -0.6242116 0.11472305 -0.43482304 0.62351835 -0.8551986 0.28323773 0.6418396 -0.07767881 0.1073189 -0.31850162 -0.058743883 -0.14773647 0.26888794 0.21723315 0.16809113 0.2134164 -0.13378696 0.082110316 -0.50694877 -0.1595717 -0.26691505 -0.35367832 -0.48458713 -0.14520742 -0.08177689 0.13874575 0.15946619 0.43142903
lote -0.2620637 -0.12113542 -0.57702136 0.113914356 -0.43334496 0.5974538 -0.90075 0.259056 0.6718748 -0.09039818 0.1454616 -0.36015156 -0.03505637 -0.15231434 0.29544422 0.26943225 0.20188494 0.26044995 -0.15502474 0.056618135 -0.5200323 -0.1531113 -0.2561905 -0.31361648 -0.435607 -0.093185686 -0.05339989 0.12177387 0.18584956 0.45488635
llegado -0.21359093 -0.17694697 -0.5965875 0.12003468 -0.43825468 0.61704594 -0.8424049 0.28761235 0.664347 -0.09012725 0.09850789 -0.3440682 -0.060085207 -0.14368667 0.23608692 0.20711042 0.14350165 0.22800528 -0.13331163 0.07179727 -0.524895 -0.14748557 -0.26012045 -0.3604482 -0.50534636 -0.14789899 -0.10205552 0.16440125 0.14390266 0.39717528
llenar -0.22363012 -0.17898725 -0.6113425 0.13064042 -0.43742982 0.6180577 -0.8364952 0.27441725 0.6482247 -0.06539726 0.09723925 -0.32095557 -0.036846343 -0.14274043 0.23003171 0.20408499 0.18232682 0.24638088 -0.10525973 0.072000675 -0.4988412 -0.15749684 -0.23847362 -0.34528536 -0.49337646 -0.120738655 -0.101315215 0.122727804 0.16361402 0.4075537
derecho -0.23664741 -0.17815521 -0.62856877 0.11980439 -0.4214742 0.6093294 -0.8604987 0.2991766 0.66875684 -0.079267055 0.12008909 -0.3560122 -0.04112724 -0.14876236 0.25518933 0.21625814 0.1745893 0.24155004 -0.124022804 0.098127596 -0.5205868 -0.14329912 -0.25759548 -0.3521426 -0.49804813 -0.14096096 -0.09336425 0.14394872 0.14473718 0.39786932
mandar -0.21262321 -0.18941371 -0.6337962 0.10447921 -0.44463354 0.621856 -0.8565341 0.27245104 0.68438756 -0.10867304 0.116425745 -0.36187467 -0.047174744 -0.15396617 0.24692897 0.2224121 0.1782859 0.23697022 -0.12110506 0.06734948 -0.5566391 -0.14261693 -0.2645025 -0.35495892 -0.5020294 -0.16037333 -0.108192466 0.16295607 0.15756184 0.42597523
celular -0.20564061 -0.17322959 -0.61106205 0.12798312 -0.42371327 0.61755955 -0.8662785 0.2771197 0.6907873 -0.10356036 0.11747632 -0.3198225 -0.054126464 -0.14297736 0.22924936 0.2092574 0.1688092 0.24645022 -0.14101987 0.08493288 -0.5066664 -0.1473576 -0.26200363 -0.37823436 -0.47467116 -0.14027447 -0.092391245 0.17691141 0.14618507 0.42442542
triple -0.2154079 -0.16258444 -0.6371725 0.10555801 -0.46072564 0.6564796 -0.86697406 0.28784958 0.68635845 -0.09548474 0.12117086 -0.3283014 -0.05247964 -0.14994428 0.2415443 0.21906291 0.18305096 0.21212015 -0.1299783 0.06897099 -0.53223026 -0.13545367 -0.27687776 -0.36574292 -0.5032206 -0.14858426 -0.11123787 0.14663677 0.16763133 0.408731
puesto -0.2205477 -0.15487005 -0.6442841 0.12594204 -0.4229905 0.62639993 -0.87263966 0.27382568 0.6905865 -0.10440966 0.119874045 -0.32173228 -0.056690082 -0.12998846 0.25320268 0.22562662 0.16197717 0.23875079 -0.108228385 0.081181265 -0.5201378 -0.14159295 -0.25537413 -0.36126754 -0.5031446 -0.12100162 -0.0934463 0.15065911 0.12862758 0.4080044
abajo -0.20397256 -0.16845948 -0.60916096 0.13550787 -0.42540252 0.63003385 -0.8331855 0.2746279 0.6890225 -0.06396544 0.09798423 -0.3294994 -0.044168685 -0.12586032 0.24978572 0.20900944 0.17330623 0.22777088 -0.13877451 0.060091205 -0.49856007 -0.15041257 -0.26158667 -0.35274673 -0.48234722 -0.12556148 -0.11209653 0.1515977 0.14064027 0.41384262
construccion -0.22945555 -0.1487308 -0.6125655 0.10745365 -0.45848718 0.61359686 -0.87271357 0.2757087 0.68368024 -0.062515795 0.120483 -0.36848408 -0.06321763 -0.15585604 0.25985843 0.22660062 0.1667663 0.23784414 -0.121048115 0.093234465 -0.49524847 -0.13342638 -0.25329444 -0.34240043 -0.46496522 -0.13706347 -0.085264266 0.13390248 0.14943054 0.4513638
bancolombia -0.2192452 -0.13732609 -0.60649806 0.11056769 -0.45561922 0.6240021 -0.82570994 0.3057123 0.6539565 -0.053468388 0.105837904 -0.36228535 -0.05877495 -0.1260676 0.21920815 0.21897706 0.15421166 0.24601921 -0.12947316 0.070746936 -0.5129522 -0.15812236 -0.24788147 -0.3423661 -0.46829715 -0.1415549 -0.14720382 0.118948616 0.14359039 0.37036768
siguio -0.21374097 -0.1673463 -0.58829725 0.08969935 -0.44057524 0.5999183 -0.8220557 0.28707954 0.62833613 -0.07435838 0.10575046 -0.33651027 -0.07494907 -0.09914554 0.21504617 0.23154885 0.16230258 0.23276615 -0.100496635 0.09209122 -0.4985521 -0.13576068 -0.261535 -0.33871445 -0.4768654 -0.12202262 -0.10964426 0.13344337 0.15882166 0.37014875
movilizacion -0.2095677 -0.18336183 -0.62786907 0.11084699 -0.45818707 0.61531407 -0.81281954 0.2713077 0.6582584 -0.08361922 0.09011992 -0.360975 -0.06057823 -0.08527538 0.20680787 0.23428892 0.17007463 0.22896856 -0.13956271 0.10721266 -0.5171944 -0.13073207 -0.244006 -0.3435216 -0.47567156 -0.16151051 -0.09472195 0.1655812 0.17060247 0.39514896
llega -0.22408216 -0.164776 -0.6106788 0.10048595 -0.44420573 0.6259693 -0.8446928 0.26223183 0.652338 -0.08628934 0.089669675 -0.33119327 -0.054783672 -0.14324096 0.22562188 0.20136224 0.1764126 0.24916121 -0.112122275 0.08798737 -0.4855344 -0.17067012 -0.24006909 -0.35834414 -0.48112202 -0.11288526 -0.10314642 0.17419374 0.17120372 0.37709212
aportes -0.21968727 -0.1499066 -0.61226946 0.12620457 -0.46419436 0.612419 -0.85604054 0.30763385 0.69050187 -0.068530284 0.09594129 -0.3399969 -0.07090892 -0.13089448 0.22032942 0.22754174 0.15203744 0.23815623 -0.12567532 0.10103585 -0.50256926 -0.1402704 -0.24916117 -0.3205273 -0.47654027 -0.117174335 -0.12215987 0.12785022 0.17431271 0.40239617
independiente -0.21731666 -0.18546931 -0.6225672 0.12538579 -0.45060143 0.64186907 -0.8741922 0.2978276 0.6830876 -0.072619796 0.12392344 -0.33227894 -0.042421844 -0.15233143 0.25545153 0.21808325 0.17580973 0.24384068 -0.105908394 0.10479354 -0.51509416 -0.16067204 -0.25141966 -0.34986153 -0.49514136 -0.14087567 -0.09430356 0.1230159 0.14706773 0.42733568
habiles -0.21310909 -0.17364924 -0.6519319 0.11250533 -0.38886738 0.6413988 -0.8448381 0.27320036 0.68629354 -0.12404633 0.10395488 -0.33098772 -0.058880873 -0.16670673 0.21149462 0.21059288 0.1795369 0.21083437 -0.11943058 0.087090604 -0.53055835 -0.13994128 -0.26692015 -0.39296448 -0.49963012 -0.17364751 -0.06613073 0.1461613 0.11549521 0.4224463
exactamente -0.20091148 -0.16033378 -0.6155562 0.08073736 -0.4436298 0.6277054 -0.84113663 0.29886967 0.6739933 -0.08434908 0.10579181 -0.32119733 -0.06643588 -0.14572129 0.22665378 0.23699315 0.18056735 0.21202517 -0.10382508 0.07337099 -0.50483114 -0.15945119 -0.27416027 -0.33671907 -0.49363276 -0.14563508 -0.11383246 0.14018674 0.14354289 0.42597952
virtual -0.22455266 -0.15472151 -0.59135026 0.104030505 -0.41758028 0.6002903 -0.8435118 0.28167877 0.6809766 -0.0970492 0.10275037 -0.3427712 -0.04357614 -0.12630586 0.23446807 0.21052267 0.18521142 0.23906858 -0.11601764 0.09163208 -0.50872505 -0.1655271 -0.25192872 -0.35035232 -0.48986003 -0.13632208 -0.10621082 0.15956084 0.13088629 0.3909298
facil -0.234526 -0.17418015 -0.6241317 0.11668395 -0.45865282 0.64008147 -0.87404627 0.29548195 0.6762202 -0.07348624 0.102567635 -0.3547866 -0.063311085 -0.1546053 0.23349325 0.23785779 0.161758 0.22695646 -0.1408094 0.08075233 -0.51511276 -0.14173025 -0.24049982 -0.38994205 -0.5070628 -0.14982513 -0.119433776 0.16141197 0.15327297 0.42760292
salir -0.21983814 -0.17083073 -0.620701 0.117628954 -0.4199547 0.59718126 -0.834933 0.27711535 0.66111296 -0.07973248 0.100281626 -0.32258624 -0.045444887 -0.11202855 0.2547583 0.21538158 0.14541751 0.2503404 -0.13089505 0.08939155 -0.5076345 -0.14842978 -0.2635931 -0.35117486 -0.46099442 -0.14135441 -0.11820953 0.1302823 0.16709992 0.39865458
coloco -0.23950936 -0.15544182 -0.6379651 0.16273658 -0.44176123 0.6843341 -0.88247645 0.31191403 0.69767964 -0.09330316 0.08365857 -0.36469293 -0.007023032 -0.10701199 0.22654273 0.22753705 0.13307643 0.2395001 -0.11297718 0.111108504 -0.52144575 -0.16718782 -0.2712225 -0.33264092 -0.51520646 -0.11484744 -0.12781538 0.13876887 0.15907453 0.42274007
telefono -0.22175294 -0.17048553 -0.6211193 0.11427596 -0.44479394 0.61532927 -0.8505989 0.29632592 0.6736717 -0.1025075 0.087272525 -0.34288844 -0.040834904 -0.12624642 0.24942589 0.2336478 0.18054917 0.24919383 -0.10472865 0.072132796 -0.5017605 -0.12648755 -0.25203317 -0.34424987 -0.47309002 -0.12351352 -0.094252154 0.13124007 0.16774014 0.40611207
comunicar -0.20842868 -0.173424 -0.6334354 0.08718037 -0.4104267 0.6175485 -0.8608445 0.28869188 0.6992539 -0.09452145 0.08464462 -0.3244739 -0.044867147 -0.15841548 0.21425202 0.213656 0.17388141 0.22013226 -0.11832986 0.07121971 -0.5111638 -0.14199884 -0.26482734 -0.37401626 -0.49043518 -0.12756631 -0.10483198 0.16762175 0.12335044 0.4151098
entrar -0.20748952 -0.16069683 -0.62959486 0.11635828 -0.4336984 0.61326087 -0.85234964 0.28751695 0.69232583 -0.07148416 0.10310812 -0.3269563 -0.04349388 -0.15555404 0.2472544 0.22696544 0.15407415 0.24746427 -0.15338363 0.06890193 -0.52369326 -0.16352364 -0.23842138 -0.3879874 -0.47642878 -0.14985003 -0.12172868 0.14338298 0.15179586 0.41354182
minimo -0.2503735 -0.1741207 -0.6151381 0.116450205 -0.43972743 0.6459022 -0.87733567 0.31026438 0.68594086 -0.0777775 0.107421495 -0.33306703 -0.034623567 -0.12595315 0.2730649 0.23262887 0.16258603 0.24061748 -0.12447381 0.09570016 -0.53204584 -0.15030573 -0.2555149 -0.37702498 -0.48813987 -0.1488819 -0.12659237 0.13887745 0.16405886 0.4047671
formularios -0.21290983 -0.15239148 -0.62751144 0.112695165 -0.45055223 0.6102067 -0.8624033 0.26865226 0.69810003 -0.097284324 0.10760987 -0.3412744 -0.0675642 -0.147042 0.25133482 0.20224407 0.16892138 0.21599285 -0.11029125 0.06824281 -0.5099155 -0.153435 -0.25726783 -0.3576627 -0.475594 -0.15043744 -0.096633956 0.15601228 0.14320038 0.41816652
entidad_bancaria -0.2393597 -0.16896833 -0.6112162 0.11004257 -0.433039 0.6276208 -0.8688211 0.29169458 0.6574663 -0.06874739 0.12535472 -0.34332436 -0.060426224 -0.09755692 0.22571771 0.24689889 0.17764102 0.22980331 -0.1256438 0.10903695 -0.5306972 -0.13133086 -0.25190026 -0.3401789 -0.45860586 -0.11923581 -0.1199733 0.13965242 0.17818409 0.38937837
llaman -0.20737119 -0.15758497 -0.63432854 0.114448585 -0.4339916 0.6201368 -0.8658932 0.30508873 0.66851103 -0.093816414 0.108551204 -0.32856748 -0.074141085 -0.11584984 0.25237566 0.22688952 0.16403939 0.24426016 -0.10406612 0.07570992 -0.5339413 -0.16188303 -0.26852942 -0.36863014 -0.483219 -0.11196195 -0.10220408 0.1481314 0.16213085 0.39695305
inquietud -0.23816583 -0.14777347 -0.6063039 0.13126309 -0.4270638 0.6185504 -0.8559617 0.30097905 0.662801 -0.06952966 0.120612815 -0.32764167 -0.0320995 -0.14147261 0.25051013 0.21703616 0.1823469 0.25339216 -0.11772828 0.06977167 -0.49585685 -0.15620759 -0.24733308 -0.336674 -0.46977034 -0.14570138 -0.12971121 0.12964502 0.13285327 0.40946
registrar -0.20903069 -0.15518413 -0.611299 0.10806152 -0.44145986 0.6132744 -0.8312004 0.29651034 0.66557306 -0.09810795 0.08522242 -0.32756665 -0.04522215 -0.15475915 0.21724308 0.23726155 0.16814674 0.23176715 -0.13023789 0.10216247 -0.51547635 -0.1688698 -0.24665155 -0.37433344 -0.47600228 -0.15049523 -0.10789351 0.13354276 0.13459605 0.37075853
asignacion -0.22152686 -0.15347102 -0.60314965 0.107564606 -0.41176623 0.60494894 -0.85808665 0.29222685 0.63689154 -0.09247435 0.09008649 -0.32008383 -0.04982501 -0.10941924 0.24719217 0.21041237 0.14646594 0.23325865 -0.12407053 0.07417183 -0.48761457 -0.12127521 -0.24622674 -0.3614594 -0.46167597 -0.11981729 -0.10813903 0.1370231 0.14067703 0.40638587
interesado -0.22005968 -0.14796172 -0.60156846 0.10232692 -0.41730005 0.6275217 -0.85844266 0.29639152 0.68418115 -0.05562896 0.08277136 -0.34095937 -0.07295757 -0.13404869 0.22257905 0.21590148 0.17918502 0.21454747 -0.13472606 0.08877759 -0.53688985 -0.14509472 -0.2626941 -0.38547814 -0.4902337 -0.11579992 -0.10144502 0.14275786 0.12898162 0.39535463
recibio -0.20509064 -0.16260223 -0.6284462 0.08693883 -0.43909413 0.6441648 -0.8676978 0.28013512 0.6743228 -0.0899689 0.08087042 -0.34837547 -0.064863615 -0.14099844 0.22513114 0.2026822 0.17550316 0.20458518 -0.14893019 0.09659796 -0.5286782 -0.15670773 -0.24253897 -0.35159317 -0.5054068 -0.1593897 -0.0946642 0.17048152 0.14054367 0.42913115
digame -0.21230751 -0.15899779 -0.6024318 0.108590685 -0.44308108 0.6166085 -0.8570456 0.27014115 0.65161526 -0.07490041 0.100534655 -0.34367627 -0.050157912 -0.1293779 0.24463981 0.25088847 0.15117307 0.23754889 -0.13093697 0.07203521 -0.52186126 -0.16359705 -0.23551048 -0.35223812 -0.47699943 -0.13485631 -0.07999415 0.13563119 0.17230786 0.40104848
cuotas -0.21343628 -0.16788675 -0.60874504 0.11728458 -0.41853297 0.5886958 -0.81405985 0.26688355 0.66053015 -0.058794297 0.106885314 -0.31722474 -0.049650006 -0.12131316 0.2203716 0.23352703 0.17228672 0.25627276 -0.092883825 0.07580194 -0.5028897 -0.13739747 -0.26266626 -0.3326295 -0.47117394 -0.11226885 -0.1196697 0.11863721 0.13250124 0.39760154
quieres -0.21181943 -0.1534611 -0.6066601 0.10957678 -0.4448749 0.6089729 -0.8400326 0.2994334 0.6775774 -0.10789874 0.092359655 -0.35036707 -0.047693036 -0.12070322 0.25027227 0.23882397 0.16624613 0.22454017 -0.13623731 0.0955611 -0.53382325 -0.14233163 -0.25822568 -0.3711714 -0.49957037 -0.11869522 -0.102833696 0.1696689 0.13553263 0.392557
viendo -0.20996173 -0.17325197 -0.6197664 0.09050703 -0.4321571 0.6089473 -0.8358158 0.2830065 0.6708664 -0.068819314 0.08494767 -0.32430336 -0.05042898 -0.12491496 0.22943386 0.21248141 0.17772716 0.20461495 -0.11057405 0.08995567 -0.49189228 -0.13996547 -0.24566549 -0.35847977 -0.46045706 -0.13622102 -0.11647669 0.14274634 0.14205724 0.39268032
mandan -0.22147496 -0.17632975 -0.613404 0.097483374 -0.4507755 0.60953796 -0.84659415 0.25302675 0.6999969 -0.096616305 0.09236721 -0.33807367 -0.03728645 -0.11805506 0.22687419 0.22746259 0.18421689 0.22537363 -0.15628514 0.07695598 -0.5119094 -0.14767912 -0.27713645 -0.3374553 -0.4747521 -0.15223508 -0.09039657 0.1749714 0.1480253 0.39757994
davivienda -0.21735466 -0.15137091 -0.63915116 0.11757217 -0.4451265 0.6329463 -0.8559958 0.2633209 0.6715167 -0.08065251 0.094240785 -0.35213983 -0.05591045 -0.115756586 0.22795504 0.22739819 0.17709531 0.23831816 -0.14192152 0.085848324 -0.5328435 -0.1535719 -0.24352778 -0.35681993 -0.46974906 -0.1329862 -0.11272075 0.15148754 0.13841952 0.39957365
horario -0.22499551 -0.16250585 -0.59759283 0.09563559 -0.42663264 0.5911625 -0.82140446 0.2648904 0.67314315 -0.09436804 0.09961868 -0.32509488 -0.058950868 -0.13740842 0.24282174 0.23056112 0.16878691 0.2222337 -0.13162753 0.07318591 -0.51254946 -0.14115933 -0.23521519 -0.36339828 -0.45120677 -0.13852274 -0.105028614 0.16403033 0.13442682 0.37101373
copia -0.22877836 -0.1646576 -0.64098454 0.101657376 -0.46306208 0.61252373 -0.835487 0.27816737 0.68046004 -0.08117974 0.10960259 -0.35033858 -0.040810663 -0.09311613 0.24484956 0.22559637 0.18787952 0.26297188 -0.101332195 0.09069535 -0.5144141 -0.14254288 -0.24961756 -0.3412313 -0.4844647 -0.15727372 -0.121813625 0.16785227 0.17758755 0.40808323
mejoramiento -0.22998971 -0.13899097 -0.626182 0.11617929 -0.41942173 0.62593925 -0.8460641 0.27567208 0.6596941 -0.08313458 0.11460394 -0.36588642 -0.06281619 -0.14145224 0.25589523 0.23253328 0.15481852 0.21124415 -0.15503831 0.09367907 -0.47919336 -0.133692 -0.24664995 -0.33556497 -0.45893565 -0.14663959 -0.115881085 0.13779895 0.15607114 0.41808036
dificil -0.23498869 -0.17394203 -0.5979604 0.0979478 -0.44106263 0.6306931 -0.8634161 0.28887206 0.65835625 -0.06845411 0.105916835 -0.3162004 -0.03699406 -0.14528395 0.2456794 0.21888787 0.17455192 0.21819022 -0.13443719 0.07534118 -0.49671197 -0.14197147 -0.24128877 -0.3754672 -0.4697203 -0.1352658 -0.117649816 0.13524297 0.16691925 0.39970747
hablando -0.2325231 -0.15513499 -0.6246774 0.08832284 -0.42340565 0.6102659 -0.8343191 0.29348665 0.69362664 -0.071655676 0.09587096 -0.31829295 -0.053436 -0.13333528 0.25372005 0.2151505 0.1749019 0.24280895 -0.1358028 0.06205924 -0.5222936 -0.14667664 -0.25388792 -0.37197867 -0.46481186 -0.12730873 -0.11581033 0.12703167 0.1350094 0.42408657
seguir -0.21861117 -0.16772838 -0.62498015 0.11944189 -0.42451555 0.62063706 -0.86871964 0.27210137 0.67929465 -0.08612337 0.11577287 -0.33101866 -0.056893706 -0.14326371 0.22998813 0.24892955 0.18570772 0.214767 -0.1428351 0.07696774 -0.5292652 -0.14425781 -0.24820423 -0.37837535 -0.49779066 -0.1534603 -0.10064948 0.14096475 0.14274739 0.39474916
sumatoria -0.24572638 -0.14648707 -0.60616106 0.11980616 -0.4477142 0.6232323 -0.848552 0.29102185 0.6600496 -0.07657849 0.12209342 -0.34139958 -0.0660317 -0.08086086 0.2156804 0.23747773 0.17542754 0.25633764 -0.08938463 0.072339766 -0.4770955 -0.14318438 -0.26585484 -0.3112655 -0.47693577 -0.1417793 -0.11125011 0.14748736 0.17731963 0.3945659
unico -0.22881323 -0.17207552 -0.6130963 0.1028032 -0.440941 0.60145575 -0.8349975 0.2695016 0.6785595 -0.06613674 0.090596944 -0.322441 -0.053375557 -0.14629187 0.23484233 0.22970262 0.17089558 0.23309939 -0.12074129 0.075417325 -0.49770388 -0.13350981 -0.25997752 -0.36367354 -0.46676174 -0.11836455 -0.0979951 0.13641901 0.16536872 0.4134486
escritura -0.22559616 -0.16550405 -0.6186217 0.09717885 -0.4430372 0.62200207 -0.8863647 0.26158118 0.7038194 -0.070051305 0.080244236 -0.33720827 -0.041857045 -0.1535815 0.23536174 0.2363423 0.1912184 0.21819724 -0.123006634 0.09550276 -0.51351976 -0.13690947 -0.27028468 -0.3728483 -0.5037257 -0.13346411 -0.092301875 0.173113 0.14067917 0.41952482
entregar -0.2059609 -0.18769132 -0.62457937 0.13403842 -0.4380809 0.6031982 -0.84804666 0.27903908 0.6899861 -0.09843236 0.09010929 -0.31709296 -0.047866493 -0.112310685 0.2364788 0.22385426 0.18318556 0.24755913 -0.11737487 0.06683695 -0.5225181 -0.14369845 -0.27845266 -0.3771602 -0.45131963 -0.11929117 -0.081136145 0.1634285 0.17411318 0.3965305
diseno -0.20984596 -0.14566886 -0.598028 0.10669267 -0.42613643 0.61140543 -0.84750086 0.2721342 0.69335455 -0.09465054 0.1013732 -0.3353543 -0.053948473 -0.14919592 0.24583338 0.23563705 0.15656273 0.22051565 -0.1253622 0.08671837 -0.51219934 -0.15498875 -0.26646915 -0.3641821 -0.48010242 -0.1317494 -0.11224457 0.13051979 0.13843001 0.39771497
esposa -0.20527513 -0.16270393 -0.6084025 0.121100776 -0.4130218 0.6023756 -0.83783555 0.28747314 0.64968526 -0.06392143 0.093912125 -0.3316976 -0.04794186 -0.14527063 0.2432001 0.22460228 0.1913926 0.20580372 -0.13908681 0.076190494 -0.5265047 -0.14120021 -0.25901282 -0.3592167 -0.48586944 -0.14187534 -0.119082265 0.13165286 0.16678947 0.3921591
entra -0.20530654 -0.17387536 -0.5962883 0.108884946 -0.43029764 0.6196684 -0.8259794 0.27283725 0.6792592 -0.10422402 0.114589736 -0.32420945 -0.06573041 -0.112612255 0.23764835 0.22264633 0.1450598 0.24444507 -0.11998181 0.09249598 -0.5054418 -0.15637496 -0.24328986 -0.378858 -0.4758914 -0.11114395 -0.114540465 0.15106149 0.15590541 0.39881495
apenas -0.21658678 -0.17533873 -0.58638036 0.09992093 -0.41569299 0.5860471 -0.831616 0.28336558 0.67484814 -0.092348374 0.12083722 -0.30575204 -0.05056361 -0.11466833 0.23509336 0.21663496 0.15666936 0.2149264 -0.120581254 0.07356161 -0.50753915 -0.15591457 -0.2648346 -0.34939104 -0.46296167 -0.11511703 -0.08808257 0.1425349 0.15519863 0.40165764
comun -0.23002015 -0.16522221 -0.6384669 0.09940473 -0.42796215 0.6278225 -0.85284275 0.30418867 0.6959182 -0.06213348 0.11137663 -0.32795683 -0.0589511 -0.13019508 0.2621176 0.22390296 0.16144691 0.24164835 -0.109666154 0.1034725 -0.51792514 -0.15187727 -0.2506584 -0.34395358 -0.49012366 -0.13415422 -0.13020955 0.14333975 0.16887547 0.42673516
dijiste -0.2147765 -0.1878111 -0.60545385 0.087559395 -0.45754668 0.63653094 -0.87085533 0.29485962 0.67371595 -0.101288006 0.08742311 -0.34213552 -0.056818984 -0.15423757 0.22000973 0.24262801 0.17716303 0.24173401 -0.119946875 0.06309947 -0.53774166 -0.15285328 -0.2388617 -0.36675116 -0.49376544 -0.14486215 -0.08803649 0.15894404 0.13496129 0.4204129
normal -0.2105549 -0.15919897 -0.62539333 0.12272068 -0.43388888 0.6246595 -0.84507936 0.26052716 0.68379545 -0.08162724 0.11069865 -0.34423208 -0.053975478 -0.1267563 0.21908267 0.2149169 0.14580914 0.25165933 -0.11755159 0.09523515 -0.5113564 -0.15553151 -0.27335948 -0.34134236 -0.49701986 -0.14359151 -0.109002955 0.16578484 0.14302443 0.3981657
ingresar -0.2294992 -0.18109703 -0.6219624 0.12995754 -0.42603317 0.628079 -0.8597768 0.24868914 0.66768324 -0.09598618 0.11965202 -0.32586935 -0.03465066 -0.15895982 0.25611833 0.23409268 0.17426479 0.2417732 -0.12824799 0.06968404 -0.51569575 -0.13270192 -0.27537528 -0.3383442 -0.49939537 -0.13295855 -0.09659855 0.14416157 0.16485707 0.3920153
inconveniente -0.2413662 -0.16452666 -0.62539816 0.114835486 -0.4133494 0.6066145 -0.85129213 0.28686196 0.673285 -0.066821456 0.11522974 -0.33823016 -0.047042947 -0.15656422 0.23365341 0.22678626 0.15900828 0.2261663 -0.15286192 0.064036034 -0.50726503 -0.14115456 -0.27309996 -0.36843148 -0.48416585 -0.11241071 -0.08323205 0.1693249 0.15921222 0.41695037
firma -0.23480965 -0.18567723 -0.6230931 0.10248756 -0.41916776 0.6325819 -0.86441326 0.2897376 0.65952724 -0.09918005 0.082052745 -0.32378772 -0.059158254 -0.122035444 0.2397477 0.21136832 0.17181493 0.24232134 -0.11393885 0.10006562 -0.5051254 -0.15629129 -0.24158007 -0.36983055 -0.4898739 -0.12690006 -0.11193957 0.17024194 0.13857403 0.41735843
asesor -0.21966736 -0.14676148 -0.62330824 0.11481583 -0.42724964 0.6334787 -0.8754838 0.28807554 0.6810732 -0.096437715 0.10026258 -0.33079818 -0.045557726 -0.14963287 0.24924731 0.21858573 0.1847946 0.23321107 -0.1303924 0.097095266 -0.5420142 -0.15606114 -0.27420068 -0.3561168 -0.4713162 -0.12496218 -0.10416893 0.1606572 0.13570093 0.39354226
perder -0.23965926 -0.17393547 -0.6345502 0.123280056 -0.45256042 0.6221482 -0.8814647 0.29657838 0.70290023 -0.08744002 0.11963772 -0.3483708 -0.040453725 -0.14080508 0.24698733 0.22096509 0.1517349 0.23523284 -0.14202727 0.08648218 -0.5218954 -0.14531136 -0.2568664 -0.3693852 -0.49054274 -0.14176561 -0.09819705 0.16764967 0.17183554 0.3990577
pedir -0.20060149 -0.16191342 -0.62125254 0.101819605 -0.4248314 0.62064624 -0.8373222 0.27948472 0.66806287 -0.07864839 0.09109614 -0.32419404 -0.0794043 -0.12252274 0.23535499 0.22683595 0.15237679 0.25159746 -0.13972786 0.07301887 -0.5098777 -0.14296913 -0.23987316 -0.3525756 -0.4498518 -0.13893037 -0.11764052 0.12776133 0.16973406 0.38557655
comprar -0.24504498 -0.14138879 -0.63573694 0.09275908 -0.42307562 0.63630784 -0.8734157 0.27021104 0.68105406 -0.06891194 0.10947397 -0.36491996 -0.060059417 -0.13518769 0.27442473 0.2609686 0.19863129 0.24025397 -0.123216525 0.06745451 -0.53669435 -0.15042564 -0.26201263 -0.34112796 -0.48551223 -0.11758335 -0.10927499 0.1410692 0.16831857 0.44287208
actualizar -0.20182069 -0.1714877 -0.6200226 0.11031607 -0.43969995 0.62262 -0.85346735 0.27006617 0.66716474 -0.09101596 0.08238644 -0.31672233 -0.044834234 -0.12452962 0.24278274 0.1982248 0.16852838 0.24098277 -0.10259294 0.081175 -0.5137936 -0.1631032 -0.26650253 -0.35817644 -0.49108914 -0.15483387 -0.08780553 0.17193869 0.15142731 0.40180406
empezar -0.23033188 -0.16960625 -0.61204016 0.098072484 -0.4300834 0.61406213 -0.8706138 0.3040683 0.68888444 -0.08471476 0.10981731 -0.34629846 -0.04328638 -0.114652626 0.24890046 0.22621988 0.15436447 0.24127227 -0.12569514 0.06473062 -0.5074994 -0.15554777 -0.26865485 -0.3669424 -0.4814381 -0.13164625 -0.1095833 0.14215577 0.14983872 0.417245
quieren -0.2199109 -0.15363252 -0.6289909 0.11278529 -0.42392665 0.6175793 -0.8493622 0.2878604 0.6860143 -0.09270814 0.10397061 -0.32686344 -0.06538335 -0.14533445 0.21943063 0.2284428 0.16230732 0.2393177 -0.12006159 0.07056956 -0.49700922 -0.14227355 -0.2450826 -0.34452578 -0.46105373 -0.14030221 -0.09788958 0.15419738 0.14457561 0.3912727
agua -0.2111937 -0.17681497 -0.6133197 0.116559714 -0.4097041 0.62960744 -0.8502724 0.28896192 0.6704103 -0.07298243 0.10084369 -0.31978327 -0.035389975 -0.13431886 0.24094719 0.22200565 0.15157653 0.21282214 -0.1358539 0.079713196 -0.52317816 -0.1241365 -0.24027722 -0.36569723 -0.48581308 -0.11596327 -0.10755571 0.14150499 0.12938161 0.3936163
trabajando -0.2152868 -0.1517968 -0.58286947 0.114965826 -0.43135518 0.58968633 -0.8319427 0.2720914 0.6319491 -0.061352514 0.09873848 -0.31087616 -0.049373344 -0.14602418 0.23996963 0.23692018 0.17205779 0.22950198 -0.11257202 0.093520254 -0.5162976 -0.14583337 -0.24598117 -0.36699706 -0.46931055 -0.1314696 -0.0851767 0.14516065 0.13230854 0.3948317
colocar -0.20037492 -0.16252372 -0.61303884 0.10572899 -0.44713497 0.61087096 -0.837325 0.29395735 0.68680036 -0.077059284 0.111351684 -0.3301312 -0.04207172 -0.11233362 0.2277805 0.20240384 0.1602596 0.24589269 -0.11855012 0.09009142 -0.5064735 -0.15616205 -0.27017623 -0.3327899 -0.48813426 -0.13121219 -0.1318484 0.16044724 0.14862788 0.3930323
siento -0.23323987 -0.18020697 -0.638689 0.096115485 -0.45736858 0.63494384 -0.87571526 0.29718634 0.6952991 -0.06834364 0.08972692 -0.35491103 -0.05585478 -0.15224248 0.2345958 0.2189909 0.17622 0.22033975 -0.109030515 0.08410261 -0.533086 -0.15444906 -0.27374864 -0.3528942 -0.5011027 -0.116408646 -0.12395489 0.1384135 0.17361745 0.40059015
poner -0.22790007 -0.16167814 -0.6061783 0.09351245 -0.4260689 0.605932 -0.8325748 0.28945032 0.67192304 -0.079130664 0.09023116 -0.3319256 -0.047285113 -0.11032466 0.24797656 0.21628264 0.16161588 0.20850085 -0.122475624 0.09722199 -0.48926213 -0.15578286 -0.2405524 -0.33982986 -0.46543738 -0.13377781 -0.09783656 0.14536498 0.15514384 0.38817134
entendi -0.21863136 -0.16622433 -0.6035493 0.11605088 -0.4349887 0.6022637 -0.8667582 0.30104223 0.66092813 -0.09553234 0.11507809 -0.32961598 -0.060871985 -0.14273196 0.22378008 0.23448588 0.18764648 0.24162668 -0.11012028 0.07691178 -0.50397784 -0.1385927 -0.27125764 -0.3522963 -0.45602968 -0.12559769 -0.08777161 0.1541139 0.16037486 0.40170532
compra -0.2128892 -0.15747899 -0.59492135 0.09718927 -0.43509695 0.60308546 -0.8144571 0.28976336 0.6660184 -0.07506559 0.10192491 -0.33194754 -0.061362043 -0.14691497 0.21807343 0.22258884 0.14992733 0.2074273 -0.109320045 0.06781542 -0.51087666 -0.16204856 -0.23469521 -0.36572665 -0.45901966 -0.11606089 -0.093939625 0.14398505 0.1517867 0.387887
unica -0.22758554 -0.14900649 -0.63979375 0.10565678 -0.4547758 0.6264833 -0.85953456 0.30523124 0.72124106 -0.06616657 0.11562845 -0.36072397 -0.0556999 -0.14431775 0.24333744 0.24456464 0.17780639 0.21084273 -0.15225339 0.103885196 -0.5148073 -0.13769203 -0.24865879 -0.3592284 -0.5022943 -0.15941556 -0.09829764 0.17754494 0.15053052 0.42005005
error -0.23744753 -0.15300122 -0.6236666 0.124389954 -0.4608314 0.5965954 -0.87250686 0.23225386 0.69458896 -0.069436915 0.11329557 -0.34066644 -0.061190326 -0.16217312 0.25998354 0.22637576 0.2147332 0.2442904 -0.09006483 0.10545742 -0.550867 -0.17830281 -0.29778147 -0.3212384 -0.4482349 -0.11792804 -0.08545587 0.16334182 0.15581544 0.4080443
interes_social -0.2317907 -0.12479996 -0.5939413 0.110104084 -0.4037348 0.58476824 -0.8277998 0.26945743 0.6339322 -0.05017305 0.114184156 -0.3378831 -0.057690065 -0.11999014 0.22162403 0.24078545 0.16182667 0.1983161 -0.11662605 0.08524501 -0.4930933 -0.13763352 -0.23999105 -0.3486515 -0.45353508 -0.10157631 -0.086076766 0.111917 0.14825211 0.4110463
problemas -0.22315776 -0.1815907 -0.6143508 0.10222718 -0.44775152 0.59774137 -0.8490906 0.26396677 0.64837086 -0.09119467 0.08153683 -0.32396802 -0.06503204 -0.14495507 0.25299987 0.245334 0.1574981 0.23215203 -0.13489845 0.062161475 -0.48545033 -0.14161392 -0.2543834 -0.37773907 -0.45598403 -0.13224931 -0.10354757 0.15777938 0.15436156 0.4040894
formulario_para -0.21473862 -0.15488303 -0.59045947 0.14768289 -0.44435337 0.63924545 -0.85014886 0.28844085 0.66917896 -0.07965145 0.096541576 -0.31906787 -0.035983473 -0.15490232 0.2506775 0.20909916 0.15456037 0.21850356 -0.12284363 0.0748318 -0.530668 -0.12735653 -0.24193153 -0.35048714 -0.48669234 -0.15040176 -0.11167175 0.15570386 0.15776616 0.4038475
renuncia -0.2002876 -0.19281895 -0.65648997 0.09398985 -0.4645599 0.64078957 -0.8394241 0.29835752 0.6631112 -0.09299198 0.09409186 -0.36585265 -0.04157547 -0.10676099 0.21266639 0.23039871 0.18805945 0.20902672 -0.14239791 0.08354996 -0.5507903 -0.17132768 -0.26977384 -0.38128415 -0.49678507 -0.162816 -0.07727872 0.1625387 0.15775245 0.42491367
archivo -0.24532071 -0.15453248 -0.6328517 0.14462298 -0.4326208 0.57290494 -0.8392495 0.21650572 0.67784864 -0.080565 0.11997272 -0.3214044 -0.048254 -0.15808937 0.28402945 0.2236335 0.2041561 0.23966405 -0.09716253 0.12627749 -0.56275374 -0.1597087 -0.27281034 -0.3061598 -0.44091725 -0.10232141 -0.09619099 0.17448972 0.1665771 0.4268094
valores -0.21308745 -0.17878696 -0.60224396 0.13576318 -0.45904416 0.6352288 -0.86469626 0.299995 0.6581725 -0.05984355 0.11372505 -0.31554836 -0.086074315 -0.121537544 0.23354433 0.21906957 0.15675531 0.25379583 -0.13396034 0.08138346 -0.5022814 -0.1416389 -0.24467197 -0.34589493 -0.48090962 -0.12592828 -0.10404237 0.1490319 0.14856373 0.37691218
personalmente -0.22247061 -0.1523401 -0.60190344 0.10067308 -0.4355922 0.63909835 -0.8688719 0.28051358 0.65907174 -0.08329494 0.11209 -0.3302872 -0.043156214 -0.15292604 0.23654534 0.2141338 0.16985297 0.24382706 -0.1181287 0.07798034 -0.4920942 -0.15446061 -0.26399595 -0.37251636 -0.4603189 -0.12677678 -0.08977124 0.15223657 0.15972957 0.4011131
postulo -0.2331967 -0.15005596 -0.6270845 0.0925175 -0.4325197 0.6232921 -0.83489203 0.28586647 0.69013906 -0.105361596 0.09942345 -0.31596842 -0.063907534 -0.14912404 0.22010623 0.23055708 0.18667564 0.24939615 -0.105965786 0.07433191 -0.51684576 -0.16735357 -0.2492223 -0.375212 -0.45487258 -0.11537904 -0.1171318 0.18342301 0.1754316 0.39826298
exilio -0.21866617 -0.14603324 -0.59561473 0.121629894 -0.40807405 0.6182364 -0.8578062 0.275852 0.65139216 -0.059247892 0.10911319 -0.31501657 -0.03871192 -0.12362154 0.2544055 0.21516085 0.18702698 0.21570417 -0.13344587 0.09821822 -0.5137393 -0.1598714 -0.24001479 -0.371731 -0.4878596 -0.13497357 -0.09357681 0.15972047 0.15942731 0.41019988
nombres -0.2017992 -0.16840333 -0.6132262 0.11841798 -0.46204922 0.62156147 -0.85502774 0.27031687 0.6899281 -0.08891481 0.10301729 -0.3326877 -0.06735311 -0.12653697 0.25513604 0.22450677 0.15571995 0.251677 -0.117866315 0.06579977 -0.5197082 -0.16050482 -0.23865347 -0.33723605 -0.4986453 -0.15105493 -0.09078352 0.15344304 0.12882544 0.42769122
comfandi -0.22282664 -0.16773571 -0.6223563 0.099460125 -0.40844136 0.5856746 -0.86181 0.28458443 0.6494352 -0.07098449 0.10788228 -0.3144287 -0.049633496 -0.1467182 0.25575554 0.24386774 0.19852704 0.21432045 -0.115623616 0.07721521 -0.5012769 -0.14383364 -0.24127157 -0.35527644 -0.4725006 -0.1307683 -0.091539025 0.11835249 0.16876222 0.43156287
nuevos -0.22503541 -0.16647916 -0.61946243 0.11841653 -0.43170723 0.6265636 -0.85065687 0.2850988 0.6636659 -0.07472648 0.092607774 -0.3388531 -0.062464423 -0.120916225 0.24330193 0.21476813 0.15034722 0.2287657 -0.11996742 0.06404983 -0.52958006 -0.14490274 -0.25229788 -0.3722872 -0.46113944 -0.14610013 -0.07552788 0.16307539 0.13831262 0.4233567
envia -0.20482567 -0.14716275 -0.6170296 0.10829328 -0.42646828 0.64006424 -0.86830175 0.2929151 0.6662364 -0.0974316 0.1171831 -0.33092222 -0.068339914 -0.121742524 0.23795752 0.24541529 0.17641711 0.212081 -0.13465536 0.08667838 -0.5168212 -0.15855885 -0.2486247 -0.3783091 -0.482057 -0.11788005 -0.09366709 0.16401039 0.1575372 0.39096525
diligencia -0.22857721 -0.17454377 -0.60504115 0.12445852 -0.4212375 0.6410806 -0.87226224 0.29441664 0.69083303 -0.079994276 0.10772971 -0.32366344 -0.07324666 -0.13848823 0.24680983 0.20607656 0.14702418 0.24360621 -0.112049714 0.07661663 -0.513081 -0.15363412 -0.25535026 -0.34718907 -0.4677048 -0.12938058 -0.11799521 0.13510267 0.1381654 0.37887916
social -0.22204685 -0.16933599 -0.61103004 0.11274724 -0.46129757 0.6449286 -0.8788309 0.28505993 0.6781515 -0.084577814 0.10495017 -0.3556199 -0.042347565 -0.1458081 0.2509617 0.22139324 0.16463245 0.2351338 -0.12261038 0.07843824 -0.49674538 -0.13197124 -0.24256225 -0.36383453 -0.48895308 -0.12758517 -0.09438739 0.1612855 0.15859947 0.41996104
mierda -0.20748933 -0.17841929 -0.63031 0.11721184 -0.44885993 0.62109053 -0.86078197 0.3049633 0.68228376 -0.09645436 0.109692134 -0.35271987 -0.055749927 -0.15274516 0.25066584 0.23056684 0.15197808 0.2435588 -0.1341142 0.08670387 -0.52764225 -0.14656696 -0.25570616 -0.39304826 -0.47333363 -0.12299411 -0.087473564 0.14812481 0.16900526 0.41052854
obviamente -0.23080394 -0.16941743 -0.64322114 0.1094045 -0.43704197 0.62591153 -0.8458666 0.3071438 0.69042116 -0.08229063 0.096740805 -0.32939425 -0.059515398 -0.11112219 0.21932374 0.23354827 0.18574385 0.2567172 -0.111364685 0.08838803 -0.53617287 -0.1483971 -0.24046615 -0.37229612 -0.5012365 -0.15573521 -0.10701498 0.17319645 0.16278738 0.41210827
estudio -0.21075977 -0.18313698 -0.6145611 0.09292456 -0.45627975 0.6127351 -0.8446524 0.28507903 0.68584675 -0.091473565 0.089753374 -0.34470654 -0.0407451 -0.1443139 0.24402691 0.22513013 0.17162445 0.2429291 -0.13404374 0.06815709 -0.51260585 -0.14668144 -0.24637522 -0.34777057 -0.48836166 -0.13783962 -0.11932233 0.14030801 0.14980444 0.38429022
iniciar -0.21344016 -0.15001461 -0.6184113 0.109221764 -0.4520416 0.63018924 -0.8607419 0.2868026 0.6602703 -0.07783922 0.08810386 -0.33383724 -0.056855917 -0.12426036 0.25274885 0.22676907 0.16818662 0.20670953 -0.13575618 0.080394894 -0.50056195 -0.152928 -0.24181946 -0.36148086 -0.47688884 -0.14073299 -0.11060954 0.12881562 0.16263573 0.4151772
piden -0.23046489 -0.16438337 -0.6112552 0.11684246 -0.4274658 0.61661345 -0.8367378 0.29230702 0.65090847 -0.08037957 0.08405098 -0.30841866 -0.058401957 -0.11442185 0.24076284 0.23042233 0.15751992 0.23752163 -0.103808425 0.09112244 -0.50585896 -0.13547473 -0.26258448 -0.36789742 -0.4491336 -0.11895569 -0.10264229 0.13588189 0.12998849 0.3771274
acceso -0.22247706 -0.16346714 -0.6271988 0.10188703 -0.45176876 0.63990134 -0.8752975 0.26591933 0.70007604 -0.09599547 0.08689863 -0.35824147 -0.049789704 -0.15646794 0.26251084 0.23168994 0.18166879 0.25201428 -0.13188413 0.08360531 -0.5169423 -0.17377594 -0.24773833 -0.3466643 -0.48039198 -0.12448307 -0.09787651 0.14616182 0.14892642 0.3983416
rapido -0.24128352 -0.15455766 -0.61223364 0.09975762 -0.4418574 0.6218576 -0.87942463 0.28400612 0.68562406 -0.11772223 0.08786923 -0.31769007 -0.055190556 -0.16186333 0.23120664 0.23276787 0.14991991 0.22836572 -0.1370198 0.10428859 -0.5449509 -0.14073561 -0.27539694 -0.39354542 -0.47663414 -0.119653225 -0.11498049 0.17790627 0.12978767 0.4013146
apartamentos -0.23667297 -0.17780441 -0.6134757 0.08429014 -0.44953626 0.61110806 -0.8958452 0.28537017 0.67065907 -0.063131824 0.07889248 -0.3678103 -0.06856753 -0.14446372 0.23859736 0.23942141 0.18548365 0.20717219 -0.13207373 0.07786016 -0.5410149 -0.15877919 -0.25107458 -0.36959815 -0.49127778 -0.122673035 -0.09044109 0.13567506 0.1698982 0.4377355
ahorro_previo -0.23995589 -0.17654848 -0.6000505 0.1410765 -0.44952592 0.6318042 -0.8577274 0.2938031 0.6807959 -0.053100534 0.09978704 -0.30508652 -0.06382724 -0.09177938 0.22722612 0.24610429 0.16625854 0.2265842 -0.08594457 0.08913264 -0.47877744 -0.13613887 -0.27186227 -0.306169 -0.46292982 -0.13401444 -0.12633242 0.13058197 0.1511732 0.39468575
escrituras -0.2294428 -0.17148347 -0.64245564 0.0870564 -0.42275256 0.62419236 -0.8662816 0.26030883 0.6846173 -0.089977704 0.08798468 -0.34735656 -0.04168467 -0.13798358 0.21239279 0.24373522 0.18219867 0.21495104 -0.1452194 0.092978366 -0.50825804 -0.14073938 -0.25880122 -0.36770734 -0.49291477 -0.15687808 -0.108574 0.13938294 0.1327515 0.4379951
partir -0.1978026 -0.16687468 -0.6166138 0.11109407 -0.4049085 0.6455685 -0.84905887 0.30331144 0.7058204 -0.11582733 0.11645354 -0.33423743 -0.052112952 -0.1425852 0.23970117 0.23102543 0.17940389 0.22316644 -0.1256547 0.07058898 -0.52387434 -0.15374646 -0.24819617 -0.37538666 -0.47542292 -0.1288879 -0.094159044 0.16275644 0.14599973 0.4301805
debil -0.2071221 -0.17091037 -0.6054281 0.09443406 -0.43936628 0.6063995 -0.8522431 0.2932827 0.68059707 -0.092956275 0.115803435 -0.3369652 -0.03898956 -0.121496566 0.21713811 0.22147113 0.17562135 0.21658336 -0.12214437 0.08336139 -0.5229255 -0.14959744 -0.24663375 -0.36242104 -0.4823529 -0.1338771 -0.11063854 0.14021029 0.15339519 0.41038117
novedad -0.21852623 -0.16084328 -0.64712334 0.09525058 -0.43759808 0.632382 -0.83442956 0.2739507 0.6882652 -0.11953293 0.09106701 -0.3145574 -0.05431581 -0.1623461 0.23989984 0.20415385 0.15995805 0.20890374 -0.10405195 0.08967722 -0.54658633 -0.16491629 -0.255151 -0.3623571 -0.49870482 -0.15498063 -0.07887995 0.16665366 0.12856169 0.3976241
construir -0.22374095 -0.13765015 -0.6206389 0.09223138 -0.4140584 0.6083425 -0.8732307 0.2757206 0.68021554 -0.08669027 0.13598527 -0.3572459 -0.028979758 -0.14838466 0.2851904 0.2533524 0.18768755 0.22990964 -0.15979326 0.076502666 -0.48919415 -0.15433845 -0.2302315 -0.3243294 -0.47311437 -0.119854175 -0.07186246 0.11916657 0.1608073 0.45328853
aprobado_preaprobado -0.22316158 -0.16950522 -0.60702735 0.14240953 -0.46732786 0.6307822 -0.85609996 0.30421108 0.68034214 -0.08016578 0.09648835 -0.3255664 -0.060901515 -0.11050142 0.24057384 0.22461726 0.17209493 0.22637302 -0.12931518 0.090747006 -0.5036822 -0.12485196 -0.25978732 -0.3428592 -0.4779078 -0.15110995 -0.10174466 0.1407815 0.19095421 0.39617613
suicidio -0.20111416 -0.14018726 -0.62467057 0.12692171 -0.4495493 0.6201478 -0.8332314 0.2912606 0.65777284 -0.071946606 0.10229369 -0.33408087 -0.053648163 -0.115511015 0.23498367 0.20996006 0.16981179 0.22689614 -0.13390405 0.10627233 -0.50242573 -0.16219774 -0.24596469 -0.32424945 -0.46645358 -0.14707233 -0.10057409 0.15637313 0.13508742 0.41211998
estacion -0.22453672 -0.1449979 -0.6497671 0.11544643 -0.4400304 0.6501417 -0.8716085 0.29863572 0.707667 -0.07882982 0.0980323 -0.35714215 -0.06584351 -0.1577145 0.24288994 0.22138019 0.15339924 0.2531872 -0.12562674 0.087089635 -0.5402084 -0.16170284 -0.26557073 -0.34503 -0.5072315 -0.12800239 -0.08581383 0.17465137 0.16320612 0.43627638
edad -0.2298053 -0.1820255 -0.61880463 0.12362686 -0.4379379 0.61086327 -0.86349 0.2873072 0.6925319 -0.07638554 0.11581789 -0.34849963 -0.036604464 -0.13480696 0.22598216 0.24483016 0.14981548 0.24211259 -0.13496916 0.09186435 -0.5362393 -0.17423569 -0.23875263 -0.37611946 -0.47879788 -0.12903434 -0.11129558 0.17314814 0.14379299 0.40025607
sushi -0.21616402 -0.16301925 -0.58870834 0.10105378 -0.41480646 0.62685364 -0.8155525 0.2686045 0.6384724 -0.06461663 0.08108141 -0.32863095 -0.02863107 -0.12641189 0.23851527 0.22166936 0.16899717 0.20448625 -0.13986072 0.09275932 -0.52277493 -0.13201338 -0.23093331 -0.36930418 -0.47179702 -0.12779884 -0.093937315 0.16924693 0.14378604 0.39235127
solicitarndo -0.22511141 -0.1499019 -0.5919637 0.11809262 -0.44904497 0.6237891 -0.8441513 0.27699333 0.6566361 -0.10313611 0.10649405 -0.3328974 -0.061554622 -0.1333554 0.22294179 0.23103921 0.16212057 0.23513764 -0.13538197 0.106981404 -0.5088583 -0.16264856 -0.24980165 -0.34427255 -0.4567259 -0.1458692 -0.09572618 0.14930315 0.16196111 0.3801465
completo -0.19302171 -0.15653785 -0.5970251 0.11576277 -0.44624066 0.60201114 -0.84900796 0.27997017 0.68019366 -0.10352336 0.1090077 -0.33013517 -0.046077788 -0.1361581 0.23082028 0.22464222 0.1610898 0.21303365 -0.10580763 0.062462166 -0.5048812 -0.13939537 -0.25780648 -0.38020244 -0.4923619 -0.14408743 -0.08839351 0.14993517 0.17422014 0.39785215
actual -0.21426529 -0.17360173 -0.62207264 0.11814272 -0.4652421 0.63192874 -0.8580519 0.27895805 0.6919202 -0.08704679 0.10565552 -0.34378737 -0.042983513 -0.1396045 0.25300416 0.20843612 0.17671114 0.2560168 -0.11081098 0.08783824 -0.52503574 -0.16084847 -0.2767667 -0.35865402 -0.5106694 -0.145615 -0.120583855 0.17469274 0.15863712 0.41395625
vivir -0.21268316 -0.16840447 -0.6173324 0.109255694 -0.46161467 0.65440154 -0.8515421 0.27347103 0.6844612 -0.07461743 0.081738584 -0.32844946 -0.0693009 -0.15429738 0.26108783 0.23064019 0.18142986 0.2259036 -0.1560847 0.07212962 -0.52410907 -0.15001918 -0.24318069 -0.3766463 -0.4719721 -0.13896242 -0.09178612 0.13815418 0.15347424 0.39453453
programa -0.20856594 -0.17303099 -0.6114157 0.1325725 -0.41439292 0.6133371 -0.83916384 0.2883249 0.64945453 -0.07688352 0.092896275 -0.33356416 -0.03079008 -0.11464701 0.22057717 0.21185549 0.17171676 0.24920948 -0.12928694 0.09024052 -0.49641782 -0.14398687 -0.23996554 -0.35709018 -0.470572 -0.11542437 -0.08642319 0.14453354 0.1282924 0.39400098
salario -0.23364988 -0.15195931 -0.6115231 0.12216255 -0.41428602 0.593573 -0.8416833 0.28938094 0.66735435 -0.06906987 0.10764737 -0.35095757 -0.05036689 -0.12454949 0.24535556 0.21766351 0.17883268 0.23996374 -0.14576726 0.072652236 -0.49282613 -0.1281453 -0.25519076 -0.36107144 -0.48513255 -0.106531024 -0.099736415 0.15004332 0.15893967 0.40767887
entendido -0.20618616 -0.15938896 -0.61789197 0.12552391 -0.41989058 0.62447834 -0.828893 0.27586108 0.6604934 -0.062721476 0.10340243 -0.3472237 -0.038546793 -0.14151332 0.24139084 0.23387338 0.15231831 0.22196451 -0.1094273 0.08730854 -0.5151033 -0.14379564 -0.26219243 -0.34652048 -0.48121998 -0.13382721 -0.100359954 0.12188396 0.1688361 0.3914624
haria -0.22631632 -0.16896074 -0.6052814 0.10084194 -0.44735947 0.63302064 -0.8607504 0.288605 0.6898443 -0.098608695 0.10599491 -0.3215709 -0.039022658 -0.13831432 0.2140092 0.216511 0.18756427 0.25742432 -0.12940003 0.073049575 -0.49935713 -0.14067014 -0.26654583 -0.37247428 -0.49387917 -0.12777936 -0.1203865 0.13708515 0.15737638 0.3809706
separacion -0.19960439 -0.16266598 -0.5793102 0.122214094 -0.42407838 0.61581844 -0.8264348 0.28913385 0.6629012 -0.06755395 0.09085449 -0.31071025 -0.06737745 -0.12155717 0.23584715 0.22266328 0.17333136 0.22611678 -0.10907616 0.070155285 -0.49237108 -0.15161885 -0.24642137 -0.35435328 -0.4833107 -0.12821153 -0.13399324 0.12109491 0.15894482 0.38444558
senorito -0.23266958 -0.1745799 -0.60702544 0.107849404 -0.43460417 0.6214675 -0.85516036 0.29597726 0.6912096 -0.0772184 0.077115126 -0.33853593 -0.03182844 -0.15269081 0.22974028 0.20067273 0.15848182 0.21516548 -0.11094873 0.08701491 -0.5039291 -0.16235265 -0.24721737 -0.36419278 -0.47097635 -0.12597565 -0.087570325 0.16230905 0.16528942 0.38790154
sucio -0.20758279 -0.17600192 -0.58547163 0.11113123 -0.42213145 0.5896197 -0.8338978 0.28287485 0.67745 -0.0919186 0.11466838 -0.3380945 -0.043475777 -0.13730617 0.23716392 0.2030122 0.1380806 0.2355324 -0.13364942 0.09943473 -0.50194865 -0.13905613 -0.24233714 -0.35269386 -0.4690502 -0.12956433 -0.108879 0.14556411 0.13608876 0.37245446
trato -0.22754481 -0.16428538 -0.64200836 0.110888496 -0.45445698 0.6210932 -0.8648441 0.2846076 0.7150381 -0.06588242 0.098381676 -0.3497046 -0.05253167 -0.1516682 0.23924807 0.24894519 0.1925797 0.25219578 -0.1215095 0.09586594 -0.54959875 -0.14504884 -0.26907715 -0.35619396 -0.48767346 -0.15122724 -0.1225141 0.15883356 0.17220093 0.42429173
cerrado -0.21759903 -0.18044993 -0.635438 0.111555934 -0.4336233 0.6183863 -0.87183034 0.2926409 0.6737845 -0.10995325 0.075832605 -0.35172433 -0.04066311 -0.149391 0.25815105 0.23408541 0.17837153 0.21437263 -0.1165146 0.056585412 -0.5317489 -0.1561539 -0.2687874 -0.35206378 -0.4949277 -0.115603425 -0.111979745 0.1493133 0.15869552 0.40365687
aportes_periodicos -0.22614889 -0.13471472 -0.5974142 0.11934596 -0.4335364 0.6138435 -0.8349775 0.30397564 0.65468496 -0.06458625 0.11335648 -0.32587305 -0.05724921 -0.10832412 0.24518639 0.24101792 0.1560266 0.23008017 -0.112985164 0.071324475 -0.49070686 -0.15184069 -0.24492818 -0.31395915 -0.4815306 -0.13503544 -0.12803154 0.12858972 0.18094781 0.36068064
poquito -0.215734 -0.18118323 -0.6218174 0.13590561 -0.44013977 0.6356338 -0.8550567 0.28014615 0.68154573 -0.06610517 0.121881396 -0.3367684 -0.061616316 -0.13177854 0.22142276 0.23306751 0.17220129 0.24938858 -0.12453509 0.077521116 -0.5133503 -0.14883293 -0.25705564 -0.3767432 -0.4952716 -0.1354096 -0.11332796 0.13472651 0.13904497 0.4191548
cuestion -0.2257876 -0.16084085 -0.61312187 0.13617215 -0.45219296 0.6178866 -0.84150636 0.2907673 0.6792248 -0.061738204 0.09993482 -0.3544835 -0.06896416 -0.14061469 0.21977738 0.20942925 0.16628939 0.2590079 -0.12326572 0.107575595 -0.51517016 -0.17579684 -0.26005685 -0.35830215 -0.4951574 -0.14554872 -0.1283991 0.15293236 0.15153219 0.40396968
creditos -0.23132044 -0.15025544 -0.598665 0.11015082 -0.4422759 0.6030972 -0.87144923 0.27526402 0.69394594 -0.070053905 0.09971341 -0.33585292 -0.063220106 -0.12907536 0.22045782 0.23067042 0.15929799 0.2311097 -0.12372449 0.07546393 -0.5399895 -0.16418497 -0.23772486 -0.3369148 -0.4618332 -0.12557848 -0.121716455 0.15694132 0.15465494 0.42481163
motivo -0.22042668 -0.15630129 -0.63085014 0.10915496 -0.42583907 0.6291005 -0.8513436 0.31092763 0.71417516 -0.08471033 0.07471737 -0.33618915 -0.04868269 -0.13576521 0.2500233 0.23463538 0.1613234 0.24272437 -0.12053065 0.06643867 -0.5414042 -0.14060816 -0.28369513 -0.3458648 -0.5134282 -0.15885556 -0.092359915 0.16025989 0.16320704 0.4187882
llegue -0.21983343 -0.15273587 -0.6410456 0.1153534 -0.44078925 0.6373384 -0.8719791 0.26929295 0.6886786 -0.0788907 0.08542193 -0.34076065 -0.074933484 -0.13523594 0.24319458 0.20698681 0.1710892 0.22848357 -0.12692276 0.07232111 -0.53144985 -0.14451383 -0.25801486 -0.3481272 -0.46454358 -0.1324001 -0.09193713 0.16447082 0.14976303 0.3950818
deberia -0.22642162 -0.14971639 -0.6608389 0.05263756 -0.47473988 0.58224195 -0.78912157 0.35176224 0.689901 -0.032056745 0.027802527 -0.33404118 -0.10013455 -0.17708486 0.24667528 0.24319445 0.17854756 0.22995481 -0.09977101 0.08392655 -0.5789067 -0.20479794 -0.3080953 -0.33508673 -0.52267385 -0.17551035 -0.06014546 0.22228052 0.1382984 0.467034
hijos -0.22784822 -0.17005411 -0.6298486 0.1291462 -0.43993583 0.61027807 -0.8682138 0.28930545 0.67197484 -0.09277875 0.11805818 -0.3308977 -0.052229043 -0.14300437 0.2288011 0.20963107 0.15444441 0.22544836 -0.12887082 0.09329744 -0.49701786 -0.1648445 -0.25235397 -0.35692576 -0.45737702 -0.11723262 -0.101346314 0.1440482 0.17544766 0.41140348
practicamente -0.21956058 -0.14169967 -0.6174465 0.12244275 -0.4635077 0.6438101 -0.87426007 0.27478462 0.6986854 -0.08044406 0.096672334 -0.3387995 -0.07581412 -0.13950077 0.24948783 0.21069533 0.15661734 0.23961958 -0.12222189 0.100948334 -0.5169634 -0.14958835 -0.26175973 -0.36267385 -0.48921654 -0.15554231 -0.11770487 0.1586174 0.1383206 0.4082244
necesita -0.21050408 -0.16721031 -0.58509654 0.10743992 -0.42263463 0.6041135 -0.8259511 0.2890873 0.66809136 -0.06877176 0.09749545 -0.30269435 -0.050779637 -0.13957968 0.21720834 0.20353474 0.15681699 0.24418281 -0.13018984 0.07926688 -0.51687586 -0.14303671 -0.2498346 -0.34917438 -0.47669038 -0.13922767 -0.089838244 0.16879527 0.1470236 0.41085222
recursos -0.23281929 -0.16312777 -0.6137549 0.12504035 -0.4388869 0.62378967 -0.8436028 0.3045932 0.68739307 -0.08950027 0.114834026 -0.32130426 -0.070790276 -0.14330995 0.24101005 0.22840326 0.17668198 0.26246142 -0.10997437 0.0953966 -0.500937 -0.15070648 -0.24283414 -0.34027424 -0.47911844 -0.13891706 -0.10065141 0.1569008 0.16601503 0.39231002
simplemente -0.22453865 -0.16585337 -0.60758424 0.12404135 -0.42763737 0.6271714 -0.86332077 0.28438112 0.6900423 -0.08821457 0.093663864 -0.3216486 -0.044830445 -0.12392311 0.24517143 0.20580639 0.16883065 0.22765727 -0.14127778 0.078827836 -0.51221526 -0.13085681 -0.24018632 -0.34769654 -0.46752447 -0.14503108 -0.11391681 0.16115384 0.13342997 0.39314312
vive -0.21229422 -0.13355105 -0.59756076 0.1237981 -0.43423802 0.62053686 -0.82599473 0.2818475 0.64001757 -0.1014934 0.08408203 -0.320965 -0.05705522 -0.15325128 0.23351112 0.2225764 0.1604973 0.21432309 -0.11912154 0.06919187 -0.51649123 -0.1482036 -0.25057688 -0.34320742 -0.48087835 -0.13288336 -0.11629652 0.1375349 0.14331686 0.39134255
respecto -0.19392271 -0.14933954 -0.63431513 0.10713851 -0.45369324 0.6369344 -0.84312135 0.29195789 0.6648187 -0.07032989 0.09420397 -0.34464487 -0.071501 -0.12483543 0.24838613 0.23252764 0.1533816 0.2595784 -0.0954587 0.08230688 -0.49350247 -0.1460442 -0.27530935 -0.34694076 -0.5000129 -0.13778971 -0.10215919 0.15522407 0.1446376 0.42437005
hablan -0.23561712 -0.17814776 -0.60854584 0.10658775 -0.45152533 0.6328539 -0.83771664 0.29443347 0.67337626 -0.10062804 0.10053522 -0.33131966 -0.07392789 -0.119109206 0.22532356 0.21250373 0.16552465 0.2531109 -0.107578844 0.10047569 -0.509678 -0.15230013 -0.24387969 -0.3510528 -0.4938912 -0.13985758 -0.110555686 0.16486505 0.13710582 0.39981577
probado -0.21186581 -0.14983407 -0.6043261 0.11900419 -0.4561517 0.62794286 -0.85703474 0.29038075 0.6573198 -0.055528898 0.08310423 -0.34506616 -0.04250087 -0.12244339 0.22248454 0.23552015 0.17929769 0.22583087 -0.1193776 0.082289666 -0.5151153 -0.14337054 -0.26039213 -0.3612194 -0.48053676 -0.14093478 -0.128725 0.1261597 0.16937175 0.41916573
jefe -0.22667715 -0.15997155 -0.61918974 0.09915889 -0.4482188 0.64245355 -0.87470436 0.30102095 0.6784242 -0.06871915 0.08707503 -0.3514638 -0.07173308 -0.12573233 0.2503879 0.24229124 0.16367993 0.25034317 -0.10818559 0.08260013 -0.5062654 -0.15120909 -0.26596692 -0.34528294 -0.47496262 -0.12629901 -0.111083366 0.1637342 0.1454216 0.41135243
hogar -0.22830823 -0.19205289 -0.60773754 0.11166761 -0.45916775 0.6166743 -0.87082994 0.27929226 0.6961172 -0.073642045 0.092616394 -0.3444354 -0.056171317 -0.14213778 0.25722712 0.23978677 0.164519 0.22982214 -0.11887311 0.07075503 -0.49885827 -0.14777882 -0.2493603 -0.34096655 -0.5157905 -0.16387095 -0.10453178 0.16314371 0.16011237 0.43270475
ademas -0.21312904 -0.17620134 -0.6051677 0.103654064 -0.4493567 0.6139789 -0.8740341 0.29376888 0.6938278 -0.10494849 0.095268965 -0.33651552 -0.06339214 -0.12822638 0.25734583 0.2156397 0.17360666 0.24193789 -0.13552184 0.087037235 -0.51054645 -0.1433728 -0.24601279 -0.36042517 -0.4951402 -0.13975553 -0.11482464 0.14800134 0.1433927 0.41959828
comunicarme -0.21391062 -0.1710422 -0.5990595 0.10737445 -0.4374488 0.618114 -0.85681176 0.2870683 0.6879801 -0.08749477 0.10755166 -0.31606653 -0.04744023 -0.12474745 0.23246717 0.23935309 0.14210048 0.23953451 -0.12945509 0.09410034 -0.5014783 -0.1273913 -0.2680421 -0.3493074 -0.45885903 -0.13902241 -0.11437673 0.1618092 0.13726406 0.39719284
viento -0.22196208 -0.17857984 -0.5969182 0.10771283 -0.43886682 0.6102855 -0.8510999 0.27349988 0.67653537 -0.10020581 0.11060642 -0.3124474 -0.036999855 -0.12260216 0.24391529 0.22129509 0.1605723 0.22555017 -0.10308778 0.08307633 -0.50791776 -0.13467312 -0.23622379 -0.33452308 -0.47901592 -0.12393901 -0.12190187 0.17043455 0.1397727 0.3782773
tercer -0.20554112 -0.16863525 -0.5752046 0.09417662 -0.41871044 0.609182 -0.84381497 0.2769718 0.6283206 -0.058302402 0.12206907 -0.33645734 -0.04625418 -0.11757133 0.23153456 0.21015565 0.14805903 0.2454576 -0.102677844 0.08902237 -0.484765 -0.16511962 -0.24941193 -0.3485928 -0.4671766 -0.106840745 -0.11597596 0.15012455 0.15501408 0.40080318
solicito -0.1986513 -0.1785301 -0.61940193 0.10047554 -0.451188 0.6342458 -0.8295249 0.26802626 0.67384547 -0.09794702 0.09015667 -0.34843737 -0.05068519 -0.112117946 0.22197253 0.23656005 0.1471842 0.224809 -0.118861936 0.10600642 -0.5038076 -0.14231592 -0.25157875 -0.36139882 -0.4565811 -0.13207303 -0.10132551 0.14669149 0.1395495 0.38680536
comenta -0.22049528 -0.18095426 -0.6461924 0.10173874 -0.42609853 0.6182043 -0.8328054 0.30201638 0.7101327 -0.097179405 0.08682415 -0.35401008 -0.049814396 -0.15632366 0.24872763 0.2397998 0.1852614 0.23503944 -0.12134099 0.069687076 -0.5425695 -0.13375437 -0.2796549 -0.37944856 -0.49561688 -0.14587836 -0.094061814 0.14194822 0.13845152 0.4187867
quede -0.21683557 -0.15471688 -0.63576186 0.104085386 -0.44058666 0.6452864 -0.8693369 0.28393063 0.69946885 -0.073719 0.10395087 -0.32856688 -0.040490434 -0.12965514 0.24696033 0.23892455 0.14302102 0.2475463 -0.13759366 0.09257712 -0.5141102 -0.14560576 -0.24853307 -0.374459 -0.503267 -0.14907219 -0.09530561 0.1438444 0.1504532 0.41525722
popular -0.22048952 -0.16115844 -0.60708016 0.12259865 -0.44453585 0.63776183 -0.8446038 0.28047836 0.6586102 -0.09561145 0.0903645 -0.3333402 -0.047844134 -0.13865328 0.2530358 0.23204525 0.15451321 0.22719002 -0.106124975 0.0729021 -0.4977366 -0.16798986 -0.26656953 -0.37271038 -0.48870224 -0.124158494 -0.10315469 0.14103462 0.14828828 0.40693232
pidiendo -0.21899427 -0.18174623 -0.61911255 0.1107887 -0.4339047 0.59482807 -0.834823 0.28019753 0.6745011 -0.06042025 0.08583321 -0.33204278 -0.060937677 -0.10657307 0.22920205 0.2131509 0.1572465 0.2503889 -0.12593848 0.09610398 -0.52936685 -0.13240027 -0.2630275 -0.34828854 -0.45055363 -0.11688809 -0.118255 0.15194897 0.15436536 0.3964967
paginas -0.2462517 -0.15734583 -0.6421165 0.1395101 -0.45416796 0.62962544 -0.874961 0.25065464 0.68055063 -0.07997281 0.09750382 -0.32321286 -0.055569015 -0.15955117 0.27553743 0.24639009 0.19282399 0.22759768 -0.0928539 0.10298064 -0.53967667 -0.16559784 -0.2920904 -0.3537533 -0.47618014 -0.1111474 -0.08343583 0.14480412 0.1350778 0.42988032
vete -0.21244773 -0.1564225 -0.6030816 0.12792058 -0.4100958 0.614542 -0.83182144 0.25846675 0.6547702 -0.096999064 0.09913532 -0.33261588 -0.03429232 -0.15055503 0.2288421 0.22072953 0.15536696 0.21618614 -0.14189652 0.06418393 -0.50879174 -0.14180772 -0.2320595 -0.34338605 -0.48289704 -0.12101385 -0.098548815 0.14020458 0.16317672 0.3839707
corregir -0.24083503 -0.16699454 -0.5939048 0.1033627 -0.4475454 0.60264325 -0.8466807 0.26669124 0.6837234 -0.11751754 0.075061046 -0.36154658 -0.024537615 -0.1395041 0.24746135 0.18786535 0.15971178 0.20853512 -0.15560609 0.098371856 -0.5417522 -0.15002443 -0.2742371 -0.33252367 -0.47851056 -0.1255597 -0.114187494 0.16364524 0.12532519 0.40923446
indicar -0.20836927 -0.17036547 -0.6043993 0.14909926 -0.44923812 0.65047723 -0.86209905 0.2782949 0.69689834 -0.087836586 0.109401636 -0.35452715 -0.056266665 -0.15248317 0.22983369 0.24971929 0.16299516 0.21064012 -0.12008307 0.0688121 -0.51865506 -0.12882221 -0.26891276 -0.3534203 -0.4841896 -0.13139385 -0.11834288 0.16492671 0.18533748 0.39262035
entrega -0.23831968 -0.17727089 -0.6377926 0.11210227 -0.42776084 0.63274366 -0.8629301 0.284467 0.69867235 -0.08915131 0.09512259 -0.33968472 -0.027604412 -0.13168393 0.23931645 0.22772111 0.17730702 0.22022341 -0.11470351 0.077977195 -0.51712847 -0.12973021 -0.25389546 -0.34776023 -0.48969686 -0.16178724 -0.0830849 0.17186512 0.15795417 0.4072985
lejos -0.21863012 -0.17037863 -0.5962663 0.10586794 -0.4193331 0.6040329 -0.8650687 0.28649735 0.67579436 -0.065542325 0.10472589 -0.32759112 -0.040893078 -0.16171032 0.24906681 0.22124958 0.16528954 0.24438523 -0.13285282 0.06626236 -0.52314174 -0.13321012 -0.23483162 -0.36252984 -0.46742636 -0.12176948 -0.0965016 0.1361476 0.13314763 0.39220226
pandemia -0.19828874 -0.16804887 -0.6148857 0.122326925 -0.40529805 0.6059285 -0.83664405 0.27240053 0.6676302 -0.08784612 0.09099373 -0.3229674 -0.05861362 -0.11637336 0.23424645 0.22240022 0.15669249 0.23673014 -0.10000538 0.084838055 -0.50182784 -0.15165995 -0.25769055 -0.35538888 -0.47596788 -0.115541816 -0.0866969 0.16830571 0.14148605 0.40720195
deben -0.22217043 -0.15555881 -0.621534 0.09377511 -0.45150325 0.6135042 -0.86210763 0.2969229 0.67254424 -0.08690873 0.0982782 -0.3313562 -0.06776564 -0.12031538 0.24585725 0.21439703 0.16412771 0.24636827 -0.13595599 0.082602896 -0.5055237 -0.14733219 -0.2709853 -0.3637025 -0.4776985 -0.12388621 -0.1235771 0.16111879 0.17881368 0.41601443
septiembre -0.2176854 -0.17790428 -0.6058937 0.113724984 -0.44263363 0.60270673 -0.8177869 0.28776163 0.6971906 -0.06948772 0.07129146 -0.35530743 -0.032066785 -0.1215841 0.2030198 0.22855313 0.1513339 0.20220576 -0.13191907 0.0709571 -0.5178569 -0.12749137 -0.27485138 -0.35365757 -0.49145642 -0.14919907 -0.08119328 0.16717763 0.15597855 0.4107783
unicamente -0.2254355 -0.1585337 -0.6156091 0.10520565 -0.43130127 0.6072102 -0.85617006 0.3002997 0.64538485 -0.074489415 0.11371034 -0.34114242 -0.087089375 -0.095236436 0.2202676 0.22704306 0.15420915 0.2243787 -0.11260315 0.09825675 -0.5041453 -0.124417275 -0.2429504 -0.32841024 -0.45673588 -0.12731197 -0.13153887 0.14601327 0.17182012 0.37893325
alta -0.23588338 -0.17869566 -0.6175614 0.11159052 -0.4394657 0.6199381 -0.84272313 0.2669006 0.69439936 -0.08922126 0.11403704 -0.36022133 -0.058940105 -0.14532863 0.23041531 0.24307793 0.17933856 0.24808684 -0.11307722 0.106024034 -0.5322542 -0.15813774 -0.27274212 -0.37273335 -0.48730806 -0.16036847 -0.119136214 0.15102999 0.16202246 0.4073663
tradicion -0.22703741 -0.142509 -0.6040989 0.105922766 -0.4439809 0.61710024 -0.87696314 0.26972696 0.696162 -0.067006744 0.13178006 -0.33844343 -0.03011576 -0.16093324 0.25167477 0.22974306 0.17270143 0.22571214 -0.157653 0.10248388 -0.5209855 -0.14664897 -0.25735164 -0.3714272 -0.45856556 -0.14683008 -0.10787508 0.13207534 0.15939385 0.42923805
clientes -0.2090587 -0.14280424 -0.61243194 0.09446935 -0.4428618 0.61281323 -0.85770416 0.2969584 0.6773611 -0.07032604 0.119121514 -0.3298302 -0.054313086 -0.13683842 0.22988158 0.21895911 0.15134166 0.24342132 -0.11458293 0.069669604 -0.52515393 -0.14041387 -0.24459521 -0.35842654 -0.47994548 -0.15211204 -0.11249572 0.15938337 0.16271713 0.40463814
entregan -0.22433425 -0.16104904 -0.6732222 0.094069004 -0.43975878 0.6571123 -0.8836523 0.31385052 0.7334672 -0.087941974 0.094790906 -0.35210937 -0.04225728 -0.1629076 0.25556472 0.22198541 0.15982245 0.24281967 -0.1378303 0.101895735 -0.5535937 -0.14306352 -0.24564531 -0.37621877 -0.5084943 -0.15979414 -0.08529299 0.15084353 0.15532926 0.45113787
gustaria -0.2103247 -0.13968472 -0.6004109 0.114976175 -0.4368969 0.59263253 -0.8130204 0.2936424 0.65140724 -0.067513734 0.11049285 -0.31904176 -0.046617456 -0.15587363 0.2333758 0.24632622 0.17542934 0.2248407 -0.106005006 0.07366936 -0.50724584 -0.14605562 -0.2542559 -0.34554023 -0.47165576 -0.122882195 -0.07379482 0.18169664 0.13250843 0.40696
tarjeta -0.20625855 -0.17365845 -0.61949426 0.121915326 -0.4600584 0.6365343 -0.8685385 0.2774235 0.69480795 -0.09957108 0.09337378 -0.3425455 -0.044973757 -0.15197703 0.23116888 0.24771447 0.17397474 0.22384462 -0.13232866 0.10442755 -0.5003961 -0.14963497 -0.25990534 -0.36204875 -0.49277484 -0.15430327 -0.096329615 0.1714768 0.16171025 0.40357703
queriamos -0.24507861 -0.14034472 -0.59139526 0.09757605 -0.43588397 0.58568776 -0.86444503 0.24942008 0.6549074 -0.062209807 0.09983631 -0.3567093 -0.061605807 -0.13997595 0.2581035 0.23045544 0.19235061 0.23104116 -0.1538635 0.0648326 -0.51998454 -0.12871462 -0.24367757 -0.3204627 -0.44265807 -0.118482836 -0.09549974 0.13289332 0.15007679 0.42664286
existe -0.20669432 -0.14224763 -0.59038895 0.09385445 -0.4400875 0.63584167 -0.86038625 0.26046833 0.675183 -0.09525693 0.10676029 -0.35616267 -0.04108863 -0.14921902 0.23158467 0.23991019 0.17071904 0.2233398 -0.116433665 0.084109314 -0.49571297 -0.16499196 -0.2589702 -0.34312624 -0.4727455 -0.123952515 -0.111200646 0.16396618 0.1302827 0.40267694
octubre -0.1952533 -0.1704218 -0.58665484 0.12033035 -0.43100056 0.6037397 -0.8385641 0.25543115 0.66135985 -0.090197824 0.07277688 -0.33574864 -0.037768807 -0.12820935 0.2146667 0.20087317 0.17535765 0.22223122 -0.14069112 0.094683744 -0.51029086 -0.15367779 -0.25971928 -0.3631685 -0.47570843 -0.12356585 -0.12168413 0.16419649 0.1467247 0.40504143
enviaron -0.19682214 -0.15522465 -0.6193437 0.13729165 -0.42385423 0.59240794 -0.8182703 0.26165262 0.68664336 -0.07124497 0.098327525 -0.3396314 -0.056381475 -0.117665134 0.21947029 0.21262093 0.15822604 0.24638309 -0.14714715 0.07031529 -0.53176206 -0.15102518 -0.27394903 -0.3593139 -0.48254615 -0.13610204 -0.11921312 0.15577818 0.15285887 0.41636446
compartir -0.22066306 -0.15140577 -0.59922385 0.122418396 -0.42636967 0.61705637 -0.84383655 0.28947932 0.6785426 -0.08431425 0.08689764 -0.34045452 -0.062146112 -0.14808631 0.22325774 0.20806637 0.17762044 0.22179528 -0.107203096 0.07083138 -0.48880863 -0.15273501 -0.26544172 -0.34505987 -0.46559963 -0.15088335 -0.1232263 0.15043516 0.15449567 0.4064179
parar -0.22051464 -0.17889275 -0.5875744 0.10528032 -0.41940004 0.60935694 -0.8553606 0.28385937 0.65010786 -0.09875532 0.08999253 -0.32885596 -0.059223518 -0.13900727 0.24697086 0.22388758 0.17615412 0.24611202 -0.13406003 0.06979987 -0.49151 -0.15185952 -0.2460272 -0.3401329 -0.45271367 -0.14824487 -0.092260525 0.15400748 0.12954216 0.39184535
formula -0.21009131 -0.17920609 -0.6058671 0.13262077 -0.43492395 0.65338624 -0.8625591 0.2724227 0.7171645 -0.0708188 0.092221364 -0.35636824 -0.028240288 -0.15265879 0.23134173 0.2228371 0.18960094 0.26291493 -0.11307237 0.083502285 -0.5079538 -0.14238875 -0.26168728 -0.37331092 -0.48972702 -0.13659891 -0.108591214 0.14978792 0.14392361 0.39296505
puse -0.20266783 -0.16525257 -0.6035219 0.12912577 -0.45642433 0.62513745 -0.8346183 0.28522748 0.6932707 -0.0813247 0.11707648 -0.35260373 -0.06592806 -0.14077339 0.22034545 0.23423208 0.16682483 0.21243742 -0.14648655 0.069592 -0.53321993 -0.1346064 -0.27739564 -0.37815443 -0.4545818 -0.13880554 -0.08415496 0.17070633 0.1564206 0.41285202
entro -0.23717746 -0.15972976 -0.61140287 0.1158387 -0.44054326 0.6229566 -0.84333944 0.27783105 0.6667774 -0.09790673 0.08367694 -0.33229125 -0.046006422 -0.142582 0.24092482 0.2136772 0.17075494 0.24304266 -0.12490484 0.09855184 -0.5237099 -0.14512973 -0.2434725 -0.37785524 -0.45859757 -0.13318178 -0.092173696 0.13584538 0.15364675 0.40361828
cancion -0.23623268 -0.15586136 -0.5908116 0.110895306 -0.42127785 0.6293604 -0.85174066 0.26497024 0.6538424 -0.09332123 0.093646064 -0.33983672 -0.067188516 -0.13896425 0.23535867 0.2275632 0.17056613 0.2426724 -0.102971934 0.08796125 -0.5255297 -0.13732645 -0.23697104 -0.37076008 -0.4692022 -0.13173828 -0.08427508 0.13171864 0.13643982 0.38767368
necesario -0.20476402 -0.17509696 -0.6254397 0.11654908 -0.44411117 0.63073856 -0.8519629 0.2782464 0.6730345 -0.08589524 0.097088434 -0.35534728 -0.070625454 -0.14372003 0.2583651 0.22490105 0.18685362 0.21196851 -0.14231081 0.06525047 -0.52227783 -0.13347277 -0.23928115 -0.35802668 -0.47241217 -0.14089079 -0.119274564 0.12517932 0.16001268 0.40840667
exito -0.22839415 -0.1442186 -0.6142676 0.1097723 -0.43928263 0.6201737 -0.88783735 0.30221775 0.6747749 -0.08065575 0.08953388 -0.32241726 -0.058254145 -0.1305312 0.25748017 0.22603124 0.19536148 0.23822826 -0.13196021 0.08665435 -0.5156175 -0.15688738 -0.26555458 -0.36315852 -0.4608314 -0.11213994 -0.093705334 0.14160475 0.15764157 0.41226715
importa -0.21958363 -0.16404231 -0.6054579 0.09663102 -0.43947744 0.63050634 -0.8619431 0.27422464 0.6886967 -0.10122068 0.1255889 -0.32064047 -0.06589539 -0.13996895 0.2471575 0.2245523 0.17666833 0.2253352 -0.11144929 0.07766777 -0.51128733 -0.14219904 -0.25819013 -0.34810433 -0.475309 -0.12005069 -0.0913534 0.12643687 0.17828214 0.418598
nuevas -0.23008502 -0.14160776 -0.63598317 0.13975838 -0.43108988 0.63738745 -0.84707546 0.2727012 0.69934976 -0.09735554 0.12129985 -0.3306411 -0.06436893 -0.14372376 0.25836506 0.22537203 0.15882708 0.22319864 -0.13192025 0.09344884 -0.5312345 -0.15491238 -0.25878307 -0.34795582 -0.49034035 -0.12325761 -0.11466878 0.13496867 0.1400702 0.42168915
zonas -0.24743105 -0.14839815 -0.64706403 0.109796226 -0.43609098 0.64255494 -0.88361275 0.2765459 0.69954383 -0.10175434 0.10590285 -0.3375694 -0.05578706 -0.15642703 0.24981003 0.21465766 0.16286004 0.21613044 -0.11713731 0.063855834 -0.52273333 -0.17295182 -0.26714137 -0.35190266 -0.50434726 -0.13744289 -0.12463628 0.14806233 0.13979962 0.43772525
