649 30
personas -0.49560565 -0.191721 -0.16152528 -0.045570727 -0.36368293 -0.43655467 0.8224843 -0.55604833 -0.18392406 -0.049955502 -0.0977338 0.22155847 0.32291532 0.6195404 -0.01556351 0.38316396 -0.36979255 -0.6445892 0.09054187 0.31720933 0.28844702 0.19015072 -0.20283578 0.3644515 -0.27629182 0.08258859 0.19130225 0.1834659 -0.1698173 0.70479375
reserva -0.47280076 -0.1768197 -0.23448446 -0.030948712 -0.38650024 -0.45592698 0.8084112 -0.5434348 -0.21291298 -0.07725929 -0.15210977 0.20578736 0.31619164 0.6226532 0.00971476 0.4345341 -0.31255186 -0.6779797 0.07055483 0.36578298 0.26934066 0.15797603 -0.17862493 0.37974593 -0.35977218 0.05835774 0.17600025 0.2292964 -0.1267884 0.77185863
informacion -0.82539064 -0.37365907 0.46805656 -0.11744092 -1.114757 -0.57598764 0.6357327 -0.8117318 0.054347374 0.13779478 0.4547867 0.15809934 0.80658835 0.6390218 -0.6224861 1.038746 -0.4809131 0.10773198 -0.36635816 -0.5627121 0.61908275 -1.2072775 -0.51858085 -0.6463745 0.8894814 0.77876014 0.5760947 -0.46362084 0.24406837 -0.35905758
disponibilidad -0.48567116 -0.18177487 -0.1425961 -0.023259494 -0.40167996 -0.44806066 0.7937799 -0.5407746 -0.19904898 -0.009562929 -0.17291749 0.19015448 0.3342927 0.6172993 -0.012279491 0.45546263 -0.32322305 -0.5534033 0.092023425 0.26907995 0.34858605 0.13079624 -0.24006489 0.30516618 -0.21618897 0.14906459 0.18539505 0.1827294 -0.12582333 0.5531541
afiliado -0.49599493 -0.18916182 -0.1607045 -0.027469695 -0.48094824 -0.45430553 0.8089012 -0.58752304 -0.17195217 -0.04717548 -0.071092755 0.1903411 0.3913601 0.60542053 -0.11005059 0.41695595 -0.3442407 -0.61096036 0.041228034 0.23813777 0.315664 0.056591094 -0.19146475 0.28359786 -0.20525196 0.17989951 0.23759884 0.14170113 -0.13015479 0.6299715
hotel -0.49105904 -0.1594586 -0.1594455 -0.021971632 -0.4243433 -0.45919743 0.79137236 -0.5790803 -0.1866326 -0.025221374 -0.13400976 0.2040041 0.36408105 0.5911762 -0.042434674 0.46100566 -0.31457785 -0.5988955 0.029000027 0.2546587 0.3472108 0.10890646 -0.19648021 0.2645273 -0.21930309 0.1557199 0.17594984 0.15407835 -0.13093391 0.6237416
lunes -0.47200292 -0.1891289 -0.11832485 0.006709974 -0.39157912 -0.43862322 0.8267168 -0.6235691 -0.24183875 0.041269224 -0.13524024 0.2007412 0.36777642 0.60094786 -0.017045418 0.43713894 -0.32287747 -0.60585123 0.046425592 0.24628979 0.3834217 0.09073045 -0.20657583 0.29378146 -0.26557404 0.12961127 0.19004881 0.16242537 -0.13815036 0.59919775
veleros -0.47286305 -0.14039578 -0.08047204 0.013020863 -0.43077174 -0.46296 0.80004674 -0.58269036 -0.20776047 -0.01723756 -0.1466155 0.20058025 0.37007704 0.59912896 -0.07106381 0.46376202 -0.31366032 -0.56758 0.049183916 0.23797959 0.34434894 0.06048724 -0.21527553 0.26107648 -0.12796533 0.21209644 0.19631419 0.13930228 -0.15111984 0.53026086
desayuno -0.5265855 -0.18368673 -0.09479506 -0.0075191665 -0.46688846 -0.47238195 0.80470765 -0.5734432 -0.14076744 -0.017586155 -0.0979374 0.21532173 0.3862608 0.5841178 -0.08350863 0.4461976 -0.36074874 -0.5809339 0.010594139 0.23801363 0.32560492 0.07057234 -0.20448488 0.28273806 -0.19976972 0.1857654 0.22071059 0.12607118 -0.12834778 0.59658325
miercoles -0.54028136 -0.17534427 -0.21058632 0.07578283 -0.3171621 -0.34353217 0.8581268 -0.62672806 -0.29873604 0.11380335 -0.13713849 0.24670938 0.4200434 0.5548979 -0.05657383 0.46538344 -0.24284713 -0.5872232 0.07572805 0.25289357 0.41147307 0.04460309 -0.18460098 0.25055018 -0.2674119 0.19149363 0.17822216 0.30309844 -0.1267624 0.47372115
afiliacion -0.6091665 -0.28643385 0.15529954 -0.04961427 -0.7434756 -0.49945074 0.69037956 -0.6434849 -0.044852037 0.030379675 0.18493369 0.18912706 0.55881715 0.5516564 -0.32906443 0.6808736 -0.36071867 -0.22990333 -0.15519607 -0.15889001 0.40116364 -0.5810412 -0.34004262 -0.19483274 0.3446293 0.4583441 0.40673798 -0.20067099 0.037326016 0.124684736
reservas -0.47501415 -0.19097725 -0.101211905 -0.00827531 -0.41536728 -0.4315615 0.7984928 -0.56798106 -0.20135392 -0.07358296 -0.092719555 0.16469547 0.36642632 0.59559065 -0.110471696 0.49000883 -0.34414807 -0.58318967 0.0151177645 0.22559948 0.32011646 0.03333348 -0.24491534 0.25737187 -0.14997764 0.1893255 0.21000049 0.15607491 -0.11492578 0.5553258
disponible -0.48710436 -0.15887827 -0.12240403 -0.019827781 -0.39914998 -0.4525249 0.75479215 -0.5536307 -0.18270013 -0.042532433 -0.10774125 0.16167052 0.36022007 0.59074044 -0.064442486 0.46640387 -0.3362413 -0.5492572 0.037868485 0.23195022 0.32813436 0.050790407 -0.21814257 0.25905442 -0.14852928 0.16147651 0.19371802 0.15498798 -0.13207532 0.54656094
ejemplo -0.48286432 -0.17657804 -0.13207442 -0.013068632 -0.4108479 -0.4554651 0.8151368 -0.61709553 -0.18643023 -0.027508302 -0.07555223 0.19457184 0.37854785 0.58535 -0.08536267 0.49472517 -0.32220995 -0.56350064 0.07264249 0.23703927 0.29004422 0.064072825 -0.22549644 0.270811 -0.17714426 0.19348541 0.22846486 0.13579461 -0.12840742 0.6141997
problema -0.49795732 -0.16553025 -0.11844492 0.020059083 -0.43334883 -0.4695446 0.8004132 -0.5364407 -0.2097668 -0.032593142 -0.08461691 0.17456134 0.3465884 0.60788727 -0.10423026 0.49086475 -0.36183807 -0.60999155 0.05846636 0.24417941 0.3182911 0.03558121 -0.23738985 0.27933338 -0.17421708 0.19341876 0.2144546 0.15166803 -0.12995856 0.5661977
jueves -0.55233884 -0.1635932 -0.19207841 0.09417757 -0.33101416 -0.33110702 0.8577339 -0.62022823 -0.31587428 0.12897673 -0.18008448 0.27694687 0.44152576 0.5202786 -0.029074905 0.44984567 -0.23326302 -0.57273567 0.0855506 0.30320248 0.40233913 0.040090226 -0.18565573 0.26535395 -0.28631544 0.18040472 0.15410228 0.32570153 -0.1237294 0.45201042
averiguar -0.5134447 -0.17430237 -0.07902195 -0.00944074 -0.51708764 -0.4803223 0.7622312 -0.5985892 -0.18445748 0.023805425 -0.036669757 0.20303708 0.4107041 0.6040712 -0.13708825 0.5213633 -0.3247272 -0.49571925 0.0032867037 0.15738787 0.364259 -0.12559137 -0.2724225 0.15656567 -0.060715247 0.2730688 0.2551557 0.058253057 -0.10311534 0.4303253
adultos -0.5101414 -0.1572252 -0.13699494 -0.0021024174 -0.4601848 -0.4596941 0.78964454 -0.5537485 -0.20756435 -0.03901722 -0.091959074 0.17286901 0.3603503 0.6005692 -0.11168218 0.46133444 -0.3067399 -0.55414057 0.056012433 0.21567304 0.31735796 -0.0005912735 -0.20363863 0.25578204 -0.17622752 0.2159415 0.18700078 0.12219725 -0.14799483 0.53592134
pueda -0.49587262 -0.1698703 -0.09935791 -0.024834014 -0.4963304 -0.4829214 0.76163757 -0.6081782 -0.19213238 -0.054824337 -0.08159866 0.15725064 0.379796 0.59874135 -0.117165565 0.49474415 -0.3635627 -0.5610483 0.024970638 0.21789463 0.32072026 -0.04423722 -0.2507729 0.20217866 -0.13078463 0.23134048 0.20685689 0.11941597 -0.1438066 0.55387574
incluye -0.48023525 -0.1964736 -0.103293784 -0.028656946 -0.50290036 -0.47867605 0.7665599 -0.5676952 -0.12262006 0.0025485093 -0.080356695 0.18094368 0.38926774 0.5742685 -0.11765886 0.45043907 -0.35134578 -0.5194938 0.027086573 0.18716976 0.3197298 0.01955184 -0.21731962 0.22195008 -0.11003327 0.20641157 0.23650296 0.050285786 -0.12172936 0.5133306
pregunto -0.49241492 -0.16963342 -0.12680283 -0.013528098 -0.43546662 -0.46958455 0.7819615 -0.60413736 -0.20479202 -0.010044716 -0.12526476 0.18836088 0.38706717 0.56951356 -0.15179686 0.47733498 -0.3412399 -0.5746784 0.044398714 0.22725725 0.3410047 -0.0041449075 -0.24670735 0.24283896 -0.13866475 0.21865043 0.22943492 0.15961674 -0.12505761 0.51100147
queda -0.47554374 -0.15182126 -0.13114609 -0.009796268 -0.4596019 -0.48268574 0.7628061 -0.54177475 -0.16790558 -0.050518535 -0.08423314 0.19896863 0.39289486 0.62254864 -0.12098877 0.47544152 -0.34963176 -0.5433007 0.041813977 0.22676978 0.30657166 -0.0077556106 -0.23470668 0.2620726 -0.1400401 0.17854542 0.21685225 0.102064885 -0.13759801 0.5665415
precio -0.47069556 -0.15737496 -0.10148413 -0.012855594 -0.46030974 -0.44095597 0.80821776 -0.5811806 -0.17531627 -0.051704947 -0.11088584 0.18336876 0.39156628 0.6172095 -0.14332639 0.46223232 -0.35626358 -0.560761 0.035692528 0.2135975 0.3367018 0.010947654 -0.22181657 0.26432055 -0.15021098 0.24101265 0.1818283 0.12408234 -0.16708182 0.52334833
pagina -0.5074572 -0.1941958 0.041148946 0.011426144 -0.5958986 -0.4551162 0.751212 -0.668652 -0.06786491 -0.016654782 -0.02092126 0.13058849 0.43874735 0.5560677 -0.26366606 0.5789588 -0.32037532 -0.3876596 -0.08770449 0.00341394 0.37979016 -0.26760182 -0.30097657 0.040643863 0.15651324 0.35161838 0.31505388 -0.12492684 -0.04691853 0.34372196
habitaciones -0.49444714 -0.161531 -0.122729436 -0.028628962 -0.45677948 -0.45178533 0.7942463 -0.56297183 -0.1738603 -0.07330167 -0.09398088 0.14895347 0.33290473 0.5722605 -0.050808 0.44560665 -0.3475791 -0.5785084 0.057096694 0.25160035 0.33255666 0.056899752 -0.23289816 0.28717163 -0.14799158 0.1997818 0.16567597 0.13820258 -0.16137867 0.5836575
necesito -0.46890795 -0.13640563 -0.12953857 0.012855113 -0.44956493 -0.48581138 0.78771424 -0.56865126 -0.158283 -0.027791008 -0.08828098 0.2141265 0.38002008 0.59373564 -0.15533537 0.5058722 -0.35505638 -0.5818944 0.05303078 0.18933381 0.30417073 -0.053640608 -0.23361878 0.23251617 -0.12876225 0.20576026 0.22240898 0.10579779 -0.10898282 0.54496753
escucho -0.48610395 -0.15981437 -0.10260474 -0.015977813 -0.43007118 -0.5050995 0.76710266 -0.61115265 -0.17230928 -0.027058873 -0.06930728 0.15640093 0.3918442 0.6327379 -0.103886776 0.4729581 -0.38812035 -0.543213 0.016950138 0.19810906 0.34564608 -0.019725919 -0.25933382 0.20514971 -0.11629526 0.16960424 0.2168442 0.13303755 -0.14414053 0.51414496
vacacional -0.46686715 -0.15948597 -0.09260447 -0.015607942 -0.44962654 -0.45648354 0.7924917 -0.5606056 -0.15863226 0.0031382795 -0.10941145 0.20538287 0.3320341 0.56967 -0.047642063 0.4712864 -0.32904252 -0.53509766 0.047486916 0.25472498 0.3337784 0.09388357 -0.22590803 0.28502512 -0.15978546 0.15173827 0.1926604 0.14841159 -0.15354112 0.5239177
compensacion -0.78427595 -0.35797113 0.46099898 -0.0807329 -1.0876962 -0.58206457 0.69321054 -0.8063904 0.08434444 0.13331665 0.41152248 0.15120155 0.7770811 0.610527 -0.60057247 0.9785341 -0.43498582 0.07204778 -0.3306898 -0.51411295 0.6027769 -1.145295 -0.5359883 -0.61511123 0.8300384 0.7332133 0.56616914 -0.5220061 0.18284068 -0.30402648
entrada -0.49969193 -0.13464406 -0.07990627 0.0017675017 -0.45208362 -0.4510444 0.80491406 -0.5731425 -0.1535143 -0.014307249 -0.046524867 0.22226019 0.42116377 0.6012763 -0.16886407 0.4412939 -0.33214864 -0.5564113 0.008376223 0.17210905 0.31660816 -0.020495377 -0.26598042 0.17767091 -0.11833185 0.20445603 0.17368068 0.072206825 -0.13800064 0.527572
dicho -0.4865842 -0.15251547 -0.123187095 0.014736758 -0.46981373 -0.46685272 0.800606 -0.57066107 -0.17116155 -0.010473591 -0.098163866 0.21489626 0.38364127 0.60218525 -0.12116063 0.48605567 -0.335418 -0.5327668 0.028809717 0.21948592 0.3472004 -0.041882906 -0.2298103 0.18622935 -0.15084888 0.24103965 0.19582315 0.1249373 -0.12449479 0.5166095
preguntar -0.48307583 -0.15120357 -0.10748821 0.020573629 -0.4451069 -0.48301604 0.78905165 -0.61636627 -0.17427704 -0.00950428 -0.06126181 0.1743667 0.3810791 0.57705754 -0.14229164 0.46792072 -0.358631 -0.56131303 0.033999216 0.18759188 0.35205996 -0.043686505 -0.27299577 0.20254336 -0.07937576 0.2188999 0.20302176 0.11413756 -0.14129204 0.48224497
reservar -0.5086758 -0.15725066 -0.10409907 -0.038550757 -0.44075042 -0.4547423 0.79318863 -0.55566597 -0.18003291 -0.016543584 -0.073418394 0.1827415 0.37703046 0.57799786 -0.11355968 0.49702114 -0.3568399 -0.5530019 0.052414335 0.19929197 0.32527092 0.023505144 -0.24938364 0.22727364 -0.12698413 0.1805182 0.20194478 0.13925198 -0.1234427 0.5273216
cancelar -0.46799478 -0.16004364 -0.09086908 -0.02104502 -0.45237577 -0.49091825 0.77477694 -0.57368106 -0.19740963 -0.03697738 -0.079214215 0.22457784 0.37582403 0.60444516 -0.10285355 0.4884161 -0.36111343 -0.5609761 0.040373318 0.21916379 0.29395366 -0.01629759 -0.24345851 0.21570124 -0.14919344 0.18050408 0.19345814 0.14811379 -0.11252688 0.535907
visto -0.4741579 -0.16869278 -0.102020405 -0.031100981 -0.47296715 -0.4700958 0.8141351 -0.60230446 -0.17677663 -0.030463988 -0.06634829 0.21466358 0.37607458 0.6122567 -0.14558981 0.50396234 -0.36551213 -0.58951706 0.04414042 0.19507708 0.32210115 -0.02999886 -0.25865397 0.24158779 -0.104219764 0.21172293 0.19580385 0.13433354 -0.13248278 0.52865213
venga -0.51172906 -0.18072048 -0.09646074 0.01957833 -0.4788294 -0.4726744 0.7889361 -0.5902841 -0.18841216 -0.042145982 -0.086857006 0.21132329 0.4029964 0.57627815 -0.19994609 0.47833616 -0.33724618 -0.57972366 0.044017233 0.19278306 0.3375247 -0.09766503 -0.27313682 0.21290036 -0.1063996 0.25803834 0.2407336 0.0976162 -0.13185656 0.47109866
recreacion -0.5025244 -0.18868616 -0.052160963 -0.0098369075 -0.50366646 -0.47344735 0.75763094 -0.5934991 -0.18911572 -0.022377055 -0.072253205 0.20023689 0.42451718 0.5848334 -0.17843772 0.5186976 -0.35438526 -0.5217758 0.016550733 0.14802128 0.33922246 -0.11022469 -0.31350508 0.14454593 -0.040018957 0.27101144 0.2170235 0.07975369 -0.10190794 0.45765376
celular -0.4847287 -0.15565483 -0.0817199 -0.027350212 -0.4613784 -0.46079007 0.750787 -0.5912542 -0.19959192 -0.07581596 -0.10276564 0.17630158 0.38644564 0.62872136 -0.10581227 0.48958102 -0.38060188 -0.5684756 0.022900883 0.21304442 0.3259312 -0.0033228546 -0.21836258 0.21970484 -0.12286379 0.20067354 0.22493061 0.13203108 -0.1501474 0.54639065
momentico -0.5000965 -0.17933361 -0.1132563 0.008067141 -0.4762826 -0.4670988 0.7693721 -0.5939801 -0.16953069 -0.054119177 -0.041315645 0.19583382 0.3853077 0.58498114 -0.1041078 0.485588 -0.3468934 -0.5859778 0.03816756 0.18463624 0.3171495 -0.045912262 -0.2573071 0.2096635 -0.15498571 0.18104962 0.20383477 0.10639389 -0.14030051 0.5328813
salir -0.4898046 -0.16995703 -0.12937808 0.026425596 -0.42122817 -0.42161667 0.81239116 -0.58950895 -0.21821961 0.03506469 -0.12528658 0.18644138 0.4019907 0.5947981 -0.06056149 0.48365176 -0.3064831 -0.54959816 0.009952729 0.20907485 0.3718191 0.000494762 -0.20698401 0.20372683 -0.15663335 0.2209734 0.19307105 0.13916983 -0.10926693 0.47859433
normal -0.5037975 -0.14609319 -0.11155125 -0.02803342 -0.48574024 -0.4930493 0.79793733 -0.57911736 -0.17769867 -0.041298363 -0.05094988 0.19661388 0.3948277 0.5946825 -0.14029643 0.4687099 -0.3478447 -0.5604335 0.009079502 0.18435153 0.34653953 -0.023471128 -0.25760317 0.19655211 -0.12286187 0.23171462 0.23604672 0.13272266 -0.118620455 0.5266293
consulta -0.4919428 -0.18279985 -0.024144122 -0.005238944 -0.50490713 -0.44127896 0.7760888 -0.5859109 -0.12667653 -0.037016556 -0.025493417 0.17208251 0.3947015 0.6082914 -0.15051958 0.5206247 -0.36426622 -0.49824366 -0.0031116847 0.15637474 0.36376846 -0.12774582 -0.24095152 0.12501301 -0.01528938 0.25760934 0.21652527 0.056778304 -0.099982135 0.4671846
fechas -0.52257204 -0.19545098 -0.100067765 -0.041495197 -0.43236133 -0.4557753 0.81957763 -0.5927838 -0.17578821 -0.026463924 -0.094689265 0.17052229 0.36086088 0.5945814 -0.08176341 0.4826931 -0.35095885 -0.57204586 0.023055786 0.21877429 0.3563565 0.058796257 -0.22301477 0.21929537 -0.19559816 0.14532147 0.19213314 0.12318051 -0.103492655 0.6023874
opcion -0.50333375 -0.19598582 -0.037599094 0.00823853 -0.5507341 -0.49385294 0.7345623 -0.6072663 -0.122729994 0.011032998 -0.03337069 0.17254505 0.39817637 0.5511213 -0.19285189 0.5350244 -0.3507676 -0.42917994 -0.030950507 0.0768035 0.37080085 -0.21931331 -0.2974461 0.096454725 0.056930378 0.31734 0.2705858 0.027573215 -0.053821445 0.33571416
dije -0.47983676 -0.17713244 -0.08035941 -0.0028782606 -0.46305567 -0.45402747 0.77151316 -0.5906114 -0.19740748 -0.042194724 -0.08555288 0.20859422 0.35394353 0.5789961 -0.14803798 0.47169653 -0.31192067 -0.5294103 0.048600335 0.21301283 0.32984367 -0.043643452 -0.23894869 0.23282447 -0.14003988 0.19044124 0.2021798 0.13826373 -0.10449943 0.51725966
entrar -0.49956477 -0.16883282 -0.099135004 -0.009987309 -0.44665223 -0.48165053 0.7614476 -0.55345285 -0.17064229 -0.037228934 -0.07426501 0.18301663 0.37117693 0.586443 -0.14169909 0.4867522 -0.33396798 -0.5377406 0.04194123 0.17388853 0.30708075 -0.032985546 -0.23212738 0.18983284 -0.115040734 0.19446906 0.2047052 0.10642572 -0.11377414 0.5457578
esposa -0.48401943 -0.16846038 -0.10139762 0.008042758 -0.46035358 -0.45868608 0.7798677 -0.56659406 -0.17893499 -0.047677938 -0.07689911 0.16034915 0.3565774 0.5992127 -0.11629668 0.4560961 -0.33772433 -0.5912967 0.03213786 0.23749569 0.29463026 -0.0017277143 -0.20510758 0.24443945 -0.17053662 0.20336823 0.22531928 0.15004173 -0.14921917 0.549837
ingresar -0.47963548 -0.21134411 -0.12851098 -0.04562184 -0.40067083 -0.4544811 0.7785779 -0.53702617 -0.18177544 -0.03921181 -0.07807624 0.20295355 0.36318168 0.5681573 -0.065494485 0.46936777 -0.30893242 -0.6037526 0.029524956 0.269576 0.2682976 0.060209636 -0.20457305 0.25405905 -0.2036958 0.14107795 0.22036381 0.12978901 -0.109689824 0.6352746
tarjeta -0.48684773 -0.15432334 -0.09262485 -0.0011881796 -0.51286054 -0.46893713 0.7009837 -0.58563936 -0.15717758 -0.09309668 0.014974866 0.19170277 0.46566102 0.63966197 -0.20437393 0.5277681 -0.38249642 -0.5688784 -0.038015455 0.09196202 0.31404167 -0.17206495 -0.27244353 0.16299278 0.009093903 0.21033847 0.30514762 0.06655254 -0.12520976 0.48000956
registro -0.49759415 -0.20267577 -0.087228484 -0.012859394 -0.45041797 -0.45576072 0.79221314 -0.57680124 -0.14338323 -0.08970313 -0.047364756 0.18509738 0.3525425 0.59237945 -0.08792806 0.50136757 -0.32309055 -0.52651143 0.017271567 0.18147649 0.32470053 -0.0039219256 -0.23069197 0.20623404 -0.17645994 0.18009761 0.22877985 0.091114715 -0.083535574 0.543458
quieres -0.47678614 -0.18741433 -0.09222357 -0.0100304885 -0.46580446 -0.46138155 0.7954162 -0.54753417 -0.1605766 -0.018964952 -0.08954178 0.17029957 0.35879937 0.5957566 -0.10803794 0.4703105 -0.31532753 -0.5287501 0.036562715 0.18189427 0.3144562 -0.034303356 -0.22559798 0.2172458 -0.12855908 0.20378858 0.20219898 0.09523515 -0.11217985 0.5233627
llega -0.5137207 -0.16275007 -0.12235929 -0.03245328 -0.47141778 -0.46813262 0.77946216 -0.5675036 -0.1751066 -0.02917269 -0.056628615 0.20984787 0.41405067 0.6152714 -0.14067316 0.49809033 -0.3537522 -0.5722252 -0.0059619546 0.21290714 0.3330986 -0.008466659 -0.24779703 0.21382661 -0.13911925 0.19774388 0.19896232 0.13493082 -0.11598033 0.5615064
alojamiento -0.48194778 -0.18932426 -0.08931357 -0.030985327 -0.4331715 -0.47200805 0.771427 -0.563705 -0.1673956 -0.028074201 -0.0789053 0.17736107 0.3852331 0.5700751 -0.07907391 0.45797953 -0.3328806 -0.54686326 0.011675228 0.20634587 0.31549644 -0.0054989913 -0.2398785 0.23532088 -0.12583779 0.19206947 0.2219415 0.11650813 -0.12823156 0.54482555
llevar -0.50155807 -0.15676534 -0.12803298 0.001268533 -0.48061344 -0.48300144 0.7923271 -0.5619469 -0.17692047 -0.05964159 -0.05898698 0.22272201 0.3996646 0.61146516 -0.12970673 0.47589356 -0.35306498 -0.5640136 0.012234288 0.18546659 0.3166603 -0.043314524 -0.24876842 0.21361311 -0.12337129 0.19330159 0.23351915 0.13531613 -0.11321046 0.5516176
semanas -0.5021395 -0.1713822 -0.1293463 0.0043446417 -0.4462531 -0.4613729 0.8182199 -0.6000813 -0.20349385 -0.020035751 -0.11487295 0.20682384 0.36563978 0.60323584 -0.07065103 0.49128497 -0.34914055 -0.55419034 0.04517329 0.23936205 0.34234527 -0.0015774425 -0.22352295 0.24764161 -0.18484981 0.20597364 0.22470489 0.13414884 -0.11929269 0.5238873
descuento -0.50632143 -0.18753368 -0.099550165 0.014800817 -0.44234848 -0.43636805 0.7594252 -0.5988186 -0.16351874 -0.017613402 -0.061973285 0.18686417 0.42307872 0.5629658 -0.12768456 0.4531015 -0.34806907 -0.5370825 0.0014556914 0.1505006 0.3626653 -0.08451525 -0.2242005 0.16747352 -0.073029354 0.25243992 0.23534393 0.10789654 -0.12444329 0.4706437
puesto -0.5012364 -0.15840071 -0.10305959 0.00071170885 -0.44792855 -0.47531497 0.75732076 -0.57041603 -0.17705004 -0.05140076 -0.09298712 0.20076166 0.39408553 0.6149835 -0.15641704 0.48435304 -0.3699774 -0.5685864 0.03602417 0.18803568 0.31663266 -0.01703897 -0.25597346 0.23283057 -0.122122884 0.23721269 0.19569193 0.115912534 -0.12211746 0.4981563
triple -0.48565722 -0.19406858 0.084382094 -0.055469137 -0.69207937 -0.4893757 0.7104668 -0.65379214 -0.02651541 0.014200683 0.0058373986 0.14176983 0.4535977 0.5260361 -0.31464052 0.57971257 -0.3488226 -0.34510872 -0.07204108 -0.019800339 0.42170823 -0.38799354 -0.31414193 -0.055437166 0.27284557 0.42630187 0.30955446 -0.18033552 -0.064595595 0.20023063
telefono -0.4961031 -0.15563177 -0.0798023 -0.013579106 -0.42086145 -0.4527855 0.7633286 -0.567281 -0.19173631 -0.05626471 -0.097401544 0.19826753 0.37022075 0.58440024 -0.11112968 0.5161407 -0.33447975 -0.5088529 0.029012777 0.20770976 0.35034835 -0.0140140215 -0.23806097 0.23562711 -0.14010966 0.18993902 0.23803763 0.09947251 -0.12409199 0.531173
proximo -0.47436887 -0.15477718 -0.12387145 -0.023098983 -0.4744208 -0.436693 0.77063566 -0.5850616 -0.15470593 -0.016992142 -0.10193567 0.18640772 0.38559783 0.60449666 -0.09800117 0.47115445 -0.31370035 -0.5260151 0.03956982 0.20566553 0.3207325 -0.03637874 -0.23494963 0.22208968 -0.113301694 0.21051282 0.18720001 0.09569867 -0.119481154 0.5101499
abajo -0.47017652 -0.15185748 -0.085075 -0.02465041 -0.46454382 -0.48863262 0.79281193 -0.60156864 -0.14472702 -0.054993298 -0.10822117 0.17581342 0.3802734 0.5978204 -0.15503316 0.4703127 -0.36124998 -0.54531467 0.036595084 0.24190827 0.33479202 0.021133665 -0.25872752 0.22519942 -0.14868996 0.20249104 0.20622322 0.12756075 -0.1074555 0.53206635
mirar -0.47656488 -0.17496352 -0.097986564 -0.01255878 -0.48273823 -0.46540317 0.79502815 -0.5853596 -0.16497709 -0.006833579 -0.07453179 0.20136109 0.3898922 0.59287953 -0.10031578 0.4574634 -0.3193311 -0.5506914 0.051765334 0.18592091 0.360082 -0.028680932 -0.23936634 0.23926847 -0.12828413 0.19891855 0.19868192 0.140832 -0.10057415 0.5205061
afiliadas -0.5072591 -0.23406292 -0.11955718 -0.021035476 -0.46137437 -0.4866394 0.7672807 -0.53941554 -0.1731397 -0.043328997 -0.022954863 0.1841001 0.36190686 0.5808096 -0.053378176 0.46558484 -0.32201532 -0.567158 0.005295449 0.2555043 0.28898814 0.045007423 -0.19235496 0.27143973 -0.1803995 0.13438657 0.1884152 0.11390392 -0.10115096 0.61520797
adicional -0.5027937 -0.24053152 -0.08950044 -0.027085608 -0.4768233 -0.4752469 0.7541934 -0.57877785 -0.14002883 -0.016617611 -0.014000323 0.21963078 0.38361582 0.6066202 -0.09892589 0.48063573 -0.35028133 -0.5396307 0.0041196444 0.22204766 0.30136526 -0.010712314 -0.21753308 0.22288759 -0.13116433 0.18830232 0.24607033 0.090506695 -0.10796732 0.5343573
piscina -0.4712555 -0.14204182 -0.13010997 0.014266136 -0.45710164 -0.4655644 0.75947875 -0.5522107 -0.14897683 -0.033859283 -0.07978465 0.17940383 0.34789455 0.60180146 -0.13834795 0.50984246 -0.33016753 -0.5255994 0.04211773 0.19671683 0.35205147 -0.00832411 -0.23443384 0.20110789 -0.140865 0.17462444 0.25185633 0.13227336 -0.11939668 0.5108426
llamarpara -0.47508907 -0.13951387 -0.117473125 -0.0051725497 -0.4480084 -0.46686983 0.7673397 -0.5937331 -0.20618196 -0.032120317 -0.06535338 0.19770035 0.38310155 0.5781254 -0.116314664 0.50144553 -0.3128321 -0.55491686 0.045742963 0.19093266 0.32569194 0.0141941225 -0.2382405 0.21725789 -0.14567158 0.1773198 0.19783933 0.15032928 -0.110670105 0.5373553
hablar -0.48540595 -0.16364485 -0.08283368 -0.027179131 -0.44046304 -0.4780665 0.79264057 -0.58085823 -0.18280965 -0.018767005 -0.060661543 0.15633959 0.38657853 0.6110514 -0.113463104 0.47655857 -0.3539274 -0.5335514 0.018213319 0.19367923 0.35951024 0.011531819 -0.2737621 0.21868765 -0.1088227 0.18208927 0.23846528 0.120956466 -0.11018878 0.5235001
afiliada -0.4983813 -0.19262606 -0.102875695 0.0053028944 -0.46741864 -0.4391253 0.7677461 -0.58162 -0.14298588 -0.045500968 -0.054851357 0.18753709 0.41299948 0.59762853 -0.15431818 0.44898272 -0.3557145 -0.5406973 0.03611909 0.16701926 0.3117353 -0.020384112 -0.24490201 0.18205339 -0.12960629 0.21249256 0.1952016 0.100155406 -0.12124419 0.5128715
ciudad -0.4699832 -0.16358268 -0.12102091 0.0034147592 -0.4256091 -0.48009557 0.7669669 -0.55729234 -0.19740075 -0.004101947 -0.09010656 0.16771396 0.37651294 0.5388482 -0.094067045 0.46078074 -0.34228432 -0.51862377 0.022242941 0.19767496 0.34132642 -0.0021172604 -0.22605631 0.2379801 -0.1286291 0.21418358 0.21925756 0.14575598 -0.11263637 0.5230847
pasado -0.4995456 -0.19765991 -0.1304685 -0.018062653 -0.4574816 -0.44076467 0.8066798 -0.59695834 -0.18506536 -0.04855916 -0.095230855 0.20244037 0.36222616 0.5885242 -0.100626715 0.46437144 -0.32438445 -0.5677348 0.031119628 0.21819937 0.34997925 -0.019625429 -0.23711818 0.21220843 -0.16767345 0.17392981 0.19654861 0.13087292 -0.121741965 0.55190116
hacerlo -0.47703308 -0.1715725 -0.08700189 9.566414e-05 -0.43558377 -0.44090107 0.7989493 -0.6120878 -0.1820835 -0.03377714 -0.100803874 0.19562028 0.3868246 0.58310354 -0.16330056 0.52584255 -0.33029923 -0.5809519 0.019314658 0.19780144 0.33093917 -0.029450854 -0.27969992 0.22707005 -0.12011648 0.20369466 0.2005994 0.1334902 -0.11291917 0.5147093
convenio -0.48381278 -0.17284895 -0.083942935 0.009733746 -0.51130044 -0.47951794 0.7628379 -0.59177697 -0.13210924 -0.046715792 -0.025464455 0.18698736 0.4030215 0.5960476 -0.19181679 0.48975912 -0.35543787 -0.51655406 0.020426378 0.13666576 0.30978897 -0.12434312 -0.23283881 0.14545505 -0.011121923 0.2549238 0.21043463 0.06604743 -0.1437859 0.49979326
listos -0.51601034 -0.15681122 -0.115130186 -0.0007077778 -0.4619117 -0.49853146 0.8176257 -0.58087575 -0.16967508 -0.03102713 -0.08340989 0.19809587 0.39563417 0.6183882 -0.13804434 0.47117874 -0.36410034 -0.56783825 0.06291074 0.21341413 0.34684587 -0.023584941 -0.2546465 0.22794865 -0.13415994 0.20485727 0.24040902 0.091699384 -0.13391091 0.54000103
almuerzo -0.5123108 -0.17351976 -0.08717754 -0.016143603 -0.4313265 -0.43134788 0.7985799 -0.56497264 -0.13634656 -0.041921917 -0.08044625 0.18146959 0.3920955 0.6059972 -0.122349754 0.44396198 -0.37387025 -0.5657974 0.037950426 0.24877217 0.31623322 0.024687992 -0.23351301 0.22911857 -0.17819184 0.1827675 0.17844813 0.11400643 -0.15800634 0.55339056
aparece -0.5263203 -0.20803508 -0.105414405 0.021998465 -0.4559901 -0.41962093 0.7994397 -0.5707371 -0.17108713 -0.018232735 -0.06607287 0.1720066 0.37338853 0.57385826 -0.08880987 0.43556458 -0.3051189 -0.5142321 -0.01582441 0.21888015 0.33987397 -0.0047475644 -0.23903318 0.20024954 -0.15437087 0.1912937 0.19810626 0.072270244 -0.116554946 0.55560505
recreativo -0.50085145 -0.169819 -0.10418563 -0.03327172 -0.49122512 -0.46791208 0.7559226 -0.5362555 -0.14265968 -0.045854073 -0.06748235 0.18625931 0.39218363 0.5709833 -0.114056565 0.4602028 -0.34254295 -0.5348552 0.003050934 0.1909643 0.30720517 -0.04507751 -0.23761792 0.20901598 -0.13281852 0.21696222 0.23734564 0.08191542 -0.14155628 0.4949125
volver -0.51207 -0.18017912 0.01249602 -0.04539561 -0.53151274 -0.48565882 0.7436177 -0.6206176 -0.13722193 -0.014144733 -0.006791955 0.18925045 0.42561123 0.6205639 -0.20818804 0.54206717 -0.38816825 -0.42402524 -0.046446882 0.065914534 0.34344682 -0.2064375 -0.29866815 0.11488268 0.057898115 0.2530256 0.30511397 0.007696344 -0.042053726 0.41901737
temporada -0.4617106 -0.1745234 -0.07869159 0.030983023 -0.4167403 -0.401684 0.81773525 -0.61251056 -0.20407364 0.0023869793 -0.077364966 0.1761861 0.3524877 0.59856015 -0.09284233 0.44628158 -0.37422314 -0.5227234 -0.010684615 0.22581676 0.3129744 0.03480839 -0.20887291 0.24740918 -0.1632713 0.15882055 0.21826614 0.083702326 -0.15576221 0.5758452
total -0.48376524 -0.18867339 -0.11707722 -0.036578976 -0.44801506 -0.42802602 0.7887213 -0.5690536 -0.18548883 -0.053970784 -0.080649525 0.18476619 0.37476897 0.6049299 -0.045017447 0.46073782 -0.33361733 -0.5980527 0.058938663 0.23323466 0.33112735 0.035264645 -0.23974799 0.279454 -0.16992797 0.15520492 0.21478723 0.16018704 -0.13609833 0.5893063
titular -0.51566297 -0.22982813 -0.10165553 -0.042230852 -0.47304744 -0.48116502 0.77832854 -0.57663095 -0.13683921 -0.06928992 -0.055110212 0.2163058 0.3573347 0.6245983 -0.08786766 0.4962734 -0.36253682 -0.5586821 -0.016371328 0.24696569 0.32724363 0.0039135637 -0.24330921 0.23666489 -0.18593188 0.16734491 0.23671566 0.121553235 -0.10295571 0.6052454
piscinas -0.48994285 -0.16348167 -0.11080498 -0.037746586 -0.46989414 -0.47425154 0.76748985 -0.5585738 -0.15599434 -0.018441569 -0.09716572 0.18897764 0.35587186 0.5893526 -0.07630873 0.4681975 -0.33918563 -0.55670774 0.05470736 0.21739848 0.36494762 0.020371184 -0.24347119 0.24522065 -0.15858412 0.17391892 0.24439679 0.12528986 -0.11823136 0.5472185
haciendo -0.4805817 -0.19994015 -0.120942615 0.013666071 -0.47377172 -0.47868806 0.78598815 -0.5991517 -0.1742287 -0.06668305 -0.05813821 0.2187305 0.37426153 0.61419463 -0.15493673 0.5158745 -0.34895968 -0.5480943 0.029380044 0.18664564 0.3178809 -0.021735627 -0.24231495 0.20373918 -0.095203586 0.23726767 0.25067627 0.112482145 -0.14237887 0.51413786
datos -0.52672094 -0.17478411 -0.09396413 -0.017797695 -0.47770345 -0.45359993 0.7984728 -0.61416525 -0.15292361 -0.082613505 -0.032285515 0.18021439 0.3736614 0.6377955 -0.09541313 0.48888287 -0.33642542 -0.59797907 0.029262405 0.1896469 0.31637454 -0.037052263 -0.23979902 0.25122014 -0.1308461 0.20723373 0.22789432 0.1311068 -0.11040075 0.5491936
cambiar -0.49124008 -0.20230803 -0.13327694 -0.025796328 -0.47143456 -0.4596098 0.82590127 -0.56084716 -0.16188824 -0.07684457 -0.08942267 0.1850897 0.34764057 0.62574667 -0.08041058 0.47590464 -0.34901017 -0.57559115 0.027082805 0.24853233 0.33987132 0.0064272042 -0.20232862 0.2262887 -0.16918746 0.14370431 0.22436403 0.11414979 -0.11614174 0.59404737
comunico -0.50670475 -0.16177948 -0.089319974 0.0008015395 -0.5005102 -0.47731557 0.7503904 -0.57895887 -0.12805414 -0.01834745 -0.026707266 0.16684401 0.39537725 0.5909204 -0.16233943 0.52028245 -0.35111907 -0.5199204 0.0024603433 0.15908356 0.34679002 -0.08853628 -0.25759885 0.14928406 -0.08897333 0.26245502 0.25861496 0.07076599 -0.11115523 0.4809411
unica -0.50628436 -0.17017333 -0.11225343 0.013870859 -0.43455985 -0.48528513 0.77906656 -0.5578489 -0.18043183 -0.027291376 -0.09757445 0.21699026 0.39946732 0.59552515 -0.0912631 0.47617355 -0.33572495 -0.5661471 0.029167084 0.21474151 0.3189167 -0.010736755 -0.25136864 0.21238217 -0.11864269 0.19873464 0.21392585 0.13300651 -0.108163096 0.48660567
quedaria -0.48236614 -0.2035975 -0.11977054 0.0013725404 -0.47570553 -0.4464998 0.77803975 -0.5915915 -0.122794114 -0.02380619 -0.08692742 0.1516693 0.40436217 0.5984374 -0.099582545 0.45401344 -0.31390974 -0.5419214 0.00858648 0.19319327 0.3414825 0.026931087 -0.24225402 0.21581185 -0.12594178 0.20380166 0.21426712 0.097393245 -0.15386637 0.5226314
haria -0.51872087 -0.1774646 -0.11447917 -0.043492436 -0.47401735 -0.44568202 0.75803494 -0.5695255 -0.16330597 -0.020756193 -0.06998428 0.19993289 0.3955935 0.5906841 -0.09660034 0.47878942 -0.3423052 -0.5325373 0.034888715 0.20819485 0.33333594 -0.017146192 -0.22294667 0.2064407 -0.13967778 0.20663173 0.22998098 0.09833671 -0.08956595 0.55984056
entra -0.48195142 -0.14532755 -0.1280842 0.009172948 -0.47680044 -0.4542017 0.7786702 -0.59231436 -0.16645727 -0.021632792 -0.063850515 0.22993767 0.40871185 0.6167464 -0.16181837 0.48417258 -0.36757752 -0.5790159 0.009206407 0.17204918 0.34878555 -0.054849565 -0.27460435 0.1829495 -0.117176734 0.19096193 0.20775649 0.09473818 -0.12076282 0.51923543
posible -0.48646283 -0.17996211 -0.115761675 -0.011368915 -0.4774954 -0.46637973 0.76518065 -0.5696092 -0.19348226 -0.012264735 -0.07504049 0.20403884 0.3454053 0.591867 -0.1369494 0.47347263 -0.33951837 -0.51573855 0.035039935 0.19665143 0.3231484 -0.042070813 -0.24692766 0.21905482 -0.12532213 0.19219545 0.19020653 0.1142536 -0.10572834 0.5069947
zonas -0.49819058 -0.16808473 -0.10485265 -0.01823907 -0.5056133 -0.4367845 0.75591457 -0.59502107 -0.1694089 -0.07083389 -0.043244477 0.17747849 0.40176812 0.6182185 -0.090272196 0.48661664 -0.3623111 -0.536817 -0.026363665 0.17000106 0.34810466 -0.03533765 -0.22769615 0.20385543 -0.116138846 0.19704047 0.23193154 0.047518883 -0.12508106 0.5243959
pendiente -0.49429756 -0.20549487 -0.10316072 -0.04424047 -0.47581798 -0.46457645 0.81147265 -0.5999046 -0.17176847 -0.06328929 -0.07049499 0.20461763 0.37918657 0.6087059 -0.09583282 0.5510515 -0.35427362 -0.576337 -0.0021621222 0.22168717 0.35097507 -0.04502543 -0.24703881 0.20732719 -0.13012059 0.17417496 0.22307916 0.08604324 -0.082883686 0.5881959
unico -0.51610786 -0.1848256 -0.10083693 -0.044458624 -0.45676687 -0.45287642 0.8029227 -0.6088978 -0.14171536 -0.06231885 -0.066976115 0.20118517 0.36816326 0.5685462 -0.0854102 0.48478597 -0.33730647 -0.5323956 0.010301907 0.16599536 0.35676548 -0.028181026 -0.25357395 0.19832666 -0.10258558 0.20598361 0.2022565 0.11924826 -0.13900621 0.56406826
tocaria -0.4603036 -0.14749627 -0.10993303 -0.0042423895 -0.45898 -0.47926414 0.7983644 -0.58091295 -0.18993439 -0.030529903 -0.11427845 0.16888475 0.39429885 0.5859651 -0.14781532 0.4771516 -0.36971322 -0.5393527 0.040813435 0.224799 0.333952 0.009796772 -0.23362029 0.2328739 -0.13299882 0.19810013 0.20543037 0.107786655 -0.12818526 0.5292856
compania -0.50663483 -0.17867093 -0.06706904 0.0033420348 -0.45825803 -0.4627696 0.7761375 -0.56661516 -0.187016 -0.05985689 -0.07961675 0.2110006 0.39872444 0.58177304 -0.12296677 0.4758478 -0.35829228 -0.56854326 0.034529034 0.19001292 0.31313014 -0.035729792 -0.23108934 0.20338634 -0.115077175 0.22509854 0.2309551 0.10111968 -0.12076072 0.51241887
promocion -0.46182132 -0.17454097 -0.1216613 -0.0020664304 -0.41245785 -0.42188233 0.8127096 -0.6077019 -0.17987673 0.022551438 -0.123214975 0.18487598 0.37541074 0.57914287 -0.05093562 0.46742955 -0.35797074 -0.5968693 0.04062946 0.23695248 0.34107563 0.009769143 -0.20886773 0.24998766 -0.16613878 0.18200314 0.22295628 0.11601418 -0.14806913 0.5506545
hablando -0.5106182 -0.18754518 -0.10005955 -0.004090684 -0.45116222 -0.4624206 0.7746537 -0.5857998 -0.17887102 -0.03461436 -0.10294417 0.1616625 0.4042522 0.59353435 -0.15638746 0.45140007 -0.39561078 -0.55114007 0.009151859 0.20394245 0.32575122 -0.01634025 -0.2300749 0.22008374 -0.12452764 0.23279998 0.21178043 0.13692978 -0.10678305 0.5161455
vuelvo -0.49512956 -0.20113085 -0.05388981 -0.03910386 -0.46768683 -0.47252995 0.78250283 -0.58390164 -0.13091528 -0.024027184 -0.026466237 0.18195437 0.4166471 0.5738804 -0.16800305 0.49761215 -0.34002993 -0.49946284 -0.0041426257 0.14769351 0.32615188 -0.058651842 -0.25422072 0.19154036 -0.06466278 0.21226399 0.23354241 0.0540583 -0.110760905 0.48041537
facil -0.47975877 -0.15515383 -0.09431253 -0.012961267 -0.44679648 -0.48107523 0.77111804 -0.6121788 -0.18271574 -0.006003245 -0.07472905 0.19128665 0.39903584 0.60779446 -0.14473172 0.4911818 -0.35157245 -0.57563287 0.02144559 0.19853312 0.33671585 -0.032424144 -0.22870663 0.24082822 -0.12003079 0.21804573 0.22755334 0.104370154 -0.1381012 0.54267675
funcionando -0.4783771 -0.1473537 -0.06646025 -0.0112308245 -0.5079244 -0.52294785 0.7553139 -0.5707445 -0.11903396 -0.03282791 -0.15000074 0.2123129 0.36971155 0.56063193 -0.05710838 0.46335372 -0.33956483 -0.542851 0.027737979 0.19474222 0.38557518 0.013708676 -0.2729922 0.22500521 -0.070580274 0.22451814 0.23059952 0.16351317 -0.14516647 0.46740794
proceso -0.516172 -0.18434493 -0.09901596 0.008844092 -0.4783581 -0.47090158 0.81191164 -0.61294246 -0.1660715 -0.027422698 -0.07160884 0.19369581 0.37720314 0.62630945 -0.12246253 0.5104653 -0.33633932 -0.5671141 0.040382862 0.18625802 0.31355178 -0.07233189 -0.26805502 0.19153945 -0.09357252 0.22773038 0.22782153 0.08892306 -0.08205819 0.53786963
cancion -0.5305141 -0.14854549 -0.055895846 -0.017835984 -0.5805784 -0.49857545 0.7992689 -0.633677 -0.110001706 -0.014547792 -0.037392437 0.21308552 0.398305 0.6075031 -0.18373877 0.5553709 -0.35432318 -0.49867237 -0.012780858 0.08956731 0.3613702 -0.16670665 -0.27711257 0.12774047 0.027357673 0.29103014 0.23465009 0.02172809 -0.121774994 0.40928927
entendi -0.4862724 -0.16647525 -0.11030721 -0.0014312746 -0.44198474 -0.48299927 0.79571164 -0.5832705 -0.1610821 -0.012637622 -0.11318677 0.16983923 0.3903711 0.6022096 -0.11186342 0.44138867 -0.35159448 -0.58305365 0.0164772 0.2328043 0.31344253 -6.185379e-06 -0.20532809 0.26177064 -0.1543161 0.22021134 0.22779165 0.121969976 -0.09889415 0.55302733
minutos -0.5015253 -0.197109 -0.09789893 -0.0072653303 -0.56115335 -0.49713528 0.7256461 -0.6027883 -0.16429624 -0.054225262 -0.07093982 0.17371196 0.40648735 0.6437211 -0.19008179 0.53433 -0.3891638 -0.5698968 -0.014598121 0.1541481 0.31821573 -0.16204552 -0.3022514 0.14140245 0.00027317172 0.23679708 0.25492167 0.02874398 -0.12245234 0.48186758
reservacion -0.48780712 -0.1803217 -0.13624407 -0.03712077 -0.4478845 -0.49003807 0.81676525 -0.58684427 -0.1852312 -0.039074883 -0.066184156 0.22159089 0.36760086 0.6003225 -0.09295302 0.53317547 -0.34264207 -0.5606442 0.028176017 0.19758132 0.32900265 -0.0019535692 -0.24988358 0.22183098 -0.1693819 0.18839677 0.24887323 0.13167273 -0.1420627 0.5277531
perder -0.45796835 -0.18627568 -0.12220121 -0.009919914 -0.45604023 -0.48728585 0.7846717 -0.57572067 -0.19704276 -0.014388132 -0.09744877 0.19517268 0.3660418 0.60540366 -0.11741136 0.45838436 -0.34498438 -0.53486574 0.026365988 0.18895586 0.33253074 -0.022836532 -0.2642938 0.22153853 -0.13480964 0.2303006 0.21530165 0.12294394 -0.09672151 0.5030968
funcion -0.48784158 -0.15865365 -0.08345524 0.009355931 -0.50763935 -0.49189115 0.8061289 -0.6145396 -0.18139699 -0.03924969 -0.071208045 0.18840282 0.40051183 0.60866517 -0.18832219 0.50568163 -0.3527214 -0.5397084 0.032550614 0.18897845 0.3388763 -0.10808339 -0.30039167 0.19280471 -0.07515621 0.23502608 0.22080676 0.082902305 -0.1221292 0.5170674
dejame -0.49323112 -0.15750444 -0.0815746 0.0067059863 -0.48634884 -0.4563783 0.79479617 -0.57551223 -0.17418596 -0.022341514 -0.052727103 0.185084 0.37494567 0.5817956 -0.11240231 0.47985217 -0.34344798 -0.5543902 0.024728237 0.20306858 0.31474352 -0.029097086 -0.24784997 0.20603307 -0.0936466 0.24292085 0.2166192 0.07252886 -0.095065475 0.50156766
realizar -0.4937597 -0.16922276 -0.09747572 -0.04047018 -0.46052018 -0.47676346 0.7590998 -0.5613003 -0.16890292 -0.06286724 -0.046953645 0.17547692 0.40080935 0.604006 -0.11609407 0.52147454 -0.34820557 -0.5458335 0.03884213 0.14806318 0.34352574 -0.06437643 -0.27025002 0.20878315 -0.09992925 0.18806396 0.24248369 0.117837824 -0.09903005 0.501501
internet -0.48515975 -0.14677528 -0.094102375 -0.030796902 -0.50448084 -0.48954237 0.7850261 -0.6070768 -0.1812089 -0.022193024 -0.042110723 0.18988724 0.36025316 0.5738368 -0.15660174 0.5004428 -0.33874878 -0.51355606 0.03484154 0.15631053 0.3390179 -0.103961736 -0.28866768 0.17794962 -0.04837253 0.22594915 0.25055748 0.053493943 -0.11849932 0.5121917
comun -0.49869648 -0.16794184 -0.072288334 -0.03401082 -0.49635363 -0.47573695 0.7984161 -0.59171265 -0.15385297 -0.024932321 -0.059216563 0.22610137 0.4415832 0.61367875 -0.16362731 0.48760495 -0.35867387 -0.5440225 0.0064771306 0.18062444 0.34999275 -0.089474805 -0.2395776 0.15662071 -0.06446736 0.26822856 0.23458192 0.103728786 -0.09792978 0.4735276
edad -0.5328634 -0.16297233 -0.05115256 -0.08220432 -0.52705556 -0.49886647 0.73402256 -0.57042706 -0.12510395 -0.0559101 0.020180544 0.21261077 0.4254768 0.60225505 -0.15268771 0.53190124 -0.35184765 -0.46059552 -0.030490492 0.062523074 0.3438439 -0.18102252 -0.25471377 0.13539143 -0.019756729 0.22050276 0.31222504 0.0116693005 -0.07470464 0.46869585
llaman -0.493571 -0.15826963 -0.06954293 0.0030678378 -0.49194428 -0.4807277 0.79348767 -0.57277906 -0.19149698 -0.038085923 -0.05101325 0.17158608 0.37909898 0.6074773 -0.15807648 0.5120897 -0.3733511 -0.5596398 -0.0021475945 0.18754444 0.3345725 -0.05996105 -0.24054208 0.2045422 -0.07362442 0.23747759 0.2514555 0.09188428 -0.10719945 0.48141366
llevo -0.48645276 -0.1577706 -0.09170865 -0.002122602 -0.48501715 -0.4637772 0.7566399 -0.6072964 -0.19371241 -0.05614246 -0.0716351 0.2121779 0.4105247 0.5931092 -0.16151857 0.5029761 -0.33492887 -0.53613764 0.025136748 0.15303227 0.34328505 -0.07378902 -0.2569584 0.19209597 -0.061851945 0.22583458 0.22723491 0.091435015 -0.1439128 0.49119127
hagame -0.48354894 -0.15369657 -0.066390656 -0.0274393 -0.46601212 -0.47536242 0.7562286 -0.5959036 -0.15453838 -0.010388259 -0.015077121 0.15913792 0.38567194 0.588316 -0.13135077 0.51280946 -0.35286817 -0.51032776 0.005139773 0.13841864 0.34149024 -0.07007161 -0.26596352 0.16513816 -0.08236072 0.21724823 0.23649605 0.091967694 -0.11048464 0.4443645
cerdo -0.47930166 -0.18187808 -0.067165144 0.0017172492 -0.4511765 -0.43184957 0.7448528 -0.55712724 -0.1663652 -0.04071009 -0.052973535 0.19231002 0.36853838 0.6077056 -0.12523633 0.47958568 -0.3108084 -0.54811066 0.0022284407 0.18550992 0.31979424 -0.058100086 -0.22984318 0.21029605 -0.10467329 0.19318995 0.19975677 0.09745742 -0.10194242 0.5156909
partir -0.5222571 -0.17147878 -0.098293394 -0.018445756 -0.44687754 -0.48371363 0.79463696 -0.6041971 -0.19266681 -0.0066394336 -0.046127897 0.20012183 0.39466652 0.5822265 -0.10033206 0.4885821 -0.32376644 -0.57173663 0.042612225 0.1867448 0.33218533 -0.008208028 -0.21129027 0.21025147 -0.14941283 0.20660725 0.21559444 0.12879255 -0.1515797 0.55441946
final -0.5082999 -0.19907998 -0.0797741 0.016733235 -0.47128636 -0.4757246 0.79795706 -0.5717111 -0.16683029 -0.041709367 -0.067730844 0.1893996 0.3948429 0.6045886 -0.14552309 0.504502 -0.35278547 -0.5290333 0.02084086 0.1745215 0.34875128 -0.07877955 -0.26357013 0.20221849 -0.09183448 0.20532203 0.24472798 0.06966531 -0.11214898 0.5087805
vuelve -0.49740624 -0.1638016 -0.076243095 0.01601585 -0.45039523 -0.4859351 0.8005587 -0.5518289 -0.19654734 -0.028836945 -0.07480113 0.2021661 0.39320838 0.58767825 -0.11624376 0.49175978 -0.34301054 -0.5553303 0.023412002 0.19947693 0.34755042 -0.03284879 -0.2328592 0.20372403 -0.10671305 0.19217354 0.22243592 0.12098126 -0.119998164 0.4980703
credito -0.5722976 -0.25922102 0.12984686 -0.067837015 -0.8180704 -0.59721017 0.7085948 -0.62738377 -0.045519672 0.043226935 0.12060086 0.21222167 0.56069535 0.5178659 -0.3817119 0.7944022 -0.36687484 -0.25691596 -0.115287825 -0.12211942 0.45578152 -0.5828924 -0.49434212 -0.16368933 0.4110417 0.5324307 0.44781244 -0.298268 0.042677756 0.124990106
plazo -0.5389299 -0.1760272 -0.16215333 0.014957314 -0.41642764 -0.44541854 0.8261731 -0.6301622 -0.20182145 -0.01847633 -0.10433078 0.22973272 0.37397572 0.6128126 -0.0819116 0.48219252 -0.3180152 -0.5728316 0.022466186 0.19575046 0.30838633 0.017571935 -0.22825718 0.23084696 -0.1848869 0.17879026 0.20413488 0.14134456 -0.09206863 0.5366653
coconuco -0.5183643 -0.15361688 -0.10958979 -0.0064370423 -0.48507994 -0.47657537 0.78229547 -0.55698216 -0.20098613 -0.009204331 -0.084529 0.16780438 0.36882693 0.57762665 -0.1040186 0.50582254 -0.36255708 -0.57610124 0.020478642 0.22281532 0.34342688 -0.026751395 -0.26594633 0.21091503 -0.11367052 0.21134858 0.2099144 0.14455794 -0.109941535 0.50966763
pandemia -0.4776567 -0.16591567 -0.073127635 -0.039089106 -0.4631955 -0.43816194 0.8191103 -0.6334099 -0.23633727 -0.01783847 -0.052952137 0.21209395 0.40644798 0.5892492 -0.16055284 0.5291821 -0.37956935 -0.5806595 0.026067335 0.201836 0.3681311 -0.010280173 -0.22967069 0.19163436 -0.10885605 0.20476034 0.24587908 0.14028874 -0.115084894 0.5411583
cotizacion -0.5042667 -0.17112716 -0.08138819 -0.013828668 -0.4906431 -0.4662186 0.778045 -0.5858754 -0.15779771 -0.011461862 -0.0634856 0.21010226 0.38689262 0.5943459 -0.100326814 0.48313186 -0.34721342 -0.54084563 0.030298134 0.201429 0.32699367 -0.05068574 -0.23756628 0.1986648 -0.110658385 0.21639879 0.22905797 0.07549183 -0.12614174 0.5297593
senal -0.48659924 -0.15579106 -0.1023168 0.022023037 -0.48145083 -0.50018513 0.80804867 -0.6308503 -0.16227695 -0.017363232 -0.10121424 0.2509059 0.41970655 0.60414 -0.14861278 0.4906634 -0.37368888 -0.59064937 0.009154526 0.21294607 0.32947764 -0.0398508 -0.2597453 0.20127034 -0.113510296 0.21846826 0.22635616 0.10579507 -0.116803 0.50622463
consultar -0.50515944 -0.17214203 -0.046589814 -0.015464119 -0.49912494 -0.49213895 0.775919 -0.6077252 -0.15675847 -0.019892508 -0.063347965 0.2173699 0.4325534 0.593276 -0.15328711 0.515783 -0.3394761 -0.47734937 0.00048366078 0.12571001 0.33501083 -0.11490796 -0.26459023 0.1157888 -0.036753204 0.27669567 0.24551652 0.045316044 -0.083008364 0.46157968
nombres -0.48209104 -0.203823 -0.10469149 -0.00075271254 -0.45392346 -0.4798998 0.8011588 -0.5685137 -0.17187314 -0.05392562 -0.04436757 0.17200182 0.38916725 0.6189622 -0.13823642 0.46745577 -0.3694964 -0.5385033 0.0081309285 0.22847982 0.31541556 -0.02970512 -0.24384315 0.25137487 -0.1571564 0.19594727 0.23097835 0.092328265 -0.11209242 0.52512866
familiar -0.48613012 -0.17007467 -0.020800853 -0.04082577 -0.503267 -0.43668818 0.76226485 -0.5858848 -0.16196695 -0.012076217 -0.0359998 0.16085114 0.41226092 0.5841165 -0.18137637 0.52270526 -0.33018887 -0.46871912 -0.0014755522 0.09498456 0.3767651 -0.12816665 -0.27935725 0.12611432 -0.009935777 0.2840345 0.2669783 0.032231983 -0.0806389 0.4522534
ayudar -0.49470496 -0.16181615 -0.09064343 -0.03364705 -0.45765936 -0.4527445 0.7672514 -0.55120444 -0.16072047 -0.055469036 -0.039220925 0.15155406 0.37164712 0.5983978 -0.1389632 0.48622802 -0.3555944 -0.52966416 0.008124971 0.16261724 0.31114787 -0.050239608 -0.23848549 0.1746584 -0.10070221 0.21092464 0.24025047 0.10317451 -0.11232348 0.4928566
posibilidad -0.47261468 -0.16354509 -0.1051912 -0.017740374 -0.4515516 -0.45664567 0.7846629 -0.5943307 -0.18694183 -0.008282288 -0.08939623 0.16648047 0.37966058 0.5922175 -0.09883281 0.4990764 -0.32988036 -0.5308533 0.025573976 0.18834312 0.33984822 -0.015493988 -0.21635222 0.21222982 -0.13443494 0.20513414 0.19321069 0.11137012 -0.107567266 0.48901984
hermana -0.4983355 -0.17413673 -0.10298887 -0.030876199 -0.47116694 -0.5029022 0.7650047 -0.54840446 -0.17368327 -0.023802927 -0.08285569 0.20054889 0.40715405 0.5954619 -0.13990624 0.47804305 -0.3489898 -0.5638217 0.038598184 0.21016139 0.32251656 -0.041132063 -0.22903304 0.23306204 -0.09255334 0.18811053 0.22117689 0.10946002 -0.08824013 0.53468513
desayunos -0.4928604 -0.19876319 -0.107879214 0.0029911608 -0.44647804 -0.4519652 0.7790477 -0.5834917 -0.16163222 -0.009209255 -0.07017932 0.14234915 0.365409 0.5591148 -0.10504503 0.45507994 -0.32522774 -0.56526303 0.042600848 0.22155769 0.3093904 0.05815862 -0.20108178 0.23244956 -0.14085948 0.21240756 0.19421265 0.09773857 -0.13617967 0.5370974
agua -0.4920202 -0.17841206 -0.094246835 -0.03859705 -0.47960535 -0.49027687 0.8023486 -0.60732436 -0.16322678 -0.055739805 -0.09397253 0.21272689 0.38361034 0.611975 -0.12180234 0.47985914 -0.35631743 -0.550877 0.037975907 0.20132197 0.31109527 0.010515108 -0.2657024 0.20545827 -0.149033 0.19201204 0.20250896 0.14270878 -0.119958915 0.52047974
apenas -0.5207763 -0.16594048 -0.097876884 0.014644964 -0.48066205 -0.50277257 0.7948158 -0.6256623 -0.20457871 -0.01615001 -0.1072871 0.18659145 0.4057733 0.62856734 -0.13701868 0.48560756 -0.36163524 -0.551764 0.0139478445 0.19231935 0.3298989 -0.0392412 -0.2717481 0.22421381 -0.10053366 0.2239156 0.2173077 0.11704885 -0.11640478 0.51247233
particular -0.5208014 -0.15041286 -0.11463486 -0.012804335 -0.51619864 -0.48614135 0.80915654 -0.5690136 -0.14275765 -0.026379868 -0.023681719 0.2425972 0.38171056 0.57268405 -0.18395744 0.46838242 -0.35949004 -0.5209922 0.029011583 0.19125557 0.30369776 -0.09841698 -0.2685051 0.17430778 -0.09591174 0.20598997 0.23987912 0.056290157 -0.11246122 0.515297
lejos -0.47133273 -0.1650966 -0.07617964 0.009731518 -0.46174723 -0.4372114 0.7584568 -0.58736223 -0.16591084 -0.003604038 -0.101106875 0.2154289 0.39760023 0.61671317 -0.1353776 0.4501251 -0.34778434 -0.5343991 0.011883895 0.20438212 0.33679998 -0.023053134 -0.22062273 0.21677905 -0.09136887 0.19411698 0.22153744 0.12795359 -0.10995981 0.50523657
diciendo -0.48456573 -0.18757504 -0.043629713 0.014162752 -0.51551527 -0.4882447 0.81515 -0.6253117 -0.18919456 0.03294169 -0.08270652 0.20553118 0.39522657 0.5947278 -0.12258093 0.5017517 -0.3395703 -0.49211308 -0.01673924 0.16032602 0.38003048 -0.06662584 -0.2902967 0.13679276 -0.0614591 0.24386923 0.24416403 0.05563804 -0.07659014 0.4747416
recibo -0.50428456 -0.19705272 -0.104636274 -0.03763446 -0.49754345 -0.46683648 0.8448605 -0.6198562 -0.19865991 0.0021897804 -0.020144109 0.19211634 0.37619433 0.5631109 -0.042068552 0.49808773 -0.25476682 -0.582779 0.023052447 0.17805013 0.34671775 0.038998052 -0.25432372 0.270756 -0.20520712 0.11020116 0.24617495 0.14048508 -0.10290138 0.5284563
problemas -0.46440563 -0.16707057 -0.10931387 -0.037091073 -0.47994745 -0.48137525 0.76448286 -0.5902077 -0.1757584 -0.021800447 -0.08217283 0.18961592 0.35310057 0.573851 -0.11358399 0.50599426 -0.35405523 -0.55833924 0.036237504 0.20313075 0.33920562 -0.04254413 -0.2610038 0.21397603 -0.09290285 0.19424282 0.2034071 0.106610745 -0.1295827 0.52876526
formas -0.49548456 -0.18187454 -0.089658484 -0.026594061 -0.4638456 -0.46355683 0.7876567 -0.6048668 -0.19068658 -0.004489796 -0.073840916 0.19433376 0.3851179 0.60941744 -0.14400883 0.47612354 -0.34849334 -0.5212478 0.006472824 0.17151988 0.32743862 -0.056132756 -0.24260843 0.18429525 -0.086101845 0.22258133 0.22986089 0.07384858 -0.10595837 0.50712
festivo -0.46479544 -0.21215758 -0.10137696 0.035125423 -0.43541196 -0.43871576 0.82327455 -0.5695858 -0.19613555 0.02055157 -0.11360505 0.16524988 0.34213287 0.6288636 -0.06578902 0.46081865 -0.34790394 -0.5524653 0.008938785 0.27378988 0.36031964 0.068821974 -0.20686479 0.25053528 -0.20151824 0.17656422 0.20404233 0.11907962 -0.12800144 0.5767634
entro -0.4930754 -0.18092369 -0.052944157 -0.012284536 -0.48203146 -0.4642687 0.7568197 -0.5715256 -0.11993976 -0.016865771 -0.01934706 0.19123082 0.42278415 0.5954214 -0.1474499 0.50263387 -0.35378563 -0.47845456 -0.009616864 0.11813357 0.33334047 -0.1219963 -0.25761455 0.14898711 -0.020833861 0.22678411 0.23767859 0.06334857 -0.08834392 0.44071746
aparte -0.49756953 -0.19369933 -0.08851469 -0.011798699 -0.45917472 -0.45825377 0.7781546 -0.5642586 -0.19686592 -0.0065505104 -0.09393712 0.19685674 0.3924581 0.5864525 -0.14299747 0.46743983 -0.38059828 -0.55191314 0.03709826 0.17982349 0.35191432 -0.02607562 -0.25938737 0.19961432 -0.11469945 0.21372631 0.20063321 0.09288793 -0.10203148 0.50992894
quedamos -0.5078711 -0.16683751 -0.07247894 -0.0056495373 -0.5260799 -0.50359917 0.776308 -0.5920781 -0.1416764 -0.019236974 -0.031486224 0.18964322 0.4249535 0.5977319 -0.16966659 0.5199766 -0.34053513 -0.50761265 0.0055240598 0.14020172 0.3506231 -0.1423079 -0.26499218 0.14241976 -0.017419381 0.28389078 0.22978024 0.066155836 -0.107461534 0.43233034
decia -0.4831263 -0.1594016 -0.09153844 -0.006232894 -0.46675828 -0.46700755 0.7615074 -0.6056787 -0.18286084 0.006918527 -0.080459595 0.21953416 0.39849234 0.5693955 -0.12748675 0.48593208 -0.34236154 -0.538294 0.047743503 0.1907841 0.34041193 -0.048506677 -0.23706375 0.18372597 -0.10256535 0.2372543 0.21212988 0.09394354 -0.13222414 0.5015228
vete -0.48399496 -0.16236472 -0.083876766 0.010613846 -0.4676791 -0.48081118 0.79386926 -0.61419123 -0.17195848 -0.061375476 -0.03169317 0.17777267 0.38163373 0.5928926 -0.15926892 0.48848495 -0.33137044 -0.5321734 0.031506874 0.15816754 0.3204148 -0.06739025 -0.2200954 0.19898903 -0.10031835 0.21233138 0.21230747 0.09254198 -0.122308224 0.49557003
hijos -0.5178701 -0.16564053 -0.101538636 0.0086970655 -0.48606807 -0.4764473 0.80957747 -0.57865137 -0.17473403 -0.027432086 -0.05285363 0.21005574 0.39613238 0.6122315 -0.14363526 0.5038844 -0.3420495 -0.5727063 0.042892307 0.18367982 0.3612463 -0.06821145 -0.26948634 0.20838493 -0.12420065 0.23448925 0.2377827 0.091282256 -0.13325746 0.51495945
costaria -0.4935008 -0.19199261 -0.09306087 -0.018525528 -0.4748903 -0.4635784 0.7884058 -0.58050054 -0.17575668 -0.023485081 -0.07596375 0.15693262 0.38159066 0.59907347 -0.12799418 0.48568678 -0.3181183 -0.55085135 0.030888721 0.17476524 0.31981868 0.0010029846 -0.2691966 0.19994333 -0.12950234 0.19370867 0.19318423 0.11244836 -0.11295572 0.51088774
queriamos -0.4882123 -0.16336337 -0.06340516 0.017107341 -0.49721748 -0.4995192 0.8004759 -0.5920424 -0.1858209 -0.014915065 -0.10330629 0.18656592 0.39170012 0.61040694 -0.16303842 0.4867426 -0.3797171 -0.5612618 0.022685368 0.19838658 0.33343664 -0.05251259 -0.25503442 0.2174927 -0.09951736 0.24154553 0.22662269 0.07502944 -0.1379808 0.52773947
precios -0.4934825 -0.1806279 -0.081611484 -0.0013306483 -0.49114168 -0.44413683 0.74351114 -0.60117054 -0.18108821 -0.02182273 -0.06475085 0.1977468 0.37678787 0.6072902 -0.1248884 0.4941761 -0.34646004 -0.52027416 0.0011813269 0.16440888 0.33305526 -0.05677023 -0.24907874 0.16689698 -0.10515282 0.2385687 0.24021348 0.09375848 -0.101250336 0.46287328
queremos -0.5016716 -0.16166373 -0.09180659 0.009927674 -0.48563117 -0.46904233 0.7807802 -0.5598653 -0.18172123 -0.03370037 -0.068665445 0.21238507 0.3794574 0.57875013 -0.18082237 0.47660053 -0.34731913 -0.530323 0.021223394 0.15840045 0.30576983 -0.06995033 -0.25341028 0.19094479 -0.08666718 0.26577577 0.21256189 0.07833581 -0.09326002 0.50020087
ninas -0.48292276 -0.15120773 -0.07146054 -0.029610338 -0.48061466 -0.4629236 0.76400506 -0.56828547 -0.19481687 -0.030167857 -0.044167083 0.20015617 0.38826707 0.60323715 -0.11532381 0.49755558 -0.33551222 -0.5504324 0.033912487 0.18279092 0.29512465 -0.041109413 -0.25988397 0.199648 -0.11073506 0.22125359 0.20019294 0.090789415 -0.11019562 0.513674
comfandi -0.5386449 -0.21242462 -0.006164519 -0.04294061 -0.5435888 -0.45230564 0.77557933 -0.61946374 -0.14465305 -0.016839452 0.0044390243 0.17784467 0.4143022 0.5735614 -0.17718066 0.5499345 -0.34967268 -0.4815521 -0.0020578904 0.08841974 0.36391175 -0.17601773 -0.27428553 0.09828227 -0.018228713 0.2943719 0.27640882 -0.00032787665 -0.0733086 0.42339075
formacion -0.6014503 -0.24144204 0.122133516 -0.022888262 -0.6590554 -0.49539798 0.7315301 -0.6818838 -0.079993725 0.028710136 0.07684843 0.17370798 0.5003238 0.6032634 -0.31875595 0.64440906 -0.39099142 -0.31731516 -0.12197909 -0.05416759 0.43144563 -0.44366714 -0.35853478 -0.12070488 0.23221307 0.38282165 0.3179713 -0.13136874 0.0038627165 0.20173569
siento -0.49919805 -0.2022757 -0.049724687 0.032604482 -0.5142825 -0.48581442 0.78286296 -0.6117889 -0.14612198 0.024351027 -0.05329258 0.19618472 0.42367265 0.577528 -0.1767962 0.5390511 -0.35520187 -0.48757693 0.014789271 0.110340476 0.38515335 -0.12532939 -0.2770424 0.15608093 0.002886177 0.27389953 0.2668703 0.05920401 -0.12526552 0.408751
identidad -0.5103787 -0.18882856 -0.14342193 -0.048773885 -0.44523177 -0.47564086 0.7462959 -0.5943002 -0.16643839 -0.10605309 -0.04608023 0.20218113 0.4231095 0.63308376 -0.1134533 0.49825838 -0.37590528 -0.5720813 0.024956372 0.16993274 0.33831608 -0.02640533 -0.22697882 0.21569344 -0.1326835 0.134259 0.27992404 0.0889985 -0.10750461 0.55707943
llegan -0.4740463 -0.20511898 -0.07629778 -0.015211852 -0.46649352 -0.4423707 0.7760879 -0.57325965 -0.13673 -0.025128245 -0.07386495 0.2134412 0.35917115 0.5823451 -0.08833879 0.4617147 -0.33335775 -0.5299528 0.014948803 0.22909607 0.30334887 0.0065167923 -0.2445704 0.2479237 -0.16665258 0.1825724 0.21342742 0.09994456 -0.13373284 0.566872
adicional_subsidios -1.1041877 -0.552497 0.7254793 -0.18173572 -1.6459928 -0.8344949 0.89268374 -1.150923 0.15165628 0.22195245 0.6436898 0.24113402 1.1196454 0.8453067 -0.92638284 1.5045338 -0.6382314 0.25475177 -0.58344275 -0.854572 0.8510674 -1.8213297 -0.7712702 -1.012066 1.3635935 1.1470085 0.83601844 -0.80256283 0.3605526 -0.62961537
estacion -0.50180876 -0.16274162 -0.09619013 -0.0018591306 -0.49197587 -0.48482907 0.81930995 -0.562839 -0.17593035 -0.06293888 -0.07742554 0.19381799 0.4090498 0.6043927 -0.1258029 0.50127405 -0.35644263 -0.55642366 0.037856385 0.2102242 0.32009816 -0.029345682 -0.23242038 0.20995025 -0.09622807 0.22100738 0.23508449 0.13178012 -0.13451128 0.55100715
alimentacion -0.49375245 -0.19725971 -0.09644842 -0.026784733 -0.50570214 -0.46207407 0.7728873 -0.603105 -0.13791966 -0.01783811 -0.07142292 0.16629276 0.3897633 0.56721544 -0.10704675 0.45604154 -0.3414518 -0.51820564 -0.017286966 0.19589254 0.35454604 -0.03285702 -0.20743702 0.17777798 -0.11321641 0.2325185 0.24039915 0.041848578 -0.09731864 0.5174766
juegos -0.49699447 -0.14276344 -0.10515991 -0.021858625 -0.47071114 -0.45807526 0.77499944 -0.578597 -0.168839 -0.044872936 -0.10216489 0.17203157 0.36866722 0.5689752 -0.06775982 0.4758036 -0.32641232 -0.55856407 0.029905558 0.18289094 0.34364295 -0.009838584 -0.23904577 0.22275004 -0.11708456 0.22338839 0.19448857 0.09508841 -0.11372407 0.51368356
bajas -0.49116686 -0.1766351 -0.11895465 -0.016348707 -0.4765047 -0.45647252 0.7876941 -0.5865152 -0.18963547 -0.046056766 -0.06609477 0.1884703 0.39475942 0.5903512 -0.09585908 0.46347636 -0.33799618 -0.5715843 0.010920356 0.21030225 0.32450974 -0.0076181884 -0.24642926 0.22216484 -0.12153008 0.21557945 0.22506587 0.103131115 -0.11466995 0.5001301
manejando -0.5071663 -0.15043269 -0.07777697 -0.007868915 -0.49431026 -0.43976656 0.72868747 -0.5581132 -0.14889391 -0.0063320836 -0.060703315 0.20688748 0.41619745 0.58031774 -0.14831565 0.48356608 -0.34653416 -0.5011423 0.009975606 0.15059267 0.3653207 -0.09901657 -0.2611288 0.13772012 -0.06694734 0.25175396 0.21325414 0.059512086 -0.10217755 0.46041352
alta -0.4936764 -0.16902353 -0.115843706 0.009920992 -0.47394943 -0.47883835 0.82252467 -0.60581 -0.16500324 -0.032961283 -0.07157092 0.18820186 0.4089123 0.59735847 -0.14639856 0.5187821 -0.3369378 -0.5575399 0.029806592 0.19542283 0.3130827 -0.025583731 -0.23119375 0.22135569 -0.1105706 0.23819052 0.25416547 0.096554406 -0.1278061 0.5189181
acto -0.5118966 -0.18395047 -0.09450721 0.011467116 -0.47810528 -0.4616783 0.7820698 -0.5877967 -0.19521983 -0.033936426 -0.081701525 0.18398117 0.41598263 0.58159375 -0.111018054 0.4700833 -0.3441793 -0.5651153 0.009482167 0.20802318 0.35539186 0.010698926 -0.22273126 0.20465817 -0.10153265 0.21651296 0.21256243 0.13820802 -0.12254715 0.5133687
temas -0.49681816 -0.16909248 -0.14350438 -0.0073408554 -0.4763495 -0.51153886 0.81363827 -0.6141138 -0.17681383 -0.06069094 -0.070174456 0.21650074 0.3846731 0.6006586 -0.11429746 0.5109889 -0.3441989 -0.5913908 0.012220713 0.18404733 0.3433561 -0.034087185 -0.24747416 0.22984178 -0.13853507 0.20957541 0.21818505 0.100316666 -0.12928577 0.533921
lleva -0.509851 -0.16486453 -0.05484788 0.01563446 -0.49030435 -0.4649118 0.7780508 -0.5966677 -0.16786411 -0.033093758 -0.06256486 0.21422625 0.40591016 0.606372 -0.14548382 0.514707 -0.3549985 -0.5108003 0.01859227 0.15129024 0.3292941 -0.13227004 -0.2615232 0.17039675 -0.0483968 0.2676625 0.23246501 0.063102365 -0.105620936 0.45504385
idea -0.5050433 -0.1471133 -0.09297047 0.009813549 -0.46267536 -0.40919396 0.7667174 -0.5797531 -0.20676126 -0.0033104059 -0.066492885 0.20910044 0.4352738 0.58756316 -0.1532773 0.47286218 -0.33161384 -0.52888125 -0.0059856344 0.1566695 0.3862183 -0.10677648 -0.21710683 0.17244548 -0.06356536 0.24813364 0.22290881 0.12171013 -0.105014816 0.41511148
exito -0.51605976 -0.20124517 -0.10766069 0.012683705 -0.4638108 -0.45282328 0.7920663 -0.57792896 -0.18519786 -0.048243243 -0.055555463 0.2097753 0.39489958 0.5941529 -0.13291968 0.4903353 -0.35650462 -0.5662554 0.026784686 0.17058142 0.35678285 -0.0544948 -0.2464064 0.1852905 -0.13900602 0.21922247 0.22556116 0.12683521 -0.11900074 0.51897496
momentos -0.4731529 -0.15301569 -0.07227901 -0.01284385 -0.49703318 -0.48520973 0.79464525 -0.5863002 -0.17673197 -0.056481656 -0.05125158 0.20521252 0.40591645 0.6114954 -0.16091073 0.4984177 -0.364177 -0.5335977 0.042063925 0.16604911 0.3550943 -0.09334537 -0.25581363 0.17766446 -0.08678347 0.23886126 0.22415678 0.07416541 -0.10069047 0.50167364
digame -0.47620317 -0.19386384 -0.09649101 0.0061359475 -0.4475653 -0.47253007 0.789194 -0.5744843 -0.16428606 -0.03001538 -0.06894318 0.21275812 0.37881124 0.58250356 -0.139803 0.46449134 -0.35835975 -0.5347447 0.036281895 0.2033737 0.34095976 -0.03553923 -0.24106151 0.20221587 -0.12995479 0.17826162 0.22773094 0.087056376 -0.10211346 0.5090676
pasaria -0.5042139 -0.16922314 -0.10921564 -0.037853643 -0.47284567 -0.46622738 0.75560427 -0.5693872 -0.187568 -0.019700646 -0.07037852 0.15334864 0.41518646 0.6056357 -0.11835976 0.49068502 -0.34558123 -0.5167114 0.07138675 0.16049723 0.29689318 -0.02140945 -0.21082474 0.1887505 -0.108033575 0.22235407 0.2068248 0.081785105 -0.13476996 0.49791777
fondo -0.50616205 -0.183655 -0.068289176 0.0069917785 -0.4975877 -0.4576762 0.7803716 -0.6095154 -0.18246147 -0.041818857 -0.04259623 0.18662384 0.39588606 0.6153305 -0.15246345 0.51584893 -0.34603038 -0.5653942 0.0019728306 0.14815208 0.3502892 -0.06868045 -0.25745258 0.18702728 -0.08213678 0.25706074 0.24920854 0.10703144 -0.11725362 0.47274363
escuche -0.4968561 -0.18005918 -0.09959421 0.006871023 -0.43091208 -0.47361428 0.76300997 -0.5875851 -0.16044106 -0.06193066 -0.058706935 0.17491981 0.3917617 0.60838413 -0.13825361 0.48463133 -0.38774878 -0.5485262 0.011674561 0.19091052 0.3371182 -0.054472815 -0.23892106 0.20873904 -0.07709864 0.20560975 0.22524191 0.1340152 -0.13709849 0.47152534
sirve -0.48896345 -0.14161962 -0.05412498 -0.024759632 -0.4898802 -0.5090188 0.79219556 -0.62415755 -0.13864644 -0.037151475 -0.09082312 0.19474892 0.4163512 0.59463185 -0.15126139 0.48842135 -0.35577658 -0.50806206 -0.008628836 0.18845135 0.35134616 -0.067878254 -0.26349264 0.18219171 -0.062766135 0.22401237 0.21431293 0.09327808 -0.11317493 0.49578738
exactamente -0.4804253 -0.1583458 -0.07815757 -0.026970837 -0.47759923 -0.44535133 0.7689387 -0.5752237 -0.16117121 -0.033323158 -0.039851107 0.1940894 0.41939873 0.5818511 -0.13201565 0.50289285 -0.35978788 -0.520383 0.015835213 0.17059289 0.341925 -0.06547301 -0.27101418 0.20845008 -0.067706876 0.20724519 0.20895602 0.10388356 -0.108207665 0.4701187
irse -0.5143961 -0.19349052 -0.07900086 -0.014468481 -0.5065108 -0.483966 0.7941098 -0.60153246 -0.15832442 -0.0004897027 -0.05537795 0.21855155 0.41755563 0.5823389 -0.18069623 0.5090177 -0.3629975 -0.5184688 0.012525058 0.16941279 0.34782746 -0.08548454 -0.23415181 0.13750091 -0.052638758 0.23784675 0.21933939 0.10973644 -0.11189969 0.47599384
this -0.51649195 -0.15771654 -0.104949616 -0.012114053 -0.46913704 -0.4941417 0.7932009 -0.6004177 -0.20477486 -0.05018545 -0.061530273 0.22035627 0.41560897 0.59377617 -0.15771471 0.478081 -0.36235207 -0.5863129 0.035125896 0.1863398 0.3516702 -0.04140024 -0.24450226 0.20258977 -0.097558476 0.23175047 0.2592709 0.16071703 -0.13062458 0.51105386
tarjeta_credito -0.5116297 -0.18557428 -0.12499003 -0.024694256 -0.4546582 -0.45448866 0.7661815 -0.57968664 -0.17537303 -0.065668434 -0.046407174 0.18659534 0.41424015 0.60541 -0.15528925 0.53326464 -0.36432457 -0.60463285 0.015077235 0.15560648 0.32842153 -0.106930405 -0.25381732 0.2037556 -0.08522525 0.2099142 0.20922887 0.116633385 -0.101558976 0.49354467
poquito -0.4935852 -0.1428665 -0.07153716 -0.0072599 -0.44890693 -0.43817472 0.76316863 -0.5575114 -0.1684791 -0.04177917 -0.04968203 0.19108906 0.39890653 0.60973173 -0.11422964 0.4659707 -0.36975732 -0.5587807 0.00934367 0.21586023 0.31028396 -0.0449948 -0.2413025 0.19001028 -0.118309975 0.19709794 0.24252228 0.09965643 -0.1424425 0.542106
electronico -0.49629548 -0.19129243 -0.059995495 -0.022810698 -0.47737032 -0.44128576 0.7583604 -0.59964937 -0.15745217 -0.060030457 -0.06363653 0.16526109 0.39330113 0.58600354 -0.12576453 0.532875 -0.39141893 -0.4993316 0.0024253244 0.13419965 0.3555312 -0.061434295 -0.26190862 0.18989605 -0.09344581 0.21861479 0.23924623 0.08166939 -0.058782846 0.47640878
categorias -0.51381576 -0.19354798 -0.087970465 -0.026901526 -0.51073045 -0.4759292 0.7553001 -0.5893063 -0.141 -0.023147156 -0.05532391 0.19288458 0.3770827 0.61806095 -0.13646573 0.48271024 -0.352632 -0.49990028 -0.0021247675 0.16071999 0.31356952 -0.08468628 -0.26176277 0.15911458 -0.10201668 0.23101944 0.22236662 0.07715333 -0.14025316 0.50743735
menores -0.50950783 -0.14394704 -0.10280736 -0.035107415 -0.46297878 -0.46471757 0.74754614 -0.537546 -0.16112566 -0.042915437 -0.056391828 0.21636039 0.3627149 0.5929987 -0.10648128 0.46293804 -0.34894076 -0.54495764 0.033522096 0.1595468 0.32019404 -0.032975253 -0.24029346 0.20212927 -0.10444276 0.1999368 0.2588434 0.08938211 -0.1141044 0.5185189
pedir -0.48396254 -0.13449675 -0.10793919 -0.0023852696 -0.45689145 -0.4778857 0.81157595 -0.5916579 -0.1857609 -0.03795334 -0.055229604 0.21079996 0.3862259 0.5802661 -0.15121429 0.49022382 -0.34521776 -0.585172 0.048544373 0.17312303 0.3286021 -0.07373431 -0.29122528 0.21399915 -0.1264013 0.18447824 0.2194236 0.11102546 -0.12780581 0.511795
compra -0.5082676 -0.17817067 -0.08650322 0.0022916186 -0.504303 -0.5168478 0.78915334 -0.60606587 -0.1968751 -0.02950599 -0.054379847 0.17852753 0.42104447 0.60092956 -0.20236208 0.5120465 -0.36143148 -0.53684586 0.024689216 0.14567131 0.35654235 -0.10507703 -0.30369285 0.16730826 -0.06221234 0.24264327 0.24617884 0.06126338 -0.12567267 0.47756803
valores -0.52030635 -0.14374131 -0.07551467 0.011723277 -0.45063218 -0.4816844 0.7700711 -0.59683096 -0.1847666 -0.025108652 -0.061410293 0.17633428 0.37083533 0.5945434 -0.12024758 0.45263165 -0.33655137 -0.5231838 0.0412671 0.20450212 0.33705884 0.0043857656 -0.24500823 0.21573567 -0.12358004 0.2221963 0.19211364 0.1252294 -0.09983553 0.5127399
producto -0.4861064 -0.16935779 -0.10704881 -0.028907945 -0.46195728 -0.48706615 0.7964104 -0.58431953 -0.17806506 -0.051155016 -0.057632957 0.18650952 0.37496302 0.6244154 -0.14302532 0.46698073 -0.3750235 -0.537497 -0.0018571462 0.20082219 0.3204431 -0.03959274 -0.2674458 0.24227056 -0.09467885 0.22028351 0.21569997 0.1410819 -0.13173008 0.51678884
quedar -0.4697437 -0.15219708 -0.093448386 -0.028029444 -0.45712945 -0.48249286 0.79504764 -0.56405365 -0.18522513 -0.016297953 -0.082344145 0.20517616 0.40087628 0.60345507 -0.14627203 0.49229756 -0.37859794 -0.551915 0.03858147 0.20068419 0.35763535 -0.05381103 -0.25164643 0.2239464 -0.11317638 0.24793915 0.23317431 0.11530161 -0.09628519 0.5357306
encuentro -0.48919657 -0.1672437 -0.11036924 0.00039311056 -0.4845054 -0.45583332 0.8099434 -0.6264415 -0.15941447 -0.037733987 -0.07952775 0.18090391 0.3893811 0.63225263 -0.1427976 0.46176592 -0.34901133 -0.5660019 -0.011670296 0.21708186 0.34145328 -0.06159001 -0.23742217 0.22045878 -0.08548902 0.22574554 0.24260871 0.11698625 -0.12914968 0.5239288
cotizar -0.51897526 -0.1677763 -0.026695678 -0.00020957727 -0.48704815 -0.45238414 0.7541825 -0.5966011 -0.16235495 -0.011152651 -0.031488847 0.19611348 0.41232356 0.5850139 -0.15813723 0.46999604 -0.35335818 -0.5058534 0.015509949 0.13480274 0.33701685 -0.07775311 -0.26541033 0.16333829 -0.06293816 0.24245338 0.20262742 0.04670541 -0.07141149 0.44743192
requisitos_afiliacion -0.8634827 -0.41528773 0.58263594 -0.14218523 -1.4314567 -0.7669794 0.80098736 -0.9858547 0.16364357 0.17359038 0.45282805 0.20341517 0.9125272 0.6578002 -0.84302574 1.2764527 -0.48860466 0.14199083 -0.41603997 -0.6830288 0.7511766 -1.5315951 -0.71700215 -0.85597384 1.1341245 1.0502088 0.70828897 -0.7400776 0.25334173 -0.49036235
dificil -0.5022291 -0.16659619 -0.10562903 -0.017838422 -0.46396098 -0.49432018 0.78737026 -0.5442295 -0.1639475 -0.013440997 -0.06606142 0.2065887 0.42948574 0.62100405 -0.13702394 0.5169404 -0.36457786 -0.5637681 0.029248696 0.20103152 0.32034236 -0.050763186 -0.28301257 0.19643211 -0.08665427 0.21168004 0.20929997 0.08011496 -0.109937355 0.51711583
ultima -0.49382484 -0.16327718 -0.07212118 -0.010606348 -0.4855576 -0.45788947 0.76041657 -0.582103 -0.159501 -0.03153409 -0.04647422 0.16835004 0.37215438 0.5549462 -0.15357138 0.47748622 -0.32064837 -0.47797605 0.006412671 0.15761134 0.34812084 -0.1046082 -0.26981208 0.1764155 -0.06552588 0.209278 0.20811076 0.06673089 -0.077410065 0.48033947
natacion -0.5206283 -0.14060938 -0.07727495 -0.026858674 -0.5114681 -0.5587908 0.7226474 -0.62396204 -0.17109644 -0.064715385 -0.045272764 0.20820995 0.37910584 0.57860136 -0.20423259 0.5076998 -0.34447163 -0.52259743 -0.03999358 0.15561889 0.3419822 -0.1069801 -0.2767031 0.1565947 -0.06306221 0.30189922 0.258531 0.1477502 -0.107465826 0.43265432
zoologico -0.52042544 -0.15313876 -0.11291578 -0.0029410794 -0.47911972 -0.48381898 0.7551003 -0.5903819 -0.1732461 -0.039986942 0.0044911676 0.18707357 0.3844811 0.6177913 -0.120257966 0.52188 -0.27758685 -0.5674468 -0.003085553 0.1219538 0.31392756 -0.07246876 -0.23128468 0.1663862 -0.08731675 0.1737084 0.23991174 0.06618204 -0.1344613 0.48491287
disculpa -0.46313527 -0.16575462 -0.11539403 -0.028904967 -0.4938825 -0.4777142 0.74944353 -0.5917509 -0.13998978 -0.018187208 -0.07605781 0.16817798 0.37346295 0.6156117 -0.1331556 0.4848538 -0.37169668 -0.54753983 0.013695159 0.17479126 0.30749205 -0.05730959 -0.27164876 0.16049966 -0.065065324 0.20631936 0.22213648 0.07543529 -0.12814221 0.4873388
mensaje -0.51312226 -0.15836784 -0.097410254 -0.03264092 -0.49574348 -0.48124683 0.74783146 -0.6222472 -0.19159544 -0.047895264 -0.08136938 0.20418389 0.4370688 0.63565075 -0.13560683 0.5054308 -0.3803051 -0.55483806 0.031140922 0.14295323 0.32275915 -0.058444094 -0.2706688 0.21784994 -0.07975461 0.19680668 0.22871707 0.06809227 -0.116924636 0.5152006
termino -0.4942837 -0.18309833 -0.08484084 -0.0056478665 -0.47408897 -0.46801853 0.78214866 -0.5642191 -0.17231873 -0.029181093 -0.1026085 0.19836518 0.39101377 0.58612883 -0.15067413 0.49604768 -0.32963073 -0.56111985 0.025281228 0.20414104 0.3429009 -0.04443118 -0.27480808 0.21298765 -0.082106605 0.20151898 0.22661433 0.10904976 -0.13703944 0.48201385
podia -0.499507 -0.15237762 -0.0823752 0.0011677624 -0.48756352 -0.48608413 0.78923047 -0.5620624 -0.1851962 -0.05009162 -0.051637776 0.1806047 0.41320637 0.6044996 -0.15882502 0.52443475 -0.335186 -0.52688056 0.023606548 0.16337976 0.3235265 -0.072197475 -0.30283666 0.16736692 -0.053307246 0.22838807 0.2522719 0.06403233 -0.08399531 0.5024909
obviamente -0.46409884 -0.1447599 -0.09851839 0.0034241143 -0.43821824 -0.47603637 0.8179224 -0.57197255 -0.195536 0.0002748436 -0.06868505 0.22237709 0.39440605 0.58414376 -0.1372265 0.49350825 -0.3378719 -0.550082 0.016623663 0.21321335 0.3233608 0.0069279186 -0.23968953 0.19817628 -0.15321255 0.19706044 0.22630312 0.13142954 -0.13040791 0.52599865
completo -0.503713 -0.22790913 -0.07995058 -0.008033264 -0.5110015 -0.4936571 0.79596055 -0.6193516 -0.17701222 -0.02043276 -0.01933901 0.20812571 0.38947618 0.59418154 -0.10227709 0.5115782 -0.36494368 -0.54836327 -0.00045299606 0.20319822 0.3281039 -0.043297634 -0.2296076 0.20319913 -0.13224779 0.23386873 0.22409844 0.10469524 -0.08171795 0.5140213
minimo -0.51022947 -0.16277233 -0.08676853 -0.025063546 -0.43596527 -0.42300957 0.79243284 -0.59287006 -0.15640272 -0.014640873 -0.0667423 0.17290303 0.39167097 0.577643 -0.12578975 0.47527635 -0.3374566 -0.5361396 0.0149007095 0.1756813 0.33321697 -0.01743643 -0.2542539 0.17446887 -0.109896906 0.19891003 0.22876772 0.073539585 -0.10814255 0.5358615
saliendo -0.45044893 -0.13840754 -0.11147254 0.09720578 -0.36387822 -0.46148303 0.84954834 -0.64207345 -0.2202071 0.14601648 -0.17886262 0.24880168 0.37490568 0.5357538 -0.050260033 0.42159986 -0.2958114 -0.5906085 0.07756943 0.23354512 0.3890033 0.025464546 -0.25327942 0.26189625 -0.21422322 0.14766657 0.2500645 0.18903998 -0.15894254 0.47277224
inicio -0.5129986 -0.20032498 -0.068355106 -0.018001374 -0.48619112 -0.46011254 0.7788897 -0.5948964 -0.15770952 -0.0327613 -0.042125568 0.19885238 0.40910345 0.6123589 -0.12718903 0.53516555 -0.32597503 -0.56305146 -0.0038562112 0.1602179 0.34337673 -0.058694165 -0.2701584 0.2014181 -0.08793728 0.20037158 0.22148076 0.077373125 -0.08843122 0.55121595
compre -0.50134045 -0.13583216 -0.12777078 0.009156473 -0.4472839 -0.47131562 0.79250216 -0.583364 -0.19301093 -0.039221648 -0.0806537 0.21485038 0.4249208 0.6015774 -0.16691588 0.5044237 -0.37526548 -0.59294933 0.008818291 0.19708414 0.3479925 -0.039350975 -0.24783221 0.21210864 -0.13164505 0.20472535 0.22461571 0.11369254 -0.1371317 0.5463759
oficina -0.46314365 -0.17119704 -0.07476162 -0.028449742 -0.4515522 -0.45239374 0.7615368 -0.5228993 -0.16097246 -0.0275258 -0.052476544 0.21178596 0.39727658 0.55716157 -0.12204195 0.48359424 -0.317357 -0.53141475 0.015134934 0.1960309 0.32250616 -0.0060778046 -0.24541323 0.22927962 -0.10454489 0.18521106 0.19965589 0.10679126 -0.10242819 0.5290782
comunicar -0.49729726 -0.19537784 -0.006743263 -0.018954834 -0.5089595 -0.47022203 0.72954625 -0.59675336 -0.14524713 -0.007095389 -0.010787056 0.19881329 0.38670662 0.55926776 -0.16067943 0.5141692 -0.34430888 -0.46039718 -0.033251043 0.12585717 0.33328444 -0.14398599 -0.27539775 0.14019442 -0.018312328 0.24417971 0.23591694 0.044741265 -0.08975256 0.44601113
efectivo -0.50407857 -0.18079622 -0.09433854 -0.002428717 -0.43788728 -0.43867323 0.7716257 -0.5806443 -0.19180638 -0.005772362 -0.09015791 0.2029631 0.401783 0.6111892 -0.12776949 0.48383856 -0.3341292 -0.57051814 0.023540173 0.2143425 0.35414472 -0.016182184 -0.26066825 0.21741706 -0.13014086 0.1783325 0.25445917 0.13487081 -0.1342814 0.55448574
salida -0.5092265 -0.17021294 -0.07394735 0.011592066 -0.48344946 -0.4630809 0.7584559 -0.5709051 -0.13987136 -0.014441651 -0.03958041 0.15616818 0.38965064 0.59329116 -0.15401466 0.50297797 -0.363186 -0.5044844 0.022516059 0.16910525 0.33503765 -0.07123978 -0.22322983 0.16987106 -0.070879474 0.24325684 0.2137147 0.09202072 -0.102664895 0.4563223
numeros -0.5034383 -0.16281971 -0.102544315 -0.019313838 -0.46838757 -0.47049862 0.7677942 -0.5992642 -0.18544509 -0.047228806 -0.041921176 0.19601916 0.38511992 0.58340985 -0.1234305 0.5223047 -0.38332763 -0.5611265 0.02458272 0.18747403 0.3231153 -0.072280005 -0.23142335 0.17388046 -0.08772141 0.21627806 0.23069125 0.068901174 -0.11499896 0.5186016
conozco -0.50416046 -0.16067189 -0.06990656 -0.041598685 -0.49318966 -0.46198452 0.8033478 -0.57808715 -0.1544966 -0.03226382 -0.039070234 0.1877498 0.42318937 0.6077403 -0.1421583 0.5212976 -0.34132978 -0.55110806 0.019990418 0.17382433 0.32262862 -0.054972503 -0.24922445 0.19423123 -0.081847645 0.23785369 0.24756019 0.11153387 -0.1219672 0.50149786
nadie -0.50285125 -0.19854441 -0.11185918 0.0016419148 -0.49444288 -0.45147038 0.78825235 -0.59982747 -0.16576354 -0.006653134 -0.024283618 0.22252198 0.37489313 0.59912395 -0.14588651 0.4951467 -0.3571979 -0.5333277 0.04198377 0.16545497 0.3363191 -0.06350273 -0.2674849 0.17023988 -0.06843375 0.20320357 0.22813779 0.102781914 -0.0854199 0.50238097
cotizantes -0.51671535 -0.18021305 -0.048646268 0.000596631 -0.4649133 -0.44997543 0.7228611 -0.5421404 -0.14657713 -0.016940664 -0.017375352 0.15119642 0.36541703 0.56532764 -0.15008676 0.47518486 -0.3013713 -0.5024353 0.019634655 0.17608508 0.34035882 -0.074872926 -0.2348146 0.17406268 -0.05926015 0.21354993 0.23925494 0.050339583 -0.113945656 0.49274534
entrando -0.46793717 -0.19111064 -0.0748097 0.064525686 -0.37346512 -0.49783283 0.85916775 -0.6388596 -0.20229816 0.16313937 -0.14819531 0.23106745 0.38581458 0.5664586 -0.059594776 0.448447 -0.357977 -0.5550387 0.025288612 0.20451428 0.40212828 0.007965604 -0.26356864 0.24004973 -0.18668287 0.17673646 0.26461732 0.15554985 -0.15569898 0.4925305
encuentran -0.4910584 -0.20123191 -0.1142307 -0.0080577675 -0.44461343 -0.44345534 0.79080665 -0.609867 -0.15201475 -0.02892386 -0.054186024 0.20552097 0.37747753 0.60032505 -0.1040728 0.47266793 -0.360986 -0.5579991 0.022465842 0.20403633 0.3352774 -0.00016618747 -0.24802808 0.24833076 -0.1255539 0.17601 0.20609751 0.12046346 -0.14470889 0.57286817
desea -0.5395899 -0.21405625 -0.052099034 -0.030864125 -0.548369 -0.4775335 0.73785853 -0.58777404 -0.13133675 -0.01959708 -0.018014267 0.19010752 0.41974506 0.5616063 -0.17467973 0.55304855 -0.36401242 -0.43761525 -0.028610291 0.08273702 0.34371498 -0.17423035 -0.27114058 0.10106495 -0.03027303 0.23121703 0.2528699 0.026221395 -0.0391446 0.41501445
servir -0.47587183 -0.20415221 -0.07534123 -0.0032654284 -0.4583557 -0.4566563 0.7863165 -0.579266 -0.1649909 -0.010402081 -0.056102097 0.19849065 0.3482992 0.61308926 -0.13841125 0.49280447 -0.3561075 -0.5332428 0.0672833 0.1584968 0.336494 -0.017451592 -0.23376021 0.21480823 -0.1434737 0.18961556 0.23902655 0.11281351 -0.14200796 0.52748585
subsidio_desempleo -1.0407407 -0.50268215 0.62441534 -0.13463755 -1.442754 -0.7880926 0.8662801 -1.0491906 0.09675514 0.20063627 0.55853593 0.18664251 1.0133312 0.82129633 -0.7990229 1.3778465 -0.576145 0.17965814 -0.48862565 -0.76477855 0.8045527 -1.609211 -0.6714502 -0.87643975 1.2020738 1.0126921 0.7517398 -0.6903465 0.2903186 -0.4983386
abierto -0.50915587 -0.1929591 -0.08222147 -0.035515316 -0.4639543 -0.46793118 0.7830326 -0.59985834 -0.16853034 -0.020229498 -0.06760193 0.17003016 0.38199455 0.5903165 -0.1416497 0.50449556 -0.33508837 -0.5349093 0.008128313 0.18755947 0.34618226 -0.047744032 -0.21848631 0.18550381 -0.11126471 0.19703327 0.2556388 0.09902944 -0.09030681 0.5290962
asistir -0.522397 -0.18857168 -0.14436395 -0.06325111 -0.46459964 -0.45412037 0.77155936 -0.5929245 -0.14421776 -0.050994743 -0.055483617 0.19348374 0.34632227 0.6017479 -0.052773956 0.49751303 -0.32532963 -0.5575702 0.012149024 0.19062583 0.3031674 -0.002190265 -0.24953109 0.20787205 -0.1951826 0.1499578 0.2018002 0.099973656 -0.09754592 0.60529387
entrega -0.5057043 -0.18293181 -0.124465965 -0.01681013 -0.5112958 -0.5209271 0.81411314 -0.60605836 -0.18016215 -0.074900046 -0.06961621 0.20343111 0.41248876 0.5898468 -0.11501977 0.47051004 -0.37849456 -0.54455507 0.0068974174 0.18630804 0.36407748 -0.016887505 -0.23937464 0.21065938 -0.10922025 0.22998782 0.21368484 0.08783588 -0.10748871 0.5646503
pagarlo -0.48302174 -0.17692389 -0.1120674 -0.024239667 -0.47597775 -0.49164847 0.77023864 -0.600242 -0.1800178 -0.054301795 -0.06588621 0.20298539 0.3891962 0.61441094 -0.14282714 0.48472974 -0.36102656 -0.56567776 0.013788105 0.17961454 0.3489587 -0.05504475 -0.24088167 0.21300983 -0.10609856 0.21431455 0.22860497 0.094305694 -0.10547653 0.50584656
registrar -0.46121684 -0.18294089 -0.0670458 -0.030637898 -0.471179 -0.46828726 0.7695337 -0.56142956 -0.17897472 -0.063181564 -0.052262086 0.14026666 0.38680646 0.564396 -0.13302235 0.48075238 -0.37160102 -0.57177323 0.03300585 0.18136099 0.3682551 0.027772604 -0.24538028 0.23348746 -0.117342375 0.21207678 0.1863959 0.123129115 -0.12170957 0.5496857
llamars -0.48490077 -0.21207778 -0.09519321 -0.03963088 -0.4612738 -0.4711858 0.7441244 -0.58637273 -0.17205554 -0.054093443 -0.08437476 0.18798536 0.37385094 0.60409886 -0.10786281 0.49657637 -0.34007525 -0.5180799 0.05080089 0.18385305 0.36477688 -0.027045503 -0.24871632 0.23791936 -0.16864458 0.20041406 0.21501984 0.10237963 -0.08032265 0.54599583
regalar -0.51742715 -0.15643124 -0.06594949 -0.03412248 -0.45526418 -0.48254645 0.76074684 -0.61418146 -0.14568937 -0.052668042 -0.06782641 0.17319795 0.39146256 0.5805684 -0.15280835 0.49076807 -0.37259012 -0.52423775 0.022849126 0.1645395 0.35893103 -0.04918632 -0.24842244 0.16430591 -0.10910531 0.22249919 0.2444412 0.09916589 -0.11968108 0.4894092
gustaria -0.47644758 -0.1521594 -0.057778366 -0.010762398 -0.4993694 -0.45179248 0.7589715 -0.5920247 -0.16022712 -0.051051807 -0.04164099 0.15421766 0.39038086 0.59417534 -0.13686246 0.52932703 -0.32312316 -0.51830065 0.0024507954 0.14123133 0.34730098 -0.07804257 -0.26406983 0.17995894 -0.033608984 0.23494415 0.22319573 0.04738082 -0.12595512 0.47247797
dijiste -0.46855474 -0.15411887 -0.096558236 -0.018111149 -0.45132542 -0.4682221 0.7652211 -0.6048592 -0.19360366 0.025229743 -0.0881289 0.19522153 0.39631876 0.567074 -0.13174638 0.5025134 -0.34864405 -0.52452135 0.04817614 0.18557233 0.3465794 -0.022162924 -0.2614389 0.19133128 -0.09577525 0.22569853 0.21758096 0.104845114 -0.107482195 0.48936135
situacion -0.5121632 -0.1991518 -0.11543854 -0.03290375 -0.50760907 -0.5109527 0.80853045 -0.6347346 -0.17605208 -0.010122258 -0.08655788 0.21118689 0.4371613 0.6242884 -0.15865512 0.53075576 -0.36056703 -0.55469525 0.003993608 0.20977461 0.36276555 -0.096009046 -0.24479891 0.20922667 -0.07741935 0.25849655 0.27012843 0.11102018 -0.10971795 0.5304228
senores -0.49816203 -0.17249312 -0.08205673 -0.016938575 -0.4823808 -0.46745175 0.77070004 -0.61826485 -0.15068696 -0.017323967 -0.04975088 0.15929458 0.39571112 0.62227464 -0.1608658 0.5213678 -0.35299772 -0.54223496 0.011303209 0.16661505 0.33490226 -0.08768833 -0.23304543 0.20958129 -0.07180828 0.24479082 0.21543072 0.0679798 -0.10718848 0.48944792
septiembre -0.48075053 -0.18477382 -0.07815519 -0.035071302 -0.46114093 -0.45186573 0.8093306 -0.5857322 -0.18679196 -0.05387094 -0.058911618 0.21758331 0.4010967 0.5947717 -0.09493091 0.4879248 -0.3784108 -0.5892388 0.046271473 0.19990863 0.33205402 -0.026166942 -0.19844782 0.25491208 -0.15662317 0.17545977 0.24234688 0.12076364 -0.13136585 0.5502944
perdi -0.52633965 -0.18626235 -0.096494675 0.0097916275 -0.47972053 -0.4607441 0.79246354 -0.577531 -0.16365856 -0.04292204 -0.042263016 0.20164096 0.37996125 0.6153189 -0.11693851 0.49871892 -0.34255734 -0.52800155 -0.007121599 0.15621445 0.29996914 -0.08607755 -0.25467268 0.16501346 -0.117246546 0.2276262 0.22697106 0.07959243 -0.09930983 0.5005216
perdio -0.4868994 -0.1554992 -0.086558126 -0.007881168 -0.45967492 -0.48307034 0.7834544 -0.5911749 -0.17745657 -0.02754506 -0.08841026 0.17208788 0.40207338 0.5901812 -0.12928152 0.4931816 -0.35718635 -0.55566305 0.018060738 0.18075906 0.30888143 -0.028417354 -0.24536099 0.19747195 -0.12926391 0.20874041 0.20293128 0.124202564 -0.12984972 0.5161885
preguntarte -0.49690685 -0.18532068 -0.1020602 -0.0025530022 -0.4798801 -0.45362344 0.7955812 -0.59934 -0.19400065 -0.029963268 -0.0789884 0.18894288 0.4113846 0.5828208 -0.1652414 0.50216144 -0.35890463 -0.5477798 0.028737236 0.15819414 0.34981203 -0.041306205 -0.2719765 0.17805353 -0.094484776 0.25078338 0.22523165 0.12860352 -0.11088556 0.46464565
pagaria -0.47671974 -0.14944759 -0.10231156 -0.03365413 -0.4889139 -0.47997767 0.79039 -0.58189535 -0.16495296 -0.022266645 -0.050137803 0.20051953 0.41839096 0.6151773 -0.14463364 0.5014089 -0.35108072 -0.57080793 0.022917347 0.19373432 0.31980026 -0.066202395 -0.2809444 0.17133614 -0.10423902 0.2107232 0.20273523 0.10204371 -0.13020104 0.52126557
seguros -0.4913155 -0.1788332 -0.041202977 -0.03601521 -0.5806617 -0.49723542 0.758958 -0.60865146 -0.11666202 -0.012474741 -0.029338943 0.2213222 0.39481762 0.53143567 -0.19713356 0.4853811 -0.32744515 -0.4453983 -0.026373317 0.107636 0.37322563 -0.13054825 -0.27505744 0.066821374 -0.018935356 0.2949796 0.22111562 0.0037595613 -0.119384274 0.3936055
loco -0.48046637 -0.16677535 -0.1060926 -0.012002839 -0.4638813 -0.480104 0.7934654 -0.5974028 -0.17495956 -0.021410106 -0.09535352 0.1887804 0.40183258 0.6068602 -0.12788588 0.50847816 -0.3633782 -0.5564688 0.025209496 0.1781397 0.3306518 -0.060755197 -0.23280077 0.18641834 -0.11595133 0.24123813 0.21583153 0.11069892 -0.109796 0.5182966
parar -0.47097278 -0.1348457 -0.101639576 0.006719776 -0.48173586 -0.45640054 0.7499786 -0.5786604 -0.17916457 -0.028240187 -0.06355148 0.20773348 0.40947315 0.55844074 -0.13623348 0.46509457 -0.3554953 -0.5277763 0.03690546 0.16977789 0.31739455 -0.06496022 -0.22378786 0.19830689 -0.08322794 0.20166235 0.22971947 0.10401881 -0.12148232 0.5076403
hicieron -0.5066173 -0.15785763 -0.09534169 0.017446319 -0.48161557 -0.4478579 0.78797996 -0.58476275 -0.21358491 -0.005387145 -0.072371684 0.19503969 0.39964798 0.56964284 -0.14533979 0.52717096 -0.32002574 -0.566048 -0.0032914004 0.17772055 0.34247795 -0.07924646 -0.2570874 0.193965 -0.124028064 0.22258341 0.21490176 0.14312418 -0.09216116 0.48161268
cancele -0.5117399 -0.18599857 -0.11771992 -0.013116221 -0.46751302 -0.49638426 0.7686548 -0.57880867 -0.18458216 -0.034764633 -0.09406609 0.20823704 0.40819874 0.59297764 -0.113480434 0.5061666 -0.37945285 -0.575891 0.03286517 0.21446387 0.33084428 -0.019537121 -0.25364485 0.20183522 -0.13643737 0.19481501 0.21358427 0.12945044 -0.11326176 0.5359622
pendientes -0.48313174 -0.1758056 -0.07028301 -0.0046773013 -0.47548842 -0.46106 0.7613405 -0.5776957 -0.15646285 -0.05433498 -0.08485054 0.17807901 0.3911579 0.5998235 -0.11238707 0.5236009 -0.3591356 -0.54567033 0.043225955 0.20808074 0.35290787 -0.016615473 -0.26466802 0.1920495 -0.106009945 0.18083154 0.23888017 0.080032825 -0.09708901 0.50524527
invitados -0.5109442 -0.18023226 -0.105371214 0.00873682 -0.4706136 -0.4903572 0.7892525 -0.57928944 -0.14355364 0.003669147 -0.04779559 0.1998081 0.40521812 0.5601827 -0.097426124 0.49917385 -0.34598586 -0.55191916 0.03452637 0.17907447 0.3031597 -0.037243236 -0.2301079 0.23067714 -0.13611397 0.21008302 0.25260308 0.08082553 -0.11685629 0.50595385
interes -0.5173302 -0.18555082 -0.09918988 -0.011941557 -0.474079 -0.4779291 0.7916321 -0.58779496 -0.18026029 -0.028439714 -0.07515542 0.18752363 0.40405622 0.59121037 -0.13064434 0.48526105 -0.34438965 -0.57025343 0.016425386 0.19111246 0.352452 -0.085332155 -0.260547 0.17032838 -0.1172011 0.22366461 0.20996241 0.1345466 -0.1359449 0.48662955
personaje -0.4895523 -0.16780722 -0.10886202 0.011344019 -0.45768768 -0.45219016 0.767558 -0.5837368 -0.18005945 -0.0287392 -0.076138645 0.16657713 0.3871512 0.5802029 -0.12494394 0.48703256 -0.348852 -0.5181904 0.027130976 0.18223569 0.32670364 -0.053159922 -0.2252857 0.21139294 -0.08271313 0.20825703 0.23233016 0.104489125 -0.09633117 0.5051169
quede -0.49260744 -0.1464263 -0.108985886 0.01714989 -0.44284979 -0.48596 0.7579063 -0.5719163 -0.16863863 -0.0036790646 -0.07232708 0.18140724 0.38160634 0.5926668 -0.15388614 0.4860224 -0.36257833 -0.56080675 0.035105236 0.15872407 0.35543522 -0.077920936 -0.2446978 0.15989953 -0.09105033 0.2459561 0.23347324 0.12759747 -0.13331111 0.47590697
deben -0.5003807 -0.21147516 -0.14938046 -0.017004227 -0.46402577 -0.44774014 0.77865976 -0.5954773 -0.16687025 -0.078258485 -0.049926057 0.2058654 0.35437536 0.5934764 -0.109080695 0.48056552 -0.34593824 -0.55098975 0.040736564 0.22049448 0.3164182 0.01981695 -0.23988058 0.22042395 -0.17968075 0.182212 0.21439797 0.09662988 -0.12351635 0.6123684
cuentan -0.51240253 -0.1673045 -0.092709444 0.01425348 -0.4815719 -0.47900662 0.78326803 -0.5786763 -0.18197878 -0.023465058 -0.06973149 0.19319142 0.37927634 0.6021535 -0.14182448 0.46587062 -0.34419376 -0.5524542 0.034735214 0.1954931 0.3398987 -0.04268812 -0.2621534 0.20032986 -0.10163188 0.23498029 0.21363823 0.09985643 -0.09971573 0.48523855
creacion -0.5036893 -0.18816055 -0.08748287 -0.015127949 -0.46267596 -0.45496887 0.7845896 -0.58490205 -0.18067154 -0.025138833 -0.05686379 0.20810114 0.39791006 0.5768885 -0.13274084 0.47933307 -0.34387773 -0.5440181 0.027689371 0.15379117 0.3525012 -0.0063352766 -0.260121 0.22846223 -0.14272556 0.20136656 0.22072154 0.07494937 -0.10681746 0.51257503
incluyen -0.5156933 -0.18893006 -0.0967575 -0.024193691 -0.48374143 -0.4486197 0.78975797 -0.5724866 -0.14753285 -0.027196852 -0.05460767 0.17209221 0.41918275 0.62428254 -0.15479763 0.473836 -0.33032188 -0.5432922 0.032463446 0.18332851 0.32482287 -0.019028211 -0.22282788 0.18263265 -0.115898326 0.20515387 0.21078812 0.0862726 -0.11579567 0.526468
habiles -0.52439284 -0.23282427 -0.14171776 -0.07339983 -0.47653785 -0.44879976 0.77598584 -0.58386153 -0.15702434 -0.038399108 -0.07986921 0.22253804 0.32757413 0.5910047 -0.02002345 0.5048548 -0.33700445 -0.5735843 0.00266643 0.22211334 0.32952702 -0.0020747532 -0.21901113 0.24375702 -0.23637785 0.08909109 0.18468396 0.08998161 -0.10391926 0.6103414
darle -0.50577605 -0.18003435 -0.0687778 -0.018574543 -0.48816547 -0.46447667 0.79009205 -0.58349866 -0.18719397 -0.05435252 -0.061268296 0.21234478 0.38968945 0.6122578 -0.17012435 0.52553535 -0.34624392 -0.52564466 -0.0001403908 0.12238169 0.34998557 -0.12869762 -0.2605062 0.15822425 -0.05831414 0.25432053 0.25800282 0.080985956 -0.08891029 0.46344662
quedan -0.48630935 -0.16146539 -0.11668404 -0.007951277 -0.49872178 -0.49371266 0.7713603 -0.58674675 -0.14656231 -0.051915124 -0.09223581 0.15596335 0.373567 0.59902894 -0.14471368 0.46719208 -0.36620033 -0.52131283 0.012319832 0.18688338 0.31722265 -0.051060278 -0.2286494 0.18198451 -0.086220995 0.21167994 0.23674135 0.12912928 -0.10652045 0.512144
hombres -0.4897051 -0.19612078 -0.10595974 -0.00599645 -0.5046784 -0.462472 0.7606522 -0.60736096 -0.13317478 -0.06281346 -0.038320962 0.18023229 0.41265792 0.6212533 -0.15223975 0.4853661 -0.38716066 -0.53431296 0.011767531 0.19221775 0.32792953 -0.06985335 -0.24323691 0.17599882 -0.10830194 0.18552324 0.26714468 0.07689161 -0.110473484 0.5260636
afiliar -0.50997 -0.2018379 -0.028498132 -0.0038921537 -0.5351589 -0.4979969 0.7454821 -0.58998054 -0.15057302 -0.039004825 -0.0011221936 0.20630613 0.3950086 0.5586037 -0.23759453 0.55106044 -0.35334674 -0.49529067 -0.012947336 0.11967419 0.3227923 -0.2056088 -0.31553727 0.13231479 0.0054106046 0.28704345 0.2655673 -0.0070366203 -0.08628179 0.44695795
quieren -0.5002621 -0.1653094 -0.106715016 -0.030731946 -0.47928253 -0.48706183 0.7782664 -0.60976267 -0.18449116 -0.024169305 -0.07134433 0.1911098 0.39681786 0.60673314 -0.12257579 0.4922851 -0.34154236 -0.55078536 0.04327295 0.19944099 0.33245367 -0.009144498 -0.24587302 0.1882056 -0.12118863 0.21541189 0.20724382 0.10636321 -0.10628992 0.51047176
decirle -0.48552427 -0.15707 -0.0877894 -0.0074415915 -0.4919486 -0.4685309 0.82357013 -0.5894156 -0.18838257 -0.036280796 -0.054446924 0.2156752 0.396408 0.5789959 -0.1391816 0.47207585 -0.35411757 -0.56465614 0.013199386 0.19913793 0.30397078 -0.06919374 -0.23172955 0.17009407 -0.10017036 0.24373831 0.23859811 0.088844724 -0.093736 0.5276205
club -0.47542006 -0.19256459 -0.07746102 -0.018093478 -0.473036 -0.49056864 0.75266474 -0.61003953 -0.15201907 -0.05351755 -0.050315738 0.19462754 0.39110702 0.5737456 -0.16767806 0.5099287 -0.3769686 -0.53974766 0.0097598005 0.1565601 0.33522525 -0.11385831 -0.25025567 0.18861903 -0.04600812 0.26016802 0.23821168 0.09029482 -0.11465875 0.47274166
opciones -0.5196598 -0.16217875 -0.05798573 0.030168917 -0.5360258 -0.49629804 0.7970584 -0.60138845 -0.16961482 0.073328994 -0.039770164 0.19794562 0.41300002 0.562111 -0.19717363 0.52579844 -0.32621673 -0.47228047 0.012759535 0.13586648 0.4097817 -0.14824636 -0.3064923 0.11012988 0.0060405983 0.29334497 0.23197451 0.064537905 -0.07495487 0.3408917
enviar -0.524114 -0.18542296 -0.106644064 0.00058573583 -0.46819305 -0.48334646 0.82337093 -0.6003084 -0.16838698 -0.02700621 -0.084724925 0.19277076 0.40340456 0.6297528 -0.12637086 0.48824838 -0.34808502 -0.5527526 0.0024538827 0.16592307 0.34972465 -0.08302754 -0.28198344 0.17243421 -0.106010035 0.20850508 0.21514842 0.096123144 -0.092490464 0.5184873
tranquila -0.49643612 -0.1908875 -0.09064965 -0.023795057 -0.48648244 -0.49858448 0.75888914 -0.59909517 -0.18402876 -0.061903708 -0.07193095 0.19910906 0.39792272 0.6198943 -0.12094676 0.49874356 -0.35273373 -0.58020294 0.0167597 0.18319617 0.29907668 -0.010079782 -0.25012192 0.21777396 -0.074811816 0.19322635 0.19439667 0.09547253 -0.115003295 0.5265658
seguir -0.4921565 -0.19972208 -0.08779444 0.0070020775 -0.46303838 -0.45701826 0.7895081 -0.62135154 -0.19913855 -0.025242394 -0.09110684 0.19209576 0.4081596 0.62348115 -0.12032448 0.5044401 -0.39300686 -0.5506264 -0.004751294 0.17650007 0.36633763 -0.013433177 -0.2594987 0.20569406 -0.11591635 0.24600105 0.20914002 0.15018716 -0.11891007 0.50700283
actual -0.5227904 -0.18277119 -0.09057733 -0.011635154 -0.4540246 -0.4496601 0.7449424 -0.5930433 -0.18721609 -0.020811265 -0.076687835 0.16426162 0.4112595 0.60032535 -0.106647514 0.45841867 -0.35609102 -0.56279194 0.03342877 0.17904684 0.35709143 -0.028241033 -0.25207832 0.18806452 -0.1176334 0.22151296 0.22638598 0.13224442 -0.097994365 0.48516908
consultar_subsidio -0.8064431 -0.40279597 0.52945554 -0.08516164 -1.4058285 -0.7569335 0.7804271 -0.92865473 0.10600345 0.17784216 0.4668685 0.24511166 0.91197187 0.6204356 -0.8109353 1.2318926 -0.44861758 0.115374915 -0.33845738 -0.6198827 0.7559364 -1.3949131 -0.67022586 -0.7665644 1.0751904 0.97770464 0.66253185 -0.71885514 0.221752 -0.44525093
segundito -0.47936636 -0.16537982 -0.11191043 0.037964106 -0.49997708 -0.46713668 0.8069568 -0.56994843 -0.18932478 -0.013889949 -0.057083424 0.23204578 0.39825296 0.62686336 -0.1609517 0.51308966 -0.3694618 -0.5343144 -0.018092392 0.17022695 0.3129006 -0.07401002 -0.28674054 0.2040666 -0.094986975 0.20104073 0.26969016 0.10555186 -0.08531171 0.50018674
codigos -0.48887074 -0.21985543 -0.11186631 -0.029154379 -0.49283007 -0.4976985 0.81084245 -0.5871642 -0.1455881 -0.081720226 -0.06562634 0.1808464 0.40054822 0.59893507 -0.1319264 0.5152104 -0.34834617 -0.54535854 0.022926778 0.17637344 0.36203116 -0.043718442 -0.28801537 0.18155421 -0.120842166 0.21884951 0.2201263 0.09083174 -0.08261575 0.5413227
diseno -0.5000667 -0.17080621 -0.10203736 -0.009636743 -0.48310822 -0.47817227 0.7685837 -0.5737647 -0.14358898 -0.023131177 -0.06470009 0.18794698 0.39678848 0.59502995 -0.13823812 0.49611974 -0.35283807 -0.5429836 0.03360053 0.19516702 0.29822105 -0.06594229 -0.23190045 0.21095343 -0.122526556 0.19310209 0.23079966 0.08263476 -0.084005475 0.51244664
busca -0.5007734 -0.16749991 -0.0927766 -0.0113087725 -0.49429974 -0.4790158 0.81724006 -0.60341465 -0.16783462 -0.03927934 -0.058356777 0.18998441 0.39730322 0.61219865 -0.12082591 0.4859135 -0.3520136 -0.5460914 0.01104114 0.1988782 0.32452342 -0.04468431 -0.24811494 0.21378134 -0.12298798 0.1984796 0.22079998 0.11565607 -0.12657999 0.55088204
edicion -0.5154333 -0.17801929 -0.06665898 0.0048418865 -0.4506273 -0.44180706 0.77705085 -0.59674156 -0.19205756 -0.035159938 -0.03818441 0.20029671 0.40984163 0.5809575 -0.13602951 0.48772952 -0.34086713 -0.5664635 0.038031124 0.17570731 0.306526 -0.043494485 -0.25637344 0.21891578 -0.11891787 0.2050709 0.20255528 0.12282124 -0.14191894 0.5319549
contestan -0.5268622 -0.18335481 -0.0014100604 -0.0071494454 -0.6185978 -0.5327022 0.7314143 -0.6208217 -0.12628692 0.0058394996 0.0062917885 0.20861618 0.4501668 0.5675526 -0.24259682 0.59285116 -0.33737916 -0.44647557 -0.034175135 0.07698293 0.4017181 -0.26185763 -0.36590323 0.03453267 0.0983829 0.34841534 0.2692299 -0.031063361 -0.05291109 0.31117547
hagamos -0.45964524 -0.16223216 -0.1247404 -0.0074386704 -0.4337529 -0.46975288 0.8099613 -0.57515055 -0.17848808 -0.03059784 -0.075686425 0.20192157 0.36219025 0.5852042 -0.09388504 0.48612386 -0.33858687 -0.5900792 0.026900653 0.21687682 0.33956668 -0.010128988 -0.2543438 0.21070345 -0.1420095 0.18295428 0.20283861 0.1276889 -0.1493772 0.5602169
temporada_alta -0.460643 -0.1866581 -0.07518331 0.041895635 -0.47141275 -0.42473364 0.7927573 -0.59609973 -0.18420914 -0.001470279 -0.100723 0.15973127 0.3956129 0.6074482 -0.12265125 0.47079217 -0.35156828 -0.5323909 -0.016797299 0.20579517 0.3280113 -0.0132059185 -0.2516596 0.2039965 -0.11952485 0.17070293 0.2522296 0.0634172 -0.09480632 0.5362712
incluyo -0.5139802 -0.19617064 -0.0882328 0.0015589094 -0.48548505 -0.4532477 0.8050208 -0.5681743 -0.14970605 -0.019731782 -0.0823033 0.18612789 0.37022027 0.6274638 -0.11020026 0.47456267 -0.36856678 -0.54777557 0.007040151 0.21534859 0.33393282 -0.046075687 -0.2112509 0.2105295 -0.14090355 0.1841626 0.21181981 0.10822123 -0.10226686 0.52617264
afiliaciones -0.4882039 -0.20008864 0.06069338 -0.03199572 -0.6620731 -0.48137844 0.7156656 -0.69229156 -0.03419538 0.012405161 0.015368136 0.14554474 0.48609114 0.51592493 -0.3306299 0.63933057 -0.34654805 -0.36677086 -0.09497123 -0.0268278 0.400213 -0.4231373 -0.35019913 -0.06831441 0.2537035 0.42197064 0.34796497 -0.18920356 -0.062966675 0.21327448
vision -0.53419954 -0.21305388 -0.06806413 -0.025057133 -0.54015523 -0.4656655 0.77454823 -0.60694253 -0.15444422 -0.030442504 -0.058759652 0.22378668 0.4341612 0.5508517 -0.16077633 0.5094265 -0.32058597 -0.49694577 -0.018199792 0.124538645 0.3656599 -0.13632508 -0.26244146 0.12210195 -0.0635014 0.27959037 0.24630113 0.06100674 -0.096824825 0.41973406
nuevos -0.5335363 -0.19262245 -0.051223222 0.0033826218 -0.5066741 -0.45663002 0.790651 -0.63043064 -0.14914808 -0.02102142 -0.027478777 0.19777946 0.40300938 0.6003928 -0.16559179 0.5196928 -0.34765357 -0.50071234 0.012423492 0.15050955 0.34487274 -0.13985194 -0.25066257 0.1510067 -0.035336636 0.22779845 0.21936491 0.04725607 -0.0903037 0.48102346
sitio -0.49985445 -0.1437133 -0.11515237 -0.023023663 -0.46874797 -0.4629881 0.7760187 -0.5565601 -0.16207759 -0.05074917 -0.05004384 0.24026285 0.37342677 0.59108007 -0.0991095 0.4612775 -0.3434072 -0.56632525 -0.004873401 0.2104948 0.3305287 -0.034887273 -0.25727195 0.20578949 -0.15806077 0.19471548 0.2097822 0.11057304 -0.11575155 0.52758306
depende -0.48752293 -0.17961995 -0.09179579 0.0023978306 -0.4921349 -0.5014351 0.83222246 -0.6316145 -0.14185153 -0.019825457 -0.06027763 0.22040534 0.4014011 0.6276641 -0.15854858 0.48728973 -0.35969427 -0.55907214 -0.028677618 0.19268359 0.32121778 -0.05697302 -0.25197935 0.22842939 -0.11384417 0.19052331 0.22114843 0.10008142 -0.10192898 0.53627324
subsidio_familiar -0.9273517 -0.44670433 0.5577426 -0.14960043 -1.2320181 -0.6683401 0.7473403 -0.93307656 0.064931154 0.17267501 0.5037154 0.18706344 0.8937398 0.7216185 -0.65626866 1.1951286 -0.5675739 0.13576247 -0.48020223 -0.66023266 0.6776754 -1.406273 -0.56210655 -0.7599204 1.0017956 0.849064 0.6746825 -0.5713766 0.27779576 -0.42423576
certificado_escolares -1.108824 -0.5461497 0.6655972 -0.16596878 -1.527143 -0.79183143 0.8904225 -1.1048017 0.091783226 0.23744799 0.6089659 0.20541227 1.0995289 0.8815773 -0.81472814 1.4275571 -0.6407093 0.18074256 -0.56593 -0.793545 0.8086933 -1.6935534 -0.7375717 -0.90420234 1.2345619 1.0760596 0.791613 -0.7065763 0.31608808 -0.52006704
cobro -0.5007253 -0.24405499 -0.12052357 -0.011983509 -0.48482856 -0.48243454 0.75373864 -0.5527421 -0.12156674 -0.026680069 -0.0364839 0.20188773 0.38690522 0.6044832 -0.09241682 0.4398894 -0.3597441 -0.5593754 -0.008551548 0.2444786 0.29497138 0.010715948 -0.18824774 0.25605002 -0.18741903 0.17169248 0.21309619 0.10272717 -0.118654005 0.6068845
invitado -0.48018107 -0.18719807 -0.11061592 -0.037673812 -0.4694831 -0.47563112 0.7569603 -0.5475553 -0.12432663 -0.008860689 -0.024704427 0.17727698 0.3955448 0.5742497 -0.14124481 0.47975174 -0.32909015 -0.5109896 -0.006317129 0.19082978 0.30693257 -0.033487912 -0.20050831 0.19114874 -0.11049607 0.21263765 0.20278469 0.06828401 -0.09788651 0.5108023
esperate -0.4564435 -0.15960556 -0.07164924 0.03928267 -0.42917773 -0.4914739 0.77854264 -0.6039105 -0.18134825 0.05914984 -0.10419073 0.20748688 0.40537664 0.5772182 -0.11030329 0.47318238 -0.34560412 -0.5593602 0.01821828 0.16096921 0.3489316 -0.05758264 -0.26259655 0.18801239 -0.110133365 0.18456341 0.22188437 0.113354616 -0.14228275 0.51971334
acerca -0.5130036 -0.15702969 -0.060720187 -0.019792441 -0.5167766 -0.4836031 0.75141114 -0.59340733 -0.15774554 -0.028000083 -0.05655946 0.19130781 0.40965658 0.5856226 -0.1360135 0.51392627 -0.35738996 -0.5104638 0.015365643 0.15457974 0.32310814 -0.12848331 -0.2605478 0.15380037 -0.03815605 0.2585979 0.22690935 0.104103975 -0.06994659 0.4163066
disculpe -0.5202945 -0.16939689 -0.11435481 -0.0048916386 -0.4755211 -0.47336787 0.76613706 -0.5962755 -0.1658483 -0.020446172 -0.0922032 0.19634108 0.37251994 0.5866384 -0.09896508 0.50572443 -0.3707435 -0.5776798 0.038432594 0.18809874 0.32930914 -0.025367118 -0.25903267 0.24161386 -0.12758872 0.1868736 0.21181391 0.12335702 -0.09705081 0.52790225
permite -0.5204823 -0.19776216 -0.068452924 -0.021027558 -0.48025522 -0.4756902 0.8008688 -0.58240944 -0.15234579 -0.026370596 -0.09784856 0.20760001 0.3721618 0.59423625 -0.0931872 0.54171836 -0.3340931 -0.51262826 0.0374865 0.19302283 0.33633563 -0.06647892 -0.28424844 0.18053156 -0.12818171 0.20143719 0.25687188 0.0718871 -0.11647152 0.56172144
