633 30
reserva -0.5939963 0.010814791 0.64917475 0.35070127 -0.33399287 0.0062369118 -0.3428832 -0.13435096 0.016766861 -0.008190818 -0.1990823 0.5221621 0.01581366 0.26629847 0.57403153 -0.1651451 0.23705198 0.08336692 -0.46161845 0.3173109 0.060068365 -0.08154545 0.17610972 0.410366 -0.29587692 0.30542332 -0.8036737 0.1856868 0.31178182 -0.298649
personas -0.5873071 -0.015885264 0.63188267 0.32331136 -0.31161076 -0.0023298913 -0.3536139 -0.073860995 -0.10226309 -0.014046479 -0.17440267 0.5454228 0.018461205 0.27808207 0.64907914 -0.168648 0.16153409 0.050425578 -0.49353084 0.2763053 0.05375642 -0.058252387 0.117943935 0.37333584 -0.21573216 0.28776217 -0.8649194 0.16017812 0.31051043 -0.27086514
pagar -0.6079053 0.0073069157 0.6278225 0.33349666 -0.3598923 0.06712399 -0.31447467 -0.1542345 -0.012781181 0.027889818 -0.20867896 0.5459547 0.033715855 0.23042007 0.55781806 -0.20716901 0.27771735 0.056398854 -0.4363029 0.3681422 0.018541403 -0.05332109 0.15147987 0.41946703 -0.33799854 0.35664243 -0.82493865 0.20712896 0.34473452 -0.37021744
afiliado_a -0.5987422 0.010820363 0.6473048 0.29773182 -0.33263922 0.004535677 -0.36564985 -0.019451922 -0.07126969 0.00925882 -0.13195133 0.57885695 0.037467092 0.29226762 0.6483456 -0.18437342 0.17098266 0.08711402 -0.43689612 0.30310905 0.03382581 -0.06383185 0.10711524 0.33660224 -0.24846695 0.3066983 -0.8525491 0.17552279 0.28201124 -0.29811817
sabado -0.5271668 -0.032246992 0.7127202 0.37797192 -0.3202872 0.079983905 -0.34298757 -0.109065585 -0.021581564 0.07255257 -0.116273284 0.572221 0.07059335 0.20622742 0.6137365 -0.22910927 0.18318906 0.15634212 -0.5069712 0.237945 -0.0045473007 -0.12784502 0.12738062 0.3823695 -0.22408363 0.2651136 -0.83760387 0.19120899 0.30708456 -0.22212721
disponibilidad -0.5711444 -0.05246243 0.65893835 0.33434135 -0.28804868 0.036533486 -0.3664396 -0.115980044 -0.0619346 0.013072335 -0.16789028 0.51851064 0.051754076 0.22321422 0.6152484 -0.19021825 0.14991814 0.1300467 -0.51968825 0.26139948 0.07017814 -0.0932148 0.11689893 0.36476624 -0.22270428 0.2576957 -0.8052122 0.18776168 0.28270417 -0.23752733
informacion -0.6132854 -0.05432817 0.6376724 0.3681246 -0.3370662 -0.0047777514 -0.36848304 -0.09348176 -0.08783107 -0.00841442 -0.22876199 0.5222195 0.08637674 0.2376358 0.62531656 -0.18005008 0.2146356 0.11352228 -0.47838566 0.34552053 0.027034374 -0.06428134 0.036063157 0.3298478 -0.27224806 0.3453637 -0.83314306 0.17014635 0.31573197 -0.2938143
hotel -0.5795544 -0.026529513 0.6630164 0.32897922 -0.30660817 0.016921604 -0.3618604 -0.10702308 -0.0121341245 0.0365975 -0.17551973 0.54492617 0.05046313 0.21661593 0.59695977 -0.2090106 0.22931683 0.096897535 -0.47048408 0.26228285 0.045067407 -0.091993764 0.1255145 0.36485797 -0.23967381 0.2986701 -0.8532729 0.17146038 0.26670733 -0.2864515
lunes -0.5597958 -0.008101579 0.6601538 0.37821963 -0.32888916 0.07007351 -0.31784064 -0.059198316 -0.026577663 0.004855639 -0.15708505 0.58469576 0.09099739 0.29216695 0.60315484 -0.17808051 0.21454827 0.09765687 -0.51396936 0.28435162 0.01723259 -0.07032549 0.12422223 0.39910915 -0.22963539 0.24937892 -0.7725572 0.16048431 0.3078819 -0.3007385
veleros -0.5404347 -0.049949445 0.650108 0.32472476 -0.29753098 0.008531643 -0.3407815 -0.0766857 -0.060286276 0.061794493 -0.13760567 0.5296323 0.07240073 0.22448912 0.62247944 -0.19468914 0.20766808 0.13432424 -0.49927703 0.28377905 0.037549496 -0.08756013 0.087753356 0.33517924 -0.19691378 0.27347228 -0.8342204 0.16007806 0.2735761 -0.24858251
desayuno -0.57290024 -0.03830222 0.65402263 0.32545596 -0.32750466 0.047901236 -0.36457214 -0.082175985 -0.07420957 0.04695644 -0.15923715 0.5508271 0.07508672 0.27031872 0.6594418 -0.220445 0.15885128 0.082730696 -0.48152384 0.27985898 0.045086224 -0.026244003 0.13558088 0.38309014 -0.2179771 0.27341044 -0.840806 0.17369525 0.26836538 -0.27726427
miercoles -0.47356144 -0.03800277 0.7955055 0.42733023 -0.36385146 0.110273056 -0.33473825 -0.15048328 -0.039660487 0.12968302 -0.061526425 0.5546276 0.07619306 0.28802705 0.5696423 -0.26452076 0.106888294 0.22116597 -0.5138656 0.21936339 -0.008127485 -0.15597174 0.10260249 0.45814124 -0.18634126 0.1624795 -0.8055848 0.12446754 0.38247263 -0.15709582
disponible -0.57965606 -0.037766326 0.6095773 0.35573852 -0.29946446 0.010795663 -0.35939574 -0.118304044 -0.044555128 0.014858273 -0.16859049 0.53122586 0.075280175 0.23219453 0.59238744 -0.18618397 0.17275436 0.07777993 -0.48831475 0.2774029 0.06777245 -0.06603111 0.11413832 0.3693674 -0.25963342 0.26848876 -0.78286445 0.17053564 0.2530149 -0.2781169
afiliacion -0.61460215 -0.046407767 0.5942308 0.3279766 -0.33199486 -0.0012864572 -0.36051956 -0.047088917 -0.093061626 0.009461999 -0.19196744 0.57741 0.053662878 0.26874435 0.65482163 -0.18375224 0.21965793 0.08702595 -0.4627697 0.3457932 -0.0080156075 -0.060764313 0.077130966 0.33875915 -0.2863037 0.3351135 -0.800728 0.19218324 0.3194146 -0.30285862
ejemplo -0.5684307 -0.06462416 0.66267896 0.34781024 -0.32552153 -0.001469806 -0.3604046 -0.12409386 -0.071208686 0.025223475 -0.1973541 0.54309577 0.06868383 0.25188935 0.5947073 -0.22527221 0.18122374 0.10210617 -0.5134024 0.319547 0.032477714 -0.07254224 0.093725726 0.39302522 -0.25600508 0.31289485 -0.8448564 0.19529444 0.2827023 -0.25231272
problema -0.5894178 -0.066941865 0.6359403 0.33731717 -0.33449852 0.027504465 -0.3443794 -0.06721372 -0.07039793 -0.025986753 -0.18251511 0.5764317 0.07245088 0.23996687 0.60239667 -0.2048868 0.2215145 0.07277858 -0.49646637 0.31885904 -0.010171971 -0.087886125 0.10410162 0.37155607 -0.303594 0.3453866 -0.8268178 0.17948999 0.29818812 -0.27836856
jueves -0.42345315 -0.055396628 0.7986572 0.39896813 -0.37691218 0.13111338 -0.31966674 -0.10744964 -0.052511137 0.15892136 -0.01937694 0.59331805 0.091538936 0.28360686 0.5553333 -0.2714381 0.08426359 0.18477558 -0.50942963 0.203586 0.00029242248 -0.1366221 0.0771207 0.46222797 -0.18207689 0.12623525 -0.78366035 0.11477494 0.3915115 -0.1631667
averiguar -0.5764215 -0.025272261 0.6528567 0.3673663 -0.31669813 0.041911904 -0.3684608 -0.08810866 -0.07598597 0.0044173053 -0.17321892 0.55391234 0.075569354 0.248504 0.6254746 -0.18941061 0.21285161 0.09734698 -0.5071851 0.2924139 0.008268575 -0.06169611 0.060492426 0.331152 -0.27052355 0.3366264 -0.7895219 0.14111014 0.28201428 -0.28730014
adultos -0.5610328 -0.028604768 0.6206073 0.33699507 -0.3370712 0.0062560756 -0.36522758 -0.07072713 -0.059503436 0.025816353 -0.18234494 0.57245064 0.09903528 0.2603937 0.61609614 -0.17799646 0.17588942 0.0905848 -0.48466143 0.2899717 0.045766607 -0.10663246 0.061721202 0.36832523 -0.25904745 0.3330692 -0.82325554 0.146955 0.2600056 -0.2605691
pueda -0.6086513 -0.043259583 0.6487676 0.34282777 -0.3290772 0.011676996 -0.35055128 -0.089956224 -0.043453995 0.0060489657 -0.20602715 0.54599035 0.08190856 0.23956844 0.58949465 -0.19859137 0.21876198 0.10284439 -0.52122724 0.32070598 0.018088913 -0.033488497 0.08665672 0.36089438 -0.30300727 0.3355568 -0.8258607 0.21870951 0.31090084 -0.32373786
incluye -0.567017 -0.026793005 0.6213666 0.35510772 -0.29914415 0.06569392 -0.36193195 -0.09667902 -0.072294116 0.018175129 -0.14000575 0.53727156 0.070575096 0.25161296 0.6484547 -0.20248856 0.17485256 0.06619919 -0.4417643 0.27412274 0.06819986 -0.0105029205 0.09719559 0.3573812 -0.23131344 0.28859276 -0.81995344 0.15034738 0.26648265 -0.2862965
pregunto -0.59266186 -0.05283997 0.63803124 0.33438742 -0.3184115 0.048269007 -0.34023726 -0.08569164 -0.096739024 -0.020251915 -0.17985326 0.5538605 0.063368805 0.2700509 0.602164 -0.1880966 0.24044599 0.11597036 -0.4852771 0.33049136 0.046894666 -0.0411273 0.084411226 0.36165714 -0.28389445 0.33677545 -0.7993677 0.15046045 0.2961652 -0.2500053
queda -0.60137427 -0.06409982 0.6489663 0.36184743 -0.34278196 0.0025848018 -0.3518821 -0.12724516 -0.042322043 0.0138362525 -0.19890098 0.5670352 0.059867997 0.2638359 0.59334373 -0.22030784 0.2003259 0.08652374 -0.49445632 0.32961628 0.015958091 -0.06765692 0.09943559 0.36348116 -0.27130938 0.31051803 -0.8206429 0.19190596 0.28427798 -0.28569353
precio -0.5874993 -0.0855732 0.62232727 0.36594135 -0.32159823 0.033927023 -0.35314164 -0.09349716 -0.086582065 0.015496385 -0.18272749 0.59090215 0.09526431 0.28030673 0.6407063 -0.19081418 0.1651866 0.098995924 -0.47990823 0.3176824 0.02148134 -0.051571064 0.06426404 0.37459618 -0.25927284 0.3008531 -0.78295016 0.15094352 0.3051649 -0.26760125
pagina -0.6376663 -0.046674035 0.5839303 0.35141897 -0.34529984 0.002036922 -0.3372323 -0.058045264 -0.12794878 -0.005976845 -0.16133457 0.5706153 0.072271526 0.2788525 0.6317265 -0.16024719 0.23949964 0.08731279 -0.5323247 0.31494153 0.018629154 -0.02929009 0.059326757 0.33475125 -0.26938576 0.33480108 -0.7800383 0.16540717 0.31266114 -0.3019738
habitaciones -0.6155738 -0.015010362 0.6351512 0.31768617 -0.2862338 0.042731784 -0.3519347 -0.1127581 -0.06896579 0.040535346 -0.16896673 0.5639597 0.063958585 0.21656826 0.5939062 -0.19170849 0.19966778 0.053026088 -0.48657483 0.28390402 0.052013688 -0.051811915 0.08432892 0.37023908 -0.24753332 0.3140435 -0.844577 0.17336135 0.27097124 -0.2794328
necesito -0.6207379 -0.059054516 0.65420276 0.3606094 -0.35208663 -0.007345499 -0.36374518 -0.08073656 -0.069227144 0.007957705 -0.20782945 0.544877 0.06546378 0.25758794 0.62242275 -0.20158578 0.22057825 0.081543624 -0.4647125 0.33194792 0.0139724 -0.091545135 0.058703166 0.34702638 -0.28087866 0.35593852 -0.801008 0.14352259 0.29943535 -0.29443976
escucho -0.58599854 -0.073354684 0.6574804 0.34567678 -0.35382333 -0.01626389 -0.3693902 -0.12699226 -0.073569864 0.0053864266 -0.19385713 0.5473141 0.07418044 0.2813511 0.60974675 -0.21595974 0.22563112 0.08575068 -0.49621576 0.31340748 0.026281625 -0.076031215 0.06945795 0.3717885 -0.28361616 0.31573707 -0.82368696 0.16321883 0.29624212 -0.27553755
vacacional -0.55943865 -0.046245337 0.65459806 0.30609328 -0.26309675 0.0035794992 -0.36130798 -0.09106715 -0.07770914 0.038596824 -0.17190635 0.5143551 0.06693123 0.2086641 0.62657 -0.21172287 0.16560633 0.115779325 -0.4922863 0.2741062 0.034463823 -0.08694599 0.10291475 0.3686111 -0.19155502 0.30339876 -0.87128776 0.20466316 0.27924755 -0.24849927
entrada -0.56001246 -0.040794857 0.606339 0.36512563 -0.3543837 -0.0040805563 -0.3715184 -0.07885094 -0.060842004 0.032272052 -0.17320351 0.5569128 0.03206309 0.26161048 0.5864105 -0.20003726 0.23155038 0.09190645 -0.46927392 0.29642665 0.008829328 -0.0945476 0.08159328 0.37581915 -0.22419986 0.31064805 -0.80571836 0.18047 0.29207274 -0.2915532
dicho -0.56033856 -0.056834545 0.6369757 0.35285345 -0.34285447 0.0017335523 -0.36175364 -0.084560245 -0.07054012 0.011372351 -0.1935189 0.55070525 0.05954047 0.22921732 0.597303 -0.18443407 0.22973774 0.11785131 -0.4579076 0.32053027 0.008988076 -0.10521512 0.081953205 0.3690003 -0.24749115 0.31598672 -0.7898303 0.14691575 0.28818393 -0.28842562
preguntar -0.55800766 -0.065302275 0.6577475 0.37613538 -0.3315958 0.006485128 -0.35477912 -0.118689656 -0.090485476 0.02072804 -0.18203014 0.535977 0.07458202 0.24713998 0.62093633 -0.20358108 0.2358495 0.105854586 -0.48704123 0.28876707 0.008570299 -0.056281887 0.06022102 0.3899811 -0.2795199 0.32025403 -0.77551645 0.15419716 0.32967904 -0.27127704
reservar -0.55627996 -0.030465622 0.6393025 0.34999034 -0.344962 0.022355376 -0.3500506 -0.12909079 -0.07056897 -0.0043405015 -0.1956043 0.5269996 0.068390906 0.24968241 0.5993086 -0.19332552 0.22188655 0.10570836 -0.45688084 0.3025177 0.044393465 -0.04335143 0.09466368 0.39511344 -0.23384191 0.33184204 -0.783574 0.1599676 0.2832034 -0.27900788
cancelar -0.6214748 -0.038977038 0.64144677 0.33081105 -0.35020342 0.033633303 -0.38384613 -0.10518505 -0.052931607 -0.018045314 -0.21976168 0.54474854 0.022843337 0.27441317 0.5921001 -0.18843663 0.21674234 0.085637294 -0.47035155 0.31690696 0.02552929 -0.09076388 0.10466376 0.40191284 -0.28340286 0.3466591 -0.8233219 0.18940844 0.31327692 -0.2759245
visto -0.61414236 -0.040155273 0.6099326 0.33464348 -0.35024253 -0.0015301422 -0.37415656 -0.09488728 -0.074694015 0.010356273 -0.2113309 0.56733596 0.058538772 0.23508221 0.61788917 -0.18618074 0.24483708 0.083232924 -0.50992435 0.33246872 0.010280831 -0.05874951 0.08800226 0.35957247 -0.2877914 0.3371465 -0.7869318 0.19981104 0.30157343 -0.3113542
venga -0.5969219 -0.057833124 0.63840884 0.35097095 -0.35734776 0.0064221756 -0.3701321 -0.08243744 -0.076035656 -0.019518148 -0.21016891 0.59055376 0.039749283 0.2720625 0.6205278 -0.18151492 0.22184438 0.1173473 -0.49165705 0.35307878 0.015963754 -0.08409203 0.083556354 0.3465825 -0.3149451 0.3336417 -0.7861258 0.19617635 0.3150922 -0.28441563
recreacion -0.5912912 -0.037511066 0.6531962 0.3721178 -0.3326661 0.0065150987 -0.36799803 -0.08544957 -0.048384685 0.01632672 -0.17762971 0.5342536 0.0418557 0.2672448 0.6019369 -0.19586664 0.24397384 0.12595414 -0.5067392 0.33406904 0.012738974 -0.08632087 0.10114284 0.38312313 -0.28741336 0.33036217 -0.76789886 0.16240633 0.3119141 -0.30138674
celular -0.5991961 -0.06188204 0.65389824 0.33668843 -0.33765224 0.010526364 -0.35840434 -0.09721975 -0.078265466 0.026345119 -0.2104088 0.552829 0.052967656 0.2593388 0.5958734 -0.16740993 0.2000357 0.057809312 -0.53492 0.3316403 0.011419443 -0.06669208 0.077274725 0.38323468 -0.28236538 0.30647403 -0.7961845 0.1471897 0.281447 -0.2741349
momentico -0.60620624 -0.0371355 0.6167899 0.3182147 -0.3233489 -0.02560106 -0.3483052 -0.11397969 -0.05459242 0.018708417 -0.24071519 0.5599673 0.043712895 0.27600467 0.61016417 -0.18857393 0.22522028 0.10913176 -0.4644238 0.35026744 0.025880767 -0.09954997 0.065451875 0.35672888 -0.284925 0.33239326 -0.7832 0.19097678 0.27508318 -0.26706037
salir -0.5276924 -0.045396026 0.66494304 0.39547443 -0.31890827 0.018459817 -0.3547852 -0.08992548 -0.0315939 0.04722855 -0.1408205 0.57705027 0.09851949 0.2506197 0.5917877 -0.23294687 0.20680453 0.116836496 -0.5121616 0.2743186 0.039773535 -0.07665867 0.07280284 0.36044446 -0.23244256 0.29828218 -0.81217945 0.16292305 0.29779488 -0.25577283
normal -0.569207 -0.03865572 0.65920436 0.3823529 -0.35683835 0.0018849813 -0.35752913 -0.09130244 -0.057859447 0.022684187 -0.18032251 0.5524295 0.04728738 0.26611283 0.63494915 -0.19319358 0.20961586 0.1185733 -0.49622616 0.3161901 0.046888452 -0.06928897 0.043151718 0.35848996 -0.2725892 0.33511567 -0.8277566 0.17226449 0.29758832 -0.2785203
consulta -0.6248621 -0.053197198 0.6282036 0.32227156 -0.3399796 -0.025493775 -0.34473923 -0.077766865 -0.08128635 0.035785403 -0.1875118 0.5539354 0.07154027 0.22854717 0.6450364 -0.194711 0.22364733 0.118943855 -0.47170419 0.3248101 0.02441669 -0.09057898 0.09344585 0.34721097 -0.2847329 0.33995792 -0.82591164 0.15738991 0.27760014 -0.27863085
fechas -0.6062227 -0.030767644 0.6750137 0.33335835 -0.3416859 0.010344999 -0.33771667 -0.09440264 -0.058446523 0.018221553 -0.17699656 0.5296896 0.047848042 0.26013443 0.64037645 -0.19503567 0.21753865 0.077190354 -0.5026017 0.30825016 0.05067794 -0.04227904 0.11892323 0.40101084 -0.2865701 0.29585925 -0.80882967 0.16423106 0.31029716 -0.29574186
dije -0.55210197 -0.060853645 0.66535926 0.37599692 -0.31734872 -0.0016666651 -0.32348537 -0.13029657 -0.08680373 0.034048203 -0.17296278 0.5411015 0.064902306 0.264122 0.5848201 -0.2059488 0.21258041 0.12327344 -0.5133087 0.31726363 0.033181965 -0.090924434 0.05940267 0.35727733 -0.28326735 0.2907257 -0.78214115 0.19396181 0.3366217 -0.24569263
entrar -0.59606373 -0.013535536 0.62176985 0.33545646 -0.31531647 0.010684975 -0.34024927 -0.117733195 -0.03687508 -0.009900411 -0.17742895 0.5266953 0.062151123 0.23501582 0.6171027 -0.17500924 0.19859457 0.120569475 -0.46381265 0.32643425 0.019254763 -0.09626664 0.10408101 0.3505537 -0.23641098 0.32083923 -0.7858954 0.17510845 0.3013197 -0.2890518
esposa -0.5996525 -0.05721767 0.6210916 0.3556482 -0.33827034 -0.0062530087 -0.37339967 -0.08749465 -0.04719636 -0.015679983 -0.16963898 0.5701944 0.051390246 0.25648868 0.6404025 -0.18100283 0.19863465 0.09901503 -0.5160585 0.314222 -0.0063527673 -0.08207375 0.089991294 0.38387614 -0.26965356 0.34719408 -0.8009801 0.1892899 0.2856907 -0.2534995
ingresar -0.57787937 0.027452521 0.61926305 0.31444767 -0.34332827 0.030069208 -0.3596848 -0.1255941 -0.011974543 0.012441019 -0.17177787 0.53747827 0.03260517 0.26138943 0.5708133 -0.18351777 0.2094886 0.07609784 -0.47095674 0.3467994 0.045732424 -0.0620621 0.13037857 0.39806873 -0.26750818 0.32462043 -0.847751 0.20861642 0.2947513 -0.29145783
tarjeta -0.6169455 -0.014838571 0.6203654 0.34078786 -0.37920856 0.043289088 -0.30677196 -0.13877952 -0.064240254 -0.0104959905 -0.28901353 0.5093625 0.081424005 0.27655342 0.5973051 -0.18836641 0.25243282 0.040243782 -0.4208714 0.35402343 0.012861864 -0.09152847 0.059737805 0.359259 -0.38221756 0.39077237 -0.82084364 0.18005577 0.2896711 -0.24306422
registro -0.63950104 -0.048659932 0.6550629 0.3586235 -0.35298905 0.013945338 -0.33064687 -0.117719516 -0.04886837 0.015428042 -0.22928877 0.5262749 0.038933646 0.21336867 0.6209452 -0.1615137 0.20975588 0.09019796 -0.50645804 0.35369948 0.04284031 -0.102889925 0.10042256 0.34957254 -0.35237324 0.29127228 -0.79845005 0.16777845 0.31531262 -0.30599627
quieres -0.60001624 -0.07089676 0.62634933 0.3632097 -0.30280834 0.008243973 -0.3747102 -0.13446389 -0.0744187 -0.0053866124 -0.20511281 0.54562265 0.043734316 0.2501309 0.6107093 -0.18166663 0.2008787 0.06850257 -0.48603785 0.32113737 0.03535115 -0.08552433 0.06649098 0.33936065 -0.27780342 0.32033184 -0.827872 0.17507154 0.29765394 -0.30337587
llega -0.5923883 -0.0388856 0.6618055 0.3578399 -0.32067856 -0.01501293 -0.3750991 -0.0952177 -0.052354347 0.038670376 -0.18882602 0.5504752 0.032992486 0.2736512 0.62348473 -0.18324733 0.20442037 0.10930505 -0.4779461 0.30189368 0.023675948 -0.09288702 0.07622222 0.37819028 -0.29901272 0.34110558 -0.8380086 0.17043042 0.2776989 -0.29605454
martes -0.49588788 -0.054562762 0.67282593 0.348317 -0.32140368 0.049987204 -0.352467 -0.108292125 -0.08260767 0.075157106 -0.10235382 0.5990437 0.09792826 0.2772148 0.5997646 -0.21806815 0.14219391 0.14058276 -0.52451867 0.28516805 0.041253876 -0.1227886 0.077840015 0.37775064 -0.22824971 0.22316433 -0.76692206 0.115643434 0.314654 -0.21205899
alojamiento -0.56285626 -0.01594058 0.6415109 0.3285732 -0.34001213 0.016663775 -0.3396547 -0.094922364 -0.046698183 0.01675632 -0.15739381 0.53994185 0.07141268 0.27507675 0.6321045 -0.19669203 0.20414275 0.07806002 -0.48037082 0.28745162 0.016347557 -0.07162751 0.12238307 0.3938203 -0.22911157 0.30943564 -0.8164124 0.15077211 0.3148383 -0.2978419
llevar -0.5969251 -0.044181395 0.6492002 0.3559003 -0.32916757 0.013095207 -0.36503747 -0.079419374 -0.07540954 0.0009920865 -0.20275109 0.57889974 0.03992483 0.26274016 0.6171064 -0.180697 0.21615504 0.10301813 -0.48559928 0.3167071 0.020375324 -0.062003106 0.083719976 0.39066526 -0.2792697 0.3254745 -0.84022224 0.16736104 0.2982768 -0.31259733
semanas -0.5709154 -0.054245576 0.63873005 0.3659356 -0.32254773 0.03352771 -0.34487393 -0.10495593 -0.05464744 0.016056575 -0.16978133 0.54260707 0.072567485 0.26140043 0.6045591 -0.17822617 0.20757194 0.121133424 -0.49359292 0.3161161 0.002934103 -0.07680191 0.08382871 0.35339385 -0.27314565 0.32432833 -0.78635246 0.16177784 0.28979537 -0.2763089
descuento -0.54406154 -0.05931768 0.6673617 0.3826911 -0.35653275 0.036592063 -0.35492888 -0.07578091 -0.051244806 0.019001752 -0.15968032 0.584625 0.10264964 0.24956322 0.6074743 -0.18500075 0.21951668 0.09458094 -0.4940431 0.31117067 0.037150316 -0.069939665 0.080927394 0.38405973 -0.24225561 0.29673168 -0.7732307 0.15719523 0.29933357 -0.26677775
opcion -0.5772384 -0.063061 0.6428194 0.3654298 -0.3403059 0.029102962 -0.3465823 -0.09879065 -0.09583586 0.014389117 -0.17622764 0.547992 0.029787937 0.27464694 0.59525967 -0.18879564 0.24367279 0.07704054 -0.49628678 0.3165605 0.036644366 -0.06842482 0.077593856 0.3348014 -0.28471747 0.31900758 -0.79283154 0.17467159 0.32104823 -0.26878682
puesto -0.6118509 -0.067913406 0.63541216 0.36673725 -0.34631655 -0.0055219713 -0.35539103 -0.12837414 -0.08550816 0.00085055147 -0.22828208 0.5781924 0.05420416 0.24325132 0.6271828 -0.17672259 0.23307343 0.08585435 -0.5164357 0.33824414 0.029103704 -0.083216146 0.092256896 0.35985088 -0.26352072 0.34733874 -0.7927197 0.19812486 0.2944257 -0.2836355
telefono -0.5813707 -0.055125 0.6383435 0.33362582 -0.33499697 0.026098875 -0.37504694 -0.09388259 -0.096638285 0.026044624 -0.21662167 0.51886827 0.037806094 0.23098806 0.60358363 -0.1693158 0.20903796 0.11719406 -0.52841103 0.29489478 0.031723242 -0.072602674 0.06727083 0.40137535 -0.29791266 0.30303857 -0.8027516 0.17623395 0.29658845 -0.27359515
proximo -0.57401496 -0.035858333 0.6418552 0.3287184 -0.2980199 0.036137916 -0.35142687 -0.10256088 -0.043471575 0.0034672034 -0.15725867 0.52497953 0.043750264 0.23022336 0.6009966 -0.1715119 0.20668447 0.115718104 -0.46641582 0.3124823 0.003421855 -0.08434831 0.084429726 0.3478728 -0.23649696 0.30519766 -0.79745823 0.16261739 0.29905948 -0.24241684
abajo -0.6011667 -0.020108243 0.6175836 0.30638015 -0.33991265 0.018321313 -0.35261947 -0.08711218 -0.08328584 0.0068684374 -0.17887984 0.5552287 0.07369289 0.23508982 0.6103492 -0.18276365 0.19075325 0.09615663 -0.4937383 0.3202007 0.02378221 -0.041250575 0.099127755 0.3662909 -0.27765945 0.30409133 -0.78050613 0.19730662 0.27505445 -0.3086119
adicional -0.5908044 0.013529831 0.62272483 0.32841706 -0.33647922 0.041171055 -0.36761567 -0.05973044 -0.03293475 -0.004010046 -0.14255586 0.5414874 0.051040936 0.27813596 0.6005916 -0.17651923 0.2104954 0.043928232 -0.4355303 0.30013162 0.036847755 -0.062001403 0.10269925 0.36350664 -0.2468678 0.28843036 -0.875807 0.1509197 0.29275802 -0.2848236
compensacion -0.59338677 -0.052543238 0.61369586 0.3499971 -0.33082977 -0.006023677 -0.35762316 -0.08503714 -0.08648448 0.016700653 -0.17903143 0.5339248 0.058328766 0.26198483 0.6397141 -0.16839853 0.23114657 0.081555605 -0.496989 0.30825767 0.028310826 -0.077916734 0.07749339 0.35343474 -0.26010513 0.3097559 -0.7886662 0.13433267 0.28940493 -0.2625326
mirar -0.5872693 -0.068893105 0.62503564 0.3754217 -0.337266 -0.004201771 -0.3754051 -0.08292102 -0.069988616 -0.0022834218 -0.1760494 0.5636324 0.05812348 0.2559634 0.5951172 -0.1993643 0.2004505 0.09724994 -0.5174412 0.30505604 0.066014856 -0.056870922 0.06819773 0.36228028 -0.2540137 0.34687454 -0.77458274 0.16626762 0.29550716 -0.2728488
triple -0.6432449 -0.05807571 0.6114232 0.34902894 -0.3070328 0.0696413 -0.344992 -0.12649956 -0.0968254 0.060627192 -0.18027301 0.58409154 0.07736553 0.22179292 0.6621376 -0.19955036 0.21536122 0.051771514 -0.47296488 0.28392017 0.075896636 -0.04164774 0.053869523 0.36050937 -0.22606495 0.3248472 -0.84336376 0.12918751 0.28869325 -0.26010948
piscina -0.58636177 -0.045381874 0.6214066 0.33981135 -0.33972353 -0.041764516 -0.40918228 -0.080579415 -0.045680724 0.039506584 -0.24961424 0.5484319 0.008908572 0.19685762 0.5891636 -0.21569167 0.23625802 0.1328513 -0.45016807 0.29009455 0.021372195 -0.11981568 0.06614097 0.34971794 -0.25451377 0.35241398 -0.87985635 0.18896046 0.23216684 -0.27780768
llamarpara -0.5780881 -0.02842264 0.64045787 0.35188457 -0.3473168 0.004648804 -0.3305735 -0.092497945 -0.07368865 0.0013227417 -0.16154544 0.5524553 0.08008968 0.23275474 0.57861525 -0.1972348 0.23539983 0.1169017 -0.45783105 0.306389 0.0020396588 -0.07101095 0.09784241 0.37381205 -0.28321454 0.3378791 -0.79224473 0.19336687 0.2825872 -0.29891232
hablar -0.6025083 -0.036131598 0.66160744 0.37515286 -0.3273772 -0.014717073 -0.36484084 -0.124418326 -0.090979524 -0.0092972545 -0.23586719 0.53426397 0.08479592 0.24281944 0.6324932 -0.18288462 0.19147514 0.08892248 -0.5047011 0.29942107 0.04361623 -0.090627655 0.09037894 0.3973759 -0.28711364 0.35488498 -0.79886174 0.19040257 0.2749465 -0.28966957
ciudad -0.5959393 -0.047704887 0.6704614 0.3755234 -0.3274617 0.042501867 -0.34868017 -0.13266787 -0.034003366 0.016644044 -0.20278038 0.5353759 0.069885746 0.23288369 0.6166755 -0.21362011 0.2297899 0.098101854 -0.50045246 0.30505344 0.046881035 -0.042112853 0.08223552 0.34691757 -0.2752191 0.34509304 -0.8230597 0.16306782 0.28692934 -0.28873268
pasado -0.6086073 -0.008157048 0.6703556 0.34974182 -0.31212687 0.009456091 -0.36399382 -0.06688995 -0.033944592 0.02097531 -0.22342156 0.5335666 0.0771328 0.24758638 0.62637025 -0.16145895 0.20270292 0.13614392 -0.5265087 0.33083808 0.028007742 -0.049253657 0.11917276 0.37222075 -0.30691943 0.35107285 -0.8353647 0.18673801 0.28645402 -0.32968792
hacerlo -0.59872824 -0.030116085 0.67450774 0.3158007 -0.34990785 0.051451858 -0.32667753 -0.11283789 -0.077769734 0.0016225191 -0.16548899 0.5749407 0.05720651 0.2662929 0.5795121 -0.18204217 0.20177999 0.090586275 -0.4795207 0.2915118 -0.012655047 -0.059690926 0.08169984 0.3995061 -0.27751675 0.30592918 -0.7940961 0.15028518 0.3084274 -0.26855093
convenio -0.5895207 -0.06658223 0.65044487 0.3382634 -0.3684786 -0.018224154 -0.37720054 -0.07013802 -0.07465307 0.015305649 -0.1763481 0.5768873 0.08841942 0.27679688 0.5898584 -0.18156178 0.24890436 0.13282499 -0.46955603 0.3325841 -0.005349941 -0.0708974 0.026157795 0.30651316 -0.26390582 0.3647979 -0.8288331 0.14703067 0.34415427 -0.29158598
listos -0.60230213 -0.039391845 0.6557107 0.38496625 -0.3455394 -0.01051206 -0.37941548 -0.10988547 -0.082175694 0.0016071195 -0.22466965 0.5945217 0.048829313 0.29863098 0.6389462 -0.19527605 0.21152312 0.123528734 -0.52093387 0.34732065 -0.00016395809 -0.11870821 0.07842278 0.38396385 -0.31344426 0.31111613 -0.81080556 0.20601635 0.31695336 -0.29867378
almuerzo -0.59027183 -0.07847907 0.62725776 0.302797 -0.3124871 0.051311996 -0.34202313 -0.06999485 -0.06391225 0.014990711 -0.15784998 0.5470686 0.038915414 0.27774286 0.6408746 -0.18187417 0.17790006 0.07657427 -0.4825083 0.3051086 0.0501447 -0.060532134 0.0887529 0.3407229 -0.23353569 0.26790226 -0.82011384 0.15796724 0.28334057 -0.25695023
aparece -0.6038576 -0.009149087 0.648724 0.29199088 -0.2898531 0.028147083 -0.34606853 -0.07046071 -0.07978358 0.0056711496 -0.18154803 0.5528235 0.010770192 0.27068463 0.6460778 -0.19058561 0.17656013 0.12223484 -0.46395844 0.3409036 0.04004597 -0.11875919 0.09264739 0.36086005 -0.2918322 0.33099958 -0.7981269 0.16078974 0.30478004 -0.29675323
recreativo -0.5924119 -0.0059942356 0.62353104 0.32133818 -0.32843748 0.0036924542 -0.3572156 -0.07752211 -0.067267545 0.023817148 -0.17596568 0.5415345 0.05211301 0.22100022 0.62375414 -0.202083 0.20354477 0.101765834 -0.464942 0.2879617 -0.003983009 -0.06905484 0.07702796 0.31333324 -0.24717827 0.3354174 -0.8547663 0.14226797 0.2440935 -0.29045278
temporada -0.6062448 -0.0720245 0.60396415 0.35719398 -0.3546569 0.019772327 -0.33585522 -0.05790536 -0.07970373 0.035428893 -0.12993994 0.559491 0.09268527 0.3239046 0.62793756 -0.18267624 0.2024862 0.046846546 -0.5612933 0.30483764 0.021847293 -0.012220519 0.098157905 0.33871883 -0.25948027 0.29644674 -0.76841986 0.17208374 0.2901344 -0.28062922
total -0.5744009 -0.014827053 0.6192401 0.32198635 -0.3340591 0.019497698 -0.32329008 -0.11497079 -0.048495393 0.023969408 -0.19299622 0.5647346 0.066387065 0.26771247 0.6038241 -0.16685478 0.22093783 0.05546642 -0.5092125 0.29379162 0.032157134 -0.062356453 0.13048474 0.4074234 -0.27420637 0.3274407 -0.82707393 0.16617282 0.30013883 -0.31550395
titular -0.62843484 0.005997632 0.68476945 0.30927598 -0.33331922 0.03418126 -0.3397603 -0.060699318 -0.03241055 -0.0034522722 -0.18583024 0.5310915 0.0697298 0.25847962 0.6183277 -0.1703116 0.22237845 0.081595615 -0.48828688 0.3571938 0.025849227 -0.1014005 0.13355997 0.38856098 -0.2892293 0.31764537 -0.87893015 0.19775422 0.30035254 -0.30960593
piscinas -0.56530887 -0.016046515 0.63989633 0.30951837 -0.32656726 -0.004507933 -0.3889944 -0.07647548 -0.03418559 0.037311386 -0.18728942 0.55293024 0.062974006 0.22731526 0.5828612 -0.21215884 0.22371718 0.12647124 -0.44374382 0.31313834 0.00386874 -0.08509177 0.11559327 0.32778272 -0.23805863 0.3351342 -0.87691635 0.18157795 0.25349566 -0.29040653
haciendo -0.59043896 -0.06401663 0.6570531 0.3483163 -0.31780675 0.022595927 -0.36491358 -0.12214364 -0.050937418 0.0043572085 -0.18659076 0.5920914 0.08570508 0.2528657 0.6233743 -0.19359821 0.23137777 0.10165877 -0.52289855 0.33786178 0.0027100453 -0.093728855 0.068940446 0.3819264 -0.2881621 0.32505563 -0.79964656 0.16829191 0.296586 -0.2614543
datos -0.6150152 -0.043923847 0.6623394 0.3270964 -0.3523827 -0.0055825906 -0.38711208 -0.11641475 -0.039894372 0.009452445 -0.20721835 0.54895866 0.04997813 0.2516277 0.5864959 -0.16615406 0.20574056 0.09531002 -0.52399564 0.3194068 0.008003728 -0.06288854 0.070567 0.38290733 -0.31980664 0.3376544 -0.86884195 0.20010366 0.31319284 -0.3289094
cambiar -0.6086631 0.010424284 0.6421637 0.34053618 -0.30111548 0.024674818 -0.35415295 -0.07428047 -0.018161178 -0.0058869785 -0.15160185 0.53688663 0.044965256 0.27771735 0.6383874 -0.2068011 0.20386985 0.1103962 -0.513822 0.3312163 0.043708898 -0.052170094 0.11491966 0.41457462 -0.30170894 0.33038607 -0.8240039 0.21164969 0.30644518 -0.32926205
comunico -0.6184852 -0.02461261 0.6472143 0.36469233 -0.33946708 0.03049405 -0.3633497 -0.117716424 -0.053951185 0.028688388 -0.19249138 0.543826 0.056777 0.27525005 0.64404905 -0.19348009 0.22774391 0.07305561 -0.4988872 0.33978197 0.019435938 -0.05571134 0.07121702 0.36000165 -0.297405 0.368764 -0.80065155 0.15007205 0.3152177 -0.27111816
unica -0.57883704 -0.022636129 0.6357835 0.34365442 -0.33838546 0.024745254 -0.3385024 -0.096232474 -0.06890063 3.85581e-05 -0.20191793 0.5358496 0.041871525 0.2744532 0.6217703 -0.19251856 0.2196165 0.12372489 -0.4772163 0.2972707 0.05105273 -0.09725217 0.078160934 0.382942 -0.2662293 0.30992928 -0.77260894 0.15387577 0.2993232 -0.30513123
quedaria -0.5703131 -0.03812103 0.6269721 0.31429434 -0.3120264 0.021098169 -0.37230194 -0.07146238 -0.08095777 0.02534692 -0.16054028 0.53941774 0.041977666 0.24346784 0.63003325 -0.17295036 0.15714705 0.09157179 -0.50352186 0.30914566 0.050210465 -0.06948088 0.07394355 0.3730509 -0.23047946 0.29563665 -0.8262935 0.19175918 0.27355507 -0.2937373
haria -0.60060805 -0.053648315 0.6284649 0.36058637 -0.33798358 0.04031622 -0.33723623 -0.124751985 -0.0476361 0.012887081 -0.16520898 0.5617117 0.055452768 0.28640738 0.59831715 -0.17993376 0.18783054 0.09601624 -0.4983823 0.32546303 0.03057534 -0.0653707 0.097116336 0.3699754 -0.2813332 0.31201535 -0.8004918 0.169391 0.26422235 -0.30203104
volver -0.59364545 -0.048653986 0.6071919 0.364429 -0.35773683 0.0024613847 -0.33281967 -0.09175986 -0.04996819 -0.0074357023 -0.18694879 0.56967753 0.08117027 0.29236045 0.6079841 -0.18510324 0.23824029 0.10027839 -0.51949763 0.31432223 0.041373003 -0.04126325 0.06926792 0.38715234 -0.2857481 0.3309542 -0.78465915 0.19868486 0.3037432 -0.2996075
entra -0.56913936 -0.029462656 0.6321815 0.3397295 -0.33592096 -0.013778673 -0.34377414 -0.1119235 -0.09212609 -0.015613511 -0.17779125 0.5688173 0.057719413 0.24471386 0.61852896 -0.19812827 0.2026429 0.096912235 -0.5004132 0.31092373 0.03087178 -0.10304843 0.08864326 0.39444822 -0.24414203 0.31940764 -0.781686 0.18168609 0.29935265 -0.29589063
posible -0.56257063 -0.046313576 0.6228387 0.36006588 -0.31772342 -0.008308446 -0.3481035 -0.09506173 -0.059692115 -0.0048111794 -0.17665547 0.56323135 0.0028448487 0.26064435 0.62929267 -0.1904988 0.2419011 0.10380483 -0.46371928 0.32523468 0.031362798 -0.0609172 0.1021621 0.38835666 -0.24638008 0.29763415 -0.7912649 0.18349282 0.33444056 -0.27662477
zonas -0.5499885 0.016847981 0.6272559 0.33792034 -0.33369127 0.0086420225 -0.36482096 -0.07189602 -0.028625488 0.0006732193 -0.18313125 0.55076283 0.06451156 0.23659813 0.58451706 -0.17305613 0.2253512 0.050581884 -0.4676671 0.3171359 0.043274216 -0.05317859 0.096721195 0.3766872 -0.2814186 0.31318742 -0.8487064 0.20404539 0.2656746 -0.32061473
pendiente -0.6060194 -0.019831548 0.6379418 0.35941225 -0.33447915 0.026406638 -0.32804662 -0.08872648 -0.017638266 -0.007932843 -0.2301558 0.55444247 0.06036677 0.25019526 0.6169993 -0.17831022 0.24326968 0.07666162 -0.50768125 0.32745212 0.01914173 -0.066984855 0.10254962 0.4208967 -0.2939832 0.346669 -0.82421505 0.21699177 0.2912876 -0.3400582
unico -0.5842684 -0.001285618 0.62860864 0.31950855 -0.32482067 0.01516031 -0.3795645 -0.1054593 -0.029366884 0.0031868576 -0.21112312 0.5356308 0.053473122 0.2313807 0.626405 -0.2036704 0.2287102 0.10227027 -0.5222878 0.33094597 0.0590907 -0.0628387 0.10782087 0.3722125 -0.2687077 0.34181094 -0.8583086 0.1800563 0.28409156 -0.30690604
tocaria -0.6048505 -0.019902295 0.6747313 0.3645372 -0.36154315 0.010781979 -0.34810823 -0.09029375 -0.07078999 -0.01721257 -0.18905309 0.55256814 0.095335044 0.26301315 0.63643664 -0.20318195 0.20840159 0.094613105 -0.47434813 0.32677552 0.031034281 -0.08821313 0.063471645 0.3790857 -0.2625153 0.32033744 -0.8275676 0.20346089 0.28488863 -0.24666926
compania -0.6099936 -0.05123426 0.6456298 0.36345613 -0.32405668 0.00083935284 -0.36289048 -0.11922478 -0.07178725 0.001755411 -0.22988331 0.5819728 0.052861743 0.24816845 0.6356946 -0.19137487 0.20873737 0.10995543 -0.5057593 0.32846218 0.009934885 -0.070594594 0.05523782 0.38308004 -0.28842956 0.34698153 -0.8309986 0.17368264 0.291707 -0.296708
promocion -0.5549327 -0.0750173 0.64426386 0.35333034 -0.31918105 0.03107108 -0.3317412 -0.07796193 -0.071036875 -0.0009018696 -0.18547387 0.5724315 0.07375943 0.2701076 0.63761234 -0.18990704 0.22419587 0.092321575 -0.52541906 0.30018368 0.004991564 -0.07992666 0.09150712 0.3510168 -0.28211355 0.32581237 -0.80947596 0.17270535 0.288898 -0.27269349
hablando -0.60086715 -0.07095048 0.6462648 0.39015135 -0.355686 0.035012025 -0.36852935 -0.08365429 -0.08509983 -0.012046548 -0.16463126 0.5891985 0.07809622 0.28379983 0.6300518 -0.21851966 0.20780838 0.078310765 -0.5036445 0.3163876 0.042876113 -0.070067406 0.06761566 0.3763663 -0.2709154 0.31615663 -0.7986115 0.167356 0.33050486 -0.26943934
vuelvo -0.5686561 -0.04391812 0.59960055 0.35038248 -0.32478017 0.017884469 -0.3569155 -0.12664552 -0.07851339 0.027567375 -0.20609471 0.553974 0.053811964 0.25446942 0.6092912 -0.2021005 0.21191342 0.08487607 -0.50166637 0.30269876 0.020170389 -0.07071658 0.070804715 0.33992916 -0.28014332 0.33228883 -0.80266666 0.15402141 0.30488646 -0.27846795
facil -0.5983804 -0.04201355 0.6415544 0.33787608 -0.3226015 0.0201711 -0.34320268 -0.12035073 -0.06532474 0.026080152 -0.21495707 0.5585084 0.068798564 0.27097806 0.6128247 -0.21951297 0.21041735 0.08107449 -0.4996717 0.33010894 0.0074871085 -0.089057446 0.10651475 0.38588336 -0.27791187 0.32117808 -0.8119381 0.17167982 0.2869853 -0.26464504
funcionando -0.60117304 -0.052012883 0.6282933 0.33612412 -0.25968522 -0.0099101225 -0.3727449 -0.052071616 -0.017947385 -0.010908594 -0.17439425 0.50520873 0.08399605 0.18928543 0.64581305 -0.24579313 0.21833356 0.14697693 -0.5363524 0.32183188 0.029453576 -0.09654868 0.10058995 0.32283923 -0.24780722 0.37700334 -0.8404912 0.1660524 0.25872096 -0.25040752
proceso -0.6118971 -0.057409246 0.6447727 0.33589175 -0.34063777 -0.0033677293 -0.3359875 -0.08777982 -0.07380024 0.016459577 -0.19308476 0.5775905 0.08728069 0.26678708 0.62798005 -0.18743977 0.22480482 0.085714735 -0.5162576 0.328366 0.03250269 -0.070548564 0.09690801 0.3662357 -0.2772573 0.3563123 -0.82790494 0.19689831 0.30239823 -0.31554
entendi -0.5989892 -0.07157072 0.6438806 0.34977537 -0.31840232 0.047873795 -0.36035538 -0.06434158 -0.038014326 0.0013416798 -0.17996567 0.53761387 0.08131934 0.27867827 0.57989657 -0.1954052 0.17244278 0.08411914 -0.429714 0.3272554 0.044220984 -0.049384553 0.10083621 0.34995553 -0.23378348 0.34910163 -0.77905035 0.16725789 0.29932436 -0.2958586
minutos -0.5850284 -0.071486495 0.60073906 0.348002 -0.35795933 -0.014323284 -0.34755453 -0.1492215 -0.043877758 0.006171469 -0.22989298 0.54182124 0.040252995 0.30465987 0.5839778 -0.21119516 0.27107275 0.06129258 -0.46833912 0.402292 0.040669896 -0.06801278 0.08379004 0.37228972 -0.32166043 0.3788029 -0.7798857 0.20399293 0.28333038 -0.3297962
reservacion -0.5911736 -0.008361576 0.6822175 0.32547578 -0.3304911 0.04383775 -0.33094034 -0.10684383 -0.0672264 -0.006711568 -0.21400695 0.5378084 0.05173416 0.225223 0.6031809 -0.16484454 0.20645861 0.096236974 -0.47781518 0.31931156 0.011865489 -0.07552953 0.11732714 0.40452737 -0.29827368 0.3484358 -0.81803876 0.19347282 0.30021125 -0.2748607
perder -0.5709778 -0.053586803 0.64500576 0.3591208 -0.35382256 0.0046803923 -0.35222074 -0.11476427 -0.036823258 -0.014036424 -0.18204279 0.5497218 0.048225056 0.25175637 0.62705415 -0.22173195 0.23637076 0.084805526 -0.48655298 0.34617355 0.036846537 -0.08759265 0.09446155 0.37724414 -0.25962093 0.31196174 -0.7974343 0.1617921 0.29785475 -0.2955223
funcion -0.6104467 -0.03843557 0.66088647 0.35157263 -0.34980273 0.01469218 -0.37677595 -0.081546724 -0.058683567 -0.009800442 -0.21947928 0.57293004 0.06713883 0.29054487 0.6580223 -0.18963143 0.20947543 0.107458234 -0.5162928 0.3229142 0.0058859577 -0.111496404 0.087110974 0.3947787 -0.31331465 0.33787158 -0.8281355 0.19710365 0.31017542 -0.28828847
dejame -0.5895041 -0.017513843 0.65433884 0.34131518 -0.33298865 0.014980713 -0.36178577 -0.087389514 -0.06432005 -0.0036491025 -0.18729085 0.5596213 0.06515185 0.25653404 0.6302944 -0.18337125 0.21597391 0.07977319 -0.50212026 0.29714102 0.027306523 -0.039946813 0.09167107 0.3772954 -0.27988932 0.339725 -0.8012041 0.1851993 0.29488885 -0.28183636
realizar -0.59171206 -0.04872305 0.64984804 0.34978563 -0.33943358 0.025490684 -0.3162831 -0.1331767 -0.053029872 0.039774418 -0.21131738 0.5354175 0.08189239 0.2648735 0.58549184 -0.20027405 0.2122815 0.11390221 -0.5036414 0.34365976 0.027336827 -0.06850987 0.08436301 0.4057489 -0.28237346 0.32360235 -0.7961962 0.1935957 0.30751875 -0.30768713
internet -0.6020101 -0.035381842 0.6267196 0.364234 -0.33823925 0.0031791644 -0.36199245 -0.12948361 -0.06133478 -0.023265276 -0.23377411 0.5616114 0.034460586 0.26957345 0.6277755 -0.20602304 0.2233757 0.10613054 -0.49667278 0.32295176 -0.007938903 -0.10985702 0.050177034 0.36962926 -0.2964974 0.3225316 -0.8073063 0.18123852 0.30548632 -0.29496774
comun -0.60776025 -0.02795585 0.64826983 0.36020955 -0.33708897 0.03733089 -0.37457305 -0.11693527 -0.085644685 0.029478831 -0.19232346 0.57377505 0.048923835 0.23791763 0.6620098 -0.22291665 0.21835083 0.11361248 -0.5248887 0.30635777 0.014121638 -0.08704482 0.045436677 0.36844173 -0.2706621 0.32185948 -0.8266387 0.1582309 0.30528742 -0.27663225
edad -0.6133008 0.0043627066 0.61592484 0.34576282 -0.34277433 0.034882996 -0.35309288 -0.11535707 -0.062471937 -0.0035680607 -0.19777827 0.50978255 0.04191035 0.2726997 0.6402451 -0.17379315 0.21431173 0.06858053 -0.42303383 0.35821605 0.0057434235 -0.064731404 0.085712336 0.33984187 -0.3109762 0.3494427 -0.836803 0.18624021 0.28007957 -0.2593748
cancion -0.6132753 -0.064747676 0.625515 0.3373337 -0.32409984 0.0021959182 -0.38653764 -0.13522188 -0.09961845 0.037694234 -0.2012017 0.5701977 0.051432054 0.22635387 0.61797935 -0.21608065 0.24690439 0.11662649 -0.5104538 0.30874664 -0.00841646 -0.06352693 0.05744919 0.34412333 -0.25649947 0.35711092 -0.83431995 0.17402059 0.32817188 -0.2653377
llaman -0.6068643 -0.036605764 0.6265385 0.38301045 -0.32571295 -0.010739307 -0.33060423 -0.11645705 -0.05432401 0.0018882207 -0.17430797 0.5629106 0.07790142 0.23927835 0.6174698 -0.19641718 0.20902027 0.11116645 -0.5091334 0.34039402 0.012345657 -0.04751198 0.061586075 0.36465943 -0.28311357 0.3520481 -0.8314233 0.1918432 0.28020203 -0.26806176
llevo -0.5777102 -0.040002875 0.62468415 0.34420598 -0.33561724 0.017898146 -0.3661255 -0.094899654 -0.03665743 0.031222804 -0.21573456 0.5774305 0.07225578 0.26075238 0.6274225 -0.19630504 0.25041026 0.1079125 -0.49308792 0.36439195 0.027529754 -0.06192124 0.06653193 0.37697226 -0.29225004 0.36532247 -0.78523105 0.1993287 0.311378 -0.29574776
hagame -0.60781825 -0.04301745 0.6345097 0.33500367 -0.34063572 -0.004469417 -0.34543225 -0.08131804 -0.07811784 0.008243478 -0.1898516 0.574741 0.077926606 0.23679112 0.6115619 -0.20796463 0.21656877 0.091562316 -0.49730965 0.3319585 -0.00025262378 -0.079332255 0.065896235 0.34422138 -0.27633217 0.32584763 -0.78980887 0.17694363 0.27818367 -0.28403452
cerdo -0.6134653 -0.05340214 0.61733186 0.30810764 -0.3447662 0.0007688072 -0.3367084 -0.080281936 -0.054793082 0.0035902315 -0.22613926 0.56210124 0.059219375 0.23257042 0.63469195 -0.17543884 0.22635975 0.06418352 -0.5052697 0.30553204 0.029421905 -0.0934087 0.063775636 0.3824315 -0.3022107 0.3031169 -0.8089895 0.19413273 0.31304753 -0.3022309
partir -0.58050853 -0.05057395 0.66100204 0.31468728 -0.31982565 0.052159723 -0.37618062 -0.07567471 -0.09097406 0.022204796 -0.17818193 0.59073627 0.06648483 0.2657136 0.60488176 -0.21030937 0.20244867 0.09196836 -0.47423783 0.3168912 0.017766375 -0.097761884 0.07703169 0.40527588 -0.2443055 0.31152222 -0.82860553 0.1830262 0.31387097 -0.2704391
final -0.5819877 -0.055556484 0.6283923 0.33548686 -0.31320587 -0.009173276 -0.353375 -0.09171975 -0.062024962 -0.021740597 -0.17525606 0.54787964 0.062042292 0.24649227 0.61453754 -0.17696485 0.21067284 0.09545256 -0.508546 0.33775404 0.0077309567 -0.07032447 0.08951117 0.36271328 -0.25257438 0.3292398 -0.8198596 0.17475417 0.32658124 -0.28958586
cita -0.6022636 -0.05649908 0.63547623 0.35108456 -0.3348456 -0.0071225655 -0.37686232 -0.105723344 -0.063126065 0.010538903 -0.19509667 0.56270826 0.07875574 0.26366988 0.6049971 -0.18976623 0.21476248 0.11569841 -0.47408184 0.32728744 0.012143097 -0.072940476 0.07476166 0.37854686 -0.27515975 0.36184677 -0.8342506 0.1842915 0.27318227 -0.28447315
vuelve -0.5818769 -0.053763542 0.6530973 0.33255118 -0.34273916 0.009334406 -0.32784596 -0.11603195 -0.084096394 0.0040353653 -0.19527815 0.5254312 0.05392477 0.26097438 0.5876751 -0.19206378 0.19667615 0.09587717 -0.52326155 0.31526902 0.004852684 -0.0769462 0.08118034 0.3820907 -0.27146518 0.347555 -0.8013531 0.1814359 0.31329244 -0.29143453
plazo -0.59759825 -0.0027552615 0.69161165 0.3832892 -0.3223456 0.047803782 -0.35035658 -0.14789094 -0.043098383 0.005607986 -0.19860728 0.54867905 0.06392744 0.25821778 0.5972846 -0.18013376 0.2074764 0.11691969 -0.4997936 0.35113353 -0.0134444535 -0.06148725 0.088112354 0.39616656 -0.29101333 0.32335123 -0.8196574 0.17047797 0.3230746 -0.3029323
coconuco -0.58660364 -0.024030803 0.6441705 0.3605077 -0.34405398 0.032535817 -0.35063925 -0.115199305 -0.05444711 -0.002412391 -0.15833625 0.55793524 0.07340075 0.25908256 0.6098406 -0.20084858 0.21674263 0.10965937 -0.48666817 0.32188106 0.019657513 -0.09832568 0.103123285 0.39053681 -0.266856 0.32267955 -0.7891891 0.16824453 0.27967975 -0.25762406
pandemia -0.61275625 -0.043990258 0.6732852 0.38009351 -0.3334126 0.03383756 -0.3961557 -0.08525434 -0.09416248 0.052626688 -0.19210567 0.56219673 0.054210756 0.24069642 0.60208803 -0.18512185 0.22487447 0.09585233 -0.5251625 0.3043826 0.0040732096 -0.0920785 0.064876966 0.4138924 -0.2745714 0.31786472 -0.8461193 0.19846576 0.31033754 -0.27073616
cotizacion -0.57906824 -0.037107542 0.66831565 0.34956935 -0.35211113 0.03839246 -0.33988816 -0.09184754 -0.076925576 0.007305275 -0.15890917 0.55683744 0.06065665 0.2801336 0.6471182 -0.18590467 0.21230097 0.066569336 -0.47459877 0.32626876 0.020311069 -0.08652246 0.09848765 0.36861938 -0.2572595 0.30551177 -0.8241408 0.15133624 0.27624077 -0.2722156
senal -0.6056237 -0.05729342 0.65531635 0.33427235 -0.3607006 -0.0009670592 -0.39275405 -0.12245447 -0.076756746 0.005753284 -0.22985874 0.5939361 0.08882944 0.25214475 0.61453635 -0.17004044 0.21726407 0.10153729 -0.5173406 0.34438953 -0.005330787 -0.07758863 0.056477208 0.389436 -0.2518956 0.34802052 -0.82568765 0.16642304 0.3208852 -0.28036952
nombres -0.575568 -0.031249022 0.64015365 0.343365 -0.31066638 0.032520566 -0.32703915 -0.12313467 -0.05632437 0.028799964 -0.21068008 0.547255 0.041549012 0.26902947 0.5840006 -0.18356143 0.19420673 0.06895034 -0.45414236 0.3183134 0.027204806 -0.08421358 0.1183649 0.384074 -0.28541982 0.31153765 -0.825278 0.15674178 0.3075936 -0.26140773
familiar -0.57129407 -0.046276 0.6200055 0.34219298 -0.33962756 0.025646018 -0.3401395 -0.11738507 -0.07284245 0.014215034 -0.17758636 0.55832595 0.079991385 0.26350352 0.6545817 -0.19675013 0.2273096 0.05826784 -0.5084496 0.29490745 0.04496898 -0.10295019 0.088890724 0.32321426 -0.2813716 0.3008047 -0.80999476 0.19397356 0.2880802 -0.28398365
ayudar -0.60229516 -0.052332036 0.63287956 0.36806846 -0.31649858 0.0014771298 -0.34743026 -0.10554273 -0.04907767 0.011071627 -0.20248586 0.53442264 0.048664324 0.25910425 0.593038 -0.16760936 0.22388779 0.105575845 -0.4814452 0.33992645 0.049912293 -0.075451896 0.066433355 0.38816494 -0.30040336 0.32823136 -0.7660182 0.18465352 0.30161345 -0.27054998
posibilidad -0.5820583 -0.036173504 0.62593055 0.3479983 -0.30281606 0.02667657 -0.36307234 -0.09575859 -0.047113195 -0.010193673 -0.19787335 0.55388296 0.087449834 0.24584445 0.6302162 -0.20866686 0.2163217 0.10269809 -0.51447976 0.31828818 0.035401832 -0.04726336 0.094743885 0.3562733 -0.2754568 0.30595556 -0.79795736 0.17823158 0.29842237 -0.27133113
hermana -0.56851786 -0.044820797 0.65359277 0.35459527 -0.34596035 -0.006512889 -0.3699427 -0.09952915 -0.08373802 -0.014145668 -0.21481735 0.563453 0.036685657 0.26731074 0.60806024 -0.20564587 0.21857646 0.0952429 -0.46662962 0.3147722 0.01561792 -0.07419904 0.068959676 0.37768504 -0.26353708 0.33058515 -0.7919548 0.17967081 0.29723832 -0.2783093
desayunos -0.55718803 -0.048338357 0.61534095 0.32751134 -0.32025298 0.051696554 -0.33447394 -0.11600237 -0.07874734 0.009141599 -0.14802723 0.53677785 0.078010246 0.2393391 0.6223336 -0.17923287 0.21099909 0.08424148 -0.43923473 0.2817099 0.054648418 -0.060389746 0.09265064 0.35274342 -0.24958551 0.28169513 -0.8118774 0.14487047 0.27495903 -0.28895694
agua -0.5813407 -0.033248752 0.66620106 0.36362192 -0.32295138 0.012594661 -0.36758313 -0.11209563 -0.048195403 0.026503652 -0.22559379 0.5402818 0.048914067 0.2520863 0.6252965 -0.19397461 0.20926468 0.11976698 -0.49500555 0.3131448 0.01416126 -0.07019194 0.055992417 0.33853018 -0.26263607 0.35113913 -0.8607511 0.18212496 0.28279927 -0.26959276
apenas -0.57915 -0.083250314 0.6469487 0.3551356 -0.32921082 0.021000432 -0.36188266 -0.11939963 -0.0948066 -0.0048672906 -0.1928366 0.6026252 0.047745697 0.28013003 0.6156531 -0.20664741 0.21309517 0.10174996 -0.5322309 0.34392095 0.012699345 -0.06658986 0.07843624 0.38695788 -0.2821 0.33918163 -0.819513 0.18052027 0.3242125 -0.27384284
particular -0.5695655 -0.0057877004 0.65624213 0.34149697 -0.32349887 0.011581737 -0.36484134 -0.10435318 -0.106474295 0.014074664 -0.16845925 0.56183517 0.06957449 0.2682778 0.63012046 -0.16575626 0.22547734 0.112857975 -0.437197 0.32563797 0.0072376565 -0.094039634 0.056254167 0.37256664 -0.28858978 0.33759797 -0.81608987 0.15886156 0.28415984 -0.26774868
consultar -0.60151917 -0.028367056 0.67163604 0.34682363 -0.32755342 0.027198613 -0.35574937 -0.13023211 -0.045847192 -0.0048181266 -0.21615456 0.5961028 0.04733029 0.27618152 0.6332398 -0.20615916 0.19353741 0.09997554 -0.5059044 0.30123717 0.011090021 -0.10753221 0.08878875 0.39606845 -0.25128913 0.33940053 -0.80754507 0.1877264 0.29609108 -0.29097
lejos -0.5903519 -0.07861983 0.64958745 0.3329626 -0.32508138 -0.0026345602 -0.37601796 -0.088376015 -0.097512916 0.04416851 -0.21330336 0.5473104 0.045143127 0.2353674 0.63808846 -0.20111388 0.19210297 0.070664085 -0.5141623 0.29175198 0.0054832734 -0.072990336 0.068419866 0.34487915 -0.24739377 0.3299841 -0.8038505 0.15232798 0.3040213 -0.24656107
diciendo -0.60543597 -0.049152926 0.638913 0.37879533 -0.31660503 0.027787669 -0.3462406 -0.05995904 -0.088244416 0.004451324 -0.14489384 0.57722515 0.06930697 0.2894677 0.6225352 -0.17308675 0.23198579 0.08733903 -0.50935817 0.33222163 0.029452441 -0.07367984 0.06161227 0.3440643 -0.27276933 0.31227314 -0.7760239 0.14082141 0.29689386 -0.28377956
recibo -0.59394747 0.048273783 0.6491097 0.3649931 -0.3082999 0.041885715 -0.3351074 -0.13534069 -0.051501878 0.036979485 -0.1599784 0.51670057 0.057125606 0.2326994 0.59851223 -0.18471906 0.26625454 0.1252226 -0.4372954 0.34367314 -0.043134272 -0.059505455 0.16269289 0.33992982 -0.27238843 0.36695233 -0.8261091 0.22012685 0.30594486 -0.32684422
problemas -0.58196366 -0.019822113 0.62987936 0.3517318 -0.34393835 -0.008037497 -0.3716456 -0.117319144 -0.08063213 0.020463333 -0.20643117 0.5704817 0.049401592 0.25615487 0.58852524 -0.17349403 0.19282189 0.09350732 -0.49678913 0.32294688 0.024374962 -0.06582859 0.09729465 0.36058673 -0.26504248 0.32844344 -0.8190658 0.18374726 0.28224838 -0.28521743
formas -0.61259854 -0.04748866 0.62447286 0.34633473 -0.35479328 0.04543722 -0.36935288 -0.07640346 -0.07085963 0.010928037 -0.17263491 0.5958871 0.052579243 0.2783677 0.63504595 -0.19722179 0.23184103 0.08323679 -0.49631673 0.3091378 0.020115672 -0.08257439 0.09726222 0.39707026 -0.27323106 0.32312784 -0.80309445 0.1576207 0.3145522 -0.2913381
festivo -0.5737252 -0.0072777905 0.64260674 0.35908213 -0.28446296 0.052359942 -0.3201357 -0.06566838 -0.06979681 -0.0036164713 -0.11405104 0.5854004 0.07645101 0.2998186 0.58215064 -0.18021558 0.20640896 0.06684526 -0.4853356 0.31642306 0.036881506 -0.0612106 0.107401244 0.33514965 -0.26312825 0.28915662 -0.7783878 0.14728083 0.2967611 -0.29103774
entro -0.60166687 -0.07115967 0.63364893 0.31783658 -0.30594707 -0.015258773 -0.36012655 -0.078875065 -0.07878702 0.0031266608 -0.18049063 0.530433 0.062723204 0.24387524 0.62289786 -0.1835957 0.2127935 0.09392373 -0.49404216 0.3336899 0.03450983 -0.08451764 0.09180592 0.37054822 -0.26083004 0.30618596 -0.7876602 0.17482395 0.2743006 -0.25534013
aparte -0.60314107 -0.05333444 0.62942654 0.36957338 -0.3373302 0.010993824 -0.3434563 -0.1136952 -0.08317765 0.019523814 -0.17212221 0.5791167 0.093649395 0.25659868 0.6255096 -0.19376163 0.19600582 0.08282554 -0.48791373 0.28118873 0.05949856 -0.045442678 0.09263199 0.3889787 -0.26547083 0.3241184 -0.8207206 0.13222864 0.29948533 -0.26211575
quedamos -0.59318614 -0.0468826 0.66683394 0.33681628 -0.34338045 0.018967483 -0.3741037 -0.12650992 -0.07230725 -0.00753379 -0.22381327 0.5655608 0.057383496 0.2510479 0.58841765 -0.20679754 0.20974395 0.09665927 -0.47713202 0.33111426 0.02377401 -0.078049496 0.06654707 0.3930871 -0.2912047 0.35411102 -0.8130767 0.171885 0.31892738 -0.31018272
decia -0.5925626 -0.029738452 0.6622436 0.36276355 -0.3508819 0.056238584 -0.3661115 -0.09628171 -0.091870286 0.02080997 -0.1743611 0.57655156 0.08096745 0.27573597 0.64687663 -0.1954911 0.19014108 0.09270894 -0.4950911 0.29259372 0.0132042775 -0.06063252 0.08995347 0.37919667 -0.26566556 0.29582572 -0.8163265 0.14049514 0.2962631 -0.2568952
vete -0.58633506 -0.020584954 0.6507711 0.32452828 -0.33082795 0.03027295 -0.37117955 -0.11616492 -0.09444631 0.0009917627 -0.20322695 0.55894953 0.078049295 0.2684129 0.6255333 -0.2066156 0.19852255 0.07202977 -0.4866697 0.31714326 0.025006559 -0.080524065 0.07396373 0.38136378 -0.30101043 0.3361844 -0.8098415 0.15718466 0.31201425 -0.26970005
hijos -0.6007576 -0.043547973 0.62504935 0.3436831 -0.3178899 0.018835759 -0.3715745 -0.116523094 -0.084759936 0.0055818274 -0.22087215 0.57776207 0.022187535 0.26263648 0.64677495 -0.16855875 0.21178542 0.10427478 -0.4804275 0.33463076 0.019053278 -0.078901224 0.08302225 0.38661215 -0.26736015 0.33057424 -0.7777445 0.20582825 0.279961 -0.30635273
costaria -0.56055546 -0.048412535 0.6411673 0.3423589 -0.311424 0.010445428 -0.36639902 -0.09007766 -0.06307915 -0.013620562 -0.1943159 0.5290435 0.0514193 0.2650988 0.6062233 -0.15502594 0.18204531 0.11426299 -0.46171203 0.30649588 0.033533815 -0.06078156 0.10030462 0.348061 -0.2552172 0.32339436 -0.7997463 0.18951935 0.2938517 -0.27333283
queriamos -0.6061228 -0.050188813 0.6342589 0.35552576 -0.3410592 0.027035575 -0.3955178 -0.090441294 -0.10441621 0.018949522 -0.22295126 0.5662965 0.073368415 0.24279884 0.6236491 -0.20491649 0.20118494 0.0788942 -0.48819286 0.3257646 0.025086248 -0.08372271 0.061968137 0.3652235 -0.28100193 0.32698995 -0.81722486 0.1643363 0.27741075 -0.25804237
precios -0.5729349 -0.04225233 0.61699504 0.3524432 -0.34140518 -0.0012925757 -0.35426378 -0.10003115 -0.06410016 0.030954523 -0.17722815 0.5493161 0.07918817 0.26844165 0.6447168 -0.19911191 0.19494668 0.09720806 -0.5121374 0.31244305 0.0397074 -0.06873838 0.070944555 0.35505223 -0.29033446 0.33330935 -0.8105485 0.17508483 0.26318708 -0.26134756
queremos -0.56471545 -0.066185266 0.6202322 0.35105157 -0.35675287 0.0006355409 -0.35346803 -0.096037984 -0.050526153 -0.01955579 -0.19460869 0.5261694 0.03642527 0.25088122 0.6116468 -0.1998688 0.230509 0.09478138 -0.45882455 0.32537025 0.038410664 -0.083890595 0.070713036 0.3684433 -0.30357566 0.31348464 -0.8047745 0.17484488 0.30066484 -0.27759472
ninas -0.54786944 -0.047595743 0.6042098 0.3566774 -0.3401049 0.014304695 -0.36691687 -0.11008901 -0.07664025 0.0054695755 -0.1896318 0.536915 0.044773757 0.26965877 0.62430036 -0.18797016 0.19462827 0.10475762 -0.50312936 0.28683153 0.0023408271 -0.07027827 0.07337583 0.37181404 -0.26724234 0.334365 -0.78874344 0.19102323 0.27066684 -0.26584658
comfandi -0.5939836 -0.013088816 0.6424612 0.37286377 -0.33730742 0.044367798 -0.37177384 -0.07013163 -0.05464358 -0.009009432 -0.17751579 0.56114733 0.050776906 0.27230296 0.6527825 -0.18747239 0.23364872 0.06921563 -0.52575785 0.32133758 0.03219378 -0.07678104 0.08036617 0.3600556 -0.26499364 0.3191417 -0.82213265 0.19216906 0.3200536 -0.29874972
formacion -0.6100479 -0.08973171 0.6050018 0.34456176 -0.3659876 0.015497393 -0.3483461 -0.07232555 -0.11285767 0.0045923954 -0.20750205 0.5374951 0.05611479 0.28684863 0.6375788 -0.1710722 0.21232897 0.07548886 -0.5106173 0.3141813 0.005472406 -0.05887018 0.050839275 0.3364102 -0.26748314 0.35585535 -0.80718756 0.19215542 0.3136779 -0.27141207
siento -0.6050062 -0.052829955 0.6409324 0.36488405 -0.34875083 0.036815166 -0.35872298 -0.07390211 -0.11916231 0.014805133 -0.17896646 0.5855517 0.09700496 0.28270406 0.664272 -0.21628125 0.22071758 0.07814404 -0.5046577 0.34780243 0.03233409 -0.103910826 0.06060361 0.34972906 -0.30133572 0.33194315 -0.79978454 0.11330609 0.28391188 -0.28997523
identidad -0.594777 -0.0019248711 0.6152211 0.32270247 -0.3296815 -0.0008359768 -0.3086141 -0.09773327 -0.054354895 0.0064473045 -0.2602334 0.5128267 0.07944339 0.24305424 0.62229335 -0.17651555 0.2289226 0.0719681 -0.4881194 0.325963 0.0445197 -0.099804476 0.06280356 0.37514693 -0.33937496 0.3539423 -0.8144191 0.2002663 0.2798967 -0.27708912
llegan -0.6173581 -0.05911146 0.66099405 0.32394227 -0.29934877 0.041343253 -0.38693532 -0.09505053 -0.07370589 0.041372865 -0.18776786 0.5364197 0.035419784 0.23639296 0.6475638 -0.21079166 0.17715962 0.11109013 -0.45850068 0.29778913 0.019737134 -0.063729644 0.09321742 0.35382953 -0.27830458 0.30433765 -0.82222784 0.19894889 0.29092455 -0.3091904
estacion -0.62945217 -0.058072258 0.63079745 0.36132857 -0.3499659 0.020236371 -0.38032025 -0.13157934 -0.09447836 0.027137972 -0.20832774 0.5581412 0.03979006 0.25435966 0.64469737 -0.22971524 0.21729499 0.096042156 -0.47995293 0.31690165 0.033604898 -0.06604532 0.062493153 0.3722201 -0.28906932 0.36126933 -0.7965019 0.19156076 0.29159862 -0.27202392
alimentacion -0.5874902 -0.0112229595 0.64523745 0.32596347 -0.3570491 0.013759885 -0.37622687 -0.013301628 -0.07035339 -0.007112308 -0.14901158 0.5687876 0.06039148 0.254898 0.6516947 -0.17699046 0.1744077 0.06982194 -0.4839915 0.28505525 0.0063624303 -0.052621983 0.12337325 0.34858057 -0.2510626 0.29146028 -0.8331084 0.1511395 0.26029438 -0.30299294
credito -0.6383526 0.044780273 0.6275102 0.39454237 -0.35118315 0.05461353 -0.3320271 -0.07454393 -0.08420831 0.009655335 -0.2609786 0.53305 0.11656731 0.2009134 0.6350927 -0.19593598 0.28503668 0.0501409 -0.48288155 0.34776577 0.036182284 -0.027494146 0.045906547 0.4150248 -0.37583366 0.37032637 -0.7693874 0.114440255 0.31782618 -0.3081132
juegos -0.6081912 -0.053469937 0.63106126 0.3396237 -0.3098491 0.024902198 -0.36172292 -0.123107925 -0.053236697 0.011309283 -0.1982504 0.5607979 0.059706427 0.2546712 0.60462296 -0.21352297 0.23106465 0.08808896 -0.49482265 0.32956225 0.05075092 -0.07121912 0.110949405 0.3562742 -0.2568239 0.36211514 -0.8232491 0.20080519 0.27290097 -0.2787183
bajas -0.58729815 -0.05012245 0.6247464 0.36309943 -0.3545603 -0.008749371 -0.3410851 -0.07690104 -0.056709435 -0.004610479 -0.17609157 0.58445793 0.040806662 0.27632728 0.61634064 -0.19749258 0.21462834 0.07418359 -0.50011235 0.31725505 0.027644636 -0.0754787 0.059652008 0.35768798 -0.29092303 0.3294879 -0.8155133 0.18199757 0.271939 -0.2818749
manejando -0.5584669 -0.041093446 0.6248505 0.34846678 -0.3301191 0.021519838 -0.37246126 -0.07850077 -0.045643978 0.007141319 -0.18934472 0.55169576 0.08333196 0.26730996 0.617709 -0.16639937 0.20662309 0.11485827 -0.47073847 0.29373562 0.050149467 -0.07782947 0.061728187 0.3819386 -0.25673074 0.32099178 -0.77396256 0.15195434 0.28074571 -0.2887619
alta -0.6184465 -0.037761748 0.63335955 0.34576514 -0.31608066 0.035807133 -0.35813427 -0.11855805 -0.08988545 -0.014448883 -0.1955085 0.58266765 0.08137628 0.27233332 0.65767646 -0.20414133 0.24674605 0.057357814 -0.4851101 0.3269682 0.03709243 -0.056231156 0.06622172 0.40664744 -0.26497355 0.3463182 -0.8118937 0.17995472 0.305196 -0.2976693
acto -0.5429602 -0.018993113 0.66279835 0.3288554 -0.31068102 0.029095666 -0.3620815 -0.098681025 -0.054486554 0.02334281 -0.18785423 0.537875 0.050669745 0.24789026 0.60716176 -0.19918099 0.1843569 0.09204396 -0.49030775 0.3112136 0.01884754 -0.09256687 0.08725004 0.39437056 -0.27993977 0.28289786 -0.82875293 0.19156672 0.3075086 -0.2864043
temas -0.58853316 -0.06689878 0.6346634 0.33565322 -0.3563819 -0.0011609641 -0.37788838 -0.1289697 -0.062253 0.037768055 -0.21226862 0.5576522 0.066724464 0.2580206 0.6095999 -0.18146192 0.20643117 0.10897306 -0.5285389 0.3401745 0.03628947 -0.059995852 0.08437281 0.3736114 -0.29372796 0.3663897 -0.8477101 0.1837397 0.30462068 -0.31977737
lleva -0.576195 -0.029194638 0.65399337 0.3545109 -0.3328877 0.007291891 -0.3719421 -0.11271754 -0.04467332 0.012010285 -0.18932314 0.55469626 0.08662416 0.2618632 0.61526096 -0.20995983 0.21709134 0.083197355 -0.49991733 0.334702 0.018581357 -0.07204265 0.087231636 0.35168907 -0.2611438 0.30586547 -0.8090093 0.14579177 0.29126504 -0.29707655
idea -0.56335735 -0.04810524 0.6671396 0.36310583 -0.37500006 0.06427843 -0.35659042 -0.12028956 -0.064807266 0.010763913 -0.18734582 0.5694848 0.08393369 0.24522947 0.6120013 -0.18292858 0.18849242 0.11248522 -0.495804 0.29297066 0.029933514 -0.084456086 0.061292995 0.41515315 -0.29751563 0.31708717 -0.8243697 0.16614194 0.30608195 -0.28864342
exito -0.5614493 -0.011028054 0.6309474 0.35670164 -0.3391776 0.0111745605 -0.33296686 -0.10026591 -0.07983463 0.048045646 -0.20613667 0.5392883 0.039845016 0.25848612 0.6266043 -0.15916544 0.22261712 0.102056496 -0.50236225 0.31967172 0.02453089 -0.09744259 0.09562647 0.38533553 -0.28501257 0.284236 -0.8248679 0.17578512 0.31638026 -0.3013884
momentos -0.601612 -0.0611921 0.64494497 0.3603871 -0.32605937 -0.016859453 -0.3825482 -0.10012364 -0.08329619 0.0070267394 -0.19754212 0.60022616 0.07624976 0.2751187 0.6277041 -0.23242463 0.24638395 0.098531574 -0.52798885 0.3277498 0.027451035 -0.081896976 0.048902128 0.36618066 -0.28709927 0.33480117 -0.8031004 0.15216129 0.32668453 -0.2796417
digame -0.5954301 -0.028672174 0.64564896 0.3608571 -0.32449898 -0.014647845 -0.32562786 -0.11199149 -0.08629955 0.025678966 -0.1794516 0.56883395 0.043207515 0.24319108 0.60103494 -0.20026818 0.20791219 0.08548083 -0.48738828 0.31425008 0.03313941 -0.07629046 0.09380826 0.38556433 -0.30697748 0.2905062 -0.8114387 0.1755371 0.31734258 -0.2807939
pasaria -0.61569107 -0.07662761 0.6586887 0.39771387 -0.35956588 0.032170024 -0.34921214 -0.12742554 -0.024937328 -0.012349508 -0.18925765 0.5389527 0.07707534 0.2401064 0.6569714 -0.1992259 0.20707065 0.07919079 -0.46922928 0.30728966 0.033006698 -0.061423622 0.061332628 0.3506426 -0.25924996 0.33800983 -0.82250303 0.17826611 0.31335217 -0.26187953
fondo -0.58455175 -0.047912456 0.6513734 0.33431098 -0.3290461 0.021906232 -0.3631573 -0.11951177 -0.06883319 -0.020930195 -0.21945037 0.5742293 0.045634985 0.26971748 0.6242249 -0.20749295 0.2409814 0.07775105 -0.49922037 0.3469352 0.027539039 -0.05747299 0.072782494 0.36381865 -0.3139365 0.33016354 -0.82043046 0.17298985 0.31946433 -0.28601122
escuche -0.5974 -0.0445914 0.6717008 0.34974337 -0.33779764 -0.008680462 -0.35976577 -0.13248585 -0.08519595 0.03576875 -0.18325613 0.556508 0.026833842 0.24712698 0.5867817 -0.20738861 0.20681903 0.12855299 -0.48942629 0.3152289 0.039327063 -0.053490944 0.049801324 0.385263 -0.29507586 0.34329522 -0.7936002 0.15731233 0.34243798 -0.25463927
sirve -0.60637325 -0.08530201 0.6329406 0.35409957 -0.3405826 0.0020505423 -0.37980986 -0.08209093 -0.09229766 0.0204182 -0.19422199 0.5716032 0.045980167 0.26325044 0.61893934 -0.221863 0.2337882 0.07222681 -0.51694024 0.31458396 -0.01352036 -0.09858828 0.03593301 0.3460138 -0.26806012 0.33403158 -0.82395905 0.16323522 0.27496636 -0.2906194
exactamente -0.57034546 -0.026467057 0.63211143 0.3444607 -0.34492138 -0.0048049656 -0.35315022 -0.07800774 -0.06431441 0.043854747 -0.18241142 0.5478731 0.04576664 0.2550581 0.5955334 -0.1722097 0.22710803 0.09888023 -0.4778089 0.323647 0.026298674 -0.06567421 0.061521664 0.38223425 -0.25198773 0.32818362 -0.79589486 0.17125401 0.29806566 -0.28086022
irse -0.6146319 -0.022926742 0.6795231 0.3432729 -0.31965423 0.030603107 -0.37622976 -0.107329965 -0.0558765 0.016510827 -0.18152834 0.5498666 0.08646546 0.22119252 0.6161817 -0.18358353 0.22588724 0.0998965 -0.51077056 0.32692116 -0.005577731 -0.082768925 0.08495815 0.37483826 -0.27851725 0.35909927 -0.79374415 0.15274855 0.32633594 -0.29299158
this -0.58630764 -0.039465874 0.65372753 0.33864647 -0.33698365 0.0062189456 -0.3576963 -0.105899125 -0.09267731 0.018502774 -0.22083545 0.6081199 0.053862847 0.24520022 0.66007954 -0.20753413 0.2154691 0.12140479 -0.52661896 0.32233772 0.017533574 -0.08879032 0.05542282 0.3859685 -0.28337932 0.34499037 -0.8518929 0.18080881 0.2721132 -0.28196672
tarjeta_credito -0.5664635 -0.02707862 0.634186 0.3607817 -0.3809128 0.017579487 -0.31384504 -0.13375409 -0.054759424 0.021614885 -0.2254647 0.5347336 0.050731882 0.2775617 0.56469333 -0.17674318 0.25501683 0.095595 -0.4606823 0.370111 0.013493544 -0.04838514 0.087032825 0.41254592 -0.3276907 0.36152247 -0.7941332 0.16710049 0.29385668 -0.29167986
poquito -0.5788048 -0.054625027 0.61395645 0.3233665 -0.36126995 0.00880547 -0.37901217 -0.11152367 -0.051162675 0.014234775 -0.21356472 0.5350347 0.06810018 0.2785919 0.6160508 -0.20054242 0.18790473 0.09513493 -0.5021266 0.31337953 -0.0016697845 -0.0894047 0.070578985 0.38010275 -0.27950916 0.31148186 -0.79753697 0.16552341 0.2665633 -0.28195313
electronico -0.5948401 -0.062673315 0.64563704 0.35044912 -0.33215705 0.011680767 -0.34255913 -0.11568238 -0.05602079 -0.007708343 -0.23785216 0.5406871 0.035890613 0.24325547 0.5924136 -0.1993475 0.20658284 0.059086908 -0.52341515 0.35353923 0.043206654 -0.035833783 0.10084282 0.38654232 -0.32891864 0.300995 -0.78166264 0.15324472 0.29359236 -0.28213996
categorias -0.59339356 -0.00850063 0.6203972 0.36633024 -0.3549964 0.01983553 -0.360039 -0.06831759 -0.10355544 -0.040534597 -0.17298621 0.5630627 0.048766002 0.28748608 0.6363856 -0.16716881 0.21926266 0.10516993 -0.50437754 0.31698516 0.023207733 -0.055328347 0.097213104 0.35218763 -0.28905475 0.34193945 -0.8219229 0.1462864 0.29063684 -0.2852273
menores -0.5670288 0.001151077 0.628957 0.33348188 -0.3280567 0.00096256996 -0.3730063 -0.10422399 -0.05733626 0.0073170955 -0.20848924 0.53762543 0.041748993 0.24033114 0.60944504 -0.16496754 0.19957143 0.07852391 -0.46319854 0.32752985 0.03450662 -0.088654205 0.081921875 0.37081915 -0.26380306 0.33527234 -0.8039061 0.1663205 0.29897958 -0.26919815
pedir -0.59941244 -0.04012649 0.6235732 0.36605904 -0.35924345 0.01965309 -0.33248082 -0.12967812 -0.047169715 -0.011434931 -0.20429048 0.555872 0.057530094 0.26432577 0.5768743 -0.20723525 0.25765187 0.12315382 -0.45987073 0.32667965 0.02890458 -0.04667119 0.11278601 0.40766537 -0.2721543 0.3122042 -0.7924631 0.17517824 0.31757984 -0.29137576
compra -0.6008152 -0.039100006 0.6743217 0.37537047 -0.34240615 -0.009051665 -0.3533539 -0.08049629 -0.09481688 0.012745026 -0.2124011 0.5883517 0.09378524 0.27061272 0.6307073 -0.20221284 0.23314483 0.10534678 -0.51284 0.31665236 0.006930116 -0.09282357 0.0769311 0.36815837 -0.287508 0.3529784 -0.8102702 0.16944636 0.3171037 -0.26370993
valores -0.59888744 -0.03348098 0.628059 0.3283122 -0.31355113 0.04837756 -0.35614055 -0.10476123 -0.093710266 -0.0057334574 -0.16372986 0.55028445 0.03930931 0.24779034 0.65905035 -0.18899313 0.18715475 0.12634918 -0.47898033 0.29993394 0.0027274515 -0.1099711 0.08482097 0.38243228 -0.27208135 0.2871944 -0.7901236 0.18498252 0.28446287 -0.25885427
producto -0.59628445 -0.06861897 0.62956107 0.35671023 -0.35271105 0.02643594 -0.37093353 -0.13405225 -0.06974022 -0.010160429 -0.18614866 0.5674291 0.047161445 0.22711349 0.6081669 -0.19523425 0.21893027 0.0849104 -0.52120423 0.30525404 0.036787994 -0.058368605 0.07089359 0.38889256 -0.2752744 0.345187 -0.7795154 0.1660186 0.30521214 -0.2764157
quedar -0.58645153 -0.041031558 0.67546016 0.40789196 -0.35186085 0.013420151 -0.36453447 -0.12109672 -0.058257684 0.016328936 -0.18112388 0.5952157 0.08771739 0.28343946 0.650512 -0.24448556 0.19527602 0.09983407 -0.5078648 0.3134779 0.04317792 -0.052783314 0.065143414 0.38121316 -0.24672206 0.35776368 -0.83966845 0.16288897 0.3134029 -0.298019
encuentro -0.62248677 -0.05324814 0.64602923 0.3424736 -0.35498494 0.0073261294 -0.37473726 -0.09494159 -0.08541425 0.0153163755 -0.21430248 0.565581 0.064028196 0.2678783 0.6097242 -0.16993661 0.22474992 0.086348996 -0.48805857 0.32635534 0.016444284 -0.09468788 0.08907122 0.3577806 -0.31239247 0.34488258 -0.78933084 0.19245286 0.3189571 -0.26728165
cotizar -0.5799339 -0.056000646 0.5906636 0.34198177 -0.30701458 0.008710288 -0.35677543 -0.09023554 -0.09228136 0.02531149 -0.19802615 0.56822395 0.066340275 0.26754922 0.62909234 -0.20293036 0.19563548 0.07778213 -0.5050627 0.31841192 0.03845223 -0.0830368 0.085298374 0.36775613 -0.25904194 0.3027322 -0.8004234 0.16334784 0.28457677 -0.2924402
dificil -0.5882386 -0.05070282 0.6639318 0.37491256 -0.31860918 -0.04559217 -0.35905635 -0.10295676 -0.05398737 -0.004007328 -0.22112054 0.5413565 0.048119284 0.23447333 0.57356215 -0.22552347 0.24954033 0.13663964 -0.49586436 0.3518623 0.020593058 -0.10693744 0.090729706 0.34830678 -0.27588767 0.35386625 -0.81748843 0.20447965 0.28378418 -0.27852795
ultima -0.5509535 -0.06507711 0.6261066 0.34952638 -0.33199468 -0.019450596 -0.33438918 -0.12162066 -0.08879929 0.0010279363 -0.21731776 0.5038397 0.063941285 0.2550438 0.58646643 -0.21536063 0.23345049 0.10066207 -0.47453922 0.29987124 0.036765367 -0.042923197 0.04400511 0.35550535 -0.26090547 0.34306383 -0.77525884 0.17915495 0.29095373 -0.25589558
natacion -0.6003263 -0.09473254 0.5973998 0.32182533 -0.33943722 0.057312865 -0.3881412 -0.08139691 -0.13757595 -0.05135075 -0.2402271 0.5686088 0.02752 0.2136724 0.6345867 -0.2629166 0.23628844 0.099922284 -0.5149076 0.33900052 -0.025945183 -0.091237724 -0.006622298 0.30608103 -0.3215838 0.3924666 -0.8402485 0.14067924 0.27582213 -0.32319364
zoologico -0.59942603 -0.013944848 0.6568481 0.366346 -0.3544377 0.036459006 -0.361509 -0.12844445 -0.048690483 0.02699106 -0.18389364 0.5357857 0.07591306 0.2604566 0.56955355 -0.16485605 0.20541222 0.13903384 -0.43888244 0.3330371 -0.032028407 -0.10289469 0.083769105 0.3704673 -0.2780128 0.32997134 -0.7954134 0.18277758 0.3083802 -0.26047933
disculpa -0.58056873 -0.03139772 0.6271968 0.35139513 -0.3439167 0.0018917782 -0.32232255 -0.096994705 -0.058984127 -0.008546815 -0.17342298 0.5579011 0.066623 0.27690443 0.6114907 -0.18746638 0.22647858 0.09061869 -0.49127257 0.3248626 0.026990518 -0.07583632 0.09536825 0.3604024 -0.25035727 0.33066 -0.7738221 0.17915393 0.28667718 -0.2572769
mensaje -0.620549 -0.07229621 0.6859278 0.38748536 -0.3503608 0.005199155 -0.34876752 -0.10167411 -0.06372212 0.026197277 -0.2120349 0.55579865 0.06681639 0.26890105 0.6592573 -0.19492997 0.20288888 0.06659273 -0.48404983 0.32233754 0.027451964 -0.051655855 0.041230727 0.37541887 -0.32158777 0.32620177 -0.81544983 0.1776876 0.27669033 -0.2647487
termino -0.58573693 -0.06986878 0.6425072 0.34691152 -0.34710702 -0.011886784 -0.33864397 -0.0930517 -0.061348617 0.030809797 -0.22452623 0.5698677 0.054107286 0.27482235 0.6265205 -0.2112535 0.22307493 0.1027525 -0.53579885 0.35857248 0.047596067 -0.09169553 0.083432734 0.39277372 -0.27725393 0.34590614 -0.80738664 0.18421498 0.3024599 -0.26843467
podia -0.63027424 -0.02746507 0.6541707 0.381534 -0.3355567 0.016379224 -0.3564301 -0.08115402 -0.07919218 -0.0080972975 -0.19682956 0.55023986 0.036717456 0.24837984 0.6315105 -0.20068243 0.25689363 0.09401325 -0.47469768 0.34597528 0.0049904375 -0.105224155 0.06297408 0.3896935 -0.27589908 0.35818222 -0.8079962 0.18746302 0.30456913 -0.3029681
obviamente -0.58406013 -0.050708957 0.6856908 0.3212456 -0.3311922 0.017023897 -0.34109804 -0.08854027 -0.09128781 0.0109980265 -0.17716709 0.5665517 0.06547561 0.27633584 0.62144476 -0.20458396 0.20920175 0.11219552 -0.4897107 0.3284957 0.02295334 -0.07211436 0.09483764 0.37947991 -0.26698118 0.33672655 -0.796527 0.17327593 0.30117092 -0.27228722
completo -0.6100475 -0.014058454 0.6615778 0.36122388 -0.3214076 0.021576896 -0.3340708 -0.10144242 -0.0767984 0.00084976724 -0.17930548 0.5551998 0.0586197 0.23304029 0.6083224 -0.18353677 0.2207703 0.06325329 -0.51705575 0.33433554 0.007911454 -0.04229201 0.13466977 0.3978546 -0.30174085 0.30263358 -0.82492226 0.20061587 0.32873178 -0.30153987
minimo -0.5564294 -0.040149942 0.6240258 0.3210021 -0.33686727 0.024154669 -0.36013117 -0.09204245 -0.069591455 0.01876964 -0.19876178 0.5592077 0.030848963 0.24372423 0.60044307 -0.17094181 0.20172614 0.09753325 -0.46732172 0.28408957 0.008015868 -0.07838236 0.087498054 0.36113948 -0.246199 0.3160113 -0.7744244 0.18303369 0.29938424 -0.29842618
saliendo -0.5549583 -0.011166497 0.7272515 0.296407 -0.31229746 0.103540406 -0.35319304 -0.02766181 -0.112108305 0.06367847 -0.12865247 0.60259324 0.16449028 0.36042777 0.5987854 -0.2000622 0.20553194 0.09782596 -0.5378709 0.29926002 0.030119512 -0.10757519 0.067933366 0.36093903 -0.1882591 0.28745353 -0.7555946 0.080139466 0.30315432 -0.23479788
inicio -0.6145925 -0.02012863 0.6458336 0.32383236 -0.32203555 -0.0011363728 -0.36625254 -0.059664115 -0.05737233 0.0013554096 -0.17642854 0.5475125 0.07105956 0.26992783 0.6344285 -0.20296009 0.21910945 0.09352051 -0.52029204 0.30887687 0.03945133 -0.05732999 0.09599186 0.40069765 -0.26942974 0.3079053 -0.79002273 0.21761559 0.3024397 -0.32238013
compre -0.6120606 -0.020918282 0.682625 0.3472469 -0.35425478 0.0032317876 -0.3688055 -0.09217369 -0.04174006 0.006961435 -0.20088707 0.5962824 0.063777715 0.2664391 0.6096343 -0.20340548 0.22301878 0.10637939 -0.5028927 0.34374082 0.033931494 -0.09046472 0.09006619 0.38140658 -0.2881538 0.32221127 -0.8203523 0.1674194 0.30402532 -0.27330896
oficina -0.5890641 -0.04559812 0.65483177 0.34100404 -0.32803583 -0.006817188 -0.36920366 -0.09849095 -0.059262153 0.026518948 -0.18330574 0.5089077 0.045330174 0.23655608 0.5655217 -0.19771813 0.2207132 0.10860815 -0.45845753 0.32616514 0.0330738 -0.094921075 0.058578145 0.34070417 -0.24732704 0.32212198 -0.81148154 0.1674834 0.25679907 -0.29152638
comunicar -0.5953005 -0.039542127 0.6485492 0.34973127 -0.32323498 0.034662202 -0.36573207 -0.07285544 -0.05198962 -0.011754113 -0.1884376 0.5479932 0.0877654 0.2570817 0.6197545 -0.21106698 0.21668205 0.106747925 -0.4876083 0.30381605 0.031418942 -0.035402283 0.10843377 0.3746941 -0.2732333 0.3266962 -0.80881006 0.18982103 0.3039771 -0.270878
efectivo -0.5982309 -0.017635994 0.6781346 0.36985257 -0.3425233 0.029704038 -0.34629446 -0.12102318 -0.076857224 0.011013464 -0.20524207 0.5754873 0.07636205 0.26149145 0.583921 -0.18976003 0.22201164 0.089152545 -0.4782801 0.31423405 0.029054102 -0.05041642 0.10542784 0.36622646 -0.27899137 0.33337638 -0.7983793 0.17035113 0.33116695 -0.29210582
salida -0.5970386 -0.06670543 0.6586288 0.36965433 -0.3079832 0.024115002 -0.36244076 -0.11809628 -0.042648245 -0.010898282 -0.16448157 0.5523274 0.05708535 0.24086796 0.62761533 -0.18713312 0.20802307 0.08534646 -0.4880149 0.30726945 0.036129534 -0.06871535 0.06659244 0.32422617 -0.25333166 0.30608547 -0.7947831 0.17973903 0.28469953 -0.24639605
numeros -0.6094272 -0.044119723 0.61258936 0.3485753 -0.3488519 0.016976688 -0.34484774 -0.11867767 -0.09401943 0.02812799 -0.20330577 0.5388121 0.04551144 0.22110242 0.6174549 -0.19647373 0.20505011 0.047983762 -0.49574807 0.31017292 0.018498702 -0.04288008 0.058977477 0.39565822 -0.32382274 0.35603186 -0.81323 0.16516031 0.28279957 -0.3110475
conozco -0.6057188 -0.0403797 0.6314021 0.34548137 -0.36746192 0.023201754 -0.33469963 -0.11622907 -0.060980655 0.03390585 -0.21318199 0.55683154 0.037558425 0.2451119 0.5958396 -0.205363 0.22607173 0.10903668 -0.4754265 0.29538336 0.015628956 -0.063008554 0.07947352 0.37036687 -0.27335158 0.35252807 -0.8339927 0.17446543 0.29719853 -0.25955006
nadie -0.6046649 -0.017672673 0.6548633 0.3493563 -0.32457295 -0.01281509 -0.3663102 -0.10389939 -0.08272087 -0.008810127 -0.20914395 0.53018624 0.0500552 0.2502793 0.6163216 -0.20045839 0.20551847 0.10653388 -0.50433546 0.34377787 0.0138376225 -0.07284014 0.07760261 0.37119865 -0.27892584 0.31839594 -0.81048864 0.18955354 0.31339553 -0.30813867
cotizantes -0.5474567 -0.07138514 0.6339406 0.31867838 -0.30579364 0.022329057 -0.3527669 -0.10299907 -0.10796855 -0.015965197 -0.22151138 0.5401378 0.06180686 0.282702 0.61441225 -0.17363586 0.19289468 0.09675769 -0.4725899 0.30935863 0.021419603 -0.11422302 0.10110692 0.35081455 -0.26105198 0.28187308 -0.7947466 0.21122922 0.28457645 -0.27763215
entrando -0.5677016 -0.05512627 0.6954004 0.32415342 -0.3259928 0.09602307 -0.34248635 -0.06896271 -0.121573895 0.03874939 -0.106607564 0.6249609 0.16011266 0.33619002 0.6590567 -0.19610919 0.1930405 0.05778264 -0.5610706 0.33513442 -0.0043540555 -0.06447482 0.088845916 0.3424482 -0.22431144 0.28745633 -0.79408485 0.082436055 0.34111223 -0.25942215
encuentran -0.58979815 -0.019048296 0.6477014 0.32396922 -0.30745694 0.022226177 -0.35848373 -0.120304964 -0.03682304 -0.0010889381 -0.18866642 0.5558868 0.049652684 0.25133425 0.596837 -0.18942438 0.18996517 0.07366232 -0.4838454 0.3018 0.02190276 -0.05852541 0.09971305 0.37188014 -0.27564102 0.32402566 -0.8307875 0.20079719 0.30259737 -0.30992913
servir -0.6045883 -0.06724829 0.6485401 0.3063829 -0.34198678 0.011125658 -0.36065114 -0.1089205 -0.06828209 0.0024634479 -0.20098414 0.5626086 0.07177906 0.24098869 0.5709582 -0.16912824 0.21807577 0.084276095 -0.47330925 0.29526234 0.038508207 -0.077098355 0.086713485 0.3318363 -0.28426972 0.29653218 -0.8104832 0.17758131 0.29648194 -0.2574782
abierto -0.574887 -0.030736456 0.67192614 0.33824128 -0.33088753 0.04735816 -0.37346178 -0.09602229 -0.05791052 0.028888712 -0.1765256 0.5390244 0.087189235 0.24952321 0.5857079 -0.17643464 0.23396486 0.07834956 -0.5170221 0.3071646 0.03572926 -0.05652055 0.08480386 0.39386097 -0.30109024 0.33550826 -0.804807 0.1887713 0.27667984 -0.2922239
asistir -0.59801865 0.049537625 0.6273375 0.31910327 -0.30698872 0.025556782 -0.3402902 -0.13118829 0.010262684 -0.028841302 -0.20332794 0.5142293 0.043184567 0.27051058 0.5811954 -0.17308787 0.23050402 0.09824455 -0.48327523 0.3356927 0.05117684 -0.053580575 0.15970369 0.4353777 -0.2961274 0.29099092 -0.8611105 0.19635482 0.31387806 -0.32875454
entrega -0.6068356 -0.029423479 0.65801024 0.33832705 -0.34181714 0.05418036 -0.38253567 -0.0680708 -0.04057765 0.0016547592 -0.19181721 0.57152015 0.09097066 0.2445499 0.6303761 -0.17976597 0.21540563 0.107440844 -0.4852907 0.3443806 0.0072370823 -0.06717925 0.08271408 0.3583371 -0.24985364 0.33805773 -0.8188148 0.18318544 0.31848443 -0.33458635
pagarlo -0.60018635 -0.022102516 0.63680816 0.33929837 -0.3729263 0.023584055 -0.35627767 -0.098586895 -0.099086374 0.036021147 -0.20742957 0.56289274 0.054503124 0.25910044 0.588271 -0.17740129 0.22124939 0.062644705 -0.47591037 0.311237 0.0207977 -0.033078756 0.06793026 0.37759826 -0.27974626 0.3295803 -0.8022943 0.18006353 0.29050702 -0.29146
registrar -0.60900086 -0.044672225 0.62466574 0.33003289 -0.31220323 0.0032155951 -0.35769656 -0.11850482 -0.066251345 0.017386196 -0.18265575 0.5966563 0.059355173 0.2254119 0.61245364 -0.20578271 0.25268507 0.07117214 -0.4717191 0.30871528 0.014320334 -0.08017174 0.089379616 0.33866605 -0.2853306 0.2961614 -0.82287824 0.17070715 0.272398 -0.28471503
llamars -0.62242943 -0.059829205 0.6804039 0.34415847 -0.34194598 0.014768586 -0.36366606 -0.124842785 -0.05947919 0.0012044694 -0.25878122 0.5566644 0.030105438 0.20477322 0.6051382 -0.15924445 0.20988609 0.09335995 -0.4964677 0.3339774 0.05530167 -0.102355786 0.08391906 0.35906377 -0.33523455 0.31824714 -0.8318196 0.20394233 0.28282717 -0.29385605
regalar -0.6079983 -0.040749624 0.62844944 0.34603357 -0.33876604 0.044250753 -0.33731672 -0.10497984 -0.07817985 0.009052879 -0.19771826 0.56425196 0.07937514 0.24958614 0.6436988 -0.21933685 0.18194634 0.08495762 -0.52740586 0.30373836 0.036816094 -0.07650134 0.043353718 0.3725907 -0.29853722 0.335463 -0.7931814 0.17826849 0.29395607 -0.2910582
gustaria -0.61173534 -0.054059952 0.6260584 0.36325428 -0.31143317 -0.016895391 -0.33996296 -0.11670114 -0.0918686 0.02507363 -0.18695454 0.5403475 0.09225598 0.23823737 0.6345885 -0.19963416 0.25229478 0.122543514 -0.51246643 0.33422053 0.024099 -0.08314973 0.07012828 0.3774507 -0.23647448 0.34505394 -0.8108972 0.15982883 0.3122922 -0.25437838
dijiste -0.57717746 -0.03980827 0.6092803 0.34413576 -0.320915 0.03396185 -0.34286237 -0.104669414 -0.08768972 0.020274736 -0.17536609 0.530926 0.0883908 0.27204126 0.6341525 -0.20402624 0.1905084 0.08036876 -0.4760248 0.31147236 0.006968918 -0.06243687 0.1017206 0.381799 -0.23830518 0.3078157 -0.801166 0.14518723 0.2975246 -0.2818446
situacion -0.6156046 -0.039198156 0.7005081 0.38754657 -0.36217245 0.03958388 -0.3635248 -0.10853513 -0.08089702 0.0021625662 -0.20109324 0.61908025 0.0625687 0.26056167 0.66157496 -0.19794473 0.22969663 0.070033945 -0.527459 0.33025086 0.044720665 -0.06044827 0.102443986 0.39587018 -0.2916528 0.3711519 -0.88745993 0.20383877 0.29538095 -0.32029667
senores -0.59323823 -0.021256499 0.67673653 0.33136407 -0.34692904 0.0055201305 -0.3799929 -0.07121976 -0.07266123 0.020375866 -0.18446292 0.55503654 0.038403116 0.24242148 0.6481955 -0.19081825 0.23782691 0.093318604 -0.50323415 0.32498538 -0.013225236 -0.09178907 0.090968266 0.36805314 -0.28313458 0.32878524 -0.8051466 0.16573444 0.3183771 -0.26514655
septiembre -0.60976714 -0.047764245 0.6259493 0.32953265 -0.3151003 -0.007833687 -0.37768516 -0.113693625 -0.10361518 0.030521117 -0.22667924 0.54332954 0.08612422 0.28928247 0.5966598 -0.18807565 0.19703752 0.10543357 -0.51870304 0.31778216 0.013838117 -0.06202936 0.09186366 0.39303857 -0.27787164 0.32212314 -0.8215114 0.19605207 0.29600242 -0.2618665
perdi -0.6062602 -0.049581274 0.6590536 0.35443673 -0.32522723 -0.0034825557 -0.37674227 -0.082483634 -0.06676128 -0.00295811 -0.17110012 0.58845335 0.07436165 0.253812 0.60869896 -0.1828477 0.20014726 0.08384831 -0.5216938 0.3282741 -0.018366372 -0.072774395 0.08461633 0.35815766 -0.31081963 0.35283777 -0.81420404 0.17666909 0.28185844 -0.28388608
perdio -0.58226943 -0.064711995 0.6328864 0.3474478 -0.32200396 0.0077375798 -0.3589143 -0.09910844 -0.05023189 -0.016551066 -0.20516342 0.57507867 0.04906877 0.254455 0.64997655 -0.19534837 0.19460599 0.09654152 -0.49155617 0.32059783 0.030928258 -0.07252228 0.082426116 0.3795236 -0.25983813 0.3417773 -0.7752466 0.19581464 0.3013169 -0.25957677
preguntarte -0.59213775 -0.064094365 0.6676158 0.38133037 -0.3370388 0.017820667 -0.34620622 -0.10616172 -0.05996543 -0.0007748425 -0.1976663 0.588496 0.063071996 0.25110048 0.6122256 -0.21106002 0.2187191 0.11754897 -0.49241933 0.30783033 0.03088549 -0.079312526 0.056379717 0.37020138 -0.25538662 0.31091872 -0.79752165 0.16981266 0.31850523 -0.29176113
pagaria -0.5961729 0.0022272165 0.6147228 0.36432806 -0.32926106 -0.013701879 -0.37776273 -0.09719055 -0.08845224 -0.009656622 -0.16635574 0.5669042 0.031701636 0.2928852 0.63003045 -0.20799595 0.205793 0.08441497 -0.44791922 0.31806058 0.022261426 -0.09538203 0.10417804 0.39546254 -0.2602528 0.35245955 -0.8263826 0.19398206 0.2963464 -0.28387207
seguros -0.61170554 -0.013462089 0.6677433 0.33530614 -0.33204547 0.03364927 -0.35778776 -0.08874788 -0.12823257 0.013575993 -0.1647091 0.60082895 0.06315754 0.21729288 0.62958056 -0.17166719 0.22260095 0.09813509 -0.45274857 0.2957804 0.08289428 -0.020106819 0.08859426 0.3412691 -0.19823647 0.36185414 -0.813907 0.1479077 0.30455482 -0.26575762
loco -0.5825698 -0.046795163 0.62751704 0.3351403 -0.34237623 0.009309304 -0.3477943 -0.09120673 -0.06685488 0.010071022 -0.16222388 0.58688265 0.054838203 0.24897264 0.6334571 -0.18857303 0.19810852 0.08335156 -0.50676966 0.34621647 -0.0026321819 -0.046659473 0.060877502 0.3500361 -0.2609779 0.34825912 -0.78970575 0.15762782 0.28288075 -0.28432804
parar -0.57899314 -0.044938345 0.62036985 0.31895897 -0.34216824 0.016150357 -0.35426137 -0.070918284 -0.09112029 0.008803831 -0.20226961 0.564608 0.048311546 0.23629658 0.5963619 -0.20997313 0.19217144 0.07259695 -0.46850702 0.29085052 0.031105103 -0.08896423 0.06388768 0.3704852 -0.24748331 0.296155 -0.8092038 0.16575906 0.29063866 -0.24438722
hicieron -0.5730764 -0.021725198 0.6493838 0.36470014 -0.36543953 0.012238621 -0.33283722 -0.11019111 -0.07004093 0.05150659 -0.19189358 0.5697829 0.06395667 0.26560867 0.6014834 -0.19389068 0.21629527 0.1312248 -0.5080581 0.3269389 0.0019352864 -0.075378805 0.06101593 0.37515613 -0.2629946 0.3457028 -0.82049924 0.18774754 0.30123627 -0.28153256
cancele -0.6048136 -0.012915828 0.6502003 0.32486835 -0.3305039 -0.006504935 -0.383408 -0.112838164 -0.067866094 -0.0069153276 -0.17502193 0.53248525 0.02834706 0.26080316 0.60333115 -0.18380716 0.22295909 0.07682071 -0.49888897 0.3082108 0.017935352 -0.056146666 0.0906839 0.3853937 -0.2747155 0.33987248 -0.7913211 0.16250382 0.29591984 -0.31871676
pendientes -0.59957975 -0.05595437 0.669549 0.3465171 -0.33354366 -0.031028371 -0.3563268 -0.07279165 -0.073236175 0.016947484 -0.2309361 0.5445645 0.077863134 0.24835522 0.5981633 -0.21462345 0.23441687 0.09098675 -0.47540525 0.32562578 0.039817233 -0.06649613 0.04888038 0.3785038 -0.30323845 0.3332366 -0.79002076 0.17943408 0.2624868 -0.28283617
invitados -0.5933283 -0.017620198 0.6582898 0.3195754 -0.32732007 0.034924433 -0.38202432 -0.08584646 -0.05138547 0.02318687 -0.1910544 0.5491145 0.09513395 0.25808948 0.6386364 -0.20890287 0.20870769 0.05912571 -0.48300844 0.30248034 0.020453172 -0.049728617 0.10452899 0.38332593 -0.23382233 0.32908973 -0.85228765 0.17054017 0.3056179 -0.28054002
interes -0.5886032 -0.067393824 0.66424876 0.36846572 -0.37440443 0.03430425 -0.37453645 -0.119759984 -0.105420746 0.0043132724 -0.20864746 0.58130836 0.078786045 0.24129446 0.6276733 -0.1990223 0.22834311 0.11382245 -0.49344113 0.30960557 0.018183203 -0.048390325 0.06416032 0.40001157 -0.2553874 0.3439257 -0.79822814 0.16211575 0.31787384 -0.32995662
desea -0.5875193 -0.023903241 0.6473042 0.36546737 -0.33000553 0.010376131 -0.3565985 -0.10224031 -0.053270638 -0.0054331534 -0.16847311 0.55523056 0.06479749 0.26531965 0.6205582 -0.16347769 0.22205767 0.12510811 -0.4667514 0.34504282 0.05391696 -0.05451182 0.0933291 0.38878226 -0.24714175 0.33000478 -0.78513217 0.15622342 0.29810616 -0.2802121
personaje -0.60154194 -0.0576004 0.61820614 0.3328035 -0.33005717 0.0010261884 -0.3769436 -0.11490922 -0.06092545 0.012213248 -0.21062735 0.560593 0.027677685 0.25290933 0.59718555 -0.21976745 0.21908441 0.10145311 -0.49773616 0.31458104 0.0050240257 -0.06449076 0.07389763 0.362661 -0.25360096 0.32931358 -0.82513106 0.1740216 0.2750628 -0.27762026
quede -0.5765741 -0.06716762 0.6561921 0.34484237 -0.33130473 0.0064085945 -0.33025315 -0.10345781 -0.085892364 0.008495629 -0.2095077 0.53319293 0.072900765 0.2420536 0.60582364 -0.18320172 0.20449238 0.10345193 -0.49329275 0.33676124 -0.0046632397 -0.05278296 0.06199089 0.3562416 -0.25109738 0.31692562 -0.799446 0.17639957 0.30864486 -0.26360944
deben -0.59546226 0.016684253 0.62957436 0.34444928 -0.3232542 0.023960957 -0.3133741 -0.107464634 -0.018802522 -0.008257289 -0.17820506 0.5186093 0.054394275 0.270484 0.6300954 -0.18328854 0.19218634 0.07112197 -0.46786627 0.34338003 0.032242954 -0.046674326 0.11940057 0.36905813 -0.27708456 0.34215203 -0.8339981 0.21279116 0.29690364 -0.33140978
cuentan -0.6077775 -0.0601266 0.6493952 0.33573765 -0.36035106 0.008483876 -0.37989476 -0.07616135 -0.0839646 -0.0036346344 -0.21822907 0.5576277 0.04129251 0.25705725 0.6383131 -0.21832599 0.18397611 0.12685487 -0.5156158 0.31860057 -0.01367466 -0.10149547 0.09363946 0.3715424 -0.3066373 0.31574726 -0.8023265 0.19732687 0.31680614 -0.26896328
creacion -0.5961073 -0.042710904 0.6775723 0.371086 -0.31539658 0.011912388 -0.35902762 -0.11866822 -0.034091365 -0.0022629192 -0.19880415 0.53928405 0.047706198 0.28388512 0.5776547 -0.19879602 0.20404048 0.115780726 -0.47066998 0.31917408 0.05131247 -0.06100299 0.11705755 0.39722627 -0.2805775 0.30152282 -0.7850595 0.15940899 0.28074265 -0.32536197
incluyen -0.62158847 -0.048624318 0.6794792 0.3764413 -0.35557404 0.037346214 -0.37028524 -0.09617776 -0.06523955 -0.0018663494 -0.18211234 0.56702316 0.07049988 0.2784828 0.65873784 -0.21689934 0.19243564 0.11289943 -0.48277754 0.29630518 -0.0033280265 -0.058710646 0.083970584 0.3563495 -0.26153576 0.31130746 -0.80114174 0.1576862 0.28028983 -0.2830183
habiles -0.6013643 0.0825953 0.6184031 0.32750612 -0.30700317 -0.0011291716 -0.30843818 -0.07732783 0.05112391 -0.015134418 -0.1902764 0.48568386 0.034272235 0.27814305 0.6338266 -0.17398357 0.23423432 0.07875414 -0.51386285 0.33777884 0.042188477 -0.048511025 0.18421641 0.3965994 -0.29987547 0.31272036 -0.8458163 0.25268075 0.29421175 -0.38039553
darle -0.585408 -0.06396032 0.6087694 0.30945104 -0.303692 0.016667813 -0.33643144 -0.119646996 -0.070174314 0.012574357 -0.19053605 0.56269515 0.079584986 0.24211502 0.5828097 -0.18491967 0.2136402 0.10239025 -0.47616777 0.3321041 0.011535161 -0.082545556 0.058517136 0.36574522 -0.28700206 0.35846603 -0.8003849 0.14781709 0.29176638 -0.28171384
quedan -0.5986322 -0.032991968 0.6388758 0.33287585 -0.3402382 0.029408505 -0.34221268 -0.11698128 -0.0545494 0.008929915 -0.19710808 0.5642201 0.05073359 0.23797737 0.60800296 -0.20283397 0.20865805 0.08861685 -0.47315967 0.29064077 0.041913636 -0.047302913 0.08465163 0.33453092 -0.25537902 0.34014672 -0.79031295 0.15180904 0.25990257 -0.2630939
hombres -0.6313992 -0.01601918 0.6598249 0.3693251 -0.33568227 -0.008574256 -0.35002652 -0.101368494 -0.08701689 0.03382607 -0.2013231 0.5468952 0.061612327 0.26101148 0.6336619 -0.1848942 0.18781535 0.06787038 -0.48332196 0.3434883 0.034473736 -0.058343455 0.08555217 0.3696057 -0.32608545 0.32557982 -0.86399984 0.19648224 0.30236438 -0.30934215
afiliar -0.5990185 -0.046489403 0.6051021 0.36387837 -0.35398477 -0.016787805 -0.3391016 -0.096005686 -0.06328537 -0.010793301 -0.21784604 0.5463306 0.052901257 0.25235698 0.6460294 -0.20600682 0.24712235 0.087470524 -0.46339956 0.334234 0.011204265 -0.07411162 0.0423043 0.3788527 -0.29013628 0.33772105 -0.79453486 0.18536846 0.33094802 -0.2746871
quieren -0.5991104 -0.04238608 0.6401423 0.36286438 -0.32014537 0.011017672 -0.33302745 -0.09561757 -0.064891696 0.017451102 -0.19679783 0.54291576 0.057049543 0.2527394 0.6031614 -0.20711736 0.22628522 0.0894216 -0.48033834 0.30831563 0.04796234 -0.06611451 0.0694503 0.37230617 -0.29062092 0.31190774 -0.80472976 0.17403558 0.30206618 -0.2914347
decirle -0.5922777 -0.039247625 0.63394713 0.32485253 -0.34621117 -0.0044713616 -0.38886464 -0.117050104 -0.06020956 -0.002868354 -0.17307846 0.5678349 0.03173158 0.24201809 0.66180253 -0.21635412 0.23498063 0.06879582 -0.51960146 0.3101753 0.03489076 -0.06281298 0.045413636 0.35787925 -0.26656163 0.35351115 -0.8357536 0.18536215 0.27801013 -0.3054798
club -0.60031897 -0.039652877 0.61157936 0.33492863 -0.3403668 0.0066996617 -0.33485338 -0.107355066 -0.049680624 0.014992082 -0.19773771 0.56377435 0.05495272 0.2655627 0.5965286 -0.17702752 0.19439134 0.09167748 -0.48422223 0.3384943 0.032983452 -0.07674305 0.056973144 0.36215243 -0.26468772 0.32764387 -0.8207419 0.17149211 0.32033733 -0.30536076
opciones -0.5849876 -0.022345405 0.6748426 0.36763927 -0.34019127 0.059853677 -0.3608825 -0.0663566 -0.108728945 0.039415963 -0.14485599 0.5440257 0.10278113 0.27618828 0.6624856 -0.1883771 0.23168346 0.108187124 -0.49761704 0.2973514 -0.0023467715 -0.0712275 0.06796635 0.33614787 -0.25741354 0.32634538 -0.7968134 0.1441695 0.3221326 -0.24370772
enviar -0.5881032 -0.059786808 0.68103045 0.35032305 -0.32788748 0.012267658 -0.35197082 -0.116111904 -0.0827174 0.003833517 -0.17769083 0.56453544 0.064404026 0.2764652 0.6428335 -0.19822033 0.21899402 0.11037061 -0.51740706 0.32032952 0.033795778 -0.06730764 0.09256589 0.39826608 -0.3025518 0.32741702 -0.8223423 0.185948 0.29608652 -0.31035903
tranquila -0.59359074 -0.05059699 0.6386188 0.3512267 -0.32748675 -0.0031478917 -0.37992936 -0.08932016 -0.06416384 0.009650904 -0.19677252 0.59370667 0.0654754 0.24347001 0.6432475 -0.20694281 0.24001858 0.063370176 -0.50218946 0.36205497 0.035555456 -0.06273732 0.085928164 0.34251165 -0.31008625 0.32966146 -0.80058527 0.18834402 0.2889577 -0.31856313
seguir -0.6050216 -0.07007905 0.7067162 0.376108 -0.35975468 0.05163306 -0.3502431 -0.085271776 -0.051650226 0.036435872 -0.17946622 0.6229285 0.08219117 0.2570897 0.6275093 -0.20693405 0.2097448 0.10951416 -0.52256596 0.31921533 0.044673517 -0.08381632 0.06474329 0.3675869 -0.2680445 0.3030735 -0.82630897 0.1506729 0.29832807 -0.28432113
actual -0.57023734 -0.04734076 0.6524724 0.33902282 -0.32608125 0.02467217 -0.34984154 -0.0949239 -0.08850339 0.0020405247 -0.19770782 0.5471266 0.057000242 0.25933492 0.6176295 -0.1851451 0.20508797 0.091134064 -0.5020425 0.28869054 0.030186152 -0.081755355 0.06582373 0.36649165 -0.25028825 0.28864408 -0.7631129 0.16377126 0.3029388 -0.2785371
segundito -0.6025071 -0.040813193 0.6841987 0.39756858 -0.32285374 -0.001235938 -0.34520358 -0.122246206 -0.11452601 -0.008707535 -0.21417153 0.5645804 0.05282203 0.26716426 0.66410965 -0.2085433 0.25522524 0.10945601 -0.4852435 0.34385362 -0.009887867 -0.08306683 0.053166687 0.34536397 -0.29972044 0.36039892 -0.81206375 0.16107196 0.3095348 -0.2767124
codigos -0.63857305 -0.053484607 0.6340092 0.31701407 -0.3209391 -0.011474954 -0.35145003 -0.11905262 -0.04691351 0.027584251 -0.23023215 0.56277776 0.042817336 0.2368918 0.60420805 -0.16467167 0.2445548 0.10675278 -0.49588665 0.3476337 0.018598258 -0.081432134 0.086934544 0.3995386 -0.32305276 0.36206564 -0.8316602 0.17919868 0.32042485 -0.31125847
diseno -0.5947638 -0.056234244 0.62173617 0.3546898 -0.31414858 -0.022115102 -0.37357625 -0.09536965 -0.097231984 -0.0011943972 -0.21734814 0.54315937 0.052327532 0.25009724 0.6369001 -0.20580016 0.2048504 0.10237247 -0.48699042 0.32916754 0.024001004 -0.093588986 0.06322458 0.3601829 -0.30351678 0.32169056 -0.79425067 0.16663533 0.28979975 -0.293072
busca -0.5956018 -0.060901932 0.6373431 0.3265202 -0.32423785 0.015189983 -0.34843642 -0.119141355 -0.096185826 0.0020646313 -0.18178993 0.5525283 0.05015905 0.26062375 0.6135107 -0.16664724 0.21360728 0.08758679 -0.5117378 0.34779453 0.023331858 -0.072092675 0.059884414 0.39296174 -0.25538823 0.36705127 -0.83152544 0.15934744 0.32247218 -0.28671092
edicion -0.57311827 -0.06892092 0.6110908 0.33946335 -0.3458605 0.0066701206 -0.3360607 -0.11708783 -0.08411024 0.03223987 -0.22900476 0.57215506 0.04562655 0.23746742 0.608898 -0.18205622 0.22791998 0.077548064 -0.5256468 0.3443965 0.026184602 -0.057604607 0.059059918 0.39360994 -0.2910715 0.32465488 -0.8122677 0.17967305 0.29019687 -0.2995
contestan -0.5780167 -0.06679847 0.6674462 0.36844298 -0.36672074 0.0035348365 -0.34050494 -0.12424301 -0.050897647 0.017342117 -0.208416 0.52787304 0.06352722 0.26669854 0.5982303 -0.20866616 0.24014452 0.08783307 -0.50899464 0.37525913 -0.0029068042 -0.039860256 0.06003474 0.36616057 -0.3112332 0.358892 -0.7924275 0.17442116 0.3269073 -0.29133528
hagamos -0.6110534 -0.043454483 0.5983028 0.36476257 -0.30545712 -0.032708544 -0.3408669 -0.11782771 -0.07803656 -0.021496454 -0.21710196 0.5790641 0.009281627 0.2970281 0.62623584 -0.1802952 0.21517202 0.12478919 -0.5013699 0.3120829 0.033419583 -0.056834534 0.056522228 0.4016464 -0.26654485 0.3255966 -0.8333131 0.19223775 0.30595216 -0.28170744
temporada_alta -0.58802485 -0.07335321 0.5882339 0.35483006 -0.30380055 0.006172652 -0.32371014 -0.09615778 -0.09337226 0.01027685 -0.15134051 0.5738686 0.032310132 0.2777084 0.63727105 -0.19871034 0.20668831 0.04808898 -0.52664465 0.3016792 0.021024896 -0.030642636 0.072463006 0.3355769 -0.284097 0.2812004 -0.7733664 0.1911162 0.30782086 -0.26198307
incluyo -0.5927819 -0.06423708 0.6271741 0.35381728 -0.33510593 0.0066150543 -0.37823895 -0.08906413 -0.06256134 0.031464197 -0.18622231 0.5725129 0.03880156 0.2646304 0.622329 -0.19862685 0.19475365 0.07120801 -0.472529 0.33036974 0.040062144 -0.052135386 0.09056782 0.35661963 -0.2705903 0.30972338 -0.78734255 0.18326509 0.26387656 -0.2708047
vision -0.6206594 -0.029397987 0.68547076 0.34626403 -0.3606404 0.045021445 -0.37400118 -0.087608226 -0.107668765 0.018900748 -0.1936012 0.59434426 0.06011606 0.24117702 0.60689145 -0.17272364 0.20458245 0.1362988 -0.5015254 0.28938445 0.02102197 -0.09514699 0.064400256 0.39633504 -0.30264723 0.3074398 -0.80676603 0.15436898 0.30478942 -0.28303847
nuevos -0.6102354 -0.069271885 0.6396098 0.35593283 -0.36292887 0.02739132 -0.36723408 -0.10712008 -0.07140136 0.03230963 -0.20514911 0.5456156 0.07327675 0.27694523 0.6012197 -0.19845285 0.22902918 0.101388045 -0.5060942 0.31261554 -0.0018562763 -0.055311814 0.050428 0.3456172 -0.2815584 0.34529817 -0.80892074 0.18136035 0.30560797 -0.29049626
sitio -0.5857544 -0.03620222 0.6463834 0.32101244 -0.3086678 -0.010212274 -0.36651084 -0.1072801 -0.04716483 -0.008538893 -0.19087273 0.5466356 0.017487012 0.2709807 0.57545125 -0.16778325 0.19472891 0.08561643 -0.43295836 0.31114087 0.033413395 -0.096946724 0.08517579 0.3724996 -0.28301334 0.2919582 -0.8251665 0.14673318 0.26279306 -0.28282356
depende -0.6109289 -0.026654456 0.6347073 0.3647748 -0.35136274 -0.024567567 -0.38233617 -0.10781014 -0.054474168 -0.0012785797 -0.15987782 0.5890075 0.03398721 0.2868955 0.6304369 -0.18295586 0.25255683 0.080416024 -0.4964887 0.29941267 0.044631116 -0.027956445 0.05557616 0.38580135 -0.2532632 0.31780437 -0.86374867 0.15432498 0.3028617 -0.30289155
cobro -0.5828536 0.026901789 0.6314586 0.31231296 -0.32059515 0.07281466 -0.3739057 -0.03798924 -0.04730223 -0.020068442 -0.13681094 0.53431255 0.07344204 0.2995221 0.612625 -0.17167342 0.15843083 0.06325727 -0.46630865 0.29341096 0.00609141 -0.026614549 0.113293014 0.37146434 -0.22468422 0.31674406 -0.83879143 0.1630374 0.31645632 -0.31010848
invitado -0.5970044 0.010692964 0.64700013 0.304874 -0.31510544 0.05176805 -0.34572634 -0.042677637 -0.07802272 -0.005089249 -0.1370327 0.5453107 0.081614874 0.27577212 0.6104212 -0.1933809 0.20508984 0.05433114 -0.48247516 0.3094219 0.00640717 -0.07229743 0.10278899 0.36828792 -0.24472551 0.30794877 -0.82499486 0.13065283 0.3141087 -0.29909307
esperate -0.58120215 -0.023926033 0.6610615 0.3321647 -0.3176298 0.017459767 -0.3730613 -0.09288064 -0.061474524 0.017772 -0.16487351 0.57807106 0.12195116 0.3142908 0.6581579 -0.18049635 0.19737612 0.07200025 -0.50357664 0.33654857 0.032450594 -0.07260268 0.094806135 0.36084747 -0.2651615 0.32456633 -0.7655685 0.13820261 0.31255975 -0.2695332
acerca -0.6161869 -0.05482533 0.6479406 0.37149063 -0.3384964 -0.009210026 -0.37481478 -0.09536902 -0.07847522 -0.024442272 -0.18827 0.5350997 0.07664837 0.2273929 0.63625574 -0.20434357 0.23614223 0.104799815 -0.49229842 0.32724604 0.037839524 -0.055610023 0.040310748 0.36815077 -0.30197468 0.36215374 -0.7874662 0.15612438 0.3005845 -0.2751273
disculpe -0.5702441 -0.04286637 0.647149 0.3481417 -0.3015672 -0.010157739 -0.34865487 -0.088108614 -0.0634218 0.019359604 -0.18309125 0.5374482 0.02718797 0.25588852 0.588767 -0.21304278 0.20435768 0.11064325 -0.4838552 0.29323286 0.031620767 -0.05868326 0.0744876 0.35767007 -0.26638782 0.34640703 -0.80835384 0.15417144 0.28736266 -0.26012102
permite -0.6182585 -0.010877799 0.6172377 0.33991882 -0.30800357 -0.012007229 -0.3449603 -0.09489426 -0.07479668 -0.01705469 -0.19338034 0.5597756 0.059628457 0.23142289 0.5932223 -0.15834127 0.20996402 0.072659925 -0.54164255 0.31340522 0.064272985 -0.06640135 0.11353795 0.41973668 -0.32045662 0.33898273 -0.83676666 0.21241382 0.30732113 -0.3295332
reservado -0.5639146 -0.0493457 0.6263378 0.34334722 -0.3152892 0.020688929 -0.36760575 -0.122627884 -0.053737987 0.015995895 -0.17414449 0.5595143 0.084762014 0.24596636 0.6018736 -0.1676748 0.22262436 0.112183526 -0.48712996 0.2976721 0.026129076 -0.05636332 0.08905808 0.38217136 -0.2841269 0.32594934 -0.82353675 0.16542114 0.29166254 -0.2941291
incluido -0.57917327 -0.02246842 0.6293173 0.33268481 -0.29641023 0.0015583852 -0.3777454 -0.05844409 -0.09452086 -0.0044244598 -0.16456214 0.5769588 0.041712083 0.23939738 0.6369397 -0.17691927 0.19624017 0.072388485 -0.4555568 0.30527827 0.018017167 -0.060988687 0.090602584 0.3239909 -0.22436896 0.31497067 -0.8082677 0.15609135 0.26888645 -0.29146108
adicionales -0.56434727 -0.006056861 0.5812117 0.30509928 -0.3302736 0.020846847 -0.36905295 -0.09659674 -0.068449676 0.00025910474 -0.16115747 0.533122 0.066972755 0.25772032 0.6072468 -0.18207662 0.20820919 0.052864198 -0.44850647 0.28906193 0.0012288236 -0.052247193 0.11453098 0.37934244 -0.28096786 0.31138209 -0.7785926 0.1600701 0.30059862 -0.30913192
sede -0.59132165 -0.037259858 0.6970646 0.35614797 -0.3802585 -0.0067323996 -0.35577968 -0.08193388 -0.07135691 0.028715659 -0.18379681 0.5897982 0.035276577 0.25418547 0.6196767 -0.21518864 0.21234336 0.13251893 -0.4934469 0.31528834 0.041456196 -0.084886834 0.09401225 0.3727929 -0.28449985 0.30046758 -0.840773 0.1535252 0.35554913 -0.26491818
cuentame -0.59739614 -0.066844024 0.6642451 0.3924176 -0.32268533 -0.026361423 -0.41157597 -0.11393788 -0.12158702 -0.0046005314 -0.17314786 0.59704137 0.106232375 0.26453844 0.59408814 -0.14317584 0.2162684 0.1608422 -0.5462158 0.3209793 -0.04967235 -0.09907098 0.057901055 0.3138924 -0.34250602 0.4047374 -0.8422753 0.14521968 0.27632493 -0.27691257
hondo -0.60742503 -0.05782181 0.61366296 0.34250623 -0.329979 0.049353406 -0.37219614 -0.085939646 -0.12234092 -0.0017420427 -0.20869926 0.5668702 0.058682237 0.2128297 0.6066367 -0.24731024 0.24778634 0.057383865 -0.5010768 0.30781868 -0.00818524 -0.04039644 0.0003592938 0.31297258 -0.2988665 0.40189564 -0.8421502 0.14809535 0.30743292 -0.29992792
llamar -0.6094475 -0.05463506 0.65121794 0.35968724 -0.33602703 0.032619048 -0.35713077 -0.10649011 -0.04394205 -0.0063441833 -0.18732908 0.54164803 0.07221556 0.27708757 0.62327373 -0.1687683 0.20339288 0.07840681 -0.50001687 0.3185869 0.0071450747 -0.07038025 0.07146657 0.35710487 -0.2900771 0.32753047 -0.80422 0.189944 0.2784527 -0.27361444
cotizante -0.59217954 -0.048925936 0.65125 0.31146416 -0.32142094 0.0082100555 -0.33504426 -0.10564187 -0.101868436 -0.011109362 -0.17766656 0.56681836 0.07211903 0.2551831 0.5884286 -0.16395356 0.21178739 0.08105776 -0.4739499 0.3268414 0.00499896 -0.082312025 0.07159013 0.36638376 -0.25685787 0.29895663 -0.7817314 0.18130851 0.28498787 -0.26261327
